1	-10	-0.026	8e-05	0	-10	-0.026	8e-05	0
2	-10	-0.025	8e-05	0	-10	-0.025	8e-05	0
3	-10	-0.024	8e-05	0	-10	-0.024	8e-05	0
4	-10	-0.023	8e-05	0	-10	-0.023	8e-05	0
5	-10	-0.022	8e-05	0	-10	-0.022	8e-05	0
6	-10	-0.021	6e-05	0	-10	-0.021	6e-05	0
7	-10	-0.021	8e-05	0	-10	-0.021	8e-05	0
8	-10	-0.02	6e-05	0	-10	-0.02	6e-05	0
9	-10	-0.02	8e-05	0	-10	-0.02	8e-05	0
10	-10	-0.019	6e-05	0	-10	-0.019	6e-05	0
11	-10	-0.019	8e-05	0	-10	-0.019	8e-05	0
12	-10	-0.018	6e-05	0	-10	-0.018	6e-05	0
13	-10	-0.018	8e-05	0	-10	-0.018	8e-05	0
14	-10	-0.017	4e-05	0	-10	-0.017	4e-05	0
15	-10	-0.017	6e-05	0	-10	-0.017	6e-05	0
16	-10	-0.017	8e-05	0	-10	-0.017	8e-05	0
17	-10	-0.016	4e-05	0	-10	-0.016	4e-05	0
18	-10	-0.016	6e-05	0	-10	-0.016	6e-05	0
19	-10	-0.015	4e-05	0	-10	-0.015	4e-05	0
20	-10	-0.015	6e-05	0	-10	-0.015	6e-05	0
21	-10	-0.014	4e-05	0	-10	-0.014	4e-05	0
22	-10	-0.014	6e-05	0	-10	-0.014	6e-05	0
23	-10	-0.013	4e-05	0	-10	-0.013	4e-05	0
24	-10	-0.013	6e-05	0	-10	-0.013	6e-05	0
25	-10	-0.012	2e-05	0	-10	-0.012	2e-05	0
26	-10	-0.012	4e-05	0	-10	-0.012	4e-05	0
27	-10	-0.012	6e-05	0	-10	-0.012	6e-05	0
28	-10	-0.011	2e-05	0	-10	-0.011	2e-05	0
29	-10	-0.011	4e-05	0	-10	-0.011	4e-05	0
30	-10	-0.011	6e-05	0	-10	-0.011	6e-05	0
31	-10	-0.01	2e-05	0	-10	-0.01	2e-05	0
32	-10	-0.01	4e-05	0	-10	-0.01	4e-05	0
33	-10	-0.01	6e-05	0	-10	-0.01	6e-05	0
34	-10	-0.009	2e-05	0	-10	-0.009	2e-05	0
35	-10	-0.009	4e-05	0	-10	-0.009	4e-05	0
36	-10	-0.009	6e-05	0	-10	-0.009	6e-05	0
37	-10	-0.008	2e-05	0	-10	-0.008	2e-05	0
38	-10	-0.008	4e-05	0	-10	-0.008	4e-05	0
39	-10	-0.008	6e-05	0	-10	-0.008	6e-05	0
40	-10	-0.007	0	0	-10	-0.007	0	0
41	-10	-0.007	2e-05	0	-10	-0.007	2e-05	0
42	-10	-0.007	4e-05	0	-10	-0.007	4e-05	0
43	-10	-0.007	6e-05	0	-10	-0.007	6e-05	0
44	-10	-0.006	0	0	-10	-0.006	0	0
45	-10	-0.006	2e-05	0	-10	-0.006	2e-05	0
46	-10	-0.006	4e-05	0	-10	-0.006	4e-05	0
47	-10	-0.006	6e-05	0	-10	-0.006	6e-05	0
48	-10	-0.005	0	0	-10	-0.005	0	0
49	-10	-0.005	2e-05	0	-10	-0.005	2e-05	0
50	-10	-0.005	4e-05	0	-10	-0.005	4e-05	0
51	-10	-0.005	6e-05	0	-10	-0.005	6e-05	0
52	-10	-0.004	0	0	-10	-0.004	0	0
53	-10	-0.004	2e-05	0	-10	-0.004	2e-05	0
54	-10	-0.004	4e-05	0	-10	-0.004	4e-05	0
55	-10	-0.004	6e-05	0	-10	-0.004	6e-05	0
56	-10	-0.003	0	0	-10	-0.003	0	0
57	-10	-0.003	2e-05	0	-10	-0.003	2e-05	0
58	-10	-0.003	4e-05	0	-10	-0.003	4e-05	0
59	-10	-0.003	6e-05	0	-10	-0.003	6e-05	0
60	-10	-0.002	0	0	-10	-0.002	0	0
61	-10	-0.002	2e-05	0	-10	-0.002	2e-05	0
62	-10	-0.002	4e-05	0	-10	-0.002	4e-05	0
63	-10	-0.002	6e-05	0	-10	-0.002	6e-05	0
64	-10	-0.001	0	0	-10	-0.001	0	0
65	-10	-0.001	2e-05	0	-10	-0.001	2e-05	0
66	-10	-0.001	4e-05	0	-10	-0.001	4e-05	0
67	-10	-0.001	6e-05	0	-10	-0.001	6e-05	0
68	-10	0	0	0	-10	0	0	0
69	-10	0	2e-05	0	-10	0	2e-05	0
70	-10	0	4e-05	0	-10	0	4e-05	0
71	-10	0.001	-2e-05	0	-10	0.001	-2e-05	0
72	-10	0.001	0	0	-10	0.001	0	0
73	-10	0.001	2e-05	0	-10	0.001	2e-05	0
74	-10	0.001	4e-05	0	-10	0.001	4e-05	0
75	-10	0.002	-2e-05	0	-10	0.002	-2e-05	0
76	-10	0.002	0	0	-10	0.002	0	0
77	-10	0.002	2e-05	0	-10	0.002	2e-05	0
78	-10	0.002	4e-05	0	-10	0.002	4e-05	0
79	-10	0.003	-2e-05	0	-10	0.003	-2e-05	0
80	-10	0.003	0	0	-10	0.003	0	0
81	-10	0.003	2e-05	0	-10	0.003	2e-05	0
82	-10	0.003	4e-05	0	-10	0.003	4e-05	0
83	-10	0.004	-2e-05	0	-10	0.004	-2e-05	0
84	-10	0.004	0	0	-10	0.004	0	0
85	-10	0.004	2e-05	0	-10	0.004	2e-05	0
86	-10	0.004	4e-05	0	-10	0.004	4e-05	0
87	-10	0.005	-2e-05	0	-10	0.005	-2e-05	0
88	-10	0.005	0	0	-10	0.005	0	0
89	-10	0.005	2e-05	0	-10	0.005	2e-05	0
90	-10	0.005	4e-05	0	-10	0.005	4e-05	0
91	-10	0.006	-2e-05	0	-10	0.006	-2e-05	0
92	-10	0.006	0	0	-10	0.006	0	0
93	-10	0.006	2e-05	0	-10	0.006	2e-05	0
94	-10	0.006	4e-05	0	-10	0.006	4e-05	0
95	-10	0.007	-2e-05	0	-10	0.007	-2e-05	0
96	-10	0.007	0	0	-10	0.007	0	0
97	-10	0.007	2e-05	0	-10	0.007	2e-05	0
98	-10	0.007	4e-05	0	-10	0.007	4e-05	0
99	-10	0.008	-2e-05	0	-10	0.008	-2e-05	0
100	-10	0.008	0	0	-10	0.008	0	0
101	-10	0.008	2e-05	0	-10	0.008	2e-05	0
102	-10	0.008	4e-05	0	-10	0.008	4e-05	0
103	-10	0.009	-2e-05	0	-10	0.009	-2e-05	0
104	-10	0.009	0	0	-10	0.009	0	0
105	-10	0.009	2e-05	0	-10	0.009	2e-05	0
106	-10	0.009	4e-05	0	-10	0.009	4e-05	0
107	-10	0.01	-2e-05	0	-10	0.01	-2e-05	0
108	-10	0.01	0	0	-10	0.01	0	0
109	-10	0.01	2e-05	0	-10	0.01	2e-05	0
110	-10	0.01	4e-05	0	-10	0.01	4e-05	0
111	-10	0.011	-2e-05	0	-10	0.011	-2e-05	0
112	-10	0.011	0	0	-10	0.011	0	0
113	-10	0.011	2e-05	0	-10	0.011	2e-05	0
114	-10	0.011	4e-05	0	-10	0.011	4e-05	0
115	-10	0.012	-2e-05	0	-10	0.012	-2e-05	0
116	-10	0.012	0	0	-10	0.012	0	0
117	-10	0.012	2e-05	0	-10	0.012	2e-05	0
118	-10	0.012	4e-05	0	-10	0.012	4e-05	0
119	-10	0.013	-2e-05	0	-10	0.013	-2e-05	0
120	-10	0.013	0	0	-10	0.013	0	0
121	-10	0.013	2e-05	0	-10	0.013	2e-05	0
122	-10	0.013	4e-05	0	-10	0.013	4e-05	0
123	-10	0.014	-4e-05	0	-10	0.014	-4e-05	0
124	-10	0.014	-2e-05	0	-10	0.014	-2e-05	0
125	-10	0.014	0	0	-10	0.014	0	0
126	-10	0.014	2e-05	0	-10	0.014	2e-05	0
127	-10	0.014	4e-05	0	-10	0.014	4e-05	0
128	-10	0.015	-4e-05	0	-10	0.015	-4e-05	0
129	-10	0.015	-2e-05	0	-10	0.015	-2e-05	0
130	-10	0.015	0	0	-10	0.015	0	0
131	-10	0.015	2e-05	0	-10	0.015	2e-05	0
132	-10	0.015	4e-05	0	-10	0.015	4e-05	0
133	-10	0.016	-4e-05	0	-10	0.016	-4e-05	0
134	-10	0.016	-2e-05	0	-10	0.016	-2e-05	0
135	-10	0.016	0	0	-10	0.016	0	0
136	-10	0.016	2e-05	0	-10	0.016	2e-05	0
137	-10	0.017	-4e-05	0	-10	0.017	-4e-05	0
138	-10	0.017	-2e-05	0	-10	0.017	-2e-05	0
139	-10	0.017	0	0	-10	0.017	0	0
140	-10	0.017	2e-05	0	-10	0.017	2e-05	0
141	-10	0.018	-4e-05	0	-10	0.018	-4e-05	0
142	-10	0.018	-2e-05	0	-10	0.018	-2e-05	0
143	-10	0.018	0	0	-10	0.018	0	0
144	-10	0.018	2e-05	0	-10	0.018	2e-05	0
145	-10	0.019	-4e-05	0	-10	0.019	-4e-05	0
146	-10	0.019	-2e-05	0	-10	0.019	-2e-05	0
147	-10	0.019	0	0	-10	0.019	0	0
148	-10	0.019	2e-05	0	-10	0.019	2e-05	0
149	-10	0.02	-4e-05	0	-10	0.02	-4e-05	0
150	-10	0.02	-2e-05	0	-10	0.02	-2e-05	0
151	-10	0.02	0	0	-10	0.02	0	0
152	-10	0.02	2e-05	0	-10	0.02	2e-05	0
153	-10	0.021	-4e-05	0	-10	0.021	-4e-05	0
154	-10	0.021	-2e-05	0	-10	0.021	-2e-05	0
155	-10	0.021	0	0	-10	0.021	0	0
156	-10	0.021	2e-05	0	-10	0.021	2e-05	0
157	-10	0.022	-4e-05	0	-10	0.022	-4e-05	0
158	-10	0.022	-2e-05	0	-10	0.022	-2e-05	0
159	-10	0.022	0	0	-10	0.022	0	0
160	-10	0.022	2e-05	0	-10	0.022	2e-05	0
161	-10	0.023	-4e-05	0	-10	0.023	-4e-05	0
162	-10	0.023	-2e-05	0	-10	0.023	-2e-05	0
163	-10	0.023	0	0	-10	0.023	0	0
164	-10	0.023	2e-05	0	-10	0.023	2e-05	0
165	-10	0.024	-4e-05	0	-10	0.024	-4e-05	0
166	-10	0.024	-2e-05	0	-10	0.024	-2e-05	0
167	-10	0.024	0	0	-10	0.024	0	0
168	-10	0.024	2e-05	0	-10	0.024	2e-05	0
169	-10	0.025	-4e-05	0	-10	0.025	-4e-05	0
170	-10	0.025	-2e-05	0	-10	0.025	-2e-05	0
171	-10	0.025	0	0	-10	0.025	0	0
172	-10	0.025	2e-05	0	-10	0.025	2e-05	0
173	-10	0.026	-4e-05	0	-10	0.026	-4e-05	0
174	-10	0.026	-2e-05	0	-10	0.026	-2e-05	0
175	-10	0.026	0	0	-10	0.026	0	0
176	-10	0.026	2e-05	0	-10	0.026	2e-05	0
177	-10	0.027	-6e-05	0	-10	0.027	-6e-05	0
178	-10	0.027	-4e-05	0	-10	0.027	-4e-05	0
179	-10	0.027	-2e-05	0	-10	0.027	-2e-05	0
180	-10	0.027	0	0	-10	0.027	0	0
181	-10	0.027	2e-05	0	-10	0.027	2e-05	0
182	-10	0.028	-6e-05	0	-10	0.028	-6e-05	0
183	-10	0.028	-4e-05	0	-10	0.028	-4e-05	0
184	-10	0.028	-2e-05	0	-10	0.028	-2e-05	0
185	-10	0.028	0	0	-10	0.028	0	0
186	-10	0.028	2e-05	0	-10	0.028	2e-05	0
187	-10	0.029	-6e-05	0	-10	0.029	-6e-05	0
188	-10	0.029	-4e-05	0	-10	0.029	-4e-05	0
189	-10	0.029	-2e-05	0	-10	0.029	-2e-05	0
190	-10	0.029	0	0	-10	0.029	0	0
191	-10	0.029	2e-05	0	-10	0.029	2e-05	0
192	-10	0.03	-6e-05	0	-10	0.03	-6e-05	0
193	-10	0.03	-4e-05	0	-10	0.03	-4e-05	0
194	-10	0.03	-2e-05	0	-10	0.03	-2e-05	0
195	-10	0.03	0	0	-10	0.03	0	0
196	-10	0.031	-6e-05	0	-10	0.031	-6e-05	0
197	-10	0.031	-4e-05	0	-10	0.031	-4e-05	0
198	-10	0.031	-2e-05	0	-10	0.031	-2e-05	0
199	-10	0.031	0	0	-10	0.031	0	0
200	-10	0.032	-6e-05	0	-10	0.032	-6e-05	0
201	-10	0.032	-4e-05	0	-10	0.032	-4e-05	0
202	-10	0.032	-2e-05	0	-10	0.032	-2e-05	0
203	-10	0.032	0	0	-10	0.032	0	0
204	-10	0.033	-6e-05	0	-10	0.033	-6e-05	0
205	-10	0.033	-4e-05	0	-10	0.033	-4e-05	0
206	-10	0.033	-2e-05	0	-10	0.033	-2e-05	0
207	-10	0.033	0	0	-10	0.033	0	0
208	-10	0.034	-6e-05	0	-10	0.034	-6e-05	0
209	-10	0.034	-4e-05	0	-10	0.034	-4e-05	0
210	-10	0.034	-2e-05	0	-10	0.034	-2e-05	0
211	-10	0.034	0	0	-10	0.034	0	0
212	-10	0.035	-6e-05	0	-10	0.035	-6e-05	0
213	-10	0.035	-4e-05	0	-10	0.035	-4e-05	0
214	-10	0.035	-2e-05	0	-10	0.035	-2e-05	0
215	-10	0.035	0	0	-10	0.035	0	0
216	-10	0.036	-6e-05	0	-10	0.036	-6e-05	0
217	-10	0.036	-4e-05	0	-10	0.036	-4e-05	0
218	-10	0.036	-2e-05	0	-10	0.036	-2e-05	0
219	-10	0.036	0	0	-10	0.036	0	0
220	-10	0.037	-6e-05	0	-10	0.037	-6e-05	0
221	-10	0.037	-4e-05	0	-10	0.037	-4e-05	0
222	-10	0.037	-2e-05	0	-10	0.037	-2e-05	0
223	-10	0.037	0	0	-10	0.037	0	0
224	-10	0.038	-6e-05	0	-10	0.038	-6e-05	0
225	-10	0.038	-4e-05	0	-10	0.038	-4e-05	0
226	-10	0.038	-2e-05	0	-10	0.038	-2e-05	0
227	-10	0.038	0	0	-10	0.038	0	0
228	-10	0.039	-6e-05	0	-10	0.039	-6e-05	0
229	-10	0.039	-4e-05	0	-10	0.039	-4e-05	0
230	-10	0.039	-2e-05	0	-10	0.039	-2e-05	0
231	-10	0.039	0	0	-10	0.039	0	0
232	-10	0.04	-6e-05	0	-10	0.04	-6e-05	0
233	-10	0.04	-4e-05	0	-10	0.04	-4e-05	0
234	-10	0.04	-2e-05	0	-10	0.04	-2e-05	0
235	-10	0.04	0	0	-10	0.04	0	0
236	-10	0.041	-6e-05	0	-10	0.041	-6e-05	0
237	-10	0.041	-4e-05	0	-10	0.041	-4e-05	0
238	-10	0.041	-2e-05	0	-10	0.041	-2e-05	0
239	-10	0.041	0	0	-10	0.041	0	0
240	-10	0.042	-8e-05	0	-10	0.042	-8e-05	0
241	-10	0.042	-6e-05	0	-10	0.042	-6e-05	0
242	-10	0.042	-4e-05	0	-10	0.042	-4e-05	0
243	-10	0.042	-2e-05	0	-10	0.042	-2e-05	0
244	-10	0.042	0	0	-10	0.042	0	0
245	-10	0.043	-8e-05	0	-10	0.043	-8e-05	0
246	-10	0.043	-6e-05	0	-10	0.043	-6e-05	0
247	-10	0.043	-4e-05	0	-10	0.043	-4e-05	0
248	-10	0.043	-2e-05	0	-10	0.043	-2e-05	0
249	-10	0.043	0	0	-10	0.043	0	0
250	-10	0.044	-8e-05	0	-10	0.044	-8e-05	0
251	-10	0.044	-6e-05	0	-10	0.044	-6e-05	0
252	-10	0.044	-4e-05	0	-10	0.044	-4e-05	0
253	-10	0.044	-2e-05	0	-10	0.044	-2e-05	0
254	-10	0.045	-8e-05	0	-10	0.045	-8e-05	0
255	-10	0.045	-6e-05	0	-10	0.045	-6e-05	0
256	-10	0.045	-4e-05	0	-10	0.045	-4e-05	0
257	-10	0.045	-2e-05	0	-10	0.045	-2e-05	0
258	-10	0.046	-8e-05	0	-10	0.046	-8e-05	0
259	-10	0.046	-6e-05	0	-10	0.046	-6e-05	0
260	-10	0.046	-4e-05	0	-10	0.046	-4e-05	0
261	-10	0.046	-2e-05	0	-10	0.046	-2e-05	0
262	-10	0.047	-8e-05	0	-10	0.047	-8e-05	0
263	-10	0.047	-6e-05	0	-10	0.047	-6e-05	0
264	-10	0.047	-4e-05	0	-10	0.047	-4e-05	0
265	-10	0.047	-2e-05	0	-10	0.047	-2e-05	0
266	-10	0.048	-8e-05	0	-10	0.048	-8e-05	0
267	-10	0.048	-6e-05	0	-10	0.048	-6e-05	0
268	-10	0.048	-4e-05	0	-10	0.048	-4e-05	0
269	-10	0.048	-2e-05	0	-10	0.048	-2e-05	0
270	-10	0.049	-8e-05	0	-10	0.049	-8e-05	0
271	-10	0.049	-6e-05	0	-10	0.049	-6e-05	0
272	-10	0.049	-4e-05	0	-10	0.049	-4e-05	0
273	-10	0.049	-2e-05	0	-10	0.049	-2e-05	0
274	-10	0.05	-8e-05	0	-10	0.05	-8e-05	0
275	-10	0.05	-6e-05	0	-10	0.05	-6e-05	0
276	-10	0.05	-4e-05	0	-10	0.05	-4e-05	0
277	-10	0.05	-2e-05	0	-10	0.05	-2e-05	0
278	-10	0.051	-8e-05	0	-10	0.051	-8e-05	0
279	-10	0.051	-6e-05	0	-10	0.051	-6e-05	0
280	-10	0.051	-4e-05	0	-10	0.051	-4e-05	0
281	-10	0.051	-2e-05	0	-10	0.051	-2e-05	0
282	-10	0.052	-8e-05	0	-10	0.052	-8e-05	0
283	-10	0.052	-6e-05	0	-10	0.052	-6e-05	0
284	-10	0.052	-4e-05	0	-10	0.052	-4e-05	0
285	-10	0.052	-2e-05	0	-10	0.052	-2e-05	0
286	-10	0.053	-8e-05	0	-10	0.053	-8e-05	0
287	-10	0.053	-6e-05	0	-10	0.053	-6e-05	0
288	-10	0.053	-4e-05	0	-10	0.053	-4e-05	0
289	-10	0.053	-2e-05	0	-10	0.053	-2e-05	0
290	-10	0.054	-8e-05	0	-10	0.054	-8e-05	0
291	-10	0.054	-6e-05	0	-10	0.054	-6e-05	0
292	-10	0.054	-4e-05	0	-10	0.054	-4e-05	0
293	-10	0.054	-2e-05	0	-10	0.054	-2e-05	0
294	-10	0.055	-8e-05	0	-10	0.055	-8e-05	0
295	-10	0.055	-6e-05	0	-10	0.055	-6e-05	0
296	-10	0.055	-4e-05	0	-10	0.055	-4e-05	0
297	-10	0.055	-2e-05	0	-10	0.055	-2e-05	0
298	-10	0.056	-8e-05	0	-10	0.056	-8e-05	0
299	-10	0.056	-6e-05	0	-10	0.056	-6e-05	0
300	-10	0.056	-4e-05	0	-10	0.056	-4e-05	0
301	-10	0.056	-2e-05	0	-10	0.056	-2e-05	0
302	-10	0.057	-8e-05	0	-10	0.057	-8e-05	0
303	-10	0.057	-6e-05	0	-10	0.057	-6e-05	0
304	-10	0.057	-4e-05	0	-10	0.057	-4e-05	0
305	-10	0.058	-0.0001	0	-10	0.058	-0.0001	0
306	-10	0.058	-8e-05	0	-10	0.058	-8e-05	0
307	-10	0.058	-6e-05	0	-10	0.058	-6e-05	0
308	-10	0.058	-4e-05	0	-10	0.058	-4e-05	0
309	-10	0.059	-0.0001	0	-10	0.059	-0.0001	0
310	-10	0.059	-8e-05	0	-10	0.059	-8e-05	0
311	-10	0.059	-6e-05	0	-10	0.059	-6e-05	0
312	-10	0.059	-4e-05	0	-10	0.059	-4e-05	0
313	-10	0.06	-0.0001	0	-10	0.06	-0.0001	0
314	-10	0.06	-8e-05	0	-10	0.06	-8e-05	0
315	-10	0.06	-6e-05	0	-10	0.06	-6e-05	0
316	-10	0.06	-4e-05	0	-10	0.06	-4e-05	0
317	-10	0.061	-0.0001	0	-10	0.061	-0.0001	0
318	-10	0.061	-8e-05	0	-10	0.061	-8e-05	0
319	-10	0.061	-6e-05	0	-10	0.061	-6e-05	0
320	-10	0.061	-4e-05	0	-10	0.061	-4e-05	0
321	-10	0.062	-0.0001	0	-10	0.062	-0.0001	0
322	-10	0.062	-8e-05	0	-10	0.062	-8e-05	0
323	-10	0.062	-6e-05	0	-10	0.062	-6e-05	0
324	-10	0.062	-4e-05	0	-10	0.062	-4e-05	0
325	-10	0.063	-0.0001	0	-10	0.063	-0.0001	0
326	-10	0.063	-8e-05	0	-10	0.063	-8e-05	0
327	-10	0.063	-6e-05	0	-10	0.063	-6e-05	0
328	-10	0.063	-4e-05	0	-10	0.063	-4e-05	0
329	-10	0.064	-0.0001	0	-10	0.064	-0.0001	0
330	-10	0.064	-8e-05	0	-10	0.064	-8e-05	0
331	-10	0.064	-6e-05	0	-10	0.064	-6e-05	0
332	-10	0.064	-4e-05	0	-10	0.064	-4e-05	0
333	-10	0.065	-0.0001	0	-10	0.065	-0.0001	0
334	-10	0.065	-8e-05	0	-10	0.065	-8e-05	0
335	-10	0.065	-6e-05	0	-10	0.065	-6e-05	0
336	-10	0.065	-4e-05	0	-10	0.065	-4e-05	0
337	-10	0.066	-0.0001	0	-10	0.066	-0.0001	0
338	-10	0.066	-8e-05	0	-10	0.066	-8e-05	0
339	-10	0.066	-6e-05	0	-10	0.066	-6e-05	0
340	-10	0.066	-4e-05	0	-10	0.066	-4e-05	0
341	-10	0.067	-0.0001	0	-10	0.067	-0.0001	0
342	-10	0.067	-8e-05	0	-10	0.067	-8e-05	0
343	-10	0.067	-6e-05	0	-10	0.067	-6e-05	0
344	-10	0.067	-4e-05	0	-10	0.067	-4e-05	0
345	-10	0.068	-0.0001	0	-10	0.068	-0.0001	0
346	-10	0.068	-8e-05	0	-10	0.068	-8e-05	0
347	-10	0.068	-6e-05	0	-10	0.068	-6e-05	0
348	-10	0.068	-4e-05	0	-10	0.068	-4e-05	0
349	-10	0.069	-0.0001	0	-10	0.069	-0.0001	0
350	-10	0.069	-8e-05	0	-10	0.069	-8e-05	0
351	-10	0.069	-6e-05	0	-10	0.069	-6e-05	0
352	-10	0.069	-4e-05	0	-10	0.069	-4e-05	0
353	-10	0.07	-0.0001	0	-10	0.07	-0.0001	0
354	-10	0.07	-8e-05	0	-10	0.07	-8e-05	0
355	-10	0.07	-6e-05	0	-10	0.07	-6e-05	0
356	-10	0.071	-0.0001	0	-10	0.071	-0.0001	0
357	-10	0.071	-8e-05	0	-10	0.071	-8e-05	0
358	-10	0.071	-6e-05	0	-10	0.071	-6e-05	0
359	-10	0.072	-0.0001	0	-10	0.072	-0.0001	0
360	-10	0.072	-8e-05	0	-10	0.072	-8e-05	0
361	-10	0.072	-6e-05	0	-10	0.072	-6e-05	0
362	-10	0.073	-0.0001	0	-10	0.073	-0.0001	0
363	-10	0.073	-8e-05	0	-10	0.073	-8e-05	0
364	-10	0.073	-6e-05	0	-10	0.073	-6e-05	0
365	-10	0.074	-0.0001	0	-10	0.074	-0.0001	0
366	-10	0.074	-8e-05	0	-10	0.074	-8e-05	0
367	-10	0.074	-6e-05	0	-10	0.074	-6e-05	0
368	-10	0.075	-0.0001	0	-10	0.075	-0.0001	0
369	-10	0.075	-8e-05	0	-10	0.075	-8e-05	0
370	-10	0.075	-6e-05	0	-10	0.075	-6e-05	0
371	-10	0.076	-0.0001	0	-10	0.076	-0.0001	0
372	-10	0.076	-8e-05	0	-10	0.076	-8e-05	0
373	-10	0.076	-6e-05	0	-10	0.076	-6e-05	0
374	-10	0.077	-0.0001	0	-10	0.077	-0.0001	0
375	-10	0.077	-8e-05	0	-10	0.077	-8e-05	0
376	-10	0.077	-6e-05	0	-10	0.077	-6e-05	0
377	-10	0.078	-0.0001	0	-10	0.078	-0.0001	0
378	-10	0.078	-8e-05	0	-10	0.078	-8e-05	0
379	-10	0.078	-6e-05	0	-10	0.078	-6e-05	0
380	-10	0.079	-0.0001	0	-10	0.079	-0.0001	0
381	-10	0.079	-8e-05	0	-10	0.079	-8e-05	0
382	-10	0.079	-6e-05	0	-10	0.079	-6e-05	0
383	-10	0.08	-0.0001	0	-10	0.08	-0.0001	0
384	-10	0.08	-8e-05	0	-10	0.08	-8e-05	0
385	-10	0.08	-6e-05	0	-10	0.08	-6e-05	0
386	-10	0.081	-0.0001	0	-10	0.081	-0.0001	0
387	-10	0.081	-8e-05	0	-10	0.081	-8e-05	0
388	-10	0.081	-6e-05	0	-10	0.081	-6e-05	0
389	-10	0.082	-0.0001	0	-10	0.082	-0.0001	0
390	-10	0.082	-8e-05	0	-10	0.082	-8e-05	0
391	-10	0.083	-0.0001	0	-10	0.083	-0.0001	0
392	-10	0.083	-8e-05	0	-10	0.083	-8e-05	0
393	-10	0.084	-0.0001	0	-10	0.084	-0.0001	0
394	-10	0.084	-8e-05	0	-10	0.084	-8e-05	0
395	-10	0.085	-0.0001	0	-10	0.085	-0.0001	0
396	-10	0.085	-8e-05	0	-10	0.085	-8e-05	0
397	-10	0.086	-0.0001	0	-10	0.086	-0.0001	0
398	-10	0.086	-8e-05	0	-10	0.086	-8e-05	0
399	-10	0.087	-0.0001	0	-10	0.087	-0.0001	0
400	-10	0.087	-8e-05	0	-10	0.087	-8e-05	0
401	-10	0.088	-0.0001	0	-10	0.088	-0.0001	0
402	-10	0.088	-8e-05	0	-10	0.088	-8e-05	0
403	-10	0.089	-0.0001	0	-10	0.089	-0.0001	0
404	-10	0.089	-8e-05	0	-10	0.089	-8e-05	0
405	-10	0.09	-0.0001	0	-10	0.09	-0.0001	0
406	-10	0.09	-8e-05	0	-10	0.09	-8e-05	0
407	-10	0.091	-0.0001	0	-10	0.091	-0.0001	0
408	-10	0.091	-8e-05	0	-10	0.091	-8e-05	0
409	-10	0.092	-0.0001	0	-10	0.092	-0.0001	0
410	-10	0.092	-8e-05	0	-10	0.092	-8e-05	0
411	-10	0.093	-0.0001	0	-10	0.093	-0.0001	0
412	-10	0.093	-8e-05	0	-10	0.093	-8e-05	0
413	-10	0.094	-0.0001	0	-10	0.094	-0.0001	0
414	-10	0.095	-0.0001	0	-10	0.095	-0.0001	0
415	-10	0.096	-0.0001	0	-10	0.096	-0.0001	0
416	-10	0.097	-0.0001	0	-10	0.097	-0.0001	0
417	-10	0.098	-0.0001	0	-10	0.098	-0.0001	0
418	-10	0.099	-0.0001	0	-10	0.099	-0.0001	0
419	-9.5	-0.028	8e-05	0	-9.5	-0.028	8e-05	0
420	-9.5	-0.027	8e-05	0	-9.5	-0.027	8e-05	0
421	-9.5	-0.026	8e-05	0	-9.5	-0.026	8e-05	0
422	-9.5	-0.025	8e-05	0	-9.5	-0.025	8e-05	0
423	-9.5	-0.024	6e-05	0	-9.5	-0.024	6e-05	0
424	-9.5	-0.024	8e-05	0	-9.5	-0.024	8e-05	0
425	-9.5	-0.023	6e-05	0	-9.5	-0.023	6e-05	0
426	-9.5	-0.023	8e-05	0	-9.5	-0.023	8e-05	0
427	-9.5	-0.022	6e-05	0	-9.5	-0.022	6e-05	0
428	-9.5	-0.022	8e-05	0	-9.5	-0.022	8e-05	0
429	-9.5	-0.021	6e-05	0	-9.5	-0.021	6e-05	0
430	-9.5	-0.021	8e-05	0	-9.5	-0.021	8e-05	0
431	-9.5	-0.02	6e-05	0	-9.5	-0.02	6e-05	0
432	-9.5	-0.02	8e-05	0	-9.5	-0.02	8e-05	0
433	-9.5	-0.019	4e-05	0	-9.5	-0.019	4e-05	0
434	-9.5	-0.019	6e-05	0	-9.5	-0.019	6e-05	0
435	-9.5	-0.019	8e-05	0	-9.5	-0.019	8e-05	0
436	-9.5	-0.018	4e-05	0	-9.5	-0.018	4e-05	0
437	-9.5	-0.018	6e-05	0	-9.5	-0.018	6e-05	0
438	-9.5	-0.018	8e-05	0	-9.5	-0.018	8e-05	0
439	-9.5	-0.017	4e-05	0	-9.5	-0.017	4e-05	0
440	-9.5	-0.017	6e-05	0	-9.5	-0.017	6e-05	0
441	-9.5	-0.016	4e-05	0	-9.5	-0.016	4e-05	0
442	-9.5	-0.016	6e-05	0	-9.5	-0.016	6e-05	0
443	-9.5	-0.015	4e-05	0	-9.5	-0.015	4e-05	0
444	-9.5	-0.015	6e-05	0	-9.5	-0.015	6e-05	0
445	-9.5	-0.014	2e-05	0	-9.5	-0.014	2e-05	0
446	-9.5	-0.014	4e-05	0	-9.5	-0.014	4e-05	0
447	-9.5	-0.014	6e-05	0	-9.5	-0.014	6e-05	0
448	-9.5	-0.013	2e-05	0	-9.5	-0.013	2e-05	0
449	-9.5	-0.013	4e-05	0	-9.5	-0.013	4e-05	0
450	-9.5	-0.013	6e-05	0	-9.5	-0.013	6e-05	0
451	-9.5	-0.012	2e-05	0	-9.5	-0.012	2e-05	0
452	-9.5	-0.012	4e-05	0	-9.5	-0.012	4e-05	0
453	-9.5	-0.012	6e-05	0	-9.5	-0.012	6e-05	0
454	-9.5	-0.011	2e-05	0	-9.5	-0.011	2e-05	0
455	-9.5	-0.011	4e-05	0	-9.5	-0.011	4e-05	0
456	-9.5	-0.011	6e-05	0	-9.5	-0.011	6e-05	0
457	-9.5	-0.01	2e-05	0	-9.5	-0.01	2e-05	0
458	-9.5	-0.01	4e-05	0	-9.5	-0.01	4e-05	0
459	-9.5	-0.01	6e-05	0	-9.5	-0.01	6e-05	0
460	-9.5	-0.009	2e-05	0	-9.5	-0.009	2e-05	0
461	-9.5	-0.009	4e-05	0	-9.5	-0.009	4e-05	0
462	-9.5	-0.009	6e-05	0	-9.5	-0.009	6e-05	0
463	-9.5	-0.008	0	0	-9.5	-0.008	0	0
464	-9.5	-0.008	2e-05	0	-9.5	-0.008	2e-05	0
465	-9.5	-0.008	4e-05	0	-9.5	-0.008	4e-05	0
466	-9.5	-0.008	6e-05	0	-9.5	-0.008	6e-05	0
467	-9.5	-0.007	0	0	-9.5	-0.007	0	0
468	-9.5	-0.007	2e-05	0	-9.5	-0.007	2e-05	0
469	-9.5	-0.007	4e-05	0	-9.5	-0.007	4e-05	0
470	-9.5	-0.007	6e-05	0	-9.5	-0.007	6e-05	0
471	-9.5	-0.006	0	0	-9.5	-0.006	0	0
472	-9.5	-0.006	2e-05	0	-9.5	-0.006	2e-05	0
473	-9.5	-0.006	4e-05	0	-9.5	-0.006	4e-05	0
474	-9.5	-0.006	6e-05	0	-9.5	-0.006	6e-05	0
475	-9.5	-0.005	0	0	-9.5	-0.005	0	0
476	-9.5	-0.005	2e-05	0	-9.5	-0.005	2e-05	0
477	-9.5	-0.005	4e-05	0	-9.5	-0.005	4e-05	0
478	-9.5	-0.005	6e-05	0	-9.5	-0.005	6e-05	0
479	-9.5	-0.004	0	0	-9.5	-0.004	0	0
480	-9.5	-0.004	2e-05	0	-9.5	-0.004	2e-05	0
481	-9.5	-0.004	4e-05	0	-9.5	-0.004	4e-05	0
482	-9.5	-0.004	6e-05	0	-9.5	-0.004	6e-05	0
483	-9.5	-0.003	0	0	-9.5	-0.003	0	0
484	-9.5	-0.003	2e-05	0	-9.5	-0.003	2e-05	0
485	-9.5	-0.003	4e-05	0	-9.5	-0.003	4e-05	0
486	-9.5	-0.003	6e-05	0	-9.5	-0.003	6e-05	0
487	-9.5	-0.002	0	0	-9.5	-0.002	0	0
488	-9.5	-0.002	2e-05	0	-9.5	-0.002	2e-05	0
489	-9.5	-0.002	4e-05	0	-9.5	-0.002	4e-05	0
490	-9.5	-0.002	6e-05	0	-9.5	-0.002	6e-05	0
491	-9.5	-0.001	0	0	-9.5	-0.001	0	0
492	-9.5	-0.001	2e-05	0	-9.5	-0.001	2e-05	0
493	-9.5	-0.001	4e-05	0	-9.5	-0.001	4e-05	0
494	-9.5	-0.001	6e-05	0	-9.5	-0.001	6e-05	0
495	-9.5	0	-2e-05	0	-9.5	0	-2e-05	0
496	-9.5	0	0	0	-9.5	0	0	0
497	-9.5	0	2e-05	0	-9.5	0	2e-05	0
498	-9.5	0	4e-05	0	-9.5	0	4e-05	0
499	-9.5	0.001	-2e-05	0	-9.5	0.001	-2e-05	0
500	-9.5	0.001	0	0	-9.5	0.001	0	0
501	-9.5	0.001	2e-05	0	-9.5	0.001	2e-05	0
502	-9.5	0.001	4e-05	0	-9.5	0.001	4e-05	0
503	-9.5	0.002	-2e-05	0	-9.5	0.002	-2e-05	0
504	-9.5	0.002	0	0	-9.5	0.002	0	0
505	-9.5	0.002	2e-05	0	-9.5	0.002	2e-05	0
506	-9.5	0.002	4e-05	0	-9.5	0.002	4e-05	0
507	-9.5	0.003	-2e-05	0	-9.5	0.003	-2e-05	0
508	-9.5	0.003	0	0	-9.5	0.003	0	0
509	-9.5	0.003	2e-05	0	-9.5	0.003	2e-05	0
510	-9.5	0.003	4e-05	0	-9.5	0.003	4e-05	0
511	-9.5	0.004	-2e-05	0	-9.5	0.004	-2e-05	0
512	-9.5	0.004	0	0	-9.5	0.004	0	0
513	-9.5	0.004	2e-05	0	-9.5	0.004	2e-05	0
514	-9.5	0.004	4e-05	0	-9.5	0.004	4e-05	0
515	-9.5	0.005	-2e-05	0	-9.5	0.005	-2e-05	0
516	-9.5	0.005	0	0	-9.5	0.005	0	0
517	-9.5	0.005	2e-05	0	-9.5	0.005	2e-05	0
518	-9.5	0.005	4e-05	0	-9.5	0.005	4e-05	0
519	-9.5	0.006	-2e-05	0	-9.5	0.006	-2e-05	0
520	-9.5	0.006	0	0	-9.5	0.006	0	0
521	-9.5	0.006	2e-05	0	-9.5	0.006	2e-05	0
522	-9.5	0.006	4e-05	0	-9.5	0.006	4e-05	0
523	-9.5	0.007	-2e-05	0	-9.5	0.007	-2e-05	0
524	-9.5	0.007	0	0	-9.5	0.007	0	0
525	-9.5	0.007	2e-05	0	-9.5	0.007	2e-05	0
526	-9.5	0.007	4e-05	0	-9.5	0.007	4e-05	0
527	-9.5	0.008	-2e-05	0	-9.5	0.008	-2e-05	0
528	-9.5	0.008	0	0	-9.5	0.008	0	0
529	-9.5	0.008	2e-05	0	-9.5	0.008	2e-05	0
530	-9.5	0.008	4e-05	0	-9.5	0.008	4e-05	0
531	-9.5	0.009	-2e-05	0	-9.5	0.009	-2e-05	0
532	-9.5	0.009	0	0	-9.5	0.009	0	0
533	-9.5	0.009	2e-05	0	-9.5	0.009	2e-05	0
534	-9.5	0.009	4e-05	0	-9.5	0.009	4e-05	0
535	-9.5	0.01	-2e-05	0	-9.5	0.01	-2e-05	0
536	-9.5	0.01	0	0	-9.5	0.01	0	0
537	-9.5	0.01	2e-05	0	-9.5	0.01	2e-05	0
538	-9.5	0.01	4e-05	0	-9.5	0.01	4e-05	0
539	-9.5	0.011	-2e-05	0	-9.5	0.011	-2e-05	0
540	-9.5	0.011	0	0	-9.5	0.011	0	0
541	-9.5	0.011	2e-05	0	-9.5	0.011	2e-05	0
542	-9.5	0.011	4e-05	0	-9.5	0.011	4e-05	0
543	-9.5	0.012	-2e-05	0	-9.5	0.012	-2e-05	0
544	-9.5	0.012	0	0	-9.5	0.012	0	0
545	-9.5	0.012	2e-05	0	-9.5	0.012	2e-05	0
546	-9.5	0.012	4e-05	0	-9.5	0.012	4e-05	0
547	-9.5	0.013	-4e-05	0	-9.5	0.013	-4e-05	0
548	-9.5	0.013	-2e-05	0	-9.5	0.013	-2e-05	0
549	-9.5	0.013	0	0	-9.5	0.013	0	0
550	-9.5	0.013	2e-05	0	-9.5	0.013	2e-05	0
551	-9.5	0.013	4e-05	0	-9.5	0.013	4e-05	0
552	-9.5	0.014	-4e-05	0	-9.5	0.014	-4e-05	0
553	-9.5	0.014	-2e-05	0	-9.5	0.014	-2e-05	0
554	-9.5	0.014	0	0	-9.5	0.014	0	0
555	-9.5	0.014	2e-05	0	-9.5	0.014	2e-05	0
556	-9.5	0.014	4e-05	0	-9.5	0.014	4e-05	0
557	-9.5	0.015	-4e-05	0	-9.5	0.015	-4e-05	0
558	-9.5	0.015	-2e-05	0	-9.5	0.015	-2e-05	0
559	-9.5	0.015	0	0	-9.5	0.015	0	0
560	-9.5	0.015	2e-05	0	-9.5	0.015	2e-05	0
561	-9.5	0.016	-4e-05	0	-9.5	0.016	-4e-05	0
562	-9.5	0.016	-2e-05	0	-9.5	0.016	-2e-05	0
563	-9.5	0.016	0	0	-9.5	0.016	0	0
564	-9.5	0.016	2e-05	0	-9.5	0.016	2e-05	0
565	-9.5	0.017	-4e-05	0	-9.5	0.017	-4e-05	0
566	-9.5	0.017	-2e-05	0	-9.5	0.017	-2e-05	0
567	-9.5	0.017	0	0	-9.5	0.017	0	0
568	-9.5	0.017	2e-05	0	-9.5	0.017	2e-05	0
569	-9.5	0.018	-4e-05	0	-9.5	0.018	-4e-05	0
570	-9.5	0.018	-2e-05	0	-9.5	0.018	-2e-05	0
571	-9.5	0.018	0	0	-9.5	0.018	0	0
572	-9.5	0.018	2e-05	0	-9.5	0.018	2e-05	0
573	-9.5	0.019	-4e-05	0	-9.5	0.019	-4e-05	0
574	-9.5	0.019	-2e-05	0	-9.5	0.019	-2e-05	0
575	-9.5	0.019	0	0	-9.5	0.019	0	0
576	-9.5	0.019	2e-05	0	-9.5	0.019	2e-05	0
577	-9.5	0.02	-4e-05	0	-9.5	0.02	-4e-05	0
578	-9.5	0.02	-2e-05	0	-9.5	0.02	-2e-05	0
579	-9.5	0.02	0	0	-9.5	0.02	0	0
580	-9.5	0.02	2e-05	0	-9.5	0.02	2e-05	0
581	-9.5	0.021	-4e-05	0	-9.5	0.021	-4e-05	0
582	-9.5	0.021	-2e-05	0	-9.5	0.021	-2e-05	0
583	-9.5	0.021	0	0	-9.5	0.021	0	0
584	-9.5	0.021	2e-05	0	-9.5	0.021	2e-05	0
585	-9.5	0.022	-4e-05	0	-9.5	0.022	-4e-05	0
586	-9.5	0.022	-2e-05	0	-9.5	0.022	-2e-05	0
587	-9.5	0.022	0	0	-9.5	0.022	0	0
588	-9.5	0.022	2e-05	0	-9.5	0.022	2e-05	0
589	-9.5	0.023	-4e-05	0	-9.5	0.023	-4e-05	0
590	-9.5	0.023	-2e-05	0	-9.5	0.023	-2e-05	0
591	-9.5	0.023	0	0	-9.5	0.023	0	0
592	-9.5	0.023	2e-05	0	-9.5	0.023	2e-05	0
593	-9.5	0.024	-4e-05	0	-9.5	0.024	-4e-05	0
594	-9.5	0.024	-2e-05	0	-9.5	0.024	-2e-05	0
595	-9.5	0.024	0	0	-9.5	0.024	0	0
596	-9.5	0.024	2e-05	0	-9.5	0.024	2e-05	0
597	-9.5	0.025	-4e-05	0	-9.5	0.025	-4e-05	0
598	-9.5	0.025	-2e-05	0	-9.5	0.025	-2e-05	0
599	-9.5	0.025	0	0	-9.5	0.025	0	0
600	-9.5	0.025	2e-05	0	-9.5	0.025	2e-05	0
601	-9.5	0.026	-6e-05	0	-9.5	0.026	-6e-05	0
602	-9.5	0.026	-4e-05	0	-9.5	0.026	-4e-05	0
603	-9.5	0.026	-2e-05	0	-9.5	0.026	-2e-05	0
604	-9.5	0.026	0	0	-9.5	0.026	0	0
605	-9.5	0.026	2e-05	0	-9.5	0.026	2e-05	0
606	-9.5	0.027	-6e-05	0	-9.5	0.027	-6e-05	0
607	-9.5	0.027	-4e-05	0	-9.5	0.027	-4e-05	0
608	-9.5	0.027	-2e-05	0	-9.5	0.027	-2e-05	0
609	-9.5	0.027	0	0	-9.5	0.027	0	0
610	-9.5	0.027	2e-05	0	-9.5	0.027	2e-05	0
611	-9.5	0.028	-6e-05	0	-9.5	0.028	-6e-05	0
612	-9.5	0.028	-4e-05	0	-9.5	0.028	-4e-05	0
613	-9.5	0.028	-2e-05	0	-9.5	0.028	-2e-05	0
614	-9.5	0.028	0	0	-9.5	0.028	0	0
615	-9.5	0.028	2e-05	0	-9.5	0.028	2e-05	0
616	-9.5	0.029	-6e-05	0	-9.5	0.029	-6e-05	0
617	-9.5	0.029	-4e-05	0	-9.5	0.029	-4e-05	0
618	-9.5	0.029	-2e-05	0	-9.5	0.029	-2e-05	0
619	-9.5	0.029	0	0	-9.5	0.029	0	0
620	-9.5	0.029	2e-05	0	-9.5	0.029	2e-05	0
621	-9.5	0.03	-6e-05	0	-9.5	0.03	-6e-05	0
622	-9.5	0.03	-4e-05	0	-9.5	0.03	-4e-05	0
623	-9.5	0.03	-2e-05	0	-9.5	0.03	-2e-05	0
624	-9.5	0.03	0	0	-9.5	0.03	0	0
625	-9.5	0.031	-6e-05	0	-9.5	0.031	-6e-05	0
626	-9.5	0.031	-4e-05	0	-9.5	0.031	-4e-05	0
627	-9.5	0.031	-2e-05	0	-9.5	0.031	-2e-05	0
628	-9.5	0.031	0	0	-9.5	0.031	0	0
629	-9.5	0.032	-6e-05	0	-9.5	0.032	-6e-05	0
630	-9.5	0.032	-4e-05	0	-9.5	0.032	-4e-05	0
631	-9.5	0.032	-2e-05	0	-9.5	0.032	-2e-05	0
632	-9.5	0.032	0	0	-9.5	0.032	0	0
633	-9.5	0.033	-6e-05	0	-9.5	0.033	-6e-05	0
634	-9.5	0.033	-4e-05	0	-9.5	0.033	-4e-05	0
635	-9.5	0.033	-2e-05	0	-9.5	0.033	-2e-05	0
636	-9.5	0.033	0	0	-9.5	0.033	0	0
637	-9.5	0.034	-6e-05	0	-9.5	0.034	-6e-05	0
638	-9.5	0.034	-4e-05	0	-9.5	0.034	-4e-05	0
639	-9.5	0.034	-2e-05	0	-9.5	0.034	-2e-05	0
640	-9.5	0.034	0	0	-9.5	0.034	0	0
641	-9.5	0.035	-6e-05	0	-9.5	0.035	-6e-05	0
642	-9.5	0.035	-4e-05	0	-9.5	0.035	-4e-05	0
643	-9.5	0.035	-2e-05	0	-9.5	0.035	-2e-05	0
644	-9.5	0.035	0	0	-9.5	0.035	0	0
645	-9.5	0.036	-6e-05	0	-9.5	0.036	-6e-05	0
646	-9.5	0.036	-4e-05	0	-9.5	0.036	-4e-05	0
647	-9.5	0.036	-2e-05	0	-9.5	0.036	-2e-05	0
648	-9.5	0.036	0	0	-9.5	0.036	0	0
649	-9.5	0.037	-6e-05	0	-9.5	0.037	-6e-05	0
650	-9.5	0.037	-4e-05	0	-9.5	0.037	-4e-05	0
651	-9.5	0.037	-2e-05	0	-9.5	0.037	-2e-05	0
652	-9.5	0.037	0	0	-9.5	0.037	0	0
653	-9.5	0.038	-6e-05	0	-9.5	0.038	-6e-05	0
654	-9.5	0.038	-4e-05	0	-9.5	0.038	-4e-05	0
655	-9.5	0.038	-2e-05	0	-9.5	0.038	-2e-05	0
656	-9.5	0.038	0	0	-9.5	0.038	0	0
657	-9.5	0.039	-6e-05	0	-9.5	0.039	-6e-05	0
658	-9.5	0.039	-4e-05	0	-9.5	0.039	-4e-05	0
659	-9.5	0.039	-2e-05	0	-9.5	0.039	-2e-05	0
660	-9.5	0.039	0	0	-9.5	0.039	0	0
661	-9.5	0.04	-6e-05	0	-9.5	0.04	-6e-05	0
662	-9.5	0.04	-4e-05	0	-9.5	0.04	-4e-05	0
663	-9.5	0.04	-2e-05	0	-9.5	0.04	-2e-05	0
664	-9.5	0.04	0	0	-9.5	0.04	0	0
665	-9.5	0.041	-8e-05	0	-9.5	0.041	-8e-05	0
666	-9.5	0.041	-6e-05	0	-9.5	0.041	-6e-05	0
667	-9.5	0.041	-4e-05	0	-9.5	0.041	-4e-05	0
668	-9.5	0.041	-2e-05	0	-9.5	0.041	-2e-05	0
669	-9.5	0.041	0	0	-9.5	0.041	0	0
670	-9.5	0.042	-8e-05	0	-9.5	0.042	-8e-05	0
671	-9.5	0.042	-6e-05	0	-9.5	0.042	-6e-05	0
672	-9.5	0.042	-4e-05	0	-9.5	0.042	-4e-05	0
673	-9.5	0.042	-2e-05	0	-9.5	0.042	-2e-05	0
674	-9.5	0.042	0	0	-9.5	0.042	0	0
675	-9.5	0.043	-8e-05	0	-9.5	0.043	-8e-05	0
676	-9.5	0.043	-6e-05	0	-9.5	0.043	-6e-05	0
677	-9.5	0.043	-4e-05	0	-9.5	0.043	-4e-05	0
678	-9.5	0.043	-2e-05	0	-9.5	0.043	-2e-05	0
679	-9.5	0.044	-8e-05	0	-9.5	0.044	-8e-05	0
680	-9.5	0.044	-6e-05	0	-9.5	0.044	-6e-05	0
681	-9.5	0.044	-4e-05	0	-9.5	0.044	-4e-05	0
682	-9.5	0.044	-2e-05	0	-9.5	0.044	-2e-05	0
683	-9.5	0.045	-8e-05	0	-9.5	0.045	-8e-05	0
684	-9.5	0.045	-6e-05	0	-9.5	0.045	-6e-05	0
685	-9.5	0.045	-4e-05	0	-9.5	0.045	-4e-05	0
686	-9.5	0.045	-2e-05	0	-9.5	0.045	-2e-05	0
687	-9.5	0.046	-8e-05	0	-9.5	0.046	-8e-05	0
688	-9.5	0.046	-6e-05	0	-9.5	0.046	-6e-05	0
689	-9.5	0.046	-4e-05	0	-9.5	0.046	-4e-05	0
690	-9.5	0.046	-2e-05	0	-9.5	0.046	-2e-05	0
691	-9.5	0.047	-8e-05	0	-9.5	0.047	-8e-05	0
692	-9.5	0.047	-6e-05	0	-9.5	0.047	-6e-05	0
693	-9.5	0.047	-4e-05	0	-9.5	0.047	-4e-05	0
694	-9.5	0.047	-2e-05	0	-9.5	0.047	-2e-05	0
695	-9.5	0.048	-8e-05	0	-9.5	0.048	-8e-05	0
696	-9.5	0.048	-6e-05	0	-9.5	0.048	-6e-05	0
697	-9.5	0.048	-4e-05	0	-9.5	0.048	-4e-05	0
698	-9.5	0.048	-2e-05	0	-9.5	0.048	-2e-05	0
699	-9.5	0.049	-8e-05	0	-9.5	0.049	-8e-05	0
700	-9.5	0.049	-6e-05	0	-9.5	0.049	-6e-05	0
701	-9.5	0.049	-4e-05	0	-9.5	0.049	-4e-05	0
702	-9.5	0.049	-2e-05	0	-9.5	0.049	-2e-05	0
703	-9.5	0.05	-8e-05	0	-9.5	0.05	-8e-05	0
704	-9.5	0.05	-6e-05	0	-9.5	0.05	-6e-05	0
705	-9.5	0.05	-4e-05	0	-9.5	0.05	-4e-05	0
706	-9.5	0.05	-2e-05	0	-9.5	0.05	-2e-05	0
707	-9.5	0.051	-8e-05	0	-9.5	0.051	-8e-05	0
708	-9.5	0.051	-6e-05	0	-9.5	0.051	-6e-05	0
709	-9.5	0.051	-4e-05	0	-9.5	0.051	-4e-05	0
710	-9.5	0.051	-2e-05	0	-9.5	0.051	-2e-05	0
711	-9.5	0.052	-8e-05	0	-9.5	0.052	-8e-05	0
712	-9.5	0.052	-6e-05	0	-9.5	0.052	-6e-05	0
713	-9.5	0.052	-4e-05	0	-9.5	0.052	-4e-05	0
714	-9.5	0.052	-2e-05	0	-9.5	0.052	-2e-05	0
715	-9.5	0.053	-8e-05	0	-9.5	0.053	-8e-05	0
716	-9.5	0.053	-6e-05	0	-9.5	0.053	-6e-05	0
717	-9.5	0.053	-4e-05	0	-9.5	0.053	-4e-05	0
718	-9.5	0.053	-2e-05	0	-9.5	0.053	-2e-05	0
719	-9.5	0.054	-8e-05	0	-9.5	0.054	-8e-05	0
720	-9.5	0.054	-6e-05	0	-9.5	0.054	-6e-05	0
721	-9.5	0.054	-4e-05	0	-9.5	0.054	-4e-05	0
722	-9.5	0.054	-2e-05	0	-9.5	0.054	-2e-05	0
723	-9.5	0.055	-8e-05	0	-9.5	0.055	-8e-05	0
724	-9.5	0.055	-6e-05	0	-9.5	0.055	-6e-05	0
725	-9.5	0.055	-4e-05	0	-9.5	0.055	-4e-05	0
726	-9.5	0.055	-2e-05	0	-9.5	0.055	-2e-05	0
727	-9.5	0.056	-8e-05	0	-9.5	0.056	-8e-05	0
728	-9.5	0.056	-6e-05	0	-9.5	0.056	-6e-05	0
729	-9.5	0.056	-4e-05	0	-9.5	0.056	-4e-05	0
730	-9.5	0.057	-0.0001	0	-9.5	0.057	-0.0001	0
731	-9.5	0.057	-8e-05	0	-9.5	0.057	-8e-05	0
732	-9.5	0.057	-6e-05	0	-9.5	0.057	-6e-05	0
733	-9.5	0.057	-4e-05	0	-9.5	0.057	-4e-05	0
734	-9.5	0.058	-0.0001	0	-9.5	0.058	-0.0001	0
735	-9.5	0.058	-8e-05	0	-9.5	0.058	-8e-05	0
736	-9.5	0.058	-6e-05	0	-9.5	0.058	-6e-05	0
737	-9.5	0.058	-4e-05	0	-9.5	0.058	-4e-05	0
738	-9.5	0.059	-0.0001	0	-9.5	0.059	-0.0001	0
739	-9.5	0.059	-8e-05	0	-9.5	0.059	-8e-05	0
740	-9.5	0.059	-6e-05	0	-9.5	0.059	-6e-05	0
741	-9.5	0.059	-4e-05	0	-9.5	0.059	-4e-05	0
742	-9.5	0.06	-0.0001	0	-9.5	0.06	-0.0001	0
743	-9.5	0.06	-8e-05	0	-9.5	0.06	-8e-05	0
744	-9.5	0.06	-6e-05	0	-9.5	0.06	-6e-05	0
745	-9.5	0.06	-4e-05	0	-9.5	0.06	-4e-05	0
746	-9.5	0.061	-0.0001	0	-9.5	0.061	-0.0001	0
747	-9.5	0.061	-8e-05	0	-9.5	0.061	-8e-05	0
748	-9.5	0.061	-6e-05	0	-9.5	0.061	-6e-05	0
749	-9.5	0.061	-4e-05	0	-9.5	0.061	-4e-05	0
750	-9.5	0.062	-0.0001	0	-9.5	0.062	-0.0001	0
751	-9.5	0.062	-8e-05	0	-9.5	0.062	-8e-05	0
752	-9.5	0.062	-6e-05	0	-9.5	0.062	-6e-05	0
753	-9.5	0.062	-4e-05	0	-9.5	0.062	-4e-05	0
754	-9.5	0.063	-0.0001	0	-9.5	0.063	-0.0001	0
755	-9.5	0.063	-8e-05	0	-9.5	0.063	-8e-05	0
756	-9.5	0.063	-6e-05	0	-9.5	0.063	-6e-05	0
757	-9.5	0.063	-4e-05	0	-9.5	0.063	-4e-05	0
758	-9.5	0.064	-0.0001	0	-9.5	0.064	-0.0001	0
759	-9.5	0.064	-8e-05	0	-9.5	0.064	-8e-05	0
760	-9.5	0.064	-6e-05	0	-9.5	0.064	-6e-05	0
761	-9.5	0.064	-4e-05	0	-9.5	0.064	-4e-05	0
762	-9.5	0.065	-0.0001	0	-9.5	0.065	-0.0001	0
763	-9.5	0.065	-8e-05	0	-9.5	0.065	-8e-05	0
764	-9.5	0.065	-6e-05	0	-9.5	0.065	-6e-05	0
765	-9.5	0.065	-4e-05	0	-9.5	0.065	-4e-05	0
766	-9.5	0.066	-0.0001	0	-9.5	0.066	-0.0001	0
767	-9.5	0.066	-8e-05	0	-9.5	0.066	-8e-05	0
768	-9.5	0.066	-6e-05	0	-9.5	0.066	-6e-05	0
769	-9.5	0.066	-4e-05	0	-9.5	0.066	-4e-05	0
770	-9.5	0.067	-0.0001	0	-9.5	0.067	-0.0001	0
771	-9.5	0.067	-8e-05	0	-9.5	0.067	-8e-05	0
772	-9.5	0.067	-6e-05	0	-9.5	0.067	-6e-05	0
773	-9.5	0.067	-4e-05	0	-9.5	0.067	-4e-05	0
774	-9.5	0.068	-0.0001	0	-9.5	0.068	-0.0001	0
775	-9.5	0.068	-8e-05	0	-9.5	0.068	-8e-05	0
776	-9.5	0.068	-6e-05	0	-9.5	0.068	-6e-05	0
777	-9.5	0.068	-4e-05	0	-9.5	0.068	-4e-05	0
778	-9.5	0.069	-0.0001	0	-9.5	0.069	-0.0001	0
779	-9.5	0.069	-8e-05	0	-9.5	0.069	-8e-05	0
780	-9.5	0.069	-6e-05	0	-9.5	0.069	-6e-05	0
781	-9.5	0.07	-0.0001	0	-9.5	0.07	-0.0001	0
782	-9.5	0.07	-8e-05	0	-9.5	0.07	-8e-05	0
783	-9.5	0.07	-6e-05	0	-9.5	0.07	-6e-05	0
784	-9.5	0.071	-0.0001	0	-9.5	0.071	-0.0001	0
785	-9.5	0.071	-8e-05	0	-9.5	0.071	-8e-05	0
786	-9.5	0.071	-6e-05	0	-9.5	0.071	-6e-05	0
787	-9.5	0.072	-0.0001	0	-9.5	0.072	-0.0001	0
788	-9.5	0.072	-8e-05	0	-9.5	0.072	-8e-05	0
789	-9.5	0.072	-6e-05	0	-9.5	0.072	-6e-05	0
790	-9.5	0.073	-0.0001	0	-9.5	0.073	-0.0001	0
791	-9.5	0.073	-8e-05	0	-9.5	0.073	-8e-05	0
792	-9.5	0.073	-6e-05	0	-9.5	0.073	-6e-05	0
793	-9.5	0.074	-0.0001	0	-9.5	0.074	-0.0001	0
794	-9.5	0.074	-8e-05	0	-9.5	0.074	-8e-05	0
795	-9.5	0.074	-6e-05	0	-9.5	0.074	-6e-05	0
796	-9.5	0.075	-0.0001	0	-9.5	0.075	-0.0001	0
797	-9.5	0.075	-8e-05	0	-9.5	0.075	-8e-05	0
798	-9.5	0.075	-6e-05	0	-9.5	0.075	-6e-05	0
799	-9.5	0.076	-0.0001	0	-9.5	0.076	-0.0001	0
800	-9.5	0.076	-8e-05	0	-9.5	0.076	-8e-05	0
801	-9.5	0.076	-6e-05	0	-9.5	0.076	-6e-05	0
802	-9.5	0.077	-0.0001	0	-9.5	0.077	-0.0001	0
803	-9.5	0.077	-8e-05	0	-9.5	0.077	-8e-05	0
804	-9.5	0.077	-6e-05	0	-9.5	0.077	-6e-05	0
805	-9.5	0.078	-0.0001	0	-9.5	0.078	-0.0001	0
806	-9.5	0.078	-8e-05	0	-9.5	0.078	-8e-05	0
807	-9.5	0.078	-6e-05	0	-9.5	0.078	-6e-05	0
808	-9.5	0.079	-0.0001	0	-9.5	0.079	-0.0001	0
809	-9.5	0.079	-8e-05	0	-9.5	0.079	-8e-05	0
810	-9.5	0.079	-6e-05	0	-9.5	0.079	-6e-05	0
811	-9.5	0.08	-0.0001	0	-9.5	0.08	-0.0001	0
812	-9.5	0.08	-8e-05	0	-9.5	0.08	-8e-05	0
813	-9.5	0.08	-6e-05	0	-9.5	0.08	-6e-05	0
814	-9.5	0.081	-0.0001	0	-9.5	0.081	-0.0001	0
815	-9.5	0.081	-8e-05	0	-9.5	0.081	-8e-05	0
816	-9.5	0.082	-0.0001	0	-9.5	0.082	-0.0001	0
817	-9.5	0.082	-8e-05	0	-9.5	0.082	-8e-05	0
818	-9.5	0.083	-0.0001	0	-9.5	0.083	-0.0001	0
819	-9.5	0.083	-8e-05	0	-9.5	0.083	-8e-05	0
820	-9.5	0.084	-0.0001	0	-9.5	0.084	-0.0001	0
821	-9.5	0.084	-8e-05	0	-9.5	0.084	-8e-05	0
822	-9.5	0.085	-0.0001	0	-9.5	0.085	-0.0001	0
823	-9.5	0.085	-8e-05	0	-9.5	0.085	-8e-05	0
824	-9.5	0.086	-0.0001	0	-9.5	0.086	-0.0001	0
825	-9.5	0.086	-8e-05	0	-9.5	0.086	-8e-05	0
826	-9.5	0.087	-0.0001	0	-9.5	0.087	-0.0001	0
827	-9.5	0.087	-8e-05	0	-9.5	0.087	-8e-05	0
828	-9.5	0.088	-0.0001	0	-9.5	0.088	-0.0001	0
829	-9.5	0.088	-8e-05	0	-9.5	0.088	-8e-05	0
830	-9.5	0.089	-0.0001	0	-9.5	0.089	-0.0001	0
831	-9.5	0.089	-8e-05	0	-9.5	0.089	-8e-05	0
832	-9.5	0.09	-0.0001	0	-9.5	0.09	-0.0001	0
833	-9.5	0.09	-8e-05	0	-9.5	0.09	-8e-05	0
834	-9.5	0.091	-0.0001	0	-9.5	0.091	-0.0001	0
835	-9.5	0.091	-8e-05	0	-9.5	0.091	-8e-05	0
836	-9.5	0.092	-0.0001	0	-9.5	0.092	-0.0001	0
837	-9.5	0.092	-8e-05	0	-9.5	0.092	-8e-05	0
838	-9.5	0.093	-0.0001	0	-9.5	0.093	-0.0001	0
839	-9.5	0.094	-0.0001	0	-9.5	0.094	-0.0001	0
840	-9.5	0.095	-0.0001	0	-9.5	0.095	-0.0001	0
841	-9.5	0.096	-0.0001	0	-9.5	0.096	-0.0001	0
842	-9.5	0.097	-0.0001	0	-9.5	0.097	-0.0001	0
843	-9.5	0.098	-0.0001	0	-9.5	0.098	-0.0001	0
844	-9	-0.03	8e-05	0	-9	-0.03	8e-05	0
845	-9	-0.029	8e-05	0	-9	-0.029	8e-05	0
846	-9	-0.028	8e-05	0	-9	-0.028	8e-05	0
847	-9	-0.027	8e-05	0	-9	-0.027	8e-05	0
848	-9	-0.026	6e-05	0	-9	-0.026	6e-05	0
849	-9	-0.026	8e-05	0	-9	-0.026	8e-05	0
850	-9	-0.025	6e-05	0	-9	-0.025	6e-05	0
851	-9	-0.025	8e-05	0	-9	-0.025	8e-05	0
852	-9	-0.024	6e-05	0	-9	-0.024	6e-05	0
853	-9	-0.024	8e-05	0	-9	-0.024	8e-05	0
854	-9	-0.023	6e-05	0	-9	-0.023	6e-05	0
855	-9	-0.023	8e-05	0	-9	-0.023	8e-05	0
856	-9	-0.022	6e-05	0	-9	-0.022	6e-05	0
857	-9	-0.022	8e-05	0	-9	-0.022	8e-05	0
858	-9	-0.021	4e-05	0	-9	-0.021	4e-05	0
859	-9	-0.021	6e-05	0	-9	-0.021	6e-05	0
860	-9	-0.021	8e-05	0	-9	-0.021	8e-05	0
861	-9	-0.02	4e-05	0	-9	-0.02	4e-05	0
862	-9	-0.02	6e-05	0	-9	-0.02	6e-05	0
863	-9	-0.02	8e-05	0	-9	-0.02	8e-05	0
864	-9	-0.019	4e-05	0	-9	-0.019	4e-05	0
865	-9	-0.019	6e-05	0	-9	-0.019	6e-05	0
866	-9	-0.019	8e-05	0	-9	-0.019	8e-05	0
867	-9	-0.018	4e-05	0	-9	-0.018	4e-05	0
868	-9	-0.018	6e-05	0	-9	-0.018	6e-05	0
869	-9	-0.017	4e-05	0	-9	-0.017	4e-05	0
870	-9	-0.017	6e-05	0	-9	-0.017	6e-05	0
871	-9	-0.016	2e-05	0	-9	-0.016	2e-05	0
872	-9	-0.016	4e-05	0	-9	-0.016	4e-05	0
873	-9	-0.016	6e-05	0	-9	-0.016	6e-05	0
874	-9	-0.015	2e-05	0	-9	-0.015	2e-05	0
875	-9	-0.015	4e-05	0	-9	-0.015	4e-05	0
876	-9	-0.015	6e-05	0	-9	-0.015	6e-05	0
877	-9	-0.014	2e-05	0	-9	-0.014	2e-05	0
878	-9	-0.014	4e-05	0	-9	-0.014	4e-05	0
879	-9	-0.014	6e-05	0	-9	-0.014	6e-05	0
880	-9	-0.013	2e-05	0	-9	-0.013	2e-05	0
881	-9	-0.013	4e-05	0	-9	-0.013	4e-05	0
882	-9	-0.013	6e-05	0	-9	-0.013	6e-05	0
883	-9	-0.012	2e-05	0	-9	-0.012	2e-05	0
884	-9	-0.012	4e-05	0	-9	-0.012	4e-05	0
885	-9	-0.012	6e-05	0	-9	-0.012	6e-05	0
886	-9	-0.011	2e-05	0	-9	-0.011	2e-05	0
887	-9	-0.011	4e-05	0	-9	-0.011	4e-05	0
888	-9	-0.011	6e-05	0	-9	-0.011	6e-05	0
889	-9	-0.01	0	0	-9	-0.01	0	0
890	-9	-0.01	2e-05	0	-9	-0.01	2e-05	0
891	-9	-0.01	4e-05	0	-9	-0.01	4e-05	0
892	-9	-0.01	6e-05	0	-9	-0.01	6e-05	0
893	-9	-0.009	0	0	-9	-0.009	0	0
894	-9	-0.009	2e-05	0	-9	-0.009	2e-05	0
895	-9	-0.009	4e-05	0	-9	-0.009	4e-05	0
896	-9	-0.009	6e-05	0	-9	-0.009	6e-05	0
897	-9	-0.008	0	0	-9	-0.008	0	0
898	-9	-0.008	2e-05	0	-9	-0.008	2e-05	0
899	-9	-0.008	4e-05	0	-9	-0.008	4e-05	0
900	-9	-0.008	6e-05	0	-9	-0.008	6e-05	0
901	-9	-0.007	0	0	-9	-0.007	0	0
902	-9	-0.007	2e-05	0	-9	-0.007	2e-05	0
903	-9	-0.007	4e-05	0	-9	-0.007	4e-05	0
904	-9	-0.007	6e-05	0	-9	-0.007	6e-05	0
905	-9	-0.006	0	0	-9	-0.006	0	0
906	-9	-0.006	2e-05	0	-9	-0.006	2e-05	0
907	-9	-0.006	4e-05	0	-9	-0.006	4e-05	0
908	-9	-0.006	6e-05	0	-9	-0.006	6e-05	0
909	-9	-0.005	0	0	-9	-0.005	0	0
910	-9	-0.005	2e-05	0	-9	-0.005	2e-05	0
911	-9	-0.005	4e-05	0	-9	-0.005	4e-05	0
912	-9	-0.005	6e-05	0	-9	-0.005	6e-05	0
913	-9	-0.004	0	0	-9	-0.004	0	0
914	-9	-0.004	2e-05	0	-9	-0.004	2e-05	0
915	-9	-0.004	4e-05	0	-9	-0.004	4e-05	0
916	-9	-0.004	6e-05	0	-9	-0.004	6e-05	0
917	-9	-0.003	0	0	-9	-0.003	0	0
918	-9	-0.003	2e-05	0	-9	-0.003	2e-05	0
919	-9	-0.003	4e-05	0	-9	-0.003	4e-05	0
920	-9	-0.003	6e-05	0	-9	-0.003	6e-05	0
921	-9	-0.002	0	0	-9	-0.002	0	0
922	-9	-0.002	2e-05	0	-9	-0.002	2e-05	0
923	-9	-0.002	4e-05	0	-9	-0.002	4e-05	0
924	-9	-0.002	6e-05	0	-9	-0.002	6e-05	0
925	-9	-0.001	-2e-05	0	-9	-0.001	-2e-05	0
926	-9	-0.001	0	0	-9	-0.001	0	0
927	-9	-0.001	2e-05	0	-9	-0.001	2e-05	0
928	-9	-0.001	4e-05	0	-9	-0.001	4e-05	0
929	-9	0	-2e-05	0	-9	0	-2e-05	0
930	-9	0	0	0	-9	0	0	0
931	-9	0	2e-05	0	-9	0	2e-05	0
932	-9	0	4e-05	0	-9	0	4e-05	0
933	-9	0.001	-2e-05	0	-9	0.001	-2e-05	0
934	-9	0.001	0	0	-9	0.001	0	0
935	-9	0.001	2e-05	0	-9	0.001	2e-05	0
936	-9	0.001	4e-05	0	-9	0.001	4e-05	0
937	-9	0.002	-2e-05	0	-9	0.002	-2e-05	0
938	-9	0.002	0	0	-9	0.002	0	0
939	-9	0.002	2e-05	0	-9	0.002	2e-05	0
940	-9	0.002	4e-05	0	-9	0.002	4e-05	0
941	-9	0.003	-2e-05	0	-9	0.003	-2e-05	0
942	-9	0.003	0	0	-9	0.003	0	0
943	-9	0.003	2e-05	0	-9	0.003	2e-05	0
944	-9	0.003	4e-05	0	-9	0.003	4e-05	0
945	-9	0.004	-2e-05	0	-9	0.004	-2e-05	0
946	-9	0.004	0	0	-9	0.004	0	0
947	-9	0.004	2e-05	0	-9	0.004	2e-05	0
948	-9	0.004	4e-05	0	-9	0.004	4e-05	0
949	-9	0.005	-2e-05	0	-9	0.005	-2e-05	0
950	-9	0.005	0	0	-9	0.005	0	0
951	-9	0.005	2e-05	0	-9	0.005	2e-05	0
952	-9	0.005	4e-05	0	-9	0.005	4e-05	0
953	-9	0.006	-2e-05	0	-9	0.006	-2e-05	0
954	-9	0.006	0	0	-9	0.006	0	0
955	-9	0.006	2e-05	0	-9	0.006	2e-05	0
956	-9	0.006	4e-05	0	-9	0.006	4e-05	0
957	-9	0.007	-2e-05	0	-9	0.007	-2e-05	0
958	-9	0.007	0	0	-9	0.007	0	0
959	-9	0.007	2e-05	0	-9	0.007	2e-05	0
960	-9	0.007	4e-05	0	-9	0.007	4e-05	0
961	-9	0.008	-2e-05	0	-9	0.008	-2e-05	0
962	-9	0.008	0	0	-9	0.008	0	0
963	-9	0.008	2e-05	0	-9	0.008	2e-05	0
964	-9	0.008	4e-05	0	-9	0.008	4e-05	0
965	-9	0.009	-2e-05	0	-9	0.009	-2e-05	0
966	-9	0.009	0	0	-9	0.009	0	0
967	-9	0.009	2e-05	0	-9	0.009	2e-05	0
968	-9	0.009	4e-05	0	-9	0.009	4e-05	0
969	-9	0.01	-2e-05	0	-9	0.01	-2e-05	0
970	-9	0.01	0	0	-9	0.01	0	0
971	-9	0.01	2e-05	0	-9	0.01	2e-05	0
972	-9	0.01	4e-05	0	-9	0.01	4e-05	0
973	-9	0.011	-2e-05	0	-9	0.011	-2e-05	0
974	-9	0.011	0	0	-9	0.011	0	0
975	-9	0.011	2e-05	0	-9	0.011	2e-05	0
976	-9	0.011	4e-05	0	-9	0.011	4e-05	0
977	-9	0.012	-4e-05	0	-9	0.012	-4e-05	0
978	-9	0.012	-2e-05	0	-9	0.012	-2e-05	0
979	-9	0.012	0	0	-9	0.012	0	0
980	-9	0.012	2e-05	0	-9	0.012	2e-05	0
981	-9	0.012	4e-05	0	-9	0.012	4e-05	0
982	-9	0.013	-4e-05	0	-9	0.013	-4e-05	0
983	-9	0.013	-2e-05	0	-9	0.013	-2e-05	0
984	-9	0.013	0	0	-9	0.013	0	0
985	-9	0.013	2e-05	0	-9	0.013	2e-05	0
986	-9	0.013	4e-05	0	-9	0.013	4e-05	0
987	-9	0.014	-4e-05	0	-9	0.014	-4e-05	0
988	-9	0.014	-2e-05	0	-9	0.014	-2e-05	0
989	-9	0.014	0	0	-9	0.014	0	0
990	-9	0.014	2e-05	0	-9	0.014	2e-05	0
991	-9	0.015	-4e-05	0	-9	0.015	-4e-05	0
992	-9	0.015	-2e-05	0	-9	0.015	-2e-05	0
993	-9	0.015	0	0	-9	0.015	0	0
994	-9	0.015	2e-05	0	-9	0.015	2e-05	0
995	-9	0.016	-4e-05	0	-9	0.016	-4e-05	0
996	-9	0.016	-2e-05	0	-9	0.016	-2e-05	0
997	-9	0.016	0	0	-9	0.016	0	0
998	-9	0.016	2e-05	0	-9	0.016	2e-05	0
999	-9	0.017	-4e-05	0	-9	0.017	-4e-05	0
1000	-9	0.017	-2e-05	0	-9	0.017	-2e-05	0
1001	-9	0.017	0	0	-9	0.017	0	0
1002	-9	0.017	2e-05	0	-9	0.017	2e-05	0
1003	-9	0.018	-4e-05	0	-9	0.018	-4e-05	0
1004	-9	0.018	-2e-05	0	-9	0.018	-2e-05	0
1005	-9	0.018	0	0	-9	0.018	0	0
1006	-9	0.018	2e-05	0	-9	0.018	2e-05	0
1007	-9	0.019	-4e-05	0	-9	0.019	-4e-05	0
1008	-9	0.019	-2e-05	0	-9	0.019	-2e-05	0
1009	-9	0.019	0	0	-9	0.019	0	0
1010	-9	0.019	2e-05	0	-9	0.019	2e-05	0
1011	-9	0.02	-4e-05	0	-9	0.02	-4e-05	0
1012	-9	0.02	-2e-05	0	-9	0.02	-2e-05	0
1013	-9	0.02	0	0	-9	0.02	0	0
1014	-9	0.02	2e-05	0	-9	0.02	2e-05	0
1015	-9	0.021	-4e-05	0	-9	0.021	-4e-05	0
1016	-9	0.021	-2e-05	0	-9	0.021	-2e-05	0
1017	-9	0.021	0	0	-9	0.021	0	0
1018	-9	0.021	2e-05	0	-9	0.021	2e-05	0
1019	-9	0.022	-4e-05	0	-9	0.022	-4e-05	0
1020	-9	0.022	-2e-05	0	-9	0.022	-2e-05	0
1021	-9	0.022	0	0	-9	0.022	0	0
1022	-9	0.022	2e-05	0	-9	0.022	2e-05	0
1023	-9	0.023	-4e-05	0	-9	0.023	-4e-05	0
1024	-9	0.023	-2e-05	0	-9	0.023	-2e-05	0
1025	-9	0.023	0	0	-9	0.023	0	0
1026	-9	0.023	2e-05	0	-9	0.023	2e-05	0
1027	-9	0.024	-4e-05	0	-9	0.024	-4e-05	0
1028	-9	0.024	-2e-05	0	-9	0.024	-2e-05	0
1029	-9	0.024	0	0	-9	0.024	0	0
1030	-9	0.024	2e-05	0	-9	0.024	2e-05	0
1031	-9	0.025	-4e-05	0	-9	0.025	-4e-05	0
1032	-9	0.025	-2e-05	0	-9	0.025	-2e-05	0
1033	-9	0.025	0	0	-9	0.025	0	0
1034	-9	0.025	2e-05	0	-9	0.025	2e-05	0
1035	-9	0.026	-6e-05	0	-9	0.026	-6e-05	0
1036	-9	0.026	-4e-05	0	-9	0.026	-4e-05	0
1037	-9	0.026	-2e-05	0	-9	0.026	-2e-05	0
1038	-9	0.026	0	0	-9	0.026	0	0
1039	-9	0.026	2e-05	0	-9	0.026	2e-05	0
1040	-9	0.027	-6e-05	0	-9	0.027	-6e-05	0
1041	-9	0.027	-4e-05	0	-9	0.027	-4e-05	0
1042	-9	0.027	-2e-05	0	-9	0.027	-2e-05	0
1043	-9	0.027	0	0	-9	0.027	0	0
1044	-9	0.027	2e-05	0	-9	0.027	2e-05	0
1045	-9	0.028	-6e-05	0	-9	0.028	-6e-05	0
1046	-9	0.028	-4e-05	0	-9	0.028	-4e-05	0
1047	-9	0.028	-2e-05	0	-9	0.028	-2e-05	0
1048	-9	0.028	0	0	-9	0.028	0	0
1049	-9	0.028	2e-05	0	-9	0.028	2e-05	0
1050	-9	0.029	-6e-05	0	-9	0.029	-6e-05	0
1051	-9	0.029	-4e-05	0	-9	0.029	-4e-05	0
1052	-9	0.029	-2e-05	0	-9	0.029	-2e-05	0
1053	-9	0.029	0	0	-9	0.029	0	0
1054	-9	0.03	-6e-05	0	-9	0.03	-6e-05	0
1055	-9	0.03	-4e-05	0	-9	0.03	-4e-05	0
1056	-9	0.03	-2e-05	0	-9	0.03	-2e-05	0
1057	-9	0.03	0	0	-9	0.03	0	0
1058	-9	0.031	-6e-05	0	-9	0.031	-6e-05	0
1059	-9	0.031	-4e-05	0	-9	0.031	-4e-05	0
1060	-9	0.031	-2e-05	0	-9	0.031	-2e-05	0
1061	-9	0.031	0	0	-9	0.031	0	0
1062	-9	0.032	-6e-05	0	-9	0.032	-6e-05	0
1063	-9	0.032	-4e-05	0	-9	0.032	-4e-05	0
1064	-9	0.032	-2e-05	0	-9	0.032	-2e-05	0
1065	-9	0.032	0	0	-9	0.032	0	0
1066	-9	0.033	-6e-05	0	-9	0.033	-6e-05	0
1067	-9	0.033	-4e-05	0	-9	0.033	-4e-05	0
1068	-9	0.033	-2e-05	0	-9	0.033	-2e-05	0
1069	-9	0.033	0	0	-9	0.033	0	0
1070	-9	0.034	-6e-05	0	-9	0.034	-6e-05	0
1071	-9	0.034	-4e-05	0	-9	0.034	-4e-05	0
1072	-9	0.034	-2e-05	0	-9	0.034	-2e-05	0
1073	-9	0.034	0	0	-9	0.034	0	0
1074	-9	0.035	-6e-05	0	-9	0.035	-6e-05	0
1075	-9	0.035	-4e-05	0	-9	0.035	-4e-05	0
1076	-9	0.035	-2e-05	0	-9	0.035	-2e-05	0
1077	-9	0.035	0	0	-9	0.035	0	0
1078	-9	0.036	-6e-05	0	-9	0.036	-6e-05	0
1079	-9	0.036	-4e-05	0	-9	0.036	-4e-05	0
1080	-9	0.036	-2e-05	0	-9	0.036	-2e-05	0
1081	-9	0.036	0	0	-9	0.036	0	0
1082	-9	0.037	-6e-05	0	-9	0.037	-6e-05	0
1083	-9	0.037	-4e-05	0	-9	0.037	-4e-05	0
1084	-9	0.037	-2e-05	0	-9	0.037	-2e-05	0
1085	-9	0.037	0	0	-9	0.037	0	0
1086	-9	0.038	-6e-05	0	-9	0.038	-6e-05	0
1087	-9	0.038	-4e-05	0	-9	0.038	-4e-05	0
1088	-9	0.038	-2e-05	0	-9	0.038	-2e-05	0
1089	-9	0.038	0	0	-9	0.038	0	0
1090	-9	0.039	-6e-05	0	-9	0.039	-6e-05	0
1091	-9	0.039	-4e-05	0	-9	0.039	-4e-05	0
1092	-9	0.039	-2e-05	0	-9	0.039	-2e-05	0
1093	-9	0.039	0	0	-9	0.039	0	0
1094	-9	0.04	-6e-05	0	-9	0.04	-6e-05	0
1095	-9	0.04	-4e-05	0	-9	0.04	-4e-05	0
1096	-9	0.04	-2e-05	0	-9	0.04	-2e-05	0
1097	-9	0.04	0	0	-9	0.04	0	0
1098	-9	0.041	-8e-05	0	-9	0.041	-8e-05	0
1099	-9	0.041	-6e-05	0	-9	0.041	-6e-05	0
1100	-9	0.041	-4e-05	0	-9	0.041	-4e-05	0
1101	-9	0.041	-2e-05	0	-9	0.041	-2e-05	0
1102	-9	0.041	0	0	-9	0.041	0	0
1103	-9	0.042	-8e-05	0	-9	0.042	-8e-05	0
1104	-9	0.042	-6e-05	0	-9	0.042	-6e-05	0
1105	-9	0.042	-4e-05	0	-9	0.042	-4e-05	0
1106	-9	0.042	-2e-05	0	-9	0.042	-2e-05	0
1107	-9	0.042	0	0	-9	0.042	0	0
1108	-9	0.043	-8e-05	0	-9	0.043	-8e-05	0
1109	-9	0.043	-6e-05	0	-9	0.043	-6e-05	0
1110	-9	0.043	-4e-05	0	-9	0.043	-4e-05	0
1111	-9	0.043	-2e-05	0	-9	0.043	-2e-05	0
1112	-9	0.044	-8e-05	0	-9	0.044	-8e-05	0
1113	-9	0.044	-6e-05	0	-9	0.044	-6e-05	0
1114	-9	0.044	-4e-05	0	-9	0.044	-4e-05	0
1115	-9	0.044	-2e-05	0	-9	0.044	-2e-05	0
1116	-9	0.045	-8e-05	0	-9	0.045	-8e-05	0
1117	-9	0.045	-6e-05	0	-9	0.045	-6e-05	0
1118	-9	0.045	-4e-05	0	-9	0.045	-4e-05	0
1119	-9	0.045	-2e-05	0	-9	0.045	-2e-05	0
1120	-9	0.046	-8e-05	0	-9	0.046	-8e-05	0
1121	-9	0.046	-6e-05	0	-9	0.046	-6e-05	0
1122	-9	0.046	-4e-05	0	-9	0.046	-4e-05	0
1123	-9	0.046	-2e-05	0	-9	0.046	-2e-05	0
1124	-9	0.047	-8e-05	0	-9	0.047	-8e-05	0
1125	-9	0.047	-6e-05	0	-9	0.047	-6e-05	0
1126	-9	0.047	-4e-05	0	-9	0.047	-4e-05	0
1127	-9	0.047	-2e-05	0	-9	0.047	-2e-05	0
1128	-9	0.048	-8e-05	0	-9	0.048	-8e-05	0
1129	-9	0.048	-6e-05	0	-9	0.048	-6e-05	0
1130	-9	0.048	-4e-05	0	-9	0.048	-4e-05	0
1131	-9	0.048	-2e-05	0	-9	0.048	-2e-05	0
1132	-9	0.049	-8e-05	0	-9	0.049	-8e-05	0
1133	-9	0.049	-6e-05	0	-9	0.049	-6e-05	0
1134	-9	0.049	-4e-05	0	-9	0.049	-4e-05	0
1135	-9	0.049	-2e-05	0	-9	0.049	-2e-05	0
1136	-9	0.05	-8e-05	0	-9	0.05	-8e-05	0
1137	-9	0.05	-6e-05	0	-9	0.05	-6e-05	0
1138	-9	0.05	-4e-05	0	-9	0.05	-4e-05	0
1139	-9	0.05	-2e-05	0	-9	0.05	-2e-05	0
1140	-9	0.051	-8e-05	0	-9	0.051	-8e-05	0
1141	-9	0.051	-6e-05	0	-9	0.051	-6e-05	0
1142	-9	0.051	-4e-05	0	-9	0.051	-4e-05	0
1143	-9	0.051	-2e-05	0	-9	0.051	-2e-05	0
1144	-9	0.052	-8e-05	0	-9	0.052	-8e-05	0
1145	-9	0.052	-6e-05	0	-9	0.052	-6e-05	0
1146	-9	0.052	-4e-05	0	-9	0.052	-4e-05	0
1147	-9	0.052	-2e-05	0	-9	0.052	-2e-05	0
1148	-9	0.053	-8e-05	0	-9	0.053	-8e-05	0
1149	-9	0.053	-6e-05	0	-9	0.053	-6e-05	0
1150	-9	0.053	-4e-05	0	-9	0.053	-4e-05	0
1151	-9	0.053	-2e-05	0	-9	0.053	-2e-05	0
1152	-9	0.054	-8e-05	0	-9	0.054	-8e-05	0
1153	-9	0.054	-6e-05	0	-9	0.054	-6e-05	0
1154	-9	0.054	-4e-05	0	-9	0.054	-4e-05	0
1155	-9	0.054	-2e-05	0	-9	0.054	-2e-05	0
1156	-9	0.055	-8e-05	0	-9	0.055	-8e-05	0
1157	-9	0.055	-6e-05	0	-9	0.055	-6e-05	0
1158	-9	0.055	-4e-05	0	-9	0.055	-4e-05	0
1159	-9	0.056	-8e-05	0	-9	0.056	-8e-05	0
1160	-9	0.056	-6e-05	0	-9	0.056	-6e-05	0
1161	-9	0.056	-4e-05	0	-9	0.056	-4e-05	0
1162	-9	0.057	-0.0001	0	-9	0.057	-0.0001	0
1163	-9	0.057	-8e-05	0	-9	0.057	-8e-05	0
1164	-9	0.057	-6e-05	0	-9	0.057	-6e-05	0
1165	-9	0.057	-4e-05	0	-9	0.057	-4e-05	0
1166	-9	0.058	-0.0001	0	-9	0.058	-0.0001	0
1167	-9	0.058	-8e-05	0	-9	0.058	-8e-05	0
1168	-9	0.058	-6e-05	0	-9	0.058	-6e-05	0
1169	-9	0.058	-4e-05	0	-9	0.058	-4e-05	0
1170	-9	0.059	-0.0001	0	-9	0.059	-0.0001	0
1171	-9	0.059	-8e-05	0	-9	0.059	-8e-05	0
1172	-9	0.059	-6e-05	0	-9	0.059	-6e-05	0
1173	-9	0.059	-4e-05	0	-9	0.059	-4e-05	0
1174	-9	0.06	-0.0001	0	-9	0.06	-0.0001	0
1175	-9	0.06	-8e-05	0	-9	0.06	-8e-05	0
1176	-9	0.06	-6e-05	0	-9	0.06	-6e-05	0
1177	-9	0.06	-4e-05	0	-9	0.06	-4e-05	0
1178	-9	0.061	-0.0001	0	-9	0.061	-0.0001	0
1179	-9	0.061	-8e-05	0	-9	0.061	-8e-05	0
1180	-9	0.061	-6e-05	0	-9	0.061	-6e-05	0
1181	-9	0.061	-4e-05	0	-9	0.061	-4e-05	0
1182	-9	0.062	-0.0001	0	-9	0.062	-0.0001	0
1183	-9	0.062	-8e-05	0	-9	0.062	-8e-05	0
1184	-9	0.062	-6e-05	0	-9	0.062	-6e-05	0
1185	-9	0.062	-4e-05	0	-9	0.062	-4e-05	0
1186	-9	0.063	-0.0001	0	-9	0.063	-0.0001	0
1187	-9	0.063	-8e-05	0	-9	0.063	-8e-05	0
1188	-9	0.063	-6e-05	0	-9	0.063	-6e-05	0
1189	-9	0.063	-4e-05	0	-9	0.063	-4e-05	0
1190	-9	0.064	-0.0001	0	-9	0.064	-0.0001	0
1191	-9	0.064	-8e-05	0	-9	0.064	-8e-05	0
1192	-9	0.064	-6e-05	0	-9	0.064	-6e-05	0
1193	-9	0.064	-4e-05	0	-9	0.064	-4e-05	0
1194	-9	0.065	-0.0001	0	-9	0.065	-0.0001	0
1195	-9	0.065	-8e-05	0	-9	0.065	-8e-05	0
1196	-9	0.065	-6e-05	0	-9	0.065	-6e-05	0
1197	-9	0.065	-4e-05	0	-9	0.065	-4e-05	0
1198	-9	0.066	-0.0001	0	-9	0.066	-0.0001	0
1199	-9	0.066	-8e-05	0	-9	0.066	-8e-05	0
1200	-9	0.066	-6e-05	0	-9	0.066	-6e-05	0
1201	-9	0.066	-4e-05	0	-9	0.066	-4e-05	0
1202	-9	0.067	-0.0001	0	-9	0.067	-0.0001	0
1203	-9	0.067	-8e-05	0	-9	0.067	-8e-05	0
1204	-9	0.067	-6e-05	0	-9	0.067	-6e-05	0
1205	-9	0.067	-4e-05	0	-9	0.067	-4e-05	0
1206	-9	0.068	-0.0001	0	-9	0.068	-0.0001	0
1207	-9	0.068	-8e-05	0	-9	0.068	-8e-05	0
1208	-9	0.068	-6e-05	0	-9	0.068	-6e-05	0
1209	-9	0.069	-0.0001	0	-9	0.069	-0.0001	0
1210	-9	0.069	-8e-05	0	-9	0.069	-8e-05	0
1211	-9	0.069	-6e-05	0	-9	0.069	-6e-05	0
1212	-9	0.07	-0.0001	0	-9	0.07	-0.0001	0
1213	-9	0.07	-8e-05	0	-9	0.07	-8e-05	0
1214	-9	0.07	-6e-05	0	-9	0.07	-6e-05	0
1215	-9	0.071	-0.0001	0	-9	0.071	-0.0001	0
1216	-9	0.071	-8e-05	0	-9	0.071	-8e-05	0
1217	-9	0.071	-6e-05	0	-9	0.071	-6e-05	0
1218	-9	0.072	-0.0001	0	-9	0.072	-0.0001	0
1219	-9	0.072	-8e-05	0	-9	0.072	-8e-05	0
1220	-9	0.072	-6e-05	0	-9	0.072	-6e-05	0
1221	-9	0.073	-0.0001	0	-9	0.073	-0.0001	0
1222	-9	0.073	-8e-05	0	-9	0.073	-8e-05	0
1223	-9	0.073	-6e-05	0	-9	0.073	-6e-05	0
1224	-9	0.074	-0.0001	0	-9	0.074	-0.0001	0
1225	-9	0.074	-8e-05	0	-9	0.074	-8e-05	0
1226	-9	0.074	-6e-05	0	-9	0.074	-6e-05	0
1227	-9	0.075	-0.0001	0	-9	0.075	-0.0001	0
1228	-9	0.075	-8e-05	0	-9	0.075	-8e-05	0
1229	-9	0.075	-6e-05	0	-9	0.075	-6e-05	0
1230	-9	0.076	-0.0001	0	-9	0.076	-0.0001	0
1231	-9	0.076	-8e-05	0	-9	0.076	-8e-05	0
1232	-9	0.076	-6e-05	0	-9	0.076	-6e-05	0
1233	-9	0.077	-0.0001	0	-9	0.077	-0.0001	0
1234	-9	0.077	-8e-05	0	-9	0.077	-8e-05	0
1235	-9	0.077	-6e-05	0	-9	0.077	-6e-05	0
1236	-9	0.078	-0.0001	0	-9	0.078	-0.0001	0
1237	-9	0.078	-8e-05	0	-9	0.078	-8e-05	0
1238	-9	0.078	-6e-05	0	-9	0.078	-6e-05	0
1239	-9	0.079	-0.0001	0	-9	0.079	-0.0001	0
1240	-9	0.079	-8e-05	0	-9	0.079	-8e-05	0
1241	-9	0.079	-6e-05	0	-9	0.079	-6e-05	0
1242	-9	0.08	-0.0001	0	-9	0.08	-0.0001	0
1243	-9	0.08	-8e-05	0	-9	0.08	-8e-05	0
1244	-9	0.081	-0.0001	0	-9	0.081	-0.0001	0
1245	-9	0.081	-8e-05	0	-9	0.081	-8e-05	0
1246	-9	0.082	-0.0001	0	-9	0.082	-0.0001	0
1247	-9	0.082	-8e-05	0	-9	0.082	-8e-05	0
1248	-9	0.083	-0.0001	0	-9	0.083	-0.0001	0
1249	-9	0.083	-8e-05	0	-9	0.083	-8e-05	0
1250	-9	0.084	-0.0001	0	-9	0.084	-0.0001	0
1251	-9	0.084	-8e-05	0	-9	0.084	-8e-05	0
1252	-9	0.085	-0.0001	0	-9	0.085	-0.0001	0
1253	-9	0.085	-8e-05	0	-9	0.085	-8e-05	0
1254	-9	0.086	-0.0001	0	-9	0.086	-0.0001	0
1255	-9	0.086	-8e-05	0	-9	0.086	-8e-05	0
1256	-9	0.087	-0.0001	0	-9	0.087	-0.0001	0
1257	-9	0.087	-8e-05	0	-9	0.087	-8e-05	0
1258	-9	0.088	-0.0001	0	-9	0.088	-0.0001	0
1259	-9	0.088	-8e-05	0	-9	0.088	-8e-05	0
1260	-9	0.089	-0.0001	0	-9	0.089	-0.0001	0
1261	-9	0.089	-8e-05	0	-9	0.089	-8e-05	0
1262	-9	0.09	-0.0001	0	-9	0.09	-0.0001	0
1263	-9	0.09	-8e-05	0	-9	0.09	-8e-05	0
1264	-9	0.091	-0.0001	0	-9	0.091	-0.0001	0
1265	-9	0.092	-0.0001	0	-9	0.092	-0.0001	0
1266	-9	0.093	-0.0001	0	-9	0.093	-0.0001	0
1267	-9	0.094	-0.0001	0	-9	0.094	-0.0001	0
1268	-9	0.095	-0.0001	0	-9	0.095	-0.0001	0
1269	-9	0.096	-0.0001	0	-9	0.096	-0.0001	0
1270	-9	0.097	-0.0001	0	-9	0.097	-0.0001	0
1271	-8.5	-0.037	0.0001	0	-8.5	-0.037	0.0001	0
1272	-8.5	-0.033	8e-05	0	-8.5	-0.033	8e-05	0
1273	-8.5	-0.032	8e-05	0	-8.5	-0.032	8e-05	0
1274	-8.5	-0.031	8e-05	0	-8.5	-0.031	8e-05	0
1275	-8.5	-0.03	8e-05	0	-8.5	-0.03	8e-05	0
1276	-8.5	-0.029	8e-05	0	-8.5	-0.029	8e-05	0
1277	-8.5	-0.028	6e-05	0	-8.5	-0.028	6e-05	0
1278	-8.5	-0.028	8e-05	0	-8.5	-0.028	8e-05	0
1279	-8.5	-0.027	6e-05	0	-8.5	-0.027	6e-05	0
1280	-8.5	-0.027	8e-05	0	-8.5	-0.027	8e-05	0
1281	-8.5	-0.026	6e-05	0	-8.5	-0.026	6e-05	0
1282	-8.5	-0.026	8e-05	0	-8.5	-0.026	8e-05	0
1283	-8.5	-0.025	6e-05	0	-8.5	-0.025	6e-05	0
1284	-8.5	-0.025	8e-05	0	-8.5	-0.025	8e-05	0
1285	-8.5	-0.024	6e-05	0	-8.5	-0.024	6e-05	0
1286	-8.5	-0.024	8e-05	0	-8.5	-0.024	8e-05	0
1287	-8.5	-0.023	4e-05	0	-8.5	-0.023	4e-05	0
1288	-8.5	-0.023	6e-05	0	-8.5	-0.023	6e-05	0
1289	-8.5	-0.023	8e-05	0	-8.5	-0.023	8e-05	0
1290	-8.5	-0.022	4e-05	0	-8.5	-0.022	4e-05	0
1291	-8.5	-0.022	6e-05	0	-8.5	-0.022	6e-05	0
1292	-8.5	-0.022	8e-05	0	-8.5	-0.022	8e-05	0
1293	-8.5	-0.021	4e-05	0	-8.5	-0.021	4e-05	0
1294	-8.5	-0.021	6e-05	0	-8.5	-0.021	6e-05	0
1295	-8.5	-0.021	8e-05	0	-8.5	-0.021	8e-05	0
1296	-8.5	-0.02	4e-05	0	-8.5	-0.02	4e-05	0
1297	-8.5	-0.02	6e-05	0	-8.5	-0.02	6e-05	0
1298	-8.5	-0.02	8e-05	0	-8.5	-0.02	8e-05	0
1299	-8.5	-0.019	4e-05	0	-8.5	-0.019	4e-05	0
1300	-8.5	-0.019	6e-05	0	-8.5	-0.019	6e-05	0
1301	-8.5	-0.019	8e-05	0	-8.5	-0.019	8e-05	0
1302	-8.5	-0.018	2e-05	0	-8.5	-0.018	2e-05	0
1303	-8.5	-0.018	4e-05	0	-8.5	-0.018	4e-05	0
1304	-8.5	-0.018	6e-05	0	-8.5	-0.018	6e-05	0
1305	-8.5	-0.017	2e-05	0	-8.5	-0.017	2e-05	0
1306	-8.5	-0.017	4e-05	0	-8.5	-0.017	4e-05	0
1307	-8.5	-0.017	6e-05	0	-8.5	-0.017	6e-05	0
1308	-8.5	-0.016	2e-05	0	-8.5	-0.016	2e-05	0
1309	-8.5	-0.016	4e-05	0	-8.5	-0.016	4e-05	0
1310	-8.5	-0.016	6e-05	0	-8.5	-0.016	6e-05	0
1311	-8.5	-0.015	2e-05	0	-8.5	-0.015	2e-05	0
1312	-8.5	-0.015	4e-05	0	-8.5	-0.015	4e-05	0
1313	-8.5	-0.015	6e-05	0	-8.5	-0.015	6e-05	0
1314	-8.5	-0.014	2e-05	0	-8.5	-0.014	2e-05	0
1315	-8.5	-0.014	4e-05	0	-8.5	-0.014	4e-05	0
1316	-8.5	-0.014	6e-05	0	-8.5	-0.014	6e-05	0
1317	-8.5	-0.013	2e-05	0	-8.5	-0.013	2e-05	0
1318	-8.5	-0.013	4e-05	0	-8.5	-0.013	4e-05	0
1319	-8.5	-0.013	6e-05	0	-8.5	-0.013	6e-05	0
1320	-8.5	-0.012	2e-05	0	-8.5	-0.012	2e-05	0
1321	-8.5	-0.012	4e-05	0	-8.5	-0.012	4e-05	0
1322	-8.5	-0.012	6e-05	0	-8.5	-0.012	6e-05	0
1323	-8.5	-0.011	0	0	-8.5	-0.011	0	0
1324	-8.5	-0.011	2e-05	0	-8.5	-0.011	2e-05	0
1325	-8.5	-0.011	4e-05	0	-8.5	-0.011	4e-05	0
1326	-8.5	-0.011	6e-05	0	-8.5	-0.011	6e-05	0
1327	-8.5	-0.01	0	0	-8.5	-0.01	0	0
1328	-8.5	-0.01	2e-05	0	-8.5	-0.01	2e-05	0
1329	-8.5	-0.01	4e-05	0	-8.5	-0.01	4e-05	0
1330	-8.5	-0.01	6e-05	0	-8.5	-0.01	6e-05	0
1331	-8.5	-0.009	0	0	-8.5	-0.009	0	0
1332	-8.5	-0.009	2e-05	0	-8.5	-0.009	2e-05	0
1333	-8.5	-0.009	4e-05	0	-8.5	-0.009	4e-05	0
1334	-8.5	-0.009	6e-05	0	-8.5	-0.009	6e-05	0
1335	-8.5	-0.008	0	0	-8.5	-0.008	0	0
1336	-8.5	-0.008	2e-05	0	-8.5	-0.008	2e-05	0
1337	-8.5	-0.008	4e-05	0	-8.5	-0.008	4e-05	0
1338	-8.5	-0.008	6e-05	0	-8.5	-0.008	6e-05	0
1339	-8.5	-0.007	0	0	-8.5	-0.007	0	0
1340	-8.5	-0.007	2e-05	0	-8.5	-0.007	2e-05	0
1341	-8.5	-0.007	4e-05	0	-8.5	-0.007	4e-05	0
1342	-8.5	-0.007	6e-05	0	-8.5	-0.007	6e-05	0
1343	-8.5	-0.006	0	0	-8.5	-0.006	0	0
1344	-8.5	-0.006	2e-05	0	-8.5	-0.006	2e-05	0
1345	-8.5	-0.006	4e-05	0	-8.5	-0.006	4e-05	0
1346	-8.5	-0.006	6e-05	0	-8.5	-0.006	6e-05	0
1347	-8.5	-0.005	0	0	-8.5	-0.005	0	0
1348	-8.5	-0.005	2e-05	0	-8.5	-0.005	2e-05	0
1349	-8.5	-0.005	4e-05	0	-8.5	-0.005	4e-05	0
1350	-8.5	-0.005	6e-05	0	-8.5	-0.005	6e-05	0
1351	-8.5	-0.004	0	0	-8.5	-0.004	0	0
1352	-8.5	-0.004	2e-05	0	-8.5	-0.004	2e-05	0
1353	-8.5	-0.004	4e-05	0	-8.5	-0.004	4e-05	0
1354	-8.5	-0.004	6e-05	0	-8.5	-0.004	6e-05	0
1355	-8.5	-0.003	0	0	-8.5	-0.003	0	0
1356	-8.5	-0.003	2e-05	0	-8.5	-0.003	2e-05	0
1357	-8.5	-0.003	4e-05	0	-8.5	-0.003	4e-05	0
1358	-8.5	-0.003	6e-05	0	-8.5	-0.003	6e-05	0
1359	-8.5	-0.002	0	0	-8.5	-0.002	0	0
1360	-8.5	-0.002	2e-05	0	-8.5	-0.002	2e-05	0
1361	-8.5	-0.002	4e-05	0	-8.5	-0.002	4e-05	0
1362	-8.5	-0.001	-2e-05	0	-8.5	-0.001	-2e-05	0
1363	-8.5	-0.001	0	0	-8.5	-0.001	0	0
1364	-8.5	-0.001	2e-05	0	-8.5	-0.001	2e-05	0
1365	-8.5	-0.001	4e-05	0	-8.5	-0.001	4e-05	0
1366	-8.5	0	-2e-05	0	-8.5	0	-2e-05	0
1367	-8.5	0	0	0	-8.5	0	0	0
1368	-8.5	0	2e-05	0	-8.5	0	2e-05	0
1369	-8.5	0	4e-05	0	-8.5	0	4e-05	0
1370	-8.5	0.001	-2e-05	0	-8.5	0.001	-2e-05	0
1371	-8.5	0.001	0	0	-8.5	0.001	0	0
1372	-8.5	0.001	2e-05	0	-8.5	0.001	2e-05	0
1373	-8.5	0.001	4e-05	0	-8.5	0.001	4e-05	0
1374	-8.5	0.002	-2e-05	0	-8.5	0.002	-2e-05	0
1375	-8.5	0.002	0	0	-8.5	0.002	0	0
1376	-8.5	0.002	2e-05	0	-8.5	0.002	2e-05	0
1377	-8.5	0.002	4e-05	0	-8.5	0.002	4e-05	0
1378	-8.5	0.003	-2e-05	0	-8.5	0.003	-2e-05	0
1379	-8.5	0.003	0	0	-8.5	0.003	0	0
1380	-8.5	0.003	2e-05	0	-8.5	0.003	2e-05	0
1381	-8.5	0.003	4e-05	0	-8.5	0.003	4e-05	0
1382	-8.5	0.004	-2e-05	0	-8.5	0.004	-2e-05	0
1383	-8.5	0.004	0	0	-8.5	0.004	0	0
1384	-8.5	0.004	2e-05	0	-8.5	0.004	2e-05	0
1385	-8.5	0.004	4e-05	0	-8.5	0.004	4e-05	0
1386	-8.5	0.005	-2e-05	0	-8.5	0.005	-2e-05	0
1387	-8.5	0.005	0	0	-8.5	0.005	0	0
1388	-8.5	0.005	2e-05	0	-8.5	0.005	2e-05	0
1389	-8.5	0.005	4e-05	0	-8.5	0.005	4e-05	0
1390	-8.5	0.006	-2e-05	0	-8.5	0.006	-2e-05	0
1391	-8.5	0.006	0	0	-8.5	0.006	0	0
1392	-8.5	0.006	2e-05	0	-8.5	0.006	2e-05	0
1393	-8.5	0.006	4e-05	0	-8.5	0.006	4e-05	0
1394	-8.5	0.007	-2e-05	0	-8.5	0.007	-2e-05	0
1395	-8.5	0.007	0	0	-8.5	0.007	0	0
1396	-8.5	0.007	2e-05	0	-8.5	0.007	2e-05	0
1397	-8.5	0.007	4e-05	0	-8.5	0.007	4e-05	0
1398	-8.5	0.008	-2e-05	0	-8.5	0.008	-2e-05	0
1399	-8.5	0.008	0	0	-8.5	0.008	0	0
1400	-8.5	0.008	2e-05	0	-8.5	0.008	2e-05	0
1401	-8.5	0.008	4e-05	0	-8.5	0.008	4e-05	0
1402	-8.5	0.009	-2e-05	0	-8.5	0.009	-2e-05	0
1403	-8.5	0.009	0	0	-8.5	0.009	0	0
1404	-8.5	0.009	2e-05	0	-8.5	0.009	2e-05	0
1405	-8.5	0.009	4e-05	0	-8.5	0.009	4e-05	0
1406	-8.5	0.01	-2e-05	0	-8.5	0.01	-2e-05	0
1407	-8.5	0.01	0	0	-8.5	0.01	0	0
1408	-8.5	0.01	2e-05	0	-8.5	0.01	2e-05	0
1409	-8.5	0.01	4e-05	0	-8.5	0.01	4e-05	0
1410	-8.5	0.011	-4e-05	0	-8.5	0.011	-4e-05	0
1411	-8.5	0.011	-2e-05	0	-8.5	0.011	-2e-05	0
1412	-8.5	0.011	0	0	-8.5	0.011	0	0
1413	-8.5	0.011	2e-05	0	-8.5	0.011	2e-05	0
1414	-8.5	0.011	4e-05	0	-8.5	0.011	4e-05	0
1415	-8.5	0.012	-4e-05	0	-8.5	0.012	-4e-05	0
1416	-8.5	0.012	-2e-05	0	-8.5	0.012	-2e-05	0
1417	-8.5	0.012	0	0	-8.5	0.012	0	0
1418	-8.5	0.012	2e-05	0	-8.5	0.012	2e-05	0
1419	-8.5	0.012	4e-05	0	-8.5	0.012	4e-05	0
1420	-8.5	0.013	-4e-05	0	-8.5	0.013	-4e-05	0
1421	-8.5	0.013	-2e-05	0	-8.5	0.013	-2e-05	0
1422	-8.5	0.013	0	0	-8.5	0.013	0	0
1423	-8.5	0.013	2e-05	0	-8.5	0.013	2e-05	0
1424	-8.5	0.013	4e-05	0	-8.5	0.013	4e-05	0
1425	-8.5	0.014	-4e-05	0	-8.5	0.014	-4e-05	0
1426	-8.5	0.014	-2e-05	0	-8.5	0.014	-2e-05	0
1427	-8.5	0.014	0	0	-8.5	0.014	0	0
1428	-8.5	0.014	2e-05	0	-8.5	0.014	2e-05	0
1429	-8.5	0.015	-4e-05	0	-8.5	0.015	-4e-05	0
1430	-8.5	0.015	-2e-05	0	-8.5	0.015	-2e-05	0
1431	-8.5	0.015	0	0	-8.5	0.015	0	0
1432	-8.5	0.015	2e-05	0	-8.5	0.015	2e-05	0
1433	-8.5	0.016	-4e-05	0	-8.5	0.016	-4e-05	0
1434	-8.5	0.016	-2e-05	0	-8.5	0.016	-2e-05	0
1435	-8.5	0.016	0	0	-8.5	0.016	0	0
1436	-8.5	0.016	2e-05	0	-8.5	0.016	2e-05	0
1437	-8.5	0.017	-4e-05	0	-8.5	0.017	-4e-05	0
1438	-8.5	0.017	-2e-05	0	-8.5	0.017	-2e-05	0
1439	-8.5	0.017	0	0	-8.5	0.017	0	0
1440	-8.5	0.017	2e-05	0	-8.5	0.017	2e-05	0
1441	-8.5	0.018	-4e-05	0	-8.5	0.018	-4e-05	0
1442	-8.5	0.018	-2e-05	0	-8.5	0.018	-2e-05	0
1443	-8.5	0.018	0	0	-8.5	0.018	0	0
1444	-8.5	0.018	2e-05	0	-8.5	0.018	2e-05	0
1445	-8.5	0.019	-4e-05	0	-8.5	0.019	-4e-05	0
1446	-8.5	0.019	-2e-05	0	-8.5	0.019	-2e-05	0
1447	-8.5	0.019	0	0	-8.5	0.019	0	0
1448	-8.5	0.019	2e-05	0	-8.5	0.019	2e-05	0
1449	-8.5	0.02	-4e-05	0	-8.5	0.02	-4e-05	0
1450	-8.5	0.02	-2e-05	0	-8.5	0.02	-2e-05	0
1451	-8.5	0.02	0	0	-8.5	0.02	0	0
1452	-8.5	0.02	2e-05	0	-8.5	0.02	2e-05	0
1453	-8.5	0.021	-4e-05	0	-8.5	0.021	-4e-05	0
1454	-8.5	0.021	-2e-05	0	-8.5	0.021	-2e-05	0
1455	-8.5	0.021	0	0	-8.5	0.021	0	0
1456	-8.5	0.021	2e-05	0	-8.5	0.021	2e-05	0
1457	-8.5	0.022	-4e-05	0	-8.5	0.022	-4e-05	0
1458	-8.5	0.022	-2e-05	0	-8.5	0.022	-2e-05	0
1459	-8.5	0.022	0	0	-8.5	0.022	0	0
1460	-8.5	0.022	2e-05	0	-8.5	0.022	2e-05	0
1461	-8.5	0.023	-4e-05	0	-8.5	0.023	-4e-05	0
1462	-8.5	0.023	-2e-05	0	-8.5	0.023	-2e-05	0
1463	-8.5	0.023	0	0	-8.5	0.023	0	0
1464	-8.5	0.023	2e-05	0	-8.5	0.023	2e-05	0
1465	-8.5	0.024	-4e-05	0	-8.5	0.024	-4e-05	0
1466	-8.5	0.024	-2e-05	0	-8.5	0.024	-2e-05	0
1467	-8.5	0.024	0	0	-8.5	0.024	0	0
1468	-8.5	0.024	2e-05	0	-8.5	0.024	2e-05	0
1469	-8.5	0.025	-6e-05	0	-8.5	0.025	-6e-05	0
1470	-8.5	0.025	-4e-05	0	-8.5	0.025	-4e-05	0
1471	-8.5	0.025	-2e-05	0	-8.5	0.025	-2e-05	0
1472	-8.5	0.025	0	0	-8.5	0.025	0	0
1473	-8.5	0.025	2e-05	0	-8.5	0.025	2e-05	0
1474	-8.5	0.026	-6e-05	0	-8.5	0.026	-6e-05	0
1475	-8.5	0.026	-4e-05	0	-8.5	0.026	-4e-05	0
1476	-8.5	0.026	-2e-05	0	-8.5	0.026	-2e-05	0
1477	-8.5	0.026	0	0	-8.5	0.026	0	0
1478	-8.5	0.026	2e-05	0	-8.5	0.026	2e-05	0
1479	-8.5	0.027	-6e-05	0	-8.5	0.027	-6e-05	0
1480	-8.5	0.027	-4e-05	0	-8.5	0.027	-4e-05	0
1481	-8.5	0.027	-2e-05	0	-8.5	0.027	-2e-05	0
1482	-8.5	0.027	0	0	-8.5	0.027	0	0
1483	-8.5	0.027	2e-05	0	-8.5	0.027	2e-05	0
1484	-8.5	0.028	-6e-05	0	-8.5	0.028	-6e-05	0
1485	-8.5	0.028	-4e-05	0	-8.5	0.028	-4e-05	0
1486	-8.5	0.028	-2e-05	0	-8.5	0.028	-2e-05	0
1487	-8.5	0.028	0	0	-8.5	0.028	0	0
1488	-8.5	0.029	-6e-05	0	-8.5	0.029	-6e-05	0
1489	-8.5	0.029	-4e-05	0	-8.5	0.029	-4e-05	0
1490	-8.5	0.029	-2e-05	0	-8.5	0.029	-2e-05	0
1491	-8.5	0.029	0	0	-8.5	0.029	0	0
1492	-8.5	0.03	-6e-05	0	-8.5	0.03	-6e-05	0
1493	-8.5	0.03	-4e-05	0	-8.5	0.03	-4e-05	0
1494	-8.5	0.03	-2e-05	0	-8.5	0.03	-2e-05	0
1495	-8.5	0.03	0	0	-8.5	0.03	0	0
1496	-8.5	0.031	-6e-05	0	-8.5	0.031	-6e-05	0
1497	-8.5	0.031	-4e-05	0	-8.5	0.031	-4e-05	0
1498	-8.5	0.031	-2e-05	0	-8.5	0.031	-2e-05	0
1499	-8.5	0.031	0	0	-8.5	0.031	0	0
1500	-8.5	0.032	-6e-05	0	-8.5	0.032	-6e-05	0
1501	-8.5	0.032	-4e-05	0	-8.5	0.032	-4e-05	0
1502	-8.5	0.032	-2e-05	0	-8.5	0.032	-2e-05	0
1503	-8.5	0.032	0	0	-8.5	0.032	0	0
1504	-8.5	0.033	-6e-05	0	-8.5	0.033	-6e-05	0
1505	-8.5	0.033	-4e-05	0	-8.5	0.033	-4e-05	0
1506	-8.5	0.033	-2e-05	0	-8.5	0.033	-2e-05	0
1507	-8.5	0.033	0	0	-8.5	0.033	0	0
1508	-8.5	0.034	-6e-05	0	-8.5	0.034	-6e-05	0
1509	-8.5	0.034	-4e-05	0	-8.5	0.034	-4e-05	0
1510	-8.5	0.034	-2e-05	0	-8.5	0.034	-2e-05	0
1511	-8.5	0.034	0	0	-8.5	0.034	0	0
1512	-8.5	0.035	-6e-05	0	-8.5	0.035	-6e-05	0
1513	-8.5	0.035	-4e-05	0	-8.5	0.035	-4e-05	0
1514	-8.5	0.035	-2e-05	0	-8.5	0.035	-2e-05	0
1515	-8.5	0.035	0	0	-8.5	0.035	0	0
1516	-8.5	0.036	-6e-05	0	-8.5	0.036	-6e-05	0
1517	-8.5	0.036	-4e-05	0	-8.5	0.036	-4e-05	0
1518	-8.5	0.036	-2e-05	0	-8.5	0.036	-2e-05	0
1519	-8.5	0.036	0	0	-8.5	0.036	0	0
1520	-8.5	0.037	-6e-05	0	-8.5	0.037	-6e-05	0
1521	-8.5	0.037	-4e-05	0	-8.5	0.037	-4e-05	0
1522	-8.5	0.037	-2e-05	0	-8.5	0.037	-2e-05	0
1523	-8.5	0.037	0	0	-8.5	0.037	0	0
1524	-8.5	0.038	-6e-05	0	-8.5	0.038	-6e-05	0
1525	-8.5	0.038	-4e-05	0	-8.5	0.038	-4e-05	0
1526	-8.5	0.038	-2e-05	0	-8.5	0.038	-2e-05	0
1527	-8.5	0.038	0	0	-8.5	0.038	0	0
1528	-8.5	0.039	-6e-05	0	-8.5	0.039	-6e-05	0
1529	-8.5	0.039	-4e-05	0	-8.5	0.039	-4e-05	0
1530	-8.5	0.039	-2e-05	0	-8.5	0.039	-2e-05	0
1531	-8.5	0.039	0	0	-8.5	0.039	0	0
1532	-8.5	0.04	-8e-05	0	-8.5	0.04	-8e-05	0
1533	-8.5	0.04	-6e-05	0	-8.5	0.04	-6e-05	0
1534	-8.5	0.04	-4e-05	0	-8.5	0.04	-4e-05	0
1535	-8.5	0.04	-2e-05	0	-8.5	0.04	-2e-05	0
1536	-8.5	0.04	0	0	-8.5	0.04	0	0
1537	-8.5	0.041	-8e-05	0	-8.5	0.041	-8e-05	0
1538	-8.5	0.041	-6e-05	0	-8.5	0.041	-6e-05	0
1539	-8.5	0.041	-4e-05	0	-8.5	0.041	-4e-05	0
1540	-8.5	0.041	-2e-05	0	-8.5	0.041	-2e-05	0
1541	-8.5	0.041	0	0	-8.5	0.041	0	0
1542	-8.5	0.042	-8e-05	0	-8.5	0.042	-8e-05	0
1543	-8.5	0.042	-6e-05	0	-8.5	0.042	-6e-05	0
1544	-8.5	0.042	-4e-05	0	-8.5	0.042	-4e-05	0
1545	-8.5	0.042	-2e-05	0	-8.5	0.042	-2e-05	0
1546	-8.5	0.043	-8e-05	0	-8.5	0.043	-8e-05	0
1547	-8.5	0.043	-6e-05	0	-8.5	0.043	-6e-05	0
1548	-8.5	0.043	-4e-05	0	-8.5	0.043	-4e-05	0
1549	-8.5	0.043	-2e-05	0	-8.5	0.043	-2e-05	0
1550	-8.5	0.044	-8e-05	0	-8.5	0.044	-8e-05	0
1551	-8.5	0.044	-6e-05	0	-8.5	0.044	-6e-05	0
1552	-8.5	0.044	-4e-05	0	-8.5	0.044	-4e-05	0
1553	-8.5	0.044	-2e-05	0	-8.5	0.044	-2e-05	0
1554	-8.5	0.045	-8e-05	0	-8.5	0.045	-8e-05	0
1555	-8.5	0.045	-6e-05	0	-8.5	0.045	-6e-05	0
1556	-8.5	0.045	-4e-05	0	-8.5	0.045	-4e-05	0
1557	-8.5	0.045	-2e-05	0	-8.5	0.045	-2e-05	0
1558	-8.5	0.046	-8e-05	0	-8.5	0.046	-8e-05	0
1559	-8.5	0.046	-6e-05	0	-8.5	0.046	-6e-05	0
1560	-8.5	0.046	-4e-05	0	-8.5	0.046	-4e-05	0
1561	-8.5	0.046	-2e-05	0	-8.5	0.046	-2e-05	0
1562	-8.5	0.047	-8e-05	0	-8.5	0.047	-8e-05	0
1563	-8.5	0.047	-6e-05	0	-8.5	0.047	-6e-05	0
1564	-8.5	0.047	-4e-05	0	-8.5	0.047	-4e-05	0
1565	-8.5	0.047	-2e-05	0	-8.5	0.047	-2e-05	0
1566	-8.5	0.048	-8e-05	0	-8.5	0.048	-8e-05	0
1567	-8.5	0.048	-6e-05	0	-8.5	0.048	-6e-05	0
1568	-8.5	0.048	-4e-05	0	-8.5	0.048	-4e-05	0
1569	-8.5	0.048	-2e-05	0	-8.5	0.048	-2e-05	0
1570	-8.5	0.049	-8e-05	0	-8.5	0.049	-8e-05	0
1571	-8.5	0.049	-6e-05	0	-8.5	0.049	-6e-05	0
1572	-8.5	0.049	-4e-05	0	-8.5	0.049	-4e-05	0
1573	-8.5	0.049	-2e-05	0	-8.5	0.049	-2e-05	0
1574	-8.5	0.05	-8e-05	0	-8.5	0.05	-8e-05	0
1575	-8.5	0.05	-6e-05	0	-8.5	0.05	-6e-05	0
1576	-8.5	0.05	-4e-05	0	-8.5	0.05	-4e-05	0
1577	-8.5	0.05	-2e-05	0	-8.5	0.05	-2e-05	0
1578	-8.5	0.051	-8e-05	0	-8.5	0.051	-8e-05	0
1579	-8.5	0.051	-6e-05	0	-8.5	0.051	-6e-05	0
1580	-8.5	0.051	-4e-05	0	-8.5	0.051	-4e-05	0
1581	-8.5	0.051	-2e-05	0	-8.5	0.051	-2e-05	0
1582	-8.5	0.052	-8e-05	0	-8.5	0.052	-8e-05	0
1583	-8.5	0.052	-6e-05	0	-8.5	0.052	-6e-05	0
1584	-8.5	0.052	-4e-05	0	-8.5	0.052	-4e-05	0
1585	-8.5	0.052	-2e-05	0	-8.5	0.052	-2e-05	0
1586	-8.5	0.053	-8e-05	0	-8.5	0.053	-8e-05	0
1587	-8.5	0.053	-6e-05	0	-8.5	0.053	-6e-05	0
1588	-8.5	0.053	-4e-05	0	-8.5	0.053	-4e-05	0
1589	-8.5	0.053	-2e-05	0	-8.5	0.053	-2e-05	0
1590	-8.5	0.054	-8e-05	0	-8.5	0.054	-8e-05	0
1591	-8.5	0.054	-6e-05	0	-8.5	0.054	-6e-05	0
1592	-8.5	0.054	-4e-05	0	-8.5	0.054	-4e-05	0
1593	-8.5	0.054	-2e-05	0	-8.5	0.054	-2e-05	0
1594	-8.5	0.055	-8e-05	0	-8.5	0.055	-8e-05	0
1595	-8.5	0.055	-6e-05	0	-8.5	0.055	-6e-05	0
1596	-8.5	0.055	-4e-05	0	-8.5	0.055	-4e-05	0
1597	-8.5	0.056	-0.0001	0	-8.5	0.056	-0.0001	0
1598	-8.5	0.056	-8e-05	0	-8.5	0.056	-8e-05	0
1599	-8.5	0.056	-6e-05	0	-8.5	0.056	-6e-05	0
1600	-8.5	0.056	-4e-05	0	-8.5	0.056	-4e-05	0
1601	-8.5	0.057	-0.0001	0	-8.5	0.057	-0.0001	0
1602	-8.5	0.057	-8e-05	0	-8.5	0.057	-8e-05	0
1603	-8.5	0.057	-6e-05	0	-8.5	0.057	-6e-05	0
1604	-8.5	0.057	-4e-05	0	-8.5	0.057	-4e-05	0
1605	-8.5	0.058	-0.0001	0	-8.5	0.058	-0.0001	0
1606	-8.5	0.058	-8e-05	0	-8.5	0.058	-8e-05	0
1607	-8.5	0.058	-6e-05	0	-8.5	0.058	-6e-05	0
1608	-8.5	0.058	-4e-05	0	-8.5	0.058	-4e-05	0
1609	-8.5	0.059	-0.0001	0	-8.5	0.059	-0.0001	0
1610	-8.5	0.059	-8e-05	0	-8.5	0.059	-8e-05	0
1611	-8.5	0.059	-6e-05	0	-8.5	0.059	-6e-05	0
1612	-8.5	0.059	-4e-05	0	-8.5	0.059	-4e-05	0
1613	-8.5	0.06	-0.0001	0	-8.5	0.06	-0.0001	0
1614	-8.5	0.06	-8e-05	0	-8.5	0.06	-8e-05	0
1615	-8.5	0.06	-6e-05	0	-8.5	0.06	-6e-05	0
1616	-8.5	0.06	-4e-05	0	-8.5	0.06	-4e-05	0
1617	-8.5	0.061	-0.0001	0	-8.5	0.061	-0.0001	0
1618	-8.5	0.061	-8e-05	0	-8.5	0.061	-8e-05	0
1619	-8.5	0.061	-6e-05	0	-8.5	0.061	-6e-05	0
1620	-8.5	0.061	-4e-05	0	-8.5	0.061	-4e-05	0
1621	-8.5	0.062	-0.0001	0	-8.5	0.062	-0.0001	0
1622	-8.5	0.062	-8e-05	0	-8.5	0.062	-8e-05	0
1623	-8.5	0.062	-6e-05	0	-8.5	0.062	-6e-05	0
1624	-8.5	0.062	-4e-05	0	-8.5	0.062	-4e-05	0
1625	-8.5	0.063	-0.0001	0	-8.5	0.063	-0.0001	0
1626	-8.5	0.063	-8e-05	0	-8.5	0.063	-8e-05	0
1627	-8.5	0.063	-6e-05	0	-8.5	0.063	-6e-05	0
1628	-8.5	0.063	-4e-05	0	-8.5	0.063	-4e-05	0
1629	-8.5	0.064	-0.0001	0	-8.5	0.064	-0.0001	0
1630	-8.5	0.064	-8e-05	0	-8.5	0.064	-8e-05	0
1631	-8.5	0.064	-6e-05	0	-8.5	0.064	-6e-05	0
1632	-8.5	0.064	-4e-05	0	-8.5	0.064	-4e-05	0
1633	-8.5	0.065	-0.0001	0	-8.5	0.065	-0.0001	0
1634	-8.5	0.065	-8e-05	0	-8.5	0.065	-8e-05	0
1635	-8.5	0.065	-6e-05	0	-8.5	0.065	-6e-05	0
1636	-8.5	0.065	-4e-05	0	-8.5	0.065	-4e-05	0
1637	-8.5	0.066	-0.0001	0	-8.5	0.066	-0.0001	0
1638	-8.5	0.066	-8e-05	0	-8.5	0.066	-8e-05	0
1639	-8.5	0.066	-6e-05	0	-8.5	0.066	-6e-05	0
1640	-8.5	0.066	-4e-05	0	-8.5	0.066	-4e-05	0
1641	-8.5	0.067	-0.0001	0	-8.5	0.067	-0.0001	0
1642	-8.5	0.067	-8e-05	0	-8.5	0.067	-8e-05	0
1643	-8.5	0.067	-6e-05	0	-8.5	0.067	-6e-05	0
1644	-8.5	0.068	-0.0001	0	-8.5	0.068	-0.0001	0
1645	-8.5	0.068	-8e-05	0	-8.5	0.068	-8e-05	0
1646	-8.5	0.068	-6e-05	0	-8.5	0.068	-6e-05	0
1647	-8.5	0.069	-0.0001	0	-8.5	0.069	-0.0001	0
1648	-8.5	0.069	-8e-05	0	-8.5	0.069	-8e-05	0
1649	-8.5	0.069	-6e-05	0	-8.5	0.069	-6e-05	0
1650	-8.5	0.07	-0.0001	0	-8.5	0.07	-0.0001	0
1651	-8.5	0.07	-8e-05	0	-8.5	0.07	-8e-05	0
1652	-8.5	0.07	-6e-05	0	-8.5	0.07	-6e-05	0
1653	-8.5	0.071	-0.0001	0	-8.5	0.071	-0.0001	0
1654	-8.5	0.071	-8e-05	0	-8.5	0.071	-8e-05	0
1655	-8.5	0.071	-6e-05	0	-8.5	0.071	-6e-05	0
1656	-8.5	0.072	-0.0001	0	-8.5	0.072	-0.0001	0
1657	-8.5	0.072	-8e-05	0	-8.5	0.072	-8e-05	0
1658	-8.5	0.072	-6e-05	0	-8.5	0.072	-6e-05	0
1659	-8.5	0.073	-0.0001	0	-8.5	0.073	-0.0001	0
1660	-8.5	0.073	-8e-05	0	-8.5	0.073	-8e-05	0
1661	-8.5	0.073	-6e-05	0	-8.5	0.073	-6e-05	0
1662	-8.5	0.074	-0.0001	0	-8.5	0.074	-0.0001	0
1663	-8.5	0.074	-8e-05	0	-8.5	0.074	-8e-05	0
1664	-8.5	0.074	-6e-05	0	-8.5	0.074	-6e-05	0
1665	-8.5	0.075	-0.0001	0	-8.5	0.075	-0.0001	0
1666	-8.5	0.075	-8e-05	0	-8.5	0.075	-8e-05	0
1667	-8.5	0.075	-6e-05	0	-8.5	0.075	-6e-05	0
1668	-8.5	0.076	-0.0001	0	-8.5	0.076	-0.0001	0
1669	-8.5	0.076	-8e-05	0	-8.5	0.076	-8e-05	0
1670	-8.5	0.076	-6e-05	0	-8.5	0.076	-6e-05	0
1671	-8.5	0.077	-0.0001	0	-8.5	0.077	-0.0001	0
1672	-8.5	0.077	-8e-05	0	-8.5	0.077	-8e-05	0
1673	-8.5	0.077	-6e-05	0	-8.5	0.077	-6e-05	0
1674	-8.5	0.078	-0.0001	0	-8.5	0.078	-0.0001	0
1675	-8.5	0.078	-8e-05	0	-8.5	0.078	-8e-05	0
1676	-8.5	0.078	-6e-05	0	-8.5	0.078	-6e-05	0
1677	-8.5	0.079	-0.0001	0	-8.5	0.079	-0.0001	0
1678	-8.5	0.079	-8e-05	0	-8.5	0.079	-8e-05	0
1679	-8.5	0.079	-6e-05	0	-8.5	0.079	-6e-05	0
1680	-8.5	0.08	-0.0001	0	-8.5	0.08	-0.0001	0
1681	-8.5	0.08	-8e-05	0	-8.5	0.08	-8e-05	0
1682	-8.5	0.081	-0.0001	0	-8.5	0.081	-0.0001	0
1683	-8.5	0.081	-8e-05	0	-8.5	0.081	-8e-05	0
1684	-8.5	0.082	-0.0001	0	-8.5	0.082	-0.0001	0
1685	-8.5	0.082	-8e-05	0	-8.5	0.082	-8e-05	0
1686	-8.5	0.083	-0.0001	0	-8.5	0.083	-0.0001	0
1687	-8.5	0.083	-8e-05	0	-8.5	0.083	-8e-05	0
1688	-8.5	0.084	-0.0001	0	-8.5	0.084	-0.0001	0
1689	-8.5	0.084	-8e-05	0	-8.5	0.084	-8e-05	0
1690	-8.5	0.085	-0.0001	0	-8.5	0.085	-0.0001	0
1691	-8.5	0.085	-8e-05	0	-8.5	0.085	-8e-05	0
1692	-8.5	0.086	-0.0001	0	-8.5	0.086	-0.0001	0
1693	-8.5	0.086	-8e-05	0	-8.5	0.086	-8e-05	0
1694	-8.5	0.087	-0.0001	0	-8.5	0.087	-0.0001	0
1695	-8.5	0.087	-8e-05	0	-8.5	0.087	-8e-05	0
1696	-8.5	0.088	-0.0001	0	-8.5	0.088	-0.0001	0
1697	-8.5	0.088	-8e-05	0	-8.5	0.088	-8e-05	0
1698	-8.5	0.089	-0.0001	0	-8.5	0.089	-0.0001	0
1699	-8.5	0.089	-8e-05	0	-8.5	0.089	-8e-05	0
1700	-8.5	0.09	-0.0001	0	-8.5	0.09	-0.0001	0
1701	-8.5	0.091	-0.0001	0	-8.5	0.091	-0.0001	0
1702	-8.5	0.092	-0.0001	0	-8.5	0.092	-0.0001	0
1703	-8.5	0.093	-0.0001	0	-8.5	0.093	-0.0001	0
1704	-8.5	0.094	-0.0001	0	-8.5	0.094	-0.0001	0
1705	-8.5	0.095	-0.0001	0	-8.5	0.095	-0.0001	0
1706	-8	-0.039	0.0001	0	-8	-0.039	0.0001	0
1707	-8	-0.038	0.0001	0	-8	-0.038	0.0001	0
1708	-8	-0.037	0.0001	0	-8	-0.037	0.0001	0
1709	-8	-0.035	8e-05	0	-8	-0.035	8e-05	0
1710	-8	-0.034	8e-05	0	-8	-0.034	8e-05	0
1711	-8	-0.033	8e-05	0	-8	-0.033	8e-05	0
1712	-8	-0.032	8e-05	0	-8	-0.032	8e-05	0
1713	-8	-0.031	8e-05	0	-8	-0.031	8e-05	0
1714	-8	-0.03	6e-05	0	-8	-0.03	6e-05	0
1715	-8	-0.03	8e-05	0	-8	-0.03	8e-05	0
1716	-8	-0.029	6e-05	0	-8	-0.029	6e-05	0
1717	-8	-0.029	8e-05	0	-8	-0.029	8e-05	0
1718	-8	-0.028	6e-05	0	-8	-0.028	6e-05	0
1719	-8	-0.028	8e-05	0	-8	-0.028	8e-05	0
1720	-8	-0.027	6e-05	0	-8	-0.027	6e-05	0
1721	-8	-0.027	8e-05	0	-8	-0.027	8e-05	0
1722	-8	-0.026	6e-05	0	-8	-0.026	6e-05	0
1723	-8	-0.026	8e-05	0	-8	-0.026	8e-05	0
1724	-8	-0.025	4e-05	0	-8	-0.025	4e-05	0
1725	-8	-0.025	6e-05	0	-8	-0.025	6e-05	0
1726	-8	-0.025	8e-05	0	-8	-0.025	8e-05	0
1727	-8	-0.024	4e-05	0	-8	-0.024	4e-05	0
1728	-8	-0.024	6e-05	0	-8	-0.024	6e-05	0
1729	-8	-0.024	8e-05	0	-8	-0.024	8e-05	0
1730	-8	-0.023	4e-05	0	-8	-0.023	4e-05	0
1731	-8	-0.023	6e-05	0	-8	-0.023	6e-05	0
1732	-8	-0.023	8e-05	0	-8	-0.023	8e-05	0
1733	-8	-0.022	4e-05	0	-8	-0.022	4e-05	0
1734	-8	-0.022	6e-05	0	-8	-0.022	6e-05	0
1735	-8	-0.022	8e-05	0	-8	-0.022	8e-05	0
1736	-8	-0.021	4e-05	0	-8	-0.021	4e-05	0
1737	-8	-0.021	6e-05	0	-8	-0.021	6e-05	0
1738	-8	-0.021	8e-05	0	-8	-0.021	8e-05	0
1739	-8	-0.02	4e-05	0	-8	-0.02	4e-05	0
1740	-8	-0.02	6e-05	0	-8	-0.02	6e-05	0
1741	-8	-0.02	8e-05	0	-8	-0.02	8e-05	0
1742	-8	-0.019	2e-05	0	-8	-0.019	2e-05	0
1743	-8	-0.019	4e-05	0	-8	-0.019	4e-05	0
1744	-8	-0.019	6e-05	0	-8	-0.019	6e-05	0
1745	-8	-0.018	2e-05	0	-8	-0.018	2e-05	0
1746	-8	-0.018	4e-05	0	-8	-0.018	4e-05	0
1747	-8	-0.018	6e-05	0	-8	-0.018	6e-05	0
1748	-8	-0.017	2e-05	0	-8	-0.017	2e-05	0
1749	-8	-0.017	4e-05	0	-8	-0.017	4e-05	0
1750	-8	-0.017	6e-05	0	-8	-0.017	6e-05	0
1751	-8	-0.016	2e-05	0	-8	-0.016	2e-05	0
1752	-8	-0.016	4e-05	0	-8	-0.016	4e-05	0
1753	-8	-0.016	6e-05	0	-8	-0.016	6e-05	0
1754	-8	-0.015	2e-05	0	-8	-0.015	2e-05	0
1755	-8	-0.015	4e-05	0	-8	-0.015	4e-05	0
1756	-8	-0.015	6e-05	0	-8	-0.015	6e-05	0
1757	-8	-0.014	2e-05	0	-8	-0.014	2e-05	0
1758	-8	-0.014	4e-05	0	-8	-0.014	4e-05	0
1759	-8	-0.014	6e-05	0	-8	-0.014	6e-05	0
1760	-8	-0.013	0	0	-8	-0.013	0	0
1761	-8	-0.013	2e-05	0	-8	-0.013	2e-05	0
1762	-8	-0.013	4e-05	0	-8	-0.013	4e-05	0
1763	-8	-0.013	6e-05	0	-8	-0.013	6e-05	0
1764	-8	-0.012	0	0	-8	-0.012	0	0
1765	-8	-0.012	2e-05	0	-8	-0.012	2e-05	0
1766	-8	-0.012	4e-05	0	-8	-0.012	4e-05	0
1767	-8	-0.012	6e-05	0	-8	-0.012	6e-05	0
1768	-8	-0.011	0	0	-8	-0.011	0	0
1769	-8	-0.011	2e-05	0	-8	-0.011	2e-05	0
1770	-8	-0.011	4e-05	0	-8	-0.011	4e-05	0
1771	-8	-0.011	6e-05	0	-8	-0.011	6e-05	0
1772	-8	-0.01	0	0	-8	-0.01	0	0
1773	-8	-0.01	2e-05	0	-8	-0.01	2e-05	0
1774	-8	-0.01	4e-05	0	-8	-0.01	4e-05	0
1775	-8	-0.01	6e-05	0	-8	-0.01	6e-05	0
1776	-8	-0.009	0	0	-8	-0.009	0	0
1777	-8	-0.009	2e-05	0	-8	-0.009	2e-05	0
1778	-8	-0.009	4e-05	0	-8	-0.009	4e-05	0
1779	-8	-0.009	6e-05	0	-8	-0.009	6e-05	0
1780	-8	-0.008	0	0	-8	-0.008	0	0
1781	-8	-0.008	2e-05	0	-8	-0.008	2e-05	0
1782	-8	-0.008	4e-05	0	-8	-0.008	4e-05	0
1783	-8	-0.008	6e-05	0	-8	-0.008	6e-05	0
1784	-8	-0.007	0	0	-8	-0.007	0	0
1785	-8	-0.007	2e-05	0	-8	-0.007	2e-05	0
1786	-8	-0.007	4e-05	0	-8	-0.007	4e-05	0
1787	-8	-0.007	6e-05	0	-8	-0.007	6e-05	0
1788	-8	-0.006	0	0	-8	-0.006	0	0
1789	-8	-0.006	2e-05	0	-8	-0.006	2e-05	0
1790	-8	-0.006	4e-05	0	-8	-0.006	4e-05	0
1791	-8	-0.006	6e-05	0	-8	-0.006	6e-05	0
1792	-8	-0.005	0	0	-8	-0.005	0	0
1793	-8	-0.005	2e-05	0	-8	-0.005	2e-05	0
1794	-8	-0.005	4e-05	0	-8	-0.005	4e-05	0
1795	-8	-0.005	6e-05	0	-8	-0.005	6e-05	0
1796	-8	-0.004	0	0	-8	-0.004	0	0
1797	-8	-0.004	2e-05	0	-8	-0.004	2e-05	0
1798	-8	-0.004	4e-05	0	-8	-0.004	4e-05	0
1799	-8	-0.004	6e-05	0	-8	-0.004	6e-05	0
1800	-8	-0.003	0	0	-8	-0.003	0	0
1801	-8	-0.003	2e-05	0	-8	-0.003	2e-05	0
1802	-8	-0.003	4e-05	0	-8	-0.003	4e-05	0
1803	-8	-0.003	6e-05	0	-8	-0.003	6e-05	0
1804	-8	-0.002	-2e-05	0	-8	-0.002	-2e-05	0
1805	-8	-0.002	0	0	-8	-0.002	0	0
1806	-8	-0.002	2e-05	0	-8	-0.002	2e-05	0
1807	-8	-0.002	4e-05	0	-8	-0.002	4e-05	0
1808	-8	-0.001	-2e-05	0	-8	-0.001	-2e-05	0
1809	-8	-0.001	0	0	-8	-0.001	0	0
1810	-8	-0.001	2e-05	0	-8	-0.001	2e-05	0
1811	-8	-0.001	4e-05	0	-8	-0.001	4e-05	0
1812	-8	0	-2e-05	0	-8	0	-2e-05	0
1813	-8	0	0	0	-8	0	0	0
1814	-8	0	2e-05	0	-8	0	2e-05	0
1815	-8	0	4e-05	0	-8	0	4e-05	0
1816	-8	0.001	-2e-05	0	-8	0.001	-2e-05	0
1817	-8	0.001	0	0	-8	0.001	0	0
1818	-8	0.001	2e-05	0	-8	0.001	2e-05	0
1819	-8	0.001	4e-05	0	-8	0.001	4e-05	0
1820	-8	0.002	-2e-05	0	-8	0.002	-2e-05	0
1821	-8	0.002	0	0	-8	0.002	0	0
1822	-8	0.002	2e-05	0	-8	0.002	2e-05	0
1823	-8	0.002	4e-05	0	-8	0.002	4e-05	0
1824	-8	0.003	-2e-05	0	-8	0.003	-2e-05	0
1825	-8	0.003	0	0	-8	0.003	0	0
1826	-8	0.003	2e-05	0	-8	0.003	2e-05	0
1827	-8	0.003	4e-05	0	-8	0.003	4e-05	0
1828	-8	0.004	-2e-05	0	-8	0.004	-2e-05	0
1829	-8	0.004	0	0	-8	0.004	0	0
1830	-8	0.004	2e-05	0	-8	0.004	2e-05	0
1831	-8	0.004	4e-05	0	-8	0.004	4e-05	0
1832	-8	0.005	-2e-05	0	-8	0.005	-2e-05	0
1833	-8	0.005	0	0	-8	0.005	0	0
1834	-8	0.005	2e-05	0	-8	0.005	2e-05	0
1835	-8	0.005	4e-05	0	-8	0.005	4e-05	0
1836	-8	0.006	-2e-05	0	-8	0.006	-2e-05	0
1837	-8	0.006	0	0	-8	0.006	0	0
1838	-8	0.006	2e-05	0	-8	0.006	2e-05	0
1839	-8	0.006	4e-05	0	-8	0.006	4e-05	0
1840	-8	0.007	-2e-05	0	-8	0.007	-2e-05	0
1841	-8	0.007	0	0	-8	0.007	0	0
1842	-8	0.007	2e-05	0	-8	0.007	2e-05	0
1843	-8	0.007	4e-05	0	-8	0.007	4e-05	0
1844	-8	0.008	-2e-05	0	-8	0.008	-2e-05	0
1845	-8	0.008	0	0	-8	0.008	0	0
1846	-8	0.008	2e-05	0	-8	0.008	2e-05	0
1847	-8	0.008	4e-05	0	-8	0.008	4e-05	0
1848	-8	0.009	-2e-05	0	-8	0.009	-2e-05	0
1849	-8	0.009	0	0	-8	0.009	0	0
1850	-8	0.009	2e-05	0	-8	0.009	2e-05	0
1851	-8	0.009	4e-05	0	-8	0.009	4e-05	0
1852	-8	0.01	-4e-05	0	-8	0.01	-4e-05	0
1853	-8	0.01	-2e-05	0	-8	0.01	-2e-05	0
1854	-8	0.01	0	0	-8	0.01	0	0
1855	-8	0.01	2e-05	0	-8	0.01	2e-05	0
1856	-8	0.01	4e-05	0	-8	0.01	4e-05	0
1857	-8	0.011	-4e-05	0	-8	0.011	-4e-05	0
1858	-8	0.011	-2e-05	0	-8	0.011	-2e-05	0
1859	-8	0.011	0	0	-8	0.011	0	0
1860	-8	0.011	2e-05	0	-8	0.011	2e-05	0
1861	-8	0.011	4e-05	0	-8	0.011	4e-05	0
1862	-8	0.012	-4e-05	0	-8	0.012	-4e-05	0
1863	-8	0.012	-2e-05	0	-8	0.012	-2e-05	0
1864	-8	0.012	0	0	-8	0.012	0	0
1865	-8	0.012	2e-05	0	-8	0.012	2e-05	0
1866	-8	0.012	4e-05	0	-8	0.012	4e-05	0
1867	-8	0.013	-4e-05	0	-8	0.013	-4e-05	0
1868	-8	0.013	-2e-05	0	-8	0.013	-2e-05	0
1869	-8	0.013	0	0	-8	0.013	0	0
1870	-8	0.013	2e-05	0	-8	0.013	2e-05	0
1871	-8	0.014	-4e-05	0	-8	0.014	-4e-05	0
1872	-8	0.014	-2e-05	0	-8	0.014	-2e-05	0
1873	-8	0.014	0	0	-8	0.014	0	0
1874	-8	0.014	2e-05	0	-8	0.014	2e-05	0
1875	-8	0.015	-4e-05	0	-8	0.015	-4e-05	0
1876	-8	0.015	-2e-05	0	-8	0.015	-2e-05	0
1877	-8	0.015	0	0	-8	0.015	0	0
1878	-8	0.015	2e-05	0	-8	0.015	2e-05	0
1879	-8	0.016	-4e-05	0	-8	0.016	-4e-05	0
1880	-8	0.016	-2e-05	0	-8	0.016	-2e-05	0
1881	-8	0.016	0	0	-8	0.016	0	0
1882	-8	0.016	2e-05	0	-8	0.016	2e-05	0
1883	-8	0.017	-4e-05	0	-8	0.017	-4e-05	0
1884	-8	0.017	-2e-05	0	-8	0.017	-2e-05	0
1885	-8	0.017	0	0	-8	0.017	0	0
1886	-8	0.017	2e-05	0	-8	0.017	2e-05	0
1887	-8	0.018	-4e-05	0	-8	0.018	-4e-05	0
1888	-8	0.018	-2e-05	0	-8	0.018	-2e-05	0
1889	-8	0.018	0	0	-8	0.018	0	0
1890	-8	0.018	2e-05	0	-8	0.018	2e-05	0
1891	-8	0.019	-4e-05	0	-8	0.019	-4e-05	0
1892	-8	0.019	-2e-05	0	-8	0.019	-2e-05	0
1893	-8	0.019	0	0	-8	0.019	0	0
1894	-8	0.019	2e-05	0	-8	0.019	2e-05	0
1895	-8	0.02	-4e-05	0	-8	0.02	-4e-05	0
1896	-8	0.02	-2e-05	0	-8	0.02	-2e-05	0
1897	-8	0.02	0	0	-8	0.02	0	0
1898	-8	0.02	2e-05	0	-8	0.02	2e-05	0
1899	-8	0.021	-4e-05	0	-8	0.021	-4e-05	0
1900	-8	0.021	-2e-05	0	-8	0.021	-2e-05	0
1901	-8	0.021	0	0	-8	0.021	0	0
1902	-8	0.021	2e-05	0	-8	0.021	2e-05	0
1903	-8	0.022	-4e-05	0	-8	0.022	-4e-05	0
1904	-8	0.022	-2e-05	0	-8	0.022	-2e-05	0
1905	-8	0.022	0	0	-8	0.022	0	0
1906	-8	0.022	2e-05	0	-8	0.022	2e-05	0
1907	-8	0.023	-4e-05	0	-8	0.023	-4e-05	0
1908	-8	0.023	-2e-05	0	-8	0.023	-2e-05	0
1909	-8	0.023	0	0	-8	0.023	0	0
1910	-8	0.023	2e-05	0	-8	0.023	2e-05	0
1911	-8	0.024	-6e-05	0	-8	0.024	-6e-05	0
1912	-8	0.024	-4e-05	0	-8	0.024	-4e-05	0
1913	-8	0.024	-2e-05	0	-8	0.024	-2e-05	0
1914	-8	0.024	0	0	-8	0.024	0	0
1915	-8	0.024	2e-05	0	-8	0.024	2e-05	0
1916	-8	0.025	-6e-05	0	-8	0.025	-6e-05	0
1917	-8	0.025	-4e-05	0	-8	0.025	-4e-05	0
1918	-8	0.025	-2e-05	0	-8	0.025	-2e-05	0
1919	-8	0.025	0	0	-8	0.025	0	0
1920	-8	0.025	2e-05	0	-8	0.025	2e-05	0
1921	-8	0.026	-6e-05	0	-8	0.026	-6e-05	0
1922	-8	0.026	-4e-05	0	-8	0.026	-4e-05	0
1923	-8	0.026	-2e-05	0	-8	0.026	-2e-05	0
1924	-8	0.026	0	0	-8	0.026	0	0
1925	-8	0.026	2e-05	0	-8	0.026	2e-05	0
1926	-8	0.027	-6e-05	0	-8	0.027	-6e-05	0
1927	-8	0.027	-4e-05	0	-8	0.027	-4e-05	0
1928	-8	0.027	-2e-05	0	-8	0.027	-2e-05	0
1929	-8	0.027	0	0	-8	0.027	0	0
1930	-8	0.027	2e-05	0	-8	0.027	2e-05	0
1931	-8	0.028	-6e-05	0	-8	0.028	-6e-05	0
1932	-8	0.028	-4e-05	0	-8	0.028	-4e-05	0
1933	-8	0.028	-2e-05	0	-8	0.028	-2e-05	0
1934	-8	0.028	0	0	-8	0.028	0	0
1935	-8	0.029	-6e-05	0	-8	0.029	-6e-05	0
1936	-8	0.029	-4e-05	0	-8	0.029	-4e-05	0
1937	-8	0.029	-2e-05	0	-8	0.029	-2e-05	0
1938	-8	0.029	0	0	-8	0.029	0	0
1939	-8	0.03	-6e-05	0	-8	0.03	-6e-05	0
1940	-8	0.03	-4e-05	0	-8	0.03	-4e-05	0
1941	-8	0.03	-2e-05	0	-8	0.03	-2e-05	0
1942	-8	0.03	0	0	-8	0.03	0	0
1943	-8	0.031	-6e-05	0	-8	0.031	-6e-05	0
1944	-8	0.031	-4e-05	0	-8	0.031	-4e-05	0
1945	-8	0.031	-2e-05	0	-8	0.031	-2e-05	0
1946	-8	0.031	0	0	-8	0.031	0	0
1947	-8	0.032	-6e-05	0	-8	0.032	-6e-05	0
1948	-8	0.032	-4e-05	0	-8	0.032	-4e-05	0
1949	-8	0.032	-2e-05	0	-8	0.032	-2e-05	0
1950	-8	0.032	0	0	-8	0.032	0	0
1951	-8	0.033	-6e-05	0	-8	0.033	-6e-05	0
1952	-8	0.033	-4e-05	0	-8	0.033	-4e-05	0
1953	-8	0.033	-2e-05	0	-8	0.033	-2e-05	0
1954	-8	0.033	0	0	-8	0.033	0	0
1955	-8	0.034	-6e-05	0	-8	0.034	-6e-05	0
1956	-8	0.034	-4e-05	0	-8	0.034	-4e-05	0
1957	-8	0.034	-2e-05	0	-8	0.034	-2e-05	0
1958	-8	0.034	0	0	-8	0.034	0	0
1959	-8	0.035	-6e-05	0	-8	0.035	-6e-05	0
1960	-8	0.035	-4e-05	0	-8	0.035	-4e-05	0
1961	-8	0.035	-2e-05	0	-8	0.035	-2e-05	0
1962	-8	0.035	0	0	-8	0.035	0	0
1963	-8	0.036	-6e-05	0	-8	0.036	-6e-05	0
1964	-8	0.036	-4e-05	0	-8	0.036	-4e-05	0
1965	-8	0.036	-2e-05	0	-8	0.036	-2e-05	0
1966	-8	0.036	0	0	-8	0.036	0	0
1967	-8	0.037	-6e-05	0	-8	0.037	-6e-05	0
1968	-8	0.037	-4e-05	0	-8	0.037	-4e-05	0
1969	-8	0.037	-2e-05	0	-8	0.037	-2e-05	0
1970	-8	0.037	0	0	-8	0.037	0	0
1971	-8	0.038	-6e-05	0	-8	0.038	-6e-05	0
1972	-8	0.038	-4e-05	0	-8	0.038	-4e-05	0
1973	-8	0.038	-2e-05	0	-8	0.038	-2e-05	0
1974	-8	0.038	0	0	-8	0.038	0	0
1975	-8	0.039	-8e-05	0	-8	0.039	-8e-05	0
1976	-8	0.039	-6e-05	0	-8	0.039	-6e-05	0
1977	-8	0.039	-4e-05	0	-8	0.039	-4e-05	0
1978	-8	0.039	-2e-05	0	-8	0.039	-2e-05	0
1979	-8	0.039	0	0	-8	0.039	0	0
1980	-8	0.04	-8e-05	0	-8	0.04	-8e-05	0
1981	-8	0.04	-6e-05	0	-8	0.04	-6e-05	0
1982	-8	0.04	-4e-05	0	-8	0.04	-4e-05	0
1983	-8	0.04	-2e-05	0	-8	0.04	-2e-05	0
1984	-8	0.04	0	0	-8	0.04	0	0
1985	-8	0.041	-8e-05	0	-8	0.041	-8e-05	0
1986	-8	0.041	-6e-05	0	-8	0.041	-6e-05	0
1987	-8	0.041	-4e-05	0	-8	0.041	-4e-05	0
1988	-8	0.041	-2e-05	0	-8	0.041	-2e-05	0
1989	-8	0.042	-8e-05	0	-8	0.042	-8e-05	0
1990	-8	0.042	-6e-05	0	-8	0.042	-6e-05	0
1991	-8	0.042	-4e-05	0	-8	0.042	-4e-05	0
1992	-8	0.042	-2e-05	0	-8	0.042	-2e-05	0
1993	-8	0.043	-8e-05	0	-8	0.043	-8e-05	0
1994	-8	0.043	-6e-05	0	-8	0.043	-6e-05	0
1995	-8	0.043	-4e-05	0	-8	0.043	-4e-05	0
1996	-8	0.043	-2e-05	0	-8	0.043	-2e-05	0
1997	-8	0.044	-8e-05	0	-8	0.044	-8e-05	0
1998	-8	0.044	-6e-05	0	-8	0.044	-6e-05	0
1999	-8	0.044	-4e-05	0	-8	0.044	-4e-05	0
2000	-8	0.044	-2e-05	0	-8	0.044	-2e-05	0
2001	-8	0.045	-8e-05	0	-8	0.045	-8e-05	0
2002	-8	0.045	-6e-05	0	-8	0.045	-6e-05	0
2003	-8	0.045	-4e-05	0	-8	0.045	-4e-05	0
2004	-8	0.045	-2e-05	0	-8	0.045	-2e-05	0
2005	-8	0.046	-8e-05	0	-8	0.046	-8e-05	0
2006	-8	0.046	-6e-05	0	-8	0.046	-6e-05	0
2007	-8	0.046	-4e-05	0	-8	0.046	-4e-05	0
2008	-8	0.046	-2e-05	0	-8	0.046	-2e-05	0
2009	-8	0.047	-8e-05	0	-8	0.047	-8e-05	0
2010	-8	0.047	-6e-05	0	-8	0.047	-6e-05	0
2011	-8	0.047	-4e-05	0	-8	0.047	-4e-05	0
2012	-8	0.047	-2e-05	0	-8	0.047	-2e-05	0
2013	-8	0.048	-8e-05	0	-8	0.048	-8e-05	0
2014	-8	0.048	-6e-05	0	-8	0.048	-6e-05	0
2015	-8	0.048	-4e-05	0	-8	0.048	-4e-05	0
2016	-8	0.048	-2e-05	0	-8	0.048	-2e-05	0
2017	-8	0.049	-8e-05	0	-8	0.049	-8e-05	0
2018	-8	0.049	-6e-05	0	-8	0.049	-6e-05	0
2019	-8	0.049	-4e-05	0	-8	0.049	-4e-05	0
2020	-8	0.049	-2e-05	0	-8	0.049	-2e-05	0
2021	-8	0.05	-8e-05	0	-8	0.05	-8e-05	0
2022	-8	0.05	-6e-05	0	-8	0.05	-6e-05	0
2023	-8	0.05	-4e-05	0	-8	0.05	-4e-05	0
2024	-8	0.05	-2e-05	0	-8	0.05	-2e-05	0
2025	-8	0.051	-8e-05	0	-8	0.051	-8e-05	0
2026	-8	0.051	-6e-05	0	-8	0.051	-6e-05	0
2027	-8	0.051	-4e-05	0	-8	0.051	-4e-05	0
2028	-8	0.051	-2e-05	0	-8	0.051	-2e-05	0
2029	-8	0.052	-8e-05	0	-8	0.052	-8e-05	0
2030	-8	0.052	-6e-05	0	-8	0.052	-6e-05	0
2031	-8	0.052	-4e-05	0	-8	0.052	-4e-05	0
2032	-8	0.052	-2e-05	0	-8	0.052	-2e-05	0
2033	-8	0.053	-8e-05	0	-8	0.053	-8e-05	0
2034	-8	0.053	-6e-05	0	-8	0.053	-6e-05	0
2035	-8	0.053	-4e-05	0	-8	0.053	-4e-05	0
2036	-8	0.053	-2e-05	0	-8	0.053	-2e-05	0
2037	-8	0.054	-8e-05	0	-8	0.054	-8e-05	0
2038	-8	0.054	-6e-05	0	-8	0.054	-6e-05	0
2039	-8	0.054	-4e-05	0	-8	0.054	-4e-05	0
2040	-8	0.055	-8e-05	0	-8	0.055	-8e-05	0
2041	-8	0.055	-6e-05	0	-8	0.055	-6e-05	0
2042	-8	0.055	-4e-05	0	-8	0.055	-4e-05	0
2043	-8	0.056	-0.0001	0	-8	0.056	-0.0001	0
2044	-8	0.056	-8e-05	0	-8	0.056	-8e-05	0
2045	-8	0.056	-6e-05	0	-8	0.056	-6e-05	0
2046	-8	0.056	-4e-05	0	-8	0.056	-4e-05	0
2047	-8	0.057	-0.0001	0	-8	0.057	-0.0001	0
2048	-8	0.057	-8e-05	0	-8	0.057	-8e-05	0
2049	-8	0.057	-6e-05	0	-8	0.057	-6e-05	0
2050	-8	0.057	-4e-05	0	-8	0.057	-4e-05	0
2051	-8	0.058	-0.0001	0	-8	0.058	-0.0001	0
2052	-8	0.058	-8e-05	0	-8	0.058	-8e-05	0
2053	-8	0.058	-6e-05	0	-8	0.058	-6e-05	0
2054	-8	0.058	-4e-05	0	-8	0.058	-4e-05	0
2055	-8	0.059	-0.0001	0	-8	0.059	-0.0001	0
2056	-8	0.059	-8e-05	0	-8	0.059	-8e-05	0
2057	-8	0.059	-6e-05	0	-8	0.059	-6e-05	0
2058	-8	0.059	-4e-05	0	-8	0.059	-4e-05	0
2059	-8	0.06	-0.0001	0	-8	0.06	-0.0001	0
2060	-8	0.06	-8e-05	0	-8	0.06	-8e-05	0
2061	-8	0.06	-6e-05	0	-8	0.06	-6e-05	0
2062	-8	0.06	-4e-05	0	-8	0.06	-4e-05	0
2063	-8	0.061	-0.0001	0	-8	0.061	-0.0001	0
2064	-8	0.061	-8e-05	0	-8	0.061	-8e-05	0
2065	-8	0.061	-6e-05	0	-8	0.061	-6e-05	0
2066	-8	0.061	-4e-05	0	-8	0.061	-4e-05	0
2067	-8	0.062	-0.0001	0	-8	0.062	-0.0001	0
2068	-8	0.062	-8e-05	0	-8	0.062	-8e-05	0
2069	-8	0.062	-6e-05	0	-8	0.062	-6e-05	0
2070	-8	0.062	-4e-05	0	-8	0.062	-4e-05	0
2071	-8	0.063	-0.0001	0	-8	0.063	-0.0001	0
2072	-8	0.063	-8e-05	0	-8	0.063	-8e-05	0
2073	-8	0.063	-6e-05	0	-8	0.063	-6e-05	0
2074	-8	0.063	-4e-05	0	-8	0.063	-4e-05	0
2075	-8	0.064	-0.0001	0	-8	0.064	-0.0001	0
2076	-8	0.064	-8e-05	0	-8	0.064	-8e-05	0
2077	-8	0.064	-6e-05	0	-8	0.064	-6e-05	0
2078	-8	0.064	-4e-05	0	-8	0.064	-4e-05	0
2079	-8	0.065	-0.0001	0	-8	0.065	-0.0001	0
2080	-8	0.065	-8e-05	0	-8	0.065	-8e-05	0
2081	-8	0.065	-6e-05	0	-8	0.065	-6e-05	0
2082	-8	0.065	-4e-05	0	-8	0.065	-4e-05	0
2083	-8	0.066	-0.0001	0	-8	0.066	-0.0001	0
2084	-8	0.066	-8e-05	0	-8	0.066	-8e-05	0
2085	-8	0.066	-6e-05	0	-8	0.066	-6e-05	0
2086	-8	0.067	-0.0001	0	-8	0.067	-0.0001	0
2087	-8	0.067	-8e-05	0	-8	0.067	-8e-05	0
2088	-8	0.067	-6e-05	0	-8	0.067	-6e-05	0
2089	-8	0.068	-0.0001	0	-8	0.068	-0.0001	0
2090	-8	0.068	-8e-05	0	-8	0.068	-8e-05	0
2091	-8	0.068	-6e-05	0	-8	0.068	-6e-05	0
2092	-8	0.069	-0.0001	0	-8	0.069	-0.0001	0
2093	-8	0.069	-8e-05	0	-8	0.069	-8e-05	0
2094	-8	0.069	-6e-05	0	-8	0.069	-6e-05	0
2095	-8	0.07	-0.0001	0	-8	0.07	-0.0001	0
2096	-8	0.07	-8e-05	0	-8	0.07	-8e-05	0
2097	-8	0.07	-6e-05	0	-8	0.07	-6e-05	0
2098	-8	0.071	-0.0001	0	-8	0.071	-0.0001	0
2099	-8	0.071	-8e-05	0	-8	0.071	-8e-05	0
2100	-8	0.071	-6e-05	0	-8	0.071	-6e-05	0
2101	-8	0.072	-0.0001	0	-8	0.072	-0.0001	0
2102	-8	0.072	-8e-05	0	-8	0.072	-8e-05	0
2103	-8	0.072	-6e-05	0	-8	0.072	-6e-05	0
2104	-8	0.073	-0.0001	0	-8	0.073	-0.0001	0
2105	-8	0.073	-8e-05	0	-8	0.073	-8e-05	0
2106	-8	0.073	-6e-05	0	-8	0.073	-6e-05	0
2107	-8	0.074	-0.0001	0	-8	0.074	-0.0001	0
2108	-8	0.074	-8e-05	0	-8	0.074	-8e-05	0
2109	-8	0.074	-6e-05	0	-8	0.074	-6e-05	0
2110	-8	0.075	-0.0001	0	-8	0.075	-0.0001	0
2111	-8	0.075	-8e-05	0	-8	0.075	-8e-05	0
2112	-8	0.075	-6e-05	0	-8	0.075	-6e-05	0
2113	-8	0.076	-0.0001	0	-8	0.076	-0.0001	0
2114	-8	0.076	-8e-05	0	-8	0.076	-8e-05	0
2115	-8	0.076	-6e-05	0	-8	0.076	-6e-05	0
2116	-8	0.077	-0.0001	0	-8	0.077	-0.0001	0
2117	-8	0.077	-8e-05	0	-8	0.077	-8e-05	0
2118	-8	0.077	-6e-05	0	-8	0.077	-6e-05	0
2119	-8	0.078	-0.0001	0	-8	0.078	-0.0001	0
2120	-8	0.078	-8e-05	0	-8	0.078	-8e-05	0
2121	-8	0.078	-6e-05	0	-8	0.078	-6e-05	0
2122	-8	0.079	-0.0001	0	-8	0.079	-0.0001	0
2123	-8	0.079	-8e-05	0	-8	0.079	-8e-05	0
2124	-8	0.08	-0.0001	0	-8	0.08	-0.0001	0
2125	-8	0.08	-8e-05	0	-8	0.08	-8e-05	0
2126	-8	0.081	-0.0001	0	-8	0.081	-0.0001	0
2127	-8	0.081	-8e-05	0	-8	0.081	-8e-05	0
2128	-8	0.082	-0.0001	0	-8	0.082	-0.0001	0
2129	-8	0.082	-8e-05	0	-8	0.082	-8e-05	0
2130	-8	0.083	-0.0001	0	-8	0.083	-0.0001	0
2131	-8	0.083	-8e-05	0	-8	0.083	-8e-05	0
2132	-8	0.084	-0.0001	0	-8	0.084	-0.0001	0
2133	-8	0.084	-8e-05	0	-8	0.084	-8e-05	0
2134	-8	0.085	-0.0001	0	-8	0.085	-0.0001	0
2135	-8	0.085	-8e-05	0	-8	0.085	-8e-05	0
2136	-8	0.086	-0.0001	0	-8	0.086	-0.0001	0
2137	-8	0.086	-8e-05	0	-8	0.086	-8e-05	0
2138	-8	0.087	-0.0001	0	-8	0.087	-0.0001	0
2139	-8	0.087	-8e-05	0	-8	0.087	-8e-05	0
2140	-8	0.088	-0.0001	0	-8	0.088	-0.0001	0
2141	-8	0.089	-0.0001	0	-8	0.089	-0.0001	0
2142	-8	0.09	-0.0001	0	-8	0.09	-0.0001	0
2143	-8	0.091	-0.0001	0	-8	0.091	-0.0001	0
2144	-8	0.092	-0.0001	0	-8	0.092	-0.0001	0
2145	-8	0.093	-0.0001	0	-8	0.093	-0.0001	0
2146	-8	0.094	-0.0001	0	-8	0.094	-0.0001	0
2147	-7.5	-0.041	0.0001	0	-7.5	-0.041	0.0001	0
2148	-7.5	-0.04	0.0001	0	-7.5	-0.04	0.0001	0
2149	-7.5	-0.039	0.0001	0	-7.5	-0.039	0.0001	0
2150	-7.5	-0.038	0.0001	0	-7.5	-0.038	0.0001	0
2151	-7.5	-0.037	8e-05	0	-7.5	-0.037	8e-05	0
2152	-7.5	-0.036	8e-05	0	-7.5	-0.036	8e-05	0
2153	-7.5	-0.035	8e-05	0	-7.5	-0.035	8e-05	0
2154	-7.5	-0.034	8e-05	0	-7.5	-0.034	8e-05	0
2155	-7.5	-0.033	8e-05	0	-7.5	-0.033	8e-05	0
2156	-7.5	-0.032	6e-05	0	-7.5	-0.032	6e-05	0
2157	-7.5	-0.032	8e-05	0	-7.5	-0.032	8e-05	0
2158	-7.5	-0.031	6e-05	0	-7.5	-0.031	6e-05	0
2159	-7.5	-0.031	8e-05	0	-7.5	-0.031	8e-05	0
2160	-7.5	-0.03	6e-05	0	-7.5	-0.03	6e-05	0
2161	-7.5	-0.03	8e-05	0	-7.5	-0.03	8e-05	0
2162	-7.5	-0.029	6e-05	0	-7.5	-0.029	6e-05	0
2163	-7.5	-0.029	8e-05	0	-7.5	-0.029	8e-05	0
2164	-7.5	-0.028	6e-05	0	-7.5	-0.028	6e-05	0
2165	-7.5	-0.028	8e-05	0	-7.5	-0.028	8e-05	0
2166	-7.5	-0.027	4e-05	0	-7.5	-0.027	4e-05	0
2167	-7.5	-0.027	6e-05	0	-7.5	-0.027	6e-05	0
2168	-7.5	-0.027	8e-05	0	-7.5	-0.027	8e-05	0
2169	-7.5	-0.026	4e-05	0	-7.5	-0.026	4e-05	0
2170	-7.5	-0.026	6e-05	0	-7.5	-0.026	6e-05	0
2171	-7.5	-0.026	8e-05	0	-7.5	-0.026	8e-05	0
2172	-7.5	-0.025	4e-05	0	-7.5	-0.025	4e-05	0
2173	-7.5	-0.025	6e-05	0	-7.5	-0.025	6e-05	0
2174	-7.5	-0.025	8e-05	0	-7.5	-0.025	8e-05	0
2175	-7.5	-0.024	4e-05	0	-7.5	-0.024	4e-05	0
2176	-7.5	-0.024	6e-05	0	-7.5	-0.024	6e-05	0
2177	-7.5	-0.024	8e-05	0	-7.5	-0.024	8e-05	0
2178	-7.5	-0.023	4e-05	0	-7.5	-0.023	4e-05	0
2179	-7.5	-0.023	6e-05	0	-7.5	-0.023	6e-05	0
2180	-7.5	-0.023	8e-05	0	-7.5	-0.023	8e-05	0
2181	-7.5	-0.022	4e-05	0	-7.5	-0.022	4e-05	0
2182	-7.5	-0.022	6e-05	0	-7.5	-0.022	6e-05	0
2183	-7.5	-0.022	8e-05	0	-7.5	-0.022	8e-05	0
2184	-7.5	-0.021	2e-05	0	-7.5	-0.021	2e-05	0
2185	-7.5	-0.021	4e-05	0	-7.5	-0.021	4e-05	0
2186	-7.5	-0.021	6e-05	0	-7.5	-0.021	6e-05	0
2187	-7.5	-0.021	8e-05	0	-7.5	-0.021	8e-05	0
2188	-7.5	-0.02	2e-05	0	-7.5	-0.02	2e-05	0
2189	-7.5	-0.02	4e-05	0	-7.5	-0.02	4e-05	0
2190	-7.5	-0.02	6e-05	0	-7.5	-0.02	6e-05	0
2191	-7.5	-0.02	8e-05	0	-7.5	-0.02	8e-05	0
2192	-7.5	-0.019	2e-05	0	-7.5	-0.019	2e-05	0
2193	-7.5	-0.019	4e-05	0	-7.5	-0.019	4e-05	0
2194	-7.5	-0.019	6e-05	0	-7.5	-0.019	6e-05	0
2195	-7.5	-0.018	2e-05	0	-7.5	-0.018	2e-05	0
2196	-7.5	-0.018	4e-05	0	-7.5	-0.018	4e-05	0
2197	-7.5	-0.018	6e-05	0	-7.5	-0.018	6e-05	0
2198	-7.5	-0.017	2e-05	0	-7.5	-0.017	2e-05	0
2199	-7.5	-0.017	4e-05	0	-7.5	-0.017	4e-05	0
2200	-7.5	-0.017	6e-05	0	-7.5	-0.017	6e-05	0
2201	-7.5	-0.016	2e-05	0	-7.5	-0.016	2e-05	0
2202	-7.5	-0.016	4e-05	0	-7.5	-0.016	4e-05	0
2203	-7.5	-0.016	6e-05	0	-7.5	-0.016	6e-05	0
2204	-7.5	-0.015	2e-05	0	-7.5	-0.015	2e-05	0
2205	-7.5	-0.015	4e-05	0	-7.5	-0.015	4e-05	0
2206	-7.5	-0.015	6e-05	0	-7.5	-0.015	6e-05	0
2207	-7.5	-0.014	0	0	-7.5	-0.014	0	0
2208	-7.5	-0.014	2e-05	0	-7.5	-0.014	2e-05	0
2209	-7.5	-0.014	4e-05	0	-7.5	-0.014	4e-05	0
2210	-7.5	-0.014	6e-05	0	-7.5	-0.014	6e-05	0
2211	-7.5	-0.013	0	0	-7.5	-0.013	0	0
2212	-7.5	-0.013	2e-05	0	-7.5	-0.013	2e-05	0
2213	-7.5	-0.013	4e-05	0	-7.5	-0.013	4e-05	0
2214	-7.5	-0.013	6e-05	0	-7.5	-0.013	6e-05	0
2215	-7.5	-0.012	0	0	-7.5	-0.012	0	0
2216	-7.5	-0.012	2e-05	0	-7.5	-0.012	2e-05	0
2217	-7.5	-0.012	4e-05	0	-7.5	-0.012	4e-05	0
2218	-7.5	-0.012	6e-05	0	-7.5	-0.012	6e-05	0
2219	-7.5	-0.011	0	0	-7.5	-0.011	0	0
2220	-7.5	-0.011	2e-05	0	-7.5	-0.011	2e-05	0
2221	-7.5	-0.011	4e-05	0	-7.5	-0.011	4e-05	0
2222	-7.5	-0.011	6e-05	0	-7.5	-0.011	6e-05	0
2223	-7.5	-0.01	0	0	-7.5	-0.01	0	0
2224	-7.5	-0.01	2e-05	0	-7.5	-0.01	2e-05	0
2225	-7.5	-0.01	4e-05	0	-7.5	-0.01	4e-05	0
2226	-7.5	-0.01	6e-05	0	-7.5	-0.01	6e-05	0
2227	-7.5	-0.009	0	0	-7.5	-0.009	0	0
2228	-7.5	-0.009	2e-05	0	-7.5	-0.009	2e-05	0
2229	-7.5	-0.009	4e-05	0	-7.5	-0.009	4e-05	0
2230	-7.5	-0.009	6e-05	0	-7.5	-0.009	6e-05	0
2231	-7.5	-0.008	0	0	-7.5	-0.008	0	0
2232	-7.5	-0.008	2e-05	0	-7.5	-0.008	2e-05	0
2233	-7.5	-0.008	4e-05	0	-7.5	-0.008	4e-05	0
2234	-7.5	-0.008	6e-05	0	-7.5	-0.008	6e-05	0
2235	-7.5	-0.007	0	0	-7.5	-0.007	0	0
2236	-7.5	-0.007	2e-05	0	-7.5	-0.007	2e-05	0
2237	-7.5	-0.007	4e-05	0	-7.5	-0.007	4e-05	0
2238	-7.5	-0.007	6e-05	0	-7.5	-0.007	6e-05	0
2239	-7.5	-0.006	0	0	-7.5	-0.006	0	0
2240	-7.5	-0.006	2e-05	0	-7.5	-0.006	2e-05	0
2241	-7.5	-0.006	4e-05	0	-7.5	-0.006	4e-05	0
2242	-7.5	-0.006	6e-05	0	-7.5	-0.006	6e-05	0
2243	-7.5	-0.005	0	0	-7.5	-0.005	0	0
2244	-7.5	-0.005	2e-05	0	-7.5	-0.005	2e-05	0
2245	-7.5	-0.005	4e-05	0	-7.5	-0.005	4e-05	0
2246	-7.5	-0.005	6e-05	0	-7.5	-0.005	6e-05	0
2247	-7.5	-0.004	0	0	-7.5	-0.004	0	0
2248	-7.5	-0.004	2e-05	0	-7.5	-0.004	2e-05	0
2249	-7.5	-0.004	4e-05	0	-7.5	-0.004	4e-05	0
2250	-7.5	-0.004	6e-05	0	-7.5	-0.004	6e-05	0
2251	-7.5	-0.003	-2e-05	0	-7.5	-0.003	-2e-05	0
2252	-7.5	-0.003	0	0	-7.5	-0.003	0	0
2253	-7.5	-0.003	2e-05	0	-7.5	-0.003	2e-05	0
2254	-7.5	-0.003	4e-05	0	-7.5	-0.003	4e-05	0
2255	-7.5	-0.002	-2e-05	0	-7.5	-0.002	-2e-05	0
2256	-7.5	-0.002	0	0	-7.5	-0.002	0	0
2257	-7.5	-0.002	2e-05	0	-7.5	-0.002	2e-05	0
2258	-7.5	-0.002	4e-05	0	-7.5	-0.002	4e-05	0
2259	-7.5	-0.001	-2e-05	0	-7.5	-0.001	-2e-05	0
2260	-7.5	-0.001	0	0	-7.5	-0.001	0	0
2261	-7.5	-0.001	2e-05	0	-7.5	-0.001	2e-05	0
2262	-7.5	-0.001	4e-05	0	-7.5	-0.001	4e-05	0
2263	-7.5	0	-2e-05	0	-7.5	0	-2e-05	0
2264	-7.5	0	0	0	-7.5	0	0	0
2265	-7.5	0	2e-05	0	-7.5	0	2e-05	0
2266	-7.5	0	4e-05	0	-7.5	0	4e-05	0
2267	-7.5	0.001	-2e-05	0	-7.5	0.001	-2e-05	0
2268	-7.5	0.001	0	0	-7.5	0.001	0	0
2269	-7.5	0.001	2e-05	0	-7.5	0.001	2e-05	0
2270	-7.5	0.001	4e-05	0	-7.5	0.001	4e-05	0
2271	-7.5	0.002	-2e-05	0	-7.5	0.002	-2e-05	0
2272	-7.5	0.002	0	0	-7.5	0.002	0	0
2273	-7.5	0.002	2e-05	0	-7.5	0.002	2e-05	0
2274	-7.5	0.002	4e-05	0	-7.5	0.002	4e-05	0
2275	-7.5	0.003	-2e-05	0	-7.5	0.003	-2e-05	0
2276	-7.5	0.003	0	0	-7.5	0.003	0	0
2277	-7.5	0.003	2e-05	0	-7.5	0.003	2e-05	0
2278	-7.5	0.003	4e-05	0	-7.5	0.003	4e-05	0
2279	-7.5	0.004	-2e-05	0	-7.5	0.004	-2e-05	0
2280	-7.5	0.004	0	0	-7.5	0.004	0	0
2281	-7.5	0.004	2e-05	0	-7.5	0.004	2e-05	0
2282	-7.5	0.004	4e-05	0	-7.5	0.004	4e-05	0
2283	-7.5	0.005	-2e-05	0	-7.5	0.005	-2e-05	0
2284	-7.5	0.005	0	0	-7.5	0.005	0	0
2285	-7.5	0.005	2e-05	0	-7.5	0.005	2e-05	0
2286	-7.5	0.005	4e-05	0	-7.5	0.005	4e-05	0
2287	-7.5	0.006	-2e-05	0	-7.5	0.006	-2e-05	0
2288	-7.5	0.006	0	0	-7.5	0.006	0	0
2289	-7.5	0.006	2e-05	0	-7.5	0.006	2e-05	0
2290	-7.5	0.006	4e-05	0	-7.5	0.006	4e-05	0
2291	-7.5	0.007	-2e-05	0	-7.5	0.007	-2e-05	0
2292	-7.5	0.007	0	0	-7.5	0.007	0	0
2293	-7.5	0.007	2e-05	0	-7.5	0.007	2e-05	0
2294	-7.5	0.007	4e-05	0	-7.5	0.007	4e-05	0
2295	-7.5	0.008	-2e-05	0	-7.5	0.008	-2e-05	0
2296	-7.5	0.008	0	0	-7.5	0.008	0	0
2297	-7.5	0.008	2e-05	0	-7.5	0.008	2e-05	0
2298	-7.5	0.008	4e-05	0	-7.5	0.008	4e-05	0
2299	-7.5	0.009	-2e-05	0	-7.5	0.009	-2e-05	0
2300	-7.5	0.009	0	0	-7.5	0.009	0	0
2301	-7.5	0.009	2e-05	0	-7.5	0.009	2e-05	0
2302	-7.5	0.009	4e-05	0	-7.5	0.009	4e-05	0
2303	-7.5	0.01	-4e-05	0	-7.5	0.01	-4e-05	0
2304	-7.5	0.01	-2e-05	0	-7.5	0.01	-2e-05	0
2305	-7.5	0.01	0	0	-7.5	0.01	0	0
2306	-7.5	0.01	2e-05	0	-7.5	0.01	2e-05	0
2307	-7.5	0.01	4e-05	0	-7.5	0.01	4e-05	0
2308	-7.5	0.011	-4e-05	0	-7.5	0.011	-4e-05	0
2309	-7.5	0.011	-2e-05	0	-7.5	0.011	-2e-05	0
2310	-7.5	0.011	0	0	-7.5	0.011	0	0
2311	-7.5	0.011	2e-05	0	-7.5	0.011	2e-05	0
2312	-7.5	0.011	4e-05	0	-7.5	0.011	4e-05	0
2313	-7.5	0.012	-4e-05	0	-7.5	0.012	-4e-05	0
2314	-7.5	0.012	-2e-05	0	-7.5	0.012	-2e-05	0
2315	-7.5	0.012	0	0	-7.5	0.012	0	0
2316	-7.5	0.012	2e-05	0	-7.5	0.012	2e-05	0
2317	-7.5	0.013	-4e-05	0	-7.5	0.013	-4e-05	0
2318	-7.5	0.013	-2e-05	0	-7.5	0.013	-2e-05	0
2319	-7.5	0.013	0	0	-7.5	0.013	0	0
2320	-7.5	0.013	2e-05	0	-7.5	0.013	2e-05	0
2321	-7.5	0.014	-4e-05	0	-7.5	0.014	-4e-05	0
2322	-7.5	0.014	-2e-05	0	-7.5	0.014	-2e-05	0
2323	-7.5	0.014	0	0	-7.5	0.014	0	0
2324	-7.5	0.014	2e-05	0	-7.5	0.014	2e-05	0
2325	-7.5	0.015	-4e-05	0	-7.5	0.015	-4e-05	0
2326	-7.5	0.015	-2e-05	0	-7.5	0.015	-2e-05	0
2327	-7.5	0.015	0	0	-7.5	0.015	0	0
2328	-7.5	0.015	2e-05	0	-7.5	0.015	2e-05	0
2329	-7.5	0.016	-4e-05	0	-7.5	0.016	-4e-05	0
2330	-7.5	0.016	-2e-05	0	-7.5	0.016	-2e-05	0
2331	-7.5	0.016	0	0	-7.5	0.016	0	0
2332	-7.5	0.016	2e-05	0	-7.5	0.016	2e-05	0
2333	-7.5	0.017	-4e-05	0	-7.5	0.017	-4e-05	0
2334	-7.5	0.017	-2e-05	0	-7.5	0.017	-2e-05	0
2335	-7.5	0.017	0	0	-7.5	0.017	0	0
2336	-7.5	0.017	2e-05	0	-7.5	0.017	2e-05	0
2337	-7.5	0.018	-4e-05	0	-7.5	0.018	-4e-05	0
2338	-7.5	0.018	-2e-05	0	-7.5	0.018	-2e-05	0
2339	-7.5	0.018	0	0	-7.5	0.018	0	0
2340	-7.5	0.018	2e-05	0	-7.5	0.018	2e-05	0
2341	-7.5	0.019	-4e-05	0	-7.5	0.019	-4e-05	0
2342	-7.5	0.019	-2e-05	0	-7.5	0.019	-2e-05	0
2343	-7.5	0.019	0	0	-7.5	0.019	0	0
2344	-7.5	0.019	2e-05	0	-7.5	0.019	2e-05	0
2345	-7.5	0.02	-4e-05	0	-7.5	0.02	-4e-05	0
2346	-7.5	0.02	-2e-05	0	-7.5	0.02	-2e-05	0
2347	-7.5	0.02	0	0	-7.5	0.02	0	0
2348	-7.5	0.02	2e-05	0	-7.5	0.02	2e-05	0
2349	-7.5	0.021	-4e-05	0	-7.5	0.021	-4e-05	0
2350	-7.5	0.021	-2e-05	0	-7.5	0.021	-2e-05	0
2351	-7.5	0.021	0	0	-7.5	0.021	0	0
2352	-7.5	0.021	2e-05	0	-7.5	0.021	2e-05	0
2353	-7.5	0.022	-4e-05	0	-7.5	0.022	-4e-05	0
2354	-7.5	0.022	-2e-05	0	-7.5	0.022	-2e-05	0
2355	-7.5	0.022	0	0	-7.5	0.022	0	0
2356	-7.5	0.022	2e-05	0	-7.5	0.022	2e-05	0
2357	-7.5	0.023	-4e-05	0	-7.5	0.023	-4e-05	0
2358	-7.5	0.023	-2e-05	0	-7.5	0.023	-2e-05	0
2359	-7.5	0.023	0	0	-7.5	0.023	0	0
2360	-7.5	0.023	2e-05	0	-7.5	0.023	2e-05	0
2361	-7.5	0.024	-6e-05	0	-7.5	0.024	-6e-05	0
2362	-7.5	0.024	-4e-05	0	-7.5	0.024	-4e-05	0
2363	-7.5	0.024	-2e-05	0	-7.5	0.024	-2e-05	0
2364	-7.5	0.024	0	0	-7.5	0.024	0	0
2365	-7.5	0.024	2e-05	0	-7.5	0.024	2e-05	0
2366	-7.5	0.025	-6e-05	0	-7.5	0.025	-6e-05	0
2367	-7.5	0.025	-4e-05	0	-7.5	0.025	-4e-05	0
2368	-7.5	0.025	-2e-05	0	-7.5	0.025	-2e-05	0
2369	-7.5	0.025	0	0	-7.5	0.025	0	0
2370	-7.5	0.025	2e-05	0	-7.5	0.025	2e-05	0
2371	-7.5	0.026	-6e-05	0	-7.5	0.026	-6e-05	0
2372	-7.5	0.026	-4e-05	0	-7.5	0.026	-4e-05	0
2373	-7.5	0.026	-2e-05	0	-7.5	0.026	-2e-05	0
2374	-7.5	0.026	0	0	-7.5	0.026	0	0
2375	-7.5	0.026	2e-05	0	-7.5	0.026	2e-05	0
2376	-7.5	0.027	-6e-05	0	-7.5	0.027	-6e-05	0
2377	-7.5	0.027	-4e-05	0	-7.5	0.027	-4e-05	0
2378	-7.5	0.027	-2e-05	0	-7.5	0.027	-2e-05	0
2379	-7.5	0.027	0	0	-7.5	0.027	0	0
2380	-7.5	0.028	-6e-05	0	-7.5	0.028	-6e-05	0
2381	-7.5	0.028	-4e-05	0	-7.5	0.028	-4e-05	0
2382	-7.5	0.028	-2e-05	0	-7.5	0.028	-2e-05	0
2383	-7.5	0.028	0	0	-7.5	0.028	0	0
2384	-7.5	0.029	-6e-05	0	-7.5	0.029	-6e-05	0
2385	-7.5	0.029	-4e-05	0	-7.5	0.029	-4e-05	0
2386	-7.5	0.029	-2e-05	0	-7.5	0.029	-2e-05	0
2387	-7.5	0.029	0	0	-7.5	0.029	0	0
2388	-7.5	0.03	-6e-05	0	-7.5	0.03	-6e-05	0
2389	-7.5	0.03	-4e-05	0	-7.5	0.03	-4e-05	0
2390	-7.5	0.03	-2e-05	0	-7.5	0.03	-2e-05	0
2391	-7.5	0.03	0	0	-7.5	0.03	0	0
2392	-7.5	0.031	-6e-05	0	-7.5	0.031	-6e-05	0
2393	-7.5	0.031	-4e-05	0	-7.5	0.031	-4e-05	0
2394	-7.5	0.031	-2e-05	0	-7.5	0.031	-2e-05	0
2395	-7.5	0.031	0	0	-7.5	0.031	0	0
2396	-7.5	0.032	-6e-05	0	-7.5	0.032	-6e-05	0
2397	-7.5	0.032	-4e-05	0	-7.5	0.032	-4e-05	0
2398	-7.5	0.032	-2e-05	0	-7.5	0.032	-2e-05	0
2399	-7.5	0.032	0	0	-7.5	0.032	0	0
2400	-7.5	0.033	-6e-05	0	-7.5	0.033	-6e-05	0
2401	-7.5	0.033	-4e-05	0	-7.5	0.033	-4e-05	0
2402	-7.5	0.033	-2e-05	0	-7.5	0.033	-2e-05	0
2403	-7.5	0.033	0	0	-7.5	0.033	0	0
2404	-7.5	0.034	-6e-05	0	-7.5	0.034	-6e-05	0
2405	-7.5	0.034	-4e-05	0	-7.5	0.034	-4e-05	0
2406	-7.5	0.034	-2e-05	0	-7.5	0.034	-2e-05	0
2407	-7.5	0.034	0	0	-7.5	0.034	0	0
2408	-7.5	0.035	-6e-05	0	-7.5	0.035	-6e-05	0
2409	-7.5	0.035	-4e-05	0	-7.5	0.035	-4e-05	0
2410	-7.5	0.035	-2e-05	0	-7.5	0.035	-2e-05	0
2411	-7.5	0.035	0	0	-7.5	0.035	0	0
2412	-7.5	0.036	-6e-05	0	-7.5	0.036	-6e-05	0
2413	-7.5	0.036	-4e-05	0	-7.5	0.036	-4e-05	0
2414	-7.5	0.036	-2e-05	0	-7.5	0.036	-2e-05	0
2415	-7.5	0.036	0	0	-7.5	0.036	0	0
2416	-7.5	0.037	-6e-05	0	-7.5	0.037	-6e-05	0
2417	-7.5	0.037	-4e-05	0	-7.5	0.037	-4e-05	0
2418	-7.5	0.037	-2e-05	0	-7.5	0.037	-2e-05	0
2419	-7.5	0.037	0	0	-7.5	0.037	0	0
2420	-7.5	0.038	-6e-05	0	-7.5	0.038	-6e-05	0
2421	-7.5	0.038	-4e-05	0	-7.5	0.038	-4e-05	0
2422	-7.5	0.038	-2e-05	0	-7.5	0.038	-2e-05	0
2423	-7.5	0.038	0	0	-7.5	0.038	0	0
2424	-7.5	0.039	-8e-05	0	-7.5	0.039	-8e-05	0
2425	-7.5	0.039	-6e-05	0	-7.5	0.039	-6e-05	0
