1	-11	0.04	-2e-05	0	-11	0.04	-2e-05	0
2	-10.5	0.043	-4e-05	0	-10.5	0.043	-4e-05	0
3	-10.5	0.045	-4e-05	0	-10.5	0.045	-4e-05	0
4	-10.5	0.055	-4e-05	0	-10.5	0.055	-4e-05	0
5	-10.5	0.064	-6e-05	0	-10.5	0.064	-6e-05	0
6	-9.5	0.043	-4e-05	0	-9.5	0.043	-4e-05	0
7	-9.5	0.057	-6e-05	0	-9.5	0.057	-6e-05	0
8	-9.5	0.063	-6e-05	0	-9.5	0.063	-6e-05	0
9	-9	0.027	-2e-05	0	-9	0.027	-2e-05	0
10	-9	0.03	-2e-05	0	-9	0.03	-2e-05	0
11	-9	0.036	-2e-05	0	-9	0.036	-2e-05	0
12	-9	0.045	-4e-05	0	-9	0.045	-4e-05	0
13	-9	0.066	-8e-05	0	-9	0.066	-8e-05	0
14	-8.5	0.036	-2e-05	0	-8.5	0.036	-2e-05	0
15	-8.5	0.04	-4e-05	0	-8.5	0.04	-4e-05	0
16	-8.5	0.049	-6e-05	0	-8.5	0.049	-6e-05	0
17	-8	0.032	-2e-05	0	-8	0.032	-2e-05	0
18	-8	0.037	-4e-05	0	-8	0.037	-4e-05	0
19	-8	0.039	-4e-05	0	-8	0.039	-4e-05	0
20	-8	0.041	-4e-05	0	-8	0.041	-4e-05	0
21	-7.5	0.027	-2e-05	0	-7.5	0.027	-2e-05	0
22	-7.5	0.032	-2e-05	0	-7.5	0.032	-2e-05	0
23	-7.5	0.048	-4e-05	0	-7.5	0.048	-4e-05	0
24	-7.5	0.049	-4e-05	0	-7.5	0.049	-4e-05	0
25	-7.5	0.051	-4e-05	0	-7.5	0.051	-4e-05	0
26	-7.5	0.06	-6e-05	0	-7.5	0.06	-6e-05	0
27	-7	0.021	-2e-05	0	-7	0.021	-2e-05	0
28	-7	0.037	-4e-05	0	-7	0.037	-4e-05	0
29	-7	0.041	-4e-05	0	-7	0.041	-4e-05	0
30	-7	0.042	-4e-05	0	-7	0.042	-4e-05	0
31	-7	0.055	-6e-05	0	-7	0.055	-6e-05	0
32	-6.5	0.017	-2e-05	0	-6.5	0.017	-2e-05	0
33	-6.5	0.028	-2e-05	0	-6.5	0.028	-2e-05	0
34	-6.5	0.032	-2e-05	0	-6.5	0.032	-2e-05	0
35	-6.5	0.042	-4e-05	0	-6.5	0.042	-4e-05	0
36	-6.5	0.043	-4e-05	0	-6.5	0.043	-4e-05	0
37	-6.5	0.051	-6e-05	0	-6.5	0.051	-6e-05	0
38	-6.5	0.06	-8e-05	0	-6.5	0.06	-8e-05	0
39	-6	0	2e-05	0	-6	0	2e-05	0
40	-6	0.014	0	0	-6	0.014	0	0
41	-6	0.021	-2e-05	0	-6	0.021	-2e-05	0
42	-6	0.023	-2e-05	0	-6	0.023	-2e-05	0
43	-6	0.031	-4e-05	0	-6	0.031	-4e-05	0
44	-6	0.042	-4e-05	0	-6	0.042	-4e-05	0
45	-6	0.047	-4e-05	0	-6	0.047	-4e-05	0
46	-5.5	0.006	0	0	-5.5	0.006	0	0
47	-5.5	0.012	0	0	-5.5	0.012	0	0
48	-5.5	0.014	0	0	-5.5	0.014	0	0
49	-5.5	0.021	-2e-05	0	-5.5	0.021	-2e-05	0
50	-5.5	0.024	-2e-05	0	-5.5	0.024	-2e-05	0
51	-5.5	0.025	-2e-05	0	-5.5	0.025	-2e-05	0
52	-5.5	0.032	-2e-05	0	-5.5	0.032	-2e-05	0
53	-5.5	0.039	-6e-05	0	-5.5	0.039	-6e-05	0
54	-5.5	0.042	-4e-05	0	-5.5	0.042	-4e-05	0
55	-5.5	0.044	-6e-05	0	-5.5	0.044	-6e-05	0
56	-5.5	0.044	-4e-05	0	-5.5	0.044	-4e-05	0
57	-5	0.017	-2e-05	0	-5	0.017	-2e-05	0
58	-5	0.018	-2e-05	0	-5	0.018	-2e-05	0
59	-5	0.019	-2e-05	0	-5	0.019	-2e-05	0
60	-5	0.021	-2e-05	0	-5	0.021	-2e-05	0
61	-5	0.024	-2e-05	0	-5	0.024	-2e-05	0
62	-5	0.026	-2e-05	0	-5	0.026	-2e-05	0
63	-5	0.028	-4e-05	0	-5	0.028	-4e-05	0
64	-5	0.029	-2e-05	0	-5	0.029	-2e-05	0
65	-5	0.031	-2e-05	0	-5	0.031	-2e-05	0
66	-5	0.032	-4e-05	0	-5	0.032	-4e-05	0
67	-5	0.038	-4e-05	0	-5	0.038	-4e-05	0
68	-5	0.043	-4e-05	0	-5	0.043	-4e-05	0
69	-4.5	0.005	2e-05	0	-4.5	0.005	2e-05	0
70	-4.5	0.014	-2e-05	0	-4.5	0.014	-2e-05	0
71	-4.5	0.019	-2e-05	0	-4.5	0.019	-2e-05	0
72	-4.5	0.02	-2e-05	0	-4.5	0.02	-2e-05	0
73	-4.5	0.021	-2e-05	0	-4.5	0.021	-2e-05	0
74	-4.5	0.023	-2e-05	0	-4.5	0.023	-2e-05	0
75	-4.5	0.024	-4e-05	0	-4.5	0.024	-4e-05	0
76	-4.5	0.027	-2e-05	0	-4.5	0.027	-2e-05	0
77	-4.5	0.028	-2e-05	0	-4.5	0.028	-2e-05	0
78	-4.5	0.038	-6e-05	0	-4.5	0.038	-6e-05	0
79	-4.5	0.041	-6e-05	0	-4.5	0.041	-6e-05	0
80	-4.5	0.049	-6e-05	0	-4.5	0.049	-6e-05	0
81	-4	0.003	0	0	-4	0.003	0	0
82	-4	0.009	0	0	-4	0.009	0	0
83	-4	0.011	0	0	-4	0.011	0	0
84	-4	0.012	0	0	-4	0.012	0	0
85	-4	0.018	-2e-05	0	-4	0.018	-2e-05	0
86	-4	0.024	-4e-05	0	-4	0.024	-4e-05	0
87	-4	0.024	-2e-05	0	-4	0.024	-2e-05	0
88	-4	0.026	-4e-05	0	-4	0.026	-4e-05	0
89	-4	0.026	-2e-05	0	-4	0.026	-2e-05	0
90	-4	0.027	-4e-05	0	-4	0.027	-4e-05	0
91	-4	0.028	-2e-05	0	-4	0.028	-2e-05	0
92	-4	0.029	-4e-05	0	-4	0.029	-4e-05	0
93	-4	0.03	-2e-05	0	-4	0.03	-2e-05	0
94	-4	0.033	-4e-05	0	-4	0.033	-4e-05	0
95	-4	0.042	-4e-05	0	-4	0.042	-4e-05	0
96	-3.5	0.002	0	0	-3.5	0.002	0	0
97	-3.5	0.004	0	0	-3.5	0.004	0	0
98	-3.5	0.006	0	0	-3.5	0.006	0	0
99	-3.5	0.009	0	0	-3.5	0.009	0	0
100	-3.5	0.01	-2e-05	0	-3.5	0.01	-2e-05	0
101	-3.5	0.013	0	0	-3.5	0.013	0	0
102	-3.5	0.017	0	0	-3.5	0.017	0	0
103	-3.5	0.02	-2e-05	0	-3.5	0.02	-2e-05	0
104	-3.5	0.021	-2e-05	0	-3.5	0.021	-2e-05	0
105	-3.5	0.026	-2e-05	0	-3.5	0.026	-2e-05	0
106	-3.5	0.027	-2e-05	0	-3.5	0.027	-2e-05	0
107	-3.5	0.031	-4e-05	0	-3.5	0.031	-4e-05	0
108	-3.5	0.032	-4e-05	0	-3.5	0.032	-4e-05	0
109	-3.5	0.034	-4e-05	0	-3.5	0.034	-4e-05	0
110	-3.5	0.038	-4e-05	0	-3.5	0.038	-4e-05	0
111	-3.5	0.041	-4e-05	0	-3.5	0.041	-4e-05	0
112	-3	-0.011	2e-05	0	-3	-0.011	2e-05	0
113	-3	-0.007	2e-05	0	-3	-0.007	2e-05	0
114	-3	0.001	0	0	-3	0.001	0	0
115	-3	0.005	0	0	-3	0.005	0	0
116	-3	0.006	0	0	-3	0.006	0	0
117	-3	0.008	0	0	-3	0.008	0	0
118	-3	0.01	0	0	-3	0.01	0	0
119	-3	0.011	-2e-05	0	-3	0.011	-2e-05	0
120	-3	0.014	-2e-05	0	-3	0.014	-2e-05	0
121	-3	0.015	0	0	-3	0.015	0	0
122	-3	0.016	-2e-05	0	-3	0.016	-2e-05	0
123	-3	0.018	-2e-05	0	-3	0.018	-2e-05	0
124	-3	0.019	-2e-05	0	-3	0.019	-2e-05	0
125	-3	0.02	-2e-05	0	-3	0.02	-2e-05	0
126	-3	0.022	-4e-05	0	-3	0.022	-4e-05	0
127	-3	0.022	-2e-05	0	-3	0.022	-2e-05	0
128	-3	0.024	-2e-05	0	-3	0.024	-2e-05	0
129	-3	0.025	-2e-05	0	-3	0.025	-2e-05	0
130	-3	0.027	-4e-05	0	-3	0.027	-4e-05	0
131	-3	0.028	-2e-05	0	-3	0.028	-2e-05	0
132	-3	0.029	-2e-05	0	-3	0.029	-2e-05	0
133	-2.5	-0.003	2e-05	0	-2.5	-0.003	2e-05	0
134	-2.5	-0.001	0	0	-2.5	-0.001	0	0
135	-2.5	0.006	0	0	-2.5	0.006	0	0
136	-2.5	0.007	0	0	-2.5	0.007	0	0
137	-2.5	0.009	0	0	-2.5	0.009	0	0
138	-2.5	0.013	-2e-05	0	-2.5	0.013	-2e-05	0
139	-2.5	0.015	-2e-05	0	-2.5	0.015	-2e-05	0
140	-2.5	0.016	-2e-05	0	-2.5	0.016	-2e-05	0
141	-2.5	0.02	-2e-05	0	-2.5	0.02	-2e-05	0
142	-2.5	0.021	-4e-05	0	-2.5	0.021	-4e-05	0
143	-2.5	0.022	-2e-05	0	-2.5	0.022	-2e-05	0
144	-2.5	0.023	-4e-05	0	-2.5	0.023	-4e-05	0
145	-2.5	0.024	-4e-05	0	-2.5	0.024	-4e-05	0
146	-2.5	0.031	-4e-05	0	-2.5	0.031	-4e-05	0
147	-2	-0.013	2e-05	0	-2	-0.013	2e-05	0
148	-2	-0.001	0	0	-2	-0.001	0	0
149	-2	0.002	0	0	-2	0.002	0	0
150	-2	0.003	0	0	-2	0.003	0	0
151	-2	0.007	0	0	-2	0.007	0	0
152	-2	0.012	-2e-05	0	-2	0.012	-2e-05	0
153	-2	0.013	-2e-05	0	-2	0.013	-2e-05	0
154	-2	0.015	-2e-05	0	-2	0.015	-2e-05	0
155	-2	0.016	-2e-05	0	-2	0.016	-2e-05	0
156	-2	0.017	-2e-05	0	-2	0.017	-2e-05	0
157	-2	0.018	-2e-05	0	-2	0.018	-2e-05	0
158	-2	0.023	-2e-05	0	-2	0.023	-2e-05	0
159	-2	0.026	-4e-05	0	-2	0.026	-4e-05	0
160	-2	0.028	-4e-05	0	-2	0.028	-4e-05	0
161	-2	0.028	-2e-05	0	-2	0.028	-2e-05	0
162	-1.5	-0.018	2e-05	0	-1.5	-0.018	2e-05	0
163	-1.5	-0.015	4e-05	0	-1.5	-0.015	4e-05	0
164	-1.5	-0.01	2e-05	0	-1.5	-0.01	2e-05	0
165	-1.5	-0.005	2e-05	0	-1.5	-0.005	2e-05	0
166	-1.5	-0.004	2e-05	0	-1.5	-0.004	2e-05	0
167	-1.5	-0.003	2e-05	0	-1.5	-0.003	2e-05	0
168	-1.5	0	2e-05	0	-1.5	0	2e-05	0
169	-1.5	0.002	0	0	-1.5	0.002	0	0
170	-1.5	0.003	0	0	-1.5	0.003	0	0
171	-1.5	0.004	0	0	-1.5	0.004	0	0
172	-1.5	0.005	-2e-05	0	-1.5	0.005	-2e-05	0
173	-1.5	0.009	-2e-05	0	-1.5	0.009	-2e-05	0
174	-1.5	0.01	-2e-05	0	-1.5	0.01	-2e-05	0
175	-1.5	0.013	-2e-05	0	-1.5	0.013	-2e-05	0
176	-1.5	0.017	-2e-05	0	-1.5	0.017	-2e-05	0
177	-1.5	0.022	-4e-05	0	-1.5	0.022	-4e-05	0
178	-1	-0.005	2e-05	0	-1	-0.005	2e-05	0
179	-1	-0.002	0	0	-1	-0.002	0	0
180	-1	0	0	0	-1	0	0	0
181	-1	0.001	0	0	-1	0.001	0	0
182	-1	0.002	0	0	-1	0.002	0	0
183	-1	0.004	0	0	-1	0.004	0	0
184	-1	0.005	0	0	-1	0.005	0	0
185	-1	0.006	0	0	-1	0.006	0	0
186	-1	0.007	-2e-05	0	-1	0.007	-2e-05	0
187	-1	0.007	0	0	-1	0.007	0	0
188	-1	0.009	-2e-05	0	-1	0.009	-2e-05	0
189	-1	0.015	-2e-05	0	-1	0.015	-2e-05	0
190	-1	0.016	-2e-05	0	-1	0.016	-2e-05	0
191	-1	0.017	-4e-05	0	-1	0.017	-4e-05	0
192	-1	0.019	-4e-05	0	-1	0.019	-4e-05	0
193	-1	0.02	-2e-05	0	-1	0.02	-2e-05	0
194	-1	0.021	-2e-05	0	-1	0.021	-2e-05	0
195	-0.5	-0.019	2e-05	0	-0.5	-0.019	2e-05	0
196	-0.5	-0.015	2e-05	0	-0.5	-0.015	2e-05	0
197	-0.5	-0.01	2e-05	0	-0.5	-0.01	2e-05	0
198	-0.5	-0.009	2e-05	0	-0.5	-0.009	2e-05	0
199	-0.5	-0.002	0	0	-0.5	-0.002	0	0
200	-0.5	-0.001	0	0	-0.5	-0.001	0	0
201	-0.5	0	0	0	-0.5	0	0	0
202	-0.5	0.002	0	0	-0.5	0.002	0	0
203	-0.5	0.003	0	0	-0.5	0.003	0	0
204	-0.5	0.005	0	0	-0.5	0.005	0	0
205	-0.5	0.006	0	0	-0.5	0.006	0	0
206	-0.5	0.012	-2e-05	0	-0.5	0.012	-2e-05	0
207	-0.5	0.012	0	0	-0.5	0.012	0	0
208	-0.5	0.013	-2e-05	0	-0.5	0.013	-2e-05	0
209	-0.5	0.017	-2e-05	0	-0.5	0.017	-2e-05	0
210	-0.5	0.02	-2e-05	0	-0.5	0.02	-2e-05	0
211	0	-0.013	2e-05	0	0	-0.013	2e-05	0
212	0	-0.012	2e-05	0	0	-0.012	2e-05	0
213	0	-0.009	0	0	0	-0.009	0	0
214	0	-0.008	0	0	0	-0.008	0	0
215	0	-0.008	2e-05	0	0	-0.008	2e-05	0
216	0	-0.006	2e-05	0	0	-0.006	2e-05	0
217	0	-0.005	0	0	0	-0.005	0	0
218	0	-0.004	0	0	0	-0.004	0	0
219	0	-0.003	0	0	0	-0.003	0	0
220	0	-0.001	0	0	0	-0.001	0	0
221	0	0	0	0	0	0	0	0
222	0	0.001	0	0	0	0.001	0	0
223	0	0.003	0	0	0	0.003	0	0
224	0	0.004	0	0	0	0.004	0	0
225	0	0.008	-2e-05	0	0	0.008	-2e-05	0
226	0	0.014	-2e-05	0	0	0.014	-2e-05	0
227	0	0.021	-4e-05	0	0	0.021	-4e-05	0
228	0.5	-0.025	4e-05	0	0.5	-0.025	4e-05	0
229	0.5	-0.024	4e-05	0	0.5	-0.024	4e-05	0
230	0.5	-0.022	2e-05	0	0.5	-0.022	2e-05	0
231	0.5	-0.021	2e-05	0	0.5	-0.021	2e-05	0
232	0.5	-0.017	2e-05	0	0.5	-0.017	2e-05	0
233	0.5	-0.012	0	0	0.5	-0.012	0	0
234	0.5	-0.012	2e-05	0	0.5	-0.012	2e-05	0
235	0.5	-0.011	2e-05	0	0.5	-0.011	2e-05	0
236	0.5	-0.009	2e-05	0	0.5	-0.009	2e-05	0
237	0.5	-0.007	2e-05	0	0.5	-0.007	2e-05	0
238	0.5	-0.005	0	0	0.5	-0.005	0	0
239	0.5	-0.004	0	0	0.5	-0.004	0	0
240	0.5	-0.004	2e-05	0	0.5	-0.004	2e-05	0
241	0.5	-0.003	0	0	0.5	-0.003	0	0
242	0.5	-0.002	0	0	0.5	-0.002	0	0
243	0.5	-0.001	0	0	0.5	-0.001	0	0
244	0.5	0	0	0	0.5	0	0	0
245	0.5	0.001	-2e-05	0	0.5	0.001	-2e-05	0
246	0.5	0.003	0	0	0.5	0.003	0	0
247	0.5	0.007	0	0	0.5	0.007	0	0
248	0.5	0.008	-2e-05	0	0.5	0.008	-2e-05	0
249	0.5	0.009	0	0	0.5	0.009	0	0
250	0.5	0.015	-2e-05	0	0.5	0.015	-2e-05	0
251	1	-0.025	2e-05	0	1	-0.025	2e-05	0
252	1	-0.021	4e-05	0	1	-0.021	4e-05	0
253	1	-0.02	2e-05	0	1	-0.02	2e-05	0
254	1	-0.018	2e-05	0	1	-0.018	2e-05	0
255	1	-0.017	2e-05	0	1	-0.017	2e-05	0
256	1	-0.016	2e-05	0	1	-0.016	2e-05	0
257	1	-0.015	2e-05	0	1	-0.015	2e-05	0
258	1	-0.013	2e-05	0	1	-0.013	2e-05	0
259	1	-0.012	2e-05	0	1	-0.012	2e-05	0
260	1	-0.011	2e-05	0	1	-0.011	2e-05	0
261	1	-0.01	2e-05	0	1	-0.01	2e-05	0
262	1	-0.009	2e-05	0	1	-0.009	2e-05	0
263	1	-0.007	0	0	1	-0.007	0	0
264	1	-0.007	2e-05	0	1	-0.007	2e-05	0
265	1	-0.006	0	0	1	-0.006	0	0
266	1	-0.004	0	0	1	-0.004	0	0
267	1	-0.003	0	0	1	-0.003	0	0
268	1	-0.002	0	0	1	-0.002	0	0
269	1	-0.001	0	0	1	-0.001	0	0
270	1	0.001	-2e-05	0	1	0.001	-2e-05	0
271	1	0.001	0	0	1	0.001	0	0
272	1	0.002	0	0	1	0.002	0	0
273	1	0.003	-2e-05	0	1	0.003	-2e-05	0
274	1	0.003	0	0	1	0.003	0	0
275	1	0.004	-2e-05	0	1	0.004	-2e-05	0
276	1	0.005	-2e-05	0	1	0.005	-2e-05	0
277	1	0.007	-2e-05	0	1	0.007	-2e-05	0
278	1.5	-0.028	4e-05	0	1.5	-0.028	4e-05	0
279	1.5	-0.02	2e-05	0	1.5	-0.02	2e-05	0
280	1.5	-0.019	2e-05	0	1.5	-0.019	2e-05	0
281	1.5	-0.016	2e-05	0	1.5	-0.016	2e-05	0
282	1.5	-0.015	2e-05	0	1.5	-0.015	2e-05	0
283	1.5	-0.014	2e-05	0	1.5	-0.014	2e-05	0
284	1.5	-0.013	2e-05	0	1.5	-0.013	2e-05	0
285	1.5	-0.011	0	0	1.5	-0.011	0	0
286	1.5	-0.011	2e-05	0	1.5	-0.011	2e-05	0
287	1.5	-0.01	0	0	1.5	-0.01	0	0
288	1.5	-0.007	0	0	1.5	-0.007	0	0
289	1.5	-0.006	0	0	1.5	-0.006	0	0
290	1.5	-0.004	0	0	1.5	-0.004	0	0
291	1.5	-0.003	0	0	1.5	-0.003	0	0
292	1.5	0.004	-2e-05	0	1.5	0.004	-2e-05	0
293	1.5	0.005	-2e-05	0	1.5	0.005	-2e-05	0
294	1.5	0.006	-2e-05	0	1.5	0.006	-2e-05	0
295	1.5	0.008	-2e-05	0	1.5	0.008	-2e-05	0
296	1.5	0.01	-2e-05	0	1.5	0.01	-2e-05	0
297	2	-0.021	2e-05	0	2	-0.021	2e-05	0
298	2	-0.02	2e-05	0	2	-0.02	2e-05	0
299	2	-0.017	2e-05	0	2	-0.017	2e-05	0
300	2	-0.016	2e-05	0	2	-0.016	2e-05	0
301	2	-0.013	2e-05	0	2	-0.013	2e-05	0
302	2	-0.01	0	0	2	-0.01	0	0
303	2	-0.009	0	0	2	-0.009	0	0
304	2	-0.005	0	0	2	-0.005	0	0
305	2	-0.004	0	0	2	-0.004	0	0
306	2	-0.003	2e-05	0	2	-0.003	2e-05	0
307	2	-0.001	0	0	2	-0.001	0	0
308	2	0.003	-2e-05	0	2	0.003	-2e-05	0
309	2	0.008	-2e-05	0	2	0.008	-2e-05	0
310	2.5	-0.036	4e-05	0	2.5	-0.036	4e-05	0
311	2.5	-0.032	4e-05	0	2.5	-0.032	4e-05	0
312	2.5	-0.026	2e-05	0	2.5	-0.026	2e-05	0
313	2.5	-0.024	2e-05	0	2.5	-0.024	2e-05	0
314	2.5	-0.022	2e-05	0	2.5	-0.022	2e-05	0
315	2.5	-0.021	2e-05	0	2.5	-0.021	2e-05	0
316	2.5	-0.018	2e-05	0	2.5	-0.018	2e-05	0
317	2.5	-0.017	2e-05	0	2.5	-0.017	2e-05	0
318	2.5	-0.016	2e-05	0	2.5	-0.016	2e-05	0
319	2.5	-0.013	2e-05	0	2.5	-0.013	2e-05	0
320	2.5	-0.012	2e-05	0	2.5	-0.012	2e-05	0
321	2.5	-0.01	0	0	2.5	-0.01	0	0
322	2.5	-0.009	0	0	2.5	-0.009	0	0
323	2.5	-0.007	0	0	2.5	-0.007	0	0
324	2.5	-0.006	0	0	2.5	-0.006	0	0
325	2.5	-0.005	0	0	2.5	-0.005	0	0
326	2.5	-0.004	-2e-05	0	2.5	-0.004	-2e-05	0
327	2.5	-0.004	0	0	2.5	-0.004	0	0
328	2.5	-0.002	0	0	2.5	-0.002	0	0
329	2.5	-0.001	0	0	2.5	-0.001	0	0
330	2.5	0	0	0	2.5	0	0	0
331	2.5	0.01	-2e-05	0	2.5	0.01	-2e-05	0
332	2.5	0.011	-2e-05	0	2.5	0.011	-2e-05	0
333	3	-0.027	2e-05	0	3	-0.027	2e-05	0
334	3	-0.027	4e-05	0	3	-0.027	4e-05	0
335	3	-0.026	2e-05	0	3	-0.026	2e-05	0
336	3	-0.025	4e-05	0	3	-0.025	4e-05	0
337	3	-0.024	2e-05	0	3	-0.024	2e-05	0
338	3	-0.022	2e-05	0	3	-0.022	2e-05	0
339	3	-0.02	2e-05	0	3	-0.02	2e-05	0
340	3	-0.017	2e-05	0	3	-0.017	2e-05	0
341	3	-0.016	2e-05	0	3	-0.016	2e-05	0
342	3	-0.012	0	0	3	-0.012	0	0
343	3	-0.008	0	0	3	-0.008	0	0
344	3	-0.005	0	0	3	-0.005	0	0
345	3	-0.004	-2e-05	0	3	-0.004	-2e-05	0
346	3	-0.003	0	0	3	-0.003	0	0
347	3	-0.002	0	0	3	-0.002	0	0
348	3.5	-0.038	4e-05	0	3.5	-0.038	4e-05	0
349	3.5	-0.037	6e-05	0	3.5	-0.037	6e-05	0
350	3.5	-0.033	4e-05	0	3.5	-0.033	4e-05	0
351	3.5	-0.029	2e-05	0	3.5	-0.029	2e-05	0
352	3.5	-0.027	4e-05	0	3.5	-0.027	4e-05	0
353	3.5	-0.024	2e-05	0	3.5	-0.024	2e-05	0
354	3.5	-0.022	2e-05	0	3.5	-0.022	2e-05	0
355	3.5	-0.02	2e-05	0	3.5	-0.02	2e-05	0
356	3.5	-0.019	2e-05	0	3.5	-0.019	2e-05	0
357	3.5	-0.017	0	0	3.5	-0.017	0	0
358	3.5	-0.017	2e-05	0	3.5	-0.017	2e-05	0
359	3.5	-0.015	2e-05	0	3.5	-0.015	2e-05	0
360	3.5	-0.003	0	0	3.5	-0.003	0	0
361	3.5	-0.002	0	0	3.5	-0.002	0	0
362	3.5	0.004	-2e-05	0	3.5	0.004	-2e-05	0
363	4	-0.038	4e-05	0	4	-0.038	4e-05	0
364	4	-0.035	4e-05	0	4	-0.035	4e-05	0
365	4	-0.029	4e-05	0	4	-0.029	4e-05	0
366	4	-0.027	4e-05	0	4	-0.027	4e-05	0
367	4	-0.026	2e-05	0	4	-0.026	2e-05	0
368	4	-0.025	2e-05	0	4	-0.025	2e-05	0
369	4	-0.024	4e-05	0	4	-0.024	4e-05	0
370	4	-0.023	2e-05	0	4	-0.023	2e-05	0
371	4	-0.023	4e-05	0	4	-0.023	4e-05	0
372	4	-0.021	2e-05	0	4	-0.021	2e-05	0
373	4	-0.019	2e-05	0	4	-0.019	2e-05	0
374	4	-0.016	2e-05	0	4	-0.016	2e-05	0
375	4	-0.014	2e-05	0	4	-0.014	2e-05	0
376	4	-0.01	0	0	4	-0.01	0	0
377	4.5	-0.041	4e-05	0	4.5	-0.041	4e-05	0
378	4.5	-0.04	4e-05	0	4.5	-0.04	4e-05	0
379	4.5	-0.039	4e-05	0	4.5	-0.039	4e-05	0
380	4.5	-0.037	4e-05	0	4.5	-0.037	4e-05	0
381	4.5	-0.026	2e-05	0	4.5	-0.026	2e-05	0
382	4.5	-0.022	2e-05	0	4.5	-0.022	2e-05	0
383	4.5	-0.02	2e-05	0	4.5	-0.02	2e-05	0
384	4.5	-0.018	2e-05	0	4.5	-0.018	2e-05	0
385	4.5	-0.009	0	0	4.5	-0.009	0	0
386	5	-0.039	4e-05	0	5	-0.039	4e-05	0
387	5	-0.034	2e-05	0	5	-0.034	2e-05	0
388	5	-0.033	4e-05	0	5	-0.033	4e-05	0
389	5	-0.03	4e-05	0	5	-0.03	4e-05	0
390	5	-0.029	2e-05	0	5	-0.029	2e-05	0
391	5	-0.023	2e-05	0	5	-0.023	2e-05	0
392	5	-0.017	2e-05	0	5	-0.017	2e-05	0
393	5	-0.013	0	0	5	-0.013	0	0
394	5	0.004	-2e-05	0	5	0.004	-2e-05	0
395	5.5	-0.045	6e-05	0	5.5	-0.045	6e-05	0
396	5.5	-0.043	4e-05	0	5.5	-0.043	4e-05	0
397	5.5	-0.041	4e-05	0	5.5	-0.041	4e-05	0
398	5.5	-0.038	4e-05	0	5.5	-0.038	4e-05	0
399	5.5	-0.035	2e-05	0	5.5	-0.035	2e-05	0
400	5.5	-0.033	4e-05	0	5.5	-0.033	4e-05	0
401	5.5	-0.028	4e-05	0	5.5	-0.028	4e-05	0
402	5.5	-0.023	4e-05	0	5.5	-0.023	4e-05	0
403	5.5	-0.022	2e-05	0	5.5	-0.022	2e-05	0
404	5.5	-0.02	2e-05	0	5.5	-0.02	2e-05	0
405	5.5	-0.019	0	0	5.5	-0.019	0	0
406	6	-0.052	6e-05	0	6	-0.052	6e-05	0
407	6	-0.045	6e-05	0	6	-0.045	6e-05	0
408	6	-0.039	6e-05	0	6	-0.039	6e-05	0
409	6	-0.035	2e-05	0	6	-0.035	2e-05	0
410	6	-0.032	4e-05	0	6	-0.032	4e-05	0
411	6	-0.029	2e-05	0	6	-0.029	2e-05	0
412	6	-0.026	2e-05	0	6	-0.026	2e-05	0
413	6	-0.022	2e-05	0	6	-0.022	2e-05	0
414	6	-0.021	2e-05	0	6	-0.021	2e-05	0
415	6	-0.014	0	0	6	-0.014	0	0
416	6	-0.012	0	0	6	-0.012	0	0
417	6.5	-0.052	6e-05	0	6.5	-0.052	6e-05	0
418	6.5	-0.049	6e-05	0	6.5	-0.049	6e-05	0
419	6.5	-0.045	6e-05	0	6.5	-0.045	6e-05	0
420	6.5	-0.034	4e-05	0	6.5	-0.034	4e-05	0
421	6.5	-0.033	4e-05	0	6.5	-0.033	4e-05	0
422	6.5	-0.03	4e-05	0	6.5	-0.03	4e-05	0
423	6.5	-0.024	2e-05	0	6.5	-0.024	2e-05	0
424	6.5	-0.019	2e-05	0	6.5	-0.019	2e-05	0
425	7	-0.05	4e-05	0	7	-0.05	4e-05	0
426	7	-0.044	4e-05	0	7	-0.044	4e-05	0
427	7	-0.042	6e-05	0	7	-0.042	6e-05	0
428	7	-0.037	4e-05	0	7	-0.037	4e-05	0
429	7	-0.036	4e-05	0	7	-0.036	4e-05	0
430	7	-0.028	2e-05	0	7	-0.028	2e-05	0
431	7	-0.027	2e-05	0	7	-0.027	2e-05	0
432	7.5	-0.049	4e-05	0	7.5	-0.049	4e-05	0
433	7.5	-0.043	6e-05	0	7.5	-0.043	6e-05	0
434	7.5	-0.042	6e-05	0	7.5	-0.042	6e-05	0
435	7.5	-0.037	2e-05	0	7.5	-0.037	2e-05	0
436	7.5	-0.037	4e-05	0	7.5	-0.037	4e-05	0
437	7.5	-0.027	2e-05	0	7.5	-0.027	2e-05	0
438	7.5	-0.022	0	0	7.5	-0.022	0	0
439	7.5	-0.02	0	0	7.5	-0.02	0	0
440	7.5	-0.009	0	0	7.5	-0.009	0	0
441	8	-0.068	8e-05	0	8	-0.068	8e-05	0
442	8	-0.061	6e-05	0	8	-0.061	6e-05	0
443	8	-0.058	6e-05	0	8	-0.058	6e-05	0
444	8	-0.049	4e-05	0	8	-0.049	4e-05	0
445	8	-0.045	4e-05	0	8	-0.045	4e-05	0
446	8	-0.037	4e-05	0	8	-0.037	4e-05	0
447	8	-0.036	4e-05	0	8	-0.036	4e-05	0
448	8	-0.035	2e-05	0	8	-0.035	2e-05	0
449	8	-0.027	2e-05	0	8	-0.027	2e-05	0
450	8.5	-0.05	4e-05	0	8.5	-0.05	4e-05	0
451	8.5	-0.049	4e-05	0	8.5	-0.049	4e-05	0
452	8.5	-0.047	4e-05	0	8.5	-0.047	4e-05	0
453	8.5	-0.046	6e-05	0	8.5	-0.046	6e-05	0
454	9	-0.045	4e-05	0	9	-0.045	4e-05	0
455	9.5	-0.045	4e-05	0	9.5	-0.045	4e-05	0
456	9.5	-0.042	4e-05	0	9.5	-0.042	4e-05	0
457	9.5	-0.04	4e-05	0	9.5	-0.04	4e-05	0
458	9.5	-0.024	2e-05	0	9.5	-0.024	2e-05	0
459	9.5	-0.02	0	0	9.5	-0.02	0	0
460	10	-0.042	2e-05	0	10	-0.042	2e-05	0
461	10	-0.042	4e-05	0	10	-0.042	4e-05	0
462	10.5	-0.043	4e-05	0	10.5	-0.043	4e-05	0
463	11	-0.048	4e-05	0	11	-0.048	4e-05	0
464	11.5	-0.06	6e-05	0	11.5	-0.06	6e-05	0
465	11.5	-0.048	4e-05	0	11.5	-0.048	4e-05	0
466	12	-0.048	4e-05	0	12	-0.048	4e-05	0
467	-12	0.049	-4e-05	0	-12	0.049	-4e-05	0
468	-11.5	0.073	-8e-05	0	-11.5	0.073	-8e-05	0
469	-11	0.05	-4e-05	0	-11	0.05	-4e-05	0
470	-11	0.054	-6e-05	0	-11	0.054	-6e-05	0
471	-11	0.057	-6e-05	0	-11	0.057	-6e-05	0
472	-10.5	0.049	-4e-05	0	-10.5	0.049	-4e-05	0
473	-10	0.038	-4e-05	0	-10	0.038	-4e-05	0
474	-10	0.051	-6e-05	0	-10	0.051	-6e-05	0
475	-10	0.061	-6e-05	0	-10	0.061	-6e-05	0
476	-9.5	0.03	-2e-05	0	-9.5	0.03	-2e-05	0
477	-9.5	0.035	-2e-05	0	-9.5	0.035	-2e-05	0
478	-9	0.047	-4e-05	0	-9	0.047	-4e-05	0
479	-9	0.048	-6e-05	0	-9	0.048	-6e-05	0
480	-9	0.056	-6e-05	0	-9	0.056	-6e-05	0
481	-9	0.058	-6e-05	0	-9	0.058	-6e-05	0
482	-8.5	0.026	-2e-05	0	-8.5	0.026	-2e-05	0
483	-8.5	0.031	-2e-05	0	-8.5	0.031	-2e-05	0
484	-8.5	0.034	-2e-05	0	-8.5	0.034	-2e-05	0
485	-8.5	0.04	-4e-05	0	-8.5	0.04	-4e-05	0
486	-8.5	0.041	-4e-05	0	-8.5	0.041	-4e-05	0
487	-8.5	0.045	-4e-05	0	-8.5	0.045	-4e-05	0
488	-8.5	0.049	-4e-05	0	-8.5	0.049	-4e-05	0
489	-8.5	0.051	-6e-05	0	-8.5	0.051	-6e-05	0
490	-8	0.015	0	0	-8	0.015	0	0
491	-8	0.019	0	0	-8	0.019	0	0
492	-8	0.027	-2e-05	0	-8	0.027	-2e-05	0
493	-8	0.029	-2e-05	0	-8	0.029	-2e-05	0
494	-8	0.045	-4e-05	0	-8	0.045	-4e-05	0
495	-8	0.046	-4e-05	0	-8	0.046	-4e-05	0
496	-8	0.059	-6e-05	0	-8	0.059	-6e-05	0
497	-8	0.061	-6e-05	0	-8	0.061	-6e-05	0
498	-7.5	0.022	-2e-05	0	-7.5	0.022	-2e-05	0
499	-7.5	0.029	-2e-05	0	-7.5	0.029	-2e-05	0
500	-7.5	0.034	-2e-05	0	-7.5	0.034	-2e-05	0
501	-7.5	0.038	-4e-05	0	-7.5	0.038	-4e-05	0
502	-7.5	0.041	-4e-05	0	-7.5	0.041	-4e-05	0
503	-7.5	0.042	-4e-05	0	-7.5	0.042	-4e-05	0
504	-7.5	0.044	-4e-05	0	-7.5	0.044	-4e-05	0
505	-7.5	0.047	-4e-05	0	-7.5	0.047	-4e-05	0
506	-7.5	0.059	-6e-05	0	-7.5	0.059	-6e-05	0
507	-7	0.017	0	0	-7	0.017	0	0
508	-7	0.021	0	0	-7	0.021	0	0
509	-7	0.024	-2e-05	0	-7	0.024	-2e-05	0
510	-7	0.025	-2e-05	0	-7	0.025	-2e-05	0
511	-7	0.026	-2e-05	0	-7	0.026	-2e-05	0
512	-7	0.029	-2e-05	0	-7	0.029	-2e-05	0
513	-7	0.031	-2e-05	0	-7	0.031	-2e-05	0
514	-7	0.039	-4e-05	0	-7	0.039	-4e-05	0
515	-7	0.047	-4e-05	0	-7	0.047	-4e-05	0
516	-6.5	0.016	0	0	-6.5	0.016	0	0
517	-6.5	0.023	-2e-05	0	-6.5	0.023	-2e-05	0
518	-6.5	0.024	-2e-05	0	-6.5	0.024	-2e-05	0
519	-6.5	0.025	-2e-05	0	-6.5	0.025	-2e-05	0
520	-6.5	0.039	-4e-05	0	-6.5	0.039	-4e-05	0
521	-6.5	0.043	-4e-05	0	-6.5	0.043	-4e-05	0
522	-6.5	0.044	-4e-05	0	-6.5	0.044	-4e-05	0
523	-6	0.01	0	0	-6	0.01	0	0
524	-6	0.016	0	0	-6	0.016	0	0
525	-6	0.022	-2e-05	0	-6	0.022	-2e-05	0
526	-6	0.024	-2e-05	0	-6	0.024	-2e-05	0
527	-6	0.043	-4e-05	0	-6	0.043	-4e-05	0
528	-6	0.047	-6e-05	0	-6	0.047	-6e-05	0
529	-6	0.047	-4e-05	0	-6	0.047	-4e-05	0
530	-6	0.048	-4e-05	0	-6	0.048	-4e-05	0
531	-6	0.053	-6e-05	0	-6	0.053	-6e-05	0
532	-5.5	0.006	0	0	-5.5	0.006	0	0
533	-5.5	0.019	-2e-05	0	-5.5	0.019	-2e-05	0
534	-5.5	0.02	-2e-05	0	-5.5	0.02	-2e-05	0
535	-5.5	0.021	-2e-05	0	-5.5	0.021	-2e-05	0
536	-5.5	0.022	-2e-05	0	-5.5	0.022	-2e-05	0
537	-5.5	0.023	-2e-05	0	-5.5	0.023	-2e-05	0
538	-5.5	0.024	-2e-05	0	-5.5	0.024	-2e-05	0
539	-5.5	0.025	-4e-05	0	-5.5	0.025	-4e-05	0
540	-5.5	0.025	-2e-05	0	-5.5	0.025	-2e-05	0
541	-5.5	0.032	-2e-05	0	-5.5	0.032	-2e-05	0
542	-5.5	0.033	-4e-05	0	-5.5	0.033	-4e-05	0
543	-5.5	0.041	-4e-05	0	-5.5	0.041	-4e-05	0
544	-5.5	0.043	-4e-05	0	-5.5	0.043	-4e-05	0
545	-5.5	0.045	-6e-05	0	-5.5	0.045	-6e-05	0
546	-5	0.001	0	0	-5	0.001	0	0
547	-5	0.009	0	0	-5	0.009	0	0
548	-5	0.021	-2e-05	0	-5	0.021	-2e-05	0
549	-5	0.026	-4e-05	0	-5	0.026	-4e-05	0
550	-5	0.034	-4e-05	0	-5	0.034	-4e-05	0
551	-5	0.04	-4e-05	0	-5	0.04	-4e-05	0
552	-4.5	0.006	0	0	-4.5	0.006	0	0
553	-4.5	0.008	0	0	-4.5	0.008	0	0
554	-4.5	0.01	-2e-05	0	-4.5	0.01	-2e-05	0
555	-4.5	0.014	0	0	-4.5	0.014	0	0
556	-4.5	0.024	-2e-05	0	-4.5	0.024	-2e-05	0
557	-4.5	0.025	-2e-05	0	-4.5	0.025	-2e-05	0
558	-4.5	0.027	-4e-05	0	-4.5	0.027	-4e-05	0
559	-4.5	0.027	-2e-05	0	-4.5	0.027	-2e-05	0
560	-4.5	0.037	-4e-05	0	-4.5	0.037	-4e-05	0
561	-4.5	0.041	-6e-05	0	-4.5	0.041	-6e-05	0
562	-4.5	0.041	-4e-05	0	-4.5	0.041	-4e-05	0
563	-4.5	0.042	-4e-05	0	-4.5	0.042	-4e-05	0
564	-4	0.005	2e-05	0	-4	0.005	2e-05	0
565	-4	0.011	0	0	-4	0.011	0	0
566	-4	0.012	0	0	-4	0.012	0	0
567	-4	0.013	0	0	-4	0.013	0	0
568	-4	0.018	0	0	-4	0.018	0	0
569	-4	0.02	-2e-05	0	-4	0.02	-2e-05	0
570	-4	0.021	-2e-05	0	-4	0.021	-2e-05	0
571	-4	0.023	-2e-05	0	-4	0.023	-2e-05	0
572	-4	0.025	-2e-05	0	-4	0.025	-2e-05	0
573	-4	0.026	-2e-05	0	-4	0.026	-2e-05	0
574	-4	0.027	-4e-05	0	-4	0.027	-4e-05	0
575	-4	0.031	-4e-05	0	-4	0.031	-4e-05	0
576	-4	0.033	-4e-05	0	-4	0.033	-4e-05	0
577	-4	0.042	-6e-05	0	-4	0.042	-6e-05	0
578	-3.5	-0.006	2e-05	0	-3.5	-0.006	2e-05	0
579	-3.5	0.001	0	0	-3.5	0.001	0	0
580	-3.5	0.005	0	0	-3.5	0.005	0	0
581	-3.5	0.017	-2e-05	0	-3.5	0.017	-2e-05	0
582	-3.5	0.018	-2e-05	0	-3.5	0.018	-2e-05	0
583	-3.5	0.021	-2e-05	0	-3.5	0.021	-2e-05	0
584	-3.5	0.025	-2e-05	0	-3.5	0.025	-2e-05	0
585	-3.5	0.028	-4e-05	0	-3.5	0.028	-4e-05	0
586	-3.5	0.03	-4e-05	0	-3.5	0.03	-4e-05	0
587	-3.5	0.033	-4e-05	0	-3.5	0.033	-4e-05	0
588	-3.5	0.046	-6e-05	0	-3.5	0.046	-6e-05	0
589	-3	-0.012	2e-05	0	-3	-0.012	2e-05	0
590	-3	-0.001	2e-05	0	-3	-0.001	2e-05	0
591	-3	0.002	0	0	-3	0.002	0	0
592	-3	0.005	0	0	-3	0.005	0	0
593	-3	0.007	0	0	-3	0.007	0	0
594	-3	0.009	0	0	-3	0.009	0	0
595	-3	0.014	-2e-05	0	-3	0.014	-2e-05	0
596	-3	0.016	-2e-05	0	-3	0.016	-2e-05	0
597	-3	0.02	-2e-05	0	-3	0.02	-2e-05	0
598	-3	0.021	-2e-05	0	-3	0.021	-2e-05	0
599	-3	0.026	-2e-05	0	-3	0.026	-2e-05	0
600	-3	0.029	-4e-05	0	-3	0.029	-4e-05	0
601	-2.5	-0.008	0	0	-2.5	-0.008	0	0
602	-2.5	-0.004	0	0	-2.5	-0.004	0	0
603	-2.5	-0.001	2e-05	0	-2.5	-0.001	2e-05	0
604	-2.5	0.004	0	0	-2.5	0.004	0	0
605	-2.5	0.006	0	0	-2.5	0.006	0	0
606	-2.5	0.012	-2e-05	0	-2.5	0.012	-2e-05	0
607	-2.5	0.012	0	0	-2.5	0.012	0	0
608	-2.5	0.014	-2e-05	0	-2.5	0.014	-2e-05	0
609	-2.5	0.017	0	0	-2.5	0.017	0	0
610	-2.5	0.019	-2e-05	0	-2.5	0.019	-2e-05	0
611	-2.5	0.022	-4e-05	0	-2.5	0.022	-4e-05	0
612	-2.5	0.022	-2e-05	0	-2.5	0.022	-2e-05	0
613	-2.5	0.026	-4e-05	0	-2.5	0.026	-4e-05	0
614	-2.5	0.026	-2e-05	0	-2.5	0.026	-2e-05	0
615	-2.5	0.033	-4e-05	0	-2.5	0.033	-4e-05	0
616	-2	-0.013	4e-05	0	-2	-0.013	4e-05	0
617	-2	-0.01	2e-05	0	-2	-0.01	2e-05	0
618	-2	0.003	0	0	-2	0.003	0	0
619	-2	0.004	-2e-05	0	-2	0.004	-2e-05	0
620	-2	0.005	0	0	-2	0.005	0	0
621	-2	0.006	0	0	-2	0.006	0	0
622	-2	0.01	-2e-05	0	-2	0.01	-2e-05	0
623	-2	0.011	-2e-05	0	-2	0.011	-2e-05	0
624	-2	0.014	-2e-05	0	-2	0.014	-2e-05	0
625	-2	0.014	0	0	-2	0.014	0	0
626	-2	0.017	-2e-05	0	-2	0.017	-2e-05	0
627	-2	0.02	-2e-05	0	-2	0.02	-2e-05	0
628	-2	0.022	-2e-05	0	-2	0.022	-2e-05	0
629	-2	0.028	-2e-05	0	-2	0.028	-2e-05	0
630	-2	0.036	-6e-05	0	-2	0.036	-6e-05	0
631	-1.5	-0.007	0	0	-1.5	-0.007	0	0
632	-1.5	-0.005	2e-05	0	-1.5	-0.005	2e-05	0
633	-1.5	-0.003	0	0	-1.5	-0.003	0	0
634	-1.5	0	0	0	-1.5	0	0	0
635	-1.5	0.002	0	0	-1.5	0.002	0	0
636	-1.5	0.003	0	0	-1.5	0.003	0	0
637	-1.5	0.004	0	0	-1.5	0.004	0	0
638	-1.5	0.006	0	0	-1.5	0.006	0	0
639	-1.5	0.008	-2e-05	0	-1.5	0.008	-2e-05	0
640	-1.5	0.009	0	0	-1.5	0.009	0	0
641	-1.5	0.01	-2e-05	0	-1.5	0.01	-2e-05	0
642	-1.5	0.01	0	0	-1.5	0.01	0	0
643	-1.5	0.011	-2e-05	0	-1.5	0.011	-2e-05	0
644	-1.5	0.012	-2e-05	0	-1.5	0.012	-2e-05	0
645	-1.5	0.014	-2e-05	0	-1.5	0.014	-2e-05	0
646	-1.5	0.016	-2e-05	0	-1.5	0.016	-2e-05	0
647	-1	-0.018	2e-05	0	-1	-0.018	2e-05	0
648	-1	-0.013	2e-05	0	-1	-0.013	2e-05	0
649	-1	-0.012	2e-05	0	-1	-0.012	2e-05	0
650	-1	-0.01	2e-05	0	-1	-0.01	2e-05	0
651	-1	-0.008	0	0	-1	-0.008	0	0
652	-1	-0.003	0	0	-1	-0.003	0	0
653	-1	-0.001	0	0	-1	-0.001	0	0
654	-1	-0.001	2e-05	0	-1	-0.001	2e-05	0
655	-1	0	0	0	-1	0	0	0
656	-1	0.001	2e-05	0	-1	0.001	2e-05	0
657	-1	0.002	0	0	-1	0.002	0	0
658	-1	0.003	0	0	-1	0.003	0	0
659	-1	0.005	0	0	-1	0.005	0	0
660	-1	0.006	-2e-05	0	-1	0.006	-2e-05	0
661	-1	0.006	0	0	-1	0.006	0	0
662	-1	0.007	0	0	-1	0.007	0	0
663	-1	0.008	0	0	-1	0.008	0	0
664	-1	0.009	0	0	-1	0.009	0	0
665	-1	0.015	-2e-05	0	-1	0.015	-2e-05	0
666	-1	0.016	-2e-05	0	-1	0.016	-2e-05	0
667	-1	0.018	-2e-05	0	-1	0.018	-2e-05	0
668	-1	0.02	-2e-05	0	-1	0.02	-2e-05	0
669	-1	0.023	-4e-05	0	-1	0.023	-4e-05	0
670	-0.5	-0.023	4e-05	0	-0.5	-0.023	4e-05	0
671	-0.5	-0.009	2e-05	0	-0.5	-0.009	2e-05	0
672	-0.5	-0.008	2e-05	0	-0.5	-0.008	2e-05	0
673	-0.5	-0.005	2e-05	0	-0.5	-0.005	2e-05	0
674	-0.5	-0.003	2e-05	0	-0.5	-0.003	2e-05	0
675	-0.5	0	0	0	-0.5	0	0	0
676	-0.5	0.001	0	0	-0.5	0.001	0	0
677	-0.5	0.002	0	0	-0.5	0.002	0	0
678	-0.5	0.003	0	0	-0.5	0.003	0	0
679	-0.5	0.004	0	0	-0.5	0.004	0	0
680	-0.5	0.006	0	0	-0.5	0.006	0	0
681	-0.5	0.007	-2e-05	0	-0.5	0.007	-2e-05	0
682	-0.5	0.011	-2e-05	0	-0.5	0.011	-2e-05	0
683	-0.5	0.012	-2e-05	0	-0.5	0.012	-2e-05	0
684	-0.5	0.021	-4e-05	0	-0.5	0.021	-4e-05	0
685	-0.5	0.024	-2e-05	0	-0.5	0.024	-2e-05	0
686	0	-0.023	4e-05	0	0	-0.023	4e-05	0
687	0	-0.018	4e-05	0	0	-0.018	4e-05	0
688	0	-0.017	4e-05	0	0	-0.017	4e-05	0
689	0	-0.016	2e-05	0	0	-0.016	2e-05	0
690	0	-0.009	2e-05	0	0	-0.009	2e-05	0
691	0	-0.008	2e-05	0	0	-0.008	2e-05	0
692	0	-0.005	0	0	0	-0.005	0	0
693	0	-0.003	0	0	0	-0.003	0	0
694	0	-0.001	0	0	0	-0.001	0	0
695	0	0	0	0	0	0	0	0
696	0	0.001	0	0	0	0.001	0	0
697	0	0.002	0	0	0	0.002	0	0
698	0	0.003	0	0	0	0.003	0	0
699	0	0.005	-2e-05	0	0	0.005	-2e-05	0
700	0	0.006	-2e-05	0	0	0.006	-2e-05	0
701	0	0.007	-2e-05	0	0	0.007	-2e-05	0
702	0	0.011	-2e-05	0	0	0.011	-2e-05	0
703	0	0.015	-2e-05	0	0	0.015	-2e-05	0
704	0	0.019	-2e-05	0	0	0.019	-2e-05	0
705	0	0.025	-4e-05	0	0	0.025	-4e-05	0
706	0.5	-0.009	2e-05	0	0.5	-0.009	2e-05	0
707	0.5	-0.008	2e-05	0	0.5	-0.008	2e-05	0
708	0.5	-0.007	0	0	0.5	-0.007	0	0
709	0.5	-0.007	2e-05	0	0.5	-0.007	2e-05	0
710	0.5	-0.006	0	0	0.5	-0.006	0	0
711	0.5	-0.005	0	0	0.5	-0.005	0	0
712	0.5	-0.004	0	0	0.5	-0.004	0	0
713	0.5	-0.003	2e-05	0	0.5	-0.003	2e-05	0
714	0.5	-0.002	0	0	0.5	-0.002	0	0
715	0.5	-0.001	0	0	0.5	-0.001	0	0
716	0.5	0	0	0	0.5	0	0	0
717	0.5	0.001	0	0	0.5	0.001	0	0
718	0.5	0.004	0	0	0.5	0.004	0	0
719	0.5	0.005	0	0	0.5	0.005	0	0
720	0.5	0.009	-2e-05	0	0.5	0.009	-2e-05	0
721	0.5	0.011	-2e-05	0	0.5	0.011	-2e-05	0
722	0.5	0.013	-2e-05	0	0.5	0.013	-2e-05	0
723	0.5	0.016	-2e-05	0	0.5	0.016	-2e-05	0
724	0.5	0.024	-4e-05	0	0.5	0.024	-4e-05	0
725	1	-0.023	2e-05	0	1	-0.023	2e-05	0
726	1	-0.023	4e-05	0	1	-0.023	4e-05	0
727	1	-0.022	2e-05	0	1	-0.022	2e-05	0
728	1	-0.019	2e-05	0	1	-0.019	2e-05	0
729	1	-0.017	4e-05	0	1	-0.017	4e-05	0
730	1	-0.016	2e-05	0	1	-0.016	2e-05	0
731	1	-0.015	2e-05	0	1	-0.015	2e-05	0
732	1	-0.012	2e-05	0	1	-0.012	2e-05	0
733	1	-0.01	0	0	1	-0.01	0	0
734	1	-0.01	2e-05	0	1	-0.01	2e-05	0
735	1	-0.006	0	0	1	-0.006	0	0
736	1	-0.005	2e-05	0	1	-0.005	2e-05	0
737	1	-0.004	0	0	1	-0.004	0	0
738	1	-0.003	0	0	1	-0.003	0	0
739	1	-0.002	0	0	1	-0.002	0	0
740	1	-0.001	0	0	1	-0.001	0	0
741	1	0	0	0	1	0	0	0
742	1	0.003	0	0	1	0.003	0	0
743	1	0.007	-2e-05	0	1	0.007	-2e-05	0
744	1	0.008	-2e-05	0	1	0.008	-2e-05	0
745	1	0.009	-2e-05	0	1	0.009	-2e-05	0
746	1	0.01	-2e-05	0	1	0.01	-2e-05	0
747	1	0.012	-2e-05	0	1	0.012	-2e-05	0
748	1	0.013	-2e-05	0	1	0.013	-2e-05	0
749	1	0.016	-2e-05	0	1	0.016	-2e-05	0
750	1.5	-0.02	4e-05	0	1.5	-0.02	4e-05	0
751	1.5	-0.017	2e-05	0	1.5	-0.017	2e-05	0
752	1.5	-0.016	2e-05	0	1.5	-0.016	2e-05	0
753	1.5	-0.015	2e-05	0	1.5	-0.015	2e-05	0
754	1.5	-0.014	2e-05	0	1.5	-0.014	2e-05	0
755	1.5	-0.013	2e-05	0	1.5	-0.013	2e-05	0
756	1.5	-0.012	2e-05	0	1.5	-0.012	2e-05	0
757	1.5	-0.009	0	0	1.5	-0.009	0	0
758	1.5	-0.009	2e-05	0	1.5	-0.009	2e-05	0
759	1.5	-0.008	0	0	1.5	-0.008	0	0
760	1.5	-0.005	0	0	1.5	-0.005	0	0
761	1.5	-0.004	0	0	1.5	-0.004	0	0
762	1.5	-0.003	0	0	1.5	-0.003	0	0
763	1.5	-0.002	0	0	1.5	-0.002	0	0
764	1.5	-0.001	-2e-05	0	1.5	-0.001	-2e-05	0
765	1.5	0	-2e-05	0	1.5	0	-2e-05	0
766	1.5	0.003	0	0	1.5	0.003	0	0
767	1.5	0.006	-2e-05	0	1.5	0.006	-2e-05	0
768	1.5	0.013	-2e-05	0	1.5	0.013	-2e-05	0
769	1.5	0.015	-2e-05	0	1.5	0.015	-2e-05	0
770	1.5	0.02	-4e-05	0	1.5	0.02	-4e-05	0
771	2	-0.033	4e-05	0	2	-0.033	4e-05	0
772	2	-0.026	2e-05	0	2	-0.026	2e-05	0
773	2	-0.026	4e-05	0	2	-0.026	4e-05	0
774	2	-0.023	2e-05	0	2	-0.023	2e-05	0
775	2	-0.016	2e-05	0	2	-0.016	2e-05	0
776	2	-0.015	2e-05	0	2	-0.015	2e-05	0
777	2	-0.013	2e-05	0	2	-0.013	2e-05	0
778	2	-0.012	2e-05	0	2	-0.012	2e-05	0
779	2	-0.011	2e-05	0	2	-0.011	2e-05	0
780	2	-0.009	2e-05	0	2	-0.009	2e-05	0
781	2	-0.008	0	0	2	-0.008	0	0
782	2	-0.005	0	0	2	-0.005	0	0
783	2	-0.003	0	0	2	-0.003	0	0
784	2	-0.002	0	0	2	-0.002	0	0
785	2	0.002	-2e-05	0	2	0.002	-2e-05	0
786	2	0.006	-2e-05	0	2	0.006	-2e-05	0
787	2	0.01	-2e-05	0	2	0.01	-2e-05	0
788	2.5	-0.03	4e-05	0	2.5	-0.03	4e-05	0
789	2.5	-0.029	4e-05	0	2.5	-0.029	4e-05	0
790	2.5	-0.028	4e-05	0	2.5	-0.028	4e-05	0
791	2.5	-0.026	4e-05	0	2.5	-0.026	4e-05	0
792	2.5	-0.024	2e-05	0	2.5	-0.024	2e-05	0
793	2.5	-0.023	2e-05	0	2.5	-0.023	2e-05	0
794	2.5	-0.021	4e-05	0	2.5	-0.021	4e-05	0
795	2.5	-0.018	2e-05	0	2.5	-0.018	2e-05	0
796	2.5	-0.016	2e-05	0	2.5	-0.016	2e-05	0
797	2.5	-0.013	2e-05	0	2.5	-0.013	2e-05	0
798	2.5	-0.011	0	0	2.5	-0.011	0	0
799	2.5	-0.007	0	0	2.5	-0.007	0	0
800	2.5	-0.006	0	0	2.5	-0.006	0	0
801	2.5	-0.002	0	0	2.5	-0.002	0	0
802	3	-0.026	2e-05	0	3	-0.026	2e-05	0
803	3	-0.025	4e-05	0	3	-0.025	4e-05	0
804	3	-0.022	2e-05	0	3	-0.022	2e-05	0
805	3	-0.021	2e-05	0	3	-0.021	2e-05	0
806	3	-0.02	2e-05	0	3	-0.02	2e-05	0
807	3	-0.018	2e-05	0	3	-0.018	2e-05	0
808	3	-0.017	2e-05	0	3	-0.017	2e-05	0
809	3	-0.016	2e-05	0	3	-0.016	2e-05	0
810	3	-0.01	0	0	3	-0.01	0	0
811	3	-0.009	2e-05	0	3	-0.009	2e-05	0
812	3	-0.007	0	0	3	-0.007	0	0
813	3	-0.006	0	0	3	-0.006	0	0
814	3	-0.005	0	0	3	-0.005	0	0
815	3	-0.003	0	0	3	-0.003	0	0
816	3	0	-2e-05	0	3	0	-2e-05	0
817	3.5	-0.038	4e-05	0	3.5	-0.038	4e-05	0
818	3.5	-0.035	4e-05	0	3.5	-0.035	4e-05	0
819	3.5	-0.033	4e-05	0	3.5	-0.033	4e-05	0
820	3.5	-0.028	2e-05	0	3.5	-0.028	2e-05	0
821	3.5	-0.028	4e-05	0	3.5	-0.028	4e-05	0
822	3.5	-0.024	2e-05	0	3.5	-0.024	2e-05	0
823	3.5	-0.013	0	0	3.5	-0.013	0	0
824	3.5	-0.013	2e-05	0	3.5	-0.013	2e-05	0
825	3.5	-0.011	0	0	3.5	-0.011	0	0
826	3.5	-0.009	0	0	3.5	-0.009	0	0
827	3.5	-0.009	2e-05	0	3.5	-0.009	2e-05	0
828	3.5	-0.008	0	0	3.5	-0.008	0	0
829	3.5	-0.003	0	0	3.5	-0.003	0	0
830	3.5	-0.002	0	0	3.5	-0.002	0	0
831	3.5	0.009	-2e-05	0	3.5	0.009	-2e-05	0
832	4	-0.044	6e-05	0	4	-0.044	6e-05	0
833	4	-0.042	4e-05	0	4	-0.042	4e-05	0
834	4	-0.039	4e-05	0	4	-0.039	4e-05	0
835	4	-0.037	6e-05	0	4	-0.037	6e-05	0
836	4	-0.032	4e-05	0	4	-0.032	4e-05	0
837	4	-0.031	4e-05	0	4	-0.031	4e-05	0
838	4	-0.023	2e-05	0	4	-0.023	2e-05	0
839	4	-0.021	2e-05	0	4	-0.021	2e-05	0
840	4	-0.019	2e-05	0	4	-0.019	2e-05	0
841	4	-0.014	0	0	4	-0.014	0	0
842	4	-0.011	0	0	4	-0.011	0	0
843	4	-0.008	0	0	4	-0.008	0	0
844	4	-0.005	0	0	4	-0.005	0	0
845	4	-0.004	0	0	4	-0.004	0	0
846	4	-0.003	0	0	4	-0.003	0	0
847	4.5	-0.047	6e-05	0	4.5	-0.047	6e-05	0
848	4.5	-0.04	6e-05	0	4.5	-0.04	6e-05	0
849	4.5	-0.038	4e-05	0	4.5	-0.038	4e-05	0
850	4.5	-0.037	4e-05	0	4.5	-0.037	4e-05	0
851	4.5	-0.035	4e-05	0	4.5	-0.035	4e-05	0
852	4.5	-0.032	4e-05	0	4.5	-0.032	4e-05	0
853	4.5	-0.029	2e-05	0	4.5	-0.029	2e-05	0
854	4.5	-0.024	2e-05	0	4.5	-0.024	2e-05	0
855	4.5	-0.021	2e-05	0	4.5	-0.021	2e-05	0
856	4.5	-0.017	2e-05	0	4.5	-0.017	2e-05	0
857	4.5	-0.016	0	0	4.5	-0.016	0	0
858	4.5	-0.01	0	0	4.5	-0.01	0	0
859	4.5	0.003	-2e-05	0	4.5	0.003	-2e-05	0
860	5	-0.041	6e-05	0	5	-0.041	6e-05	0
861	5	-0.039	4e-05	0	5	-0.039	4e-05	0
862	5	-0.036	4e-05	0	5	-0.036	4e-05	0
863	5	-0.027	4e-05	0	5	-0.027	4e-05	0
864	5	-0.026	2e-05	0	5	-0.026	2e-05	0
865	5	-0.025	2e-05	0	5	-0.025	2e-05	0
866	5	-0.021	2e-05	0	5	-0.021	2e-05	0
867	5	-0.018	2e-05	0	5	-0.018	2e-05	0
868	5	-0.013	0	0	5	-0.013	0	0
869	5	-0.01	2e-05	0	5	-0.01	2e-05	0
870	5.5	-0.052	6e-05	0	5.5	-0.052	6e-05	0
871	5.5	-0.049	6e-05	0	5.5	-0.049	6e-05	0
872	5.5	-0.046	6e-05	0	5.5	-0.046	6e-05	0
873	5.5	-0.044	6e-05	0	5.5	-0.044	6e-05	0
874	5.5	-0.043	6e-05	0	5.5	-0.043	6e-05	0
875	5.5	-0.04	4e-05	0	5.5	-0.04	4e-05	0
876	5.5	-0.032	4e-05	0	5.5	-0.032	4e-05	0
877	5.5	-0.024	2e-05	0	5.5	-0.024	2e-05	0
878	5.5	-0.02	2e-05	0	5.5	-0.02	2e-05	0
879	5.5	-0.014	0	0	5.5	-0.014	0	0
880	5.5	-0.011	0	0	5.5	-0.011	0	0
881	6	-0.05	6e-05	0	6	-0.05	6e-05	0
882	6	-0.048	4e-05	0	6	-0.048	4e-05	0
883	6	-0.047	4e-05	0	6	-0.047	4e-05	0
884	6	-0.043	6e-05	0	6	-0.043	6e-05	0
885	6	-0.038	4e-05	0	6	-0.038	4e-05	0
886	6	-0.036	2e-05	0	6	-0.036	2e-05	0
887	6	-0.034	4e-05	0	6	-0.034	4e-05	0
888	6	-0.025	2e-05	0	6	-0.025	2e-05	0
889	6	-0.016	2e-05	0	6	-0.016	2e-05	0
890	6	-0.011	0	0	6	-0.011	0	0
891	6	-0.002	0	0	6	-0.002	0	0
892	6.5	-0.058	6e-05	0	6.5	-0.058	6e-05	0
893	6.5	-0.042	6e-05	0	6.5	-0.042	6e-05	0
894	6.5	-0.031	2e-05	0	6.5	-0.031	2e-05	0
895	6.5	-0.025	2e-05	0	6.5	-0.025	2e-05	0
896	6.5	-0.023	2e-05	0	6.5	-0.023	2e-05	0
897	6.5	-0.022	2e-05	0	6.5	-0.022	2e-05	0
898	7	-0.049	6e-05	0	7	-0.049	6e-05	0
899	7	-0.042	4e-05	0	7	-0.042	4e-05	0
900	7	-0.039	4e-05	0	7	-0.039	4e-05	0
901	7	-0.036	2e-05	0	7	-0.036	2e-05	0
902	7	-0.03	2e-05	0	7	-0.03	2e-05	0
903	7	-0.025	2e-05	0	7	-0.025	2e-05	0
904	7	-0.021	2e-05	0	7	-0.021	2e-05	0
905	7.5	-0.043	4e-05	0	7.5	-0.043	4e-05	0
906	7.5	-0.034	4e-05	0	7.5	-0.034	4e-05	0
907	7.5	-0.032	2e-05	0	7.5	-0.032	2e-05	0
908	7.5	-0.025	2e-05	0	7.5	-0.025	2e-05	0
909	8	-0.049	4e-05	0	8	-0.049	4e-05	0
910	8	-0.047	4e-05	0	8	-0.047	4e-05	0
911	8	-0.046	4e-05	0	8	-0.046	4e-05	0
912	8	-0.035	2e-05	0	8	-0.035	2e-05	0
913	8	-0.022	0	0	8	-0.022	0	0
914	8.5	-0.059	6e-05	0	8.5	-0.059	6e-05	0
915	8.5	-0.05	6e-05	0	8.5	-0.05	6e-05	0
916	8.5	-0.032	2e-05	0	8.5	-0.032	2e-05	0
917	8.5	-0.028	2e-05	0	8.5	-0.028	2e-05	0
918	9	-0.045	6e-05	0	9	-0.045	6e-05	0
919	9	-0.041	4e-05	0	9	-0.041	4e-05	0
920	9.5	-0.039	4e-05	0	9.5	-0.039	4e-05	0
921	10	-0.05	4e-05	0	10	-0.05	4e-05	0
922	10	-0.04	4e-05	0	10	-0.04	4e-05	0
923	11	-0.056	4e-05	0	11	-0.056	4e-05	0
924	11	-0.048	4e-05	0	11	-0.048	4e-05	0
925	11	-0.046	4e-05	0	11	-0.046	4e-05	0
926	11	-0.034	2e-05	0	11	-0.034	2e-05	0
927	12	-0.059	6e-05	0	12	-0.059	6e-05	0
928	12	-0.048	4e-05	0	12	-0.048	4e-05	0
929	12.5	-0.067	6e-05	0	12.5	-0.067	6e-05	0
1	-11.5	0.046	-4e-05	0	-11.5	0.046	-4e-05	0
2	-11.5	0.06	-6e-05	0	-11.5	0.06	-6e-05	0
3	-11	0.033	-2e-05	0	-11	0.033	-2e-05	0
4	-11	0.05	-4e-05	0	-11	0.05	-4e-05	0
5	-10.5	0.042	-4e-05	0	-10.5	0.042	-4e-05	0
6	-10.5	0.047	-4e-05	0	-10.5	0.047	-4e-05	0
7	-10	0.036	-2e-05	0	-10	0.036	-2e-05	0
8	-10	0.038	-4e-05	0	-10	0.038	-4e-05	0
9	-10	0.041	-4e-05	0	-10	0.041	-4e-05	0
10	-10	0.052	-6e-05	0	-10	0.052	-6e-05	0
11	-9.5	0.044	-4e-05	0	-9.5	0.044	-4e-05	0
12	-9.5	0.057	-6e-05	0	-9.5	0.057	-6e-05	0
13	-9.5	0.065	-6e-05	0	-9.5	0.065	-6e-05	0
14	-9	0.025	-2e-05	0	-9	0.025	-2e-05	0
15	-9	0.026	-2e-05	0	-9	0.026	-2e-05	0
16	-9	0.027	-2e-05	0	-9	0.027	-2e-05	0
17	-9	0.03	-2e-05	0	-9	0.03	-2e-05	0
18	-9	0.036	-4e-05	0	-9	0.036	-4e-05	0
19	-9	0.048	-4e-05	0	-9	0.048	-4e-05	0
20	-8.5	0.028	-2e-05	0	-8.5	0.028	-2e-05	0
21	-8.5	0.032	-4e-05	0	-8.5	0.032	-4e-05	0
22	-8.5	0.036	-2e-05	0	-8.5	0.036	-2e-05	0
23	-8.5	0.045	-4e-05	0	-8.5	0.045	-4e-05	0
24	-8	0.025	-2e-05	0	-8	0.025	-2e-05	0
25	-8	0.051	-4e-05	0	-8	0.051	-4e-05	0
26	-7.5	0.013	0	0	-7.5	0.013	0	0
27	-7.5	0.023	-2e-05	0	-7.5	0.023	-2e-05	0
28	-7.5	0.025	-2e-05	0	-7.5	0.025	-2e-05	0
29	-7.5	0.031	-4e-05	0	-7.5	0.031	-4e-05	0
30	-7.5	0.037	-4e-05	0	-7.5	0.037	-4e-05	0
31	-7.5	0.039	-4e-05	0	-7.5	0.039	-4e-05	0
32	-7.5	0.046	-4e-05	0	-7.5	0.046	-4e-05	0
33	-7.5	0.051	-6e-05	0	-7.5	0.051	-6e-05	0
34	-7	0.028	-2e-05	0	-7	0.028	-2e-05	0
35	-7	0.032	-4e-05	0	-7	0.032	-4e-05	0
36	-7	0.047	-4e-05	0	-7	0.047	-4e-05	0
37	-6.5	0.026	-2e-05	0	-6.5	0.026	-2e-05	0
38	-6.5	0.028	-2e-05	0	-6.5	0.028	-2e-05	0
39	-6.5	0.029	-2e-05	0	-6.5	0.029	-2e-05	0
40	-6.5	0.031	-4e-05	0	-6.5	0.031	-4e-05	0
41	-6.5	0.033	-4e-05	0	-6.5	0.033	-4e-05	0
42	-6.5	0.036	-4e-05	0	-6.5	0.036	-4e-05	0
43	-6.5	0.043	-4e-05	0	-6.5	0.043	-4e-05	0
44	-6.5	0.044	-4e-05	0	-6.5	0.044	-4e-05	0
45	-6.5	0.045	-4e-05	0	-6.5	0.045	-4e-05	0
46	-6.5	0.047	-6e-05	0	-6.5	0.047	-6e-05	0
47	-6.5	0.048	-4e-05	0	-6.5	0.048	-4e-05	0
48	-6	-0.001	2e-05	0	-6	-0.001	2e-05	0
49	-6	0.022	-2e-05	0	-6	0.022	-2e-05	0
50	-6	0.033	-4e-05	0	-6	0.033	-4e-05	0
51	-6	0.037	-4e-05	0	-6	0.037	-4e-05	0
52	-6	0.04	-4e-05	0	-6	0.04	-4e-05	0
53	-6	0.045	-4e-05	0	-6	0.045	-4e-05	0
54	-6	0.06	-8e-05	0	-6	0.06	-8e-05	0
55	-5.5	0.001	2e-05	0	-5.5	0.001	2e-05	0
56	-5.5	0.008	0	0	-5.5	0.008	0	0
57	-5.5	0.011	0	0	-5.5	0.011	0	0
58	-5.5	0.022	-2e-05	0	-5.5	0.022	-2e-05	0
59	-5.5	0.024	-2e-05	0	-5.5	0.024	-2e-05	0
60	-5.5	0.027	-2e-05	0	-5.5	0.027	-2e-05	0
61	-5.5	0.033	-2e-05	0	-5.5	0.033	-2e-05	0
62	-5.5	0.044	-4e-05	0	-5.5	0.044	-4e-05	0
63	-5.5	0.046	-4e-05	0	-5.5	0.046	-4e-05	0
64	-5.5	0.048	-6e-05	0	-5.5	0.048	-6e-05	0
65	-5	-0.002	2e-05	0	-5	-0.002	2e-05	0
66	-5	0.006	0	0	-5	0.006	0	0
67	-5	0.014	-2e-05	0	-5	0.014	-2e-05	0
68	-5	0.015	-2e-05	0	-5	0.015	-2e-05	0
69	-5	0.015	0	0	-5	0.015	0	0
70	-5	0.019	-2e-05	0	-5	0.019	-2e-05	0
71	-5	0.021	-2e-05	0	-5	0.021	-2e-05	0
72	-5	0.025	-2e-05	0	-5	0.025	-2e-05	0
73	-5	0.028	-4e-05	0	-5	0.028	-4e-05	0
74	-5	0.03	-4e-05	0	-5	0.03	-4e-05	0
75	-5	0.032	-2e-05	0	-5	0.032	-2e-05	0
76	-5	0.033	-4e-05	0	-5	0.033	-4e-05	0
77	-5	0.034	-4e-05	0	-5	0.034	-4e-05	0
78	-5	0.038	-6e-05	0	-5	0.038	-6e-05	0
79	-5	0.039	-4e-05	0	-5	0.039	-4e-05	0
80	-5	0.04	-6e-05	0	-5	0.04	-6e-05	0
81	-5	0.042	-6e-05	0	-5	0.042	-6e-05	0
82	-4.5	0.006	0	0	-4.5	0.006	0	0
83	-4.5	0.014	0	0	-4.5	0.014	0	0
84	-4.5	0.018	-2e-05	0	-4.5	0.018	-2e-05	0
85	-4.5	0.022	-4e-05	0	-4.5	0.022	-4e-05	0
86	-4.5	0.024	-2e-05	0	-4.5	0.024	-2e-05	0
87	-4.5	0.025	-2e-05	0	-4.5	0.025	-2e-05	0
88	-4.5	0.026	-4e-05	0	-4.5	0.026	-4e-05	0
89	-4.5	0.027	-2e-05	0	-4.5	0.027	-2e-05	0
90	-4.5	0.036	-4e-05	0	-4.5	0.036	-4e-05	0
91	-4.5	0.043	-4e-05	0	-4.5	0.043	-4e-05	0
92	-4	0.004	0	0	-4	0.004	0	0
93	-4	0.006	0	0	-4	0.006	0	0
94	-4	0.011	-2e-05	0	-4	0.011	-2e-05	0
95	-4	0.012	-2e-05	0	-4	0.012	-2e-05	0
96	-4	0.014	-2e-05	0	-4	0.014	-2e-05	0
97	-4	0.018	-2e-05	0	-4	0.018	-2e-05	0
98	-4	0.019	-2e-05	0	-4	0.019	-2e-05	0
99	-4	0.02	-2e-05	0	-4	0.02	-2e-05	0
100	-4	0.024	-2e-05	0	-4	0.024	-2e-05	0
101	-4	0.027	-2e-05	0	-4	0.027	-2e-05	0
102	-4	0.028	-2e-05	0	-4	0.028	-2e-05	0
103	-4	0.038	-4e-05	0	-4	0.038	-4e-05	0
104	-3.5	-0.008	2e-05	0	-3.5	-0.008	2e-05	0
105	-3.5	0.005	2e-05	0	-3.5	0.005	2e-05	0
106	-3.5	0.006	0	0	-3.5	0.006	0	0
107	-3.5	0.008	0	0	-3.5	0.008	0	0
108	-3.5	0.009	0	0	-3.5	0.009	0	0
109	-3.5	0.013	-2e-05	0	-3.5	0.013	-2e-05	0
110	-3.5	0.021	-2e-05	0	-3.5	0.021	-2e-05	0
111	-3.5	0.026	-2e-05	0	-3.5	0.026	-2e-05	0
112	-3.5	0.03	-2e-05	0	-3.5	0.03	-2e-05	0
113	-3.5	0.034	-4e-05	0	-3.5	0.034	-4e-05	0
114	-3.5	0.035	-4e-05	0	-3.5	0.035	-4e-05	0
115	-3	-0.008	2e-05	0	-3	-0.008	2e-05	0
116	-3	-0.004	0	0	-3	-0.004	0	0
117	-3	0	0	0	-3	0	0	0
118	-3	0	2e-05	0	-3	0	2e-05	0
119	-3	0.001	0	0	-3	0.001	0	0
120	-3	0.007	0	0	-3	0.007	0	0
121	-3	0.008	0	0	-3	0.008	0	0
122	-3	0.014	0	0	-3	0.014	0	0
123	-3	0.015	-2e-05	0	-3	0.015	-2e-05	0
124	-3	0.018	-2e-05	0	-3	0.018	-2e-05	0
125	-3	0.02	-2e-05	0	-3	0.02	-2e-05	0
126	-3	0.022	-2e-05	0	-3	0.022	-2e-05	0
127	-3	0.023	-2e-05	0	-3	0.023	-2e-05	0
128	-3	0.027	-4e-05	0	-3	0.027	-4e-05	0
129	-3	0.028	-4e-05	0	-3	0.028	-4e-05	0
130	-3	0.029	-4e-05	0	-3	0.029	-4e-05	0
131	-3	0.038	-6e-05	0	-3	0.038	-6e-05	0
132	-2.5	-0.006	2e-05	0	-2.5	-0.006	2e-05	0
133	-2.5	-0.005	2e-05	0	-2.5	-0.005	2e-05	0
134	-2.5	-0.003	2e-05	0	-2.5	-0.003	2e-05	0
135	-2.5	0.002	0	0	-2.5	0.002	0	0
136	-2.5	0.004	0	0	-2.5	0.004	0	0
137	-2.5	0.006	0	0	-2.5	0.006	0	0
138	-2.5	0.009	0	0	-2.5	0.009	0	0
139	-2.5	0.013	0	0	-2.5	0.013	0	0
140	-2.5	0.014	-2e-05	0	-2.5	0.014	-2e-05	0
141	-2.5	0.016	-2e-05	0	-2.5	0.016	-2e-05	0
142	-2.5	0.017	-2e-05	0	-2.5	0.017	-2e-05	0
143	-2.5	0.019	-4e-05	0	-2.5	0.019	-4e-05	0
144	-2.5	0.02	-2e-05	0	-2.5	0.02	-2e-05	0
145	-2.5	0.021	-2e-05	0	-2.5	0.021	-2e-05	0
146	-2.5	0.023	-2e-05	0	-2.5	0.023	-2e-05	0
147	-2.5	0.028	-4e-05	0	-2.5	0.028	-4e-05	0
148	-2.5	0.029	-2e-05	0	-2.5	0.029	-2e-05	0
149	-2	-0.012	2e-05	0	-2	-0.012	2e-05	0
150	-2	-0.008	2e-05	0	-2	-0.008	2e-05	0
151	-2	-0.006	2e-05	0	-2	-0.006	2e-05	0
152	-2	-0.002	0	0	-2	-0.002	0	0
153	-2	-0.001	0	0	-2	-0.001	0	0
154	-2	0	0	0	-2	0	0	0
155	-2	0.001	0	0	-2	0.001	0	0
156	-2	0.002	0	0	-2	0.002	0	0
157	-2	0.005	0	0	-2	0.005	0	0
158	-2	0.008	0	0	-2	0.008	0	0
159	-2	0.009	0	0	-2	0.009	0	0
160	-2	0.012	-2e-05	0	-2	0.012	-2e-05	0
161	-2	0.014	-2e-05	0	-2	0.014	-2e-05	0
162	-2	0.019	-4e-05	0	-2	0.019	-4e-05	0
163	-2	0.023	-2e-05	0	-2	0.023	-2e-05	0
164	-2	0.024	-4e-05	0	-2	0.024	-4e-05	0
165	-2	0.026	-2e-05	0	-2	0.026	-2e-05	0
166	-2	0.042	-6e-05	0	-2	0.042	-6e-05	0
167	-1.5	-0.019	4e-05	0	-1.5	-0.019	4e-05	0
168	-1.5	-0.004	2e-05	0	-1.5	-0.004	2e-05	0
169	-1.5	-0.001	0	0	-1.5	-0.001	0	0
170	-1.5	0.001	0	0	-1.5	0.001	0	0
171	-1.5	0.003	0	0	-1.5	0.003	0	0
172	-1.5	0.004	0	0	-1.5	0.004	0	0
173	-1.5	0.005	0	0	-1.5	0.005	0	0
174	-1.5	0.007	0	0	-1.5	0.007	0	0
175	-1.5	0.009	0	0	-1.5	0.009	0	0
176	-1.5	0.01	-2e-05	0	-1.5	0.01	-2e-05	0
177	-1.5	0.012	-2e-05	0	-1.5	0.012	-2e-05	0
178	-1.5	0.012	0	0	-1.5	0.012	0	0
179	-1.5	0.013	-2e-05	0	-1.5	0.013	-2e-05	0
180	-1.5	0.014	-2e-05	0	-1.5	0.014	-2e-05	0
181	-1.5	0.016	0	0	-1.5	0.016	0	0
182	-1.5	0.018	-2e-05	0	-1.5	0.018	-2e-05	0
183	-1.5	0.019	-2e-05	0	-1.5	0.019	-2e-05	0
184	-1.5	0.021	-2e-05	0	-1.5	0.021	-2e-05	0
185	-1.5	0.025	-2e-05	0	-1.5	0.025	-2e-05	0
186	-1	-0.009	2e-05	0	-1	-0.009	2e-05	0
187	-1	-0.008	2e-05	0	-1	-0.008	2e-05	0
188	-1	-0.007	2e-05	0	-1	-0.007	2e-05	0
189	-1	-0.006	0	0	-1	-0.006	0	0
190	-1	-0.002	0	0	-1	-0.002	0	0
191	-1	-0.001	0	0	-1	-0.001	0	0
192	-1	0	0	0	-1	0	0	0
193	-1	0.001	0	0	-1	0.001	0	0
194	-1	0.002	0	0	-1	0.002	0	0
195	-1	0.003	0	0	-1	0.003	0	0
196	-1	0.005	0	0	-1	0.005	0	0
197	-1	0.006	0	0	-1	0.006	0	0
198	-1	0.007	-2e-05	0	-1	0.007	-2e-05	0
199	-1	0.008	-2e-05	0	-1	0.008	-2e-05	0
200	-1	0.009	0	0	-1	0.009	0	0
201	-1	0.011	-2e-05	0	-1	0.011	-2e-05	0
202	-1	0.012	-2e-05	0	-1	0.012	-2e-05	0
203	-1	0.013	-2e-05	0	-1	0.013	-2e-05	0
204	-1	0.014	-2e-05	0	-1	0.014	-2e-05	0
205	-1	0.015	-2e-05	0	-1	0.015	-2e-05	0
206	-1	0.016	-4e-05	0	-1	0.016	-4e-05	0
207	-1	0.016	-2e-05	0	-1	0.016	-2e-05	0
208	-1	0.018	-4e-05	0	-1	0.018	-4e-05	0
209	-1	0.02	-2e-05	0	-1	0.02	-2e-05	0
210	-1	0.022	-4e-05	0	-1	0.022	-4e-05	0
211	-1	0.026	-4e-05	0	-1	0.026	-4e-05	0
212	-1	0.027	-4e-05	0	-1	0.027	-4e-05	0
213	-1	0.029	-4e-05	0	-1	0.029	-4e-05	0
214	-0.5	-0.014	2e-05	0	-0.5	-0.014	2e-05	0
215	-0.5	-0.005	0	0	-0.5	-0.005	0	0
216	-0.5	-0.002	0	0	-0.5	-0.002	0	0
217	-0.5	-0.001	0	0	-0.5	-0.001	0	0
218	-0.5	0	0	0	-0.5	0	0	0
219	-0.5	0.001	0	0	-0.5	0.001	0	0
220	-0.5	0.002	0	0	-0.5	0.002	0	0
221	-0.5	0.004	0	0	-0.5	0.004	0	0
222	-0.5	0.006	-2e-05	0	-0.5	0.006	-2e-05	0
223	-0.5	0.006	0	0	-0.5	0.006	0	0
224	-0.5	0.007	-2e-05	0	-0.5	0.007	-2e-05	0
225	-0.5	0.011	-2e-05	0	-0.5	0.011	-2e-05	0
226	-0.5	0.016	-4e-05	0	-0.5	0.016	-4e-05	0
227	-0.5	0.018	-2e-05	0	-0.5	0.018	-2e-05	0
228	-0.5	0.019	-2e-05	0	-0.5	0.019	-2e-05	0
229	-0.5	0.021	-2e-05	0	-0.5	0.021	-2e-05	0
230	-0.5	0.023	-2e-05	0	-0.5	0.023	-2e-05	0
231	0	-0.01	2e-05	0	0	-0.01	2e-05	0
232	0	-0.005	0	0	0	-0.005	0	0
233	0	-0.003	0	0	0	-0.003	0	0
234	0	-0.001	0	0	0	-0.001	0	0
235	0	-0.001	2e-05	0	0	-0.001	2e-05	0
236	0	0	0	0	0	0	0	0
237	0	0.002	0	0	0	0.002	0	0
238	0	0.004	0	0	0	0.004	0	0
239	0	0.005	0	0	0	0.005	0	0
240	0	0.01	0	0	0	0.01	0	0
241	0	0.011	-2e-05	0	0	0.011	-2e-05	0
242	0	0.018	-2e-05	0	0	0.018	-2e-05	0
243	0	0.027	-4e-05	0	0	0.027	-4e-05	0
244	0.5	-0.023	4e-05	0	0.5	-0.023	4e-05	0
245	0.5	-0.014	2e-05	0	0.5	-0.014	2e-05	0
246	0.5	-0.011	2e-05	0	0.5	-0.011	2e-05	0
247	0.5	-0.01	2e-05	0	0.5	-0.01	2e-05	0
248	0.5	-0.007	2e-05	0	0.5	-0.007	2e-05	0
249	0.5	-0.004	0	0	0.5	-0.004	0	0
250	0.5	-0.004	2e-05	0	0.5	-0.004	2e-05	0
251	0.5	-0.003	2e-05	0	0.5	-0.003	2e-05	0
252	0.5	-0.002	0	0	0.5	-0.002	0	0
253	0.5	-0.001	0	0	0.5	-0.001	0	0
254	0.5	0	0	0	0.5	0	0	0
255	0.5	0.002	0	0	0.5	0.002	0	0
256	0.5	0.004	0	0	0.5	0.004	0	0
257	0.5	0.009	-2e-05	0	0.5	0.009	-2e-05	0
258	1	-0.017	2e-05	0	1	-0.017	2e-05	0
259	1	-0.012	2e-05	0	1	-0.012	2e-05	0
260	1	-0.011	2e-05	0	1	-0.011	2e-05	0
261	1	-0.01	2e-05	0	1	-0.01	2e-05	0
262	1	-0.009	2e-05	0	1	-0.009	2e-05	0
263	1	-0.008	0	0	1	-0.008	0	0
264	1	-0.008	2e-05	0	1	-0.008	2e-05	0
265	1	-0.007	0	0	1	-0.007	0	0
266	1	-0.005	0	0	1	-0.005	0	0
267	1	-0.004	0	0	1	-0.004	0	0
268	1	-0.003	0	0	1	-0.003	0	0
269	1	-0.002	0	0	1	-0.002	0	0
270	1	-0.001	0	0	1	-0.001	0	0
271	1	0	0	0	1	0	0	0
272	1	0.001	-2e-05	0	1	0.001	-2e-05	0
273	1	0.002	0	0	1	0.002	0	0
274	1	0.005	-2e-05	0	1	0.005	-2e-05	0
275	1	0.006	-2e-05	0	1	0.006	-2e-05	0
276	1	0.009	-2e-05	0	1	0.009	-2e-05	0
277	1.5	-0.039	6e-05	0	1.5	-0.039	6e-05	0
278	1.5	-0.022	2e-05	0	1.5	-0.022	2e-05	0
279	1.5	-0.019	2e-05	0	1.5	-0.019	2e-05	0
280	1.5	-0.018	4e-05	0	1.5	-0.018	4e-05	0
281	1.5	-0.013	2e-05	0	1.5	-0.013	2e-05	0
282	1.5	-0.012	0	0	1.5	-0.012	0	0
283	1.5	-0.012	2e-05	0	1.5	-0.012	2e-05	0
284	1.5	-0.01	0	0	1.5	-0.01	0	0
285	1.5	-0.009	0	0	1.5	-0.009	0	0
286	1.5	-0.008	0	0	1.5	-0.008	0	0
287	1.5	-0.006	0	0	1.5	-0.006	0	0
288	1.5	-0.005	0	0	1.5	-0.005	0	0
289	1.5	-0.004	0	0	1.5	-0.004	0	0
290	1.5	0	0	0	1.5	0	0	0
291	1.5	0.001	0	0	1.5	0.001	0	0
292	1.5	0.003	0	0	1.5	0.003	0	0
293	1.5	0.004	-2e-05	0	1.5	0.004	-2e-05	0
294	1.5	0.01	-2e-05	0	1.5	0.01	-2e-05	0
295	2	-0.026	4e-05	0	2	-0.026	4e-05	0
296	2	-0.024	2e-05	0	2	-0.024	2e-05	0
297	2	-0.023	2e-05	0	2	-0.023	2e-05	0
298	2	-0.022	4e-05	0	2	-0.022	4e-05	0
299	2	-0.018	2e-05	0	2	-0.018	2e-05	0
300	2	-0.017	2e-05	0	2	-0.017	2e-05	0
301	2	-0.015	2e-05	0	2	-0.015	2e-05	0
302	2	-0.012	2e-05	0	2	-0.012	2e-05	0
303	2	-0.011	2e-05	0	2	-0.011	2e-05	0
304	2	-0.01	0	0	2	-0.01	0	0
305	2	-0.009	0	0	2	-0.009	0	0
306	2	-0.008	0	0	2	-0.008	0	0
307	2	-0.007	0	0	2	-0.007	0	0
308	2	-0.006	0	0	2	-0.006	0	0
309	2	-0.004	0	0	2	-0.004	0	0
310	2	-0.003	0	0	2	-0.003	0	0
311	2	-0.002	0	0	2	-0.002	0	0
312	2	0.005	0	0	2	0.005	0	0
313	2	0.011	-2e-05	0	2	0.011	-2e-05	0
314	2.5	-0.023	2e-05	0	2.5	-0.023	2e-05	0
315	2.5	-0.022	2e-05	0	2.5	-0.022	2e-05	0
316	2.5	-0.021	2e-05	0	2.5	-0.021	2e-05	0
317	2.5	-0.017	2e-05	0	2.5	-0.017	2e-05	0
318	2.5	-0.014	2e-05	0	2.5	-0.014	2e-05	0
319	2.5	-0.008	0	0	2.5	-0.008	0	0
320	2.5	-0.005	0	0	2.5	-0.005	0	0
321	2.5	-0.002	-2e-05	0	2.5	-0.002	-2e-05	0
322	2.5	0.001	0	0	2.5	0.001	0	0
323	2.5	0.004	-2e-05	0	2.5	0.004	-2e-05	0
324	2.5	0.012	-2e-05	0	2.5	0.012	-2e-05	0
325	3	-0.039	6e-05	0	3	-0.039	6e-05	0
326	3	-0.032	4e-05	0	3	-0.032	4e-05	0
327	3	-0.027	4e-05	0	3	-0.027	4e-05	0
328	3	-0.026	4e-05	0	3	-0.026	4e-05	0
329	3	-0.025	4e-05	0	3	-0.025	4e-05	0
330	3	-0.024	2e-05	0	3	-0.024	2e-05	0
331	3	-0.023	4e-05	0	3	-0.023	4e-05	0
332	3	-0.019	2e-05	0	3	-0.019	2e-05	0
333	3	-0.018	2e-05	0	3	-0.018	2e-05	0
334	3	-0.015	0	0	3	-0.015	0	0
335	3	-0.015	2e-05	0	3	-0.015	2e-05	0
336	3	-0.014	0	0	3	-0.014	0	0
337	3	-0.013	2e-05	0	3	-0.013	2e-05	0
338	3	-0.004	0	0	3	-0.004	0	0
339	3	-0.002	0	0	3	-0.002	0	0
340	3	0	0	0	3	0	0	0
341	3.5	-0.027	2e-05	0	3.5	-0.027	2e-05	0
342	3.5	-0.027	4e-05	0	3.5	-0.027	4e-05	0
343	3.5	-0.024	2e-05	0	3.5	-0.024	2e-05	0
344	3.5	-0.021	2e-05	0	3.5	-0.021	2e-05	0
345	3.5	-0.02	2e-05	0	3.5	-0.02	2e-05	0
346	3.5	-0.019	2e-05	0	3.5	-0.019	2e-05	0
347	3.5	-0.017	2e-05	0	3.5	-0.017	2e-05	0
348	3.5	-0.016	0	0	3.5	-0.016	0	0
349	3.5	-0.016	2e-05	0	3.5	-0.016	2e-05	0
350	3.5	-0.015	2e-05	0	3.5	-0.015	2e-05	0
351	3.5	-0.013	0	0	3.5	-0.013	0	0
352	3.5	-0.013	2e-05	0	3.5	-0.013	2e-05	0
353	3.5	-0.008	0	0	3.5	-0.008	0	0
354	3.5	-0.006	0	0	3.5	-0.006	0	0
355	4	-0.048	6e-05	0	4	-0.048	6e-05	0
356	4	-0.044	6e-05	0	4	-0.044	6e-05	0
357	4	-0.032	2e-05	0	4	-0.032	2e-05	0
358	4	-0.032	4e-05	0	4	-0.032	4e-05	0
359	4	-0.03	2e-05	0	4	-0.03	2e-05	0
360	4	-0.027	4e-05	0	4	-0.027	4e-05	0
361	4	-0.024	2e-05	0	4	-0.024	2e-05	0
362	4	-0.023	2e-05	0	4	-0.023	2e-05	0
363	4	-0.02	2e-05	0	4	-0.02	2e-05	0
364	4	-0.019	2e-05	0	4	-0.019	2e-05	0
365	4	-0.018	2e-05	0	4	-0.018	2e-05	0
366	4	-0.013	0	0	4	-0.013	0	0
367	4	-0.01	0	0	4	-0.01	0	0
368	4	-0.009	0	0	4	-0.009	0	0
369	4	-0.004	0	0	4	-0.004	0	0
370	4	0.001	-2e-05	0	4	0.001	-2e-05	0
371	4.5	-0.044	6e-05	0	4.5	-0.044	6e-05	0
372	4.5	-0.032	4e-05	0	4.5	-0.032	4e-05	0
373	4.5	-0.031	4e-05	0	4.5	-0.031	4e-05	0
374	4.5	-0.029	2e-05	0	4.5	-0.029	2e-05	0
375	4.5	-0.023	2e-05	0	4.5	-0.023	2e-05	0
376	4.5	-0.022	2e-05	0	4.5	-0.022	2e-05	0
377	5	-0.046	6e-05	0	5	-0.046	6e-05	0
378	5	-0.04	4e-05	0	5	-0.04	4e-05	0
379	5	-0.03	4e-05	0	5	-0.03	4e-05	0
380	5	-0.029	4e-05	0	5	-0.029	4e-05	0
381	5	-0.027	2e-05	0	5	-0.027	2e-05	0
382	5	-0.025	2e-05	0	5	-0.025	2e-05	0
383	5	-0.023	2e-05	0	5	-0.023	2e-05	0
384	5	-0.021	2e-05	0	5	-0.021	2e-05	0
385	5	-0.004	0	0	5	-0.004	0	0
386	5.5	-0.042	6e-05	0	5.5	-0.042	6e-05	0
387	5.5	-0.022	2e-05	0	5.5	-0.022	2e-05	0
388	5.5	-0.02	2e-05	0	5.5	-0.02	2e-05	0
389	5.5	-0.018	0	0	5.5	-0.018	0	0
390	5.5	-0.012	2e-05	0	5.5	-0.012	2e-05	0
391	6	-0.031	2e-05	0	6	-0.031	2e-05	0
392	6	-0.03	4e-05	0	6	-0.03	4e-05	0
393	6	-0.025	2e-05	0	6	-0.025	2e-05	0
394	6.5	-0.042	4e-05	0	6.5	-0.042	4e-05	0
395	6.5	-0.04	6e-05	0	6.5	-0.04	6e-05	0
396	6.5	-0.036	4e-05	0	6.5	-0.036	4e-05	0
397	6.5	-0.028	2e-05	0	6.5	-0.028	2e-05	0
398	6.5	-0.027	2e-05	0	6.5	-0.027	2e-05	0
399	6.5	-0.026	2e-05	0	6.5	-0.026	2e-05	0
400	6.5	-0.024	2e-05	0	6.5	-0.024	2e-05	0
401	6.5	-0.023	2e-05	0	6.5	-0.023	2e-05	0
402	6.5	-0.02	2e-05	0	6.5	-0.02	2e-05	0
403	6.5	-0.018	0	0	6.5	-0.018	0	0
404	7	-0.046	4e-05	0	7	-0.046	4e-05	0
405	7	-0.043	4e-05	0	7	-0.043	4e-05	0
406	7	-0.026	2e-05	0	7	-0.026	2e-05	0
407	7	-0.008	0	0	7	-0.008	0	0
408	7.5	-0.045	6e-05	0	7.5	-0.045	6e-05	0
409	7.5	-0.043	4e-05	0	7.5	-0.043	4e-05	0
410	7.5	-0.039	4e-05	0	7.5	-0.039	4e-05	0
411	7.5	-0.036	4e-05	0	7.5	-0.036	4e-05	0
412	7.5	-0.029	4e-05	0	7.5	-0.029	4e-05	0
413	7.5	-0.024	2e-05	0	7.5	-0.024	2e-05	0
414	7.5	-0.01	0	0	7.5	-0.01	0	0
415	8	-0.062	6e-05	0	8	-0.062	6e-05	0
416	8	-0.044	6e-05	0	8	-0.044	6e-05	0
417	8	-0.032	2e-05	0	8	-0.032	2e-05	0
418	8.5	-0.058	6e-05	0	8.5	-0.058	6e-05	0
419	8.5	-0.04	4e-05	0	8.5	-0.04	4e-05	0
420	9	-0.052	6e-05	0	9	-0.052	6e-05	0
421	9	-0.048	6e-05	0	9	-0.048	6e-05	0
422	9	-0.031	2e-05	0	9	-0.031	2e-05	0
423	9	-0.019	0	0	9	-0.019	0	0
424	9.5	-0.057	6e-05	0	9.5	-0.057	6e-05	0
425	9.5	-0.034	2e-05	0	9.5	-0.034	2e-05	0
426	10.5	-0.054	4e-05	0	10.5	-0.054	4e-05	0
427	10.5	-0.045	4e-05	0	10.5	-0.045	4e-05	0
428	10.5	-0.038	4e-05	0	10.5	-0.038	4e-05	0
429	11	-0.05	4e-05	0	11	-0.05	4e-05	0
430	11	-0.043	4e-05	0	11	-0.043	4e-05	0
431	11.5	-0.069	6e-05	0	11.5	-0.069	6e-05	0
432	-12.5	0.049	-4e-05	0	-12.5	0.049	-4e-05	0
433	-12	0.05	-4e-05	0	-12	0.05	-4e-05	0
434	-11.5	0.051	-4e-05	0	-11.5	0.051	-4e-05	0
435	-11	0.035	-2e-05	0	-11	0.035	-2e-05	0
436	-11	0.04	-2e-05	0	-11	0.04	-2e-05	0
437	-11	0.042	-4e-05	0	-11	0.042	-4e-05	0
438	-11	0.045	-4e-05	0	-11	0.045	-4e-05	0
439	-11	0.064	-8e-05	0	-11	0.064	-8e-05	0
440	-11	0.073	-8e-05	0	-11	0.073	-8e-05	0
441	-10.5	0.047	-4e-05	0	-10.5	0.047	-4e-05	0
442	-10	0.028	-2e-05	0	-10	0.028	-2e-05	0
443	-10	0.049	-4e-05	0	-10	0.049	-4e-05	0
444	-9.5	0.027	-2e-05	0	-9.5	0.027	-2e-05	0
445	-9.5	0.028	0	0	-9.5	0.028	0	0
446	-9.5	0.044	-4e-05	0	-9.5	0.044	-4e-05	0
447	-9.5	0.051	-4e-05	0	-9.5	0.051	-4e-05	0
448	-9	0.034	-2e-05	0	-9	0.034	-2e-05	0
449	-9	0.044	-4e-05	0	-9	0.044	-4e-05	0
450	-9	0.051	-6e-05	0	-9	0.051	-6e-05	0
451	-9	0.054	-6e-05	0	-9	0.054	-6e-05	0
452	-8.5	0.022	0	0	-8.5	0.022	0	0
453	-8.5	0.027	-2e-05	0	-8.5	0.027	-2e-05	0
454	-8.5	0.03	-2e-05	0	-8.5	0.03	-2e-05	0
455	-8.5	0.043	-4e-05	0	-8.5	0.043	-4e-05	0
456	-8	0.027	-2e-05	0	-8	0.027	-2e-05	0
457	-8	0.038	-4e-05	0	-8	0.038	-4e-05	0
458	-8	0.042	-4e-05	0	-8	0.042	-4e-05	0
459	-7.5	0.023	-2e-05	0	-7.5	0.023	-2e-05	0
460	-7.5	0.027	-2e-05	0	-7.5	0.027	-2e-05	0
461	-7.5	0.034	-4e-05	0	-7.5	0.034	-4e-05	0
462	-7.5	0.043	-4e-05	0	-7.5	0.043	-4e-05	0
463	-7	0.036	-4e-05	0	-7	0.036	-4e-05	0
464	-7	0.042	-4e-05	0	-7	0.042	-4e-05	0
465	-6.5	0.004	0	0	-6.5	0.004	0	0
466	-6.5	0.02	-2e-05	0	-6.5	0.02	-2e-05	0
467	-6.5	0.023	-2e-05	0	-6.5	0.023	-2e-05	0
468	-6.5	0.027	-2e-05	0	-6.5	0.027	-2e-05	0
469	-6.5	0.028	-2e-05	0	-6.5	0.028	-2e-05	0
470	-6.5	0.033	-4e-05	0	-6.5	0.033	-4e-05	0
471	-6.5	0.045	-4e-05	0	-6.5	0.045	-4e-05	0
472	-6.5	0.053	-6e-05	0	-6.5	0.053	-6e-05	0
473	-6	0.019	-2e-05	0	-6	0.019	-2e-05	0
474	-6	0.025	-2e-05	0	-6	0.025	-2e-05	0
475	-6	0.027	-4e-05	0	-6	0.027	-4e-05	0
476	-6	0.027	-2e-05	0	-6	0.027	-2e-05	0
477	-6	0.031	-4e-05	0	-6	0.031	-4e-05	0
478	-6	0.033	-4e-05	0	-6	0.033	-4e-05	0
479	-6	0.035	-4e-05	0	-6	0.035	-4e-05	0
480	-6	0.035	-2e-05	0	-6	0.035	-2e-05	0
481	-6	0.037	-4e-05	0	-6	0.037	-4e-05	0
482	-6	0.041	-4e-05	0	-6	0.041	-4e-05	0
483	-6	0.045	-4e-05	0	-6	0.045	-4e-05	0
484	-6	0.046	-4e-05	0	-6	0.046	-4e-05	0
485	-5.5	0.012	0	0	-5.5	0.012	0	0
486	-5.5	0.014	0	0	-5.5	0.014	0	0
487	-5.5	0.021	-2e-05	0	-5.5	0.021	-2e-05	0
488	-5.5	0.022	-2e-05	0	-5.5	0.022	-2e-05	0
489	-5.5	0.023	-2e-05	0	-5.5	0.023	-2e-05	0
490	-5.5	0.025	-2e-05	0	-5.5	0.025	-2e-05	0
491	-5.5	0.027	-2e-05	0	-5.5	0.027	-2e-05	0
492	-5.5	0.035	-4e-05	0	-5.5	0.035	-4e-05	0
493	-5.5	0.04	-4e-05	0	-5.5	0.04	-4e-05	0
494	-5	0.007	0	0	-5	0.007	0	0
495	-5	0.01	0	0	-5	0.01	0	0
496	-5	0.019	-2e-05	0	-5	0.019	-2e-05	0
497	-5	0.022	-2e-05	0	-5	0.022	-2e-05	0
498	-5	0.023	-2e-05	0	-5	0.023	-2e-05	0
499	-5	0.029	-4e-05	0	-5	0.029	-4e-05	0
500	-5	0.031	-2e-05	0	-5	0.031	-2e-05	0
501	-5	0.032	-4e-05	0	-5	0.032	-4e-05	0
502	-5	0.037	-4e-05	0	-5	0.037	-4e-05	0
503	-5	0.046	-4e-05	0	-5	0.046	-4e-05	0
504	-4.5	0.003	0	0	-4.5	0.003	0	0
505	-4.5	0.005	0	0	-4.5	0.005	0	0
506	-4.5	0.007	0	0	-4.5	0.007	0	0
507	-4.5	0.009	0	0	-4.5	0.009	0	0
508	-4.5	0.024	-2e-05	0	-4.5	0.024	-2e-05	0
509	-4.5	0.027	-2e-05	0	-4.5	0.027	-2e-05	0
510	-4.5	0.03	-4e-05	0	-4.5	0.03	-4e-05	0
511	-4.5	0.033	-4e-05	0	-4.5	0.033	-4e-05	0
512	-4	0.008	0	0	-4	0.008	0	0
513	-4	0.013	-2e-05	0	-4	0.013	-2e-05	0
514	-4	0.013	0	0	-4	0.013	0	0
515	-4	0.014	0	0	-4	0.014	0	0
516	-4	0.024	-2e-05	0	-4	0.024	-2e-05	0
517	-4	0.025	-4e-05	0	-4	0.025	-4e-05	0
518	-4	0.03	-2e-05	0	-4	0.03	-2e-05	0
519	-4	0.031	-2e-05	0	-4	0.031	-2e-05	0
520	-4	0.036	-4e-05	0	-4	0.036	-4e-05	0
521	-4	0.044	-6e-05	0	-4	0.044	-6e-05	0
522	-3.5	-0.005	2e-05	0	-3.5	-0.005	2e-05	0
523	-3.5	0.006	0	0	-3.5	0.006	0	0
524	-3.5	0.007	0	0	-3.5	0.007	0	0
525	-3.5	0.009	0	0	-3.5	0.009	0	0
526	-3.5	0.019	-2e-05	0	-3.5	0.019	-2e-05	0
527	-3.5	0.022	-2e-05	0	-3.5	0.022	-2e-05	0
528	-3.5	0.023	-4e-05	0	-3.5	0.023	-4e-05	0
529	-3.5	0.023	-2e-05	0	-3.5	0.023	-2e-05	0
530	-3.5	0.028	-2e-05	0	-3.5	0.028	-2e-05	0
531	-3.5	0.041	-4e-05	0	-3.5	0.041	-4e-05	0
532	-3	-0.004	2e-05	0	-3	-0.004	2e-05	0
533	-3	0.002	0	0	-3	0.002	0	0
534	-3	0.003	2e-05	0	-3	0.003	2e-05	0
535	-3	0.004	0	0	-3	0.004	0	0
536	-3	0.007	-2e-05	0	-3	0.007	-2e-05	0
537	-3	0.01	0	0	-3	0.01	0	0
538	-3	0.018	-2e-05	0	-3	0.018	-2e-05	0
539	-3	0.019	-2e-05	0	-3	0.019	-2e-05	0
540	-3	0.02	-2e-05	0	-3	0.02	-2e-05	0
541	-3	0.021	-2e-05	0	-3	0.021	-2e-05	0
542	-3	0.025	-2e-05	0	-3	0.025	-2e-05	0
543	-3	0.026	-4e-05	0	-3	0.026	-4e-05	0
544	-3	0.029	-4e-05	0	-3	0.029	-4e-05	0
545	-3	0.036	-4e-05	0	-3	0.036	-4e-05	0
546	-2.5	0.001	0	0	-2.5	0.001	0	0
547	-2.5	0.002	2e-05	0	-2.5	0.002	2e-05	0
548	-2.5	0.004	0	0	-2.5	0.004	0	0
549	-2.5	0.006	0	0	-2.5	0.006	0	0
550	-2.5	0.01	-2e-05	0	-2.5	0.01	-2e-05	0
551	-2.5	0.011	-2e-05	0	-2.5	0.011	-2e-05	0
552	-2.5	0.013	-2e-05	0	-2.5	0.013	-2e-05	0
553	-2.5	0.019	-2e-05	0	-2.5	0.019	-2e-05	0
554	-2.5	0.02	-2e-05	0	-2.5	0.02	-2e-05	0
555	-2.5	0.021	-2e-05	0	-2.5	0.021	-2e-05	0
556	-2.5	0.023	-2e-05	0	-2.5	0.023	-2e-05	0
557	-2.5	0.027	-2e-05	0	-2.5	0.027	-2e-05	0
558	-2	-0.02	4e-05	0	-2	-0.02	4e-05	0
559	-2	-0.008	2e-05	0	-2	-0.008	2e-05	0
560	-2	-0.006	2e-05	0	-2	-0.006	2e-05	0
561	-2	-0.002	0	0	-2	-0.002	0	0
562	-2	-0.001	0	0	-2	-0.001	0	0
563	-2	0.001	0	0	-2	0.001	0	0
564	-2	0.003	0	0	-2	0.003	0	0
565	-2	0.004	0	0	-2	0.004	0	0
566	-2	0.005	0	0	-2	0.005	0	0
567	-2	0.006	0	0	-2	0.006	0	0
568	-2	0.007	0	0	-2	0.007	0	0
569	-2	0.008	0	0	-2	0.008	0	0
570	-2	0.009	-2e-05	0	-2	0.009	-2e-05	0
571	-2	0.012	0	0	-2	0.012	0	0
572	-2	0.014	-2e-05	0	-2	0.014	-2e-05	0
573	-2	0.015	-2e-05	0	-2	0.015	-2e-05	0
574	-2	0.016	-2e-05	0	-2	0.016	-2e-05	0
575	-2	0.018	-2e-05	0	-2	0.018	-2e-05	0
576	-2	0.019	-2e-05	0	-2	0.019	-2e-05	0
577	-2	0.02	-4e-05	0	-2	0.02	-4e-05	0
578	-2	0.021	-2e-05	0	-2	0.021	-2e-05	0
579	-2	0.023	-2e-05	0	-2	0.023	-2e-05	0
580	-2	0.024	-2e-05	0	-2	0.024	-2e-05	0
581	-1.5	-0.018	4e-05	0	-1.5	-0.018	4e-05	0
582	-1.5	-0.013	2e-05	0	-1.5	-0.013	2e-05	0
583	-1.5	-0.012	2e-05	0	-1.5	-0.012	2e-05	0
584	-1.5	0.001	2e-05	0	-1.5	0.001	2e-05	0
585	-1.5	0.002	0	0	-1.5	0.002	0	0
586	-1.5	0.005	0	0	-1.5	0.005	0	0
587	-1.5	0.012	-2e-05	0	-1.5	0.012	-2e-05	0
588	-1.5	0.014	-2e-05	0	-1.5	0.014	-2e-05	0
589	-1.5	0.016	-2e-05	0	-1.5	0.016	-2e-05	0
590	-1.5	0.017	-2e-05	0	-1.5	0.017	-2e-05	0
591	-1.5	0.018	-2e-05	0	-1.5	0.018	-2e-05	0
592	-1.5	0.02	-2e-05	0	-1.5	0.02	-2e-05	0
593	-1.5	0.025	-4e-05	0	-1.5	0.025	-4e-05	0
594	-1	-0.026	4e-05	0	-1	-0.026	4e-05	0
595	-1	-0.015	2e-05	0	-1	-0.015	2e-05	0
596	-1	-0.012	2e-05	0	-1	-0.012	2e-05	0
597	-1	-0.008	0	0	-1	-0.008	0	0
598	-1	-0.006	2e-05	0	-1	-0.006	2e-05	0
599	-1	-0.005	0	0	-1	-0.005	0	0
600	-1	-0.002	2e-05	0	-1	-0.002	2e-05	0
601	-1	-0.001	0	0	-1	-0.001	0	0
602	-1	-0.001	2e-05	0	-1	-0.001	2e-05	0
603	-1	0.001	0	0	-1	0.001	0	0
604	-1	0.002	0	0	-1	0.002	0	0
605	-1	0.006	0	0	-1	0.006	0	0
606	-1	0.007	0	0	-1	0.007	0	0
607	-1	0.01	-2e-05	0	-1	0.01	-2e-05	0
608	-1	0.011	-2e-05	0	-1	0.011	-2e-05	0
609	-1	0.012	-2e-05	0	-1	0.012	-2e-05	0
610	-1	0.019	-4e-05	0	-1	0.019	-4e-05	0
611	-0.5	-0.014	2e-05	0	-0.5	-0.014	2e-05	0
612	-0.5	-0.006	2e-05	0	-0.5	-0.006	2e-05	0
613	-0.5	-0.004	0	0	-0.5	-0.004	0	0
614	-0.5	-0.002	0	0	-0.5	-0.002	0	0
615	-0.5	-0.001	0	0	-0.5	-0.001	0	0
616	-0.5	0	0	0	-0.5	0	0	0
617	-0.5	0.001	0	0	-0.5	0.001	0	0
618	-0.5	0.002	0	0	-0.5	0.002	0	0
619	-0.5	0.003	-2e-05	0	-0.5	0.003	-2e-05	0
620	-0.5	0.003	0	0	-0.5	0.003	0	0
621	-0.5	0.004	0	0	-0.5	0.004	0	0
622	-0.5	0.005	0	0	-0.5	0.005	0	0
623	-0.5	0.009	-2e-05	0	-0.5	0.009	-2e-05	0
624	-0.5	0.009	0	0	-0.5	0.009	0	0
625	-0.5	0.01	-2e-05	0	-0.5	0.01	-2e-05	0
626	-0.5	0.013	0	0	-0.5	0.013	0	0
627	-0.5	0.021	-2e-05	0	-0.5	0.021	-2e-05	0
628	0	-0.018	4e-05	0	0	-0.018	4e-05	0
629	0	-0.014	2e-05	0	0	-0.014	2e-05	0
630	0	-0.013	0	0	0	-0.013	0	0
631	0	-0.012	2e-05	0	0	-0.012	2e-05	0
632	0	-0.008	2e-05	0	0	-0.008	2e-05	0
633	0	-0.007	2e-05	0	0	-0.007	2e-05	0
634	0	-0.005	0	0	0	-0.005	0	0
635	0	-0.005	2e-05	0	0	-0.005	2e-05	0
636	0	-0.004	0	0	0	-0.004	0	0
637	0	-0.003	0	0	0	-0.003	0	0
638	0	-0.001	0	0	0	-0.001	0	0
639	0	0	0	0	0	0	0	0
640	0	0.001	0	0	0	0.001	0	0
641	0	0.002	0	0	0	0.002	0	0
642	0	0.005	0	0	0	0.005	0	0
643	0	0.006	-2e-05	0	0	0.006	-2e-05	0
644	0	0.006	0	0	0	0.006	0	0
645	0	0.007	-2e-05	0	0	0.007	-2e-05	0
646	0	0.009	-2e-05	0	0	0.009	-2e-05	0
647	0	0.01	-2e-05	0	0	0.01	-2e-05	0
648	0	0.011	-2e-05	0	0	0.011	-2e-05	0
649	0	0.014	-2e-05	0	0	0.014	-2e-05	0
650	0	0.015	-4e-05	0	0	0.015	-4e-05	0
651	0	0.015	-2e-05	0	0	0.015	-2e-05	0
652	0	0.016	-4e-05	0	0	0.016	-4e-05	0
653	0	0.016	-2e-05	0	0	0.016	-2e-05	0
654	0	0.019	-4e-05	0	0	0.019	-4e-05	0
655	0.5	-0.019	2e-05	0	0.5	-0.019	2e-05	0
656	0.5	-0.017	2e-05	0	0.5	-0.017	2e-05	0
657	0.5	-0.016	2e-05	0	0.5	-0.016	2e-05	0
658	0.5	-0.014	2e-05	0	0.5	-0.014	2e-05	0
659	0.5	-0.011	2e-05	0	0.5	-0.011	2e-05	0
660	0.5	-0.01	2e-05	0	0.5	-0.01	2e-05	0
661	0.5	-0.009	2e-05	0	0.5	-0.009	2e-05	0
662	0.5	-0.006	0	0	0.5	-0.006	0	0
663	0.5	-0.005	0	0	0.5	-0.005	0	0
664	0.5	-0.004	0	0	0.5	-0.004	0	0
665	0.5	-0.003	0	0	0.5	-0.003	0	0
666	0.5	-0.001	0	0	0.5	-0.001	0	0
667	0.5	0	-2e-05	0	0.5	0	-2e-05	0
668	0.5	0	0	0	0.5	0	0	0
669	0.5	0.004	0	0	0.5	0.004	0	0
670	0.5	0.006	0	0	0.5	0.006	0	0
671	0.5	0.009	-2e-05	0	0.5	0.009	-2e-05	0
672	0.5	0.012	-2e-05	0	0.5	0.012	-2e-05	0
673	1	-0.028	4e-05	0	1	-0.028	4e-05	0
674	1	-0.021	2e-05	0	1	-0.021	2e-05	0
675	1	-0.018	2e-05	0	1	-0.018	2e-05	0
676	1	-0.013	2e-05	0	1	-0.013	2e-05	0
677	1	-0.012	2e-05	0	1	-0.012	2e-05	0
678	1	-0.011	2e-05	0	1	-0.011	2e-05	0
679	1	-0.01	2e-05	0	1	-0.01	2e-05	0
680	1	-0.008	0	0	1	-0.008	0	0
681	1	-0.006	0	0	1	-0.006	0	0
682	1	-0.005	0	0	1	-0.005	0	0
683	1	-0.004	0	0	1	-0.004	0	0
684	1	-0.003	0	0	1	-0.003	0	0
685	1	-0.001	0	0	1	-0.001	0	0
686	1	0	0	0	1	0	0	0
687	1	0.002	0	0	1	0.002	0	0
688	1	0.003	-2e-05	0	1	0.003	-2e-05	0
689	1	0.003	0	0	1	0.003	0	0
690	1	0.005	-2e-05	0	1	0.005	-2e-05	0
691	1	0.008	-2e-05	0	1	0.008	-2e-05	0
692	1	0.015	-2e-05	0	1	0.015	-2e-05	0
693	1.5	-0.023	4e-05	0	1.5	-0.023	4e-05	0
694	1.5	-0.022	2e-05	0	1.5	-0.022	2e-05	0
695	1.5	-0.016	2e-05	0	1.5	-0.016	2e-05	0
696	1.5	-0.011	2e-05	0	1.5	-0.011	2e-05	0
697	1.5	-0.008	0	0	1.5	-0.008	0	0
698	1.5	-0.006	0	0	1.5	-0.006	0	0
699	1.5	-0.004	0	0	1.5	-0.004	0	0
700	1.5	-0.002	0	0	1.5	-0.002	0	0
701	1.5	-0.001	0	0	1.5	-0.001	0	0
702	1.5	0	0	0	1.5	0	0	0
703	1.5	0.001	0	0	1.5	0.001	0	0
704	1.5	0.009	-2e-05	0	1.5	0.009	-2e-05	0
705	2	-0.029	4e-05	0	2	-0.029	4e-05	0
706	2	-0.028	4e-05	0	2	-0.028	4e-05	0
707	2	-0.027	2e-05	0	2	-0.027	2e-05	0
708	2	-0.026	4e-05	0	2	-0.026	4e-05	0
709	2	-0.022	2e-05	0	2	-0.022	2e-05	0
710	2	-0.022	4e-05	0	2	-0.022	4e-05	0
711	2	-0.016	2e-05	0	2	-0.016	2e-05	0
712	2	-0.014	2e-05	0	2	-0.014	2e-05	0
713	2	-0.003	0	0	2	-0.003	0	0
714	2	-0.002	0	0	2	-0.002	0	0
715	2	0.005	-2e-05	0	2	0.005	-2e-05	0
716	2	0.005	0	0	2	0.005	0	0
717	2	0.009	-2e-05	0	2	0.009	-2e-05	0
718	2	0.013	-2e-05	0	2	0.013	-2e-05	0
719	2.5	-0.03	2e-05	0	2.5	-0.03	2e-05	0
720	2.5	-0.028	2e-05	0	2.5	-0.028	2e-05	0
721	2.5	-0.028	4e-05	0	2.5	-0.028	4e-05	0
722	2.5	-0.026	4e-05	0	2.5	-0.026	4e-05	0
723	2.5	-0.025	4e-05	0	2.5	-0.025	4e-05	0
724	2.5	-0.023	2e-05	0	2.5	-0.023	2e-05	0
725	2.5	-0.022	2e-05	0	2.5	-0.022	2e-05	0
726	2.5	-0.017	2e-05	0	2.5	-0.017	2e-05	0
727	2.5	-0.016	2e-05	0	2.5	-0.016	2e-05	0
728	2.5	-0.015	2e-05	0	2.5	-0.015	2e-05	0
729	2.5	-0.014	2e-05	0	2.5	-0.014	2e-05	0
730	2.5	-0.011	2e-05	0	2.5	-0.011	2e-05	0
731	2.5	-0.007	0	0	2.5	-0.007	0	0
732	2.5	-0.005	0	0	2.5	-0.005	0	0
733	3	-0.028	2e-05	0	3	-0.028	2e-05	0
734	3	-0.027	2e-05	0	3	-0.027	2e-05	0
735	3	-0.024	2e-05	0	3	-0.024	2e-05	0
736	3	-0.022	2e-05	0	3	-0.022	2e-05	0
737	3	-0.021	4e-05	0	3	-0.021	4e-05	0
738	3	-0.019	2e-05	0	3	-0.019	2e-05	0
739	3	-0.019	4e-05	0	3	-0.019	4e-05	0
740	3	-0.016	2e-05	0	3	-0.016	2e-05	0
741	3	-0.015	0	0	3	-0.015	0	0
742	3	-0.014	2e-05	0	3	-0.014	2e-05	0
743	3	-0.013	0	0	3	-0.013	0	0
744	3	-0.01	2e-05	0	3	-0.01	2e-05	0
745	3	-0.009	0	0	3	-0.009	0	0
746	3	-0.008	0	0	3	-0.008	0	0
747	3	-0.006	0	0	3	-0.006	0	0
748	3	-0.004	0	0	3	-0.004	0	0
749	3	-0.003	0	0	3	-0.003	0	0
750	3	0.001	0	0	3	0.001	0	0
751	3.5	-0.031	4e-05	0	3.5	-0.031	4e-05	0
752	3.5	-0.026	2e-05	0	3.5	-0.026	2e-05	0
753	3.5	-0.025	2e-05	0	3.5	-0.025	2e-05	0
754	3.5	-0.023	2e-05	0	3.5	-0.023	2e-05	0
755	3.5	-0.022	2e-05	0	3.5	-0.022	2e-05	0
756	3.5	-0.021	2e-05	0	3.5	-0.021	2e-05	0
757	3.5	-0.016	2e-05	0	3.5	-0.016	2e-05	0
758	3.5	-0.011	2e-05	0	3.5	-0.011	2e-05	0
759	3.5	-0.007	0	0	3.5	-0.007	0	0
760	3.5	-0.004	0	0	3.5	-0.004	0	0
761	3.5	-0.002	0	0	3.5	-0.002	0	0
762	3.5	0.001	-2e-05	0	3.5	0.001	-2e-05	0
763	3.5	0.002	0	0	3.5	0.002	0	0
764	4	-0.049	6e-05	0	4	-0.049	6e-05	0
765	4	-0.036	4e-05	0	4	-0.036	4e-05	0
766	4	-0.033	4e-05	0	4	-0.033	4e-05	0
767	4	-0.025	4e-05	0	4	-0.025	4e-05	0
768	4	-0.022	2e-05	0	4	-0.022	2e-05	0
769	4	-0.021	4e-05	0	4	-0.021	4e-05	0
770	4	-0.02	2e-05	0	4	-0.02	2e-05	0
771	4	-0.018	2e-05	0	4	-0.018	2e-05	0
772	4	-0.017	2e-05	0	4	-0.017	2e-05	0
773	4	-0.013	0	0	4	-0.013	0	0
774	4	-0.006	0	0	4	-0.006	0	0
775	4.5	-0.039	4e-05	0	4.5	-0.039	4e-05	0
776	4.5	-0.031	4e-05	0	4.5	-0.031	4e-05	0
777	4.5	-0.028	2e-05	0	4.5	-0.028	2e-05	0
778	4.5	-0.027	2e-05	0	4.5	-0.027	2e-05	0
779	4.5	-0.024	2e-05	0	4.5	-0.024	2e-05	0
780	4.5	-0.02	2e-05	0	4.5	-0.02	2e-05	0
781	4.5	-0.016	2e-05	0	4.5	-0.016	2e-05	0
782	4.5	-0.014	0	0	4.5	-0.014	0	0
783	4.5	-0.01	0	0	4.5	-0.01	0	0
784	4.5	-0.003	-2e-05	0	4.5	-0.003	-2e-05	0
785	4.5	0.002	-2e-05	0	4.5	0.002	-2e-05	0
786	5	-0.041	4e-05	0	5	-0.041	4e-05	0
787	5	-0.033	2e-05	0	5	-0.033	2e-05	0
788	5	-0.028	2e-05	0	5	-0.028	2e-05	0
789	5	-0.022	2e-05	0	5	-0.022	2e-05	0
790	5	-0.02	2e-05	0	5	-0.02	2e-05	0
791	5	-0.019	2e-05	0	5	-0.019	2e-05	0
792	5	-0.012	0	0	5	-0.012	0	0
793	5	-0.011	0	0	5	-0.011	0	0
794	5	-0.007	-2e-05	0	5	-0.007	-2e-05	0
795	5.5	-0.043	4e-05	0	5.5	-0.043	4e-05	0
796	5.5	-0.037	4e-05	0	5.5	-0.037	4e-05	0
797	5.5	-0.033	2e-05	0	5.5	-0.033	2e-05	0
798	5.5	-0.03	2e-05	0	5.5	-0.03	2e-05	0
799	5.5	-0.024	2e-05	0	5.5	-0.024	2e-05	0
800	5.5	-0.021	2e-05	0	5.5	-0.021	2e-05	0
801	5.5	-0.005	-2e-05	0	5.5	-0.005	-2e-05	0
802	6	-0.038	4e-05	0	6	-0.038	4e-05	0
803	6	-0.036	4e-05	0	6	-0.036	4e-05	0
804	6	-0.028	2e-05	0	6	-0.028	2e-05	0
805	6	-0.026	2e-05	0	6	-0.026	2e-05	0
806	6	-0.019	0	0	6	-0.019	0	0
807	6	-0.017	0	0	6	-0.017	0	0
808	6	-0.01	0	0	6	-0.01	0	0
809	6	-0.006	0	0	6	-0.006	0	0
810	6.5	-0.051	6e-05	0	6.5	-0.051	6e-05	0
811	6.5	-0.04	4e-05	0	6.5	-0.04	4e-05	0
812	6.5	-0.031	2e-05	0	6.5	-0.031	2e-05	0
813	6.5	-0.026	2e-05	0	6.5	-0.026	2e-05	0
814	6.5	-0.024	2e-05	0	6.5	-0.024	2e-05	0
815	6.5	-0.02	2e-05	0	6.5	-0.02	2e-05	0
816	7	-0.04	4e-05	0	7	-0.04	4e-05	0
817	7	-0.035	2e-05	0	7	-0.035	2e-05	0
818	7	-0.03	2e-05	0	7	-0.03	2e-05	0
819	7.5	-0.06	6e-05	0	7.5	-0.06	6e-05	0
820	7.5	-0.05	4e-05	0	7.5	-0.05	4e-05	0
821	7.5	-0.042	4e-05	0	7.5	-0.042	4e-05	0
822	7.5	-0.042	6e-05	0	7.5	-0.042	6e-05	0
823	7.5	-0.032	2e-05	0	7.5	-0.032	2e-05	0
824	7.5	-0.026	2e-05	0	7.5	-0.026	2e-05	0
825	7.5	-0.021	0	0	7.5	-0.021	0	0
826	8	-0.046	4e-05	0	8	-0.046	4e-05	0
827	8	-0.036	4e-05	0	8	-0.036	4e-05	0
828	8	-0.03	2e-05	0	8	-0.03	2e-05	0
829	8	-0.029	2e-05	0	8	-0.029	2e-05	0
830	8	-0.028	2e-05	0	8	-0.028	2e-05	0
831	8.5	-0.046	4e-05	0	8.5	-0.046	4e-05	0
832	8.5	-0.039	4e-05	0	8.5	-0.039	4e-05	0
833	9	-0.072	8e-05	0	9	-0.072	8e-05	0
834	9	-0.055	6e-05	0	9	-0.055	6e-05	0
835	9	-0.05	4e-05	0	9	-0.05	4e-05	0
836	9.5	-0.047	4e-05	0	9.5	-0.047	4e-05	0
837	9.5	-0.043	4e-05	0	9.5	-0.043	4e-05	0
838	9.5	-0.031	2e-05	0	9.5	-0.031	2e-05	0
839	10	-0.039	4e-05	0	10	-0.039	4e-05	0
840	10	-0.032	2e-05	0	10	-0.032	2e-05	0
841	10.5	-0.05	4e-05	0	10.5	-0.05	4e-05	0
842	11	-0.046	4e-05	0	11	-0.046	4e-05	0
843	11.5	-0.059	6e-05	0	11.5	-0.059	6e-05	0
