1	-9	0.026	0	0	-9	0.026	0	0
2	-9	0.029	-2e-05	0	-9	0.029	-2e-05	0
3	-9	0.03	-2e-05	0	-9	0.03	-2e-05	0
4	-9	0.033	-2e-05	0	-9	0.033	-2e-05	0
5	-9	0.047	-6e-05	0	-9	0.047	-6e-05	0
6	-9	0.048	-4e-05	0	-9	0.048	-4e-05	0
7	-9	0.049	-4e-05	0	-9	0.049	-4e-05	0
8	-9	0.054	-4e-05	0	-9	0.054	-4e-05	0
9	-9	0.064	-6e-05	0	-9	0.064	-6e-05	0
10	-9	0.067	-6e-05	0	-9	0.067	-6e-05	0
11	-9	0.069	-6e-05	0	-9	0.069	-6e-05	0
12	-8.5	0.014	-2e-05	0	-8.5	0.014	-2e-05	0
13	-8.5	0.019	0	0	-8.5	0.019	0	0
14	-8.5	0.02	0	0	-8.5	0.02	0	0
15	-8.5	0.027	-2e-05	0	-8.5	0.027	-2e-05	0
16	-8.5	0.029	-2e-05	0	-8.5	0.029	-2e-05	0
17	-8.5	0.03	-4e-05	0	-8.5	0.03	-4e-05	0
18	-8.5	0.03	-2e-05	0	-8.5	0.03	-2e-05	0
19	-8.5	0.031	-2e-05	0	-8.5	0.031	-2e-05	0
20	-8.5	0.032	-2e-05	0	-8.5	0.032	-2e-05	0
21	-8.5	0.033	-2e-05	0	-8.5	0.033	-2e-05	0
22	-8.5	0.038	-4e-05	0	-8.5	0.038	-4e-05	0
23	-8.5	0.044	-4e-05	0	-8.5	0.044	-4e-05	0
24	-8.5	0.045	-4e-05	0	-8.5	0.045	-4e-05	0
25	-8.5	0.048	-4e-05	0	-8.5	0.048	-4e-05	0
26	-8.5	0.061	-6e-05	0	-8.5	0.061	-6e-05	0
27	-8.5	0.064	-6e-05	0	-8.5	0.064	-6e-05	0
28	-8.5	0.068	-6e-05	0	-8.5	0.068	-6e-05	0
29	-8.5	0.069	-8e-05	0	-8.5	0.069	-8e-05	0
30	-8.5	0.077	-8e-05	0	-8.5	0.077	-8e-05	0
31	-8	0.006	0	0	-8	0.006	0	0
32	-8	0.008	2e-05	0	-8	0.008	2e-05	0
33	-8	0.022	-2e-05	0	-8	0.022	-2e-05	0
34	-8	0.027	-2e-05	0	-8	0.027	-2e-05	0
35	-8	0.028	-2e-05	0	-8	0.028	-2e-05	0
36	-8	0.03	-2e-05	0	-8	0.03	-2e-05	0
37	-8	0.033	-2e-05	0	-8	0.033	-2e-05	0
38	-8	0.035	-2e-05	0	-8	0.035	-2e-05	0
39	-8	0.037	-2e-05	0	-8	0.037	-2e-05	0
40	-8	0.038	-2e-05	0	-8	0.038	-2e-05	0
41	-8	0.044	-4e-05	0	-8	0.044	-4e-05	0
42	-8	0.045	-4e-05	0	-8	0.045	-4e-05	0
43	-8	0.047	-4e-05	0	-8	0.047	-4e-05	0
44	-8	0.048	-4e-05	0	-8	0.048	-4e-05	0
45	-8	0.049	-4e-05	0	-8	0.049	-4e-05	0
46	-8	0.051	-4e-05	0	-8	0.051	-4e-05	0
47	-8	0.053	-6e-05	0	-8	0.053	-6e-05	0
48	-8	0.056	-6e-05	0	-8	0.056	-6e-05	0
49	-8	0.057	-6e-05	0	-8	0.057	-6e-05	0
50	-8	0.063	-6e-05	0	-8	0.063	-6e-05	0
51	-8	0.064	-6e-05	0	-8	0.064	-6e-05	0
52	-8	0.065	-6e-05	0	-8	0.065	-6e-05	0
53	-8	0.069	-8e-05	0	-8	0.069	-8e-05	0
54	-7.5	0.024	-2e-05	0	-7.5	0.024	-2e-05	0
55	-7.5	0.026	-2e-05	0	-7.5	0.026	-2e-05	0
56	-7.5	0.029	-2e-05	0	-7.5	0.029	-2e-05	0
57	-7.5	0.034	-2e-05	0	-7.5	0.034	-2e-05	0
58	-7.5	0.039	-2e-05	0	-7.5	0.039	-2e-05	0
59	-7.5	0.042	-4e-05	0	-7.5	0.042	-4e-05	0
60	-7.5	0.044	-4e-05	0	-7.5	0.044	-4e-05	0
61	-7.5	0.045	-6e-05	0	-7.5	0.045	-6e-05	0
62	-7.5	0.048	-6e-05	0	-7.5	0.048	-6e-05	0
63	-7.5	0.049	-4e-05	0	-7.5	0.049	-4e-05	0
64	-7.5	0.051	-4e-05	0	-7.5	0.051	-4e-05	0
65	-7.5	0.053	-6e-05	0	-7.5	0.053	-6e-05	0
66	-7.5	0.055	-6e-05	0	-7.5	0.055	-6e-05	0
67	-7.5	0.059	-6e-05	0	-7.5	0.059	-6e-05	0
68	-7.5	0.06	-6e-05	0	-7.5	0.06	-6e-05	0
69	-7.5	0.063	-6e-05	0	-7.5	0.063	-6e-05	0
70	-7.5	0.065	-6e-05	0	-7.5	0.065	-6e-05	0
71	-7.5	0.068	-6e-05	0	-7.5	0.068	-6e-05	0
72	-7	0.006	0	0	-7	0.006	0	0
73	-7	0.024	-2e-05	0	-7	0.024	-2e-05	0
74	-7	0.026	-2e-05	0	-7	0.026	-2e-05	0
75	-7	0.031	-4e-05	0	-7	0.031	-4e-05	0
76	-7	0.031	-2e-05	0	-7	0.031	-2e-05	0
77	-7	0.034	-2e-05	0	-7	0.034	-2e-05	0
78	-7	0.037	-4e-05	0	-7	0.037	-4e-05	0
79	-7	0.039	-4e-05	0	-7	0.039	-4e-05	0
80	-7	0.04	-4e-05	0	-7	0.04	-4e-05	0
81	-7	0.041	-4e-05	0	-7	0.041	-4e-05	0
82	-7	0.042	-4e-05	0	-7	0.042	-4e-05	0
83	-7	0.043	-4e-05	0	-7	0.043	-4e-05	0
84	-7	0.045	-4e-05	0	-7	0.045	-4e-05	0
85	-7	0.046	-4e-05	0	-7	0.046	-4e-05	0
86	-7	0.048	-4e-05	0	-7	0.048	-4e-05	0
87	-7	0.051	-6e-05	0	-7	0.051	-6e-05	0
88	-7	0.052	-6e-05	0	-7	0.052	-6e-05	0
89	-7	0.055	-6e-05	0	-7	0.055	-6e-05	0
90	-7	0.057	-6e-05	0	-7	0.057	-6e-05	0
91	-7	0.062	-8e-05	0	-7	0.062	-8e-05	0
92	-7	0.064	-8e-05	0	-7	0.064	-8e-05	0
93	-7	0.066	-6e-05	0	-7	0.066	-6e-05	0
94	-7	0.074	-8e-05	0	-7	0.074	-8e-05	0
95	-6.5	0.003	0	0	-6.5	0.003	0	0
96	-6.5	0.005	0	0	-6.5	0.005	0	0
97	-6.5	0.011	-2e-05	0	-6.5	0.011	-2e-05	0
98	-6.5	0.013	0	0	-6.5	0.013	0	0
99	-6.5	0.022	-2e-05	0	-6.5	0.022	-2e-05	0
100	-6.5	0.023	-2e-05	0	-6.5	0.023	-2e-05	0
101	-6.5	0.026	-2e-05	0	-6.5	0.026	-2e-05	0
102	-6.5	0.028	-4e-05	0	-6.5	0.028	-4e-05	0
103	-6.5	0.028	-2e-05	0	-6.5	0.028	-2e-05	0
104	-6.5	0.03	-2e-05	0	-6.5	0.03	-2e-05	0
105	-6.5	0.032	-2e-05	0	-6.5	0.032	-2e-05	0
106	-6.5	0.033	-2e-05	0	-6.5	0.033	-2e-05	0
107	-6.5	0.037	-4e-05	0	-6.5	0.037	-4e-05	0
108	-6.5	0.038	-2e-05	0	-6.5	0.038	-2e-05	0
109	-6.5	0.044	-4e-05	0	-6.5	0.044	-4e-05	0
110	-6.5	0.045	-4e-05	0	-6.5	0.045	-4e-05	0
111	-6.5	0.046	-4e-05	0	-6.5	0.046	-4e-05	0
112	-6.5	0.05	-4e-05	0	-6.5	0.05	-4e-05	0
113	-6.5	0.051	-4e-05	0	-6.5	0.051	-4e-05	0
114	-6.5	0.062	-6e-05	0	-6.5	0.062	-6e-05	0
115	-6.5	0.064	-6e-05	0	-6.5	0.064	-6e-05	0
116	-6	0.018	-2e-05	0	-6	0.018	-2e-05	0
117	-6	0.021	-2e-05	0	-6	0.021	-2e-05	0
118	-6	0.022	-2e-05	0	-6	0.022	-2e-05	0
119	-6	0.025	-2e-05	0	-6	0.025	-2e-05	0
120	-6	0.026	-2e-05	0	-6	0.026	-2e-05	0
121	-6	0.029	-2e-05	0	-6	0.029	-2e-05	0
122	-6	0.03	-2e-05	0	-6	0.03	-2e-05	0
123	-6	0.032	-4e-05	0	-6	0.032	-4e-05	0
124	-6	0.035	-4e-05	0	-6	0.035	-4e-05	0
125	-6	0.037	-4e-05	0	-6	0.037	-4e-05	0
126	-6	0.038	-4e-05	0	-6	0.038	-4e-05	0
127	-6	0.038	-2e-05	0	-6	0.038	-2e-05	0
128	-6	0.039	-4e-05	0	-6	0.039	-4e-05	0
129	-6	0.039	-2e-05	0	-6	0.039	-2e-05	0
130	-6	0.04	-4e-05	0	-6	0.04	-4e-05	0
131	-6	0.042	-4e-05	0	-6	0.042	-4e-05	0
132	-6	0.043	-4e-05	0	-6	0.043	-4e-05	0
133	-6	0.044	-4e-05	0	-6	0.044	-4e-05	0
134	-6	0.045	-4e-05	0	-6	0.045	-4e-05	0
135	-6	0.047	-6e-05	0	-6	0.047	-6e-05	0
136	-6	0.048	-6e-05	0	-6	0.048	-6e-05	0
137	-6	0.05	-6e-05	0	-6	0.05	-6e-05	0
138	-6	0.051	-6e-05	0	-6	0.051	-6e-05	0
139	-6	0.052	-6e-05	0	-6	0.052	-6e-05	0
140	-6	0.058	-6e-05	0	-6	0.058	-6e-05	0
141	-6	0.059	-6e-05	0	-6	0.059	-6e-05	0
142	-6	0.066	-6e-05	0	-6	0.066	-6e-05	0
143	-5.5	-0.016	2e-05	0	-5.5	-0.016	2e-05	0
144	-5.5	-0.012	2e-05	0	-5.5	-0.012	2e-05	0
145	-5.5	0.006	0	0	-5.5	0.006	0	0
146	-5.5	0.011	0	0	-5.5	0.011	0	0
147	-5.5	0.012	0	0	-5.5	0.012	0	0
148	-5.5	0.014	0	0	-5.5	0.014	0	0
149	-5.5	0.015	-2e-05	0	-5.5	0.015	-2e-05	0
150	-5.5	0.019	-2e-05	0	-5.5	0.019	-2e-05	0
151	-5.5	0.019	0	0	-5.5	0.019	0	0
152	-5.5	0.021	-2e-05	0	-5.5	0.021	-2e-05	0
153	-5.5	0.022	-2e-05	0	-5.5	0.022	-2e-05	0
154	-5.5	0.023	-2e-05	0	-5.5	0.023	-2e-05	0
155	-5.5	0.024	-2e-05	0	-5.5	0.024	-2e-05	0
156	-5.5	0.025	-2e-05	0	-5.5	0.025	-2e-05	0
157	-5.5	0.026	-2e-05	0	-5.5	0.026	-2e-05	0
158	-5.5	0.027	-2e-05	0	-5.5	0.027	-2e-05	0
159	-5.5	0.032	-4e-05	0	-5.5	0.032	-4e-05	0
160	-5.5	0.033	-4e-05	0	-5.5	0.033	-4e-05	0
161	-5.5	0.038	-2e-05	0	-5.5	0.038	-2e-05	0
162	-5.5	0.04	-4e-05	0	-5.5	0.04	-4e-05	0
163	-5.5	0.042	-4e-05	0	-5.5	0.042	-4e-05	0
164	-5.5	0.043	-6e-05	0	-5.5	0.043	-6e-05	0
165	-5.5	0.044	-4e-05	0	-5.5	0.044	-4e-05	0
166	-5.5	0.047	-4e-05	0	-5.5	0.047	-4e-05	0
167	-5.5	0.049	-4e-05	0	-5.5	0.049	-4e-05	0
168	-5.5	0.059	-6e-05	0	-5.5	0.059	-6e-05	0
169	-5.5	0.064	-6e-05	0	-5.5	0.064	-6e-05	0
170	-5.5	0.071	-8e-05	0	-5.5	0.071	-8e-05	0
171	-5	0.001	0	0	-5	0.001	0	0
172	-5	0.004	0	0	-5	0.004	0	0
173	-5	0.009	0	0	-5	0.009	0	0
174	-5	0.01	0	0	-5	0.01	0	0
175	-5	0.011	0	0	-5	0.011	0	0
176	-5	0.012	-2e-05	0	-5	0.012	-2e-05	0
177	-5	0.012	0	0	-5	0.012	0	0
178	-5	0.019	-2e-05	0	-5	0.019	-2e-05	0
179	-5	0.021	0	0	-5	0.021	0	0
180	-5	0.022	-2e-05	0	-5	0.022	-2e-05	0
181	-5	0.023	-2e-05	0	-5	0.023	-2e-05	0
182	-5	0.024	-2e-05	0	-5	0.024	-2e-05	0
183	-5	0.026	-2e-05	0	-5	0.026	-2e-05	0
184	-5	0.027	-2e-05	0	-5	0.027	-2e-05	0
185	-5	0.029	-4e-05	0	-5	0.029	-4e-05	0
186	-5	0.031	-4e-05	0	-5	0.031	-4e-05	0
187	-5	0.031	-2e-05	0	-5	0.031	-2e-05	0
188	-5	0.032	-4e-05	0	-5	0.032	-4e-05	0
189	-5	0.033	-4e-05	0	-5	0.033	-4e-05	0
190	-5	0.033	-2e-05	0	-5	0.033	-2e-05	0
191	-5	0.036	-2e-05	0	-5	0.036	-2e-05	0
192	-5	0.038	-2e-05	0	-5	0.038	-2e-05	0
193	-5	0.039	-4e-05	0	-5	0.039	-4e-05	0
194	-5	0.04	-6e-05	0	-5	0.04	-6e-05	0
195	-5	0.04	-4e-05	0	-5	0.04	-4e-05	0
196	-5	0.042	-4e-05	0	-5	0.042	-4e-05	0
197	-5	0.043	-6e-05	0	-5	0.043	-6e-05	0
198	-5	0.043	-4e-05	0	-5	0.043	-4e-05	0
199	-5	0.044	-4e-05	0	-5	0.044	-4e-05	0
200	-5	0.045	-4e-05	0	-5	0.045	-4e-05	0
201	-5	0.047	-4e-05	0	-5	0.047	-4e-05	0
202	-5	0.05	-4e-05	0	-5	0.05	-4e-05	0
203	-5	0.053	-4e-05	0	-5	0.053	-4e-05	0
204	-4.5	0	2e-05	0	-4.5	0	2e-05	0
205	-4.5	0.005	0	0	-4.5	0.005	0	0
206	-4.5	0.006	0	0	-4.5	0.006	0	0
207	-4.5	0.007	0	0	-4.5	0.007	0	0
208	-4.5	0.008	0	0	-4.5	0.008	0	0
209	-4.5	0.009	0	0	-4.5	0.009	0	0
210	-4.5	0.01	0	0	-4.5	0.01	0	0
211	-4.5	0.013	0	0	-4.5	0.013	0	0
212	-4.5	0.015	-2e-05	0	-4.5	0.015	-2e-05	0
213	-4.5	0.018	-2e-05	0	-4.5	0.018	-2e-05	0
214	-4.5	0.019	-2e-05	0	-4.5	0.019	-2e-05	0
215	-4.5	0.019	0	0	-4.5	0.019	0	0
216	-4.5	0.02	-2e-05	0	-4.5	0.02	-2e-05	0
217	-4.5	0.02	0	0	-4.5	0.02	0	0
218	-4.5	0.021	-2e-05	0	-4.5	0.021	-2e-05	0
219	-4.5	0.023	-2e-05	0	-4.5	0.023	-2e-05	0
220	-4.5	0.024	-2e-05	0	-4.5	0.024	-2e-05	0
221	-4.5	0.027	-4e-05	0	-4.5	0.027	-4e-05	0
222	-4.5	0.027	-2e-05	0	-4.5	0.027	-2e-05	0
223	-4.5	0.03	-4e-05	0	-4.5	0.03	-4e-05	0
224	-4.5	0.031	-4e-05	0	-4.5	0.031	-4e-05	0
225	-4.5	0.034	-2e-05	0	-4.5	0.034	-2e-05	0
226	-4.5	0.036	-4e-05	0	-4.5	0.036	-4e-05	0
227	-4.5	0.036	-2e-05	0	-4.5	0.036	-2e-05	0
228	-4.5	0.039	-4e-05	0	-4.5	0.039	-4e-05	0
229	-4.5	0.041	-4e-05	0	-4.5	0.041	-4e-05	0
230	-4.5	0.042	-4e-05	0	-4.5	0.042	-4e-05	0
231	-4.5	0.043	-4e-05	0	-4.5	0.043	-4e-05	0
232	-4.5	0.046	-4e-05	0	-4.5	0.046	-4e-05	0
233	-4.5	0.058	-6e-05	0	-4.5	0.058	-6e-05	0
234	-4.5	0.07	-8e-05	0	-4.5	0.07	-8e-05	0
235	-4	-0.009	2e-05	0	-4	-0.009	2e-05	0
236	-4	-0.001	0	0	-4	-0.001	0	0
237	-4	0.002	0	0	-4	0.002	0	0
238	-4	0.005	0	0	-4	0.005	0	0
239	-4	0.008	-2e-05	0	-4	0.008	-2e-05	0
240	-4	0.008	0	0	-4	0.008	0	0
241	-4	0.009	0	0	-4	0.009	0	0
242	-4	0.012	0	0	-4	0.012	0	0
243	-4	0.013	0	0	-4	0.013	0	0
244	-4	0.014	0	0	-4	0.014	0	0
245	-4	0.015	0	0	-4	0.015	0	0
246	-4	0.017	0	0	-4	0.017	0	0
247	-4	0.02	-2e-05	0	-4	0.02	-2e-05	0
248	-4	0.021	-2e-05	0	-4	0.021	-2e-05	0
249	-4	0.022	-2e-05	0	-4	0.022	-2e-05	0
250	-4	0.023	-2e-05	0	-4	0.023	-2e-05	0
251	-4	0.024	-2e-05	0	-4	0.024	-2e-05	0
252	-4	0.027	-4e-05	0	-4	0.027	-4e-05	0
253	-4	0.027	-2e-05	0	-4	0.027	-2e-05	0
254	-4	0.028	-2e-05	0	-4	0.028	-2e-05	0
255	-4	0.029	-2e-05	0	-4	0.029	-2e-05	0
256	-4	0.03	-2e-05	0	-4	0.03	-2e-05	0
257	-4	0.033	-2e-05	0	-4	0.033	-2e-05	0
258	-4	0.041	-6e-05	0	-4	0.041	-6e-05	0
259	-4	0.045	-6e-05	0	-4	0.045	-6e-05	0
260	-4	0.046	-4e-05	0	-4	0.046	-4e-05	0
261	-4	0.048	-6e-05	0	-4	0.048	-6e-05	0
262	-4	0.05	-4e-05	0	-4	0.05	-4e-05	0
263	-3.5	-0.021	4e-05	0	-3.5	-0.021	4e-05	0
264	-3.5	-0.017	2e-05	0	-3.5	-0.017	2e-05	0
265	-3.5	-0.008	2e-05	0	-3.5	-0.008	2e-05	0
266	-3.5	-0.007	2e-05	0	-3.5	-0.007	2e-05	0
267	-3.5	-0.005	2e-05	0	-3.5	-0.005	2e-05	0
268	-3.5	-0.002	2e-05	0	-3.5	-0.002	2e-05	0
269	-3.5	0.001	0	0	-3.5	0.001	0	0
270	-3.5	0.002	2e-05	0	-3.5	0.002	2e-05	0
271	-3.5	0.003	0	0	-3.5	0.003	0	0
272	-3.5	0.004	0	0	-3.5	0.004	0	0
273	-3.5	0.006	-2e-05	0	-3.5	0.006	-2e-05	0
274	-3.5	0.006	0	0	-3.5	0.006	0	0
275	-3.5	0.007	0	0	-3.5	0.007	0	0
276	-3.5	0.009	0	0	-3.5	0.009	0	0
277	-3.5	0.01	0	0	-3.5	0.01	0	0
278	-3.5	0.014	-2e-05	0	-3.5	0.014	-2e-05	0
279	-3.5	0.016	-2e-05	0	-3.5	0.016	-2e-05	0
280	-3.5	0.016	0	0	-3.5	0.016	0	0
281	-3.5	0.018	-2e-05	0	-3.5	0.018	-2e-05	0
282	-3.5	0.018	0	0	-3.5	0.018	0	0
283	-3.5	0.019	-2e-05	0	-3.5	0.019	-2e-05	0
284	-3.5	0.021	-2e-05	0	-3.5	0.021	-2e-05	0
285	-3.5	0.021	0	0	-3.5	0.021	0	0
286	-3.5	0.022	-2e-05	0	-3.5	0.022	-2e-05	0
287	-3.5	0.023	-2e-05	0	-3.5	0.023	-2e-05	0
288	-3.5	0.024	-2e-05	0	-3.5	0.024	-2e-05	0
289	-3.5	0.025	-2e-05	0	-3.5	0.025	-2e-05	0
290	-3.5	0.026	-2e-05	0	-3.5	0.026	-2e-05	0
291	-3.5	0.03	-4e-05	0	-3.5	0.03	-4e-05	0
292	-3.5	0.032	-4e-05	0	-3.5	0.032	-4e-05	0
293	-3.5	0.034	-4e-05	0	-3.5	0.034	-4e-05	0
294	-3.5	0.036	-4e-05	0	-3.5	0.036	-4e-05	0
295	-3.5	0.039	-4e-05	0	-3.5	0.039	-4e-05	0
296	-3.5	0.04	-4e-05	0	-3.5	0.04	-4e-05	0
297	-3.5	0.043	-4e-05	0	-3.5	0.043	-4e-05	0
298	-3.5	0.044	-4e-05	0	-3.5	0.044	-4e-05	0
299	-3	-0.024	4e-05	0	-3	-0.024	4e-05	0
300	-3	-0.008	2e-05	0	-3	-0.008	2e-05	0
301	-3	-0.006	0	0	-3	-0.006	0	0
302	-3	-0.003	2e-05	0	-3	-0.003	2e-05	0
303	-3	0	0	0	-3	0	0	0
304	-3	0.001	0	0	-3	0.001	0	0
305	-3	0.003	0	0	-3	0.003	0	0
306	-3	0.004	0	0	-3	0.004	0	0
307	-3	0.005	0	0	-3	0.005	0	0
308	-3	0.007	0	0	-3	0.007	0	0
309	-3	0.009	0	0	-3	0.009	0	0
310	-3	0.011	0	0	-3	0.011	0	0
311	-3	0.014	0	0	-3	0.014	0	0
312	-3	0.016	-2e-05	0	-3	0.016	-2e-05	0
313	-3	0.017	-2e-05	0	-3	0.017	-2e-05	0
314	-3	0.019	-2e-05	0	-3	0.019	-2e-05	0
315	-3	0.021	-2e-05	0	-3	0.021	-2e-05	0
316	-3	0.022	-2e-05	0	-3	0.022	-2e-05	0
317	-3	0.023	-2e-05	0	-3	0.023	-2e-05	0
318	-3	0.024	-2e-05	0	-3	0.024	-2e-05	0
319	-3	0.026	-2e-05	0	-3	0.026	-2e-05	0
320	-3	0.027	-2e-05	0	-3	0.027	-2e-05	0
321	-3	0.028	-4e-05	0	-3	0.028	-4e-05	0
322	-3	0.028	-2e-05	0	-3	0.028	-2e-05	0
323	-3	0.029	-4e-05	0	-3	0.029	-4e-05	0
324	-3	0.029	-2e-05	0	-3	0.029	-2e-05	0
325	-3	0.034	-4e-05	0	-3	0.034	-4e-05	0
326	-3	0.039	-4e-05	0	-3	0.039	-4e-05	0
327	-3	0.04	-4e-05	0	-3	0.04	-4e-05	0
328	-3	0.045	-4e-05	0	-3	0.045	-4e-05	0
329	-3	0.046	-4e-05	0	-3	0.046	-4e-05	0
330	-3	0.047	-4e-05	0	-3	0.047	-4e-05	0
331	-3	0.052	-6e-05	0	-3	0.052	-6e-05	0
332	-3	0.059	-6e-05	0	-3	0.059	-6e-05	0
333	-2.5	-0.026	4e-05	0	-2.5	-0.026	4e-05	0
334	-2.5	-0.015	2e-05	0	-2.5	-0.015	2e-05	0
335	-2.5	-0.01	0	0	-2.5	-0.01	0	0
336	-2.5	-0.008	0	0	-2.5	-0.008	0	0
337	-2.5	-0.003	2e-05	0	-2.5	-0.003	2e-05	0
338	-2.5	0.002	0	0	-2.5	0.002	0	0
339	-2.5	0.003	0	0	-2.5	0.003	0	0
340	-2.5	0.005	0	0	-2.5	0.005	0	0
341	-2.5	0.006	-2e-05	0	-2.5	0.006	-2e-05	0
342	-2.5	0.006	0	0	-2.5	0.006	0	0
343	-2.5	0.007	-2e-05	0	-2.5	0.007	-2e-05	0
344	-2.5	0.01	-2e-05	0	-2.5	0.01	-2e-05	0
345	-2.5	0.011	-2e-05	0	-2.5	0.011	-2e-05	0
346	-2.5	0.012	-2e-05	0	-2.5	0.012	-2e-05	0
347	-2.5	0.014	-2e-05	0	-2.5	0.014	-2e-05	0
348	-2.5	0.016	-2e-05	0	-2.5	0.016	-2e-05	0
349	-2.5	0.019	-2e-05	0	-2.5	0.019	-2e-05	0
350	-2.5	0.02	-2e-05	0	-2.5	0.02	-2e-05	0
351	-2.5	0.021	-2e-05	0	-2.5	0.021	-2e-05	0
352	-2.5	0.023	-4e-05	0	-2.5	0.023	-4e-05	0
353	-2.5	0.023	-2e-05	0	-2.5	0.023	-2e-05	0
354	-2.5	0.024	-4e-05	0	-2.5	0.024	-4e-05	0
355	-2.5	0.024	-2e-05	0	-2.5	0.024	-2e-05	0
356	-2.5	0.025	-2e-05	0	-2.5	0.025	-2e-05	0
357	-2.5	0.027	-4e-05	0	-2.5	0.027	-4e-05	0
358	-2.5	0.028	-4e-05	0	-2.5	0.028	-4e-05	0
359	-2.5	0.036	-4e-05	0	-2.5	0.036	-4e-05	0
360	-2	-0.034	4e-05	0	-2	-0.034	4e-05	0
361	-2	-0.032	4e-05	0	-2	-0.032	4e-05	0
362	-2	-0.018	4e-05	0	-2	-0.018	4e-05	0
363	-2	-0.004	0	0	-2	-0.004	0	0
364	-2	-0.003	2e-05	0	-2	-0.003	2e-05	0
365	-2	-0.002	0	0	-2	-0.002	0	0
366	-2	-0.001	2e-05	0	-2	-0.001	2e-05	0
367	-2	0.003	0	0	-2	0.003	0	0
368	-2	0.004	0	0	-2	0.004	0	0
369	-2	0.005	0	0	-2	0.005	0	0
370	-2	0.006	0	0	-2	0.006	0	0
371	-2	0.007	-2e-05	0	-2	0.007	-2e-05	0
372	-2	0.008	0	0	-2	0.008	0	0
373	-2	0.009	0	0	-2	0.009	0	0
374	-2	0.01	0	0	-2	0.01	0	0
375	-2	0.011	0	0	-2	0.011	0	0
376	-2	0.012	0	0	-2	0.012	0	0
377	-2	0.013	0	0	-2	0.013	0	0
378	-2	0.014	-2e-05	0	-2	0.014	-2e-05	0
379	-2	0.014	0	0	-2	0.014	0	0
380	-2	0.015	-2e-05	0	-2	0.015	-2e-05	0
381	-2	0.015	0	0	-2	0.015	0	0
382	-2	0.018	-2e-05	0	-2	0.018	-2e-05	0
383	-2	0.019	-2e-05	0	-2	0.019	-2e-05	0
384	-2	0.02	-2e-05	0	-2	0.02	-2e-05	0
385	-2	0.021	-4e-05	0	-2	0.021	-4e-05	0
386	-2	0.021	-2e-05	0	-2	0.021	-2e-05	0
387	-2	0.023	-2e-05	0	-2	0.023	-2e-05	0
388	-2	0.024	-2e-05	0	-2	0.024	-2e-05	0
389	-2	0.027	-4e-05	0	-2	0.027	-4e-05	0
390	-2	0.028	-2e-05	0	-2	0.028	-2e-05	0
391	-2	0.029	-2e-05	0	-2	0.029	-2e-05	0
392	-2	0.041	-4e-05	0	-2	0.041	-4e-05	0
393	-1.5	-0.038	4e-05	0	-1.5	-0.038	4e-05	0
394	-1.5	-0.025	4e-05	0	-1.5	-0.025	4e-05	0
395	-1.5	-0.024	2e-05	0	-1.5	-0.024	2e-05	0
396	-1.5	-0.022	2e-05	0	-1.5	-0.022	2e-05	0
397	-1.5	-0.014	2e-05	0	-1.5	-0.014	2e-05	0
398	-1.5	-0.009	2e-05	0	-1.5	-0.009	2e-05	0
399	-1.5	-0.007	0	0	-1.5	-0.007	0	0
400	-1.5	-0.007	2e-05	0	-1.5	-0.007	2e-05	0
401	-1.5	-0.002	2e-05	0	-1.5	-0.002	2e-05	0
402	-1.5	-0.001	0	0	-1.5	-0.001	0	0
403	-1.5	-0.001	2e-05	0	-1.5	-0.001	2e-05	0
404	-1.5	0.001	0	0	-1.5	0.001	0	0
405	-1.5	0.003	-2e-05	0	-1.5	0.003	-2e-05	0
406	-1.5	0.004	-2e-05	0	-1.5	0.004	-2e-05	0
407	-1.5	0.004	0	0	-1.5	0.004	0	0
408	-1.5	0.005	0	0	-1.5	0.005	0	0
409	-1.5	0.006	0	0	-1.5	0.006	0	0
410	-1.5	0.007	-2e-05	0	-1.5	0.007	-2e-05	0
411	-1.5	0.008	0	0	-1.5	0.008	0	0
412	-1.5	0.011	-2e-05	0	-1.5	0.011	-2e-05	0
413	-1.5	0.011	0	0	-1.5	0.011	0	0
414	-1.5	0.017	-2e-05	0	-1.5	0.017	-2e-05	0
415	-1.5	0.019	-2e-05	0	-1.5	0.019	-2e-05	0
416	-1.5	0.02	-4e-05	0	-1.5	0.02	-4e-05	0
417	-1.5	0.021	-4e-05	0	-1.5	0.021	-4e-05	0
418	-1.5	0.025	-2e-05	0	-1.5	0.025	-2e-05	0
419	-1.5	0.028	-4e-05	0	-1.5	0.028	-4e-05	0
420	-1.5	0.029	-4e-05	0	-1.5	0.029	-4e-05	0
421	-1.5	0.035	-4e-05	0	-1.5	0.035	-4e-05	0
422	-1.5	0.039	-4e-05	0	-1.5	0.039	-4e-05	0
423	-1	-0.035	4e-05	0	-1	-0.035	4e-05	0
424	-1	-0.029	2e-05	0	-1	-0.029	2e-05	0
425	-1	-0.019	4e-05	0	-1	-0.019	4e-05	0
426	-1	-0.018	2e-05	0	-1	-0.018	2e-05	0
427	-1	-0.016	2e-05	0	-1	-0.016	2e-05	0
428	-1	-0.015	2e-05	0	-1	-0.015	2e-05	0
429	-1	-0.014	2e-05	0	-1	-0.014	2e-05	0
430	-1	-0.013	2e-05	0	-1	-0.013	2e-05	0
431	-1	-0.01	2e-05	0	-1	-0.01	2e-05	0
432	-1	-0.008	0	0	-1	-0.008	0	0
433	-1	-0.001	0	0	-1	-0.001	0	0
434	-1	0.002	0	0	-1	0.002	0	0
435	-1	0.003	0	0	-1	0.003	0	0
436	-1	0.004	0	0	-1	0.004	0	0
437	-1	0.006	0	0	-1	0.006	0	0
438	-1	0.009	-2e-05	0	-1	0.009	-2e-05	0
439	-1	0.01	-2e-05	0	-1	0.01	-2e-05	0
440	-1	0.01	0	0	-1	0.01	0	0
441	-1	0.011	-2e-05	0	-1	0.011	-2e-05	0
442	-1	0.013	-2e-05	0	-1	0.013	-2e-05	0
443	-1	0.014	-2e-05	0	-1	0.014	-2e-05	0
444	-1	0.016	-2e-05	0	-1	0.016	-2e-05	0
445	-1	0.017	-2e-05	0	-1	0.017	-2e-05	0
446	-1	0.018	-2e-05	0	-1	0.018	-2e-05	0
447	-1	0.019	-4e-05	0	-1	0.019	-4e-05	0
448	-1	0.021	-2e-05	0	-1	0.021	-2e-05	0
449	-1	0.022	-2e-05	0	-1	0.022	-2e-05	0
450	-1	0.023	-2e-05	0	-1	0.023	-2e-05	0
451	-1	0.026	-2e-05	0	-1	0.026	-2e-05	0
452	-1	0.03	-2e-05	0	-1	0.03	-2e-05	0
453	-1	0.039	-4e-05	0	-1	0.039	-4e-05	0
454	-0.5	-0.033	4e-05	0	-0.5	-0.033	4e-05	0
455	-0.5	-0.03	4e-05	0	-0.5	-0.03	4e-05	0
456	-0.5	-0.021	4e-05	0	-0.5	-0.021	4e-05	0
457	-0.5	-0.02	2e-05	0	-0.5	-0.02	2e-05	0
458	-0.5	-0.017	2e-05	0	-0.5	-0.017	2e-05	0
459	-0.5	-0.015	2e-05	0	-0.5	-0.015	2e-05	0
460	-0.5	-0.007	2e-05	0	-0.5	-0.007	2e-05	0
461	-0.5	-0.005	0	0	-0.5	-0.005	0	0
462	-0.5	-0.005	2e-05	0	-0.5	-0.005	2e-05	0
463	-0.5	-0.003	0	0	-0.5	-0.003	0	0
464	-0.5	-0.003	2e-05	0	-0.5	-0.003	2e-05	0
465	-0.5	-0.002	2e-05	0	-0.5	-0.002	2e-05	0
466	-0.5	-0.001	0	0	-0.5	-0.001	0	0
467	-0.5	-0.001	2e-05	0	-0.5	-0.001	2e-05	0
468	-0.5	0	0	0	-0.5	0	0	0
469	-0.5	0.001	0	0	-0.5	0.001	0	0
470	-0.5	0.002	0	0	-0.5	0.002	0	0
471	-0.5	0.004	-2e-05	0	-0.5	0.004	-2e-05	0
472	-0.5	0.007	0	0	-0.5	0.007	0	0
473	-0.5	0.008	0	0	-0.5	0.008	0	0
474	-0.5	0.009	-2e-05	0	-0.5	0.009	-2e-05	0
475	-0.5	0.011	-2e-05	0	-0.5	0.011	-2e-05	0
476	-0.5	0.012	0	0	-0.5	0.012	0	0
477	-0.5	0.014	-2e-05	0	-0.5	0.014	-2e-05	0
478	-0.5	0.015	-2e-05	0	-0.5	0.015	-2e-05	0
479	-0.5	0.016	0	0	-0.5	0.016	0	0
480	-0.5	0.017	-2e-05	0	-0.5	0.017	-2e-05	0
481	-0.5	0.018	-4e-05	0	-0.5	0.018	-4e-05	0
482	-0.5	0.018	-2e-05	0	-0.5	0.018	-2e-05	0
483	-0.5	0.019	-2e-05	0	-0.5	0.019	-2e-05	0
484	-0.5	0.021	-2e-05	0	-0.5	0.021	-2e-05	0
485	-0.5	0.023	-2e-05	0	-0.5	0.023	-2e-05	0
486	-0.5	0.029	-4e-05	0	-0.5	0.029	-4e-05	0
487	-0.5	0.051	-6e-05	0	-0.5	0.051	-6e-05	0
488	-0.5	0.053	-6e-05	0	-0.5	0.053	-6e-05	0
489	0	-0.028	2e-05	0	0	-0.028	2e-05	0
490	0	-0.026	2e-05	0	0	-0.026	2e-05	0
491	0	-0.017	2e-05	0	0	-0.017	2e-05	0
492	0	-0.016	2e-05	0	0	-0.016	2e-05	0
493	0	-0.013	2e-05	0	0	-0.013	2e-05	0
494	0	-0.01	2e-05	0	0	-0.01	2e-05	0
495	0	-0.008	0	0	0	-0.008	0	0
496	0	-0.008	2e-05	0	0	-0.008	2e-05	0
497	0	-0.006	2e-05	0	0	-0.006	2e-05	0
498	0	-0.004	0	0	0	-0.004	0	0
499	0	-0.002	0	0	0	-0.002	0	0
500	0	-0.001	0	0	0	-0.001	0	0
501	0	0	-2e-05	0	0	0	-2e-05	0
502	0	0	0	0	0	0	0	0
503	0	0.001	0	0	0	0.001	0	0
504	0	0.002	0	0	0	0.002	0	0
505	0	0.003	0	0	0	0.003	0	0
506	0	0.004	0	0	0	0.004	0	0
507	0	0.006	0	0	0	0.006	0	0
508	0	0.011	0	0	0	0.011	0	0
509	0	0.012	-2e-05	0	0	0.012	-2e-05	0
510	0	0.018	-4e-05	0	0	0.018	-4e-05	0
511	0	0.018	-2e-05	0	0	0.018	-2e-05	0
512	0	0.022	-2e-05	0	0	0.022	-2e-05	0
513	0	0.025	-4e-05	0	0	0.025	-4e-05	0
514	0	0.027	-4e-05	0	0	0.027	-4e-05	0
515	0	0.039	-4e-05	0	0	0.039	-4e-05	0
516	0.5	-0.041	4e-05	0	0.5	-0.041	4e-05	0
517	0.5	-0.039	4e-05	0	0.5	-0.039	4e-05	0
518	0.5	-0.035	4e-05	0	0.5	-0.035	4e-05	0
519	0.5	-0.025	2e-05	0	0.5	-0.025	2e-05	0
520	0.5	-0.024	2e-05	0	0.5	-0.024	2e-05	0
521	0.5	-0.017	2e-05	0	0.5	-0.017	2e-05	0
522	0.5	-0.013	0	0	0.5	-0.013	0	0
523	0.5	-0.012	2e-05	0	0.5	-0.012	2e-05	0
524	0.5	-0.01	2e-05	0	0.5	-0.01	2e-05	0
525	0.5	-0.009	0	0	0.5	-0.009	0	0
526	0.5	-0.007	2e-05	0	0.5	-0.007	2e-05	0
527	0.5	-0.005	0	0	0.5	-0.005	0	0
528	0.5	-0.003	0	0	0.5	-0.003	0	0
529	0.5	-0.002	0	0	0.5	-0.002	0	0
530	0.5	-0.001	0	0	0.5	-0.001	0	0
531	0.5	0	0	0	0.5	0	0	0
532	0.5	0.001	0	0	0.5	0.001	0	0
533	0.5	0.002	0	0	0.5	0.002	0	0
534	0.5	0.003	0	0	0.5	0.003	0	0
535	0.5	0.004	-2e-05	0	0.5	0.004	-2e-05	0
536	0.5	0.004	0	0	0.5	0.004	0	0
537	0.5	0.006	0	0	0.5	0.006	0	0
538	0.5	0.009	-2e-05	0	0.5	0.009	-2e-05	0
539	0.5	0.01	-2e-05	0	0.5	0.01	-2e-05	0
540	0.5	0.012	-2e-05	0	0.5	0.012	-2e-05	0
541	0.5	0.015	-2e-05	0	0.5	0.015	-2e-05	0
542	0.5	0.017	-2e-05	0	0.5	0.017	-2e-05	0
543	0.5	0.019	-2e-05	0	0.5	0.019	-2e-05	0
544	0.5	0.021	-2e-05	0	0.5	0.021	-2e-05	0
545	0.5	0.024	-4e-05	0	0.5	0.024	-4e-05	0
546	1	-0.043	4e-05	0	1	-0.043	4e-05	0
547	1	-0.027	4e-05	0	1	-0.027	4e-05	0
548	1	-0.026	2e-05	0	1	-0.026	2e-05	0
549	1	-0.023	2e-05	0	1	-0.023	2e-05	0
550	1	-0.023	4e-05	0	1	-0.023	4e-05	0
551	1	-0.022	2e-05	0	1	-0.022	2e-05	0
552	1	-0.022	4e-05	0	1	-0.022	4e-05	0
553	1	-0.02	2e-05	0	1	-0.02	2e-05	0
554	1	-0.019	2e-05	0	1	-0.019	2e-05	0
555	1	-0.018	0	0	1	-0.018	0	0
556	1	-0.017	0	0	1	-0.017	0	0
557	1	-0.015	2e-05	0	1	-0.015	2e-05	0
558	1	-0.012	0	0	1	-0.012	0	0
559	1	-0.011	2e-05	0	1	-0.011	2e-05	0
560	1	-0.009	0	0	1	-0.009	0	0
561	1	-0.008	2e-05	0	1	-0.008	2e-05	0
562	1	-0.007	2e-05	0	1	-0.007	2e-05	0
563	1	-0.006	0	0	1	-0.006	0	0
564	1	-0.005	0	0	1	-0.005	0	0
565	1	-0.004	0	0	1	-0.004	0	0
566	1	-0.003	0	0	1	-0.003	0	0
567	1	-0.002	0	0	1	-0.002	0	0
568	1	0	-2e-05	0	1	0	-2e-05	0
569	1	0	0	0	1	0	0	0
570	1	0.001	-2e-05	0	1	0.001	-2e-05	0
571	1	0.001	0	0	1	0.001	0	0
572	1	0.002	0	0	1	0.002	0	0
573	1	0.003	0	0	1	0.003	0	0
574	1	0.004	0	0	1	0.004	0	0
575	1	0.005	0	0	1	0.005	0	0
576	1	0.007	0	0	1	0.007	0	0
577	1	0.009	-2e-05	0	1	0.009	-2e-05	0
578	1.5	-0.038	6e-05	0	1.5	-0.038	6e-05	0
579	1.5	-0.029	2e-05	0	1.5	-0.029	2e-05	0
580	1.5	-0.027	2e-05	0	1.5	-0.027	2e-05	0
581	1.5	-0.022	2e-05	0	1.5	-0.022	2e-05	0
582	1.5	-0.022	4e-05	0	1.5	-0.022	4e-05	0
583	1.5	-0.019	0	0	1.5	-0.019	0	0
584	1.5	-0.019	2e-05	0	1.5	-0.019	2e-05	0
585	1.5	-0.018	2e-05	0	1.5	-0.018	2e-05	0
586	1.5	-0.014	2e-05	0	1.5	-0.014	2e-05	0
587	1.5	-0.011	2e-05	0	1.5	-0.011	2e-05	0
588	1.5	-0.006	0	0	1.5	-0.006	0	0
589	1.5	-0.005	0	0	1.5	-0.005	0	0
590	1.5	-0.003	0	0	1.5	-0.003	0	0
591	1.5	-0.002	0	0	1.5	-0.002	0	0
592	1.5	0	0	0	1.5	0	0	0
593	1.5	0.003	-2e-05	0	1.5	0.003	-2e-05	0
594	1.5	0.006	-2e-05	0	1.5	0.006	-2e-05	0
595	1.5	0.007	-2e-05	0	1.5	0.007	-2e-05	0
596	1.5	0.008	-2e-05	0	1.5	0.008	-2e-05	0
597	1.5	0.009	0	0	1.5	0.009	0	0
598	1.5	0.012	-2e-05	0	1.5	0.012	-2e-05	0
599	1.5	0.013	-2e-05	0	1.5	0.013	-2e-05	0
600	1.5	0.019	-4e-05	0	1.5	0.019	-4e-05	0
601	2	-0.034	4e-05	0	2	-0.034	4e-05	0
602	2	-0.033	4e-05	0	2	-0.033	4e-05	0
603	2	-0.025	4e-05	0	2	-0.025	4e-05	0
604	2	-0.024	2e-05	0	2	-0.024	2e-05	0
605	2	-0.022	2e-05	0	2	-0.022	2e-05	0
606	2	-0.022	4e-05	0	2	-0.022	4e-05	0
607	2	-0.021	2e-05	0	2	-0.021	2e-05	0
608	2	-0.02	0	0	2	-0.02	0	0
609	2	-0.016	2e-05	0	2	-0.016	2e-05	0
610	2	-0.014	2e-05	0	2	-0.014	2e-05	0
611	2	-0.013	0	0	2	-0.013	0	0
612	2	-0.013	2e-05	0	2	-0.013	2e-05	0
613	2	-0.012	0	0	2	-0.012	0	0
614	2	-0.012	2e-05	0	2	-0.012	2e-05	0
615	2	-0.009	0	0	2	-0.009	0	0
616	2	-0.006	0	0	2	-0.006	0	0
617	2	-0.005	0	0	2	-0.005	0	0
618	2	-0.002	0	0	2	-0.002	0	0
619	2	0.002	0	0	2	0.002	0	0
620	2	0.003	-2e-05	0	2	0.003	-2e-05	0
621	2	0.013	-2e-05	0	2	0.013	-2e-05	0
622	2	0.014	-2e-05	0	2	0.014	-2e-05	0
623	2	0.018	-4e-05	0	2	0.018	-4e-05	0
624	2	0.023	-4e-05	0	2	0.023	-4e-05	0
625	2.5	-0.053	6e-05	0	2.5	-0.053	6e-05	0
626	2.5	-0.043	4e-05	0	2.5	-0.043	4e-05	0
627	2.5	-0.043	6e-05	0	2.5	-0.043	6e-05	0
628	2.5	-0.038	4e-05	0	2.5	-0.038	4e-05	0
629	2.5	-0.034	2e-05	0	2.5	-0.034	2e-05	0
630	2.5	-0.029	4e-05	0	2.5	-0.029	4e-05	0
631	2.5	-0.024	2e-05	0	2.5	-0.024	2e-05	0
632	2.5	-0.023	2e-05	0	2.5	-0.023	2e-05	0
633	2.5	-0.022	2e-05	0	2.5	-0.022	2e-05	0
634	2.5	-0.022	4e-05	0	2.5	-0.022	4e-05	0
635	2.5	-0.021	2e-05	0	2.5	-0.021	2e-05	0
636	2.5	-0.019	2e-05	0	2.5	-0.019	2e-05	0
637	2.5	-0.018	2e-05	0	2.5	-0.018	2e-05	0
638	2.5	-0.017	2e-05	0	2.5	-0.017	2e-05	0
639	2.5	-0.016	2e-05	0	2.5	-0.016	2e-05	0
640	2.5	-0.015	0	0	2.5	-0.015	0	0
641	2.5	-0.015	2e-05	0	2.5	-0.015	2e-05	0
642	2.5	-0.012	0	0	2.5	-0.012	0	0
643	2.5	-0.01	2e-05	0	2.5	-0.01	2e-05	0
644	2.5	-0.008	0	0	2.5	-0.008	0	0
645	2.5	-0.005	0	0	2.5	-0.005	0	0
646	2.5	-0.004	0	0	2.5	-0.004	0	0
647	2.5	-0.003	0	0	2.5	-0.003	0	0
648	2.5	-0.002	0	0	2.5	-0.002	0	0
649	2.5	0	0	0	2.5	0	0	0
650	2.5	0.001	0	0	2.5	0.001	0	0
651	2.5	0.009	-2e-05	0	2.5	0.009	-2e-05	0
652	2.5	0.011	-2e-05	0	2.5	0.011	-2e-05	0
653	2.5	0.015	-2e-05	0	2.5	0.015	-2e-05	0
654	2.5	0.016	-4e-05	0	2.5	0.016	-4e-05	0
655	2.5	0.017	-2e-05	0	2.5	0.017	-2e-05	0
656	2.5	0.019	-2e-05	0	2.5	0.019	-2e-05	0
657	3	-0.041	4e-05	0	3	-0.041	4e-05	0
658	3	-0.04	4e-05	0	3	-0.04	4e-05	0
659	3	-0.035	4e-05	0	3	-0.035	4e-05	0
660	3	-0.031	4e-05	0	3	-0.031	4e-05	0
661	3	-0.029	2e-05	0	3	-0.029	2e-05	0
662	3	-0.028	2e-05	0	3	-0.028	2e-05	0
663	3	-0.028	4e-05	0	3	-0.028	4e-05	0
664	3	-0.026	2e-05	0	3	-0.026	2e-05	0
665	3	-0.024	2e-05	0	3	-0.024	2e-05	0
666	3	-0.023	2e-05	0	3	-0.023	2e-05	0
667	3	-0.022	2e-05	0	3	-0.022	2e-05	0
668	3	-0.02	2e-05	0	3	-0.02	2e-05	0
669	3	-0.019	2e-05	0	3	-0.019	2e-05	0
670	3	-0.017	2e-05	0	3	-0.017	2e-05	0
671	3	-0.016	2e-05	0	3	-0.016	2e-05	0
672	3	-0.015	2e-05	0	3	-0.015	2e-05	0
673	3	-0.013	0	0	3	-0.013	0	0
674	3	-0.009	0	0	3	-0.009	0	0
675	3	-0.008	0	0	3	-0.008	0	0
676	3	-0.008	2e-05	0	3	-0.008	2e-05	0
677	3	-0.006	0	0	3	-0.006	0	0
678	3	-0.004	0	0	3	-0.004	0	0
679	3	-0.003	0	0	3	-0.003	0	0
680	3	0.006	0	0	3	0.006	0	0
681	3	0.009	-2e-05	0	3	0.009	-2e-05	0
682	3	0.015	-2e-05	0	3	0.015	-2e-05	0
683	3	0.028	-4e-05	0	3	0.028	-4e-05	0
684	3.5	-0.048	6e-05	0	3.5	-0.048	6e-05	0
685	3.5	-0.044	4e-05	0	3.5	-0.044	4e-05	0
686	3.5	-0.039	4e-05	0	3.5	-0.039	4e-05	0
687	3.5	-0.039	6e-05	0	3.5	-0.039	6e-05	0
688	3.5	-0.036	4e-05	0	3.5	-0.036	4e-05	0
689	3.5	-0.032	2e-05	0	3.5	-0.032	2e-05	0
690	3.5	-0.029	2e-05	0	3.5	-0.029	2e-05	0
691	3.5	-0.027	2e-05	0	3.5	-0.027	2e-05	0
692	3.5	-0.026	4e-05	0	3.5	-0.026	4e-05	0
693	3.5	-0.025	2e-05	0	3.5	-0.025	2e-05	0
694	3.5	-0.024	2e-05	0	3.5	-0.024	2e-05	0
695	3.5	-0.023	2e-05	0	3.5	-0.023	2e-05	0
696	3.5	-0.022	2e-05	0	3.5	-0.022	2e-05	0
697	3.5	-0.02	2e-05	0	3.5	-0.02	2e-05	0
698	3.5	-0.019	2e-05	0	3.5	-0.019	2e-05	0
699	3.5	-0.018	2e-05	0	3.5	-0.018	2e-05	0
700	3.5	-0.015	0	0	3.5	-0.015	0	0
701	3.5	-0.015	2e-05	0	3.5	-0.015	2e-05	0
702	3.5	-0.012	0	0	3.5	-0.012	0	0
703	3.5	-0.012	2e-05	0	3.5	-0.012	2e-05	0
704	3.5	-0.007	0	0	3.5	-0.007	0	0
705	3.5	-0.005	0	0	3.5	-0.005	0	0
706	3.5	-0.003	0	0	3.5	-0.003	0	0
707	3.5	-0.001	0	0	3.5	-0.001	0	0
708	3.5	0	0	0	3.5	0	0	0
709	3.5	0.007	-2e-05	0	3.5	0.007	-2e-05	0
710	3.5	0.015	-4e-05	0	3.5	0.015	-4e-05	0
711	3.5	0.016	-2e-05	0	3.5	0.016	-2e-05	0
712	4	-0.061	6e-05	0	4	-0.061	6e-05	0
713	4	-0.056	6e-05	0	4	-0.056	6e-05	0
714	4	-0.053	6e-05	0	4	-0.053	6e-05	0
715	4	-0.049	4e-05	0	4	-0.049	4e-05	0
716	4	-0.045	4e-05	0	4	-0.045	4e-05	0
717	4	-0.044	6e-05	0	4	-0.044	6e-05	0
718	4	-0.042	4e-05	0	4	-0.042	4e-05	0
719	4	-0.042	6e-05	0	4	-0.042	6e-05	0
720	4	-0.041	4e-05	0	4	-0.041	4e-05	0
721	4	-0.034	4e-05	0	4	-0.034	4e-05	0
722	4	-0.032	2e-05	0	4	-0.032	2e-05	0
723	4	-0.032	4e-05	0	4	-0.032	4e-05	0
724	4	-0.03	2e-05	0	4	-0.03	2e-05	0
725	4	-0.03	4e-05	0	4	-0.03	4e-05	0
726	4	-0.028	2e-05	0	4	-0.028	2e-05	0
727	4	-0.028	4e-05	0	4	-0.028	4e-05	0
728	4	-0.026	2e-05	0	4	-0.026	2e-05	0
729	4	-0.024	4e-05	0	4	-0.024	4e-05	0
730	4	-0.023	2e-05	0	4	-0.023	2e-05	0
731	4	-0.021	2e-05	0	4	-0.021	2e-05	0
732	4	-0.02	2e-05	0	4	-0.02	2e-05	0
733	4	-0.018	2e-05	0	4	-0.018	2e-05	0
734	4	-0.017	2e-05	0	4	-0.017	2e-05	0
735	4	-0.016	2e-05	0	4	-0.016	2e-05	0
736	4	-0.014	2e-05	0	4	-0.014	2e-05	0
737	4	-0.013	0	0	4	-0.013	0	0
738	4	-0.01	0	0	4	-0.01	0	0
739	4	-0.008	0	0	4	-0.008	0	0
740	4	-0.007	0	0	4	-0.007	0	0
741	4	-0.003	0	0	4	-0.003	0	0
742	4	-0.001	0	0	4	-0.001	0	0
743	4	0.003	0	0	4	0.003	0	0
744	4	0.013	-2e-05	0	4	0.013	-2e-05	0
745	4.5	-0.05	6e-05	0	4.5	-0.05	6e-05	0
746	4.5	-0.047	4e-05	0	4.5	-0.047	4e-05	0
747	4.5	-0.047	6e-05	0	4.5	-0.047	6e-05	0
748	4.5	-0.045	4e-05	0	4.5	-0.045	4e-05	0
749	4.5	-0.044	4e-05	0	4.5	-0.044	4e-05	0
750	4.5	-0.042	4e-05	0	4.5	-0.042	4e-05	0
751	4.5	-0.041	4e-05	0	4.5	-0.041	4e-05	0
752	4.5	-0.041	6e-05	0	4.5	-0.041	6e-05	0
753	4.5	-0.037	4e-05	0	4.5	-0.037	4e-05	0
754	4.5	-0.034	2e-05	0	4.5	-0.034	2e-05	0
755	4.5	-0.031	4e-05	0	4.5	-0.031	4e-05	0
756	4.5	-0.03	2e-05	0	4.5	-0.03	2e-05	0
757	4.5	-0.03	4e-05	0	4.5	-0.03	4e-05	0
758	4.5	-0.027	2e-05	0	4.5	-0.027	2e-05	0
759	4.5	-0.025	2e-05	0	4.5	-0.025	2e-05	0
760	4.5	-0.024	2e-05	0	4.5	-0.024	2e-05	0
761	4.5	-0.023	2e-05	0	4.5	-0.023	2e-05	0
762	4.5	-0.021	2e-05	0	4.5	-0.021	2e-05	0
763	4.5	-0.02	0	0	4.5	-0.02	0	0
764	4.5	-0.019	2e-05	0	4.5	-0.019	2e-05	0
765	4.5	-0.018	2e-05	0	4.5	-0.018	2e-05	0
766	4.5	-0.017	2e-05	0	4.5	-0.017	2e-05	0
767	4.5	-0.013	0	0	4.5	-0.013	0	0
768	4.5	-0.012	0	0	4.5	-0.012	0	0
769	4.5	-0.009	0	0	4.5	-0.009	0	0
770	4.5	-0.008	0	0	4.5	-0.008	0	0
771	4.5	-0.007	0	0	4.5	-0.007	0	0
772	4.5	-0.006	2e-05	0	4.5	-0.006	2e-05	0
773	4.5	-0.004	0	0	4.5	-0.004	0	0
774	4.5	-0.002	0	0	4.5	-0.002	0	0
775	4.5	0.008	-2e-05	0	4.5	0.008	-2e-05	0
776	4.5	0.01	-2e-05	0	4.5	0.01	-2e-05	0
777	4.5	0.018	-2e-05	0	4.5	0.018	-2e-05	0
778	5	-0.064	6e-05	0	5	-0.064	6e-05	0
779	5	-0.06	6e-05	0	5	-0.06	6e-05	0
780	5	-0.058	6e-05	0	5	-0.058	6e-05	0
781	5	-0.055	6e-05	0	5	-0.055	6e-05	0
782	5	-0.046	6e-05	0	5	-0.046	6e-05	0
783	5	-0.044	4e-05	0	5	-0.044	4e-05	0
784	5	-0.041	4e-05	0	5	-0.041	4e-05	0
785	5	-0.04	6e-05	0	5	-0.04	6e-05	0
786	5	-0.039	4e-05	0	5	-0.039	4e-05	0
787	5	-0.032	2e-05	0	5	-0.032	2e-05	0
788	5	-0.032	4e-05	0	5	-0.032	4e-05	0
789	5	-0.031	2e-05	0	5	-0.031	2e-05	0
790	5	-0.03	2e-05	0	5	-0.03	2e-05	0
791	5	-0.029	2e-05	0	5	-0.029	2e-05	0
792	5	-0.028	2e-05	0	5	-0.028	2e-05	0
793	5	-0.027	2e-05	0	5	-0.027	2e-05	0
794	5	-0.027	4e-05	0	5	-0.027	4e-05	0
795	5	-0.026	2e-05	0	5	-0.026	2e-05	0
796	5	-0.025	2e-05	0	5	-0.025	2e-05	0
797	5	-0.022	2e-05	0	5	-0.022	2e-05	0
798	5	-0.021	2e-05	0	5	-0.021	2e-05	0
799	5	-0.02	2e-05	0	5	-0.02	2e-05	0
800	5	-0.019	2e-05	0	5	-0.019	2e-05	0
801	5	-0.017	2e-05	0	5	-0.017	2e-05	0
802	5	-0.014	0	0	5	-0.014	0	0
803	5	-0.011	0	0	5	-0.011	0	0
804	5	-0.009	0	0	5	-0.009	0	0
805	5	-0.007	0	0	5	-0.007	0	0
806	5	-0.003	0	0	5	-0.003	0	0
807	5	-0.001	0	0	5	-0.001	0	0
808	5	0.007	0	0	5	0.007	0	0
809	5.5	-0.061	6e-05	0	5.5	-0.061	6e-05	0
810	5.5	-0.049	4e-05	0	5.5	-0.049	4e-05	0
811	5.5	-0.049	6e-05	0	5.5	-0.049	6e-05	0
812	5.5	-0.048	4e-05	0	5.5	-0.048	4e-05	0
813	5.5	-0.047	4e-05	0	5.5	-0.047	4e-05	0
814	5.5	-0.046	4e-05	0	5.5	-0.046	4e-05	0
815	5.5	-0.046	6e-05	0	5.5	-0.046	6e-05	0
816	5.5	-0.044	4e-05	0	5.5	-0.044	4e-05	0
817	5.5	-0.043	4e-05	0	5.5	-0.043	4e-05	0
818	5.5	-0.041	6e-05	0	5.5	-0.041	6e-05	0
819	5.5	-0.04	4e-05	0	5.5	-0.04	4e-05	0
820	5.5	-0.039	2e-05	0	5.5	-0.039	2e-05	0
821	5.5	-0.038	4e-05	0	5.5	-0.038	4e-05	0
822	5.5	-0.037	4e-05	0	5.5	-0.037	4e-05	0
823	5.5	-0.036	2e-05	0	5.5	-0.036	2e-05	0
824	5.5	-0.035	4e-05	0	5.5	-0.035	4e-05	0
825	5.5	-0.032	4e-05	0	5.5	-0.032	4e-05	0
826	5.5	-0.029	2e-05	0	5.5	-0.029	2e-05	0
827	5.5	-0.028	2e-05	0	5.5	-0.028	2e-05	0
828	5.5	-0.027	2e-05	0	5.5	-0.027	2e-05	0
829	5.5	-0.024	2e-05	0	5.5	-0.024	2e-05	0
830	5.5	-0.023	2e-05	0	5.5	-0.023	2e-05	0
831	5.5	-0.019	2e-05	0	5.5	-0.019	2e-05	0
832	5.5	-0.012	2e-05	0	5.5	-0.012	2e-05	0
833	5.5	-0.01	0	0	5.5	-0.01	0	0
834	5.5	-0.002	0	0	5.5	-0.002	0	0
835	5.5	0.003	-2e-05	0	5.5	0.003	-2e-05	0
836	5.5	0.004	-2e-05	0	5.5	0.004	-2e-05	0
837	5.5	0.009	-2e-05	0	5.5	0.009	-2e-05	0
838	6	-0.062	6e-05	0	6	-0.062	6e-05	0
839	6	-0.049	4e-05	0	6	-0.049	4e-05	0
840	6	-0.048	4e-05	0	6	-0.048	4e-05	0
841	6	-0.047	4e-05	0	6	-0.047	4e-05	0
842	6	-0.046	6e-05	0	6	-0.046	6e-05	0
843	6	-0.045	4e-05	0	6	-0.045	4e-05	0
844	6	-0.042	4e-05	0	6	-0.042	4e-05	0
845	6	-0.04	4e-05	0	6	-0.04	4e-05	0
846	6	-0.039	4e-05	0	6	-0.039	4e-05	0
847	6	-0.036	2e-05	0	6	-0.036	2e-05	0
848	6	-0.033	2e-05	0	6	-0.033	2e-05	0
849	6	-0.032	4e-05	0	6	-0.032	4e-05	0
850	6	-0.031	2e-05	0	6	-0.031	2e-05	0
851	6	-0.03	2e-05	0	6	-0.03	2e-05	0
852	6	-0.029	2e-05	0	6	-0.029	2e-05	0
853	6	-0.028	2e-05	0	6	-0.028	2e-05	0
854	6	-0.026	2e-05	0	6	-0.026	2e-05	0
855	6	-0.024	0	0	6	-0.024	0	0
856	6	-0.023	2e-05	0	6	-0.023	2e-05	0
857	6	-0.021	2e-05	0	6	-0.021	2e-05	0
858	6	-0.018	0	0	6	-0.018	0	0
859	6	-0.017	0	0	6	-0.017	0	0
860	6	-0.015	0	0	6	-0.015	0	0
861	6	-0.015	2e-05	0	6	-0.015	2e-05	0
862	6	-0.013	2e-05	0	6	-0.013	2e-05	0
863	6	-0.002	0	0	6	-0.002	0	0
864	6.5	-0.065	6e-05	0	6.5	-0.065	6e-05	0
865	6.5	-0.062	6e-05	0	6.5	-0.062	6e-05	0
866	6.5	-0.059	6e-05	0	6.5	-0.059	6e-05	0
867	6.5	-0.052	4e-05	0	6.5	-0.052	4e-05	0
868	6.5	-0.051	6e-05	0	6.5	-0.051	6e-05	0
869	6.5	-0.048	4e-05	0	6.5	-0.048	4e-05	0
870	6.5	-0.047	4e-05	0	6.5	-0.047	4e-05	0
871	6.5	-0.04	4e-05	0	6.5	-0.04	4e-05	0
872	6.5	-0.039	2e-05	0	6.5	-0.039	2e-05	0
873	6.5	-0.036	4e-05	0	6.5	-0.036	4e-05	0
874	6.5	-0.034	2e-05	0	6.5	-0.034	2e-05	0
875	6.5	-0.032	2e-05	0	6.5	-0.032	2e-05	0
876	6.5	-0.03	4e-05	0	6.5	-0.03	4e-05	0
877	6.5	-0.026	2e-05	0	6.5	-0.026	2e-05	0
878	6.5	-0.023	2e-05	0	6.5	-0.023	2e-05	0
879	6.5	-0.02	2e-05	0	6.5	-0.02	2e-05	0
880	6.5	-0.019	0	0	6.5	-0.019	0	0
881	6.5	-0.018	0	0	6.5	-0.018	0	0
882	6.5	-0.015	0	0	6.5	-0.015	0	0
883	6.5	-0.011	0	0	6.5	-0.011	0	0
884	6.5	-0.007	0	0	6.5	-0.007	0	0
885	7	-0.077	8e-05	0	7	-0.077	8e-05	0
886	7	-0.068	6e-05	0	7	-0.068	6e-05	0
887	7	-0.059	6e-05	0	7	-0.059	6e-05	0
888	7	-0.058	6e-05	0	7	-0.058	6e-05	0
889	7	-0.054	6e-05	0	7	-0.054	6e-05	0
890	7	-0.052	4e-05	0	7	-0.052	4e-05	0
891	7	-0.052	6e-05	0	7	-0.052	6e-05	0
892	7	-0.049	4e-05	0	7	-0.049	4e-05	0
893	7	-0.049	6e-05	0	7	-0.049	6e-05	0
894	7	-0.047	4e-05	0	7	-0.047	4e-05	0
895	7	-0.046	4e-05	0	7	-0.046	4e-05	0
896	7	-0.045	4e-05	0	7	-0.045	4e-05	0
897	7	-0.044	4e-05	0	7	-0.044	4e-05	0
898	7	-0.041	4e-05	0	7	-0.041	4e-05	0
899	7	-0.04	2e-05	0	7	-0.04	2e-05	0
900	7	-0.036	2e-05	0	7	-0.036	2e-05	0
901	7	-0.031	4e-05	0	7	-0.031	4e-05	0
902	7	-0.029	2e-05	0	7	-0.029	2e-05	0
903	7	-0.028	2e-05	0	7	-0.028	2e-05	0
904	7	-0.026	2e-05	0	7	-0.026	2e-05	0
905	7	-0.024	2e-05	0	7	-0.024	2e-05	0
906	7	-0.023	2e-05	0	7	-0.023	2e-05	0
907	7	-0.02	2e-05	0	7	-0.02	2e-05	0
908	7	-0.019	0	0	7	-0.019	0	0
909	7	-0.017	0	0	7	-0.017	0	0
910	7	-0.008	0	0	7	-0.008	0	0
911	7	-0.005	-2e-05	0	7	-0.005	-2e-05	0
912	7.5	-0.069	6e-05	0	7.5	-0.069	6e-05	0
913	7.5	-0.066	6e-05	0	7.5	-0.066	6e-05	0
914	7.5	-0.065	6e-05	0	7.5	-0.065	6e-05	0
915	7.5	-0.059	6e-05	0	7.5	-0.059	6e-05	0
916	7.5	-0.057	6e-05	0	7.5	-0.057	6e-05	0
917	7.5	-0.055	6e-05	0	7.5	-0.055	6e-05	0
918	7.5	-0.054	6e-05	0	7.5	-0.054	6e-05	0
919	7.5	-0.052	4e-05	0	7.5	-0.052	4e-05	0
920	7.5	-0.049	4e-05	0	7.5	-0.049	4e-05	0
921	7.5	-0.047	4e-05	0	7.5	-0.047	4e-05	0
922	7.5	-0.046	4e-05	0	7.5	-0.046	4e-05	0
923	7.5	-0.044	4e-05	0	7.5	-0.044	4e-05	0
924	7.5	-0.042	4e-05	0	7.5	-0.042	4e-05	0
925	7.5	-0.038	2e-05	0	7.5	-0.038	2e-05	0
926	7.5	-0.036	2e-05	0	7.5	-0.036	2e-05	0
927	7.5	-0.034	2e-05	0	7.5	-0.034	2e-05	0
928	7.5	-0.032	2e-05	0	7.5	-0.032	2e-05	0
929	7.5	-0.028	2e-05	0	7.5	-0.028	2e-05	0
930	7.5	-0.024	2e-05	0	7.5	-0.024	2e-05	0
931	7.5	-0.021	2e-05	0	7.5	-0.021	2e-05	0
932	7.5	-0.02	2e-05	0	7.5	-0.02	2e-05	0
933	7.5	-0.013	0	0	7.5	-0.013	0	0
934	7.5	-0.01	0	0	7.5	-0.01	0	0
935	8	-0.079	8e-05	0	8	-0.079	8e-05	0
936	8	-0.07	8e-05	0	8	-0.07	8e-05	0
937	8	-0.069	6e-05	0	8	-0.069	6e-05	0
938	8	-0.068	6e-05	0	8	-0.068	6e-05	0
939	8	-0.067	6e-05	0	8	-0.067	6e-05	0
940	8	-0.062	6e-05	0	8	-0.062	6e-05	0
941	8	-0.061	6e-05	0	8	-0.061	6e-05	0
942	8	-0.056	4e-05	0	8	-0.056	4e-05	0
943	8	-0.053	6e-05	0	8	-0.053	6e-05	0
944	8	-0.05	4e-05	0	8	-0.05	4e-05	0
945	8	-0.05	6e-05	0	8	-0.05	6e-05	0
946	8	-0.048	6e-05	0	8	-0.048	6e-05	0
947	8	-0.045	6e-05	0	8	-0.045	6e-05	0
948	8	-0.042	4e-05	0	8	-0.042	4e-05	0
949	8	-0.035	2e-05	0	8	-0.035	2e-05	0
950	8	-0.035	4e-05	0	8	-0.035	4e-05	0
951	8	-0.034	4e-05	0	8	-0.034	4e-05	0
952	8	-0.03	2e-05	0	8	-0.03	2e-05	0
953	8	-0.029	2e-05	0	8	-0.029	2e-05	0
954	8	-0.028	2e-05	0	8	-0.028	2e-05	0
955	8	-0.023	2e-05	0	8	-0.023	2e-05	0
956	8	-0.021	0	0	8	-0.021	0	0
957	8	-0.019	0	0	8	-0.019	0	0
958	8	-0.014	0	0	8	-0.014	0	0
959	8	-0.009	0	0	8	-0.009	0	0
960	8	-0.007	0	0	8	-0.007	0	0
961	8.5	-0.073	8e-05	0	8.5	-0.073	8e-05	0
962	8.5	-0.07	6e-05	0	8.5	-0.07	6e-05	0
963	8.5	-0.069	6e-05	0	8.5	-0.069	6e-05	0
964	8.5	-0.066	6e-05	0	8.5	-0.066	6e-05	0
965	8.5	-0.064	6e-05	0	8.5	-0.064	6e-05	0
966	8.5	-0.056	4e-05	0	8.5	-0.056	4e-05	0
967	8.5	-0.054	6e-05	0	8.5	-0.054	6e-05	0
968	8.5	-0.051	4e-05	0	8.5	-0.051	4e-05	0
969	8.5	-0.049	4e-05	0	8.5	-0.049	4e-05	0
970	8.5	-0.048	4e-05	0	8.5	-0.048	4e-05	0
971	8.5	-0.047	4e-05	0	8.5	-0.047	4e-05	0
972	8.5	-0.043	4e-05	0	8.5	-0.043	4e-05	0
973	8.5	-0.039	2e-05	0	8.5	-0.039	2e-05	0
974	8.5	-0.038	2e-05	0	8.5	-0.038	2e-05	0
975	8.5	-0.035	2e-05	0	8.5	-0.035	2e-05	0
976	8.5	-0.034	4e-05	0	8.5	-0.034	4e-05	0
977	8.5	-0.03	2e-05	0	8.5	-0.03	2e-05	0
978	8.5	-0.029	2e-05	0	8.5	-0.029	2e-05	0
979	8.5	-0.028	2e-05	0	8.5	-0.028	2e-05	0
980	8.5	-0.027	2e-05	0	8.5	-0.027	2e-05	0
981	8.5	-0.026	2e-05	0	8.5	-0.026	2e-05	0
982	9	-0.076	8e-05	0	9	-0.076	8e-05	0
983	9	-0.073	8e-05	0	9	-0.073	8e-05	0
984	9	-0.069	6e-05	0	9	-0.069	6e-05	0
985	9	-0.068	6e-05	0	9	-0.068	6e-05	0
986	9	-0.068	8e-05	0	9	-0.068	8e-05	0
987	9	-0.064	6e-05	0	9	-0.064	6e-05	0
988	9	-0.054	4e-05	0	9	-0.054	4e-05	0
989	9	-0.053	4e-05	0	9	-0.053	4e-05	0
990	9	-0.05	4e-05	0	9	-0.05	4e-05	0
991	9	-0.048	4e-05	0	9	-0.048	4e-05	0
992	9	-0.047	4e-05	0	9	-0.047	4e-05	0
993	9	-0.032	2e-05	0	9	-0.032	2e-05	0
994	9	-0.032	4e-05	0	9	-0.032	4e-05	0
995	9	-0.031	2e-05	0	9	-0.031	2e-05	0
996	9	-0.028	2e-05	0	9	-0.028	2e-05	0
997	9	-0.023	0	0	9	-0.023	0	0
998	9	-0.018	0	0	9	-0.018	0	0
999	-9	0.042	-4e-05	0	-9	0.042	-4e-05	0
1000	-9	0.045	-4e-05	0	-9	0.045	-4e-05	0
1001	-9	0.046	-6e-05	0	-9	0.046	-6e-05	0
1002	-9	0.049	-4e-05	0	-9	0.049	-4e-05	0
1003	-9	0.059	-6e-05	0	-9	0.059	-6e-05	0
1004	-9	0.059	-4e-05	0	-9	0.059	-4e-05	0
1005	-9	0.063	-6e-05	0	-9	0.063	-6e-05	0
1006	-9	0.064	-6e-05	0	-9	0.064	-6e-05	0
1007	-9	0.067	-6e-05	0	-9	0.067	-6e-05	0
1008	-9	0.068	-8e-05	0	-9	0.068	-8e-05	0
1009	-9	0.072	-8e-05	0	-9	0.072	-8e-05	0
1010	-8.5	0.027	-2e-05	0	-8.5	0.027	-2e-05	0
1011	-8.5	0.029	-2e-05	0	-8.5	0.029	-2e-05	0
1012	-8.5	0.034	-4e-05	0	-8.5	0.034	-4e-05	0
1013	-8.5	0.039	-4e-05	0	-8.5	0.039	-4e-05	0
1014	-8.5	0.042	-4e-05	0	-8.5	0.042	-4e-05	0
1015	-8.5	0.059	-6e-05	0	-8.5	0.059	-6e-05	0
1016	-8.5	0.066	-6e-05	0	-8.5	0.066	-6e-05	0
1017	-8.5	0.067	-6e-05	0	-8.5	0.067	-6e-05	0
1018	-8.5	0.069	-6e-05	0	-8.5	0.069	-6e-05	0
1019	-8.5	0.071	-6e-05	0	-8.5	0.071	-6e-05	0
1020	-8	0.009	0	0	-8	0.009	0	0
1021	-8	0.022	0	0	-8	0.022	0	0
1022	-8	0.026	-2e-05	0	-8	0.026	-2e-05	0
1023	-8	0.035	-4e-05	0	-8	0.035	-4e-05	0
1024	-8	0.038	-4e-05	0	-8	0.038	-4e-05	0
1025	-8	0.042	-2e-05	0	-8	0.042	-2e-05	0
1026	-8	0.046	-4e-05	0	-8	0.046	-4e-05	0
1027	-8	0.047	-4e-05	0	-8	0.047	-4e-05	0
1028	-8	0.051	-4e-05	0	-8	0.051	-4e-05	0
1029	-8	0.058	-6e-05	0	-8	0.058	-6e-05	0
1030	-8	0.062	-6e-05	0	-8	0.062	-6e-05	0
1031	-8	0.063	-6e-05	0	-8	0.063	-6e-05	0
1032	-8	0.065	-6e-05	0	-8	0.065	-6e-05	0
1033	-8	0.066	-6e-05	0	-8	0.066	-6e-05	0
1034	-7.5	0.001	2e-05	0	-7.5	0.001	2e-05	0
1035	-7.5	0.003	2e-05	0	-7.5	0.003	2e-05	0
1036	-7.5	0.011	0	0	-7.5	0.011	0	0
1037	-7.5	0.017	0	0	-7.5	0.017	0	0
1038	-7.5	0.022	-2e-05	0	-7.5	0.022	-2e-05	0
1039	-7.5	0.024	-2e-05	0	-7.5	0.024	-2e-05	0
1040	-7.5	0.026	-2e-05	0	-7.5	0.026	-2e-05	0
1041	-7.5	0.027	-2e-05	0	-7.5	0.027	-2e-05	0
1042	-7.5	0.028	-2e-05	0	-7.5	0.028	-2e-05	0
1043	-7.5	0.029	-2e-05	0	-7.5	0.029	-2e-05	0
1044	-7.5	0.034	-4e-05	0	-7.5	0.034	-4e-05	0
1045	-7.5	0.036	-4e-05	0	-7.5	0.036	-4e-05	0
1046	-7.5	0.036	-2e-05	0	-7.5	0.036	-2e-05	0
1047	-7.5	0.04	-4e-05	0	-7.5	0.04	-4e-05	0
1048	-7.5	0.044	-4e-05	0	-7.5	0.044	-4e-05	0
1049	-7.5	0.045	-6e-05	0	-7.5	0.045	-6e-05	0
1050	-7.5	0.05	-4e-05	0	-7.5	0.05	-4e-05	0
1051	-7.5	0.053	-6e-05	0	-7.5	0.053	-6e-05	0
1052	-7.5	0.054	-6e-05	0	-7.5	0.054	-6e-05	0
1053	-7.5	0.055	-6e-05	0	-7.5	0.055	-6e-05	0
1054	-7.5	0.057	-6e-05	0	-7.5	0.057	-6e-05	0
1055	-7.5	0.06	-6e-05	0	-7.5	0.06	-6e-05	0
1056	-7.5	0.069	-6e-05	0	-7.5	0.069	-6e-05	0
1057	-7.5	0.072	-8e-05	0	-7.5	0.072	-8e-05	0
1058	-7.5	0.074	-8e-05	0	-7.5	0.074	-8e-05	0
1059	-7	0.006	0	0	-7	0.006	0	0
1060	-7	0.015	-2e-05	0	-7	0.015	-2e-05	0
1061	-7	0.025	0	0	-7	0.025	0	0
1062	-7	0.026	-2e-05	0	-7	0.026	-2e-05	0
1063	-7	0.029	-2e-05	0	-7	0.029	-2e-05	0
1064	-7	0.032	-2e-05	0	-7	0.032	-2e-05	0
1065	-7	0.033	-2e-05	0	-7	0.033	-2e-05	0
1066	-7	0.036	-2e-05	0	-7	0.036	-2e-05	0
1067	-7	0.038	-2e-05	0	-7	0.038	-2e-05	0
1068	-7	0.04	-2e-05	0	-7	0.04	-2e-05	0
1069	-7	0.042	-4e-05	0	-7	0.042	-4e-05	0
1070	-7	0.044	-6e-05	0	-7	0.044	-6e-05	0
1071	-7	0.045	-4e-05	0	-7	0.045	-4e-05	0
1072	-7	0.047	-4e-05	0	-7	0.047	-4e-05	0
1073	-7	0.053	-6e-05	0	-7	0.053	-6e-05	0
1074	-7	0.055	-6e-05	0	-7	0.055	-6e-05	0
1075	-7	0.056	-6e-05	0	-7	0.056	-6e-05	0
1076	-7	0.057	-6e-05	0	-7	0.057	-6e-05	0
1077	-7	0.058	-6e-05	0	-7	0.058	-6e-05	0
1078	-7	0.059	-6e-05	0	-7	0.059	-6e-05	0
1079	-7	0.061	-8e-05	0	-7	0.061	-8e-05	0
1080	-7	0.063	-6e-05	0	-7	0.063	-6e-05	0
1081	-6.5	0.005	0	0	-6.5	0.005	0	0
1082	-6.5	0.011	0	0	-6.5	0.011	0	0
1083	-6.5	0.021	-2e-05	0	-6.5	0.021	-2e-05	0
1084	-6.5	0.024	-2e-05	0	-6.5	0.024	-2e-05	0
1085	-6.5	0.025	-2e-05	0	-6.5	0.025	-2e-05	0
1086	-6.5	0.028	-2e-05	0	-6.5	0.028	-2e-05	0
1087	-6.5	0.029	-2e-05	0	-6.5	0.029	-2e-05	0
1088	-6.5	0.032	-4e-05	0	-6.5	0.032	-4e-05	0
1089	-6.5	0.033	-4e-05	0	-6.5	0.033	-4e-05	0
1090	-6.5	0.038	-4e-05	0	-6.5	0.038	-4e-05	0
1091	-6.5	0.04	-4e-05	0	-6.5	0.04	-4e-05	0
1092	-6.5	0.046	-4e-05	0	-6.5	0.046	-4e-05	0
1093	-6.5	0.047	-4e-05	0	-6.5	0.047	-4e-05	0
1094	-6.5	0.049	-4e-05	0	-6.5	0.049	-4e-05	0
1095	-6.5	0.05	-6e-05	0	-6.5	0.05	-6e-05	0
1096	-6.5	0.05	-4e-05	0	-6.5	0.05	-4e-05	0
1097	-6.5	0.052	-6e-05	0	-6.5	0.052	-6e-05	0
1098	-6.5	0.057	-6e-05	0	-6.5	0.057	-6e-05	0
1099	-6.5	0.064	-8e-05	0	-6.5	0.064	-8e-05	0
1100	-6	0.003	0	0	-6	0.003	0	0
1101	-6	0.008	0	0	-6	0.008	0	0
1102	-6	0.01	0	0	-6	0.01	0	0
1103	-6	0.02	0	0	-6	0.02	0	0
1104	-6	0.022	-2e-05	0	-6	0.022	-2e-05	0
1105	-6	0.023	-2e-05	0	-6	0.023	-2e-05	0
1106	-6	0.026	-2e-05	0	-6	0.026	-2e-05	0
1107	-6	0.029	-2e-05	0	-6	0.029	-2e-05	0
1108	-6	0.03	-2e-05	0	-6	0.03	-2e-05	0
1109	-6	0.031	-2e-05	0	-6	0.031	-2e-05	0
1110	-6	0.038	-4e-05	0	-6	0.038	-4e-05	0
1111	-6	0.04	-4e-05	0	-6	0.04	-4e-05	0
1112	-6	0.042	-6e-05	0	-6	0.042	-6e-05	0
1113	-6	0.042	-4e-05	0	-6	0.042	-4e-05	0
1114	-6	0.044	-4e-05	0	-6	0.044	-4e-05	0
1115	-6	0.045	-4e-05	0	-6	0.045	-4e-05	0
1116	-6	0.047	-6e-05	0	-6	0.047	-6e-05	0
1117	-6	0.047	-4e-05	0	-6	0.047	-4e-05	0
1118	-6	0.048	-4e-05	0	-6	0.048	-4e-05	0
1119	-6	0.049	-4e-05	0	-6	0.049	-4e-05	0
1120	-6	0.05	-4e-05	0	-6	0.05	-4e-05	0
1121	-6	0.053	-6e-05	0	-6	0.053	-6e-05	0
1122	-5.5	-0.004	2e-05	0	-5.5	-0.004	2e-05	0
1123	-5.5	0.003	2e-05	0	-5.5	0.003	2e-05	0
1124	-5.5	0.01	0	0	-5.5	0.01	0	0
1125	-5.5	0.015	-2e-05	0	-5.5	0.015	-2e-05	0
1126	-5.5	0.019	-2e-05	0	-5.5	0.019	-2e-05	0
1127	-5.5	0.019	0	0	-5.5	0.019	0	0
1128	-5.5	0.023	-2e-05	0	-5.5	0.023	-2e-05	0
1129	-5.5	0.027	-2e-05	0	-5.5	0.027	-2e-05	0
1130	-5.5	0.032	-4e-05	0	-5.5	0.032	-4e-05	0
1131	-5.5	0.032	-2e-05	0	-5.5	0.032	-2e-05	0
1132	-5.5	0.033	-2e-05	0	-5.5	0.033	-2e-05	0
1133	-5.5	0.035	-2e-05	0	-5.5	0.035	-2e-05	0
1134	-5.5	0.038	-4e-05	0	-5.5	0.038	-4e-05	0
1135	-5.5	0.039	-4e-05	0	-5.5	0.039	-4e-05	0
1136	-5.5	0.04	-4e-05	0	-5.5	0.04	-4e-05	0
1137	-5.5	0.043	-6e-05	0	-5.5	0.043	-6e-05	0
1138	-5.5	0.05	-4e-05	0	-5.5	0.05	-4e-05	0
1139	-5.5	0.059	-6e-05	0	-5.5	0.059	-6e-05	0
1140	-5	-0.004	2e-05	0	-5	-0.004	2e-05	0
1141	-5	-0.002	2e-05	0	-5	-0.002	2e-05	0
1142	-5	0	2e-05	0	-5	0	2e-05	0
1143	-5	0.002	2e-05	0	-5	0.002	2e-05	0
1144	-5	0.007	0	0	-5	0.007	0	0
1145	-5	0.009	0	0	-5	0.009	0	0
1146	-5	0.011	-2e-05	0	-5	0.011	-2e-05	0
1147	-5	0.012	0	0	-5	0.012	0	0
1148	-5	0.013	0	0	-5	0.013	0	0
1149	-5	0.014	-2e-05	0	-5	0.014	-2e-05	0
1150	-5	0.017	0	0	-5	0.017	0	0
1151	-5	0.023	-2e-05	0	-5	0.023	-2e-05	0
1152	-5	0.024	-2e-05	0	-5	0.024	-2e-05	0
1153	-5	0.026	-2e-05	0	-5	0.026	-2e-05	0
1154	-5	0.028	-4e-05	0	-5	0.028	-4e-05	0
1155	-5	0.028	-2e-05	0	-5	0.028	-2e-05	0
1156	-5	0.034	-4e-05	0	-5	0.034	-4e-05	0
1157	-5	0.036	-4e-05	0	-5	0.036	-4e-05	0
1158	-5	0.036	-2e-05	0	-5	0.036	-2e-05	0
1159	-5	0.038	-4e-05	0	-5	0.038	-4e-05	0
1160	-5	0.039	-4e-05	0	-5	0.039	-4e-05	0
1161	-5	0.041	-4e-05	0	-5	0.041	-4e-05	0
1162	-5	0.044	-4e-05	0	-5	0.044	-4e-05	0
1163	-5	0.047	-4e-05	0	-5	0.047	-4e-05	0
1164	-5	0.05	-6e-05	0	-5	0.05	-6e-05	0
1165	-5	0.063	-6e-05	0	-5	0.063	-6e-05	0
1166	-4.5	-0.005	2e-05	0	-4.5	-0.005	2e-05	0
1167	-4.5	-0.001	2e-05	0	-4.5	-0.001	2e-05	0
1168	-4.5	0.001	0	0	-4.5	0.001	0	0
1169	-4.5	0.003	0	0	-4.5	0.003	0	0
1170	-4.5	0.005	0	0	-4.5	0.005	0	0
1171	-4.5	0.008	0	0	-4.5	0.008	0	0
1172	-4.5	0.01	0	0	-4.5	0.01	0	0
1173	-4.5	0.015	-2e-05	0	-4.5	0.015	-2e-05	0
1174	-4.5	0.017	0	0	-4.5	0.017	0	0
1175	-4.5	0.019	-2e-05	0	-4.5	0.019	-2e-05	0
1176	-4.5	0.02	-2e-05	0	-4.5	0.02	-2e-05	0
1177	-4.5	0.021	-2e-05	0	-4.5	0.021	-2e-05	0
1178	-4.5	0.021	0	0	-4.5	0.021	0	0
1179	-4.5	0.026	-2e-05	0	-4.5	0.026	-2e-05	0
1180	-4.5	0.028	-4e-05	0	-4.5	0.028	-4e-05	0
1181	-4.5	0.029	-2e-05	0	-4.5	0.029	-2e-05	0
1182	-4.5	0.03	-2e-05	0	-4.5	0.03	-2e-05	0
1183	-4.5	0.033	-2e-05	0	-4.5	0.033	-2e-05	0
1184	-4.5	0.034	-4e-05	0	-4.5	0.034	-4e-05	0
1185	-4.5	0.036	-4e-05	0	-4.5	0.036	-4e-05	0
1186	-4.5	0.038	-4e-05	0	-4.5	0.038	-4e-05	0
1187	-4.5	0.038	-2e-05	0	-4.5	0.038	-2e-05	0
1188	-4.5	0.039	-4e-05	0	-4.5	0.039	-4e-05	0
1189	-4.5	0.042	-4e-05	0	-4.5	0.042	-4e-05	0
1190	-4.5	0.044	-4e-05	0	-4.5	0.044	-4e-05	0
1191	-4.5	0.052	-6e-05	0	-4.5	0.052	-6e-05	0
1192	-4.5	0.059	-6e-05	0	-4.5	0.059	-6e-05	0
1193	-4	-0.016	2e-05	0	-4	-0.016	2e-05	0
1194	-4	-0.015	2e-05	0	-4	-0.015	2e-05	0
1195	-4	-0.012	2e-05	0	-4	-0.012	2e-05	0
1196	-4	-0.01	2e-05	0	-4	-0.01	2e-05	0
1197	-4	-0.009	2e-05	0	-4	-0.009	2e-05	0
1198	-4	-0.008	2e-05	0	-4	-0.008	2e-05	0
1199	-4	0.001	0	0	-4	0.001	0	0
1200	-4	0.003	0	0	-4	0.003	0	0
1201	-4	0.004	0	0	-4	0.004	0	0
1202	-4	0.005	0	0	-4	0.005	0	0
1203	-4	0.006	0	0	-4	0.006	0	0
1204	-4	0.01	0	0	-4	0.01	0	0
1205	-4	0.013	0	0	-4	0.013	0	0
1206	-4	0.014	0	0	-4	0.014	0	0
1207	-4	0.017	-2e-05	0	-4	0.017	-2e-05	0
1208	-4	0.018	-2e-05	0	-4	0.018	-2e-05	0
1209	-4	0.021	-2e-05	0	-4	0.021	-2e-05	0
1210	-4	0.022	-2e-05	0	-4	0.022	-2e-05	0
1211	-4	0.022	0	0	-4	0.022	0	0
1212	-4	0.025	-2e-05	0	-4	0.025	-2e-05	0
1213	-4	0.026	-2e-05	0	-4	0.026	-2e-05	0
1214	-4	0.027	-4e-05	0	-4	0.027	-4e-05	0
1215	-4	0.027	-2e-05	0	-4	0.027	-2e-05	0
1216	-4	0.028	-2e-05	0	-4	0.028	-2e-05	0
1217	-4	0.029	-4e-05	0	-4	0.029	-4e-05	0
1218	-4	0.03	-4e-05	0	-4	0.03	-4e-05	0
1219	-4	0.031	-2e-05	0	-4	0.031	-2e-05	0
1220	-4	0.033	-2e-05	0	-4	0.033	-2e-05	0
1221	-4	0.034	-4e-05	0	-4	0.034	-4e-05	0
1222	-4	0.035	-4e-05	0	-4	0.035	-4e-05	0
1223	-4	0.035	-2e-05	0	-4	0.035	-2e-05	0
1224	-4	0.036	-2e-05	0	-4	0.036	-2e-05	0
1225	-4	0.04	-4e-05	0	-4	0.04	-4e-05	0
1226	-4	0.044	-4e-05	0	-4	0.044	-4e-05	0
1227	-4	0.045	-4e-05	0	-4	0.045	-4e-05	0
1228	-4	0.046	-4e-05	0	-4	0.046	-4e-05	0
1229	-4	0.049	-4e-05	0	-4	0.049	-4e-05	0
1230	-4	0.057	-6e-05	0	-4	0.057	-6e-05	0
1231	-4	0.06	-8e-05	0	-4	0.06	-8e-05	0
1232	-3.5	-0.004	2e-05	0	-3.5	-0.004	2e-05	0
1233	-3.5	0.005	0	0	-3.5	0.005	0	0
1234	-3.5	0.006	0	0	-3.5	0.006	0	0
1235	-3.5	0.008	0	0	-3.5	0.008	0	0
1236	-3.5	0.009	-2e-05	0	-3.5	0.009	-2e-05	0
1237	-3.5	0.014	-2e-05	0	-3.5	0.014	-2e-05	0
1238	-3.5	0.019	0	0	-3.5	0.019	0	0
1239	-3.5	0.02	-2e-05	0	-3.5	0.02	-2e-05	0
1240	-3.5	0.021	-2e-05	0	-3.5	0.021	-2e-05	0
1241	-3.5	0.022	-2e-05	0	-3.5	0.022	-2e-05	0
1242	-3.5	0.023	-4e-05	0	-3.5	0.023	-4e-05	0
1243	-3.5	0.023	-2e-05	0	-3.5	0.023	-2e-05	0
1244	-3.5	0.024	-2e-05	0	-3.5	0.024	-2e-05	0
1245	-3.5	0.025	-2e-05	0	-3.5	0.025	-2e-05	0
1246	-3.5	0.026	-4e-05	0	-3.5	0.026	-4e-05	0
1247	-3.5	0.026	-2e-05	0	-3.5	0.026	-2e-05	0
1248	-3.5	0.027	-4e-05	0	-3.5	0.027	-4e-05	0
1249	-3.5	0.027	-2e-05	0	-3.5	0.027	-2e-05	0
1250	-3.5	0.028	-4e-05	0	-3.5	0.028	-4e-05	0
1251	-3.5	0.035	-4e-05	0	-3.5	0.035	-4e-05	0
1252	-3.5	0.043	-4e-05	0	-3.5	0.043	-4e-05	0
1253	-3.5	0.061	-6e-05	0	-3.5	0.061	-6e-05	0
1254	-3	-0.031	4e-05	0	-3	-0.031	4e-05	0
1255	-3	-0.011	2e-05	0	-3	-0.011	2e-05	0
1256	-3	-0.01	0	0	-3	-0.01	0	0
1257	-3	-0.004	2e-05	0	-3	-0.004	2e-05	0
1258	-3	0.001	0	0	-3	0.001	0	0
1259	-3	0.003	0	0	-3	0.003	0	0
1260	-3	0.003	2e-05	0	-3	0.003	2e-05	0
1261	-3	0.004	0	0	-3	0.004	0	0
1262	-3	0.005	0	0	-3	0.005	0	0
1263	-3	0.006	0	0	-3	0.006	0	0
1264	-3	0.01	0	0	-3	0.01	0	0
1265	-3	0.011	0	0	-3	0.011	0	0
1266	-3	0.012	-2e-05	0	-3	0.012	-2e-05	0
1267	-3	0.015	-2e-05	0	-3	0.015	-2e-05	0
1268	-3	0.016	-2e-05	0	-3	0.016	-2e-05	0
1269	-3	0.016	0	0	-3	0.016	0	0
1270	-3	0.018	-2e-05	0	-3	0.018	-2e-05	0
1271	-3	0.02	-2e-05	0	-3	0.02	-2e-05	0
1272	-3	0.021	-2e-05	0	-3	0.021	-2e-05	0
1273	-3	0.023	-2e-05	0	-3	0.023	-2e-05	0
1274	-3	0.024	-2e-05	0	-3	0.024	-2e-05	0
1275	-3	0.025	-2e-05	0	-3	0.025	-2e-05	0
1276	-3	0.026	-2e-05	0	-3	0.026	-2e-05	0
1277	-3	0.027	-4e-05	0	-3	0.027	-4e-05	0
1278	-3	0.034	-4e-05	0	-3	0.034	-4e-05	0
1279	-3	0.035	-4e-05	0	-3	0.035	-4e-05	0
1280	-3	0.037	-4e-05	0	-3	0.037	-4e-05	0
1281	-3	0.038	-4e-05	0	-3	0.038	-4e-05	0
1282	-3	0.039	-4e-05	0	-3	0.039	-4e-05	0
1283	-3	0.043	-4e-05	0	-3	0.043	-4e-05	0
1284	-3	0.06	-6e-05	0	-3	0.06	-6e-05	0
1285	-2.5	-0.019	2e-05	0	-2.5	-0.019	2e-05	0
1286	-2.5	-0.015	4e-05	0	-2.5	-0.015	4e-05	0
1287	-2.5	-0.013	2e-05	0	-2.5	-0.013	2e-05	0
1288	-2.5	-0.004	0	0	-2.5	-0.004	0	0
1289	-2.5	-0.002	0	0	-2.5	-0.002	0	0
1290	-2.5	-0.002	2e-05	0	-2.5	-0.002	2e-05	0
1291	-2.5	0.001	0	0	-2.5	0.001	0	0
1292	-2.5	0.002	0	0	-2.5	0.002	0	0
1293	-2.5	0.003	0	0	-2.5	0.003	0	0
1294	-2.5	0.004	0	0	-2.5	0.004	0	0
1295	-2.5	0.005	0	0	-2.5	0.005	0	0
1296	-2.5	0.006	0	0	-2.5	0.006	0	0
1297	-2.5	0.007	0	0	-2.5	0.007	0	0
1298	-2.5	0.009	0	0	-2.5	0.009	0	0
1299	-2.5	0.01	0	0	-2.5	0.01	0	0
1300	-2.5	0.011	-2e-05	0	-2.5	0.011	-2e-05	0
1301	-2.5	0.015	-2e-05	0	-2.5	0.015	-2e-05	0
1302	-2.5	0.017	-2e-05	0	-2.5	0.017	-2e-05	0
1303	-2.5	0.02	-4e-05	0	-2.5	0.02	-4e-05	0
1304	-2.5	0.02	-2e-05	0	-2.5	0.02	-2e-05	0
1305	-2.5	0.021	-2e-05	0	-2.5	0.021	-2e-05	0
1306	-2.5	0.022	-4e-05	0	-2.5	0.022	-4e-05	0
1307	-2.5	0.023	-2e-05	0	-2.5	0.023	-2e-05	0
1308	-2.5	0.024	-2e-05	0	-2.5	0.024	-2e-05	0
1309	-2.5	0.025	-2e-05	0	-2.5	0.025	-2e-05	0
1310	-2.5	0.028	-4e-05	0	-2.5	0.028	-4e-05	0
1311	-2.5	0.03	-4e-05	0	-2.5	0.03	-4e-05	0
1312	-2.5	0.037	-4e-05	0	-2.5	0.037	-4e-05	0
1313	-2	-0.01	2e-05	0	-2	-0.01	2e-05	0
1314	-2	0.001	0	0	-2	0.001	0	0
1315	-2	0.002	2e-05	0	-2	0.002	2e-05	0
1316	-2	0.003	0	0	-2	0.003	0	0
1317	-2	0.006	0	0	-2	0.006	0	0
1318	-2	0.009	-2e-05	0	-2	0.009	-2e-05	0
1319	-2	0.012	0	0	-2	0.012	0	0
1320	-2	0.014	-2e-05	0	-2	0.014	-2e-05	0
1321	-2	0.015	-2e-05	0	-2	0.015	-2e-05	0
1322	-2	0.016	-2e-05	0	-2	0.016	-2e-05	0
1323	-2	0.019	-2e-05	0	-2	0.019	-2e-05	0
1324	-2	0.019	0	0	-2	0.019	0	0
1325	-2	0.022	-2e-05	0	-2	0.022	-2e-05	0
1326	-2	0.024	-2e-05	0	-2	0.024	-2e-05	0
1327	-2	0.025	-4e-05	0	-2	0.025	-4e-05	0
1328	-2	0.029	-4e-05	0	-2	0.029	-4e-05	0
1329	-2	0.058	-6e-05	0	-2	0.058	-6e-05	0
1330	-1.5	-0.035	4e-05	0	-1.5	-0.035	4e-05	0
1331	-1.5	-0.021	4e-05	0	-1.5	-0.021	4e-05	0
1332	-1.5	-0.019	2e-05	0	-1.5	-0.019	2e-05	0
1333	-1.5	-0.018	2e-05	0	-1.5	-0.018	2e-05	0
1334	-1.5	-0.015	2e-05	0	-1.5	-0.015	2e-05	0
1335	-1.5	-0.01	2e-05	0	-1.5	-0.01	2e-05	0
1336	-1.5	-0.005	0	0	-1.5	-0.005	0	0
1337	-1.5	-0.003	0	0	-1.5	-0.003	0	0
1338	-1.5	-0.002	0	0	-1.5	-0.002	0	0
1339	-1.5	-0.001	0	0	-1.5	-0.001	0	0
1340	-1.5	0.001	0	0	-1.5	0.001	0	0
1341	-1.5	0.001	2e-05	0	-1.5	0.001	2e-05	0
1342	-1.5	0.002	0	0	-1.5	0.002	0	0
1343	-1.5	0.004	0	0	-1.5	0.004	0	0
1344	-1.5	0.005	0	0	-1.5	0.005	0	0
1345	-1.5	0.007	0	0	-1.5	0.007	0	0
1346	-1.5	0.008	0	0	-1.5	0.008	0	0
1347	-1.5	0.015	-2e-05	0	-1.5	0.015	-2e-05	0
1348	-1.5	0.016	-2e-05	0	-1.5	0.016	-2e-05	0
1349	-1.5	0.018	-2e-05	0	-1.5	0.018	-2e-05	0
1350	-1.5	0.019	-2e-05	0	-1.5	0.019	-2e-05	0
1351	-1.5	0.02	-2e-05	0	-1.5	0.02	-2e-05	0
1352	-1.5	0.021	-4e-05	0	-1.5	0.021	-4e-05	0
1353	-1.5	0.022	-2e-05	0	-1.5	0.022	-2e-05	0
1354	-1.5	0.023	-2e-05	0	-1.5	0.023	-2e-05	0
1355	-1.5	0.025	-4e-05	0	-1.5	0.025	-4e-05	0
1356	-1.5	0.027	-2e-05	0	-1.5	0.027	-2e-05	0
1357	-1.5	0.033	-4e-05	0	-1.5	0.033	-4e-05	0
1358	-1.5	0.036	-4e-05	0	-1.5	0.036	-4e-05	0
1359	-1.5	0.045	-4e-05	0	-1.5	0.045	-4e-05	0
1360	-1	-0.034	4e-05	0	-1	-0.034	4e-05	0
1361	-1	-0.019	2e-05	0	-1	-0.019	2e-05	0
1362	-1	-0.018	2e-05	0	-1	-0.018	2e-05	0
1363	-1	-0.017	2e-05	0	-1	-0.017	2e-05	0
1364	-1	-0.011	2e-05	0	-1	-0.011	2e-05	0
1365	-1	-0.007	0	0	-1	-0.007	0	0
1366	-1	-0.007	2e-05	0	-1	-0.007	2e-05	0
1367	-1	-0.006	2e-05	0	-1	-0.006	2e-05	0
1368	-1	-0.004	0	0	-1	-0.004	0	0
1369	-1	-0.003	0	0	-1	-0.003	0	0
1370	-1	-0.002	0	0	-1	-0.002	0	0
1371	-1	-0.002	2e-05	0	-1	-0.002	2e-05	0
1372	-1	-0.001	0	0	-1	-0.001	0	0
1373	-1	0	0	0	-1	0	0	0
1374	-1	0.001	0	0	-1	0.001	0	0
1375	-1	0.002	0	0	-1	0.002	0	0
1376	-1	0.003	0	0	-1	0.003	0	0
1377	-1	0.004	-2e-05	0	-1	0.004	-2e-05	0
1378	-1	0.005	0	0	-1	0.005	0	0
1379	-1	0.007	-2e-05	0	-1	0.007	-2e-05	0
1380	-1	0.009	-2e-05	0	-1	0.009	-2e-05	0
1381	-1	0.01	-2e-05	0	-1	0.01	-2e-05	0
1382	-1	0.01	0	0	-1	0.01	0	0
1383	-1	0.011	-2e-05	0	-1	0.011	-2e-05	0
1384	-1	0.012	0	0	-1	0.012	0	0
1385	-1	0.015	-2e-05	0	-1	0.015	-2e-05	0
1386	-1	0.016	-2e-05	0	-1	0.016	-2e-05	0
1387	-1	0.017	-2e-05	0	-1	0.017	-2e-05	0
1388	-1	0.019	-4e-05	0	-1	0.019	-4e-05	0
1389	-1	0.019	-2e-05	0	-1	0.019	-2e-05	0
1390	-1	0.022	-4e-05	0	-1	0.022	-4e-05	0
1391	-1	0.022	-2e-05	0	-1	0.022	-2e-05	0
1392	-1	0.025	-2e-05	0	-1	0.025	-2e-05	0
1393	-0.5	-0.024	4e-05	0	-0.5	-0.024	4e-05	0
1394	-0.5	-0.016	0	0	-0.5	-0.016	0	0
1395	-0.5	-0.012	2e-05	0	-0.5	-0.012	2e-05	0
1396	-0.5	-0.01	2e-05	0	-0.5	-0.01	2e-05	0
1397	-0.5	-0.009	2e-05	0	-0.5	-0.009	2e-05	0
1398	-0.5	-0.007	0	0	-0.5	-0.007	0	0
1399	-0.5	-0.005	2e-05	0	-0.5	-0.005	2e-05	0
1400	-0.5	-0.004	0	0	-0.5	-0.004	0	0
1401	-0.5	-0.003	0	0	-0.5	-0.003	0	0
1402	-0.5	-0.002	0	0	-0.5	-0.002	0	0
1403	-0.5	-0.001	0	0	-0.5	-0.001	0	0
1404	-0.5	0	0	0	-0.5	0	0	0
1405	-0.5	0.001	0	0	-0.5	0.001	0	0
1406	-0.5	0.002	0	0	-0.5	0.002	0	0
1407	-0.5	0.003	0	0	-0.5	0.003	0	0
1408	-0.5	0.004	-2e-05	0	-0.5	0.004	-2e-05	0
1409	-0.5	0.005	0	0	-0.5	0.005	0	0
1410	-0.5	0.006	0	0	-0.5	0.006	0	0
1411	-0.5	0.007	0	0	-0.5	0.007	0	0
1412	-0.5	0.008	0	0	-0.5	0.008	0	0
1413	-0.5	0.009	-2e-05	0	-0.5	0.009	-2e-05	0
1414	-0.5	0.012	-2e-05	0	-0.5	0.012	-2e-05	0
1415	-0.5	0.014	0	0	-0.5	0.014	0	0
1416	-0.5	0.015	-2e-05	0	-0.5	0.015	-2e-05	0
1417	-0.5	0.015	0	0	-0.5	0.015	0	0
1418	-0.5	0.019	-2e-05	0	-0.5	0.019	-2e-05	0
1419	-0.5	0.02	-2e-05	0	-0.5	0.02	-2e-05	0
1420	-0.5	0.023	-2e-05	0	-0.5	0.023	-2e-05	0
1421	-0.5	0.028	-4e-05	0	-0.5	0.028	-4e-05	0
1422	-0.5	0.035	-4e-05	0	-0.5	0.035	-4e-05	0
1423	-0.5	0.036	-4e-05	0	-0.5	0.036	-4e-05	0
1424	0	-0.042	4e-05	0	0	-0.042	4e-05	0
1425	0	-0.036	4e-05	0	0	-0.036	4e-05	0
1426	0	-0.032	4e-05	0	0	-0.032	4e-05	0
1427	0	-0.028	4e-05	0	0	-0.028	4e-05	0
1428	0	-0.027	4e-05	0	0	-0.027	4e-05	0
1429	0	-0.019	2e-05	0	0	-0.019	2e-05	0
1430	0	-0.018	2e-05	0	0	-0.018	2e-05	0
1431	0	-0.017	2e-05	0	0	-0.017	2e-05	0
1432	0	-0.016	2e-05	0	0	-0.016	2e-05	0
1433	0	-0.015	2e-05	0	0	-0.015	2e-05	0
1434	0	-0.012	2e-05	0	0	-0.012	2e-05	0
1435	0	-0.01	2e-05	0	0	-0.01	2e-05	0
1436	0	-0.006	0	0	0	-0.006	0	0
1437	0	-0.006	2e-05	0	0	-0.006	2e-05	0
1438	0	-0.005	0	0	0	-0.005	0	0
1439	0	-0.003	0	0	0	-0.003	0	0
1440	0	-0.002	0	0	0	-0.002	0	0
1441	0	-0.001	0	0	0	-0.001	0	0
1442	0	0	0	0	0	0	0	0
1443	0	0.002	0	0	0	0.002	0	0
1444	0	0.003	0	0	0	0.003	0	0
1445	0	0.004	-2e-05	0	0	0.004	-2e-05	0
1446	0	0.005	-2e-05	0	0	0.005	-2e-05	0
1447	0	0.005	0	0	0	0.005	0	0
1448	0	0.008	-2e-05	0	0	0.008	-2e-05	0
1449	0	0.009	-2e-05	0	0	0.009	-2e-05	0
1450	0	0.01	0	0	0	0.01	0	0
1451	0	0.011	-2e-05	0	0	0.011	-2e-05	0
1452	0	0.014	-2e-05	0	0	0.014	-2e-05	0
1453	0	0.016	0	0	0	0.016	0	0
1454	0	0.019	-2e-05	0	0	0.019	-2e-05	0
1455	0	0.024	-4e-05	0	0	0.024	-4e-05	0
1456	0	0.025	-4e-05	0	0	0.025	-4e-05	0
1457	0	0.026	-4e-05	0	0	0.026	-4e-05	0
1458	0	0.036	-4e-05	0	0	0.036	-4e-05	0
1459	0.5	-0.041	4e-05	0	0.5	-0.041	4e-05	0
1460	0.5	-0.036	4e-05	0	0.5	-0.036	4e-05	0
1461	0.5	-0.034	4e-05	0	0.5	-0.034	4e-05	0
1462	0.5	-0.031	4e-05	0	0.5	-0.031	4e-05	0
1463	0.5	-0.024	2e-05	0	0.5	-0.024	2e-05	0
1464	0.5	-0.022	4e-05	0	0.5	-0.022	4e-05	0
1465	0.5	-0.021	2e-05	0	0.5	-0.021	2e-05	0
1466	0.5	-0.019	2e-05	0	0.5	-0.019	2e-05	0
1467	0.5	-0.017	2e-05	0	0.5	-0.017	2e-05	0
1468	0.5	-0.016	2e-05	0	0.5	-0.016	2e-05	0
1469	0.5	-0.015	0	0	0.5	-0.015	0	0
1470	0.5	-0.014	0	0	0.5	-0.014	0	0
1471	0.5	-0.013	2e-05	0	0.5	-0.013	2e-05	0
1472	0.5	-0.012	2e-05	0	0.5	-0.012	2e-05	0
1473	0.5	-0.01	0	0	0.5	-0.01	0	0
1474	0.5	-0.009	2e-05	0	0.5	-0.009	2e-05	0
1475	0.5	-0.007	0	0	0.5	-0.007	0	0
1476	0.5	-0.006	0	0	0.5	-0.006	0	0
1477	0.5	-0.005	0	0	0.5	-0.005	0	0
1478	0.5	-0.004	0	0	0.5	-0.004	0	0
1479	0.5	-0.003	0	0	0.5	-0.003	0	0
1480	0.5	-0.002	0	0	0.5	-0.002	0	0
1481	0.5	-0.001	0	0	0.5	-0.001	0	0
1482	0.5	0	0	0	0.5	0	0	0
1483	0.5	0.002	0	0	0.5	0.002	0	0
1484	0.5	0.003	-2e-05	0	0.5	0.003	-2e-05	0
1485	0.5	0.003	0	0	0.5	0.003	0	0
1486	0.5	0.004	0	0	0.5	0.004	0	0
1487	0.5	0.008	0	0	0.5	0.008	0	0
1488	0.5	0.009	-2e-05	0	0.5	0.009	-2e-05	0
1489	0.5	0.01	-2e-05	0	0.5	0.01	-2e-05	0
1490	0.5	0.011	0	0	0.5	0.011	0	0
1491	0.5	0.014	-2e-05	0	0.5	0.014	-2e-05	0
1492	0.5	0.015	-2e-05	0	0.5	0.015	-2e-05	0
1493	0.5	0.016	-2e-05	0	0.5	0.016	-2e-05	0
1494	0.5	0.018	-4e-05	0	0.5	0.018	-4e-05	0
1495	0.5	0.038	-4e-05	0	0.5	0.038	-4e-05	0
1496	1	-0.029	4e-05	0	1	-0.029	4e-05	0
1497	1	-0.028	4e-05	0	1	-0.028	4e-05	0
1498	1	-0.025	4e-05	0	1	-0.025	4e-05	0
1499	1	-0.023	2e-05	0	1	-0.023	2e-05	0
1500	1	-0.021	2e-05	0	1	-0.021	2e-05	0
1501	1	-0.021	4e-05	0	1	-0.021	4e-05	0
1502	1	-0.02	2e-05	0	1	-0.02	2e-05	0
1503	1	-0.019	2e-05	0	1	-0.019	2e-05	0
1504	1	-0.017	2e-05	0	1	-0.017	2e-05	0
1505	1	-0.016	0	0	1	-0.016	0	0
1506	1	-0.015	2e-05	0	1	-0.015	2e-05	0
1507	1	-0.014	2e-05	0	1	-0.014	2e-05	0
1508	1	-0.013	0	0	1	-0.013	0	0
1509	1	-0.011	0	0	1	-0.011	0	0
1510	1	-0.011	2e-05	0	1	-0.011	2e-05	0
1511	1	-0.01	0	0	1	-0.01	0	0
1512	1	-0.01	2e-05	0	1	-0.01	2e-05	0
1513	1	-0.009	0	0	1	-0.009	0	0
1514	1	-0.009	2e-05	0	1	-0.009	2e-05	0
1515	1	-0.008	0	0	1	-0.008	0	0
1516	1	-0.007	0	0	1	-0.007	0	0
1517	1	-0.006	0	0	1	-0.006	0	0
1518	1	-0.005	0	0	1	-0.005	0	0
1519	1	-0.004	0	0	1	-0.004	0	0
1520	1	-0.002	0	0	1	-0.002	0	0
1521	1	-0.002	2e-05	0	1	-0.002	2e-05	0
1522	1	-0.001	0	0	1	-0.001	0	0
1523	1	0	0	0	1	0	0	0
1524	1	0.004	0	0	1	0.004	0	0
1525	1	0.005	-2e-05	0	1	0.005	-2e-05	0
1526	1	0.005	0	0	1	0.005	0	0
1527	1	0.008	-2e-05	0	1	0.008	-2e-05	0
1528	1	0.009	0	0	1	0.009	0	0
1529	1	0.012	-2e-05	0	1	0.012	-2e-05	0
1530	1	0.014	-2e-05	0	1	0.014	-2e-05	0
1531	1	0.015	-2e-05	0	1	0.015	-2e-05	0
1532	1	0.016	-2e-05	0	1	0.016	-2e-05	0
1533	1	0.04	-4e-05	0	1	0.04	-4e-05	0
1534	1.5	-0.045	4e-05	0	1.5	-0.045	4e-05	0
1535	1.5	-0.04	4e-05	0	1.5	-0.04	4e-05	0
1536	1.5	-0.026	2e-05	0	1.5	-0.026	2e-05	0
1537	1.5	-0.025	2e-05	0	1.5	-0.025	2e-05	0
1538	1.5	-0.022	4e-05	0	1.5	-0.022	4e-05	0
1539	1.5	-0.021	2e-05	0	1.5	-0.021	2e-05	0
1540	1.5	-0.019	2e-05	0	1.5	-0.019	2e-05	0
1541	1.5	-0.016	2e-05	0	1.5	-0.016	2e-05	0
1542	1.5	-0.01	0	0	1.5	-0.01	0	0
1543	1.5	-0.009	0	0	1.5	-0.009	0	0
1544	1.5	-0.008	0	0	1.5	-0.008	0	0
1545	1.5	-0.008	2e-05	0	1.5	-0.008	2e-05	0
1546	1.5	-0.007	0	0	1.5	-0.007	0	0
1547	1.5	-0.005	0	0	1.5	-0.005	0	0
1548	1.5	-0.005	2e-05	0	1.5	-0.005	2e-05	0
1549	1.5	-0.004	0	0	1.5	-0.004	0	0
1550	1.5	-0.003	0	0	1.5	-0.003	0	0
1551	1.5	-0.002	0	0	1.5	-0.002	0	0
1552	1.5	-0.001	-2e-05	0	1.5	-0.001	-2e-05	0
1553	1.5	0	0	0	1.5	0	0	0
1554	1.5	0.001	0	0	1.5	0.001	0	0
1555	1.5	0.002	0	0	1.5	0.002	0	0
1556	1.5	0.004	0	0	1.5	0.004	0	0
1557	1.5	0.011	-2e-05	0	1.5	0.011	-2e-05	0
1558	1.5	0.011	0	0	1.5	0.011	0	0
1559	1.5	0.014	-2e-05	0	1.5	0.014	-2e-05	0
1560	1.5	0.014	0	0	1.5	0.014	0	0
1561	1.5	0.016	-2e-05	0	1.5	0.016	-2e-05	0
1562	1.5	0.022	-2e-05	0	1.5	0.022	-2e-05	0
1563	2	-0.054	6e-05	0	2	-0.054	6e-05	0
1564	2	-0.048	4e-05	0	2	-0.048	4e-05	0
1565	2	-0.039	4e-05	0	2	-0.039	4e-05	0
1566	2	-0.031	4e-05	0	2	-0.031	4e-05	0
1567	2	-0.03	4e-05	0	2	-0.03	4e-05	0
1568	2	-0.027	2e-05	0	2	-0.027	2e-05	0
1569	2	-0.027	4e-05	0	2	-0.027	4e-05	0
1570	2	-0.026	2e-05	0	2	-0.026	2e-05	0
1571	2	-0.026	4e-05	0	2	-0.026	4e-05	0
1572	2	-0.025	2e-05	0	2	-0.025	2e-05	0
1573	2	-0.023	2e-05	0	2	-0.023	2e-05	0
1574	2	-0.022	2e-05	0	2	-0.022	2e-05	0
1575	2	-0.021	2e-05	0	2	-0.021	2e-05	0
1576	2	-0.019	2e-05	0	2	-0.019	2e-05	0
1577	2	-0.018	2e-05	0	2	-0.018	2e-05	0
1578	2	-0.017	2e-05	0	2	-0.017	2e-05	0
1579	2	-0.016	0	0	2	-0.016	0	0
1580	2	-0.016	2e-05	0	2	-0.016	2e-05	0
1581	2	-0.015	2e-05	0	2	-0.015	2e-05	0
1582	2	-0.014	2e-05	0	2	-0.014	2e-05	0
1583	2	-0.013	0	0	2	-0.013	0	0
1584	2	-0.012	0	0	2	-0.012	0	0
1585	2	-0.011	0	0	2	-0.011	0	0
1586	2	-0.01	0	0	2	-0.01	0	0
1587	2	-0.008	2e-05	0	2	-0.008	2e-05	0
1588	2	-0.007	0	0	2	-0.007	0	0
1589	2	-0.006	0	0	2	-0.006	0	0
1590	2	-0.004	0	0	2	-0.004	0	0
1591	2	-0.003	0	0	2	-0.003	0	0
1592	2	-0.002	0	0	2	-0.002	0	0
1593	2	-0.001	-2e-05	0	2	-0.001	-2e-05	0
1594	2	-0.001	0	0	2	-0.001	0	0
1595	2	0.001	0	0	2	0.001	0	0
1596	2	0.002	0	0	2	0.002	0	0
1597	2	0.005	-2e-05	0	2	0.005	-2e-05	0
1598	2	0.006	0	0	2	0.006	0	0
1599	2	0.008	0	0	2	0.008	0	0
1600	2	0.009	-2e-05	0	2	0.009	-2e-05	0
1601	2	0.012	-2e-05	0	2	0.012	-2e-05	0
1602	2	0.018	-2e-05	0	2	0.018	-2e-05	0
1603	2	0.035	-4e-05	0	2	0.035	-4e-05	0
1604	2.5	-0.058	6e-05	0	2.5	-0.058	6e-05	0
1605	2.5	-0.041	4e-05	0	2.5	-0.041	4e-05	0
1606	2.5	-0.04	4e-05	0	2.5	-0.04	4e-05	0
1607	2.5	-0.035	4e-05	0	2.5	-0.035	4e-05	0
1608	2.5	-0.023	2e-05	0	2.5	-0.023	2e-05	0
1609	2.5	-0.02	2e-05	0	2.5	-0.02	2e-05	0
1610	2.5	-0.018	2e-05	0	2.5	-0.018	2e-05	0
1611	2.5	-0.017	2e-05	0	2.5	-0.017	2e-05	0
1612	2.5	-0.015	0	0	2.5	-0.015	0	0
1613	2.5	-0.014	2e-05	0	2.5	-0.014	2e-05	0
1614	2.5	-0.013	0	0	2.5	-0.013	0	0
1615	2.5	-0.013	2e-05	0	2.5	-0.013	2e-05	0
1616	2.5	-0.012	0	0	2.5	-0.012	0	0
1617	2.5	-0.009	0	0	2.5	-0.009	0	0
1618	2.5	-0.006	0	0	2.5	-0.006	0	0
1619	2.5	-0.002	0	0	2.5	-0.002	0	0
1620	2.5	-0.001	0	0	2.5	-0.001	0	0
1621	2.5	0.002	0	0	2.5	0.002	0	0
1622	2.5	0.004	0	0	2.5	0.004	0	0
1623	2.5	0.006	-2e-05	0	2.5	0.006	-2e-05	0
1624	2.5	0.01	-2e-05	0	2.5	0.01	-2e-05	0
1625	2.5	0.011	-2e-05	0	2.5	0.011	-2e-05	0
1626	2.5	0.012	-2e-05	0	2.5	0.012	-2e-05	0
1627	2.5	0.023	-2e-05	0	2.5	0.023	-2e-05	0
1628	2.5	0.025	-4e-05	0	2.5	0.025	-4e-05	0
1629	3	-0.047	6e-05	0	3	-0.047	6e-05	0
1630	3	-0.043	6e-05	0	3	-0.043	6e-05	0
1631	3	-0.041	4e-05	0	3	-0.041	4e-05	0
1632	3	-0.04	4e-05	0	3	-0.04	4e-05	0
1633	3	-0.038	4e-05	0	3	-0.038	4e-05	0
1634	3	-0.037	4e-05	0	3	-0.037	4e-05	0
1635	3	-0.036	4e-05	0	3	-0.036	4e-05	0
1636	3	-0.031	2e-05	0	3	-0.031	2e-05	0
1637	3	-0.031	4e-05	0	3	-0.031	4e-05	0
1638	3	-0.028	2e-05	0	3	-0.028	2e-05	0
1639	3	-0.026	2e-05	0	3	-0.026	2e-05	0
1640	3	-0.025	2e-05	0	3	-0.025	2e-05	0
1641	3	-0.024	2e-05	0	3	-0.024	2e-05	0
1642	3	-0.023	2e-05	0	3	-0.023	2e-05	0
1643	3	-0.022	2e-05	0	3	-0.022	2e-05	0
1644	3	-0.02	2e-05	0	3	-0.02	2e-05	0
1645	3	-0.019	2e-05	0	3	-0.019	2e-05	0
1646	3	-0.018	0	0	3	-0.018	0	0
1647	3	-0.018	2e-05	0	3	-0.018	2e-05	0
1648	3	-0.017	2e-05	0	3	-0.017	2e-05	0
1649	3	-0.016	2e-05	0	3	-0.016	2e-05	0
1650	3	-0.015	0	0	3	-0.015	0	0
1651	3	-0.014	2e-05	0	3	-0.014	2e-05	0
1652	3	-0.012	0	0	3	-0.012	0	0
1653	3	-0.009	0	0	3	-0.009	0	0
1654	3	-0.008	0	0	3	-0.008	0	0
1655	3	-0.006	0	0	3	-0.006	0	0
1656	3	-0.003	0	0	3	-0.003	0	0
1657	3	0	0	0	3	0	0	0
1658	3	0.001	0	0	3	0.001	0	0
1659	3	0.008	-2e-05	0	3	0.008	-2e-05	0
1660	3	0.023	-2e-05	0	3	0.023	-2e-05	0
1661	3.5	-0.049	6e-05	0	3.5	-0.049	6e-05	0
1662	3.5	-0.041	4e-05	0	3.5	-0.041	4e-05	0
1663	3.5	-0.038	4e-05	0	3.5	-0.038	4e-05	0
1664	3.5	-0.035	4e-05	0	3.5	-0.035	4e-05	0
1665	3.5	-0.034	2e-05	0	3.5	-0.034	2e-05	0
1666	3.5	-0.032	2e-05	0	3.5	-0.032	2e-05	0
1667	3.5	-0.031	4e-05	0	3.5	-0.031	4e-05	0
1668	3.5	-0.029	2e-05	0	3.5	-0.029	2e-05	0
1669	3.5	-0.027	4e-05	0	3.5	-0.027	4e-05	0
1670	3.5	-0.026	2e-05	0	3.5	-0.026	2e-05	0
1671	3.5	-0.024	2e-05	0	3.5	-0.024	2e-05	0
1672	3.5	-0.023	2e-05	0	3.5	-0.023	2e-05	0
1673	3.5	-0.022	2e-05	0	3.5	-0.022	2e-05	0
1674	3.5	-0.021	2e-05	0	3.5	-0.021	2e-05	0
1675	3.5	-0.019	0	0	3.5	-0.019	0	0
1676	3.5	-0.019	2e-05	0	3.5	-0.019	2e-05	0
1677	3.5	-0.018	2e-05	0	3.5	-0.018	2e-05	0
1678	3.5	-0.017	0	0	3.5	-0.017	0	0
1679	3.5	-0.015	0	0	3.5	-0.015	0	0
1680	3.5	-0.015	2e-05	0	3.5	-0.015	2e-05	0
1681	3.5	-0.014	0	0	3.5	-0.014	0	0
1682	3.5	-0.013	0	0	3.5	-0.013	0	0
1683	3.5	-0.013	2e-05	0	3.5	-0.013	2e-05	0
1684	3.5	-0.012	2e-05	0	3.5	-0.012	2e-05	0
1685	3.5	-0.008	0	0	3.5	-0.008	0	0
1686	3.5	-0.007	0	0	3.5	-0.007	0	0
1687	3.5	-0.004	0	0	3.5	-0.004	0	0
1688	3.5	-0.003	0	0	3.5	-0.003	0	0
1689	3.5	-0.002	0	0	3.5	-0.002	0	0
1690	3.5	0	-2e-05	0	3.5	0	-2e-05	0
1691	3.5	0	0	0	3.5	0	0	0
1692	3.5	0.004	0	0	3.5	0.004	0	0
1693	3.5	0.007	-2e-05	0	3.5	0.007	-2e-05	0
1694	3.5	0.007	0	0	3.5	0.007	0	0
1695	3.5	0.022	-2e-05	0	3.5	0.022	-2e-05	0
1696	4	-0.047	4e-05	0	4	-0.047	4e-05	0
1697	4	-0.042	4e-05	0	4	-0.042	4e-05	0
1698	4	-0.041	4e-05	0	4	-0.041	4e-05	0
1699	4	-0.038	4e-05	0	4	-0.038	4e-05	0
1700	4	-0.037	4e-05	0	4	-0.037	4e-05	0
1701	4	-0.034	4e-05	0	4	-0.034	4e-05	0
1702	4	-0.033	4e-05	0	4	-0.033	4e-05	0
1703	4	-0.032	4e-05	0	4	-0.032	4e-05	0
1704	4	-0.031	2e-05	0	4	-0.031	2e-05	0
1705	4	-0.031	4e-05	0	4	-0.031	4e-05	0
1706	4	-0.029	2e-05	0	4	-0.029	2e-05	0
1707	4	-0.028	2e-05	0	4	-0.028	2e-05	0
1708	4	-0.027	2e-05	0	4	-0.027	2e-05	0
1709	4	-0.025	4e-05	0	4	-0.025	4e-05	0
1710	4	-0.023	2e-05	0	4	-0.023	2e-05	0
1711	4	-0.022	2e-05	0	4	-0.022	2e-05	0
1712	4	-0.021	2e-05	0	4	-0.021	2e-05	0
1713	4	-0.02	2e-05	0	4	-0.02	2e-05	0
1714	4	-0.018	2e-05	0	4	-0.018	2e-05	0
1715	4	-0.014	2e-05	0	4	-0.014	2e-05	0
1716	4	-0.013	0	0	4	-0.013	0	0
1717	4	-0.012	0	0	4	-0.012	0	0
1718	4	-0.011	0	0	4	-0.011	0	0
1719	4	-0.001	0	0	4	-0.001	0	0
1720	4	0	0	0	4	0	0	0
1721	4	0.01	-2e-05	0	4	0.01	-2e-05	0
1722	4	0.012	-2e-05	0	4	0.012	-2e-05	0
1723	4	0.023	-2e-05	0	4	0.023	-2e-05	0
1724	4	0.025	-4e-05	0	4	0.025	-4e-05	0
1725	4.5	-0.059	6e-05	0	4.5	-0.059	6e-05	0
1726	4.5	-0.055	6e-05	0	4.5	-0.055	6e-05	0
1727	4.5	-0.044	6e-05	0	4.5	-0.044	6e-05	0
1728	4.5	-0.038	4e-05	0	4.5	-0.038	4e-05	0
1729	4.5	-0.037	4e-05	0	4.5	-0.037	4e-05	0
1730	4.5	-0.035	4e-05	0	4.5	-0.035	4e-05	0
1731	4.5	-0.031	4e-05	0	4.5	-0.031	4e-05	0
1732	4.5	-0.03	2e-05	0	4.5	-0.03	2e-05	0
1733	4.5	-0.029	4e-05	0	4.5	-0.029	4e-05	0
1734	4.5	-0.027	2e-05	0	4.5	-0.027	2e-05	0
1735	4.5	-0.022	2e-05	0	4.5	-0.022	2e-05	0
1736	4.5	-0.02	2e-05	0	4.5	-0.02	2e-05	0
1737	4.5	-0.018	0	0	4.5	-0.018	0	0
1738	4.5	-0.013	0	0	4.5	-0.013	0	0
1739	4.5	-0.012	0	0	4.5	-0.012	0	0
1740	4.5	-0.009	0	0	4.5	-0.009	0	0
1741	4.5	-0.007	0	0	4.5	-0.007	0	0
1742	4.5	-0.001	-2e-05	0	4.5	-0.001	-2e-05	0
1743	4.5	0.005	-2e-05	0	4.5	0.005	-2e-05	0
1744	4.5	0.007	-2e-05	0	4.5	0.007	-2e-05	0
1745	4.5	0.011	-2e-05	0	4.5	0.011	-2e-05	0
1746	4.5	0.017	-4e-05	0	4.5	0.017	-4e-05	0
1747	5	-0.062	6e-05	0	5	-0.062	6e-05	0
1748	5	-0.059	6e-05	0	5	-0.059	6e-05	0
1749	5	-0.049	4e-05	0	5	-0.049	4e-05	0
1750	5	-0.047	4e-05	0	5	-0.047	4e-05	0
1751	5	-0.045	4e-05	0	5	-0.045	4e-05	0
1752	5	-0.044	4e-05	0	5	-0.044	4e-05	0
1753	5	-0.04	4e-05	0	5	-0.04	4e-05	0
1754	5	-0.039	4e-05	0	5	-0.039	4e-05	0
1755	5	-0.038	4e-05	0	5	-0.038	4e-05	0
1756	5	-0.036	4e-05	0	5	-0.036	4e-05	0
1757	5	-0.033	2e-05	0	5	-0.033	2e-05	0
1758	5	-0.032	4e-05	0	5	-0.032	4e-05	0
1759	5	-0.029	2e-05	0	5	-0.029	2e-05	0
1760	5	-0.027	2e-05	0	5	-0.027	2e-05	0
1761	5	-0.026	2e-05	0	5	-0.026	2e-05	0
1762	5	-0.022	2e-05	0	5	-0.022	2e-05	0
1763	5	-0.019	2e-05	0	5	-0.019	2e-05	0
1764	5	-0.017	2e-05	0	5	-0.017	2e-05	0
1765	5	-0.016	0	0	5	-0.016	0	0
1766	5	-0.013	2e-05	0	5	-0.013	2e-05	0
1767	5	-0.012	0	0	5	-0.012	0	0
1768	5	-0.004	0	0	5	-0.004	0	0
1769	5	-0.001	0	0	5	-0.001	0	0
1770	5.5	-0.063	8e-05	0	5.5	-0.063	8e-05	0
1771	5.5	-0.057	6e-05	0	5.5	-0.057	6e-05	0
1772	5.5	-0.048	6e-05	0	5.5	-0.048	6e-05	0
1773	5.5	-0.047	4e-05	0	5.5	-0.047	4e-05	0
1774	5.5	-0.046	4e-05	0	5.5	-0.046	4e-05	0
1775	5.5	-0.045	4e-05	0	5.5	-0.045	4e-05	0
1776	5.5	-0.045	6e-05	0	5.5	-0.045	6e-05	0
1777	5.5	-0.044	6e-05	0	5.5	-0.044	6e-05	0
1778	5.5	-0.042	4e-05	0	5.5	-0.042	4e-05	0
1779	5.5	-0.041	4e-05	0	5.5	-0.041	4e-05	0
1780	5.5	-0.041	6e-05	0	5.5	-0.041	6e-05	0
1781	5.5	-0.04	4e-05	0	5.5	-0.04	4e-05	0
1782	5.5	-0.038	4e-05	0	5.5	-0.038	4e-05	0
1783	5.5	-0.036	4e-05	0	5.5	-0.036	4e-05	0
1784	5.5	-0.031	2e-05	0	5.5	-0.031	2e-05	0
1785	5.5	-0.03	4e-05	0	5.5	-0.03	4e-05	0
1786	5.5	-0.029	2e-05	0	5.5	-0.029	2e-05	0
1787	5.5	-0.027	2e-05	0	5.5	-0.027	2e-05	0
1788	5.5	-0.026	2e-05	0	5.5	-0.026	2e-05	0
1789	5.5	-0.025	2e-05	0	5.5	-0.025	2e-05	0
1790	5.5	-0.021	2e-05	0	5.5	-0.021	2e-05	0
1791	5.5	-0.012	0	0	5.5	-0.012	0	0
1792	5.5	-0.009	0	0	5.5	-0.009	0	0
1793	5.5	-0.008	0	0	5.5	-0.008	0	0
1794	5.5	-0.003	0	0	5.5	-0.003	0	0
1795	5.5	-0.002	0	0	5.5	-0.002	0	0
1796	5.5	0.002	-2e-05	0	5.5	0.002	-2e-05	0
1797	6	-0.063	6e-05	0	6	-0.063	6e-05	0
1798	6	-0.061	6e-05	0	6	-0.061	6e-05	0
1799	6	-0.053	4e-05	0	6	-0.053	4e-05	0
1800	6	-0.049	4e-05	0	6	-0.049	4e-05	0
1801	6	-0.046	4e-05	0	6	-0.046	4e-05	0
1802	6	-0.045	4e-05	0	6	-0.045	4e-05	0
1803	6	-0.043	4e-05	0	6	-0.043	4e-05	0
1804	6	-0.039	4e-05	0	6	-0.039	4e-05	0
1805	6	-0.037	4e-05	0	6	-0.037	4e-05	0
1806	6	-0.036	4e-05	0	6	-0.036	4e-05	0
1807	6	-0.034	4e-05	0	6	-0.034	4e-05	0
1808	6	-0.033	2e-05	0	6	-0.033	2e-05	0
1809	6	-0.031	2e-05	0	6	-0.031	2e-05	0
1810	6	-0.031	4e-05	0	6	-0.031	4e-05	0
1811	6	-0.03	2e-05	0	6	-0.03	2e-05	0
1812	6	-0.029	4e-05	0	6	-0.029	4e-05	0
1813	6	-0.027	2e-05	0	6	-0.027	2e-05	0
1814	6	-0.025	2e-05	0	6	-0.025	2e-05	0
1815	6	-0.024	2e-05	0	6	-0.024	2e-05	0
1816	6	-0.022	2e-05	0	6	-0.022	2e-05	0
1817	6	-0.019	2e-05	0	6	-0.019	2e-05	0
1818	6	-0.009	0	0	6	-0.009	0	0
1819	6	-0.005	-2e-05	0	6	-0.005	-2e-05	0
1820	6	0.001	-2e-05	0	6	0.001	-2e-05	0
1821	6	0.014	-2e-05	0	6	0.014	-2e-05	0
1822	6.5	-0.066	6e-05	0	6.5	-0.066	6e-05	0
1823	6.5	-0.06	6e-05	0	6.5	-0.06	6e-05	0
1824	6.5	-0.053	4e-05	0	6.5	-0.053	4e-05	0
1825	6.5	-0.046	4e-05	0	6.5	-0.046	4e-05	0
1826	6.5	-0.045	4e-05	0	6.5	-0.045	4e-05	0
1827	6.5	-0.044	4e-05	0	6.5	-0.044	4e-05	0
1828	6.5	-0.043	4e-05	0	6.5	-0.043	4e-05	0
1829	6.5	-0.04	4e-05	0	6.5	-0.04	4e-05	0
1830	6.5	-0.038	4e-05	0	6.5	-0.038	4e-05	0
1831	6.5	-0.037	4e-05	0	6.5	-0.037	4e-05	0
1832	6.5	-0.036	4e-05	0	6.5	-0.036	4e-05	0
1833	6.5	-0.034	4e-05	0	6.5	-0.034	4e-05	0
1834	6.5	-0.028	2e-05	0	6.5	-0.028	2e-05	0
1835	6.5	-0.027	2e-05	0	6.5	-0.027	2e-05	0
1836	6.5	-0.025	2e-05	0	6.5	-0.025	2e-05	0
1837	6.5	-0.024	0	0	6.5	-0.024	0	0
1838	6.5	-0.024	2e-05	0	6.5	-0.024	2e-05	0
1839	6.5	-0.023	0	0	6.5	-0.023	0	0
1840	6.5	-0.023	2e-05	0	6.5	-0.023	2e-05	0
1841	6.5	-0.022	2e-05	0	6.5	-0.022	2e-05	0
1842	6.5	-0.019	2e-05	0	6.5	-0.019	2e-05	0
1843	6.5	-0.012	0	0	6.5	-0.012	0	0
1844	7	-0.065	6e-05	0	7	-0.065	6e-05	0
1845	7	-0.055	4e-05	0	7	-0.055	4e-05	0
1846	7	-0.051	4e-05	0	7	-0.051	4e-05	0
1847	7	-0.051	6e-05	0	7	-0.051	6e-05	0
1848	7	-0.046	4e-05	0	7	-0.046	4e-05	0
1849	7	-0.042	4e-05	0	7	-0.042	4e-05	0
1850	7	-0.038	2e-05	0	7	-0.038	2e-05	0
1851	7	-0.033	2e-05	0	7	-0.033	2e-05	0
1852	7	-0.033	4e-05	0	7	-0.033	4e-05	0
1853	7	-0.027	2e-05	0	7	-0.027	2e-05	0
1854	7	-0.023	2e-05	0	7	-0.023	2e-05	0
1855	7	-0.019	2e-05	0	7	-0.019	2e-05	0
1856	7	-0.007	0	0	7	-0.007	0	0
1857	7.5	-0.059	6e-05	0	7.5	-0.059	6e-05	0
1858	7.5	-0.053	4e-05	0	7.5	-0.053	4e-05	0
1859	7.5	-0.052	6e-05	0	7.5	-0.052	6e-05	0
1860	7.5	-0.048	4e-05	0	7.5	-0.048	4e-05	0
1861	7.5	-0.047	6e-05	0	7.5	-0.047	6e-05	0
1862	7.5	-0.045	4e-05	0	7.5	-0.045	4e-05	0
1863	7.5	-0.043	4e-05	0	7.5	-0.043	4e-05	0
1864	7.5	-0.041	2e-05	0	7.5	-0.041	2e-05	0
1865	7.5	-0.04	4e-05	0	7.5	-0.04	4e-05	0
1866	7.5	-0.039	4e-05	0	7.5	-0.039	4e-05	0
1867	7.5	-0.033	2e-05	0	7.5	-0.033	2e-05	0
1868	7.5	-0.031	2e-05	0	7.5	-0.031	2e-05	0
1869	7.5	-0.021	2e-05	0	7.5	-0.021	2e-05	0
1870	7.5	-0.014	0	0	7.5	-0.014	0	0
1871	7.5	-0.013	0	0	7.5	-0.013	0	0
1872	8	-0.069	6e-05	0	8	-0.069	6e-05	0
1873	8	-0.069	8e-05	0	8	-0.069	8e-05	0
1874	8	-0.066	6e-05	0	8	-0.066	6e-05	0
1875	8	-0.064	6e-05	0	8	-0.064	6e-05	0
1876	8	-0.063	8e-05	0	8	-0.063	8e-05	0
1877	8	-0.062	6e-05	0	8	-0.062	6e-05	0
1878	8	-0.056	4e-05	0	8	-0.056	4e-05	0
1879	8	-0.054	4e-05	0	8	-0.054	4e-05	0
1880	8	-0.053	4e-05	0	8	-0.053	4e-05	0
1881	8	-0.053	6e-05	0	8	-0.053	6e-05	0
1882	8	-0.052	4e-05	0	8	-0.052	4e-05	0
1883	8	-0.052	6e-05	0	8	-0.052	6e-05	0
1884	8	-0.047	4e-05	0	8	-0.047	4e-05	0
1885	8	-0.046	4e-05	0	8	-0.046	4e-05	0
1886	8	-0.04	4e-05	0	8	-0.04	4e-05	0
1887	8	-0.039	4e-05	0	8	-0.039	4e-05	0
1888	8	-0.038	4e-05	0	8	-0.038	4e-05	0
1889	8	-0.03	2e-05	0	8	-0.03	2e-05	0
1890	8	-0.028	2e-05	0	8	-0.028	2e-05	0
1891	8	-0.026	2e-05	0	8	-0.026	2e-05	0
1892	8	-0.025	2e-05	0	8	-0.025	2e-05	0
1893	8	-0.023	2e-05	0	8	-0.023	2e-05	0
1894	8	-0.016	0	0	8	-0.016	0	0
1895	8	-0.014	0	0	8	-0.014	0	0
1896	8	-0.013	0	0	8	-0.013	0	0
1897	8	-0.007	0	0	8	-0.007	0	0
1898	8.5	-0.068	6e-05	0	8.5	-0.068	6e-05	0
1899	8.5	-0.067	6e-05	0	8.5	-0.067	6e-05	0
1900	8.5	-0.065	6e-05	0	8.5	-0.065	6e-05	0
1901	8.5	-0.064	6e-05	0	8.5	-0.064	6e-05	0
1902	8.5	-0.057	6e-05	0	8.5	-0.057	6e-05	0
1903	8.5	-0.046	4e-05	0	8.5	-0.046	4e-05	0
1904	8.5	-0.044	4e-05	0	8.5	-0.044	4e-05	0
1905	8.5	-0.04	4e-05	0	8.5	-0.04	4e-05	0
1906	8.5	-0.037	2e-05	0	8.5	-0.037	2e-05	0
1907	8.5	-0.036	4e-05	0	8.5	-0.036	4e-05	0
1908	8.5	-0.032	2e-05	0	8.5	-0.032	2e-05	0
1909	8.5	-0.032	4e-05	0	8.5	-0.032	4e-05	0
1910	8.5	-0.028	2e-05	0	8.5	-0.028	2e-05	0
1911	8.5	-0.026	2e-05	0	8.5	-0.026	2e-05	0
1912	8.5	-0.019	0	0	8.5	-0.019	0	0
1913	8.5	-0.017	0	0	8.5	-0.017	0	0
1914	9	-0.07	6e-05	0	9	-0.07	6e-05	0
1915	9	-0.069	6e-05	0	9	-0.069	6e-05	0
1916	9	-0.068	6e-05	0	9	-0.068	6e-05	0
1917	9	-0.067	6e-05	0	9	-0.067	6e-05	0
1918	9	-0.059	6e-05	0	9	-0.059	6e-05	0
1919	9	-0.056	4e-05	0	9	-0.056	4e-05	0
1920	9	-0.051	4e-05	0	9	-0.051	4e-05	0
1921	9	-0.05	4e-05	0	9	-0.05	4e-05	0
1922	9	-0.043	4e-05	0	9	-0.043	4e-05	0
1923	9	-0.036	2e-05	0	9	-0.036	2e-05	0
1924	9	-0.031	2e-05	0	9	-0.031	2e-05	0
1925	9	-0.025	2e-05	0	9	-0.025	2e-05	0
1926	9	-0.023	0	0	9	-0.023	0	0
1927	9	-0.013	0	0	9	-0.013	0	0
1928	9.5	-0.084	0.0001	0	9.5	-0.084	0.0001	0
1929	9.5	-0.07	6e-05	0	9.5	-0.07	6e-05	0
1930	9.5	-0.069	6e-05	0	9.5	-0.069	6e-05	0
1	-9	0.028	-2e-05	0	-9	0.028	-2e-05	0
2	-9	0.029	-2e-05	0	-9	0.029	-2e-05	0
3	-9	0.032	-2e-05	0	-9	0.032	-2e-05	0
4	-9	0.038	-2e-05	0	-9	0.038	-2e-05	0
5	-9	0.039	-2e-05	0	-9	0.039	-2e-05	0
6	-9	0.042	-4e-05	0	-9	0.042	-4e-05	0
7	-9	0.044	-4e-05	0	-9	0.044	-4e-05	0
8	-9	0.045	-4e-05	0	-9	0.045	-4e-05	0
9	-9	0.048	-4e-05	0	-9	0.048	-4e-05	0
10	-9	0.049	-4e-05	0	-9	0.049	-4e-05	0
11	-9	0.051	-4e-05	0	-9	0.051	-4e-05	0
12	-9	0.054	-4e-05	0	-9	0.054	-4e-05	0
13	-9	0.055	-4e-05	0	-9	0.055	-4e-05	0
14	-9	0.065	-6e-05	0	-9	0.065	-6e-05	0
15	-9	0.067	-6e-05	0	-9	0.067	-6e-05	0
16	-9	0.07	-6e-05	0	-9	0.07	-6e-05	0
17	-9	0.079	-8e-05	0	-9	0.079	-8e-05	0
18	-8.5	0.009	0	0	-8.5	0.009	0	0
19	-8.5	0.022	0	0	-8.5	0.022	0	0
20	-8.5	0.025	-2e-05	0	-8.5	0.025	-2e-05	0
21	-8.5	0.026	-2e-05	0	-8.5	0.026	-2e-05	0
22	-8.5	0.032	-4e-05	0	-8.5	0.032	-4e-05	0
23	-8.5	0.042	-4e-05	0	-8.5	0.042	-4e-05	0
24	-8.5	0.048	-4e-05	0	-8.5	0.048	-4e-05	0
25	-8.5	0.049	-6e-05	0	-8.5	0.049	-6e-05	0
26	-8.5	0.051	-4e-05	0	-8.5	0.051	-4e-05	0
27	-8.5	0.056	-4e-05	0	-8.5	0.056	-4e-05	0
28	-8.5	0.057	-6e-05	0	-8.5	0.057	-6e-05	0
29	-8.5	0.064	-6e-05	0	-8.5	0.064	-6e-05	0
30	-8.5	0.066	-6e-05	0	-8.5	0.066	-6e-05	0
31	-8.5	0.07	-6e-05	0	-8.5	0.07	-6e-05	0
32	-8	0.013	-2e-05	0	-8	0.013	-2e-05	0
33	-8	0.013	0	0	-8	0.013	0	0
34	-8	0.016	0	0	-8	0.016	0	0
35	-8	0.022	-2e-05	0	-8	0.022	-2e-05	0
36	-8	0.029	-2e-05	0	-8	0.029	-2e-05	0
37	-8	0.03	-2e-05	0	-8	0.03	-2e-05	0
38	-8	0.039	-4e-05	0	-8	0.039	-4e-05	0
39	-8	0.041	-4e-05	0	-8	0.041	-4e-05	0
40	-8	0.047	-4e-05	0	-8	0.047	-4e-05	0
41	-8	0.048	-4e-05	0	-8	0.048	-4e-05	0
42	-8	0.051	-6e-05	0	-8	0.051	-6e-05	0
43	-8	0.051	-4e-05	0	-8	0.051	-4e-05	0
44	-8	0.053	-6e-05	0	-8	0.053	-6e-05	0
45	-8	0.054	-4e-05	0	-8	0.054	-4e-05	0
46	-8	0.056	-6e-05	0	-8	0.056	-6e-05	0
47	-8	0.058	-6e-05	0	-8	0.058	-6e-05	0
48	-8	0.059	-6e-05	0	-8	0.059	-6e-05	0
49	-8	0.064	-6e-05	0	-8	0.064	-6e-05	0
50	-8	0.066	-6e-05	0	-8	0.066	-6e-05	0
51	-8	0.07	-6e-05	0	-8	0.07	-6e-05	0
52	-7.5	0.003	0	0	-7.5	0.003	0	0
53	-7.5	0.007	0	0	-7.5	0.007	0	0
54	-7.5	0.015	0	0	-7.5	0.015	0	0
55	-7.5	0.016	0	0	-7.5	0.016	0	0
56	-7.5	0.021	0	0	-7.5	0.021	0	0
57	-7.5	0.031	-2e-05	0	-7.5	0.031	-2e-05	0
58	-7.5	0.032	-2e-05	0	-7.5	0.032	-2e-05	0
59	-7.5	0.038	-4e-05	0	-7.5	0.038	-4e-05	0
60	-7.5	0.048	-4e-05	0	-7.5	0.048	-4e-05	0
61	-7.5	0.049	-4e-05	0	-7.5	0.049	-4e-05	0
62	-7.5	0.051	-4e-05	0	-7.5	0.051	-4e-05	0
63	-7.5	0.052	-6e-05	0	-7.5	0.052	-6e-05	0
64	-7.5	0.056	-6e-05	0	-7.5	0.056	-6e-05	0
65	-7.5	0.062	-6e-05	0	-7.5	0.062	-6e-05	0
66	-7.5	0.063	-8e-05	0	-7.5	0.063	-8e-05	0
67	-7.5	0.066	-8e-05	0	-7.5	0.066	-8e-05	0
68	-7.5	0.067	-6e-05	0	-7.5	0.067	-6e-05	0
69	-7.5	0.074	-8e-05	0	-7.5	0.074	-8e-05	0
70	-7.5	0.077	-8e-05	0	-7.5	0.077	-8e-05	0
71	-7	0.009	0	0	-7	0.009	0	0
72	-7	0.014	-2e-05	0	-7	0.014	-2e-05	0
73	-7	0.022	-2e-05	0	-7	0.022	-2e-05	0
74	-7	0.025	-2e-05	0	-7	0.025	-2e-05	0
75	-7	0.026	-2e-05	0	-7	0.026	-2e-05	0
76	-7	0.027	-2e-05	0	-7	0.027	-2e-05	0
77	-7	0.028	-2e-05	0	-7	0.028	-2e-05	0
78	-7	0.029	-2e-05	0	-7	0.029	-2e-05	0
79	-7	0.03	-2e-05	0	-7	0.03	-2e-05	0
80	-7	0.032	-2e-05	0	-7	0.032	-2e-05	0
81	-7	0.033	-4e-05	0	-7	0.033	-4e-05	0
82	-7	0.033	-2e-05	0	-7	0.033	-2e-05	0
83	-7	0.039	-2e-05	0	-7	0.039	-2e-05	0
84	-7	0.044	-6e-05	0	-7	0.044	-6e-05	0
85	-7	0.045	-4e-05	0	-7	0.045	-4e-05	0
86	-7	0.047	-4e-05	0	-7	0.047	-4e-05	0
87	-7	0.049	-4e-05	0	-7	0.049	-4e-05	0
88	-7	0.057	-6e-05	0	-7	0.057	-6e-05	0
89	-7	0.059	-6e-05	0	-7	0.059	-6e-05	0
90	-7	0.06	-6e-05	0	-7	0.06	-6e-05	0
91	-7	0.062	-6e-05	0	-7	0.062	-6e-05	0
92	-6.5	0.007	0	0	-6.5	0.007	0	0
93	-6.5	0.008	0	0	-6.5	0.008	0	0
94	-6.5	0.01	0	0	-6.5	0.01	0	0
95	-6.5	0.012	0	0	-6.5	0.012	0	0
96	-6.5	0.02	-2e-05	0	-6.5	0.02	-2e-05	0
97	-6.5	0.023	-2e-05	0	-6.5	0.023	-2e-05	0
98	-6.5	0.025	-2e-05	0	-6.5	0.025	-2e-05	0
99	-6.5	0.026	-2e-05	0	-6.5	0.026	-2e-05	0
100	-6.5	0.029	-2e-05	0	-6.5	0.029	-2e-05	0
101	-6.5	0.034	-2e-05	0	-6.5	0.034	-2e-05	0
102	-6.5	0.036	-4e-05	0	-6.5	0.036	-4e-05	0
103	-6.5	0.038	-2e-05	0	-6.5	0.038	-2e-05	0
104	-6.5	0.039	-4e-05	0	-6.5	0.039	-4e-05	0
105	-6.5	0.04	-2e-05	0	-6.5	0.04	-2e-05	0
106	-6.5	0.041	-4e-05	0	-6.5	0.041	-4e-05	0
107	-6.5	0.042	-4e-05	0	-6.5	0.042	-4e-05	0
108	-6.5	0.049	-4e-05	0	-6.5	0.049	-4e-05	0
109	-6.5	0.051	-4e-05	0	-6.5	0.051	-4e-05	0
110	-6.5	0.055	-4e-05	0	-6.5	0.055	-4e-05	0
111	-6.5	0.065	-8e-05	0	-6.5	0.065	-8e-05	0
112	-6.5	0.065	-6e-05	0	-6.5	0.065	-6e-05	0
113	-6	0.004	0	0	-6	0.004	0	0
114	-6	0.009	0	0	-6	0.009	0	0
115	-6	0.011	0	0	-6	0.011	0	0
116	-6	0.016	0	0	-6	0.016	0	0
117	-6	0.02	0	0	-6	0.02	0	0
118	-6	0.025	-2e-05	0	-6	0.025	-2e-05	0
119	-6	0.028	-2e-05	0	-6	0.028	-2e-05	0
120	-6	0.03	-2e-05	0	-6	0.03	-2e-05	0
121	-6	0.035	-2e-05	0	-6	0.035	-2e-05	0
122	-6	0.036	-2e-05	0	-6	0.036	-2e-05	0
123	-6	0.038	-4e-05	0	-6	0.038	-4e-05	0
124	-6	0.042	-4e-05	0	-6	0.042	-4e-05	0
125	-6	0.043	-4e-05	0	-6	0.043	-4e-05	0
126	-6	0.044	-6e-05	0	-6	0.044	-6e-05	0
127	-6	0.046	-4e-05	0	-6	0.046	-4e-05	0
128	-6	0.047	-4e-05	0	-6	0.047	-4e-05	0
129	-6	0.048	-4e-05	0	-6	0.048	-4e-05	0
130	-6	0.051	-4e-05	0	-6	0.051	-4e-05	0
131	-6	0.055	-6e-05	0	-6	0.055	-6e-05	0
132	-6	0.062	-6e-05	0	-6	0.062	-6e-05	0
133	-5.5	-0.005	2e-05	0	-5.5	-0.005	2e-05	0
134	-5.5	0.019	-2e-05	0	-5.5	0.019	-2e-05	0
135	-5.5	0.02	0	0	-5.5	0.02	0	0
136	-5.5	0.023	-2e-05	0	-5.5	0.023	-2e-05	0
137	-5.5	0.024	-2e-05	0	-5.5	0.024	-2e-05	0
138	-5.5	0.027	-2e-05	0	-5.5	0.027	-2e-05	0
139	-5.5	0.035	-4e-05	0	-5.5	0.035	-4e-05	0
140	-5.5	0.036	-4e-05	0	-5.5	0.036	-4e-05	0
141	-5.5	0.039	-4e-05	0	-5.5	0.039	-4e-05	0
142	-5.5	0.04	-4e-05	0	-5.5	0.04	-4e-05	0
143	-5.5	0.042	-4e-05	0	-5.5	0.042	-4e-05	0
144	-5.5	0.043	-4e-05	0	-5.5	0.043	-4e-05	0
145	-5.5	0.045	-4e-05	0	-5.5	0.045	-4e-05	0
146	-5.5	0.046	-4e-05	0	-5.5	0.046	-4e-05	0
147	-5.5	0.047	-4e-05	0	-5.5	0.047	-4e-05	0
148	-5.5	0.048	-4e-05	0	-5.5	0.048	-4e-05	0
149	-5.5	0.05	-6e-05	0	-5.5	0.05	-6e-05	0
150	-5.5	0.051	-6e-05	0	-5.5	0.051	-6e-05	0
151	-5.5	0.053	-4e-05	0	-5.5	0.053	-4e-05	0
152	-5.5	0.061	-6e-05	0	-5.5	0.061	-6e-05	0
153	-5	-0.012	4e-05	0	-5	-0.012	4e-05	0
154	-5	-0.004	0	0	-5	-0.004	0	0
155	-5	0	0	0	-5	0	0	0
156	-5	0.005	0	0	-5	0.005	0	0
157	-5	0.007	0	0	-5	0.007	0	0
158	-5	0.008	0	0	-5	0.008	0	0
159	-5	0.009	0	0	-5	0.009	0	0
160	-5	0.014	0	0	-5	0.014	0	0
161	-5	0.015	-2e-05	0	-5	0.015	-2e-05	0
162	-5	0.02	-2e-05	0	-5	0.02	-2e-05	0
163	-5	0.021	-2e-05	0	-5	0.021	-2e-05	0
164	-5	0.022	-2e-05	0	-5	0.022	-2e-05	0
165	-5	0.023	-2e-05	0	-5	0.023	-2e-05	0
166	-5	0.025	-2e-05	0	-5	0.025	-2e-05	0
167	-5	0.026	-2e-05	0	-5	0.026	-2e-05	0
168	-5	0.027	-2e-05	0	-5	0.027	-2e-05	0
169	-5	0.028	-2e-05	0	-5	0.028	-2e-05	0
170	-5	0.031	-4e-05	0	-5	0.031	-4e-05	0
171	-5	0.033	-4e-05	0	-5	0.033	-4e-05	0
172	-5	0.033	-2e-05	0	-5	0.033	-2e-05	0
173	-5	0.034	-4e-05	0	-5	0.034	-4e-05	0
174	-5	0.037	-4e-05	0	-5	0.037	-4e-05	0
175	-5	0.038	-4e-05	0	-5	0.038	-4e-05	0
176	-5	0.04	-4e-05	0	-5	0.04	-4e-05	0
177	-5	0.041	-4e-05	0	-5	0.041	-4e-05	0
178	-5	0.042	-4e-05	0	-5	0.042	-4e-05	0
179	-5	0.044	-4e-05	0	-5	0.044	-4e-05	0
180	-5	0.045	-4e-05	0	-5	0.045	-4e-05	0
181	-5	0.048	-6e-05	0	-5	0.048	-6e-05	0
182	-5	0.048	-4e-05	0	-5	0.048	-4e-05	0
183	-5	0.049	-4e-05	0	-5	0.049	-4e-05	0
184	-5	0.061	-8e-05	0	-5	0.061	-8e-05	0
185	-4.5	-0.006	2e-05	0	-4.5	-0.006	2e-05	0
186	-4.5	-0.002	2e-05	0	-4.5	-0.002	2e-05	0
187	-4.5	0	2e-05	0	-4.5	0	2e-05	0
188	-4.5	0.003	0	0	-4.5	0.003	0	0
189	-4.5	0.004	0	0	-4.5	0.004	0	0
190	-4.5	0.01	0	0	-4.5	0.01	0	0
191	-4.5	0.013	0	0	-4.5	0.013	0	0
192	-4.5	0.014	0	0	-4.5	0.014	0	0
193	-4.5	0.017	-2e-05	0	-4.5	0.017	-2e-05	0
194	-4.5	0.018	-2e-05	0	-4.5	0.018	-2e-05	0
195	-4.5	0.019	-2e-05	0	-4.5	0.019	-2e-05	0
196	-4.5	0.02	-2e-05	0	-4.5	0.02	-2e-05	0
197	-4.5	0.02	0	0	-4.5	0.02	0	0
198	-4.5	0.021	-2e-05	0	-4.5	0.021	-2e-05	0
199	-4.5	0.022	0	0	-4.5	0.022	0	0
200	-4.5	0.023	-2e-05	0	-4.5	0.023	-2e-05	0
201	-4.5	0.025	-4e-05	0	-4.5	0.025	-4e-05	0
202	-4.5	0.026	-4e-05	0	-4.5	0.026	-4e-05	0
203	-4.5	0.026	-2e-05	0	-4.5	0.026	-2e-05	0
204	-4.5	0.03	-4e-05	0	-4.5	0.03	-4e-05	0
205	-4.5	0.031	-2e-05	0	-4.5	0.031	-2e-05	0
206	-4.5	0.032	-4e-05	0	-4.5	0.032	-4e-05	0
207	-4.5	0.034	-4e-05	0	-4.5	0.034	-4e-05	0
208	-4.5	0.035	-4e-05	0	-4.5	0.035	-4e-05	0
209	-4.5	0.037	-4e-05	0	-4.5	0.037	-4e-05	0
210	-4.5	0.038	-4e-05	0	-4.5	0.038	-4e-05	0
211	-4.5	0.038	-2e-05	0	-4.5	0.038	-2e-05	0
212	-4.5	0.044	-4e-05	0	-4.5	0.044	-4e-05	0
213	-4	0.003	0	0	-4	0.003	0	0
214	-4	0.004	0	0	-4	0.004	0	0
215	-4	0.005	0	0	-4	0.005	0	0
216	-4	0.008	0	0	-4	0.008	0	0
217	-4	0.009	0	0	-4	0.009	0	0
218	-4	0.011	0	0	-4	0.011	0	0
219	-4	0.015	0	0	-4	0.015	0	0
220	-4	0.017	-2e-05	0	-4	0.017	-2e-05	0
221	-4	0.017	0	0	-4	0.017	0	0
222	-4	0.02	-2e-05	0	-4	0.02	-2e-05	0
223	-4	0.021	-2e-05	0	-4	0.021	-2e-05	0
224	-4	0.022	-2e-05	0	-4	0.022	-2e-05	0
225	-4	0.025	-2e-05	0	-4	0.025	-2e-05	0
226	-4	0.026	-2e-05	0	-4	0.026	-2e-05	0
227	-4	0.029	-4e-05	0	-4	0.029	-4e-05	0
228	-4	0.029	-2e-05	0	-4	0.029	-2e-05	0
229	-4	0.03	-4e-05	0	-4	0.03	-4e-05	0
230	-4	0.033	-2e-05	0	-4	0.033	-2e-05	0
231	-4	0.036	-4e-05	0	-4	0.036	-4e-05	0
232	-4	0.04	-4e-05	0	-4	0.04	-4e-05	0
233	-4	0.041	-4e-05	0	-4	0.041	-4e-05	0
234	-4	0.042	-4e-05	0	-4	0.042	-4e-05	0
235	-4	0.06	-6e-05	0	-4	0.06	-6e-05	0
236	-3.5	-0.01	2e-05	0	-3.5	-0.01	2e-05	0
237	-3.5	-0.004	0	0	-3.5	-0.004	0	0
238	-3.5	-0.003	0	0	-3.5	-0.003	0	0
239	-3.5	-0.002	0	0	-3.5	-0.002	0	0
240	-3.5	0.003	0	0	-3.5	0.003	0	0
241	-3.5	0.004	0	0	-3.5	0.004	0	0
242	-3.5	0.006	0	0	-3.5	0.006	0	0
243	-3.5	0.007	0	0	-3.5	0.007	0	0
244	-3.5	0.008	0	0	-3.5	0.008	0	0
245	-3.5	0.009	-2e-05	0	-3.5	0.009	-2e-05	0
246	-3.5	0.014	-2e-05	0	-3.5	0.014	-2e-05	0
247	-3.5	0.016	-2e-05	0	-3.5	0.016	-2e-05	0
248	-3.5	0.017	-2e-05	0	-3.5	0.017	-2e-05	0
249	-3.5	0.02	-2e-05	0	-3.5	0.02	-2e-05	0
250	-3.5	0.021	-2e-05	0	-3.5	0.021	-2e-05	0
251	-3.5	0.022	-2e-05	0	-3.5	0.022	-2e-05	0
252	-3.5	0.023	-2e-05	0	-3.5	0.023	-2e-05	0
253	-3.5	0.024	-2e-05	0	-3.5	0.024	-2e-05	0
254	-3.5	0.026	-2e-05	0	-3.5	0.026	-2e-05	0
255	-3.5	0.027	-2e-05	0	-3.5	0.027	-2e-05	0
256	-3.5	0.028	-4e-05	0	-3.5	0.028	-4e-05	0
257	-3.5	0.028	-2e-05	0	-3.5	0.028	-2e-05	0
258	-3.5	0.029	-2e-05	0	-3.5	0.029	-2e-05	0
259	-3.5	0.03	-4e-05	0	-3.5	0.03	-4e-05	0
260	-3.5	0.031	-4e-05	0	-3.5	0.031	-4e-05	0
261	-3.5	0.036	-4e-05	0	-3.5	0.036	-4e-05	0
262	-3.5	0.037	-4e-05	0	-3.5	0.037	-4e-05	0
263	-3.5	0.045	-4e-05	0	-3.5	0.045	-4e-05	0
264	-3.5	0.048	-6e-05	0	-3.5	0.048	-6e-05	0
265	-3	-0.028	4e-05	0	-3	-0.028	4e-05	0
266	-3	-0.015	2e-05	0	-3	-0.015	2e-05	0
267	-3	-0.01	2e-05	0	-3	-0.01	2e-05	0
268	-3	-0.005	0	0	-3	-0.005	0	0
269	-3	-0.002	2e-05	0	-3	-0.002	2e-05	0
270	-3	0	0	0	-3	0	0	0
271	-3	0.002	0	0	-3	0.002	0	0
272	-3	0.003	0	0	-3	0.003	0	0
273	-3	0.005	0	0	-3	0.005	0	0
274	-3	0.006	0	0	-3	0.006	0	0
275	-3	0.008	0	0	-3	0.008	0	0
276	-3	0.011	0	0	-3	0.011	0	0
277	-3	0.013	-2e-05	0	-3	0.013	-2e-05	0
278	-3	0.014	-2e-05	0	-3	0.014	-2e-05	0
279	-3	0.015	-2e-05	0	-3	0.015	-2e-05	0
280	-3	0.016	0	0	-3	0.016	0	0
281	-3	0.017	-2e-05	0	-3	0.017	-2e-05	0
282	-3	0.018	-2e-05	0	-3	0.018	-2e-05	0
283	-3	0.02	-2e-05	0	-3	0.02	-2e-05	0
284	-3	0.022	-2e-05	0	-3	0.022	-2e-05	0
285	-3	0.023	-2e-05	0	-3	0.023	-2e-05	0
286	-3	0.024	-2e-05	0	-3	0.024	-2e-05	0
287	-3	0.025	-2e-05	0	-3	0.025	-2e-05	0
288	-3	0.026	-2e-05	0	-3	0.026	-2e-05	0
289	-3	0.027	-4e-05	0	-3	0.027	-4e-05	0
290	-3	0.029	-2e-05	0	-3	0.029	-2e-05	0
291	-3	0.031	-2e-05	0	-3	0.031	-2e-05	0
292	-3	0.032	-4e-05	0	-3	0.032	-4e-05	0
293	-3	0.033	-4e-05	0	-3	0.033	-4e-05	0
294	-3	0.038	-6e-05	0	-3	0.038	-6e-05	0
295	-3	0.041	-4e-05	0	-3	0.041	-4e-05	0
296	-2.5	-0.019	2e-05	0	-2.5	-0.019	2e-05	0
297	-2.5	-0.004	0	0	-2.5	-0.004	0	0
298	-2.5	-0.002	2e-05	0	-2.5	-0.002	2e-05	0
299	-2.5	0.004	0	0	-2.5	0.004	0	0
300	-2.5	0.005	0	0	-2.5	0.005	0	0
301	-2.5	0.006	0	0	-2.5	0.006	0	0
302	-2.5	0.007	0	0	-2.5	0.007	0	0
303	-2.5	0.008	0	0	-2.5	0.008	0	0
304	-2.5	0.009	-2e-05	0	-2.5	0.009	-2e-05	0
305	-2.5	0.01	0	0	-2.5	0.01	0	0
306	-2.5	0.014	-2e-05	0	-2.5	0.014	-2e-05	0
307	-2.5	0.016	-2e-05	0	-2.5	0.016	-2e-05	0
308	-2.5	0.017	-2e-05	0	-2.5	0.017	-2e-05	0
309	-2.5	0.019	-2e-05	0	-2.5	0.019	-2e-05	0
310	-2.5	0.02	-2e-05	0	-2.5	0.02	-2e-05	0
311	-2.5	0.021	-4e-05	0	-2.5	0.021	-4e-05	0
312	-2.5	0.023	-2e-05	0	-2.5	0.023	-2e-05	0
313	-2.5	0.024	-2e-05	0	-2.5	0.024	-2e-05	0
314	-2.5	0.025	-4e-05	0	-2.5	0.025	-4e-05	0
315	-2.5	0.025	-2e-05	0	-2.5	0.025	-2e-05	0
316	-2.5	0.026	-2e-05	0	-2.5	0.026	-2e-05	0
317	-2.5	0.028	-4e-05	0	-2.5	0.028	-4e-05	0
318	-2.5	0.031	-4e-05	0	-2.5	0.031	-4e-05	0
319	-2.5	0.046	-6e-05	0	-2.5	0.046	-6e-05	0
320	-2.5	0.048	-6e-05	0	-2.5	0.048	-6e-05	0
321	-2	-0.029	4e-05	0	-2	-0.029	4e-05	0
322	-2	-0.016	2e-05	0	-2	-0.016	2e-05	0
323	-2	-0.007	2e-05	0	-2	-0.007	2e-05	0
324	-2	-0.006	2e-05	0	-2	-0.006	2e-05	0
325	-2	-0.003	0	0	-2	-0.003	0	0
326	-2	0.002	0	0	-2	0.002	0	0
327	-2	0.003	0	0	-2	0.003	0	0
328	-2	0.004	0	0	-2	0.004	0	0
329	-2	0.005	0	0	-2	0.005	0	0
330	-2	0.006	0	0	-2	0.006	0	0
331	-2	0.007	0	0	-2	0.007	0	0
332	-2	0.009	0	0	-2	0.009	0	0
333	-2	0.011	-2e-05	0	-2	0.011	-2e-05	0
334	-2	0.011	0	0	-2	0.011	0	0
335	-2	0.013	-2e-05	0	-2	0.013	-2e-05	0
336	-2	0.013	0	0	-2	0.013	0	0
337	-2	0.015	-2e-05	0	-2	0.015	-2e-05	0
338	-2	0.015	0	0	-2	0.015	0	0
339	-2	0.017	-2e-05	0	-2	0.017	-2e-05	0
340	-2	0.018	-2e-05	0	-2	0.018	-2e-05	0
341	-2	0.018	0	0	-2	0.018	0	0
342	-2	0.019	-2e-05	0	-2	0.019	-2e-05	0
343	-2	0.02	-2e-05	0	-2	0.02	-2e-05	0
344	-2	0.021	-4e-05	0	-2	0.021	-4e-05	0
345	-2	0.021	-2e-05	0	-2	0.021	-2e-05	0
346	-2	0.022	-4e-05	0	-2	0.022	-4e-05	0
347	-2	0.022	-2e-05	0	-2	0.022	-2e-05	0
348	-2	0.023	-2e-05	0	-2	0.023	-2e-05	0
349	-2	0.026	-4e-05	0	-2	0.026	-4e-05	0
350	-2	0.029	-2e-05	0	-2	0.029	-2e-05	0
351	-2	0.032	-2e-05	0	-2	0.032	-2e-05	0
352	-1.5	-0.022	2e-05	0	-1.5	-0.022	2e-05	0
353	-1.5	-0.013	2e-05	0	-1.5	-0.013	2e-05	0
354	-1.5	-0.011	2e-05	0	-1.5	-0.011	2e-05	0
355	-1.5	-0.002	0	0	-1.5	-0.002	0	0
356	-1.5	0	2e-05	0	-1.5	0	2e-05	0
357	-1.5	0.003	0	0	-1.5	0.003	0	0
358	-1.5	0.004	-2e-05	0	-1.5	0.004	-2e-05	0
359	-1.5	0.004	0	0	-1.5	0.004	0	0
360	-1.5	0.007	0	0	-1.5	0.007	0	0
361	-1.5	0.009	-2e-05	0	-1.5	0.009	-2e-05	0
362	-1.5	0.01	-2e-05	0	-1.5	0.01	-2e-05	0
363	-1.5	0.011	0	0	-1.5	0.011	0	0
364	-1.5	0.012	-2e-05	0	-1.5	0.012	-2e-05	0
365	-1.5	0.013	-2e-05	0	-1.5	0.013	-2e-05	0
366	-1.5	0.014	-2e-05	0	-1.5	0.014	-2e-05	0
367	-1.5	0.016	0	0	-1.5	0.016	0	0
368	-1.5	0.019	-2e-05	0	-1.5	0.019	-2e-05	0
369	-1.5	0.021	-2e-05	0	-1.5	0.021	-2e-05	0
370	-1.5	0.023	-2e-05	0	-1.5	0.023	-2e-05	0
371	-1.5	0.024	-2e-05	0	-1.5	0.024	-2e-05	0
372	-1.5	0.026	-4e-05	0	-1.5	0.026	-4e-05	0
373	-1.5	0.031	-4e-05	0	-1.5	0.031	-4e-05	0
374	-1.5	0.036	-4e-05	0	-1.5	0.036	-4e-05	0
375	-1.5	0.04	-4e-05	0	-1.5	0.04	-4e-05	0
376	-1	-0.032	4e-05	0	-1	-0.032	4e-05	0
377	-1	-0.03	4e-05	0	-1	-0.03	4e-05	0
378	-1	-0.022	2e-05	0	-1	-0.022	2e-05	0
379	-1	-0.02	2e-05	0	-1	-0.02	2e-05	0
380	-1	-0.018	2e-05	0	-1	-0.018	2e-05	0
381	-1	-0.011	2e-05	0	-1	-0.011	2e-05	0
382	-1	-0.009	2e-05	0	-1	-0.009	2e-05	0
383	-1	-0.008	0	0	-1	-0.008	0	0
384	-1	-0.007	0	0	-1	-0.007	0	0
385	-1	-0.006	0	0	-1	-0.006	0	0
386	-1	-0.005	0	0	-1	-0.005	0	0
387	-1	-0.002	0	0	-1	-0.002	0	0
388	-1	-0.001	0	0	-1	-0.001	0	0
389	-1	0.001	0	0	-1	0.001	0	0
390	-1	0.002	0	0	-1	0.002	0	0
391	-1	0.003	0	0	-1	0.003	0	0
392	-1	0.004	0	0	-1	0.004	0	0
393	-1	0.005	0	0	-1	0.005	0	0
394	-1	0.006	0	0	-1	0.006	0	0
395	-1	0.007	0	0	-1	0.007	0	0
396	-1	0.008	0	0	-1	0.008	0	0
397	-1	0.011	-2e-05	0	-1	0.011	-2e-05	0
398	-1	0.012	-2e-05	0	-1	0.012	-2e-05	0
399	-1	0.013	0	0	-1	0.013	0	0
400	-1	0.014	-2e-05	0	-1	0.014	-2e-05	0
401	-1	0.015	-2e-05	0	-1	0.015	-2e-05	0
402	-1	0.017	-2e-05	0	-1	0.017	-2e-05	0
403	-1	0.018	-2e-05	0	-1	0.018	-2e-05	0
404	-1	0.019	-2e-05	0	-1	0.019	-2e-05	0
405	-1	0.027	-2e-05	0	-1	0.027	-2e-05	0
406	-1	0.041	-4e-05	0	-1	0.041	-4e-05	0
407	-1	0.042	-4e-05	0	-1	0.042	-4e-05	0
408	-0.5	-0.02	2e-05	0	-0.5	-0.02	2e-05	0
409	-0.5	-0.019	2e-05	0	-0.5	-0.019	2e-05	0
410	-0.5	-0.011	2e-05	0	-0.5	-0.011	2e-05	0
411	-0.5	-0.01	0	0	-0.5	-0.01	0	0
412	-0.5	-0.01	2e-05	0	-0.5	-0.01	2e-05	0
413	-0.5	-0.004	0	0	-0.5	-0.004	0	0
414	-0.5	-0.002	2e-05	0	-0.5	-0.002	2e-05	0
415	-0.5	0	0	0	-0.5	0	0	0
416	-0.5	0.001	0	0	-0.5	0.001	0	0
417	-0.5	0.002	0	0	-0.5	0.002	0	0
418	-0.5	0.003	0	0	-0.5	0.003	0	0
419	-0.5	0.004	0	0	-0.5	0.004	0	0
420	-0.5	0.005	0	0	-0.5	0.005	0	0
421	-0.5	0.009	-2e-05	0	-0.5	0.009	-2e-05	0
422	-0.5	0.01	0	0	-0.5	0.01	0	0
423	-0.5	0.015	-2e-05	0	-0.5	0.015	-2e-05	0
424	-0.5	0.016	-2e-05	0	-0.5	0.016	-2e-05	0
425	-0.5	0.017	-2e-05	0	-0.5	0.017	-2e-05	0
426	-0.5	0.023	-2e-05	0	-0.5	0.023	-2e-05	0
427	-0.5	0.034	-4e-05	0	-0.5	0.034	-4e-05	0
428	-0.5	0.035	-4e-05	0	-0.5	0.035	-4e-05	0
429	-0.5	0.036	-4e-05	0	-0.5	0.036	-4e-05	0
430	0	-0.029	4e-05	0	0	-0.029	4e-05	0
431	0	-0.021	2e-05	0	0	-0.021	2e-05	0
432	0	-0.02	2e-05	0	0	-0.02	2e-05	0
433	0	-0.016	2e-05	0	0	-0.016	2e-05	0
434	0	-0.015	2e-05	0	0	-0.015	2e-05	0
435	0	-0.014	0	0	0	-0.014	0	0
436	0	-0.014	2e-05	0	0	-0.014	2e-05	0
437	0	-0.013	2e-05	0	0	-0.013	2e-05	0
438	0	-0.012	2e-05	0	0	-0.012	2e-05	0
439	0	-0.011	2e-05	0	0	-0.011	2e-05	0
440	0	-0.01	2e-05	0	0	-0.01	2e-05	0
441	0	-0.007	0	0	0	-0.007	0	0
442	0	-0.006	0	0	0	-0.006	0	0
443	0	-0.004	0	0	0	-0.004	0	0
444	0	-0.002	0	0	0	-0.002	0	0
445	0	-0.001	0	0	0	-0.001	0	0
446	0	0	0	0	0	0	0	0
447	0	0.001	-2e-05	0	0	0.001	-2e-05	0
448	0	0.001	0	0	0	0.001	0	0
449	0	0.002	0	0	0	0.002	0	0
450	0	0.003	0	0	0	0.003	0	0
451	0	0.004	-2e-05	0	0	0.004	-2e-05	0
452	0	0.004	0	0	0	0.004	0	0
453	0	0.005	0	0	0	0.005	0	0
454	0	0.007	-2e-05	0	0	0.007	-2e-05	0
455	0	0.008	-2e-05	0	0	0.008	-2e-05	0
456	0	0.01	-2e-05	0	0	0.01	-2e-05	0
457	0	0.011	-2e-05	0	0	0.011	-2e-05	0
458	0	0.015	-2e-05	0	0	0.015	-2e-05	0
459	0	0.024	-2e-05	0	0	0.024	-2e-05	0
460	0	0.025	-2e-05	0	0	0.025	-2e-05	0
461	0	0.026	-2e-05	0	0	0.026	-2e-05	0
462	0.5	-0.029	4e-05	0	0.5	-0.029	4e-05	0
463	0.5	-0.024	2e-05	0	0.5	-0.024	2e-05	0
464	0.5	-0.023	2e-05	0	0.5	-0.023	2e-05	0
465	0.5	-0.02	2e-05	0	0.5	-0.02	2e-05	0
466	0.5	-0.017	2e-05	0	0.5	-0.017	2e-05	0
467	0.5	-0.014	2e-05	0	0.5	-0.014	2e-05	0
468	0.5	-0.013	2e-05	0	0.5	-0.013	2e-05	0
469	0.5	-0.009	2e-05	0	0.5	-0.009	2e-05	0
470	0.5	-0.005	0	0	0.5	-0.005	0	0
471	0.5	-0.004	0	0	0.5	-0.004	0	0
472	0.5	-0.003	0	0	0.5	-0.003	0	0
473	0.5	-0.003	2e-05	0	0.5	-0.003	2e-05	0
474	0.5	-0.002	0	0	0.5	-0.002	0	0
475	0.5	0	0	0	0.5	0	0	0
476	0.5	0.001	-2e-05	0	0.5	0.001	-2e-05	0
477	0.5	0.002	0	0	0.5	0.002	0	0
478	0.5	0.003	0	0	0.5	0.003	0	0
479	0.5	0.008	-2e-05	0	0.5	0.008	-2e-05	0
480	0.5	0.01	-2e-05	0	0.5	0.01	-2e-05	0
481	0.5	0.012	-2e-05	0	0.5	0.012	-2e-05	0
482	0.5	0.013	-2e-05	0	0.5	0.013	-2e-05	0
483	0.5	0.015	-2e-05	0	0.5	0.015	-2e-05	0
484	0.5	0.016	-2e-05	0	0.5	0.016	-2e-05	0
485	0.5	0.02	-2e-05	0	0.5	0.02	-2e-05	0
486	0.5	0.023	-2e-05	0	0.5	0.023	-2e-05	0
487	1	-0.04	6e-05	0	1	-0.04	6e-05	0
488	1	-0.034	4e-05	0	1	-0.034	4e-05	0
489	1	-0.027	2e-05	0	1	-0.027	2e-05	0
490	1	-0.024	2e-05	0	1	-0.024	2e-05	0
491	1	-0.023	2e-05	0	1	-0.023	2e-05	0
492	1	-0.022	2e-05	0	1	-0.022	2e-05	0
493	1	-0.021	2e-05	0	1	-0.021	2e-05	0
494	1	-0.016	0	0	1	-0.016	0	0
495	1	-0.01	0	0	1	-0.01	0	0
496	1	-0.008	0	0	1	-0.008	0	0
497	1	-0.007	0	0	1	-0.007	0	0
498	1	-0.006	2e-05	0	1	-0.006	2e-05	0
499	1	-0.005	0	0	1	-0.005	0	0
500	1	-0.004	0	0	1	-0.004	0	0
501	1	-0.003	0	0	1	-0.003	0	0
502	1	-0.003	2e-05	0	1	-0.003	2e-05	0
503	1	-0.002	0	0	1	-0.002	0	0
504	1	0	0	0	1	0	0	0
505	1	0.004	-2e-05	0	1	0.004	-2e-05	0
506	1	0.009	-2e-05	0	1	0.009	-2e-05	0
507	1	0.014	-2e-05	0	1	0.014	-2e-05	0
508	1	0.016	-4e-05	0	1	0.016	-4e-05	0
509	1	0.02	-2e-05	0	1	0.02	-2e-05	0
510	1	0.027	-4e-05	0	1	0.027	-4e-05	0
511	1	0.028	-4e-05	0	1	0.028	-4e-05	0
512	1	0.044	-6e-05	0	1	0.044	-6e-05	0
513	1.5	-0.048	6e-05	0	1.5	-0.048	6e-05	0
514	1.5	-0.043	4e-05	0	1.5	-0.043	4e-05	0
515	1.5	-0.032	4e-05	0	1.5	-0.032	4e-05	0
516	1.5	-0.029	2e-05	0	1.5	-0.029	2e-05	0
517	1.5	-0.026	2e-05	0	1.5	-0.026	2e-05	0
518	1.5	-0.025	2e-05	0	1.5	-0.025	2e-05	0
519	1.5	-0.02	2e-05	0	1.5	-0.02	2e-05	0
520	1.5	-0.019	4e-05	0	1.5	-0.019	4e-05	0
521	1.5	-0.017	2e-05	0	1.5	-0.017	2e-05	0
522	1.5	-0.015	2e-05	0	1.5	-0.015	2e-05	0
523	1.5	-0.011	2e-05	0	1.5	-0.011	2e-05	0
524	1.5	-0.009	0	0	1.5	-0.009	0	0
525	1.5	-0.008	2e-05	0	1.5	-0.008	2e-05	0
526	1.5	-0.007	0	0	1.5	-0.007	0	0
527	1.5	-0.006	0	0	1.5	-0.006	0	0
528	1.5	-0.005	0	0	1.5	-0.005	0	0
529	1.5	-0.004	0	0	1.5	-0.004	0	0
530	1.5	-0.002	0	0	1.5	-0.002	0	0
531	1.5	-0.001	0	0	1.5	-0.001	0	0
532	1.5	0	0	0	1.5	0	0	0
533	1.5	0.001	0	0	1.5	0.001	0	0
534	1.5	0.002	0	0	1.5	0.002	0	0
535	1.5	0.003	0	0	1.5	0.003	0	0
536	1.5	0.004	-2e-05	0	1.5	0.004	-2e-05	0
537	1.5	0.005	0	0	1.5	0.005	0	0
538	1.5	0.011	-2e-05	0	1.5	0.011	-2e-05	0
539	1.5	0.012	-2e-05	0	1.5	0.012	-2e-05	0
540	2	-0.052	6e-05	0	2	-0.052	6e-05	0
541	2	-0.029	4e-05	0	2	-0.029	4e-05	0
542	2	-0.026	2e-05	0	2	-0.026	2e-05	0
543	2	-0.025	2e-05	0	2	-0.025	2e-05	0
544	2	-0.022	4e-05	0	2	-0.022	4e-05	0
545	2	-0.021	2e-05	0	2	-0.021	2e-05	0
546	2	-0.02	2e-05	0	2	-0.02	2e-05	0
547	2	-0.02	4e-05	0	2	-0.02	4e-05	0
548	2	-0.019	2e-05	0	2	-0.019	2e-05	0
549	2	-0.018	2e-05	0	2	-0.018	2e-05	0
550	2	-0.017	2e-05	0	2	-0.017	2e-05	0
551	2	-0.015	2e-05	0	2	-0.015	2e-05	0
552	2	-0.013	0	0	2	-0.013	0	0
553	2	-0.013	2e-05	0	2	-0.013	2e-05	0
554	2	-0.01	2e-05	0	2	-0.01	2e-05	0
555	2	-0.006	0	0	2	-0.006	0	0
556	2	-0.005	0	0	2	-0.005	0	0
557	2	-0.004	0	0	2	-0.004	0	0
558	2	-0.003	0	0	2	-0.003	0	0
559	2	-0.002	0	0	2	-0.002	0	0
560	2	-0.001	0	0	2	-0.001	0	0
561	2	0.002	0	0	2	0.002	0	0
562	2	0.003	0	0	2	0.003	0	0
563	2	0.008	-2e-05	0	2	0.008	-2e-05	0
564	2	0.012	0	0	2	0.012	0	0
565	2	0.026	-2e-05	0	2	0.026	-2e-05	0
566	2.5	-0.045	4e-05	0	2.5	-0.045	4e-05	0
567	2.5	-0.037	4e-05	0	2.5	-0.037	4e-05	0
568	2.5	-0.036	4e-05	0	2.5	-0.036	4e-05	0
569	2.5	-0.034	4e-05	0	2.5	-0.034	4e-05	0
570	2.5	-0.026	4e-05	0	2.5	-0.026	4e-05	0
571	2.5	-0.025	2e-05	0	2.5	-0.025	2e-05	0
572	2.5	-0.023	2e-05	0	2.5	-0.023	2e-05	0
573	2.5	-0.023	4e-05	0	2.5	-0.023	4e-05	0
574	2.5	-0.022	2e-05	0	2.5	-0.022	2e-05	0
575	2.5	-0.021	2e-05	0	2.5	-0.021	2e-05	0
576	2.5	-0.02	2e-05	0	2.5	-0.02	2e-05	0
577	2.5	-0.018	0	0	2.5	-0.018	0	0
578	2.5	-0.018	2e-05	0	2.5	-0.018	2e-05	0
579	2.5	-0.017	2e-05	0	2.5	-0.017	2e-05	0
580	2.5	-0.016	2e-05	0	2.5	-0.016	2e-05	0
581	2.5	-0.015	0	0	2.5	-0.015	0	0
582	2.5	-0.012	2e-05	0	2.5	-0.012	2e-05	0
583	2.5	-0.004	0	0	2.5	-0.004	0	0
584	2.5	-0.002	0	0	2.5	-0.002	0	0
585	2.5	-0.001	0	0	2.5	-0.001	0	0
586	2.5	0.004	-2e-05	0	2.5	0.004	-2e-05	0
587	2.5	0.01	-2e-05	0	2.5	0.01	-2e-05	0
588	2.5	0.023	-4e-05	0	2.5	0.023	-4e-05	0
589	3	-0.051	6e-05	0	3	-0.051	6e-05	0
590	3	-0.045	4e-05	0	3	-0.045	4e-05	0
591	3	-0.044	6e-05	0	3	-0.044	6e-05	0
592	3	-0.042	4e-05	0	3	-0.042	4e-05	0
593	3	-0.037	4e-05	0	3	-0.037	4e-05	0
594	3	-0.036	4e-05	0	3	-0.036	4e-05	0
595	3	-0.033	4e-05	0	3	-0.033	4e-05	0
596	3	-0.031	2e-05	0	3	-0.031	2e-05	0
597	3	-0.031	4e-05	0	3	-0.031	4e-05	0
598	3	-0.027	2e-05	0	3	-0.027	2e-05	0
599	3	-0.027	4e-05	0	3	-0.027	4e-05	0
600	3	-0.026	2e-05	0	3	-0.026	2e-05	0
601	3	-0.025	2e-05	0	3	-0.025	2e-05	0
602	3	-0.025	4e-05	0	3	-0.025	4e-05	0
603	3	-0.024	2e-05	0	3	-0.024	2e-05	0
604	3	-0.023	2e-05	0	3	-0.023	2e-05	0
605	3	-0.022	2e-05	0	3	-0.022	2e-05	0
606	3	-0.021	0	0	3	-0.021	0	0
607	3	-0.019	2e-05	0	3	-0.019	2e-05	0
608	3	-0.018	2e-05	0	3	-0.018	2e-05	0
609	3	-0.015	2e-05	0	3	-0.015	2e-05	0
610	3	-0.013	2e-05	0	3	-0.013	2e-05	0
611	3	-0.01	2e-05	0	3	-0.01	2e-05	0
612	3	-0.009	0	0	3	-0.009	0	0
613	3	-0.007	0	0	3	-0.007	0	0
614	3	-0.006	0	0	3	-0.006	0	0
615	3	-0.005	0	0	3	-0.005	0	0
616	3	-0.004	0	0	3	-0.004	0	0
617	3	-0.003	-2e-05	0	3	-0.003	-2e-05	0
618	3	-0.002	0	0	3	-0.002	0	0
619	3	-0.001	0	0	3	-0.001	0	0
620	3	0.001	0	0	3	0.001	0	0
621	3	0.003	-2e-05	0	3	0.003	-2e-05	0
622	3	0.005	0	0	3	0.005	0	0
623	3	0.008	0	0	3	0.008	0	0
624	3.5	-0.042	6e-05	0	3.5	-0.042	6e-05	0
625	3.5	-0.041	4e-05	0	3.5	-0.041	4e-05	0
626	3.5	-0.04	4e-05	0	3.5	-0.04	4e-05	0
627	3.5	-0.038	4e-05	0	3.5	-0.038	4e-05	0
628	3.5	-0.037	4e-05	0	3.5	-0.037	4e-05	0
629	3.5	-0.034	4e-05	0	3.5	-0.034	4e-05	0
630	3.5	-0.029	4e-05	0	3.5	-0.029	4e-05	0
631	3.5	-0.027	2e-05	0	3.5	-0.027	2e-05	0
632	3.5	-0.026	2e-05	0	3.5	-0.026	2e-05	0
633	3.5	-0.025	2e-05	0	3.5	-0.025	2e-05	0
634	3.5	-0.025	4e-05	0	3.5	-0.025	4e-05	0
635	3.5	-0.023	2e-05	0	3.5	-0.023	2e-05	0
636	3.5	-0.022	2e-05	0	3.5	-0.022	2e-05	0
637	3.5	-0.021	2e-05	0	3.5	-0.021	2e-05	0
638	3.5	-0.02	2e-05	0	3.5	-0.02	2e-05	0
639	3.5	-0.019	0	0	3.5	-0.019	0	0
640	3.5	-0.019	2e-05	0	3.5	-0.019	2e-05	0
641	3.5	-0.018	2e-05	0	3.5	-0.018	2e-05	0
642	3.5	-0.017	2e-05	0	3.5	-0.017	2e-05	0
643	3.5	-0.009	0	0	3.5	-0.009	0	0
644	3.5	-0.005	0	0	3.5	-0.005	0	0
645	3.5	-0.002	0	0	3.5	-0.002	0	0
646	3.5	0	0	0	3.5	0	0	0
647	3.5	0.016	-2e-05	0	3.5	0.016	-2e-05	0
648	4	-0.062	6e-05	0	4	-0.062	6e-05	0
649	4	-0.047	4e-05	0	4	-0.047	4e-05	0
650	4	-0.044	4e-05	0	4	-0.044	4e-05	0
651	4	-0.042	4e-05	0	4	-0.042	4e-05	0
652	4	-0.04	4e-05	0	4	-0.04	4e-05	0
653	4	-0.038	4e-05	0	4	-0.038	4e-05	0
654	4	-0.037	4e-05	0	4	-0.037	4e-05	0
655	4	-0.035	4e-05	0	4	-0.035	4e-05	0
