0	-10	0.025	0	0	-10	0.025	0	0
1	-10	0.027	-2e-05	0	-10	0.027	-2e-05	0
2	-10	0.028	-2e-05	0	-10	0.028	-2e-05	0
3	-10	0.029	-2e-05	0	-10	0.029	-2e-05	0
4	-10	0.03	-2e-05	0	-10	0.03	-2e-05	0
5	-10	0.031	-2e-05	0	-10	0.031	-2e-05	0
6	-10	0.032	-2e-05	0	-10	0.032	-2e-05	0
7	-10	0.033	-2e-05	0	-10	0.033	-2e-05	0
8	-10	0.034	-2e-05	0	-10	0.034	-2e-05	0
9	-10	0.036	-4e-05	0	-10	0.036	-4e-05	0
10	-10	0.039	-4e-05	0	-10	0.039	-4e-05	0
11	-10	0.041	-4e-05	0	-10	0.041	-4e-05	0
12	-10	0.042	-2e-05	0	-10	0.042	-2e-05	0
13	-10	0.045	-4e-05	0	-10	0.045	-4e-05	0
14	-10	0.047	-4e-05	0	-10	0.047	-4e-05	0
15	-10	0.048	-6e-05	0	-10	0.048	-6e-05	0
16	-10	0.049	-4e-05	0	-10	0.049	-4e-05	0
17	-10	0.051	-6e-05	0	-10	0.051	-6e-05	0
18	-10	0.053	-6e-05	0	-10	0.053	-6e-05	0
19	-10	0.061	-6e-05	0	-10	0.061	-6e-05	0
20	-10	0.069	-8e-05	0	-10	0.069	-8e-05	0
21	-9.5	0.026	-2e-05	0	-9.5	0.026	-2e-05	0
22	-9.5	0.028	-2e-05	0	-9.5	0.028	-2e-05	0
23	-9.5	0.028	0	0	-9.5	0.028	0	0
24	-9.5	0.029	-2e-05	0	-9.5	0.029	-2e-05	0
25	-9.5	0.03	-2e-05	0	-9.5	0.03	-2e-05	0
26	-9.5	0.032	-2e-05	0	-9.5	0.032	-2e-05	0
27	-9.5	0.035	-4e-05	0	-9.5	0.035	-4e-05	0
28	-9.5	0.037	-4e-05	0	-9.5	0.037	-4e-05	0
29	-9.5	0.038	-4e-05	0	-9.5	0.038	-4e-05	0
30	-9.5	0.04	-4e-05	0	-9.5	0.04	-4e-05	0
31	-9.5	0.042	-4e-05	0	-9.5	0.042	-4e-05	0
32	-9.5	0.046	-4e-05	0	-9.5	0.046	-4e-05	0
33	-9.5	0.047	-6e-05	0	-9.5	0.047	-6e-05	0
34	-9.5	0.047	-4e-05	0	-9.5	0.047	-4e-05	0
35	-9.5	0.049	-6e-05	0	-9.5	0.049	-6e-05	0
36	-9.5	0.051	-4e-05	0	-9.5	0.051	-4e-05	0
37	-9.5	0.052	-6e-05	0	-9.5	0.052	-6e-05	0
38	-9.5	0.063	-8e-05	0	-9.5	0.063	-8e-05	0
39	-9	0.021	0	0	-9	0.021	0	0
40	-9	0.022	0	0	-9	0.022	0	0
41	-9	0.024	-2e-05	0	-9	0.024	-2e-05	0
42	-9	0.025	-2e-05	0	-9	0.025	-2e-05	0
43	-9	0.027	-2e-05	0	-9	0.027	-2e-05	0
44	-9	0.028	-4e-05	0	-9	0.028	-4e-05	0
45	-9	0.028	-2e-05	0	-9	0.028	-2e-05	0
46	-9	0.029	-2e-05	0	-9	0.029	-2e-05	0
47	-9	0.03	-2e-05	0	-9	0.03	-2e-05	0
48	-9	0.032	-4e-05	0	-9	0.032	-4e-05	0
49	-9	0.034	-4e-05	0	-9	0.034	-4e-05	0
50	-9	0.034	-2e-05	0	-9	0.034	-2e-05	0
51	-9	0.035	-4e-05	0	-9	0.035	-4e-05	0
52	-9	0.039	-4e-05	0	-9	0.039	-4e-05	0
53	-9	0.043	-6e-05	0	-9	0.043	-6e-05	0
54	-9	0.043	-4e-05	0	-9	0.043	-4e-05	0
55	-9	0.047	-6e-05	0	-9	0.047	-6e-05	0
56	-9	0.048	-6e-05	0	-9	0.048	-6e-05	0
57	-9	0.052	-4e-05	0	-9	0.052	-4e-05	0
58	-8.5	0.013	0	0	-8.5	0.013	0	0
59	-8.5	0.015	0	0	-8.5	0.015	0	0
60	-8.5	0.017	0	0	-8.5	0.017	0	0
61	-8.5	0.018	0	0	-8.5	0.018	0	0
62	-8.5	0.019	0	0	-8.5	0.019	0	0
63	-8.5	0.023	0	0	-8.5	0.023	0	0
64	-8.5	0.025	-2e-05	0	-8.5	0.025	-2e-05	0
65	-8.5	0.027	-2e-05	0	-8.5	0.027	-2e-05	0
66	-8.5	0.034	-4e-05	0	-8.5	0.034	-4e-05	0
67	-8.5	0.035	-2e-05	0	-8.5	0.035	-2e-05	0
68	-8.5	0.036	-4e-05	0	-8.5	0.036	-4e-05	0
69	-8.5	0.036	-2e-05	0	-8.5	0.036	-2e-05	0
70	-8.5	0.038	-4e-05	0	-8.5	0.038	-4e-05	0
71	-8.5	0.039	-4e-05	0	-8.5	0.039	-4e-05	0
72	-8.5	0.042	-4e-05	0	-8.5	0.042	-4e-05	0
73	-8.5	0.043	-4e-05	0	-8.5	0.043	-4e-05	0
74	-8.5	0.044	-4e-05	0	-8.5	0.044	-4e-05	0
75	-8	0.01	2e-05	0	-8	0.01	2e-05	0
76	-8	0.011	0	0	-8	0.011	0	0
77	-8	0.015	0	0	-8	0.015	0	0
78	-8	0.016	0	0	-8	0.016	0	0
79	-8	0.018	-2e-05	0	-8	0.018	-2e-05	0
80	-8	0.018	0	0	-8	0.018	0	0
81	-8	0.02	0	0	-8	0.02	0	0
82	-8	0.025	-2e-05	0	-8	0.025	-2e-05	0
83	-8	0.027	-2e-05	0	-8	0.027	-2e-05	0
84	-8	0.032	-4e-05	0	-8	0.032	-4e-05	0
85	-8	0.033	-2e-05	0	-8	0.033	-2e-05	0
86	-8	0.035	-4e-05	0	-8	0.035	-4e-05	0
87	-8	0.035	-2e-05	0	-8	0.035	-2e-05	0
88	-8	0.036	-4e-05	0	-8	0.036	-4e-05	0
89	-8	0.038	-4e-05	0	-8	0.038	-4e-05	0
90	-8	0.04	-4e-05	0	-8	0.04	-4e-05	0
91	-8	0.042	-4e-05	0	-8	0.042	-4e-05	0
92	-8	0.043	-6e-05	0	-8	0.043	-6e-05	0
93	-8	0.045	-6e-05	0	-8	0.045	-6e-05	0
94	-8	0.047	-4e-05	0	-8	0.047	-4e-05	0
95	-8	0.049	-6e-05	0	-8	0.049	-6e-05	0
96	-7.5	0.017	0	0	-7.5	0.017	0	0
97	-7.5	0.018	0	0	-7.5	0.018	0	0
98	-7.5	0.022	-2e-05	0	-7.5	0.022	-2e-05	0
99	-7.5	0.023	-2e-05	0	-7.5	0.023	-2e-05	0
100	-7.5	0.024	-2e-05	0	-7.5	0.024	-2e-05	0
101	-7.5	0.025	-2e-05	0	-7.5	0.025	-2e-05	0
102	-7.5	0.026	-2e-05	0	-7.5	0.026	-2e-05	0
103	-7.5	0.027	-2e-05	0	-7.5	0.027	-2e-05	0
104	-7.5	0.028	-2e-05	0	-7.5	0.028	-2e-05	0
105	-7.5	0.029	-2e-05	0	-7.5	0.029	-2e-05	0
106	-7.5	0.032	-4e-05	0	-7.5	0.032	-4e-05	0
107	-7.5	0.037	-2e-05	0	-7.5	0.037	-2e-05	0
108	-7.5	0.039	-4e-05	0	-7.5	0.039	-4e-05	0
109	-7.5	0.045	-4e-05	0	-7.5	0.045	-4e-05	0
110	-7.5	0.046	-4e-05	0	-7.5	0.046	-4e-05	0
111	-7.5	0.047	-4e-05	0	-7.5	0.047	-4e-05	0
112	-7.5	0.051	-6e-05	0	-7.5	0.051	-6e-05	0
113	-7	0.005	2e-05	0	-7	0.005	2e-05	0
114	-7	0.012	0	0	-7	0.012	0	0
115	-7	0.013	0	0	-7	0.013	0	0
116	-7	0.016	0	0	-7	0.016	0	0
117	-7	0.02	-2e-05	0	-7	0.02	-2e-05	0
118	-7	0.02	0	0	-7	0.02	0	0
119	-7	0.021	0	0	-7	0.021	0	0
120	-7	0.022	-2e-05	0	-7	0.022	-2e-05	0
121	-7	0.022	0	0	-7	0.022	0	0
122	-7	0.026	-2e-05	0	-7	0.026	-2e-05	0
123	-7	0.032	-2e-05	0	-7	0.032	-2e-05	0
124	-7	0.033	-4e-05	0	-7	0.033	-4e-05	0
125	-7	0.033	-2e-05	0	-7	0.033	-2e-05	0
126	-7	0.034	-4e-05	0	-7	0.034	-4e-05	0
127	-7	0.037	-2e-05	0	-7	0.037	-2e-05	0
128	-7	0.041	-4e-05	0	-7	0.041	-4e-05	0
129	-7	0.046	-6e-05	0	-7	0.046	-6e-05	0
130	-7	0.048	-6e-05	0	-7	0.048	-6e-05	0
131	-7	0.055	-6e-05	0	-7	0.055	-6e-05	0
132	-6.5	0.009	0	0	-6.5	0.009	0	0
133	-6.5	0.011	0	0	-6.5	0.011	0	0
134	-6.5	0.013	0	0	-6.5	0.013	0	0
135	-6.5	0.017	-2e-05	0	-6.5	0.017	-2e-05	0
136	-6.5	0.018	-2e-05	0	-6.5	0.018	-2e-05	0
137	-6.5	0.018	0	0	-6.5	0.018	0	0
138	-6.5	0.022	-2e-05	0	-6.5	0.022	-2e-05	0
139	-6.5	0.022	0	0	-6.5	0.022	0	0
140	-6.5	0.023	-2e-05	0	-6.5	0.023	-2e-05	0
141	-6.5	0.024	-2e-05	0	-6.5	0.024	-2e-05	0
142	-6.5	0.026	-2e-05	0	-6.5	0.026	-2e-05	0
143	-6.5	0.027	-2e-05	0	-6.5	0.027	-2e-05	0
144	-6.5	0.029	-2e-05	0	-6.5	0.029	-2e-05	0
145	-6.5	0.032	-4e-05	0	-6.5	0.032	-4e-05	0
146	-6.5	0.034	-4e-05	0	-6.5	0.034	-4e-05	0
147	-6.5	0.035	-4e-05	0	-6.5	0.035	-4e-05	0
148	-6.5	0.039	-4e-05	0	-6.5	0.039	-4e-05	0
149	-6.5	0.04	-6e-05	0	-6.5	0.04	-6e-05	0
150	-6.5	0.044	-4e-05	0	-6.5	0.044	-4e-05	0
151	-6.5	0.045	-4e-05	0	-6.5	0.045	-4e-05	0
152	-6.5	0.048	-6e-05	0	-6.5	0.048	-6e-05	0
153	-6	0.004	2e-05	0	-6	0.004	2e-05	0
154	-6	0.007	0	0	-6	0.007	0	0
155	-6	0.007	2e-05	0	-6	0.007	2e-05	0
156	-6	0.01	0	0	-6	0.01	0	0
157	-6	0.014	0	0	-6	0.014	0	0
158	-6	0.017	-2e-05	0	-6	0.017	-2e-05	0
159	-6	0.021	-2e-05	0	-6	0.021	-2e-05	0
160	-6	0.023	-2e-05	0	-6	0.023	-2e-05	0
161	-6	0.024	-2e-05	0	-6	0.024	-2e-05	0
162	-6	0.025	-2e-05	0	-6	0.025	-2e-05	0
163	-6	0.029	-4e-05	0	-6	0.029	-4e-05	0
164	-6	0.029	-2e-05	0	-6	0.029	-2e-05	0
165	-6	0.03	-2e-05	0	-6	0.03	-2e-05	0
166	-6	0.031	-2e-05	0	-6	0.031	-2e-05	0
167	-6	0.032	-4e-05	0	-6	0.032	-4e-05	0
168	-6	0.032	-2e-05	0	-6	0.032	-2e-05	0
169	-6	0.033	-4e-05	0	-6	0.033	-4e-05	0
170	-6	0.034	-2e-05	0	-6	0.034	-2e-05	0
171	-6	0.039	-6e-05	0	-6	0.039	-6e-05	0
172	-6	0.043	-6e-05	0	-6	0.043	-6e-05	0
173	-5.5	-0.004	2e-05	0	-5.5	-0.004	2e-05	0
174	-5.5	-0.001	0	0	-5.5	-0.001	0	0
175	-5.5	0.003	2e-05	0	-5.5	0.003	2e-05	0
176	-5.5	0.005	0	0	-5.5	0.005	0	0
177	-5.5	0.007	2e-05	0	-5.5	0.007	2e-05	0
178	-5.5	0.009	0	0	-5.5	0.009	0	0
179	-5.5	0.014	-2e-05	0	-5.5	0.014	-2e-05	0
180	-5.5	0.014	0	0	-5.5	0.014	0	0
181	-5.5	0.018	-2e-05	0	-5.5	0.018	-2e-05	0
182	-5.5	0.019	-2e-05	0	-5.5	0.019	-2e-05	0
183	-5.5	0.019	0	0	-5.5	0.019	0	0
184	-5.5	0.02	-2e-05	0	-5.5	0.02	-2e-05	0
185	-5.5	0.02	0	0	-5.5	0.02	0	0
186	-5.5	0.022	-2e-05	0	-5.5	0.022	-2e-05	0
187	-5.5	0.023	-2e-05	0	-5.5	0.023	-2e-05	0
188	-5.5	0.024	-2e-05	0	-5.5	0.024	-2e-05	0
189	-5.5	0.028	-4e-05	0	-5.5	0.028	-4e-05	0
190	-5.5	0.037	-4e-05	0	-5.5	0.037	-4e-05	0
191	-5.5	0.043	-6e-05	0	-5.5	0.043	-6e-05	0
192	-5.5	0.048	-6e-05	0	-5.5	0.048	-6e-05	0
193	-5	-0.008	2e-05	0	-5	-0.008	2e-05	0
194	-5	-0.005	2e-05	0	-5	-0.005	2e-05	0
195	-5	-0.004	2e-05	0	-5	-0.004	2e-05	0
196	-5	0.004	0	0	-5	0.004	0	0
197	-5	0.006	0	0	-5	0.006	0	0
198	-5	0.006	2e-05	0	-5	0.006	2e-05	0
199	-5	0.007	0	0	-5	0.007	0	0
200	-5	0.009	0	0	-5	0.009	0	0
201	-5	0.01	0	0	-5	0.01	0	0
202	-5	0.012	0	0	-5	0.012	0	0
203	-5	0.013	0	0	-5	0.013	0	0
204	-5	0.014	0	0	-5	0.014	0	0
205	-5	0.017	-2e-05	0	-5	0.017	-2e-05	0
206	-5	0.018	-2e-05	0	-5	0.018	-2e-05	0
207	-5	0.018	0	0	-5	0.018	0	0
208	-5	0.019	-2e-05	0	-5	0.019	-2e-05	0
209	-5	0.021	-2e-05	0	-5	0.021	-2e-05	0
210	-5	0.022	-2e-05	0	-5	0.022	-2e-05	0
211	-5	0.024	-2e-05	0	-5	0.024	-2e-05	0
212	-5	0.025	-4e-05	0	-5	0.025	-4e-05	0
213	-5	0.025	-2e-05	0	-5	0.025	-2e-05	0
214	-5	0.026	-2e-05	0	-5	0.026	-2e-05	0
215	-5	0.027	-4e-05	0	-5	0.027	-4e-05	0
216	-5	0.028	-4e-05	0	-5	0.028	-4e-05	0
217	-5	0.029	-2e-05	0	-5	0.029	-2e-05	0
218	-5	0.031	-4e-05	0	-5	0.031	-4e-05	0
219	-5	0.033	-4e-05	0	-5	0.033	-4e-05	0
220	-5	0.033	-2e-05	0	-5	0.033	-2e-05	0
221	-5	0.034	-4e-05	0	-5	0.034	-4e-05	0
222	-5	0.036	-4e-05	0	-5	0.036	-4e-05	0
223	-5	0.038	-6e-05	0	-5	0.038	-6e-05	0
224	-5	0.046	-4e-05	0	-5	0.046	-4e-05	0
225	-5	0.048	-6e-05	0	-5	0.048	-6e-05	0
226	-4.5	-0.006	2e-05	0	-4.5	-0.006	2e-05	0
227	-4.5	-0.002	2e-05	0	-4.5	-0.002	2e-05	0
228	-4.5	0.003	0	0	-4.5	0.003	0	0
229	-4.5	0.003	2e-05	0	-4.5	0.003	2e-05	0
230	-4.5	0.005	0	0	-4.5	0.005	0	0
231	-4.5	0.009	0	0	-4.5	0.009	0	0
232	-4.5	0.01	0	0	-4.5	0.01	0	0
233	-4.5	0.013	0	0	-4.5	0.013	0	0
234	-4.5	0.015	-2e-05	0	-4.5	0.015	-2e-05	0
235	-4.5	0.018	-2e-05	0	-4.5	0.018	-2e-05	0
236	-4.5	0.021	0	0	-4.5	0.021	0	0
237	-4.5	0.022	-2e-05	0	-4.5	0.022	-2e-05	0
238	-4.5	0.024	-2e-05	0	-4.5	0.024	-2e-05	0
239	-4.5	0.027	-2e-05	0	-4.5	0.027	-2e-05	0
240	-4.5	0.028	-4e-05	0	-4.5	0.028	-4e-05	0
241	-4.5	0.028	-2e-05	0	-4.5	0.028	-2e-05	0
242	-4.5	0.029	-4e-05	0	-4.5	0.029	-4e-05	0
243	-4.5	0.03	-4e-05	0	-4.5	0.03	-4e-05	0
244	-4.5	0.03	-2e-05	0	-4.5	0.03	-2e-05	0
245	-4.5	0.031	-4e-05	0	-4.5	0.031	-4e-05	0
246	-4.5	0.033	-4e-05	0	-4.5	0.033	-4e-05	0
247	-4.5	0.035	-4e-05	0	-4.5	0.035	-4e-05	0
248	-4.5	0.036	-4e-05	0	-4.5	0.036	-4e-05	0
249	-4.5	0.039	-4e-05	0	-4.5	0.039	-4e-05	0
250	-4.5	0.041	-4e-05	0	-4.5	0.041	-4e-05	0
251	-4.5	0.042	-6e-05	0	-4.5	0.042	-6e-05	0
252	-4.5	0.043	-4e-05	0	-4.5	0.043	-4e-05	0
253	-4.5	0.044	-6e-05	0	-4.5	0.044	-6e-05	0
254	-4.5	0.046	-6e-05	0	-4.5	0.046	-6e-05	0
255	-4.5	0.047	-6e-05	0	-4.5	0.047	-6e-05	0
256	-4.5	0.05	-6e-05	0	-4.5	0.05	-6e-05	0
257	-4.5	0.052	-6e-05	0	-4.5	0.052	-6e-05	0
258	-4	-0.002	2e-05	0	-4	-0.002	2e-05	0
259	-4	-0.001	0	0	-4	-0.001	0	0
260	-4	0.002	0	0	-4	0.002	0	0
261	-4	0.005	0	0	-4	0.005	0	0
262	-4	0.008	0	0	-4	0.008	0	0
263	-4	0.009	0	0	-4	0.009	0	0
264	-4	0.01	0	0	-4	0.01	0	0
265	-4	0.014	-2e-05	0	-4	0.014	-2e-05	0
266	-4	0.016	-2e-05	0	-4	0.016	-2e-05	0
267	-4	0.016	0	0	-4	0.016	0	0
268	-4	0.018	-2e-05	0	-4	0.018	-2e-05	0
269	-4	0.018	0	0	-4	0.018	0	0
270	-4	0.019	-2e-05	0	-4	0.019	-2e-05	0
271	-4	0.022	-2e-05	0	-4	0.022	-2e-05	0
272	-4	0.023	-4e-05	0	-4	0.023	-4e-05	0
273	-4	0.023	-2e-05	0	-4	0.023	-2e-05	0
274	-4	0.024	-4e-05	0	-4	0.024	-4e-05	0
275	-4	0.024	-2e-05	0	-4	0.024	-2e-05	0
276	-4	0.025	-2e-05	0	-4	0.025	-2e-05	0
277	-4	0.028	-4e-05	0	-4	0.028	-4e-05	0
278	-4	0.029	-4e-05	0	-4	0.029	-4e-05	0
279	-4	0.032	-4e-05	0	-4	0.032	-4e-05	0
280	-4	0.036	-4e-05	0	-4	0.036	-4e-05	0
281	-4	0.037	-6e-05	0	-4	0.037	-6e-05	0
282	-4	0.037	-4e-05	0	-4	0.037	-4e-05	0
283	-4	0.041	-6e-05	0	-4	0.041	-6e-05	0
284	-3.5	-0.015	4e-05	0	-3.5	-0.015	4e-05	0
285	-3.5	-0.006	2e-05	0	-3.5	-0.006	2e-05	0
286	-3.5	-0.005	0	0	-3.5	-0.005	0	0
287	-3.5	-0.004	2e-05	0	-3.5	-0.004	2e-05	0
288	-3.5	-0.001	0	0	-3.5	-0.001	0	0
289	-3.5	0.001	0	0	-3.5	0.001	0	0
290	-3.5	0.003	0	0	-3.5	0.003	0	0
291	-3.5	0.004	0	0	-3.5	0.004	0	0
292	-3.5	0.005	0	0	-3.5	0.005	0	0
293	-3.5	0.006	0	0	-3.5	0.006	0	0
294	-3.5	0.007	0	0	-3.5	0.007	0	0
295	-3.5	0.009	0	0	-3.5	0.009	0	0
296	-3.5	0.01	0	0	-3.5	0.01	0	0
297	-3.5	0.011	0	0	-3.5	0.011	0	0
298	-3.5	0.012	0	0	-3.5	0.012	0	0
299	-3.5	0.013	-2e-05	0	-3.5	0.013	-2e-05	0
300	-3.5	0.014	-2e-05	0	-3.5	0.014	-2e-05	0
301	-3.5	0.014	0	0	-3.5	0.014	0	0
302	-3.5	0.015	-2e-05	0	-3.5	0.015	-2e-05	0
303	-3.5	0.016	-2e-05	0	-3.5	0.016	-2e-05	0
304	-3.5	0.017	-2e-05	0	-3.5	0.017	-2e-05	0
305	-3.5	0.018	-2e-05	0	-3.5	0.018	-2e-05	0
306	-3.5	0.019	-4e-05	0	-3.5	0.019	-4e-05	0
307	-3.5	0.019	-2e-05	0	-3.5	0.019	-2e-05	0
308	-3.5	0.021	-4e-05	0	-3.5	0.021	-4e-05	0
309	-3.5	0.021	-2e-05	0	-3.5	0.021	-2e-05	0
310	-3.5	0.024	-4e-05	0	-3.5	0.024	-4e-05	0
311	-3.5	0.026	-4e-05	0	-3.5	0.026	-4e-05	0
312	-3.5	0.026	-2e-05	0	-3.5	0.026	-2e-05	0
313	-3.5	0.027	-2e-05	0	-3.5	0.027	-2e-05	0
314	-3.5	0.031	-4e-05	0	-3.5	0.031	-4e-05	0
315	-3.5	0.036	-6e-05	0	-3.5	0.036	-6e-05	0
316	-3.5	0.036	-4e-05	0	-3.5	0.036	-4e-05	0
317	-3.5	0.04	-6e-05	0	-3.5	0.04	-6e-05	0
318	-3.5	0.041	-6e-05	0	-3.5	0.041	-6e-05	0
319	-3.5	0.043	-6e-05	0	-3.5	0.043	-6e-05	0
320	-3.5	0.047	-6e-05	0	-3.5	0.047	-6e-05	0
321	-3	-0.016	4e-05	0	-3	-0.016	4e-05	0
322	-3	-0.015	4e-05	0	-3	-0.015	4e-05	0
323	-3	-0.008	2e-05	0	-3	-0.008	2e-05	0
324	-3	-0.006	2e-05	0	-3	-0.006	2e-05	0
325	-3	-0.004	2e-05	0	-3	-0.004	2e-05	0
326	-3	-0.003	2e-05	0	-3	-0.003	2e-05	0
327	-3	-0.001	0	0	-3	-0.001	0	0
328	-3	-0.001	2e-05	0	-3	-0.001	2e-05	0
329	-3	0	2e-05	0	-3	0	2e-05	0
330	-3	0.003	0	0	-3	0.003	0	0
331	-3	0.003	2e-05	0	-3	0.003	2e-05	0
332	-3	0.005	0	0	-3	0.005	0	0
333	-3	0.006	-2e-05	0	-3	0.006	-2e-05	0
334	-3	0.006	0	0	-3	0.006	0	0
335	-3	0.007	-2e-05	0	-3	0.007	-2e-05	0
336	-3	0.009	0	0	-3	0.009	0	0
337	-3	0.01	-2e-05	0	-3	0.01	-2e-05	0
338	-3	0.011	-2e-05	0	-3	0.011	-2e-05	0
339	-3	0.011	0	0	-3	0.011	0	0
340	-3	0.012	0	0	-3	0.012	0	0
341	-3	0.013	-2e-05	0	-3	0.013	-2e-05	0
342	-3	0.014	-2e-05	0	-3	0.014	-2e-05	0
343	-3	0.017	0	0	-3	0.017	0	0
344	-3	0.018	-2e-05	0	-3	0.018	-2e-05	0
345	-3	0.021	-2e-05	0	-3	0.021	-2e-05	0
346	-3	0.022	-4e-05	0	-3	0.022	-4e-05	0
347	-3	0.023	-4e-05	0	-3	0.023	-4e-05	0
348	-3	0.025	-2e-05	0	-3	0.025	-2e-05	0
349	-3	0.029	-4e-05	0	-3	0.029	-4e-05	0
350	-3	0.029	-2e-05	0	-3	0.029	-2e-05	0
351	-3	0.03	-4e-05	0	-3	0.03	-4e-05	0
352	-2.5	-0.016	4e-05	0	-2.5	-0.016	4e-05	0
353	-2.5	-0.014	4e-05	0	-2.5	-0.014	4e-05	0
354	-2.5	-0.007	2e-05	0	-2.5	-0.007	2e-05	0
355	-2.5	-0.006	2e-05	0	-2.5	-0.006	2e-05	0
356	-2.5	-0.004	0	0	-2.5	-0.004	0	0
357	-2.5	-0.004	2e-05	0	-2.5	-0.004	2e-05	0
358	-2.5	0	2e-05	0	-2.5	0	2e-05	0
359	-2.5	0.001	0	0	-2.5	0.001	0	0
360	-2.5	0.002	0	0	-2.5	0.002	0	0
361	-2.5	0.003	-2e-05	0	-2.5	0.003	-2e-05	0
362	-2.5	0.003	0	0	-2.5	0.003	0	0
363	-2.5	0.004	0	0	-2.5	0.004	0	0
364	-2.5	0.005	0	0	-2.5	0.005	0	0
365	-2.5	0.008	0	0	-2.5	0.008	0	0
366	-2.5	0.009	-2e-05	0	-2.5	0.009	-2e-05	0
367	-2.5	0.009	0	0	-2.5	0.009	0	0
368	-2.5	0.01	-2e-05	0	-2.5	0.01	-2e-05	0
369	-2.5	0.011	-2e-05	0	-2.5	0.011	-2e-05	0
370	-2.5	0.013	-2e-05	0	-2.5	0.013	-2e-05	0
371	-2.5	0.013	0	0	-2.5	0.013	0	0
372	-2.5	0.014	-2e-05	0	-2.5	0.014	-2e-05	0
373	-2.5	0.015	-2e-05	0	-2.5	0.015	-2e-05	0
374	-2.5	0.016	-2e-05	0	-2.5	0.016	-2e-05	0
375	-2.5	0.018	-2e-05	0	-2.5	0.018	-2e-05	0
376	-2.5	0.019	-4e-05	0	-2.5	0.019	-4e-05	0
377	-2.5	0.02	-2e-05	0	-2.5	0.02	-2e-05	0
378	-2.5	0.021	-4e-05	0	-2.5	0.021	-4e-05	0
379	-2.5	0.024	-4e-05	0	-2.5	0.024	-4e-05	0
380	-2.5	0.024	-2e-05	0	-2.5	0.024	-2e-05	0
381	-2.5	0.027	-4e-05	0	-2.5	0.027	-4e-05	0
382	-2.5	0.028	-2e-05	0	-2.5	0.028	-2e-05	0
383	-2.5	0.032	-4e-05	0	-2.5	0.032	-4e-05	0
384	-2.5	0.034	-4e-05	0	-2.5	0.034	-4e-05	0
385	-2.5	0.038	-6e-05	0	-2.5	0.038	-6e-05	0
386	-2.5	0.038	-4e-05	0	-2.5	0.038	-4e-05	0
387	-2.5	0.043	-6e-05	0	-2.5	0.043	-6e-05	0
388	-2	-0.023	4e-05	0	-2	-0.023	4e-05	0
389	-2	-0.021	4e-05	0	-2	-0.021	4e-05	0
390	-2	-0.014	2e-05	0	-2	-0.014	2e-05	0
391	-2	-0.01	2e-05	0	-2	-0.01	2e-05	0
392	-2	-0.009	2e-05	0	-2	-0.009	2e-05	0
393	-2	-0.008	2e-05	0	-2	-0.008	2e-05	0
394	-2	-0.007	0	0	-2	-0.007	0	0
395	-2	-0.005	2e-05	0	-2	-0.005	2e-05	0
396	-2	-0.004	2e-05	0	-2	-0.004	2e-05	0
397	-2	-0.003	2e-05	0	-2	-0.003	2e-05	0
398	-2	0	0	0	-2	0	0	0
399	-2	0.001	0	0	-2	0.001	0	0
400	-2	0.002	0	0	-2	0.002	0	0
401	-2	0.003	0	0	-2	0.003	0	0
402	-2	0.004	0	0	-2	0.004	0	0
403	-2	0.005	0	0	-2	0.005	0	0
404	-2	0.006	0	0	-2	0.006	0	0
405	-2	0.007	0	0	-2	0.007	0	0
406	-2	0.009	-2e-05	0	-2	0.009	-2e-05	0
407	-2	0.009	0	0	-2	0.009	0	0
408	-2	0.012	0	0	-2	0.012	0	0
409	-2	0.014	-2e-05	0	-2	0.014	-2e-05	0
410	-2	0.015	-2e-05	0	-2	0.015	-2e-05	0
411	-2	0.015	0	0	-2	0.015	0	0
412	-2	0.016	-2e-05	0	-2	0.016	-2e-05	0
413	-2	0.017	-2e-05	0	-2	0.017	-2e-05	0
414	-2	0.018	-2e-05	0	-2	0.018	-2e-05	0
415	-2	0.019	-2e-05	0	-2	0.019	-2e-05	0
416	-2	0.02	-2e-05	0	-2	0.02	-2e-05	0
417	-2	0.021	-2e-05	0	-2	0.021	-2e-05	0
418	-2	0.027	-4e-05	0	-2	0.027	-4e-05	0
419	-2	0.03	-4e-05	0	-2	0.03	-4e-05	0
420	-2	0.031	-4e-05	0	-2	0.031	-4e-05	0
421	-2	0.034	-4e-05	0	-2	0.034	-4e-05	0
422	-2	0.037	-4e-05	0	-2	0.037	-4e-05	0
423	-1.5	-0.022	4e-05	0	-1.5	-0.022	4e-05	0
424	-1.5	-0.02	2e-05	0	-1.5	-0.02	2e-05	0
425	-1.5	-0.019	2e-05	0	-1.5	-0.019	2e-05	0
426	-1.5	-0.015	4e-05	0	-1.5	-0.015	4e-05	0
427	-1.5	-0.014	4e-05	0	-1.5	-0.014	4e-05	0
428	-1.5	-0.011	2e-05	0	-1.5	-0.011	2e-05	0
429	-1.5	-0.01	2e-05	0	-1.5	-0.01	2e-05	0
430	-1.5	-0.007	0	0	-1.5	-0.007	0	0
431	-1.5	-0.003	0	0	-1.5	-0.003	0	0
432	-1.5	-0.001	0	0	-1.5	-0.001	0	0
433	-1.5	0	0	0	-1.5	0	0	0
434	-1.5	0.001	0	0	-1.5	0.001	0	0
435	-1.5	0.002	0	0	-1.5	0.002	0	0
436	-1.5	0.003	0	0	-1.5	0.003	0	0
437	-1.5	0.004	0	0	-1.5	0.004	0	0
438	-1.5	0.006	0	0	-1.5	0.006	0	0
439	-1.5	0.008	-2e-05	0	-1.5	0.008	-2e-05	0
440	-1.5	0.009	-2e-05	0	-1.5	0.009	-2e-05	0
441	-1.5	0.009	0	0	-1.5	0.009	0	0
442	-1.5	0.01	-2e-05	0	-1.5	0.01	-2e-05	0
443	-1.5	0.01	0	0	-1.5	0.01	0	0
444	-1.5	0.011	-2e-05	0	-1.5	0.011	-2e-05	0
445	-1.5	0.011	0	0	-1.5	0.011	0	0
446	-1.5	0.012	-2e-05	0	-1.5	0.012	-2e-05	0
447	-1.5	0.012	0	0	-1.5	0.012	0	0
448	-1.5	0.013	-2e-05	0	-1.5	0.013	-2e-05	0
449	-1.5	0.014	-2e-05	0	-1.5	0.014	-2e-05	0
450	-1.5	0.016	-2e-05	0	-1.5	0.016	-2e-05	0
451	-1.5	0.017	-2e-05	0	-1.5	0.017	-2e-05	0
452	-1.5	0.019	-4e-05	0	-1.5	0.019	-4e-05	0
453	-1.5	0.019	-2e-05	0	-1.5	0.019	-2e-05	0
454	-1.5	0.02	-4e-05	0	-1.5	0.02	-4e-05	0
455	-1.5	0.022	-4e-05	0	-1.5	0.022	-4e-05	0
456	-1.5	0.022	-2e-05	0	-1.5	0.022	-2e-05	0
457	-1.5	0.023	-4e-05	0	-1.5	0.023	-4e-05	0
458	-1.5	0.025	-4e-05	0	-1.5	0.025	-4e-05	0
459	-1.5	0.026	-4e-05	0	-1.5	0.026	-4e-05	0
460	-1.5	0.03	-4e-05	0	-1.5	0.03	-4e-05	0
461	-1	-0.026	4e-05	0	-1	-0.026	4e-05	0
462	-1	-0.025	4e-05	0	-1	-0.025	4e-05	0
463	-1	-0.023	4e-05	0	-1	-0.023	4e-05	0
464	-1	-0.019	4e-05	0	-1	-0.019	4e-05	0
465	-1	-0.018	2e-05	0	-1	-0.018	2e-05	0
466	-1	-0.016	2e-05	0	-1	-0.016	2e-05	0
467	-1	-0.015	4e-05	0	-1	-0.015	4e-05	0
468	-1	-0.012	2e-05	0	-1	-0.012	2e-05	0
469	-1	-0.01	2e-05	0	-1	-0.01	2e-05	0
470	-1	-0.008	2e-05	0	-1	-0.008	2e-05	0
471	-1	-0.007	2e-05	0	-1	-0.007	2e-05	0
472	-1	-0.006	2e-05	0	-1	-0.006	2e-05	0
473	-1	-0.002	0	0	-1	-0.002	0	0
474	-1	-0.002	2e-05	0	-1	-0.002	2e-05	0
475	-1	0.001	0	0	-1	0.001	0	0
476	-1	0.002	0	0	-1	0.002	0	0
477	-1	0.003	0	0	-1	0.003	0	0
478	-1	0.005	0	0	-1	0.005	0	0
479	-1	0.006	-2e-05	0	-1	0.006	-2e-05	0
480	-1	0.006	0	0	-1	0.006	0	0
481	-1	0.008	0	0	-1	0.008	0	0
482	-1	0.01	-2e-05	0	-1	0.01	-2e-05	0
483	-1	0.011	-2e-05	0	-1	0.011	-2e-05	0
484	-1	0.012	-2e-05	0	-1	0.012	-2e-05	0
485	-1	0.013	-2e-05	0	-1	0.013	-2e-05	0
486	-1	0.015	-2e-05	0	-1	0.015	-2e-05	0
487	-1	0.017	-2e-05	0	-1	0.017	-2e-05	0
488	-1	0.018	-2e-05	0	-1	0.018	-2e-05	0
489	-1	0.02	-2e-05	0	-1	0.02	-2e-05	0
490	-1	0.021	-4e-05	0	-1	0.021	-4e-05	0
491	-1	0.021	-2e-05	0	-1	0.021	-2e-05	0
492	-1	0.022	-4e-05	0	-1	0.022	-4e-05	0
493	-1	0.024	-2e-05	0	-1	0.024	-2e-05	0
494	-1	0.026	-2e-05	0	-1	0.026	-2e-05	0
495	-1	0.03	-4e-05	0	-1	0.03	-4e-05	0
496	-1	0.033	-4e-05	0	-1	0.033	-4e-05	0
497	-1	0.04	-6e-05	0	-1	0.04	-6e-05	0
498	-0.5	-0.022	2e-05	0	-0.5	-0.022	2e-05	0
499	-0.5	-0.021	4e-05	0	-0.5	-0.021	4e-05	0
500	-0.5	-0.019	4e-05	0	-0.5	-0.019	4e-05	0
501	-0.5	-0.016	2e-05	0	-0.5	-0.016	2e-05	0
502	-0.5	-0.015	2e-05	0	-0.5	-0.015	2e-05	0
503	-0.5	-0.013	2e-05	0	-0.5	-0.013	2e-05	0
504	-0.5	-0.012	2e-05	0	-0.5	-0.012	2e-05	0
505	-0.5	-0.011	2e-05	0	-0.5	-0.011	2e-05	0
506	-0.5	-0.009	2e-05	0	-0.5	-0.009	2e-05	0
507	-0.5	-0.008	2e-05	0	-0.5	-0.008	2e-05	0
508	-0.5	-0.007	2e-05	0	-0.5	-0.007	2e-05	0
509	-0.5	-0.006	0	0	-0.5	-0.006	0	0
510	-0.5	-0.006	2e-05	0	-0.5	-0.006	2e-05	0
511	-0.5	-0.005	0	0	-0.5	-0.005	0	0
512	-0.5	-0.002	0	0	-0.5	-0.002	0	0
513	-0.5	-0.002	2e-05	0	-0.5	-0.002	2e-05	0
514	-0.5	-0.001	0	0	-0.5	-0.001	0	0
515	-0.5	0	0	0	-0.5	0	0	0
516	-0.5	0.001	0	0	-0.5	0.001	0	0
517	-0.5	0.001	2e-05	0	-0.5	0.001	2e-05	0
518	-0.5	0.002	0	0	-0.5	0.002	0	0
519	-0.5	0.003	-2e-05	0	-0.5	0.003	-2e-05	0
520	-0.5	0.003	0	0	-0.5	0.003	0	0
521	-0.5	0.004	0	0	-0.5	0.004	0	0
522	-0.5	0.005	-2e-05	0	-0.5	0.005	-2e-05	0
523	-0.5	0.005	0	0	-0.5	0.005	0	0
524	-0.5	0.007	-2e-05	0	-0.5	0.007	-2e-05	0
525	-0.5	0.008	0	0	-0.5	0.008	0	0
526	-0.5	0.01	-2e-05	0	-0.5	0.01	-2e-05	0
527	-0.5	0.01	0	0	-0.5	0.01	0	0
528	-0.5	0.011	-2e-05	0	-0.5	0.011	-2e-05	0
529	-0.5	0.013	-2e-05	0	-0.5	0.013	-2e-05	0
530	-0.5	0.016	-2e-05	0	-0.5	0.016	-2e-05	0
531	-0.5	0.017	-4e-05	0	-0.5	0.017	-4e-05	0
532	-0.5	0.017	-2e-05	0	-0.5	0.017	-2e-05	0
533	-0.5	0.018	-2e-05	0	-0.5	0.018	-2e-05	0
534	-0.5	0.02	-4e-05	0	-0.5	0.02	-4e-05	0
535	-0.5	0.02	-2e-05	0	-0.5	0.02	-2e-05	0
536	-0.5	0.024	-4e-05	0	-0.5	0.024	-4e-05	0
537	-0.5	0.031	-4e-05	0	-0.5	0.031	-4e-05	0
538	0	-0.025	2e-05	0	0	-0.025	2e-05	0
539	0	-0.023	2e-05	0	0	-0.023	2e-05	0
540	0	-0.022	2e-05	0	0	-0.022	2e-05	0
541	0	-0.02	4e-05	0	0	-0.02	4e-05	0
542	0	-0.019	2e-05	0	0	-0.019	2e-05	0
543	0	-0.016	2e-05	0	0	-0.016	2e-05	0
544	0	-0.015	2e-05	0	0	-0.015	2e-05	0
545	0	-0.012	2e-05	0	0	-0.012	2e-05	0
546	0	-0.011	2e-05	0	0	-0.011	2e-05	0
547	0	-0.007	2e-05	0	0	-0.007	2e-05	0
548	0	-0.006	0	0	0	-0.006	0	0
549	0	-0.006	2e-05	0	0	-0.006	2e-05	0
550	0	-0.004	0	0	0	-0.004	0	0
551	0	-0.003	0	0	0	-0.003	0	0
552	0	-0.002	0	0	0	-0.002	0	0
553	0	-0.001	0	0	0	-0.001	0	0
554	0	0	0	0	0	0	0	0
555	0	0	2e-05	0	0	0	2e-05	0
556	0	0.001	0	0	0	0.001	0	0
557	0	0.003	0	0	0	0.003	0	0
558	0	0.004	-2e-05	0	0	0.004	-2e-05	0
559	0	0.005	-2e-05	0	0	0.005	-2e-05	0
560	0	0.007	0	0	0	0.007	0	0
561	0	0.008	-2e-05	0	0	0.008	-2e-05	0
562	0	0.009	-2e-05	0	0	0.009	-2e-05	0
563	0	0.01	-2e-05	0	0	0.01	-2e-05	0
564	0	0.011	-2e-05	0	0	0.011	-2e-05	0
565	0	0.012	-2e-05	0	0	0.012	-2e-05	0
566	0	0.013	-2e-05	0	0	0.013	-2e-05	0
567	0	0.013	0	0	0	0.013	0	0
568	0	0.014	-2e-05	0	0	0.014	-2e-05	0
569	0	0.016	-4e-05	0	0	0.016	-4e-05	0
570	0	0.016	-2e-05	0	0	0.016	-2e-05	0
571	0	0.018	-4e-05	0	0	0.018	-4e-05	0
572	0	0.019	-4e-05	0	0	0.019	-4e-05	0
573	0	0.025	-4e-05	0	0	0.025	-4e-05	0
574	0	0.027	-4e-05	0	0	0.027	-4e-05	0
575	0	0.036	-6e-05	0	0	0.036	-6e-05	0
576	0.5	-0.028	4e-05	0	0.5	-0.028	4e-05	0
577	0.5	-0.026	4e-05	0	0.5	-0.026	4e-05	0
578	0.5	-0.025	2e-05	0	0.5	-0.025	2e-05	0
579	0.5	-0.021	4e-05	0	0.5	-0.021	4e-05	0
580	0.5	-0.02	4e-05	0	0.5	-0.02	4e-05	0
581	0.5	-0.019	2e-05	0	0.5	-0.019	2e-05	0
582	0.5	-0.018	2e-05	0	0.5	-0.018	2e-05	0
583	0.5	-0.017	2e-05	0	0.5	-0.017	2e-05	0
584	0.5	-0.016	2e-05	0	0.5	-0.016	2e-05	0
585	0.5	-0.015	2e-05	0	0.5	-0.015	2e-05	0
586	0.5	-0.012	2e-05	0	0.5	-0.012	2e-05	0
587	0.5	-0.011	2e-05	0	0.5	-0.011	2e-05	0
588	0.5	-0.009	0	0	0.5	-0.009	0	0
589	0.5	-0.009	2e-05	0	0.5	-0.009	2e-05	0
590	0.5	-0.008	0	0	0.5	-0.008	0	0
591	0.5	-0.008	2e-05	0	0.5	-0.008	2e-05	0
592	0.5	-0.007	2e-05	0	0.5	-0.007	2e-05	0
593	0.5	-0.006	0	0	0.5	-0.006	0	0
594	0.5	-0.005	0	0	0.5	-0.005	0	0
595	0.5	-0.005	2e-05	0	0.5	-0.005	2e-05	0
596	0.5	-0.004	0	0	0.5	-0.004	0	0
597	0.5	-0.004	2e-05	0	0.5	-0.004	2e-05	0
598	0.5	-0.003	0	0	0.5	-0.003	0	0
599	0.5	-0.002	0	0	0.5	-0.002	0	0
600	0.5	-0.001	0	0	0.5	-0.001	0	0
601	0.5	0.003	-2e-05	0	0.5	0.003	-2e-05	0
602	0.5	0.003	0	0	0.5	0.003	0	0
603	0.5	0.004	-2e-05	0	0.5	0.004	-2e-05	0
604	0.5	0.005	-2e-05	0	0.5	0.005	-2e-05	0
605	0.5	0.006	-2e-05	0	0.5	0.006	-2e-05	0
606	0.5	0.007	-2e-05	0	0.5	0.007	-2e-05	0
607	0.5	0.01	-2e-05	0	0.5	0.01	-2e-05	0
608	0.5	0.011	0	0	0.5	0.011	0	0
609	0.5	0.012	-2e-05	0	0.5	0.012	-2e-05	0
610	0.5	0.015	-4e-05	0	0.5	0.015	-4e-05	0
611	0.5	0.017	-4e-05	0	0.5	0.017	-4e-05	0
612	0.5	0.018	-4e-05	0	0.5	0.018	-4e-05	0
613	0.5	0.018	-2e-05	0	0.5	0.018	-2e-05	0
614	0.5	0.019	-4e-05	0	0.5	0.019	-4e-05	0
615	0.5	0.021	-4e-05	0	0.5	0.021	-4e-05	0
616	0.5	0.026	-4e-05	0	0.5	0.026	-4e-05	0
617	1	-0.034	6e-05	0	1	-0.034	6e-05	0
618	1	-0.023	2e-05	0	1	-0.023	2e-05	0
619	1	-0.023	4e-05	0	1	-0.023	4e-05	0
620	1	-0.022	2e-05	0	1	-0.022	2e-05	0
621	1	-0.022	4e-05	0	1	-0.022	4e-05	0
622	1	-0.02	2e-05	0	1	-0.02	2e-05	0
623	1	-0.018	2e-05	0	1	-0.018	2e-05	0
624	1	-0.018	4e-05	0	1	-0.018	4e-05	0
625	1	-0.017	4e-05	0	1	-0.017	4e-05	0
626	1	-0.015	2e-05	0	1	-0.015	2e-05	0
627	1	-0.014	2e-05	0	1	-0.014	2e-05	0
628	1	-0.013	2e-05	0	1	-0.013	2e-05	0
629	1	-0.009	0	0	1	-0.009	0	0
630	1	-0.008	0	0	1	-0.008	0	0
631	1	-0.007	0	0	1	-0.007	0	0
632	1	-0.007	2e-05	0	1	-0.007	2e-05	0
633	1	-0.005	0	0	1	-0.005	0	0
634	1	-0.003	0	0	1	-0.003	0	0
635	1	-0.002	0	0	1	-0.002	0	0
636	1	-0.001	0	0	1	-0.001	0	0
637	1	0	0	0	1	0	0	0
638	1	0.001	0	0	1	0.001	0	0
639	1	0.002	-2e-05	0	1	0.002	-2e-05	0
640	1	0.003	-2e-05	0	1	0.003	-2e-05	0
641	1	0.003	0	0	1	0.003	0	0
642	1	0.004	0	0	1	0.004	0	0
643	1	0.007	-2e-05	0	1	0.007	-2e-05	0
644	1	0.009	-2e-05	0	1	0.009	-2e-05	0
645	1	0.01	-2e-05	0	1	0.01	-2e-05	0
646	1	0.015	-4e-05	0	1	0.015	-4e-05	0
647	1	0.016	-4e-05	0	1	0.016	-4e-05	0
648	1	0.018	-2e-05	0	1	0.018	-2e-05	0
649	1	0.024	-4e-05	0	1	0.024	-4e-05	0
650	1	0.028	-4e-05	0	1	0.028	-4e-05	0
651	1.5	-0.037	6e-05	0	1.5	-0.037	6e-05	0
652	1.5	-0.035	6e-05	0	1.5	-0.035	6e-05	0
653	1.5	-0.032	4e-05	0	1.5	-0.032	4e-05	0
654	1.5	-0.028	4e-05	0	1.5	-0.028	4e-05	0
655	1.5	-0.027	4e-05	0	1.5	-0.027	4e-05	0
656	1.5	-0.024	4e-05	0	1.5	-0.024	4e-05	0
657	1.5	-0.023	4e-05	0	1.5	-0.023	4e-05	0
658	1.5	-0.022	2e-05	0	1.5	-0.022	2e-05	0
659	1.5	-0.022	4e-05	0	1.5	-0.022	4e-05	0
660	1.5	-0.021	4e-05	0	1.5	-0.021	4e-05	0
661	1.5	-0.018	4e-05	0	1.5	-0.018	4e-05	0
662	1.5	-0.017	2e-05	0	1.5	-0.017	2e-05	0
663	1.5	-0.016	2e-05	0	1.5	-0.016	2e-05	0
664	1.5	-0.015	0	0	1.5	-0.015	0	0
665	1.5	-0.015	2e-05	0	1.5	-0.015	2e-05	0
666	1.5	-0.014	2e-05	0	1.5	-0.014	2e-05	0
667	1.5	-0.013	2e-05	0	1.5	-0.013	2e-05	0
668	1.5	-0.011	0	0	1.5	-0.011	0	0
669	1.5	-0.008	0	0	1.5	-0.008	0	0
670	1.5	-0.008	2e-05	0	1.5	-0.008	2e-05	0
671	1.5	-0.007	0	0	1.5	-0.007	0	0
672	1.5	-0.006	0	0	1.5	-0.006	0	0
673	1.5	-0.005	0	0	1.5	-0.005	0	0
674	1.5	-0.004	0	0	1.5	-0.004	0	0
675	1.5	-0.003	0	0	1.5	-0.003	0	0
676	1.5	0	0	0	1.5	0	0	0
677	1.5	0.002	-2e-05	0	1.5	0.002	-2e-05	0
678	1.5	0.005	-2e-05	0	1.5	0.005	-2e-05	0
679	1.5	0.006	-2e-05	0	1.5	0.006	-2e-05	0
680	1.5	0.008	-2e-05	0	1.5	0.008	-2e-05	0
681	1.5	0.011	-2e-05	0	1.5	0.011	-2e-05	0
682	1.5	0.019	-4e-05	0	1.5	0.019	-4e-05	0
683	2	-0.036	6e-05	0	2	-0.036	6e-05	0
684	2	-0.023	2e-05	0	2	-0.023	2e-05	0
685	2	-0.021	4e-05	0	2	-0.021	4e-05	0
686	2	-0.02	2e-05	0	2	-0.02	2e-05	0
687	2	-0.016	0	0	2	-0.016	0	0
688	2	-0.014	2e-05	0	2	-0.014	2e-05	0
689	2	-0.013	2e-05	0	2	-0.013	2e-05	0
690	2	-0.012	0	0	2	-0.012	0	0
691	2	-0.012	2e-05	0	2	-0.012	2e-05	0
692	2	-0.01	0	0	2	-0.01	0	0
693	2	-0.01	2e-05	0	2	-0.01	2e-05	0
694	2	-0.007	0	0	2	-0.007	0	0
695	2	-0.006	0	0	2	-0.006	0	0
696	2	-0.003	0	0	2	-0.003	0	0
697	2	-0.002	0	0	2	-0.002	0	0
698	2	-0.001	0	0	2	-0.001	0	0
699	2	0	-2e-05	0	2	0	-2e-05	0
700	2	0	0	0	2	0	0	0
701	2	0.002	-2e-05	0	2	0.002	-2e-05	0
702	2	0.005	-2e-05	0	2	0.005	-2e-05	0
703	2	0.007	-2e-05	0	2	0.007	-2e-05	0
704	2	0.008	-2e-05	0	2	0.008	-2e-05	0
705	2	0.009	-2e-05	0	2	0.009	-2e-05	0
706	2	0.01	-2e-05	0	2	0.01	-2e-05	0
707	2	0.013	-2e-05	0	2	0.013	-2e-05	0
708	2	0.014	-4e-05	0	2	0.014	-4e-05	0
709	2	0.014	-2e-05	0	2	0.014	-2e-05	0
710	2	0.015	-2e-05	0	2	0.015	-2e-05	0
711	2	0.016	-4e-05	0	2	0.016	-4e-05	0
712	2	0.016	-2e-05	0	2	0.016	-2e-05	0
713	2	0.018	-4e-05	0	2	0.018	-4e-05	0
714	2.5	-0.044	6e-05	0	2.5	-0.044	6e-05	0
715	2.5	-0.036	6e-05	0	2.5	-0.036	6e-05	0
716	2.5	-0.034	4e-05	0	2.5	-0.034	4e-05	0
717	2.5	-0.029	4e-05	0	2.5	-0.029	4e-05	0
718	2.5	-0.025	4e-05	0	2.5	-0.025	4e-05	0
719	2.5	-0.023	2e-05	0	2.5	-0.023	2e-05	0
720	2.5	-0.023	4e-05	0	2.5	-0.023	4e-05	0
721	2.5	-0.022	2e-05	0	2.5	-0.022	2e-05	0
722	2.5	-0.021	4e-05	0	2.5	-0.021	4e-05	0
723	2.5	-0.02	2e-05	0	2.5	-0.02	2e-05	0
724	2.5	-0.019	2e-05	0	2.5	-0.019	2e-05	0
725	2.5	-0.018	2e-05	0	2.5	-0.018	2e-05	0
726	2.5	-0.017	2e-05	0	2.5	-0.017	2e-05	0
727	2.5	-0.016	2e-05	0	2.5	-0.016	2e-05	0
728	2.5	-0.015	2e-05	0	2.5	-0.015	2e-05	0
729	2.5	-0.014	2e-05	0	2.5	-0.014	2e-05	0
730	2.5	-0.009	0	0	2.5	-0.009	0	0
731	2.5	-0.008	0	0	2.5	-0.008	0	0
732	2.5	-0.007	2e-05	0	2.5	-0.007	2e-05	0
733	2.5	-0.004	0	0	2.5	-0.004	0	0
734	2.5	-0.002	0	0	2.5	-0.002	0	0
735	2.5	-0.001	-2e-05	0	2.5	-0.001	-2e-05	0
736	2.5	0.002	-2e-05	0	2.5	0.002	-2e-05	0
737	2.5	0.003	0	0	2.5	0.003	0	0
738	2.5	0.01	-2e-05	0	2.5	0.01	-2e-05	0
739	2.5	0.012	-4e-05	0	2.5	0.012	-4e-05	0
740	2.5	0.013	-4e-05	0	2.5	0.013	-4e-05	0
741	2.5	0.015	-2e-05	0	2.5	0.015	-2e-05	0
742	2.5	0.021	-4e-05	0	2.5	0.021	-4e-05	0
743	2.5	0.022	-4e-05	0	2.5	0.022	-4e-05	0
744	3	-0.047	6e-05	0	3	-0.047	6e-05	0
745	3	-0.044	6e-05	0	3	-0.044	6e-05	0
746	3	-0.041	6e-05	0	3	-0.041	6e-05	0
747	3	-0.039	6e-05	0	3	-0.039	6e-05	0
748	3	-0.034	4e-05	0	3	-0.034	4e-05	0
749	3	-0.029	4e-05	0	3	-0.029	4e-05	0
750	3	-0.028	4e-05	0	3	-0.028	4e-05	0
751	3	-0.027	4e-05	0	3	-0.027	4e-05	0
752	3	-0.024	2e-05	0	3	-0.024	2e-05	0
753	3	-0.023	2e-05	0	3	-0.023	2e-05	0
754	3	-0.023	4e-05	0	3	-0.023	4e-05	0
755	3	-0.021	2e-05	0	3	-0.021	2e-05	0
756	3	-0.02	2e-05	0	3	-0.02	2e-05	0
757	3	-0.019	2e-05	0	3	-0.019	2e-05	0
758	3	-0.016	0	0	3	-0.016	0	0
759	3	-0.016	2e-05	0	3	-0.016	2e-05	0
760	3	-0.013	0	0	3	-0.013	0	0
761	3	-0.011	2e-05	0	3	-0.011	2e-05	0
762	3	-0.01	0	0	3	-0.01	0	0
763	3	-0.008	0	0	3	-0.008	0	0
764	3	-0.007	0	0	3	-0.007	0	0
765	3	-0.006	0	0	3	-0.006	0	0
766	3	-0.005	0	0	3	-0.005	0	0
767	3	-0.004	0	0	3	-0.004	0	0
768	3	-0.003	0	0	3	-0.003	0	0
769	3	-0.001	-2e-05	0	3	-0.001	-2e-05	0
770	3	0	0	0	3	0	0	0
771	3	0.002	-2e-05	0	3	0.002	-2e-05	0
772	3	0.012	-4e-05	0	3	0.012	-4e-05	0
773	3	0.014	-4e-05	0	3	0.014	-4e-05	0
774	3.5	-0.046	6e-05	0	3.5	-0.046	6e-05	0
775	3.5	-0.044	6e-05	0	3.5	-0.044	6e-05	0
776	3.5	-0.036	6e-05	0	3.5	-0.036	6e-05	0
777	3.5	-0.035	4e-05	0	3.5	-0.035	4e-05	0
778	3.5	-0.031	4e-05	0	3.5	-0.031	4e-05	0
779	3.5	-0.03	4e-05	0	3.5	-0.03	4e-05	0
780	3.5	-0.029	4e-05	0	3.5	-0.029	4e-05	0
781	3.5	-0.028	4e-05	0	3.5	-0.028	4e-05	0
782	3.5	-0.026	2e-05	0	3.5	-0.026	2e-05	0
783	3.5	-0.026	4e-05	0	3.5	-0.026	4e-05	0
784	3.5	-0.025	4e-05	0	3.5	-0.025	4e-05	0
785	3.5	-0.023	2e-05	0	3.5	-0.023	2e-05	0
786	3.5	-0.02	2e-05	0	3.5	-0.02	2e-05	0
787	3.5	-0.019	2e-05	0	3.5	-0.019	2e-05	0
788	3.5	-0.018	2e-05	0	3.5	-0.018	2e-05	0
789	3.5	-0.017	2e-05	0	3.5	-0.017	2e-05	0
790	3.5	-0.016	0	0	3.5	-0.016	0	0
791	3.5	-0.016	2e-05	0	3.5	-0.016	2e-05	0
792	3.5	-0.012	2e-05	0	3.5	-0.012	2e-05	0
793	3.5	-0.01	0	0	3.5	-0.01	0	0
794	3.5	-0.009	0	0	3.5	-0.009	0	0
795	3.5	-0.008	0	0	3.5	-0.008	0	0
796	3.5	-0.005	0	0	3.5	-0.005	0	0
797	3.5	-0.004	0	0	3.5	-0.004	0	0
798	3.5	-0.003	0	0	3.5	-0.003	0	0
799	3.5	-0.002	0	0	3.5	-0.002	0	0
800	3.5	-0.001	0	0	3.5	-0.001	0	0
801	3.5	0.002	-2e-05	0	3.5	0.002	-2e-05	0
802	3.5	0.004	-2e-05	0	3.5	0.004	-2e-05	0
803	3.5	0.015	-4e-05	0	3.5	0.015	-4e-05	0
804	3.5	0.018	-4e-05	0	3.5	0.018	-4e-05	0
805	4	-0.05	6e-05	0	4	-0.05	6e-05	0
806	4	-0.039	6e-05	0	4	-0.039	6e-05	0
807	4	-0.037	6e-05	0	4	-0.037	6e-05	0
808	4	-0.035	4e-05	0	4	-0.035	4e-05	0
809	4	-0.034	4e-05	0	4	-0.034	4e-05	0
810	4	-0.031	4e-05	0	4	-0.031	4e-05	0
811	4	-0.03	4e-05	0	4	-0.03	4e-05	0
812	4	-0.029	2e-05	0	4	-0.029	2e-05	0
813	4	-0.028	4e-05	0	4	-0.028	4e-05	0
814	4	-0.027	2e-05	0	4	-0.027	2e-05	0
815	4	-0.027	4e-05	0	4	-0.027	4e-05	0
816	4	-0.025	2e-05	0	4	-0.025	2e-05	0
817	4	-0.025	4e-05	0	4	-0.025	4e-05	0
818	4	-0.024	2e-05	0	4	-0.024	2e-05	0
819	4	-0.024	4e-05	0	4	-0.024	4e-05	0
820	4	-0.023	2e-05	0	4	-0.023	2e-05	0
821	4	-0.023	4e-05	0	4	-0.023	4e-05	0
822	4	-0.021	2e-05	0	4	-0.021	2e-05	0
823	4	-0.02	2e-05	0	4	-0.02	2e-05	0
824	4	-0.019	2e-05	0	4	-0.019	2e-05	0
825	4	-0.018	2e-05	0	4	-0.018	2e-05	0
826	4	-0.017	2e-05	0	4	-0.017	2e-05	0
827	4	-0.016	0	0	4	-0.016	0	0
828	4	-0.016	2e-05	0	4	-0.016	2e-05	0
829	4	-0.015	0	0	4	-0.015	0	0
830	4	-0.014	2e-05	0	4	-0.014	2e-05	0
831	4	-0.013	0	0	4	-0.013	0	0
832	4	-0.013	2e-05	0	4	-0.013	2e-05	0
833	4	-0.012	0	0	4	-0.012	0	0
834	4	-0.011	0	0	4	-0.011	0	0
835	4	-0.01	0	0	4	-0.01	0	0
836	4	-0.009	0	0	4	-0.009	0	0
837	4	-0.005	0	0	4	-0.005	0	0
838	4	-0.003	0	0	4	-0.003	0	0
839	4	-0.001	0	0	4	-0.001	0	0
840	4	0.001	-2e-05	0	4	0.001	-2e-05	0
841	4	0.008	-2e-05	0	4	0.008	-2e-05	0
842	4	0.009	-2e-05	0	4	0.009	-2e-05	0
843	4	0.01	-2e-05	0	4	0.01	-2e-05	0
844	4	0.015	-4e-05	0	4	0.015	-4e-05	0
845	4.5	-0.048	6e-05	0	4.5	-0.048	6e-05	0
846	4.5	-0.047	6e-05	0	4.5	-0.047	6e-05	0
847	4.5	-0.044	4e-05	0	4.5	-0.044	4e-05	0
848	4.5	-0.037	6e-05	0	4.5	-0.037	6e-05	0
849	4.5	-0.036	4e-05	0	4.5	-0.036	4e-05	0
850	4.5	-0.03	2e-05	0	4.5	-0.03	2e-05	0
851	4.5	-0.029	4e-05	0	4.5	-0.029	4e-05	0
852	4.5	-0.027	2e-05	0	4.5	-0.027	2e-05	0
853	4.5	-0.026	2e-05	0	4.5	-0.026	2e-05	0
854	4.5	-0.026	4e-05	0	4.5	-0.026	4e-05	0
855	4.5	-0.024	2e-05	0	4.5	-0.024	2e-05	0
856	4.5	-0.023	4e-05	0	4.5	-0.023	4e-05	0
857	4.5	-0.022	2e-05	0	4.5	-0.022	2e-05	0
858	4.5	-0.021	2e-05	0	4.5	-0.021	2e-05	0
859	4.5	-0.019	0	0	4.5	-0.019	0	0
860	4.5	-0.019	2e-05	0	4.5	-0.019	2e-05	0
861	4.5	-0.018	2e-05	0	4.5	-0.018	2e-05	0
862	4.5	-0.017	0	0	4.5	-0.017	0	0
863	4.5	-0.017	2e-05	0	4.5	-0.017	2e-05	0
864	4.5	-0.016	2e-05	0	4.5	-0.016	2e-05	0
865	4.5	-0.015	0	0	4.5	-0.015	0	0
866	4.5	-0.015	2e-05	0	4.5	-0.015	2e-05	0
867	4.5	-0.012	2e-05	0	4.5	-0.012	2e-05	0
868	4.5	-0.01	0	0	4.5	-0.01	0	0
869	4.5	-0.005	0	0	4.5	-0.005	0	0
870	4.5	-0.004	-2e-05	0	4.5	-0.004	-2e-05	0
871	4.5	-0.003	0	0	4.5	-0.003	0	0
872	4.5	0	0	0	4.5	0	0	0
873	4.5	0.011	-4e-05	0	4.5	0.011	-4e-05	0
874	5	-0.042	6e-05	0	5	-0.042	6e-05	0
875	5	-0.041	4e-05	0	5	-0.041	4e-05	0
876	5	-0.04	6e-05	0	5	-0.04	6e-05	0
877	5	-0.039	6e-05	0	5	-0.039	6e-05	0
878	5	-0.038	4e-05	0	5	-0.038	4e-05	0
879	5	-0.037	4e-05	0	5	-0.037	4e-05	0
880	5	-0.033	4e-05	0	5	-0.033	4e-05	0
881	5	-0.029	4e-05	0	5	-0.029	4e-05	0
882	5	-0.028	2e-05	0	5	-0.028	2e-05	0
883	5	-0.028	4e-05	0	5	-0.028	4e-05	0
884	5	-0.026	2e-05	0	5	-0.026	2e-05	0
885	5	-0.025	2e-05	0	5	-0.025	2e-05	0
886	5	-0.024	2e-05	0	5	-0.024	2e-05	0
887	5	-0.024	4e-05	0	5	-0.024	4e-05	0
888	5	-0.023	2e-05	0	5	-0.023	2e-05	0
889	5	-0.02	2e-05	0	5	-0.02	2e-05	0
890	5	-0.019	2e-05	0	5	-0.019	2e-05	0
891	5	-0.014	0	0	5	-0.014	0	0
892	5	-0.013	0	0	5	-0.013	0	0
893	5	-0.011	0	0	5	-0.011	0	0
894	5	-0.01	0	0	5	-0.01	0	0
895	5	-0.009	0	0	5	-0.009	0	0
896	5	-0.006	0	0	5	-0.006	0	0
897	5.5	-0.049	6e-05	0	5.5	-0.049	6e-05	0
898	5.5	-0.048	6e-05	0	5.5	-0.048	6e-05	0
899	5.5	-0.047	6e-05	0	5.5	-0.047	6e-05	0
900	5.5	-0.042	6e-05	0	5.5	-0.042	6e-05	0
901	5.5	-0.041	4e-05	0	5.5	-0.041	4e-05	0
902	5.5	-0.041	6e-05	0	5.5	-0.041	6e-05	0
903	5.5	-0.04	4e-05	0	5.5	-0.04	4e-05	0
904	5.5	-0.036	4e-05	0	5.5	-0.036	4e-05	0
905	5.5	-0.035	2e-05	0	5.5	-0.035	2e-05	0
906	5.5	-0.035	4e-05	0	5.5	-0.035	4e-05	0
907	5.5	-0.031	2e-05	0	5.5	-0.031	2e-05	0
908	5.5	-0.03	2e-05	0	5.5	-0.03	2e-05	0
909	5.5	-0.03	4e-05	0	5.5	-0.03	4e-05	0
910	5.5	-0.029	2e-05	0	5.5	-0.029	2e-05	0
911	5.5	-0.026	4e-05	0	5.5	-0.026	4e-05	0
912	5.5	-0.025	2e-05	0	5.5	-0.025	2e-05	0
913	5.5	-0.024	2e-05	0	5.5	-0.024	2e-05	0
914	5.5	-0.023	2e-05	0	5.5	-0.023	2e-05	0
915	5.5	-0.021	2e-05	0	5.5	-0.021	2e-05	0
916	5.5	-0.02	2e-05	0	5.5	-0.02	2e-05	0
917	5.5	-0.019	2e-05	0	5.5	-0.019	2e-05	0
918	5.5	-0.018	0	0	5.5	-0.018	0	0
919	5.5	-0.018	2e-05	0	5.5	-0.018	2e-05	0
920	5.5	-0.017	0	0	5.5	-0.017	0	0
921	5.5	-0.016	0	0	5.5	-0.016	0	0
922	5.5	-0.014	0	0	5.5	-0.014	0	0
923	5.5	-0.012	0	0	5.5	-0.012	0	0
924	5.5	-0.011	0	0	5.5	-0.011	0	0
925	5.5	-0.009	0	0	5.5	-0.009	0	0
926	5.5	-0.008	0	0	5.5	-0.008	0	0
927	5.5	-0.005	-2e-05	0	5.5	-0.005	-2e-05	0
928	5.5	0.001	-2e-05	0	5.5	0.001	-2e-05	0
929	6	-0.053	6e-05	0	6	-0.053	6e-05	0
930	6	-0.046	6e-05	0	6	-0.046	6e-05	0
931	6	-0.043	6e-05	0	6	-0.043	6e-05	0
932	6	-0.041	4e-05	0	6	-0.041	4e-05	0
933	6	-0.04	6e-05	0	6	-0.04	6e-05	0
934	6	-0.038	4e-05	0	6	-0.038	4e-05	0
935	6	-0.034	2e-05	0	6	-0.034	2e-05	0
936	6	-0.034	4e-05	0	6	-0.034	4e-05	0
937	6	-0.033	2e-05	0	6	-0.033	2e-05	0
938	6	-0.033	4e-05	0	6	-0.033	4e-05	0
939	6	-0.032	4e-05	0	6	-0.032	4e-05	0
940	6	-0.031	4e-05	0	6	-0.031	4e-05	0
941	6	-0.028	2e-05	0	6	-0.028	2e-05	0
942	6	-0.027	2e-05	0	6	-0.027	2e-05	0
943	6	-0.024	2e-05	0	6	-0.024	2e-05	0
944	6	-0.023	2e-05	0	6	-0.023	2e-05	0
945	6	-0.022	2e-05	0	6	-0.022	2e-05	0
946	6	-0.02	2e-05	0	6	-0.02	2e-05	0
947	6	-0.019	2e-05	0	6	-0.019	2e-05	0
948	6	-0.012	0	0	6	-0.012	0	0
949	6	-0.011	0	0	6	-0.011	0	0
950	6	-0.005	-2e-05	0	6	-0.005	-2e-05	0
951	6	-0.005	0	0	6	-0.005	0	0
952	6.5	-0.056	6e-05	0	6.5	-0.056	6e-05	0
953	6.5	-0.049	6e-05	0	6.5	-0.049	6e-05	0
954	6.5	-0.048	6e-05	0	6.5	-0.048	6e-05	0
955	6.5	-0.047	4e-05	0	6.5	-0.047	4e-05	0
956	6.5	-0.047	6e-05	0	6.5	-0.047	6e-05	0
957	6.5	-0.046	6e-05	0	6.5	-0.046	6e-05	0
958	6.5	-0.037	4e-05	0	6.5	-0.037	4e-05	0
959	6.5	-0.036	2e-05	0	6.5	-0.036	2e-05	0
960	6.5	-0.034	4e-05	0	6.5	-0.034	4e-05	0
961	6.5	-0.032	4e-05	0	6.5	-0.032	4e-05	0
962	6.5	-0.031	2e-05	0	6.5	-0.031	2e-05	0
963	6.5	-0.027	2e-05	0	6.5	-0.027	2e-05	0
964	6.5	-0.025	2e-05	0	6.5	-0.025	2e-05	0
965	6.5	-0.024	2e-05	0	6.5	-0.024	2e-05	0
966	6.5	-0.023	2e-05	0	6.5	-0.023	2e-05	0
967	6.5	-0.021	0	0	6.5	-0.021	0	0
968	6.5	-0.021	2e-05	0	6.5	-0.021	2e-05	0
969	6.5	-0.019	0	0	6.5	-0.019	0	0
970	6.5	-0.017	2e-05	0	6.5	-0.017	2e-05	0
971	6.5	-0.016	0	0	6.5	-0.016	0	0
972	6.5	-0.012	0	0	6.5	-0.012	0	0
973	6.5	-0.011	0	0	6.5	-0.011	0	0
974	6.5	-0.01	0	0	6.5	-0.01	0	0
975	6.5	-0.007	0	0	6.5	-0.007	0	0
976	7	-0.048	4e-05	0	7	-0.048	4e-05	0
977	7	-0.045	4e-05	0	7	-0.045	4e-05	0
978	7	-0.045	6e-05	0	7	-0.045	6e-05	0
979	7	-0.038	4e-05	0	7	-0.038	4e-05	0
980	7	-0.036	4e-05	0	7	-0.036	4e-05	0
981	7	-0.034	4e-05	0	7	-0.034	4e-05	0
982	7	-0.033	4e-05	0	7	-0.033	4e-05	0
983	7	-0.032	4e-05	0	7	-0.032	4e-05	0
984	7	-0.031	4e-05	0	7	-0.031	4e-05	0
985	7	-0.029	2e-05	0	7	-0.029	2e-05	0
986	7	-0.025	2e-05	0	7	-0.025	2e-05	0
987	7	-0.024	0	0	7	-0.024	0	0
988	7	-0.024	2e-05	0	7	-0.024	2e-05	0
989	7	-0.024	4e-05	0	7	-0.024	4e-05	0
990	7	-0.022	0	0	7	-0.022	0	0
991	7	-0.021	0	0	7	-0.021	0	0
992	7	-0.02	2e-05	0	7	-0.02	2e-05	0
993	7	-0.019	0	0	7	-0.019	0	0
994	7	-0.015	0	0	7	-0.015	0	0
995	7	-0.012	0	0	7	-0.012	0	0
996	7	-0.01	0	0	7	-0.01	0	0
997	7	-0.006	-2e-05	0	7	-0.006	-2e-05	0
998	7	-0.002	-2e-05	0	7	-0.002	-2e-05	0
999	7.5	-0.06	8e-05	0	7.5	-0.06	8e-05	0
1000	7.5	-0.05	6e-05	0	7.5	-0.05	6e-05	0
1001	7.5	-0.048	4e-05	0	7.5	-0.048	4e-05	0
1002	7.5	-0.044	6e-05	0	7.5	-0.044	6e-05	0
1003	7.5	-0.043	6e-05	0	7.5	-0.043	6e-05	0
1004	7.5	-0.041	4e-05	0	7.5	-0.041	4e-05	0
1005	7.5	-0.038	4e-05	0	7.5	-0.038	4e-05	0
1006	7.5	-0.035	4e-05	0	7.5	-0.035	4e-05	0
1007	7.5	-0.034	4e-05	0	7.5	-0.034	4e-05	0
1008	7.5	-0.033	2e-05	0	7.5	-0.033	2e-05	0
1009	7.5	-0.033	4e-05	0	7.5	-0.033	4e-05	0
1010	7.5	-0.032	2e-05	0	7.5	-0.032	2e-05	0
1011	7.5	-0.032	4e-05	0	7.5	-0.032	4e-05	0
1012	7.5	-0.031	2e-05	0	7.5	-0.031	2e-05	0
1013	7.5	-0.031	4e-05	0	7.5	-0.031	4e-05	0
1014	7.5	-0.029	2e-05	0	7.5	-0.029	2e-05	0
1015	7.5	-0.028	2e-05	0	7.5	-0.028	2e-05	0
1016	7.5	-0.027	2e-05	0	7.5	-0.027	2e-05	0
1017	7.5	-0.026	2e-05	0	7.5	-0.026	2e-05	0
1018	7.5	-0.026	4e-05	0	7.5	-0.026	4e-05	0
1019	7.5	-0.025	0	0	7.5	-0.025	0	0
1020	7.5	-0.022	2e-05	0	7.5	-0.022	2e-05	0
1021	7.5	-0.018	0	0	7.5	-0.018	0	0
1022	7.5	-0.018	2e-05	0	7.5	-0.018	2e-05	0
1023	7.5	-0.016	2e-05	0	7.5	-0.016	2e-05	0
1024	7.5	-0.014	0	0	7.5	-0.014	0	0
1025	8	-0.062	8e-05	0	8	-0.062	8e-05	0
1026	8	-0.044	4e-05	0	8	-0.044	4e-05	0
1027	8	-0.039	4e-05	0	8	-0.039	4e-05	0
1028	8	-0.038	4e-05	0	8	-0.038	4e-05	0
1029	8	-0.036	4e-05	0	8	-0.036	4e-05	0
1030	8	-0.034	4e-05	0	8	-0.034	4e-05	0
1031	8	-0.032	2e-05	0	8	-0.032	2e-05	0
1032	8	-0.031	2e-05	0	8	-0.031	2e-05	0
1033	8	-0.026	2e-05	0	8	-0.026	2e-05	0
1034	8	-0.024	2e-05	0	8	-0.024	2e-05	0
1035	8	-0.021	0	0	8	-0.021	0	0
1036	8	-0.018	2e-05	0	8	-0.018	2e-05	0
1037	8	-0.017	0	0	8	-0.017	0	0
1038	8	-0.013	0	0	8	-0.013	0	0
1039	8.5	-0.05	4e-05	0	8.5	-0.05	4e-05	0
1040	8.5	-0.045	4e-05	0	8.5	-0.045	4e-05	0
1041	8.5	-0.045	6e-05	0	8.5	-0.045	6e-05	0
1042	8.5	-0.043	4e-05	0	8.5	-0.043	4e-05	0
1043	8.5	-0.038	4e-05	0	8.5	-0.038	4e-05	0
1044	8.5	-0.036	4e-05	0	8.5	-0.036	4e-05	0
1045	8.5	-0.033	2e-05	0	8.5	-0.033	2e-05	0
1046	8.5	-0.032	4e-05	0	8.5	-0.032	4e-05	0
1047	8.5	-0.028	2e-05	0	8.5	-0.028	2e-05	0
1048	8.5	-0.025	2e-05	0	8.5	-0.025	2e-05	0
1049	8.5	-0.023	2e-05	0	8.5	-0.023	2e-05	0
1050	8.5	-0.02	0	0	8.5	-0.02	0	0
1051	8.5	-0.016	0	0	8.5	-0.016	0	0
1052	8.5	-0.013	0	0	8.5	-0.013	0	0
1053	9	-0.051	4e-05	0	9	-0.051	4e-05	0
1054	9	-0.05	4e-05	0	9	-0.05	4e-05	0
1055	9	-0.05	6e-05	0	9	-0.05	6e-05	0
1056	9	-0.048	4e-05	0	9	-0.048	4e-05	0
1057	9	-0.043	6e-05	0	9	-0.043	6e-05	0
1058	9	-0.041	4e-05	0	9	-0.041	4e-05	0
1059	9	-0.04	4e-05	0	9	-0.04	4e-05	0
1060	9	-0.036	4e-05	0	9	-0.036	4e-05	0
1061	9	-0.034	2e-05	0	9	-0.034	2e-05	0
1062	9	-0.031	2e-05	0	9	-0.031	2e-05	0
1063	9	-0.03	2e-05	0	9	-0.03	2e-05	0
1064	9	-0.024	0	0	9	-0.024	0	0
1065	9	-0.022	0	0	9	-0.022	0	0
1066	9.5	-0.049	6e-05	0	9.5	-0.049	6e-05	0
1067	9.5	-0.043	4e-05	0	9.5	-0.043	4e-05	0
1068	9.5	-0.039	2e-05	0	9.5	-0.039	2e-05	0
1069	9.5	-0.039	4e-05	0	9.5	-0.039	4e-05	0
1070	9.5	-0.036	2e-05	0	9.5	-0.036	2e-05	0
1071	9.5	-0.035	2e-05	0	9.5	-0.035	2e-05	0
1072	9.5	-0.034	2e-05	0	9.5	-0.034	2e-05	0
1073	9.5	-0.032	2e-05	0	9.5	-0.032	2e-05	0
1074	9.5	-0.031	2e-05	0	9.5	-0.031	2e-05	0
1075	9.5	-0.03	2e-05	0	9.5	-0.03	2e-05	0
1076	9.5	-0.027	2e-05	0	9.5	-0.027	2e-05	0
1077	9.5	-0.025	2e-05	0	9.5	-0.025	2e-05	0
1078	9.5	-0.023	2e-05	0	9.5	-0.023	2e-05	0
1079	9.5	-0.019	0	0	9.5	-0.019	0	0
1080	10	-0.065	8e-05	0	10	-0.065	8e-05	0
1081	10	-0.049	6e-05	0	10	-0.049	6e-05	0
1082	10	-0.047	4e-05	0	10	-0.047	4e-05	0
1083	10	-0.04	4e-05	0	10	-0.04	4e-05	0
1084	10	-0.037	4e-05	0	10	-0.037	4e-05	0
1085	10	-0.036	4e-05	0	10	-0.036	4e-05	0
1086	10	-0.035	2e-05	0	10	-0.035	2e-05	0
1087	10	-0.033	2e-05	0	10	-0.033	2e-05	0
1088	10	-0.031	4e-05	0	10	-0.031	4e-05	0
1089	10	-0.03	2e-05	0	10	-0.03	2e-05	0
1090	-10	0.025	0	0	-10	0.025	0	0
1091	-10	0.026	-2e-05	0	-10	0.026	-2e-05	0
1092	-10	0.027	0	0	-10	0.027	0	0
1093	-10	0.033	-4e-05	0	-10	0.033	-4e-05	0
1094	-10	0.034	-2e-05	0	-10	0.034	-2e-05	0
1095	-10	0.035	-2e-05	0	-10	0.035	-2e-05	0
1096	-10	0.036	-2e-05	0	-10	0.036	-2e-05	0
1097	-10	0.039	-2e-05	0	-10	0.039	-2e-05	0
1098	-10	0.042	-4e-05	0	-10	0.042	-4e-05	0
1099	-10	0.044	-4e-05	0	-10	0.044	-4e-05	0
1100	-10	0.047	-6e-05	0	-10	0.047	-6e-05	0
1101	-10	0.047	-4e-05	0	-10	0.047	-4e-05	0
1102	-10	0.05	-6e-05	0	-10	0.05	-6e-05	0
1103	-10	0.05	-4e-05	0	-10	0.05	-4e-05	0
1104	-10	0.052	-6e-05	0	-10	0.052	-6e-05	0
1105	-10	0.057	-6e-05	0	-10	0.057	-6e-05	0
1106	-10	0.07	-8e-05	0	-10	0.07	-8e-05	0
1107	-9.5	0.02	0	0	-9.5	0.02	0	0
1108	-9.5	0.024	-2e-05	0	-9.5	0.024	-2e-05	0
1109	-9.5	0.025	-2e-05	0	-9.5	0.025	-2e-05	0
1110	-9.5	0.025	0	0	-9.5	0.025	0	0
1111	-9.5	0.026	-2e-05	0	-9.5	0.026	-2e-05	0
1112	-9.5	0.027	-4e-05	0	-9.5	0.027	-4e-05	0
1113	-9.5	0.029	-2e-05	0	-9.5	0.029	-2e-05	0
1114	-9.5	0.031	-2e-05	0	-9.5	0.031	-2e-05	0
1115	-9.5	0.032	-2e-05	0	-9.5	0.032	-2e-05	0
1116	-9.5	0.033	-2e-05	0	-9.5	0.033	-2e-05	0
1117	-9.5	0.036	-2e-05	0	-9.5	0.036	-2e-05	0
1118	-9.5	0.037	-4e-05	0	-9.5	0.037	-4e-05	0
1119	-9.5	0.038	-4e-05	0	-9.5	0.038	-4e-05	0
1120	-9.5	0.04	-4e-05	0	-9.5	0.04	-4e-05	0
1121	-9.5	0.046	-4e-05	0	-9.5	0.046	-4e-05	0
1122	-9.5	0.049	-6e-05	0	-9.5	0.049	-6e-05	0
1123	-9.5	0.049	-4e-05	0	-9.5	0.049	-4e-05	0
1124	-9.5	0.051	-6e-05	0	-9.5	0.051	-6e-05	0
1125	-9.5	0.056	-6e-05	0	-9.5	0.056	-6e-05	0
1126	-9.5	0.064	-6e-05	0	-9.5	0.064	-6e-05	0
1127	-9.5	0.066	-8e-05	0	-9.5	0.066	-8e-05	0
1128	-9	0.021	0	0	-9	0.021	0	0
1129	-9	0.023	0	0	-9	0.023	0	0
1130	-9	0.026	-2e-05	0	-9	0.026	-2e-05	0
1131	-9	0.028	-2e-05	0	-9	0.028	-2e-05	0
1132	-9	0.029	-2e-05	0	-9	0.029	-2e-05	0
1133	-9	0.03	-2e-05	0	-9	0.03	-2e-05	0
1134	-9	0.032	-4e-05	0	-9	0.032	-4e-05	0
1135	-9	0.032	-2e-05	0	-9	0.032	-2e-05	0
1136	-9	0.033	-2e-05	0	-9	0.033	-2e-05	0
1137	-9	0.036	-2e-05	0	-9	0.036	-2e-05	0
1138	-9	0.038	-2e-05	0	-9	0.038	-2e-05	0
1139	-9	0.04	-4e-05	0	-9	0.04	-4e-05	0
1140	-9	0.042	-4e-05	0	-9	0.042	-4e-05	0
1141	-9	0.043	-6e-05	0	-9	0.043	-6e-05	0
1142	-9	0.046	-4e-05	0	-9	0.046	-4e-05	0
1143	-9	0.049	-6e-05	0	-9	0.049	-6e-05	0
1144	-9	0.051	-6e-05	0	-9	0.051	-6e-05	0
1145	-9	0.057	-6e-05	0	-9	0.057	-6e-05	0
1146	-9	0.061	-6e-05	0	-9	0.061	-6e-05	0
1147	-8.5	0.011	2e-05	0	-8.5	0.011	2e-05	0
1148	-8.5	0.014	0	0	-8.5	0.014	0	0
1149	-8.5	0.016	0	0	-8.5	0.016	0	0
1150	-8.5	0.025	-2e-05	0	-8.5	0.025	-2e-05	0
1151	-8.5	0.027	-2e-05	0	-8.5	0.027	-2e-05	0
1152	-8.5	0.028	-2e-05	0	-8.5	0.028	-2e-05	0
1153	-8.5	0.029	-4e-05	0	-8.5	0.029	-4e-05	0
1154	-8.5	0.03	-2e-05	0	-8.5	0.03	-2e-05	0
1155	-8.5	0.031	-2e-05	0	-8.5	0.031	-2e-05	0
1156	-8.5	0.034	-4e-05	0	-8.5	0.034	-4e-05	0
1157	-8.5	0.035	-2e-05	0	-8.5	0.035	-2e-05	0
1158	-8.5	0.036	-4e-05	0	-8.5	0.036	-4e-05	0
1159	-8.5	0.036	-2e-05	0	-8.5	0.036	-2e-05	0
1160	-8.5	0.039	-4e-05	0	-8.5	0.039	-4e-05	0
1161	-8.5	0.04	-4e-05	0	-8.5	0.04	-4e-05	0
1162	-8.5	0.042	-4e-05	0	-8.5	0.042	-4e-05	0
1163	-8.5	0.043	-4e-05	0	-8.5	0.043	-4e-05	0
1164	-8.5	0.046	-6e-05	0	-8.5	0.046	-6e-05	0
1165	-8	0.01	2e-05	0	-8	0.01	2e-05	0
1166	-8	0.013	0	0	-8	0.013	0	0
1167	-8	0.014	0	0	-8	0.014	0	0
1168	-8	0.015	0	0	-8	0.015	0	0
1169	-8	0.018	0	0	-8	0.018	0	0
1170	-8	0.02	0	0	-8	0.02	0	0
1171	-8	0.022	-2e-05	0	-8	0.022	-2e-05	0
1172	-8	0.022	0	0	-8	0.022	0	0
1173	-8	0.027	-2e-05	0	-8	0.027	-2e-05	0
1174	-8	0.029	-2e-05	0	-8	0.029	-2e-05	0
1175	-8	0.03	-2e-05	0	-8	0.03	-2e-05	0
1176	-8	0.035	-4e-05	0	-8	0.035	-4e-05	0
1177	-8	0.036	-4e-05	0	-8	0.036	-4e-05	0
1178	-8	0.037	-4e-05	0	-8	0.037	-4e-05	0
1179	-8	0.039	-4e-05	0	-8	0.039	-4e-05	0
1180	-8	0.042	-6e-05	0	-8	0.042	-6e-05	0
1181	-8	0.042	-4e-05	0	-8	0.042	-4e-05	0
1182	-8	0.045	-6e-05	0	-8	0.045	-6e-05	0
1183	-8	0.046	-6e-05	0	-8	0.046	-6e-05	0
1184	-8	0.048	-4e-05	0	-8	0.048	-4e-05	0
1185	-8	0.051	-6e-05	0	-8	0.051	-6e-05	0
1186	-8	0.053	-6e-05	0	-8	0.053	-6e-05	0
1187	-8	0.058	-6e-05	0	-8	0.058	-6e-05	0
1188	-7.5	0.006	2e-05	0	-7.5	0.006	2e-05	0
1189	-7.5	0.009	0	0	-7.5	0.009	0	0
1190	-7.5	0.012	0	0	-7.5	0.012	0	0
1191	-7.5	0.014	0	0	-7.5	0.014	0	0
1192	-7.5	0.021	-2e-05	0	-7.5	0.021	-2e-05	0
1193	-7.5	0.022	-2e-05	0	-7.5	0.022	-2e-05	0
1194	-7.5	0.025	-2e-05	0	-7.5	0.025	-2e-05	0
1195	-7.5	0.027	-2e-05	0	-7.5	0.027	-2e-05	0
1196	-7.5	0.028	-2e-05	0	-7.5	0.028	-2e-05	0
1197	-7.5	0.031	-2e-05	0	-7.5	0.031	-2e-05	0
1198	-7.5	0.033	-4e-05	0	-7.5	0.033	-4e-05	0
1199	-7.5	0.033	-2e-05	0	-7.5	0.033	-2e-05	0
1200	-7.5	0.035	-4e-05	0	-7.5	0.035	-4e-05	0
1201	-7.5	0.038	-2e-05	0	-7.5	0.038	-2e-05	0
1202	-7.5	0.039	-4e-05	0	-7.5	0.039	-4e-05	0
1203	-7.5	0.04	-4e-05	0	-7.5	0.04	-4e-05	0
1204	-7.5	0.042	-4e-05	0	-7.5	0.042	-4e-05	0
1205	-7.5	0.043	-6e-05	0	-7.5	0.043	-6e-05	0
1206	-7.5	0.044	-4e-05	0	-7.5	0.044	-4e-05	0
1207	-7.5	0.045	-4e-05	0	-7.5	0.045	-4e-05	0
1208	-7.5	0.048	-4e-05	0	-7.5	0.048	-4e-05	0
1209	-7.5	0.051	-6e-05	0	-7.5	0.051	-6e-05	0
1210	-7.5	0.054	-6e-05	0	-7.5	0.054	-6e-05	0
1211	-7	0.007	2e-05	0	-7	0.007	2e-05	0
1212	-7	0.011	0	0	-7	0.011	0	0
1213	-7	0.019	-2e-05	0	-7	0.019	-2e-05	0
1214	-7	0.02	0	0	-7	0.02	0	0
1215	-7	0.021	0	0	-7	0.021	0	0
1216	-7	0.022	0	0	-7	0.022	0	0
1217	-7	0.024	-2e-05	0	-7	0.024	-2e-05	0
1218	-7	0.025	-2e-05	0	-7	0.025	-2e-05	0
1219	-7	0.027	-2e-05	0	-7	0.027	-2e-05	0
1220	-7	0.028	-2e-05	0	-7	0.028	-2e-05	0
1221	-7	0.031	-4e-05	0	-7	0.031	-4e-05	0
1222	-7	0.032	-4e-05	0	-7	0.032	-4e-05	0
1223	-7	0.032	-2e-05	0	-7	0.032	-2e-05	0
1224	-7	0.033	-2e-05	0	-7	0.033	-2e-05	0
1225	-7	0.034	-4e-05	0	-7	0.034	-4e-05	0
1226	-7	0.035	-4e-05	0	-7	0.035	-4e-05	0
1227	-7	0.037	-4e-05	0	-7	0.037	-4e-05	0
1228	-7	0.039	-4e-05	0	-7	0.039	-4e-05	0
1229	-7	0.045	-6e-05	0	-7	0.045	-6e-05	0
1230	-7	0.049	-6e-05	0	-7	0.049	-6e-05	0
1231	-7	0.05	-6e-05	0	-7	0.05	-6e-05	0
1232	-6.5	0.001	2e-05	0	-6.5	0.001	2e-05	0
1233	-6.5	0.003	2e-05	0	-6.5	0.003	2e-05	0
1234	-6.5	0.007	0	0	-6.5	0.007	0	0
1235	-6.5	0.007	2e-05	0	-6.5	0.007	2e-05	0
1236	-6.5	0.01	0	0	-6.5	0.01	0	0
1237	-6.5	0.011	0	0	-6.5	0.011	0	0
1238	-6.5	0.012	-2e-05	0	-6.5	0.012	-2e-05	0
1239	-6.5	0.012	0	0	-6.5	0.012	0	0
1240	-6.5	0.015	0	0	-6.5	0.015	0	0
1241	-6.5	0.019	-2e-05	0	-6.5	0.019	-2e-05	0
1242	-6.5	0.021	-2e-05	0	-6.5	0.021	-2e-05	0
1243	-6.5	0.022	-2e-05	0	-6.5	0.022	-2e-05	0
1244	-6.5	0.022	0	0	-6.5	0.022	0	0
1245	-6.5	0.023	-2e-05	0	-6.5	0.023	-2e-05	0
1246	-6.5	0.024	-2e-05	0	-6.5	0.024	-2e-05	0
1247	-6.5	0.026	-2e-05	0	-6.5	0.026	-2e-05	0
1248	-6.5	0.03	-2e-05	0	-6.5	0.03	-2e-05	0
1249	-6.5	0.032	-4e-05	0	-6.5	0.032	-4e-05	0
1250	-6.5	0.032	-2e-05	0	-6.5	0.032	-2e-05	0
1251	-6.5	0.035	-2e-05	0	-6.5	0.035	-2e-05	0
1252	-6.5	0.036	-4e-05	0	-6.5	0.036	-4e-05	0
1253	-6.5	0.041	-4e-05	0	-6.5	0.041	-4e-05	0
1254	-6.5	0.046	-4e-05	0	-6.5	0.046	-4e-05	0
1255	-6	0.014	0	0	-6	0.014	0	0
1256	-6	0.015	0	0	-6	0.015	0	0
1257	-6	0.02	-2e-05	0	-6	0.02	-2e-05	0
1258	-6	0.02	0	0	-6	0.02	0	0
1259	-6	0.021	0	0	-6	0.021	0	0
1260	-6	0.022	0	0	-6	0.022	0	0
1261	-6	0.023	-2e-05	0	-6	0.023	-2e-05	0
1262	-6	0.023	0	0	-6	0.023	0	0
1263	-6	0.027	-4e-05	0	-6	0.027	-4e-05	0
1264	-6	0.027	-2e-05	0	-6	0.027	-2e-05	0
1265	-6	0.028	-2e-05	0	-6	0.028	-2e-05	0
1266	-6	0.03	-4e-05	0	-6	0.03	-4e-05	0
1267	-6	0.031	-4e-05	0	-6	0.031	-4e-05	0
1268	-6	0.031	-2e-05	0	-6	0.031	-2e-05	0
1269	-6	0.032	-4e-05	0	-6	0.032	-4e-05	0
1270	-6	0.034	-4e-05	0	-6	0.034	-4e-05	0
1271	-6	0.035	-4e-05	0	-6	0.035	-4e-05	0
1272	-6	0.036	-4e-05	0	-6	0.036	-4e-05	0
1273	-6	0.04	-4e-05	0	-6	0.04	-4e-05	0
1274	-6	0.042	-6e-05	0	-6	0.042	-6e-05	0
1275	-6	0.046	-6e-05	0	-6	0.046	-6e-05	0
1276	-6	0.047	-6e-05	0	-6	0.047	-6e-05	0
1277	-6	0.048	-4e-05	0	-6	0.048	-4e-05	0
1278	-6	0.052	-6e-05	0	-6	0.052	-6e-05	0
1279	-5.5	-0.005	2e-05	0	-5.5	-0.005	2e-05	0
1280	-5.5	-0.003	2e-05	0	-5.5	-0.003	2e-05	0
1281	-5.5	-0.001	2e-05	0	-5.5	-0.001	2e-05	0
1282	-5.5	0.001	2e-05	0	-5.5	0.001	2e-05	0
1283	-5.5	0.004	2e-05	0	-5.5	0.004	2e-05	0
1284	-5.5	0.006	2e-05	0	-5.5	0.006	2e-05	0
1285	-5.5	0.007	0	0	-5.5	0.007	0	0
1286	-5.5	0.008	0	0	-5.5	0.008	0	0
1287	-5.5	0.009	0	0	-5.5	0.009	0	0
1288	-5.5	0.012	0	0	-5.5	0.012	0	0
1289	-5.5	0.014	0	0	-5.5	0.014	0	0
1290	-5.5	0.016	0	0	-5.5	0.016	0	0
1291	-5.5	0.018	-2e-05	0	-5.5	0.018	-2e-05	0
1292	-5.5	0.02	-2e-05	0	-5.5	0.02	-2e-05	0
1293	-5.5	0.021	-2e-05	0	-5.5	0.021	-2e-05	0
1294	-5.5	0.022	-2e-05	0	-5.5	0.022	-2e-05	0
1295	-5.5	0.028	-4e-05	0	-5.5	0.028	-4e-05	0
1296	-5.5	0.028	-2e-05	0	-5.5	0.028	-2e-05	0
1297	-5.5	0.03	-4e-05	0	-5.5	0.03	-4e-05	0
1298	-5.5	0.031	-4e-05	0	-5.5	0.031	-4e-05	0
1299	-5.5	0.033	-4e-05	0	-5.5	0.033	-4e-05	0
1300	-5.5	0.034	-4e-05	0	-5.5	0.034	-4e-05	0
1301	-5.5	0.035	-4e-05	0	-5.5	0.035	-4e-05	0
1302	-5.5	0.035	-2e-05	0	-5.5	0.035	-2e-05	0
1303	-5.5	0.037	-4e-05	0	-5.5	0.037	-4e-05	0
1304	-5.5	0.039	-4e-05	0	-5.5	0.039	-4e-05	0
1305	-5.5	0.041	-6e-05	0	-5.5	0.041	-6e-05	0
1306	-5.5	0.041	-4e-05	0	-5.5	0.041	-4e-05	0
1307	-5.5	0.043	-6e-05	0	-5.5	0.043	-6e-05	0
1308	-5.5	0.045	-6e-05	0	-5.5	0.045	-6e-05	0
1309	-5.5	0.058	-8e-05	0	-5.5	0.058	-8e-05	0
1310	-5	-0.004	2e-05	0	-5	-0.004	2e-05	0
1311	-5	0	2e-05	0	-5	0	2e-05	0
1312	-5	0.003	0	0	-5	0.003	0	0
1313	-5	0.004	2e-05	0	-5	0.004	2e-05	0
1314	-5	0.012	0	0	-5	0.012	0	0
1315	-5	0.014	-2e-05	0	-5	0.014	-2e-05	0
1316	-5	0.014	0	0	-5	0.014	0	0
1317	-5	0.015	0	0	-5	0.015	0	0
1318	-5	0.017	-2e-05	0	-5	0.017	-2e-05	0
1319	-5	0.017	0	0	-5	0.017	0	0
1320	-5	0.018	-2e-05	0	-5	0.018	-2e-05	0
1321	-5	0.019	-2e-05	0	-5	0.019	-2e-05	0
1322	-5	0.023	-4e-05	0	-5	0.023	-4e-05	0
1323	-5	0.023	-2e-05	0	-5	0.023	-2e-05	0
1324	-5	0.024	-2e-05	0	-5	0.024	-2e-05	0
1325	-5	0.025	-2e-05	0	-5	0.025	-2e-05	0
1326	-5	0.026	-2e-05	0	-5	0.026	-2e-05	0
1327	-5	0.027	-4e-05	0	-5	0.027	-4e-05	0
1328	-5	0.028	-4e-05	0	-5	0.028	-4e-05	0
1329	-5	0.03	-4e-05	0	-5	0.03	-4e-05	0
1330	-5	0.03	-2e-05	0	-5	0.03	-2e-05	0
1331	-5	0.034	-4e-05	0	-5	0.034	-4e-05	0
1332	-5	0.038	-4e-05	0	-5	0.038	-4e-05	0
1333	-5	0.039	-4e-05	0	-5	0.039	-4e-05	0
1334	-5	0.04	-4e-05	0	-5	0.04	-4e-05	0
1335	-5	0.046	-6e-05	0	-5	0.046	-6e-05	0
1336	-4.5	-0.005	2e-05	0	-4.5	-0.005	2e-05	0
1337	-4.5	-0.002	2e-05	0	-4.5	-0.002	2e-05	0
1338	-4.5	0	2e-05	0	-4.5	0	2e-05	0
1339	-4.5	0.001	2e-05	0	-4.5	0.001	2e-05	0
1340	-4.5	0.004	0	0	-4.5	0.004	0	0
1341	-4.5	0.006	0	0	-4.5	0.006	0	0
1342	-4.5	0.006	2e-05	0	-4.5	0.006	2e-05	0
1343	-4.5	0.009	0	0	-4.5	0.009	0	0
1344	-4.5	0.01	0	0	-4.5	0.01	0	0
1345	-4.5	0.014	-2e-05	0	-4.5	0.014	-2e-05	0
1346	-4.5	0.015	-2e-05	0	-4.5	0.015	-2e-05	0
1347	-4.5	0.016	-2e-05	0	-4.5	0.016	-2e-05	0
1348	-4.5	0.016	0	0	-4.5	0.016	0	0
1349	-4.5	0.019	-2e-05	0	-4.5	0.019	-2e-05	0
1350	-4.5	0.02	-2e-05	0	-4.5	0.02	-2e-05	0
1351	-4.5	0.021	-4e-05	0	-4.5	0.021	-4e-05	0
1352	-4.5	0.021	-2e-05	0	-4.5	0.021	-2e-05	0
1353	-4.5	0.022	-2e-05	0	-4.5	0.022	-2e-05	0
1354	-4.5	0.023	-2e-05	0	-4.5	0.023	-2e-05	0
1355	-4.5	0.024	-4e-05	0	-4.5	0.024	-4e-05	0
1356	-4.5	0.024	-2e-05	0	-4.5	0.024	-2e-05	0
1357	-4.5	0.025	-2e-05	0	-4.5	0.025	-2e-05	0
1358	-4.5	0.026	-4e-05	0	-4.5	0.026	-4e-05	0
1359	-4.5	0.027	-2e-05	0	-4.5	0.027	-2e-05	0
1360	-4.5	0.028	-4e-05	0	-4.5	0.028	-4e-05	0
1361	-4.5	0.029	-4e-05	0	-4.5	0.029	-4e-05	0
1362	-4.5	0.03	-4e-05	0	-4.5	0.03	-4e-05	0
1363	-4.5	0.031	-4e-05	0	-4.5	0.031	-4e-05	0
1364	-4.5	0.04	-6e-05	0	-4.5	0.04	-6e-05	0
1365	-4.5	0.044	-4e-05	0	-4.5	0.044	-4e-05	0
1366	-4	-0.013	4e-05	0	-4	-0.013	4e-05	0
1367	-4	-0.003	0	0	-4	-0.003	0	0
1368	-4	-0.003	2e-05	0	-4	-0.003	2e-05	0
1369	-4	-0.002	2e-05	0	-4	-0.002	2e-05	0
1370	-4	0.002	0	0	-4	0.002	0	0
1371	-4	0.003	0	0	-4	0.003	0	0
1372	-4	0.004	0	0	-4	0.004	0	0
1373	-4	0.004	2e-05	0	-4	0.004	2e-05	0
1374	-4	0.005	2e-05	0	-4	0.005	2e-05	0
1375	-4	0.006	2e-05	0	-4	0.006	2e-05	0
1376	-4	0.007	0	0	-4	0.007	0	0
1377	-4	0.009	0	0	-4	0.009	0	0
1378	-4	0.01	-2e-05	0	-4	0.01	-2e-05	0
1379	-4	0.01	0	0	-4	0.01	0	0
1380	-4	0.012	-2e-05	0	-4	0.012	-2e-05	0
1381	-4	0.013	-2e-05	0	-4	0.013	-2e-05	0
1382	-4	0.015	-2e-05	0	-4	0.015	-2e-05	0
1383	-4	0.016	0	0	-4	0.016	0	0
1384	-4	0.017	0	0	-4	0.017	0	0
1385	-4	0.019	0	0	-4	0.019	0	0
1386	-4	0.02	-2e-05	0	-4	0.02	-2e-05	0
1387	-4	0.021	-4e-05	0	-4	0.021	-4e-05	0
1388	-4	0.021	-2e-05	0	-4	0.021	-2e-05	0
1389	-4	0.022	-2e-05	0	-4	0.022	-2e-05	0
1390	-4	0.024	-2e-05	0	-4	0.024	-2e-05	0
1391	-4	0.028	-4e-05	0	-4	0.028	-4e-05	0
1392	-4	0.029	-4e-05	0	-4	0.029	-4e-05	0
1393	-4	0.033	-4e-05	0	-4	0.033	-4e-05	0
1394	-4	0.037	-6e-05	0	-4	0.037	-6e-05	0
1395	-4	0.037	-4e-05	0	-4	0.037	-4e-05	0
1396	-4	0.038	-6e-05	0	-4	0.038	-6e-05	0
1397	-4	0.039	-4e-05	0	-4	0.039	-4e-05	0
1398	-3.5	-0.007	2e-05	0	-3.5	-0.007	2e-05	0
1399	-3.5	-0.001	2e-05	0	-3.5	-0.001	2e-05	0
1400	-3.5	0.002	2e-05	0	-3.5	0.002	2e-05	0
1401	-3.5	0.003	0	0	-3.5	0.003	0	0
1402	-3.5	0.003	2e-05	0	-3.5	0.003	2e-05	0
1403	-3.5	0.004	0	0	-3.5	0.004	0	0
1404	-3.5	0.005	-2e-05	0	-3.5	0.005	-2e-05	0
1405	-3.5	0.006	0	0	-3.5	0.006	0	0
1406	-3.5	0.008	0	0	-3.5	0.008	0	0
1407	-3.5	0.009	0	0	-3.5	0.009	0	0
1408	-3.5	0.011	0	0	-3.5	0.011	0	0
1409	-3.5	0.016	-2e-05	0	-3.5	0.016	-2e-05	0
1410	-3.5	0.017	-2e-05	0	-3.5	0.017	-2e-05	0
1411	-3.5	0.018	-2e-05	0	-3.5	0.018	-2e-05	0
1412	-3.5	0.019	-2e-05	0	-3.5	0.019	-2e-05	0
1413	-3.5	0.02	-4e-05	0	-3.5	0.02	-4e-05	0
1414	-3.5	0.021	-2e-05	0	-3.5	0.021	-2e-05	0
1415	-3.5	0.023	-4e-05	0	-3.5	0.023	-4e-05	0
1416	-3.5	0.024	-2e-05	0	-3.5	0.024	-2e-05	0
1417	-3.5	0.026	-4e-05	0	-3.5	0.026	-4e-05	0
1418	-3.5	0.026	-2e-05	0	-3.5	0.026	-2e-05	0
1419	-3.5	0.027	-4e-05	0	-3.5	0.027	-4e-05	0
1420	-3.5	0.028	-2e-05	0	-3.5	0.028	-2e-05	0
1421	-3.5	0.03	-4e-05	0	-3.5	0.03	-4e-05	0
1422	-3.5	0.033	-4e-05	0	-3.5	0.033	-4e-05	0
1423	-3.5	0.035	-4e-05	0	-3.5	0.035	-4e-05	0
1424	-3.5	0.038	-4e-05	0	-3.5	0.038	-4e-05	0
1425	-3.5	0.04	-6e-05	0	-3.5	0.04	-6e-05	0
1426	-3.5	0.041	-6e-05	0	-3.5	0.041	-6e-05	0
1427	-3	-0.009	2e-05	0	-3	-0.009	2e-05	0
1428	-3	-0.007	2e-05	0	-3	-0.007	2e-05	0
1429	-3	-0.005	2e-05	0	-3	-0.005	2e-05	0
1430	-3	-0.002	2e-05	0	-3	-0.002	2e-05	0
1431	-3	-0.001	0	0	-3	-0.001	0	0
1432	-3	0.001	0	0	-3	0.001	0	0
1433	-3	0.003	0	0	-3	0.003	0	0
1434	-3	0.005	0	0	-3	0.005	0	0
1435	-3	0.006	0	0	-3	0.006	0	0
1436	-3	0.011	0	0	-3	0.011	0	0
1437	-3	0.012	-2e-05	0	-3	0.012	-2e-05	0
1438	-3	0.014	0	0	-3	0.014	0	0
1439	-3	0.015	0	0	-3	0.015	0	0
1440	-3	0.016	-2e-05	0	-3	0.016	-2e-05	0
1441	-3	0.017	-2e-05	0	-3	0.017	-2e-05	0
1442	-3	0.018	-2e-05	0	-3	0.018	-2e-05	0
1443	-3	0.019	-4e-05	0	-3	0.019	-4e-05	0
1444	-3	0.019	-2e-05	0	-3	0.019	-2e-05	0
1445	-3	0.021	-2e-05	0	-3	0.021	-2e-05	0
1446	-3	0.023	-4e-05	0	-3	0.023	-4e-05	0
1447	-3	0.025	-4e-05	0	-3	0.025	-4e-05	0
1448	-3	0.025	-2e-05	0	-3	0.025	-2e-05	0
1449	-3	0.026	-2e-05	0	-3	0.026	-2e-05	0
1450	-3	0.028	-4e-05	0	-3	0.028	-4e-05	0
1451	-3	0.031	-4e-05	0	-3	0.031	-4e-05	0
1452	-3	0.032	-4e-05	0	-3	0.032	-4e-05	0
1453	-3	0.036	-4e-05	0	-3	0.036	-4e-05	0
1454	-3	0.041	-6e-05	0	-3	0.041	-6e-05	0
1455	-2.5	-0.008	2e-05	0	-2.5	-0.008	2e-05	0
1456	-2.5	-0.007	0	0	-2.5	-0.007	0	0
1457	-2.5	-0.007	2e-05	0	-2.5	-0.007	2e-05	0
1458	-2.5	-0.006	2e-05	0	-2.5	-0.006	2e-05	0
1459	-2.5	-0.003	2e-05	0	-2.5	-0.003	2e-05	0
1460	-2.5	0.002	0	0	-2.5	0.002	0	0
1461	-2.5	0.003	0	0	-2.5	0.003	0	0
1462	-2.5	0.003	2e-05	0	-2.5	0.003	2e-05	0
1463	-2.5	0.004	0	0	-2.5	0.004	0	0
1464	-2.5	0.005	0	0	-2.5	0.005	0	0
1465	-2.5	0.006	-2e-05	0	-2.5	0.006	-2e-05	0
1466	-2.5	0.006	0	0	-2.5	0.006	0	0
1467	-2.5	0.008	0	0	-2.5	0.008	0	0
1468	-2.5	0.009	-2e-05	0	-2.5	0.009	-2e-05	0
1469	-2.5	0.011	0	0	-2.5	0.011	0	0
1470	-2.5	0.012	-2e-05	0	-2.5	0.012	-2e-05	0
1471	-2.5	0.013	-2e-05	0	-2.5	0.013	-2e-05	0
1472	-2.5	0.014	-2e-05	0	-2.5	0.014	-2e-05	0
1473	-2.5	0.014	0	0	-2.5	0.014	0	0
1474	-2.5	0.015	-2e-05	0	-2.5	0.015	-2e-05	0
1475	-2.5	0.016	-2e-05	0	-2.5	0.016	-2e-05	0
1476	-2.5	0.016	0	0	-2.5	0.016	0	0
1477	-2.5	0.017	-2e-05	0	-2.5	0.017	-2e-05	0
1478	-2.5	0.017	0	0	-2.5	0.017	0	0
1479	-2.5	0.02	-4e-05	0	-2.5	0.02	-4e-05	0
1480	-2.5	0.02	-2e-05	0	-2.5	0.02	-2e-05	0
1481	-2.5	0.021	-2e-05	0	-2.5	0.021	-2e-05	0
1482	-2.5	0.022	-4e-05	0	-2.5	0.022	-4e-05	0
1483	-2.5	0.023	-2e-05	0	-2.5	0.023	-2e-05	0
1484	-2.5	0.024	-4e-05	0	-2.5	0.024	-4e-05	0
1485	-2.5	0.026	-4e-05	0	-2.5	0.026	-4e-05	0
1486	-2.5	0.026	-2e-05	0	-2.5	0.026	-2e-05	0
1487	-2.5	0.034	-4e-05	0	-2.5	0.034	-4e-05	0
1488	-2	-0.016	2e-05	0	-2	-0.016	2e-05	0
1489	-2	-0.015	2e-05	0	-2	-0.015	2e-05	0
1490	-2	-0.014	4e-05	0	-2	-0.014	4e-05	0
1491	-2	-0.013	2e-05	0	-2	-0.013	2e-05	0
1492	-2	-0.007	2e-05	0	-2	-0.007	2e-05	0
1493	-2	-0.006	2e-05	0	-2	-0.006	2e-05	0
1494	-2	-0.005	0	0	-2	-0.005	0	0
1495	-2	-0.004	2e-05	0	-2	-0.004	2e-05	0
1496	-2	-0.003	0	0	-2	-0.003	0	0
1497	-2	-0.003	2e-05	0	-2	-0.003	2e-05	0
1498	-2	-0.001	2e-05	0	-2	-0.001	2e-05	0
1499	-2	0.002	0	0	-2	0.002	0	0
1500	-2	0.002	2e-05	0	-2	0.002	2e-05	0
1501	-2	0.003	0	0	-2	0.003	0	0
1502	-2	0.004	0	0	-2	0.004	0	0
1503	-2	0.005	0	0	-2	0.005	0	0
1504	-2	0.006	0	0	-2	0.006	0	0
1505	-2	0.009	-2e-05	0	-2	0.009	-2e-05	0
1506	-2	0.009	0	0	-2	0.009	0	0
1507	-2	0.01	-2e-05	0	-2	0.01	-2e-05	0
1508	-2	0.01	0	0	-2	0.01	0	0
1509	-2	0.011	-2e-05	0	-2	0.011	-2e-05	0
1510	-2	0.012	-2e-05	0	-2	0.012	-2e-05	0
1511	-2	0.015	-2e-05	0	-2	0.015	-2e-05	0
1512	-2	0.016	-2e-05	0	-2	0.016	-2e-05	0
1513	-2	0.016	0	0	-2	0.016	0	0
1514	-2	0.017	-4e-05	0	-2	0.017	-4e-05	0
1515	-2	0.017	-2e-05	0	-2	0.017	-2e-05	0
1516	-2	0.018	-4e-05	0	-2	0.018	-4e-05	0
1517	-2	0.019	-4e-05	0	-2	0.019	-4e-05	0
1518	-2	0.019	-2e-05	0	-2	0.019	-2e-05	0
1519	-2	0.022	-4e-05	0	-2	0.022	-4e-05	0
1520	-2	0.023	-4e-05	0	-2	0.023	-4e-05	0
1521	-2	0.023	-2e-05	0	-2	0.023	-2e-05	0
1522	-2	0.024	-2e-05	0	-2	0.024	-2e-05	0
1523	-2	0.025	-4e-05	0	-2	0.025	-4e-05	0
1524	-2	0.026	-4e-05	0	-2	0.026	-4e-05	0
1525	-2	0.026	-2e-05	0	-2	0.026	-2e-05	0
1526	-2	0.027	-2e-05	0	-2	0.027	-2e-05	0
1527	-2	0.028	-4e-05	0	-2	0.028	-4e-05	0
1528	-2	0.029	-4e-05	0	-2	0.029	-4e-05	0
1529	-2	0.034	-4e-05	0	-2	0.034	-4e-05	0
1530	-2	0.036	-4e-05	0	-2	0.036	-4e-05	0
1531	-1.5	-0.022	4e-05	0	-1.5	-0.022	4e-05	0
1532	-1.5	-0.021	4e-05	0	-1.5	-0.021	4e-05	0
1533	-1.5	-0.019	4e-05	0	-1.5	-0.019	4e-05	0
1534	-1.5	-0.015	2e-05	0	-1.5	-0.015	2e-05	0
1535	-1.5	-0.014	2e-05	0	-1.5	-0.014	2e-05	0
1536	-1.5	-0.01	2e-05	0	-1.5	-0.01	2e-05	0
1537	-1.5	-0.005	0	0	-1.5	-0.005	0	0
1538	-1.5	-0.004	2e-05	0	-1.5	-0.004	2e-05	0
1539	-1.5	-0.003	0	0	-1.5	-0.003	0	0
1540	-1.5	-0.001	0	0	-1.5	-0.001	0	0
1541	-1.5	0	0	0	-1.5	0	0	0
1542	-1.5	0.001	0	0	-1.5	0.001	0	0
1543	-1.5	0.002	0	0	-1.5	0.002	0	0
1544	-1.5	0.003	0	0	-1.5	0.003	0	0
1545	-1.5	0.004	0	0	-1.5	0.004	0	0
1546	-1.5	0.005	0	0	-1.5	0.005	0	0
1547	-1.5	0.006	-2e-05	0	-1.5	0.006	-2e-05	0
1548	-1.5	0.007	-2e-05	0	-1.5	0.007	-2e-05	0
1549	-1.5	0.008	-2e-05	0	-1.5	0.008	-2e-05	0
1550	-1.5	0.009	0	0	-1.5	0.009	0	0
1551	-1.5	0.01	-2e-05	0	-1.5	0.01	-2e-05	0
1552	-1.5	0.01	0	0	-1.5	0.01	0	0
1553	-1.5	0.012	-2e-05	0	-1.5	0.012	-2e-05	0
1554	-1.5	0.013	-2e-05	0	-1.5	0.013	-2e-05	0
1555	-1.5	0.014	-2e-05	0	-1.5	0.014	-2e-05	0
1556	-1.5	0.014	0	0	-1.5	0.014	0	0
1557	-1.5	0.015	-2e-05	0	-1.5	0.015	-2e-05	0
1558	-1.5	0.016	-2e-05	0	-1.5	0.016	-2e-05	0
1559	-1.5	0.018	-4e-05	0	-1.5	0.018	-4e-05	0
1560	-1.5	0.018	-2e-05	0	-1.5	0.018	-2e-05	0
1561	-1.5	0.019	-2e-05	0	-1.5	0.019	-2e-05	0
1562	-1.5	0.021	-4e-05	0	-1.5	0.021	-4e-05	0
1563	-1.5	0.021	-2e-05	0	-1.5	0.021	-2e-05	0
1564	-1.5	0.023	-4e-05	0	-1.5	0.023	-4e-05	0
1565	-1.5	0.025	-4e-05	0	-1.5	0.025	-4e-05	0
1566	-1.5	0.027	-4e-05	0	-1.5	0.027	-4e-05	0
1567	-1.5	0.028	-4e-05	0	-1.5	0.028	-4e-05	0
1568	-1.5	0.033	-4e-05	0	-1.5	0.033	-4e-05	0
1569	-1	-0.026	4e-05	0	-1	-0.026	4e-05	0
1570	-1	-0.02	4e-05	0	-1	-0.02	4e-05	0
1571	-1	-0.019	4e-05	0	-1	-0.019	4e-05	0
1572	-1	-0.016	4e-05	0	-1	-0.016	4e-05	0
1573	-1	-0.015	2e-05	0	-1	-0.015	2e-05	0
1574	-1	-0.015	4e-05	0	-1	-0.015	4e-05	0
1575	-1	-0.014	2e-05	0	-1	-0.014	2e-05	0
1576	-1	-0.01	2e-05	0	-1	-0.01	2e-05	0
1577	-1	-0.009	2e-05	0	-1	-0.009	2e-05	0
1578	-1	-0.007	2e-05	0	-1	-0.007	2e-05	0
1579	-1	-0.005	2e-05	0	-1	-0.005	2e-05	0
1580	-1	-0.004	0	0	-1	-0.004	0	0
1581	-1	-0.003	0	0	-1	-0.003	0	0
1582	-1	0	0	0	-1	0	0	0
1583	-1	0.001	0	0	-1	0.001	0	0
1584	-1	0.002	0	0	-1	0.002	0	0
1585	-1	0.003	0	0	-1	0.003	0	0
1586	-1	0.006	0	0	-1	0.006	0	0
1587	-1	0.007	-2e-05	0	-1	0.007	-2e-05	0
1588	-1	0.007	0	0	-1	0.007	0	0
1589	-1	0.008	0	0	-1	0.008	0	0
1590	-1	0.009	-2e-05	0	-1	0.009	-2e-05	0
1591	-1	0.01	-2e-05	0	-1	0.01	-2e-05	0
1592	-1	0.01	0	0	-1	0.01	0	0
1593	-1	0.011	-2e-05	0	-1	0.011	-2e-05	0
1594	-1	0.013	-2e-05	0	-1	0.013	-2e-05	0
1595	-1	0.016	-2e-05	0	-1	0.016	-2e-05	0
1596	-1	0.017	-2e-05	0	-1	0.017	-2e-05	0
1597	-1	0.018	-4e-05	0	-1	0.018	-4e-05	0
1598	-1	0.019	-2e-05	0	-1	0.019	-2e-05	0
1599	-1	0.02	-4e-05	0	-1	0.02	-4e-05	0
1600	-1	0.021	-4e-05	0	-1	0.021	-4e-05	0
1601	-1	0.021	-2e-05	0	-1	0.021	-2e-05	0
1602	-1	0.023	-4e-05	0	-1	0.023	-4e-05	0
1603	-1	0.024	-4e-05	0	-1	0.024	-4e-05	0
1604	-1	0.037	-6e-05	0	-1	0.037	-6e-05	0
1605	-0.5	-0.036	6e-05	0	-0.5	-0.036	6e-05	0
1606	-0.5	-0.035	6e-05	0	-0.5	-0.035	6e-05	0
1607	-0.5	-0.026	4e-05	0	-0.5	-0.026	4e-05	0
1608	-0.5	-0.025	4e-05	0	-0.5	-0.025	4e-05	0
1609	-0.5	-0.022	2e-05	0	-0.5	-0.022	2e-05	0
1610	-0.5	-0.021	4e-05	0	-0.5	-0.021	4e-05	0
1611	-0.5	-0.019	2e-05	0	-0.5	-0.019	2e-05	0
1612	-0.5	-0.015	2e-05	0	-0.5	-0.015	2e-05	0
1613	-0.5	-0.015	4e-05	0	-0.5	-0.015	4e-05	0
1614	-0.5	-0.014	2e-05	0	-0.5	-0.014	2e-05	0
1615	-0.5	-0.013	2e-05	0	-0.5	-0.013	2e-05	0
1616	-0.5	-0.012	2e-05	0	-0.5	-0.012	2e-05	0
1617	-0.5	-0.007	0	0	-0.5	-0.007	0	0
1618	-0.5	-0.007	2e-05	0	-0.5	-0.007	2e-05	0
1619	-0.5	-0.006	0	0	-0.5	-0.006	0	0
1620	-0.5	-0.006	2e-05	0	-0.5	-0.006	2e-05	0
1621	-0.5	-0.005	0	0	-0.5	-0.005	0	0
1622	-0.5	-0.005	2e-05	0	-0.5	-0.005	2e-05	0
1623	-0.5	-0.004	2e-05	0	-0.5	-0.004	2e-05	0
1624	-0.5	-0.003	0	0	-0.5	-0.003	0	0
1625	-0.5	-0.002	0	0	-0.5	-0.002	0	0
1626	-0.5	-0.001	0	0	-0.5	-0.001	0	0
1627	-0.5	0	0	0	-0.5	0	0	0
1628	-0.5	0.001	0	0	-0.5	0.001	0	0
1629	-0.5	0.002	0	0	-0.5	0.002	0	0
1630	-0.5	0.003	0	0	-0.5	0.003	0	0
1631	-0.5	0.004	0	0	-0.5	0.004	0	0
1632	-0.5	0.005	0	0	-0.5	0.005	0	0
1633	-0.5	0.006	0	0	-0.5	0.006	0	0
1634	-0.5	0.007	-2e-05	0	-0.5	0.007	-2e-05	0
1635	-0.5	0.008	0	0	-0.5	0.008	0	0
1636	-0.5	0.009	-2e-05	0	-0.5	0.009	-2e-05	0
1637	-0.5	0.01	-2e-05	0	-0.5	0.01	-2e-05	0
1638	-0.5	0.011	-2e-05	0	-0.5	0.011	-2e-05	0
1639	-0.5	0.012	-2e-05	0	-0.5	0.012	-2e-05	0
1640	-0.5	0.016	-2e-05	0	-0.5	0.016	-2e-05	0
1641	-0.5	0.017	-4e-05	0	-0.5	0.017	-4e-05	0
1642	-0.5	0.017	-2e-05	0	-0.5	0.017	-2e-05	0
1643	-0.5	0.018	-2e-05	0	-0.5	0.018	-2e-05	0
1644	-0.5	0.02	-2e-05	0	-0.5	0.02	-2e-05	0
1645	-0.5	0.022	-2e-05	0	-0.5	0.022	-2e-05	0
1646	0	-0.03	4e-05	0	0	-0.03	4e-05	0
1647	0	-0.021	2e-05	0	0	-0.021	2e-05	0
1648	0	-0.016	4e-05	0	0	-0.016	4e-05	0
1649	0	-0.015	2e-05	0	0	-0.015	2e-05	0
1650	0	-0.012	2e-05	0	0	-0.012	2e-05	0
1651	0	-0.01	2e-05	0	0	-0.01	2e-05	0
1652	0	-0.009	2e-05	0	0	-0.009	2e-05	0
1653	0	-0.008	2e-05	0	0	-0.008	2e-05	0
1654	0	-0.007	2e-05	0	0	-0.007	2e-05	0
1655	0	-0.005	0	0	0	-0.005	0	0
1656	0	-0.005	2e-05	0	0	-0.005	2e-05	0
1657	0	-0.004	0	0	0	-0.004	0	0
1658	0	-0.003	0	0	0	-0.003	0	0
1659	0	-0.001	0	0	0	-0.001	0	0
1660	0	-0.001	2e-05	0	0	-0.001	2e-05	0
1661	0	0	0	0	0	0	0	0
1662	0	0.001	0	0	0	0.001	0	0
1663	0	0.002	-2e-05	0	0	0.002	-2e-05	0
1664	0	0.003	0	0	0	0.003	0	0
1665	0	0.004	0	0	0	0.004	0	0
1666	0	0.005	-2e-05	0	0	0.005	-2e-05	0
1667	0	0.005	0	0	0	0.005	0	0
1668	0	0.006	-2e-05	0	0	0.006	-2e-05	0
1669	0	0.006	0	0	0	0.006	0	0
1670	0	0.007	-2e-05	0	0	0.007	-2e-05	0
1671	0	0.008	0	0	0	0.008	0	0
1672	0	0.009	-2e-05	0	0	0.009	-2e-05	0
1673	0	0.011	-2e-05	0	0	0.011	-2e-05	0
1674	0	0.013	-2e-05	0	0	0.013	-2e-05	0
1675	0	0.015	-4e-05	0	0	0.015	-4e-05	0
1676	0	0.015	-2e-05	0	0	0.015	-2e-05	0
1677	0	0.017	-4e-05	0	0	0.017	-4e-05	0
1678	0	0.017	-2e-05	0	0	0.017	-2e-05	0
1679	0	0.02	-2e-05	0	0	0.02	-2e-05	0
1680	0	0.021	-2e-05	0	0	0.021	-2e-05	0
1681	0	0.025	-4e-05	0	0	0.025	-4e-05	0
1682	0	0.032	-4e-05	0	0	0.032	-4e-05	0
1683	0.5	-0.022	2e-05	0	0.5	-0.022	2e-05	0
1684	0.5	-0.022	4e-05	0	0.5	-0.022	4e-05	0
1685	0.5	-0.018	2e-05	0	0.5	-0.018	2e-05	0
1686	0.5	-0.018	4e-05	0	0.5	-0.018	4e-05	0
1687	0.5	-0.017	2e-05	0	0.5	-0.017	2e-05	0
1688	0.5	-0.016	2e-05	0	0.5	-0.016	2e-05	0
1689	0.5	-0.015	2e-05	0	0.5	-0.015	2e-05	0
1690	0.5	-0.011	2e-05	0	0.5	-0.011	2e-05	0
1691	0.5	-0.01	2e-05	0	0.5	-0.01	2e-05	0
1692	0.5	-0.009	0	0	0.5	-0.009	0	0
1693	0.5	-0.008	0	0	0.5	-0.008	0	0
1694	0.5	-0.008	2e-05	0	0.5	-0.008	2e-05	0
1695	0.5	-0.007	0	0	0.5	-0.007	0	0
1696	0.5	-0.007	2e-05	0	0.5	-0.007	2e-05	0
1697	0.5	-0.006	0	0	0.5	-0.006	0	0
1698	0.5	-0.006	2e-05	0	0.5	-0.006	2e-05	0
1699	0.5	-0.004	0	0	0.5	-0.004	0	0
1700	0.5	-0.004	2e-05	0	0.5	-0.004	2e-05	0
1701	0.5	-0.002	0	0	0.5	-0.002	0	0
1702	0.5	-0.001	0	0	0.5	-0.001	0	0
1703	0.5	0	0	0	0.5	0	0	0
1704	0.5	0.004	0	0	0.5	0.004	0	0
1705	0.5	0.007	0	0	0.5	0.007	0	0
1706	0.5	0.008	-2e-05	0	0.5	0.008	-2e-05	0
1707	0.5	0.01	-2e-05	0	0.5	0.01	-2e-05	0
1708	0.5	0.01	0	0	0.5	0.01	0	0
1709	0.5	0.013	-2e-05	0	0.5	0.013	-2e-05	0
1710	0.5	0.014	-2e-05	0	0.5	0.014	-2e-05	0
1711	0.5	0.016	-4e-05	0	0.5	0.016	-4e-05	0
1712	1	-0.04	6e-05	0	1	-0.04	6e-05	0
1713	1	-0.034	6e-05	0	1	-0.034	6e-05	0
1714	1	-0.032	4e-05	0	1	-0.032	4e-05	0
1715	1	-0.03	4e-05	0	1	-0.03	4e-05	0
1716	1	-0.028	4e-05	0	1	-0.028	4e-05	0
1717	1	-0.019	2e-05	0	1	-0.019	2e-05	0
1718	1	-0.018	4e-05	0	1	-0.018	4e-05	0
1719	1	-0.013	0	0	1	-0.013	0	0
1720	1	-0.013	2e-05	0	1	-0.013	2e-05	0
1721	1	-0.009	2e-05	0	1	-0.009	2e-05	0
1722	1	-0.008	0	0	1	-0.008	0	0
1723	1	-0.008	2e-05	0	1	-0.008	2e-05	0
1724	1	-0.007	2e-05	0	1	-0.007	2e-05	0
1725	1	-0.006	0	0	1	-0.006	0	0
1726	1	-0.005	0	0	1	-0.005	0	0
1727	1	-0.004	0	0	1	-0.004	0	0
1728	1	-0.004	2e-05	0	1	-0.004	2e-05	0
1729	1	-0.003	0	0	1	-0.003	0	0
1730	1	-0.002	0	0	1	-0.002	0	0
1731	1	-0.001	0	0	1	-0.001	0	0
1732	1	0	0	0	1	0	0	0
1733	1	0.001	0	0	1	0.001	0	0
1734	1	0.004	0	0	1	0.004	0	0
1735	1	0.005	-2e-05	0	1	0.005	-2e-05	0
1736	1	0.005	0	0	1	0.005	0	0
1737	1	0.006	-2e-05	0	1	0.006	-2e-05	0
1738	1	0.006	0	0	1	0.006	0	0
1739	1	0.007	-2e-05	0	1	0.007	-2e-05	0
1740	1	0.008	-2e-05	0	1	0.008	-2e-05	0
1741	1	0.009	-2e-05	0	1	0.009	-2e-05	0
1742	1	0.012	-2e-05	0	1	0.012	-2e-05	0
1743	1	0.013	-2e-05	0	1	0.013	-2e-05	0
1744	1	0.016	-4e-05	0	1	0.016	-4e-05	0
1745	1	0.017	-4e-05	0	1	0.017	-4e-05	0
1746	1	0.021	-2e-05	0	1	0.021	-2e-05	0
1747	1	0.033	-6e-05	0	1	0.033	-6e-05	0
1748	1.5	-0.028	4e-05	0	1.5	-0.028	4e-05	0
1749	1.5	-0.027	4e-05	0	1.5	-0.027	4e-05	0
1750	1.5	-0.026	4e-05	0	1.5	-0.026	4e-05	0
1751	1.5	-0.024	2e-05	0	1.5	-0.024	2e-05	0
1752	1.5	-0.024	4e-05	0	1.5	-0.024	4e-05	0
1753	1.5	-0.023	2e-05	0	1.5	-0.023	2e-05	0
1754	1.5	-0.022	4e-05	0	1.5	-0.022	4e-05	0
1755	1.5	-0.02	2e-05	0	1.5	-0.02	2e-05	0
1756	1.5	-0.019	2e-05	0	1.5	-0.019	2e-05	0
1757	1.5	-0.017	4e-05	0	1.5	-0.017	4e-05	0
1758	1.5	-0.015	2e-05	0	1.5	-0.015	2e-05	0
1759	1.5	-0.014	2e-05	0	1.5	-0.014	2e-05	0
1760	1.5	-0.01	0	0	1.5	-0.01	0	0
1761	1.5	-0.008	0	0	1.5	-0.008	0	0
1762	1.5	-0.006	0	0	1.5	-0.006	0	0
1763	1.5	-0.005	0	0	1.5	-0.005	0	0
1764	1.5	-0.005	2e-05	0	1.5	-0.005	2e-05	0
1765	1.5	-0.004	0	0	1.5	-0.004	0	0
1766	1.5	-0.002	0	0	1.5	-0.002	0	0
1767	1.5	0	0	0	1.5	0	0	0
1768	1.5	0.001	0	0	1.5	0.001	0	0
1769	1.5	0.004	-2e-05	0	1.5	0.004	-2e-05	0
1770	1.5	0.004	0	0	1.5	0.004	0	0
1771	1.5	0.005	-2e-05	0	1.5	0.005	-2e-05	0
1772	1.5	0.007	-2e-05	0	1.5	0.007	-2e-05	0
1773	1.5	0.008	-2e-05	0	1.5	0.008	-2e-05	0
1774	1.5	0.017	-4e-05	0	1.5	0.017	-4e-05	0
1775	1.5	0.018	-2e-05	0	1.5	0.018	-2e-05	0
1776	1.5	0.02	-4e-05	0	1.5	0.02	-4e-05	0
1777	1.5	0.025	-4e-05	0	1.5	0.025	-4e-05	0
1778	2	-0.028	4e-05	0	2	-0.028	4e-05	0
1779	2	-0.026	4e-05	0	2	-0.026	4e-05	0
1780	2	-0.024	4e-05	0	2	-0.024	4e-05	0
1781	2	-0.023	4e-05	0	2	-0.023	4e-05	0
1782	2	-0.022	2e-05	0	2	-0.022	2e-05	0
1783	2	-0.021	2e-05	0	2	-0.021	2e-05	0
1784	2	-0.021	4e-05	0	2	-0.021	4e-05	0
1785	2	-0.019	4e-05	0	2	-0.019	4e-05	0
1786	2	-0.017	2e-05	0	2	-0.017	2e-05	0
1787	2	-0.016	2e-05	0	2	-0.016	2e-05	0
1788	2	-0.015	2e-05	0	2	-0.015	2e-05	0
1789	2	-0.013	2e-05	0	2	-0.013	2e-05	0
1790	2	-0.012	0	0	2	-0.012	0	0
1791	2	-0.012	2e-05	0	2	-0.012	2e-05	0
1792	2	-0.01	0	0	2	-0.01	0	0
1793	2	-0.009	0	0	2	-0.009	0	0
1794	2	-0.006	0	0	2	-0.006	0	0
1795	2	-0.005	0	0	2	-0.005	0	0
1796	2	-0.004	0	0	2	-0.004	0	0
1797	2	-0.002	0	0	2	-0.002	0	0
1798	2	-0.001	0	0	2	-0.001	0	0
1799	2	0	0	0	2	0	0	0
1800	2	0.003	-2e-05	0	2	0.003	-2e-05	0
1801	2	0.003	0	0	2	0.003	0	0
1802	2	0.004	-2e-05	0	2	0.004	-2e-05	0
1803	2	0.008	-2e-05	0	2	0.008	-2e-05	0
1804	2	0.019	-4e-05	0	2	0.019	-4e-05	0
1805	2.5	-0.035	4e-05	0	2.5	-0.035	4e-05	0
1806	2.5	-0.03	4e-05	0	2.5	-0.03	4e-05	0
1807	2.5	-0.029	4e-05	0	2.5	-0.029	4e-05	0
1808	2.5	-0.028	2e-05	0	2.5	-0.028	2e-05	0
1809	2.5	-0.027	2e-05	0	2.5	-0.027	2e-05	0
1810	2.5	-0.027	4e-05	0	2.5	-0.027	4e-05	0
1811	2.5	-0.025	2e-05	0	2.5	-0.025	2e-05	0
1812	2.5	-0.025	4e-05	0	2.5	-0.025	4e-05	0
1813	2.5	-0.024	4e-05	0	2.5	-0.024	4e-05	0
1814	2.5	-0.022	2e-05	0	2.5	-0.022	2e-05	0
1815	2.5	-0.02	2e-05	0	2.5	-0.02	2e-05	0
1816	2.5	-0.019	2e-05	0	2.5	-0.019	2e-05	0
1817	2.5	-0.018	2e-05	0	2.5	-0.018	2e-05	0
1818	2.5	-0.013	0	0	2.5	-0.013	0	0
1819	2.5	-0.011	2e-05	0	2.5	-0.011	2e-05	0
1820	2.5	-0.01	2e-05	0	2.5	-0.01	2e-05	0
1821	2.5	-0.009	0	0	2.5	-0.009	0	0
1822	2.5	-0.009	2e-05	0	2.5	-0.009	2e-05	0
1823	2.5	-0.008	0	0	2.5	-0.008	0	0
1824	2.5	-0.007	0	0	2.5	-0.007	0	0
1825	2.5	-0.007	2e-05	0	2.5	-0.007	2e-05	0
1826	2.5	-0.004	-2e-05	0	2.5	-0.004	-2e-05	0
1827	2.5	-0.003	0	0	2.5	-0.003	0	0
1828	2.5	-0.001	0	0	2.5	-0.001	0	0
1829	2.5	0	-2e-05	0	2.5	0	-2e-05	0
1830	2.5	0.001	-2e-05	0	2.5	0.001	-2e-05	0
1831	2.5	0.001	0	0	2.5	0.001	0	0
1832	2.5	0.004	-2e-05	0	2.5	0.004	-2e-05	0
1833	2.5	0.004	0	0	2.5	0.004	0	0
1834	2.5	0.005	0	0	2.5	0.005	0	0
1835	2.5	0.009	-2e-05	0	2.5	0.009	-2e-05	0
1836	2.5	0.011	-2e-05	0	2.5	0.011	-2e-05	0
1837	2.5	0.013	-4e-05	0	2.5	0.013	-4e-05	0
1838	2.5	0.015	-2e-05	0	2.5	0.015	-2e-05	0
1839	2.5	0.017	-4e-05	0	2.5	0.017	-4e-05	0
1840	3	-0.042	6e-05	0	3	-0.042	6e-05	0
1841	3	-0.041	6e-05	0	3	-0.041	6e-05	0
1842	3	-0.033	4e-05	0	3	-0.033	4e-05	0
1843	3	-0.031	2e-05	0	3	-0.031	2e-05	0
1844	3	-0.03	4e-05	0	3	-0.03	4e-05	0
1845	3	-0.029	4e-05	0	3	-0.029	4e-05	0
1846	3	-0.027	4e-05	0	3	-0.027	4e-05	0
1847	3	-0.025	2e-05	0	3	-0.025	2e-05	0
1848	3	-0.025	4e-05	0	3	-0.025	4e-05	0
1849	3	-0.023	2e-05	0	3	-0.023	2e-05	0
1850	3	-0.022	2e-05	0	3	-0.022	2e-05	0
1851	3	-0.022	4e-05	0	3	-0.022	4e-05	0
1852	3	-0.021	2e-05	0	3	-0.021	2e-05	0
1853	3	-0.02	4e-05	0	3	-0.02	4e-05	0
1854	3	-0.019	2e-05	0	3	-0.019	2e-05	0
1855	3	-0.019	4e-05	0	3	-0.019	4e-05	0
1856	3	-0.017	2e-05	0	3	-0.017	2e-05	0
1857	3	-0.013	0	0	3	-0.013	0	0
1858	3	-0.012	2e-05	0	3	-0.012	2e-05	0
1859	3	-0.009	0	0	3	-0.009	0	0
1860	3	-0.007	0	0	3	-0.007	0	0
1861	3	-0.005	0	0	3	-0.005	0	0
1862	3	-0.004	0	0	3	-0.004	0	0
1863	3	-0.003	0	0	3	-0.003	0	0
1864	3	-0.002	0	0	3	-0.002	0	0
1865	3	-0.001	-2e-05	0	3	-0.001	-2e-05	0
1866	3	0	-2e-05	0	3	0	-2e-05	0
1867	3	0.001	-2e-05	0	3	0.001	-2e-05	0
1868	3	0.002	0	0	3	0.002	0	0
1869	3	0.004	-2e-05	0	3	0.004	-2e-05	0
1870	3	0.007	-2e-05	0	3	0.007	-2e-05	0
1871	3	0.008	-2e-05	0	3	0.008	-2e-05	0
1872	3	0.016	-2e-05	0	3	0.016	-2e-05	0
1873	3.5	-0.043	6e-05	0	3.5	-0.043	6e-05	0
1874	3.5	-0.036	6e-05	0	3.5	-0.036	6e-05	0
1875	3.5	-0.033	4e-05	0	3.5	-0.033	4e-05	0
1876	3.5	-0.031	4e-05	0	3.5	-0.031	4e-05	0
1877	3.5	-0.03	2e-05	0	3.5	-0.03	2e-05	0
1878	3.5	-0.028	2e-05	0	3.5	-0.028	2e-05	0
1879	3.5	-0.027	2e-05	0	3.5	-0.027	2e-05	0
1880	3.5	-0.026	2e-05	0	3.5	-0.026	2e-05	0
1881	3.5	-0.025	2e-05	0	3.5	-0.025	2e-05	0
1882	3.5	-0.024	2e-05	0	3.5	-0.024	2e-05	0
1883	3.5	-0.023	2e-05	0	3.5	-0.023	2e-05	0
1884	3.5	-0.022	2e-05	0	3.5	-0.022	2e-05	0
1885	3.5	-0.022	4e-05	0	3.5	-0.022	4e-05	0
1886	3.5	-0.021	2e-05	0	3.5	-0.021	2e-05	0
1887	3.5	-0.02	2e-05	0	3.5	-0.02	2e-05	0
1888	3.5	-0.019	2e-05	0	3.5	-0.019	2e-05	0
1889	3.5	-0.019	4e-05	0	3.5	-0.019	4e-05	0
1890	3.5	-0.018	2e-05	0	3.5	-0.018	2e-05	0
1891	3.5	-0.017	2e-05	0	3.5	-0.017	2e-05	0
1892	3.5	-0.015	2e-05	0	3.5	-0.015	2e-05	0
1893	3.5	-0.013	2e-05	0	3.5	-0.013	2e-05	0
1894	3.5	-0.012	0	0	3.5	-0.012	0	0
1895	3.5	-0.012	2e-05	0	3.5	-0.012	2e-05	0
1896	3.5	-0.01	0	0	3.5	-0.01	0	0
1897	3.5	-0.009	0	0	3.5	-0.009	0	0
1898	3.5	-0.008	0	0	3.5	-0.008	0	0
1899	3.5	-0.008	2e-05	0	3.5	-0.008	2e-05	0
1900	3.5	-0.006	0	0	3.5	-0.006	0	0
1901	3.5	-0.005	0	0	3.5	-0.005	0	0
1902	3.5	-0.004	0	0	3.5	-0.004	0	0
1903	3.5	-0.003	0	0	3.5	-0.003	0	0
1904	3.5	0.005	-2e-05	0	3.5	0.005	-2e-05	0
1905	3.5	0.006	0	0	3.5	0.006	0	0
1906	4	-0.039	6e-05	0	4	-0.039	6e-05	0
1907	4	-0.038	4e-05	0	4	-0.038	4e-05	0
1908	4	-0.038	6e-05	0	4	-0.038	6e-05	0
1909	4	-0.034	4e-05	0	4	-0.034	4e-05	0
1910	4	-0.033	4e-05	0	4	-0.033	4e-05	0
1911	4	-0.029	2e-05	0	4	-0.029	2e-05	0
1912	4	-0.029	4e-05	0	4	-0.029	4e-05	0
1913	4	-0.028	4e-05	0	4	-0.028	4e-05	0
1914	4	-0.027	4e-05	0	4	-0.027	4e-05	0
1915	4	-0.026	4e-05	0	4	-0.026	4e-05	0
1916	4	-0.022	2e-05	0	4	-0.022	2e-05	0
1917	4	-0.021	2e-05	0	4	-0.021	2e-05	0
1918	4	-0.02	2e-05	0	4	-0.02	2e-05	0
1919	4	-0.02	4e-05	0	4	-0.02	4e-05	0
1920	4	-0.018	2e-05	0	4	-0.018	2e-05	0
1921	4	-0.016	2e-05	0	4	-0.016	2e-05	0
1922	4	-0.014	0	0	4	-0.014	0	0
1923	4	-0.014	2e-05	0	4	-0.014	2e-05	0
1924	4	-0.013	0	0	4	-0.013	0	0
1925	4	-0.012	0	0	4	-0.012	0	0
1926	4	-0.01	0	0	4	-0.01	0	0
1927	4	-0.009	2e-05	0	4	-0.009	2e-05	0
1928	4	-0.007	0	0	4	-0.007	0	0
1929	4	-0.006	0	0	4	-0.006	0	0
1930	4	-0.005	0	0	4	-0.005	0	0
1931	4	-0.004	0	0	4	-0.004	0	0
1932	4	-0.002	-2e-05	0	4	-0.002	-2e-05	0
1933	4	0.001	-2e-05	0	4	0.001	-2e-05	0
1934	4	0.003	-2e-05	0	4	0.003	-2e-05	0
1935	4	0.004	-2e-05	0	4	0.004	-2e-05	0
1936	4	0.011	-4e-05	0	4	0.011	-4e-05	0
1937	4.5	-0.044	4e-05	0	4.5	-0.044	4e-05	0
1938	4.5	-0.041	6e-05	0	4.5	-0.041	6e-05	0
1939	4.5	-0.038	6e-05	0	4.5	-0.038	6e-05	0
1940	4.5	-0.035	4e-05	0	4.5	-0.035	4e-05	0
1941	4.5	-0.033	2e-05	0	4.5	-0.033	2e-05	0
1942	4.5	-0.031	4e-05	0	4.5	-0.031	4e-05	0
1943	4.5	-0.029	4e-05	0	4.5	-0.029	4e-05	0
1944	4.5	-0.028	4e-05	0	4.5	-0.028	4e-05	0
1945	4.5	-0.027	2e-05	0	4.5	-0.027	2e-05	0
1946	4.5	-0.026	2e-05	0	4.5	-0.026	2e-05	0
1947	4.5	-0.025	4e-05	0	4.5	-0.025	4e-05	0
1948	4.5	-0.024	2e-05	0	4.5	-0.024	2e-05	0
1949	4.5	-0.022	4e-05	0	4.5	-0.022	4e-05	0
1950	4.5	-0.021	0	0	4.5	-0.021	0	0
1951	4.5	-0.021	2e-05	0	4.5	-0.021	2e-05	0
1952	4.5	-0.02	2e-05	0	4.5	-0.02	2e-05	0
1953	4.5	-0.019	2e-05	0	4.5	-0.019	2e-05	0
1954	4.5	-0.016	0	0	4.5	-0.016	0	0
1955	4.5	-0.016	2e-05	0	4.5	-0.016	2e-05	0
1956	4.5	-0.015	0	0	4.5	-0.015	0	0
1957	4.5	-0.015	2e-05	0	4.5	-0.015	2e-05	0
1958	4.5	-0.014	0	0	4.5	-0.014	0	0
1959	4.5	-0.014	2e-05	0	4.5	-0.014	2e-05	0
1960	4.5	-0.013	2e-05	0	4.5	-0.013	2e-05	0
1961	4.5	-0.011	0	0	4.5	-0.011	0	0
1962	4.5	-0.01	0	0	4.5	-0.01	0	0
1963	4.5	-0.008	0	0	4.5	-0.008	0	0
1964	4.5	-0.007	0	0	4.5	-0.007	0	0
1965	4.5	-0.006	0	0	4.5	-0.006	0	0
1966	4.5	-0.005	-2e-05	0	4.5	-0.005	-2e-05	0
1967	4.5	-0.004	0	0	4.5	-0.004	0	0
1968	4.5	-0.001	0	0	4.5	-0.001	0	0
1969	4.5	0.001	-2e-05	0	4.5	0.001	-2e-05	0
1970	4.5	0.001	0	0	4.5	0.001	0	0
1971	4.5	0.002	-2e-05	0	4.5	0.002	-2e-05	0
1972	4.5	0.003	-2e-05	0	4.5	0.003	-2e-05	0
1973	4.5	0.01	-2e-05	0	4.5	0.01	-2e-05	0
1974	5	-0.048	6e-05	0	5	-0.048	6e-05	0
1975	5	-0.047	6e-05	0	5	-0.047	6e-05	0
1976	5	-0.044	6e-05	0	5	-0.044	6e-05	0
1977	5	-0.042	4e-05	0	5	-0.042	4e-05	0
1978	5	-0.041	4e-05	0	5	-0.041	4e-05	0
1979	5	-0.038	6e-05	0	5	-0.038	6e-05	0
1980	5	-0.036	4e-05	0	5	-0.036	4e-05	0
1981	5	-0.035	4e-05	0	5	-0.035	4e-05	0
1982	5	-0.031	2e-05	0	5	-0.031	2e-05	0
1983	5	-0.028	4e-05	0	5	-0.028	4e-05	0
1984	5	-0.027	4e-05	0	5	-0.027	4e-05	0
1985	5	-0.026	2e-05	0	5	-0.026	2e-05	0
1986	5	-0.025	2e-05	0	5	-0.025	2e-05	0
1987	5	-0.025	4e-05	0	5	-0.025	4e-05	0
1988	5	-0.024	2e-05	0	5	-0.024	2e-05	0
1989	5	-0.023	2e-05	0	5	-0.023	2e-05	0
1990	5	-0.022	2e-05	0	5	-0.022	2e-05	0
1991	5	-0.021	2e-05	0	5	-0.021	2e-05	0
1992	5	-0.02	2e-05	0	5	-0.02	2e-05	0
1993	5	-0.019	2e-05	0	5	-0.019	2e-05	0
1994	5	-0.018	0	0	5	-0.018	0	0
1995	5	-0.017	2e-05	0	5	-0.017	2e-05	0
1996	5	-0.015	0	0	5	-0.015	0	0
1997	5	-0.015	2e-05	0	5	-0.015	2e-05	0
1998	5	-0.014	2e-05	0	5	-0.014	2e-05	0
1999	5	-0.012	0	0	5	-0.012	0	0
2000	5	-0.01	0	0	5	-0.01	0	0
2001	5	-0.009	0	0	5	-0.009	0	0
2002	5	-0.008	0	0	5	-0.008	0	0
2003	5	-0.007	0	0	5	-0.007	0	0
2004	5	-0.005	-2e-05	0	5	-0.005	-2e-05	0
2005	5	-0.003	0	0	5	-0.003	0	0
2006	5	-0.001	0	0	5	-0.001	0	0
2007	5	0.009	-4e-05	0	5	0.009	-4e-05	0
2008	5.5	-0.046	4e-05	0	5.5	-0.046	4e-05	0
2009	5.5	-0.044	4e-05	0	5.5	-0.044	4e-05	0
2010	5.5	-0.043	4e-05	0	5.5	-0.043	4e-05	0
2011	5.5	-0.043	6e-05	0	5.5	-0.043	6e-05	0
2012	5.5	-0.042	4e-05	0	5.5	-0.042	4e-05	0
2013	5.5	-0.042	6e-05	0	5.5	-0.042	6e-05	0
2014	5.5	-0.04	4e-05	0	5.5	-0.04	4e-05	0
2015	5.5	-0.038	4e-05	0	5.5	-0.038	4e-05	0
2016	5.5	-0.035	4e-05	0	5.5	-0.035	4e-05	0
2017	5.5	-0.034	2e-05	0	5.5	-0.034	2e-05	0
2018	5.5	-0.034	4e-05	0	5.5	-0.034	4e-05	0
2019	5.5	-0.031	4e-05	0	5.5	-0.031	4e-05	0
2020	5.5	-0.029	4e-05	0	5.5	-0.029	4e-05	0
2021	5.5	-0.028	2e-05	0	5.5	-0.028	2e-05	0
2022	5.5	-0.027	2e-05	0	5.5	-0.027	2e-05	0
2023	5.5	-0.026	2e-05	0	5.5	-0.026	2e-05	0
2024	5.5	-0.025	2e-05	0	5.5	-0.025	2e-05	0
2025	5.5	-0.023	2e-05	0	5.5	-0.023	2e-05	0
2026	5.5	-0.022	0	0	5.5	-0.022	0	0
2027	5.5	-0.022	2e-05	0	5.5	-0.022	2e-05	0
2028	5.5	-0.019	2e-05	0	5.5	-0.019	2e-05	0
2029	5.5	-0.018	0	0	5.5	-0.018	0	0
2030	5.5	-0.017	2e-05	0	5.5	-0.017	2e-05	0
2031	5.5	-0.012	0	0	5.5	-0.012	0	0
2032	5.5	-0.009	0	0	5.5	-0.009	0	0
2033	5.5	-0.008	0	0	5.5	-0.008	0	0
2034	5.5	-0.007	0	0	5.5	-0.007	0	0
2035	5.5	-0.006	-2e-05	0	5.5	-0.006	-2e-05	0
2036	5.5	-0.005	0	0	5.5	-0.005	0	0
2037	5.5	-0.001	-2e-05	0	5.5	-0.001	-2e-05	0
2038	5.5	0.002	-2e-05	0	5.5	0.002	-2e-05	0
2039	5.5	0.004	-2e-05	0	5.5	0.004	-2e-05	0
2040	6	-0.044	4e-05	0	6	-0.044	4e-05	0
2041	6	-0.041	4e-05	0	6	-0.041	4e-05	0
2042	6	-0.041	6e-05	0	6	-0.041	6e-05	0
2043	6	-0.039	4e-05	0	6	-0.039	4e-05	0
2044	6	-0.037	4e-05	0	6	-0.037	4e-05	0
2045	6	-0.035	4e-05	0	6	-0.035	4e-05	0
2046	6	-0.033	2e-05	0	6	-0.033	2e-05	0
2047	6	-0.032	4e-05	0	6	-0.032	4e-05	0
2048	6	-0.031	4e-05	0	6	-0.031	4e-05	0
2049	6	-0.03	2e-05	0	6	-0.03	2e-05	0
2050	6	-0.03	4e-05	0	6	-0.03	4e-05	0
2051	6	-0.029	4e-05	0	6	-0.029	4e-05	0
2052	6	-0.026	2e-05	0	6	-0.026	2e-05	0
2053	6	-0.023	2e-05	0	6	-0.023	2e-05	0
2054	6	-0.021	2e-05	0	6	-0.021	2e-05	0
2055	6	-0.02	2e-05	0	6	-0.02	2e-05	0
2056	6	-0.019	2e-05	0	6	-0.019	2e-05	0
2057	6	-0.018	0	0	6	-0.018	0	0
2058	6	-0.011	0	0	6	-0.011	0	0
2059	6	-0.011	2e-05	0	6	-0.011	2e-05	0
2060	6	-0.009	0	0	6	-0.009	0	0
2061	6	-0.008	0	0	6	-0.008	0	0
2062	6	-0.006	-2e-05	0	6	-0.006	-2e-05	0
2063	6	-0.006	0	0	6	-0.006	0	0
2064	6	-0.001	-2e-05	0	6	-0.001	-2e-05	0
2065	6	0.003	-2e-05	0	6	0.003	-2e-05	0
2066	6.5	-0.062	8e-05	0	6.5	-0.062	8e-05	0
2067	6.5	-0.059	8e-05	0	6.5	-0.059	8e-05	0
2068	6.5	-0.051	6e-05	0	6.5	-0.051	6e-05	0
2069	6.5	-0.048	6e-05	0	6.5	-0.048	6e-05	0
2070	6.5	-0.047	6e-05	0	6.5	-0.047	6e-05	0
2071	6.5	-0.044	6e-05	0	6.5	-0.044	6e-05	0
2072	6.5	-0.042	6e-05	0	6.5	-0.042	6e-05	0
2073	6.5	-0.036	4e-05	0	6.5	-0.036	4e-05	0
2074	6.5	-0.035	4e-05	0	6.5	-0.035	4e-05	0
2075	6.5	-0.032	4e-05	0	6.5	-0.032	4e-05	0
2076	6.5	-0.03	4e-05	0	6.5	-0.03	4e-05	0
2077	6.5	-0.029	2e-05	0	6.5	-0.029	2e-05	0
2078	6.5	-0.028	2e-05	0	6.5	-0.028	2e-05	0
2079	6.5	-0.028	4e-05	0	6.5	-0.028	4e-05	0
2080	6.5	-0.027	2e-05	0	6.5	-0.027	2e-05	0
2081	6.5	-0.025	2e-05	0	6.5	-0.025	2e-05	0
2082	6.5	-0.024	2e-05	0	6.5	-0.024	2e-05	0
2083	6.5	-0.022	2e-05	0	6.5	-0.022	2e-05	0
2084	6.5	-0.021	2e-05	0	6.5	-0.021	2e-05	0
2085	6.5	-0.02	2e-05	0	6.5	-0.02	2e-05	0
2086	6.5	-0.019	2e-05	0	6.5	-0.019	2e-05	0
2087	6.5	-0.018	2e-05	0	6.5	-0.018	2e-05	0
2088	6.5	-0.016	2e-05	0	6.5	-0.016	2e-05	0
2089	6.5	-0.014	0	0	6.5	-0.014	0	0
2090	6.5	-0.013	0	0	6.5	-0.013	0	0
2091	6.5	-0.012	0	0	6.5	-0.012	0	0
2092	6.5	-0.008	0	0	6.5	-0.008	0	0
2093	6.5	-0.004	-2e-05	0	6.5	-0.004	-2e-05	0
2094	7	-0.05	6e-05	0	7	-0.05	6e-05	0
2095	7	-0.045	4e-05	0	7	-0.045	4e-05	0
2096	7	-0.044	4e-05	0	7	-0.044	4e-05	0
2097	7	-0.036	2e-05	0	7	-0.036	2e-05	0
2098	7	-0.036	4e-05	0	7	-0.036	4e-05	0
2099	7	-0.032	4e-05	0	7	-0.032	4e-05	0
2100	7	-0.031	2e-05	0	7	-0.031	2e-05	0
2101	7	-0.031	4e-05	0	7	-0.031	4e-05	0
2102	7	-0.03	2e-05	0	7	-0.03	2e-05	0
2103	7	-0.028	2e-05	0	7	-0.028	2e-05	0
2104	7	-0.025	2e-05	0	7	-0.025	2e-05	0
2105	7	-0.024	2e-05	0	7	-0.024	2e-05	0
2106	7	-0.023	2e-05	0	7	-0.023	2e-05	0
2107	7	-0.022	2e-05	0	7	-0.022	2e-05	0
2108	7	-0.019	0	0	7	-0.019	0	0
2109	7	-0.012	2e-05	0	7	-0.012	2e-05	0
2110	7.5	-0.066	8e-05	0	7.5	-0.066	8e-05	0
2111	7.5	-0.055	6e-05	0	7.5	-0.055	6e-05	0
2112	7.5	-0.054	6e-05	0	7.5	-0.054	6e-05	0
2113	7.5	-0.05	4e-05	0	7.5	-0.05	4e-05	0
2114	7.5	-0.047	6e-05	0	7.5	-0.047	6e-05	0
2115	7.5	-0.045	6e-05	0	7.5	-0.045	6e-05	0
2116	7.5	-0.044	4e-05	0	7.5	-0.044	4e-05	0
2117	7.5	-0.041	4e-05	0	7.5	-0.041	4e-05	0
2118	7.5	-0.039	4e-05	0	7.5	-0.039	4e-05	0
2119	7.5	-0.037	4e-05	0	7.5	-0.037	4e-05	0
2120	7.5	-0.036	4e-05	0	7.5	-0.036	4e-05	0
2121	7.5	-0.035	2e-05	0	7.5	-0.035	2e-05	0
2122	7.5	-0.035	4e-05	0	7.5	-0.035	4e-05	0
2123	7.5	-0.027	2e-05	0	7.5	-0.027	2e-05	0
2124	7.5	-0.026	2e-05	0	7.5	-0.026	2e-05	0
2125	7.5	-0.025	2e-05	0	7.5	-0.025	2e-05	0
2126	7.5	-0.023	2e-05	0	7.5	-0.023	2e-05	0
2127	7.5	-0.022	2e-05	0	7.5	-0.022	2e-05	0
2128	7.5	-0.021	0	0	7.5	-0.021	0	0
2129	7.5	-0.02	0	0	7.5	-0.02	0	0
2130	7.5	-0.019	0	0	7.5	-0.019	0	0
2131	7.5	-0.018	0	0	7.5	-0.018	0	0
2132	7.5	-0.017	0	0	7.5	-0.017	0	0
2133	7.5	-0.016	0	0	7.5	-0.016	0	0
2134	7.5	-0.013	0	0	7.5	-0.013	0	0
2135	7.5	-0.012	0	0	7.5	-0.012	0	0
2136	7.5	-0.009	-2e-05	0	7.5	-0.009	-2e-05	0
2137	7.5	-0.006	-2e-05	0	7.5	-0.006	-2e-05	0
2138	8	-0.05	6e-05	0	8	-0.05	6e-05	0
2139	8	-0.049	4e-05	0	8	-0.049	4e-05	0
2140	8	-0.048	4e-05	0	8	-0.048	4e-05	0
2141	8	-0.047	6e-05	0	8	-0.047	6e-05	0
2142	8	-0.046	6e-05	0	8	-0.046	6e-05	0
2143	8	-0.039	4e-05	0	8	-0.039	4e-05	0
2144	8	-0.036	2e-05	0	8	-0.036	2e-05	0
2145	8	-0.036	4e-05	0	8	-0.036	4e-05	0
2146	8	-0.033	2e-05	0	8	-0.033	2e-05	0
2147	8	-0.032	2e-05	0	8	-0.032	2e-05	0
2148	8	-0.032	4e-05	0	8	-0.032	4e-05	0
2149	8	-0.031	2e-05	0	8	-0.031	2e-05	0
2150	8	-0.029	2e-05	0	8	-0.029	2e-05	0
2151	8	-0.027	2e-05	0	8	-0.027	2e-05	0
2152	8	-0.026	0	0	8	-0.026	0	0
2153	8	-0.026	2e-05	0	8	-0.026	2e-05	0
2154	8	-0.025	2e-05	0	8	-0.025	2e-05	0
2155	8	-0.024	0	0	8	-0.024	0	0
2156	8	-0.023	2e-05	0	8	-0.023	2e-05	0
2157	8	-0.022	0	0	8	-0.022	0	0
2158	8	-0.021	0	0	8	-0.021	0	0
2159	8	-0.007	-2e-05	0	8	-0.007	-2e-05	0
2160	8.5	-0.063	8e-05	0	8.5	-0.063	8e-05	0
2161	8.5	-0.052	6e-05	0	8.5	-0.052	6e-05	0
2162	8.5	-0.05	4e-05	0	8.5	-0.05	4e-05	0
2163	8.5	-0.05	6e-05	0	8.5	-0.05	6e-05	0
2164	8.5	-0.049	4e-05	0	8.5	-0.049	4e-05	0
2165	8.5	-0.049	6e-05	0	8.5	-0.049	6e-05	0
2166	8.5	-0.045	4e-05	0	8.5	-0.045	4e-05	0
2167	8.5	-0.044	4e-05	0	8.5	-0.044	4e-05	0
2168	8.5	-0.043	4e-05	0	8.5	-0.043	4e-05	0
2169	8.5	-0.041	4e-05	0	8.5	-0.041	4e-05	0
2170	8.5	-0.034	4e-05	0	8.5	-0.034	4e-05	0
2171	8.5	-0.033	2e-05	0	8.5	-0.033	2e-05	0
2172	8.5	-0.032	2e-05	0	8.5	-0.032	2e-05	0
2173	8.5	-0.031	2e-05	0	8.5	-0.031	2e-05	0
2174	8.5	-0.028	2e-05	0	8.5	-0.028	2e-05	0
2175	8.5	-0.025	0	0	8.5	-0.025	0	0
2176	8.5	-0.025	2e-05	0	8.5	-0.025	2e-05	0
2177	8.5	-0.023	2e-05	0	8.5	-0.023	2e-05	0
2178	8.5	-0.017	0	0	8.5	-0.017	0	0
2179	8.5	-0.014	0	0	8.5	-0.014	0	0
2180	8.5	-0.01	-2e-05	0	8.5	-0.01	-2e-05	0
2181	9	-0.043	4e-05	0	9	-0.043	4e-05	0
2182	9	-0.042	4e-05	0	9	-0.042	4e-05	0
2183	9	-0.041	4e-05	0	9	-0.041	4e-05	0
2184	9	-0.037	4e-05	0	9	-0.037	4e-05	0
2185	9	-0.034	2e-05	0	9	-0.034	2e-05	0
2186	9	-0.033	2e-05	0	9	-0.033	2e-05	0
2187	9	-0.03	2e-05	0	9	-0.03	2e-05	0
2188	9	-0.029	2e-05	0	9	-0.029	2e-05	0
2189	9	-0.026	0	0	9	-0.026	0	0
2190	9.5	-0.058	6e-05	0	9.5	-0.058	6e-05	0
2191	9.5	-0.057	6e-05	0	9.5	-0.057	6e-05	0
2192	9.5	-0.054	4e-05	0	9.5	-0.054	4e-05	0
2193	9.5	-0.054	6e-05	0	9.5	-0.054	6e-05	0
2194	9.5	-0.05	6e-05	0	9.5	-0.05	6e-05	0
2195	9.5	-0.048	4e-05	0	9.5	-0.048	4e-05	0
2196	9.5	-0.047	4e-05	0	9.5	-0.047	4e-05	0
2197	9.5	-0.046	4e-05	0	9.5	-0.046	4e-05	0
2198	9.5	-0.045	4e-05	0	9.5	-0.045	4e-05	0
2199	9.5	-0.045	6e-05	0	9.5	-0.045	6e-05	0
2200	9.5	-0.044	4e-05	0	9.5	-0.044	4e-05	0
2201	9.5	-0.042	4e-05	0	9.5	-0.042	4e-05	0
2202	9.5	-0.041	2e-05	0	9.5	-0.041	2e-05	0
2203	9.5	-0.039	2e-05	0	9.5	-0.039	2e-05	0
2204	9.5	-0.036	4e-05	0	9.5	-0.036	4e-05	0
2205	9.5	-0.033	2e-05	0	9.5	-0.033	2e-05	0
2206	9.5	-0.031	2e-05	0	9.5	-0.031	2e-05	0
2207	9.5	-0.03	2e-05	0	9.5	-0.03	2e-05	0
2208	9.5	-0.027	2e-05	0	9.5	-0.027	2e-05	0
2209	9.5	-0.026	2e-05	0	9.5	-0.026	2e-05	0
2210	9.5	-0.025	0	0	9.5	-0.025	0	0
2211	9.5	-0.023	0	0	9.5	-0.023	0	0
2212	9.5	-0.022	0	0	9.5	-0.022	0	0
2213	9.5	-0.02	0	0	9.5	-0.02	0	0
2214	10	-0.055	4e-05	0	10	-0.055	4e-05	0
2215	10	-0.054	4e-05	0	10	-0.054	4e-05	0
2216	10	-0.052	6e-05	0	10	-0.052	6e-05	0
2217	10	-0.05	6e-05	0	10	-0.05	6e-05	0
2218	10	-0.048	4e-05	0	10	-0.048	4e-05	0
2219	10	-0.042	2e-05	0	10	-0.042	2e-05	0
2220	10	-0.042	4e-05	0	10	-0.042	4e-05	0
2221	10	-0.04	4e-05	0	10	-0.04	4e-05	0
2222	10	-0.038	4e-05	0	10	-0.038	4e-05	0
2223	10	-0.036	2e-05	0	10	-0.036	2e-05	0
2224	10	-0.035	2e-05	0	10	-0.035	2e-05	0
2225	10	-0.034	4e-05	0	10	-0.034	4e-05	0
2226	10	-0.031	4e-05	0	10	-0.031	4e-05	0
2227	10	-0.028	2e-05	0	10	-0.028	2e-05	0
2228	10	-0.025	0	0	10	-0.025	0	0
2229	10	-0.023	0	0	10	-0.023	0	0
