0	-7.5	0.024	-2e-05	0	-7.5	0.024	-2e-05	0
1	-7.5	0.025	-2e-05	0	-7.5	0.025	-2e-05	0
2	-7.5	0.026	-2e-05	0	-7.5	0.026	-2e-05	0
3	-7.5	0.027	-2e-05	0	-7.5	0.027	-2e-05	0
4	-7.5	0.028	-2e-05	0	-7.5	0.028	-2e-05	0
5	-7.5	0.029	-2e-05	0	-7.5	0.029	-2e-05	0
6	-7.5	0.03	-4e-05	0	-7.5	0.03	-4e-05	0
7	-7.5	0.03	-2e-05	0	-7.5	0.03	-2e-05	0
8	-7.5	0.031	-4e-05	0	-7.5	0.031	-4e-05	0
9	-7.5	0.031	-2e-05	0	-7.5	0.031	-2e-05	0
10	-7.5	0.032	-4e-05	0	-7.5	0.032	-4e-05	0
11	-7.5	0.032	-2e-05	0	-7.5	0.032	-2e-05	0
12	-7.5	0.033	-4e-05	0	-7.5	0.033	-4e-05	0
13	-7.5	0.033	-2e-05	0	-7.5	0.033	-2e-05	0
14	-7.5	0.034	-4e-05	0	-7.5	0.034	-4e-05	0
15	-7.5	0.035	-4e-05	0	-7.5	0.035	-4e-05	0
16	-7.5	0.036	-4e-05	0	-7.5	0.036	-4e-05	0
17	-7.5	0.037	-4e-05	0	-7.5	0.037	-4e-05	0
18	-7.5	0.038	-4e-05	0	-7.5	0.038	-4e-05	0
19	-7.5	0.039	-4e-05	0	-7.5	0.039	-4e-05	0
20	-7.5	0.04	-4e-05	0	-7.5	0.04	-4e-05	0
21	-7.5	0.041	-4e-05	0	-7.5	0.041	-4e-05	0
22	-7.5	0.042	-4e-05	0	-7.5	0.042	-4e-05	0
23	-7.5	0.043	-4e-05	0	-7.5	0.043	-4e-05	0
24	-7.5	0.044	-4e-05	0	-7.5	0.044	-4e-05	0
25	-7.5	0.045	-4e-05	0	-7.5	0.045	-4e-05	0
26	-7.5	0.046	-4e-05	0	-7.5	0.046	-4e-05	0
27	-7.5	0.049	-6e-05	0	-7.5	0.049	-6e-05	0
28	-7.5	0.05	-6e-05	0	-7.5	0.05	-6e-05	0
29	-7.5	0.051	-6e-05	0	-7.5	0.051	-6e-05	0
30	-7.5	0.052	-6e-05	0	-7.5	0.052	-6e-05	0
31	-7.5	0.053	-6e-05	0	-7.5	0.053	-6e-05	0
32	-7.5	0.054	-6e-05	0	-7.5	0.054	-6e-05	0
33	-7	0.018	0	0	-7	0.018	0	0
34	-7	0.019	0	0	-7	0.019	0	0
35	-7	0.02	-2e-05	0	-7	0.02	-2e-05	0
36	-7	0.021	-2e-05	0	-7	0.021	-2e-05	0
37	-7	0.022	-2e-05	0	-7	0.022	-2e-05	0
38	-7	0.023	-2e-05	0	-7	0.023	-2e-05	0
39	-7	0.024	-2e-05	0	-7	0.024	-2e-05	0
40	-7	0.025	-2e-05	0	-7	0.025	-2e-05	0
41	-7	0.026	-2e-05	0	-7	0.026	-2e-05	0
42	-7	0.027	-2e-05	0	-7	0.027	-2e-05	0
43	-7	0.028	-2e-05	0	-7	0.028	-2e-05	0
44	-7	0.029	-2e-05	0	-7	0.029	-2e-05	0
45	-7	0.03	-4e-05	0	-7	0.03	-4e-05	0
46	-7	0.03	-2e-05	0	-7	0.03	-2e-05	0
47	-7	0.031	-4e-05	0	-7	0.031	-4e-05	0
48	-7	0.031	-2e-05	0	-7	0.031	-2e-05	0
49	-7	0.032	-4e-05	0	-7	0.032	-4e-05	0
50	-7	0.032	-2e-05	0	-7	0.032	-2e-05	0
51	-7	0.033	-4e-05	0	-7	0.033	-4e-05	0
52	-7	0.033	-2e-05	0	-7	0.033	-2e-05	0
53	-7	0.034	-4e-05	0	-7	0.034	-4e-05	0
54	-7	0.035	-4e-05	0	-7	0.035	-4e-05	0
55	-7	0.036	-4e-05	0	-7	0.036	-4e-05	0
56	-7	0.037	-4e-05	0	-7	0.037	-4e-05	0
57	-7	0.038	-4e-05	0	-7	0.038	-4e-05	0
58	-7	0.039	-4e-05	0	-7	0.039	-4e-05	0
59	-7	0.04	-4e-05	0	-7	0.04	-4e-05	0
60	-7	0.041	-4e-05	0	-7	0.041	-4e-05	0
61	-7	0.042	-4e-05	0	-7	0.042	-4e-05	0
62	-7	0.043	-4e-05	0	-7	0.043	-4e-05	0
63	-7	0.044	-4e-05	0	-7	0.044	-4e-05	0
64	-7	0.045	-4e-05	0	-7	0.045	-4e-05	0
65	-7	0.049	-6e-05	0	-7	0.049	-6e-05	0
66	-7	0.05	-6e-05	0	-7	0.05	-6e-05	0
67	-7	0.051	-6e-05	0	-7	0.051	-6e-05	0
68	-7	0.052	-6e-05	0	-7	0.052	-6e-05	0
69	-7	0.053	-6e-05	0	-7	0.053	-6e-05	0
70	-6.5	0.014	0	0	-6.5	0.014	0	0
71	-6.5	0.015	0	0	-6.5	0.015	0	0
72	-6.5	0.016	0	0	-6.5	0.016	0	0
73	-6.5	0.017	-2e-05	0	-6.5	0.017	-2e-05	0
74	-6.5	0.017	0	0	-6.5	0.017	0	0
75	-6.5	0.018	-2e-05	0	-6.5	0.018	-2e-05	0
76	-6.5	0.018	0	0	-6.5	0.018	0	0
77	-6.5	0.019	-2e-05	0	-6.5	0.019	-2e-05	0
78	-6.5	0.019	0	0	-6.5	0.019	0	0
79	-6.5	0.02	-2e-05	0	-6.5	0.02	-2e-05	0
80	-6.5	0.021	-2e-05	0	-6.5	0.021	-2e-05	0
81	-6.5	0.022	-2e-05	0	-6.5	0.022	-2e-05	0
82	-6.5	0.023	-2e-05	0	-6.5	0.023	-2e-05	0
83	-6.5	0.024	-2e-05	0	-6.5	0.024	-2e-05	0
84	-6.5	0.025	-2e-05	0	-6.5	0.025	-2e-05	0
85	-6.5	0.026	-2e-05	0	-6.5	0.026	-2e-05	0
86	-6.5	0.027	-2e-05	0	-6.5	0.027	-2e-05	0
87	-6.5	0.028	-2e-05	0	-6.5	0.028	-2e-05	0
88	-6.5	0.029	-4e-05	0	-6.5	0.029	-4e-05	0
89	-6.5	0.029	-2e-05	0	-6.5	0.029	-2e-05	0
90	-6.5	0.03	-4e-05	0	-6.5	0.03	-4e-05	0
91	-6.5	0.03	-2e-05	0	-6.5	0.03	-2e-05	0
92	-6.5	0.031	-4e-05	0	-6.5	0.031	-4e-05	0
93	-6.5	0.031	-2e-05	0	-6.5	0.031	-2e-05	0
94	-6.5	0.032	-4e-05	0	-6.5	0.032	-4e-05	0
95	-6.5	0.032	-2e-05	0	-6.5	0.032	-2e-05	0
96	-6.5	0.033	-4e-05	0	-6.5	0.033	-4e-05	0
97	-6.5	0.034	-4e-05	0	-6.5	0.034	-4e-05	0
98	-6.5	0.035	-4e-05	0	-6.5	0.035	-4e-05	0
99	-6.5	0.036	-4e-05	0	-6.5	0.036	-4e-05	0
100	-6.5	0.037	-4e-05	0	-6.5	0.037	-4e-05	0
101	-6.5	0.038	-4e-05	0	-6.5	0.038	-4e-05	0
102	-6.5	0.039	-4e-05	0	-6.5	0.039	-4e-05	0
103	-6.5	0.04	-4e-05	0	-6.5	0.04	-4e-05	0
104	-6.5	0.041	-4e-05	0	-6.5	0.041	-4e-05	0
105	-6.5	0.042	-4e-05	0	-6.5	0.042	-4e-05	0
106	-6.5	0.043	-4e-05	0	-6.5	0.043	-4e-05	0
107	-6.5	0.044	-4e-05	0	-6.5	0.044	-4e-05	0
108	-6.5	0.048	-6e-05	0	-6.5	0.048	-6e-05	0
109	-6.5	0.049	-6e-05	0	-6.5	0.049	-6e-05	0
110	-6.5	0.05	-6e-05	0	-6.5	0.05	-6e-05	0
111	-6.5	0.051	-6e-05	0	-6.5	0.051	-6e-05	0
112	-6	0.011	0	0	-6	0.011	0	0
113	-6	0.012	0	0	-6	0.012	0	0
114	-6	0.013	0	0	-6	0.013	0	0
115	-6	0.014	-2e-05	0	-6	0.014	-2e-05	0
116	-6	0.014	0	0	-6	0.014	0	0
117	-6	0.015	-2e-05	0	-6	0.015	-2e-05	0
118	-6	0.015	0	0	-6	0.015	0	0
119	-6	0.016	-2e-05	0	-6	0.016	-2e-05	0
120	-6	0.016	0	0	-6	0.016	0	0
121	-6	0.017	-2e-05	0	-6	0.017	-2e-05	0
122	-6	0.017	0	0	-6	0.017	0	0
123	-6	0.018	-2e-05	0	-6	0.018	-2e-05	0
124	-6	0.018	0	0	-6	0.018	0	0
125	-6	0.019	-2e-05	0	-6	0.019	-2e-05	0
126	-6	0.02	-2e-05	0	-6	0.02	-2e-05	0
127	-6	0.021	-2e-05	0	-6	0.021	-2e-05	0
128	-6	0.022	-2e-05	0	-6	0.022	-2e-05	0
129	-6	0.023	-2e-05	0	-6	0.023	-2e-05	0
130	-6	0.024	-2e-05	0	-6	0.024	-2e-05	0
131	-6	0.025	-2e-05	0	-6	0.025	-2e-05	0
132	-6	0.026	-2e-05	0	-6	0.026	-2e-05	0
133	-6	0.027	-2e-05	0	-6	0.027	-2e-05	0
134	-6	0.028	-4e-05	0	-6	0.028	-4e-05	0
135	-6	0.028	-2e-05	0	-6	0.028	-2e-05	0
136	-6	0.029	-4e-05	0	-6	0.029	-4e-05	0
137	-6	0.029	-2e-05	0	-6	0.029	-2e-05	0
138	-6	0.03	-4e-05	0	-6	0.03	-4e-05	0
139	-6	0.03	-2e-05	0	-6	0.03	-2e-05	0
140	-6	0.031	-4e-05	0	-6	0.031	-4e-05	0
141	-6	0.031	-2e-05	0	-6	0.031	-2e-05	0
142	-6	0.032	-4e-05	0	-6	0.032	-4e-05	0
143	-6	0.033	-4e-05	0	-6	0.033	-4e-05	0
144	-6	0.034	-4e-05	0	-6	0.034	-4e-05	0
145	-6	0.035	-4e-05	0	-6	0.035	-4e-05	0
146	-6	0.036	-4e-05	0	-6	0.036	-4e-05	0
147	-6	0.037	-4e-05	0	-6	0.037	-4e-05	0
148	-6	0.038	-4e-05	0	-6	0.038	-4e-05	0
149	-6	0.039	-4e-05	0	-6	0.039	-4e-05	0
150	-6	0.04	-4e-05	0	-6	0.04	-4e-05	0
151	-6	0.041	-4e-05	0	-6	0.041	-4e-05	0
152	-6	0.042	-4e-05	0	-6	0.042	-4e-05	0
153	-6	0.043	-4e-05	0	-6	0.043	-4e-05	0
154	-6	0.048	-6e-05	0	-6	0.048	-6e-05	0
155	-6	0.049	-6e-05	0	-6	0.049	-6e-05	0
156	-6	0.05	-6e-05	0	-6	0.05	-6e-05	0
157	-5.5	0.008	0	0	-5.5	0.008	0	0
158	-5.5	0.009	0	0	-5.5	0.009	0	0
159	-5.5	0.01	0	0	-5.5	0.01	0	0
160	-5.5	0.011	0	0	-5.5	0.011	0	0
161	-5.5	0.012	0	0	-5.5	0.012	0	0
162	-5.5	0.013	-2e-05	0	-5.5	0.013	-2e-05	0
163	-5.5	0.013	0	0	-5.5	0.013	0	0
164	-5.5	0.014	-2e-05	0	-5.5	0.014	-2e-05	0
165	-5.5	0.014	0	0	-5.5	0.014	0	0
166	-5.5	0.015	-2e-05	0	-5.5	0.015	-2e-05	0
167	-5.5	0.015	0	0	-5.5	0.015	0	0
168	-5.5	0.016	-2e-05	0	-5.5	0.016	-2e-05	0
169	-5.5	0.016	0	0	-5.5	0.016	0	0
170	-5.5	0.017	-2e-05	0	-5.5	0.017	-2e-05	0
171	-5.5	0.017	0	0	-5.5	0.017	0	0
172	-5.5	0.018	-2e-05	0	-5.5	0.018	-2e-05	0
173	-5.5	0.019	-2e-05	0	-5.5	0.019	-2e-05	0
174	-5.5	0.02	-2e-05	0	-5.5	0.02	-2e-05	0
175	-5.5	0.021	-2e-05	0	-5.5	0.021	-2e-05	0
176	-5.5	0.022	-2e-05	0	-5.5	0.022	-2e-05	0
177	-5.5	0.023	-2e-05	0	-5.5	0.023	-2e-05	0
178	-5.5	0.024	-2e-05	0	-5.5	0.024	-2e-05	0
179	-5.5	0.025	-2e-05	0	-5.5	0.025	-2e-05	0
180	-5.5	0.026	-2e-05	0	-5.5	0.026	-2e-05	0
181	-5.5	0.027	-2e-05	0	-5.5	0.027	-2e-05	0
182	-5.5	0.028	-4e-05	0	-5.5	0.028	-4e-05	0
183	-5.5	0.028	-2e-05	0	-5.5	0.028	-2e-05	0
184	-5.5	0.029	-4e-05	0	-5.5	0.029	-4e-05	0
185	-5.5	0.029	-2e-05	0	-5.5	0.029	-2e-05	0
186	-5.5	0.03	-4e-05	0	-5.5	0.03	-4e-05	0
187	-5.5	0.03	-2e-05	0	-5.5	0.03	-2e-05	0
188	-5.5	0.031	-4e-05	0	-5.5	0.031	-4e-05	0
189	-5.5	0.032	-4e-05	0	-5.5	0.032	-4e-05	0
190	-5.5	0.033	-4e-05	0	-5.5	0.033	-4e-05	0
191	-5.5	0.034	-4e-05	0	-5.5	0.034	-4e-05	0
192	-5.5	0.035	-4e-05	0	-5.5	0.035	-4e-05	0
193	-5.5	0.036	-4e-05	0	-5.5	0.036	-4e-05	0
194	-5.5	0.037	-4e-05	0	-5.5	0.037	-4e-05	0
195	-5.5	0.038	-4e-05	0	-5.5	0.038	-4e-05	0
196	-5.5	0.039	-4e-05	0	-5.5	0.039	-4e-05	0
197	-5.5	0.04	-4e-05	0	-5.5	0.04	-4e-05	0
198	-5.5	0.041	-4e-05	0	-5.5	0.041	-4e-05	0
199	-5.5	0.042	-4e-05	0	-5.5	0.042	-4e-05	0
200	-5.5	0.047	-6e-05	0	-5.5	0.047	-6e-05	0
201	-5.5	0.048	-6e-05	0	-5.5	0.048	-6e-05	0
202	-5	0.005	0	0	-5	0.005	0	0
203	-5	0.006	0	0	-5	0.006	0	0
204	-5	0.007	0	0	-5	0.007	0	0
205	-5	0.008	0	0	-5	0.008	0	0
206	-5	0.009	0	0	-5	0.009	0	0
207	-5	0.01	0	0	-5	0.01	0	0
208	-5	0.011	0	0	-5	0.011	0	0
209	-5	0.012	-2e-05	0	-5	0.012	-2e-05	0
210	-5	0.012	0	0	-5	0.012	0	0
211	-5	0.013	-2e-05	0	-5	0.013	-2e-05	0
212	-5	0.013	0	0	-5	0.013	0	0
213	-5	0.014	-2e-05	0	-5	0.014	-2e-05	0
214	-5	0.014	0	0	-5	0.014	0	0
215	-5	0.015	-2e-05	0	-5	0.015	-2e-05	0
216	-5	0.015	0	0	-5	0.015	0	0
217	-5	0.016	-2e-05	0	-5	0.016	-2e-05	0
218	-5	0.016	0	0	-5	0.016	0	0
219	-5	0.017	-2e-05	0	-5	0.017	-2e-05	0
220	-5	0.017	0	0	-5	0.017	0	0
221	-5	0.018	-2e-05	0	-5	0.018	-2e-05	0
222	-5	0.019	-2e-05	0	-5	0.019	-2e-05	0
223	-5	0.02	-2e-05	0	-5	0.02	-2e-05	0
224	-5	0.021	-2e-05	0	-5	0.021	-2e-05	0
225	-5	0.022	-2e-05	0	-5	0.022	-2e-05	0
226	-5	0.023	-2e-05	0	-5	0.023	-2e-05	0
227	-5	0.024	-2e-05	0	-5	0.024	-2e-05	0
228	-5	0.025	-2e-05	0	-5	0.025	-2e-05	0
229	-5	0.026	-2e-05	0	-5	0.026	-2e-05	0
230	-5	0.027	-4e-05	0	-5	0.027	-4e-05	0
231	-5	0.027	-2e-05	0	-5	0.027	-2e-05	0
232	-5	0.028	-4e-05	0	-5	0.028	-4e-05	0
233	-5	0.028	-2e-05	0	-5	0.028	-2e-05	0
234	-5	0.029	-4e-05	0	-5	0.029	-4e-05	0
235	-5	0.029	-2e-05	0	-5	0.029	-2e-05	0
236	-5	0.03	-4e-05	0	-5	0.03	-4e-05	0
237	-5	0.031	-4e-05	0	-5	0.031	-4e-05	0
238	-5	0.032	-4e-05	0	-5	0.032	-4e-05	0
239	-5	0.033	-4e-05	0	-5	0.033	-4e-05	0
240	-5	0.034	-4e-05	0	-5	0.034	-4e-05	0
241	-5	0.035	-4e-05	0	-5	0.035	-4e-05	0
242	-5	0.036	-4e-05	0	-5	0.036	-4e-05	0
243	-5	0.037	-4e-05	0	-5	0.037	-4e-05	0
244	-5	0.038	-4e-05	0	-5	0.038	-4e-05	0
245	-5	0.039	-4e-05	0	-5	0.039	-4e-05	0
246	-5	0.04	-4e-05	0	-5	0.04	-4e-05	0
247	-5	0.047	-6e-05	0	-5	0.047	-6e-05	0
248	-4.5	-0.001	2e-05	0	-4.5	-0.001	2e-05	0
249	-4.5	0	2e-05	0	-4.5	0	2e-05	0
250	-4.5	0.001	2e-05	0	-4.5	0.001	2e-05	0
251	-4.5	0.003	0	0	-4.5	0.003	0	0
252	-4.5	0.004	0	0	-4.5	0.004	0	0
253	-4.5	0.005	0	0	-4.5	0.005	0	0
254	-4.5	0.006	0	0	-4.5	0.006	0	0
255	-4.5	0.007	0	0	-4.5	0.007	0	0
256	-4.5	0.008	0	0	-4.5	0.008	0	0
257	-4.5	0.009	0	0	-4.5	0.009	0	0
258	-4.5	0.01	0	0	-4.5	0.01	0	0
259	-4.5	0.011	-2e-05	0	-4.5	0.011	-2e-05	0
260	-4.5	0.011	0	0	-4.5	0.011	0	0
261	-4.5	0.012	-2e-05	0	-4.5	0.012	-2e-05	0
262	-4.5	0.012	0	0	-4.5	0.012	0	0
263	-4.5	0.013	-2e-05	0	-4.5	0.013	-2e-05	0
264	-4.5	0.013	0	0	-4.5	0.013	0	0
265	-4.5	0.014	-2e-05	0	-4.5	0.014	-2e-05	0
266	-4.5	0.014	0	0	-4.5	0.014	0	0
267	-4.5	0.015	-2e-05	0	-4.5	0.015	-2e-05	0
268	-4.5	0.015	0	0	-4.5	0.015	0	0
269	-4.5	0.016	-2e-05	0	-4.5	0.016	-2e-05	0
270	-4.5	0.016	0	0	-4.5	0.016	0	0
271	-4.5	0.017	-2e-05	0	-4.5	0.017	-2e-05	0
272	-4.5	0.018	-2e-05	0	-4.5	0.018	-2e-05	0
273	-4.5	0.019	-2e-05	0	-4.5	0.019	-2e-05	0
274	-4.5	0.02	-2e-05	0	-4.5	0.02	-2e-05	0
275	-4.5	0.021	-2e-05	0	-4.5	0.021	-2e-05	0
276	-4.5	0.022	-2e-05	0	-4.5	0.022	-2e-05	0
277	-4.5	0.023	-2e-05	0	-4.5	0.023	-2e-05	0
278	-4.5	0.024	-2e-05	0	-4.5	0.024	-2e-05	0
279	-4.5	0.025	-2e-05	0	-4.5	0.025	-2e-05	0
280	-4.5	0.026	-2e-05	0	-4.5	0.026	-2e-05	0
281	-4.5	0.027	-4e-05	0	-4.5	0.027	-4e-05	0
282	-4.5	0.027	-2e-05	0	-4.5	0.027	-2e-05	0
283	-4.5	0.028	-4e-05	0	-4.5	0.028	-4e-05	0
284	-4.5	0.028	-2e-05	0	-4.5	0.028	-2e-05	0
285	-4.5	0.029	-4e-05	0	-4.5	0.029	-4e-05	0
286	-4.5	0.029	-2e-05	0	-4.5	0.029	-2e-05	0
287	-4.5	0.03	-4e-05	0	-4.5	0.03	-4e-05	0
288	-4.5	0.031	-4e-05	0	-4.5	0.031	-4e-05	0
289	-4.5	0.032	-4e-05	0	-4.5	0.032	-4e-05	0
290	-4.5	0.033	-4e-05	0	-4.5	0.033	-4e-05	0
291	-4.5	0.034	-4e-05	0	-4.5	0.034	-4e-05	0
292	-4.5	0.035	-4e-05	0	-4.5	0.035	-4e-05	0
293	-4.5	0.036	-4e-05	0	-4.5	0.036	-4e-05	0
294	-4.5	0.037	-4e-05	0	-4.5	0.037	-4e-05	0
295	-4.5	0.038	-4e-05	0	-4.5	0.038	-4e-05	0
296	-4.5	0.039	-4e-05	0	-4.5	0.039	-4e-05	0
297	-4	-0.004	2e-05	0	-4	-0.004	2e-05	0
298	-4	-0.003	2e-05	0	-4	-0.003	2e-05	0
299	-4	-0.002	2e-05	0	-4	-0.002	2e-05	0
300	-4	-0.001	2e-05	0	-4	-0.001	2e-05	0
301	-4	0	2e-05	0	-4	0	2e-05	0
302	-4	0.001	0	0	-4	0.001	0	0
303	-4	0.002	0	0	-4	0.002	0	0
304	-4	0.003	0	0	-4	0.003	0	0
305	-4	0.004	0	0	-4	0.004	0	0
306	-4	0.005	0	0	-4	0.005	0	0
307	-4	0.006	0	0	-4	0.006	0	0
308	-4	0.007	0	0	-4	0.007	0	0
309	-4	0.008	0	0	-4	0.008	0	0
310	-4	0.009	0	0	-4	0.009	0	0
311	-4	0.01	-2e-05	0	-4	0.01	-2e-05	0
312	-4	0.01	0	0	-4	0.01	0	0
313	-4	0.011	-2e-05	0	-4	0.011	-2e-05	0
314	-4	0.011	0	0	-4	0.011	0	0
315	-4	0.012	-2e-05	0	-4	0.012	-2e-05	0
316	-4	0.012	0	0	-4	0.012	0	0
317	-4	0.013	-2e-05	0	-4	0.013	-2e-05	0
318	-4	0.013	0	0	-4	0.013	0	0
319	-4	0.014	-2e-05	0	-4	0.014	-2e-05	0
320	-4	0.014	0	0	-4	0.014	0	0
321	-4	0.015	-2e-05	0	-4	0.015	-2e-05	0
322	-4	0.015	0	0	-4	0.015	0	0
323	-4	0.016	-2e-05	0	-4	0.016	-2e-05	0
324	-4	0.017	-2e-05	0	-4	0.017	-2e-05	0
325	-4	0.018	-2e-05	0	-4	0.018	-2e-05	0
326	-4	0.019	-2e-05	0	-4	0.019	-2e-05	0
327	-4	0.02	-2e-05	0	-4	0.02	-2e-05	0
328	-4	0.021	-2e-05	0	-4	0.021	-2e-05	0
329	-4	0.022	-2e-05	0	-4	0.022	-2e-05	0
330	-4	0.023	-2e-05	0	-4	0.023	-2e-05	0
331	-4	0.024	-2e-05	0	-4	0.024	-2e-05	0
332	-4	0.025	-2e-05	0	-4	0.025	-2e-05	0
333	-4	0.026	-4e-05	0	-4	0.026	-4e-05	0
334	-4	0.026	-2e-05	0	-4	0.026	-2e-05	0
335	-4	0.027	-4e-05	0	-4	0.027	-4e-05	0
336	-4	0.027	-2e-05	0	-4	0.027	-2e-05	0
337	-4	0.028	-4e-05	0	-4	0.028	-4e-05	0
338	-4	0.028	-2e-05	0	-4	0.028	-2e-05	0
339	-4	0.029	-4e-05	0	-4	0.029	-4e-05	0
340	-4	0.03	-4e-05	0	-4	0.03	-4e-05	0
341	-4	0.031	-4e-05	0	-4	0.031	-4e-05	0
342	-4	0.032	-4e-05	0	-4	0.032	-4e-05	0
343	-4	0.033	-4e-05	0	-4	0.033	-4e-05	0
344	-4	0.034	-4e-05	0	-4	0.034	-4e-05	0
345	-4	0.035	-4e-05	0	-4	0.035	-4e-05	0
346	-4	0.036	-4e-05	0	-4	0.036	-4e-05	0
347	-4	0.037	-4e-05	0	-4	0.037	-4e-05	0
348	-3.5	-0.006	2e-05	0	-3.5	-0.006	2e-05	0
349	-3.5	-0.005	2e-05	0	-3.5	-0.005	2e-05	0
350	-3.5	-0.004	2e-05	0	-3.5	-0.004	2e-05	0
351	-3.5	-0.003	2e-05	0	-3.5	-0.003	2e-05	0
352	-3.5	-0.002	2e-05	0	-3.5	-0.002	2e-05	0
353	-3.5	-0.001	0	0	-3.5	-0.001	0	0
354	-3.5	-0.001	2e-05	0	-3.5	-0.001	2e-05	0
355	-3.5	0	0	0	-3.5	0	0	0
356	-3.5	0	2e-05	0	-3.5	0	2e-05	0
357	-3.5	0.001	0	0	-3.5	0.001	0	0
358	-3.5	0.002	0	0	-3.5	0.002	0	0
359	-3.5	0.003	0	0	-3.5	0.003	0	0
360	-3.5	0.004	0	0	-3.5	0.004	0	0
361	-3.5	0.005	0	0	-3.5	0.005	0	0
362	-3.5	0.006	0	0	-3.5	0.006	0	0
363	-3.5	0.007	0	0	-3.5	0.007	0	0
364	-3.5	0.008	0	0	-3.5	0.008	0	0
365	-3.5	0.009	0	0	-3.5	0.009	0	0
366	-3.5	0.01	-2e-05	0	-3.5	0.01	-2e-05	0
367	-3.5	0.01	0	0	-3.5	0.01	0	0
368	-3.5	0.011	-2e-05	0	-3.5	0.011	-2e-05	0
369	-3.5	0.011	0	0	-3.5	0.011	0	0
370	-3.5	0.012	-2e-05	0	-3.5	0.012	-2e-05	0
371	-3.5	0.012	0	0	-3.5	0.012	0	0
372	-3.5	0.013	-2e-05	0	-3.5	0.013	-2e-05	0
373	-3.5	0.013	0	0	-3.5	0.013	0	0
374	-3.5	0.014	-2e-05	0	-3.5	0.014	-2e-05	0
375	-3.5	0.014	0	0	-3.5	0.014	0	0
376	-3.5	0.015	-2e-05	0	-3.5	0.015	-2e-05	0
377	-3.5	0.016	-2e-05	0	-3.5	0.016	-2e-05	0
378	-3.5	0.017	-2e-05	0	-3.5	0.017	-2e-05	0
379	-3.5	0.018	-2e-05	0	-3.5	0.018	-2e-05	0
380	-3.5	0.019	-2e-05	0	-3.5	0.019	-2e-05	0
381	-3.5	0.02	-2e-05	0	-3.5	0.02	-2e-05	0
382	-3.5	0.021	-2e-05	0	-3.5	0.021	-2e-05	0
383	-3.5	0.022	-2e-05	0	-3.5	0.022	-2e-05	0
384	-3.5	0.023	-2e-05	0	-3.5	0.023	-2e-05	0
385	-3.5	0.024	-2e-05	0	-3.5	0.024	-2e-05	0
386	-3.5	0.025	-2e-05	0	-3.5	0.025	-2e-05	0
387	-3.5	0.026	-4e-05	0	-3.5	0.026	-4e-05	0
388	-3.5	0.026	-2e-05	0	-3.5	0.026	-2e-05	0
389	-3.5	0.027	-4e-05	0	-3.5	0.027	-4e-05	0
390	-3.5	0.027	-2e-05	0	-3.5	0.027	-2e-05	0
391	-3.5	0.028	-4e-05	0	-3.5	0.028	-4e-05	0
392	-3.5	0.029	-4e-05	0	-3.5	0.029	-4e-05	0
393	-3.5	0.03	-4e-05	0	-3.5	0.03	-4e-05	0
394	-3.5	0.031	-4e-05	0	-3.5	0.031	-4e-05	0
395	-3.5	0.032	-4e-05	0	-3.5	0.032	-4e-05	0
396	-3.5	0.033	-4e-05	0	-3.5	0.033	-4e-05	0
397	-3.5	0.034	-4e-05	0	-3.5	0.034	-4e-05	0
398	-3.5	0.035	-4e-05	0	-3.5	0.035	-4e-05	0
399	-3.5	0.036	-4e-05	0	-3.5	0.036	-4e-05	0
400	-3	-0.008	2e-05	0	-3	-0.008	2e-05	0
401	-3	-0.007	2e-05	0	-3	-0.007	2e-05	0
402	-3	-0.006	2e-05	0	-3	-0.006	2e-05	0
403	-3	-0.005	2e-05	0	-3	-0.005	2e-05	0
404	-3	-0.004	2e-05	0	-3	-0.004	2e-05	0
405	-3	-0.003	0	0	-3	-0.003	0	0
406	-3	-0.003	2e-05	0	-3	-0.003	2e-05	0
407	-3	-0.002	0	0	-3	-0.002	0	0
408	-3	-0.002	2e-05	0	-3	-0.002	2e-05	0
409	-3	-0.001	0	0	-3	-0.001	0	0
410	-3	-0.001	2e-05	0	-3	-0.001	2e-05	0
411	-3	0	0	0	-3	0	0	0
412	-3	0.001	0	0	-3	0.001	0	0
413	-3	0.002	0	0	-3	0.002	0	0
414	-3	0.003	0	0	-3	0.003	0	0
415	-3	0.004	0	0	-3	0.004	0	0
416	-3	0.005	0	0	-3	0.005	0	0
417	-3	0.006	0	0	-3	0.006	0	0
418	-3	0.007	0	0	-3	0.007	0	0
419	-3	0.008	0	0	-3	0.008	0	0
420	-3	0.009	-2e-05	0	-3	0.009	-2e-05	0
421	-3	0.009	0	0	-3	0.009	0	0
422	-3	0.01	-2e-05	0	-3	0.01	-2e-05	0
423	-3	0.01	0	0	-3	0.01	0	0
424	-3	0.011	-2e-05	0	-3	0.011	-2e-05	0
425	-3	0.011	0	0	-3	0.011	0	0
426	-3	0.012	-2e-05	0	-3	0.012	-2e-05	0
427	-3	0.012	0	0	-3	0.012	0	0
428	-3	0.013	-2e-05	0	-3	0.013	-2e-05	0
429	-3	0.013	0	0	-3	0.013	0	0
430	-3	0.014	-2e-05	0	-3	0.014	-2e-05	0
431	-3	0.014	0	0	-3	0.014	0	0
432	-3	0.015	-2e-05	0	-3	0.015	-2e-05	0
433	-3	0.016	-2e-05	0	-3	0.016	-2e-05	0
434	-3	0.017	-2e-05	0	-3	0.017	-2e-05	0
435	-3	0.018	-2e-05	0	-3	0.018	-2e-05	0
436	-3	0.019	-2e-05	0	-3	0.019	-2e-05	0
437	-3	0.02	-2e-05	0	-3	0.02	-2e-05	0
438	-3	0.021	-2e-05	0	-3	0.021	-2e-05	0
439	-3	0.022	-2e-05	0	-3	0.022	-2e-05	0
440	-3	0.023	-2e-05	0	-3	0.023	-2e-05	0
441	-3	0.024	-2e-05	0	-3	0.024	-2e-05	0
442	-3	0.025	-4e-05	0	-3	0.025	-4e-05	0
443	-3	0.025	-2e-05	0	-3	0.025	-2e-05	0
444	-3	0.026	-4e-05	0	-3	0.026	-4e-05	0
445	-3	0.026	-2e-05	0	-3	0.026	-2e-05	0
446	-3	0.027	-4e-05	0	-3	0.027	-4e-05	0
447	-3	0.028	-4e-05	0	-3	0.028	-4e-05	0
448	-3	0.029	-4e-05	0	-3	0.029	-4e-05	0
449	-3	0.03	-4e-05	0	-3	0.03	-4e-05	0
450	-3	0.031	-4e-05	0	-3	0.031	-4e-05	0
451	-3	0.032	-4e-05	0	-3	0.032	-4e-05	0
452	-3	0.033	-4e-05	0	-3	0.033	-4e-05	0
453	-3	0.034	-4e-05	0	-3	0.034	-4e-05	0
454	-2.5	-0.01	2e-05	0	-2.5	-0.01	2e-05	0
455	-2.5	-0.009	2e-05	0	-2.5	-0.009	2e-05	0
456	-2.5	-0.008	2e-05	0	-2.5	-0.008	2e-05	0
457	-2.5	-0.007	2e-05	0	-2.5	-0.007	2e-05	0
458	-2.5	-0.006	2e-05	0	-2.5	-0.006	2e-05	0
459	-2.5	-0.005	2e-05	0	-2.5	-0.005	2e-05	0
460	-2.5	-0.004	0	0	-2.5	-0.004	0	0
461	-2.5	-0.004	2e-05	0	-2.5	-0.004	2e-05	0
462	-2.5	-0.003	0	0	-2.5	-0.003	0	0
463	-2.5	-0.003	2e-05	0	-2.5	-0.003	2e-05	0
464	-2.5	-0.002	0	0	-2.5	-0.002	0	0
465	-2.5	-0.002	2e-05	0	-2.5	-0.002	2e-05	0
466	-2.5	-0.001	0	0	-2.5	-0.001	0	0
467	-2.5	0	0	0	-2.5	0	0	0
468	-2.5	0.001	0	0	-2.5	0.001	0	0
469	-2.5	0.002	0	0	-2.5	0.002	0	0
470	-2.5	0.003	0	0	-2.5	0.003	0	0
471	-2.5	0.004	0	0	-2.5	0.004	0	0
472	-2.5	0.005	0	0	-2.5	0.005	0	0
473	-2.5	0.006	0	0	-2.5	0.006	0	0
474	-2.5	0.007	0	0	-2.5	0.007	0	0
475	-2.5	0.008	-2e-05	0	-2.5	0.008	-2e-05	0
476	-2.5	0.008	0	0	-2.5	0.008	0	0
477	-2.5	0.009	-2e-05	0	-2.5	0.009	-2e-05	0
478	-2.5	0.009	0	0	-2.5	0.009	0	0
479	-2.5	0.01	-2e-05	0	-2.5	0.01	-2e-05	0
480	-2.5	0.01	0	0	-2.5	0.01	0	0
481	-2.5	0.011	-2e-05	0	-2.5	0.011	-2e-05	0
482	-2.5	0.011	0	0	-2.5	0.011	0	0
483	-2.5	0.012	-2e-05	0	-2.5	0.012	-2e-05	0
484	-2.5	0.012	0	0	-2.5	0.012	0	0
485	-2.5	0.013	-2e-05	0	-2.5	0.013	-2e-05	0
486	-2.5	0.013	0	0	-2.5	0.013	0	0
487	-2.5	0.014	-2e-05	0	-2.5	0.014	-2e-05	0
488	-2.5	0.015	-2e-05	0	-2.5	0.015	-2e-05	0
489	-2.5	0.016	-2e-05	0	-2.5	0.016	-2e-05	0
490	-2.5	0.017	-2e-05	0	-2.5	0.017	-2e-05	0
491	-2.5	0.018	-2e-05	0	-2.5	0.018	-2e-05	0
492	-2.5	0.019	-2e-05	0	-2.5	0.019	-2e-05	0
493	-2.5	0.02	-2e-05	0	-2.5	0.02	-2e-05	0
494	-2.5	0.021	-2e-05	0	-2.5	0.021	-2e-05	0
495	-2.5	0.022	-2e-05	0	-2.5	0.022	-2e-05	0
496	-2.5	0.023	-2e-05	0	-2.5	0.023	-2e-05	0
497	-2.5	0.024	-2e-05	0	-2.5	0.024	-2e-05	0
498	-2.5	0.025	-4e-05	0	-2.5	0.025	-4e-05	0
499	-2.5	0.025	-2e-05	0	-2.5	0.025	-2e-05	0
500	-2.5	0.026	-4e-05	0	-2.5	0.026	-4e-05	0
501	-2.5	0.027	-4e-05	0	-2.5	0.027	-4e-05	0
502	-2.5	0.028	-4e-05	0	-2.5	0.028	-4e-05	0
503	-2.5	0.029	-4e-05	0	-2.5	0.029	-4e-05	0
504	-2.5	0.03	-4e-05	0	-2.5	0.03	-4e-05	0
505	-2.5	0.031	-4e-05	0	-2.5	0.031	-4e-05	0
506	-2.5	0.032	-4e-05	0	-2.5	0.032	-4e-05	0
507	-2.5	0.033	-4e-05	0	-2.5	0.033	-4e-05	0
508	-2	-0.012	2e-05	0	-2	-0.012	2e-05	0
509	-2	-0.011	2e-05	0	-2	-0.011	2e-05	0
510	-2	-0.01	2e-05	0	-2	-0.01	2e-05	0
511	-2	-0.009	2e-05	0	-2	-0.009	2e-05	0
512	-2	-0.008	2e-05	0	-2	-0.008	2e-05	0
513	-2	-0.007	2e-05	0	-2	-0.007	2e-05	0
514	-2	-0.006	0	0	-2	-0.006	0	0
515	-2	-0.006	2e-05	0	-2	-0.006	2e-05	0
516	-2	-0.005	0	0	-2	-0.005	0	0
517	-2	-0.005	2e-05	0	-2	-0.005	2e-05	0
518	-2	-0.004	0	0	-2	-0.004	0	0
519	-2	-0.004	2e-05	0	-2	-0.004	2e-05	0
520	-2	-0.003	0	0	-2	-0.003	0	0
521	-2	-0.003	2e-05	0	-2	-0.003	2e-05	0
522	-2	-0.002	0	0	-2	-0.002	0	0
523	-2	-0.002	2e-05	0	-2	-0.002	2e-05	0
524	-2	-0.001	0	0	-2	-0.001	0	0
525	-2	0	0	0	-2	0	0	0
526	-2	0.001	0	0	-2	0.001	0	0
527	-2	0.002	0	0	-2	0.002	0	0
528	-2	0.003	0	0	-2	0.003	0	0
529	-2	0.004	0	0	-2	0.004	0	0
530	-2	0.005	0	0	-2	0.005	0	0
531	-2	0.006	0	0	-2	0.006	0	0
532	-2	0.007	0	0	-2	0.007	0	0
533	-2	0.008	-2e-05	0	-2	0.008	-2e-05	0
534	-2	0.008	0	0	-2	0.008	0	0
535	-2	0.009	-2e-05	0	-2	0.009	-2e-05	0
536	-2	0.009	0	0	-2	0.009	0	0
537	-2	0.01	-2e-05	0	-2	0.01	-2e-05	0
538	-2	0.01	0	0	-2	0.01	0	0
539	-2	0.011	-2e-05	0	-2	0.011	-2e-05	0
540	-2	0.011	0	0	-2	0.011	0	0
541	-2	0.012	-2e-05	0	-2	0.012	-2e-05	0
542	-2	0.012	0	0	-2	0.012	0	0
543	-2	0.013	-2e-05	0	-2	0.013	-2e-05	0
544	-2	0.014	-2e-05	0	-2	0.014	-2e-05	0
545	-2	0.015	-2e-05	0	-2	0.015	-2e-05	0
546	-2	0.016	-2e-05	0	-2	0.016	-2e-05	0
547	-2	0.017	-2e-05	0	-2	0.017	-2e-05	0
548	-2	0.018	-2e-05	0	-2	0.018	-2e-05	0
549	-2	0.019	-2e-05	0	-2	0.019	-2e-05	0
550	-2	0.02	-2e-05	0	-2	0.02	-2e-05	0
551	-2	0.021	-2e-05	0	-2	0.021	-2e-05	0
552	-2	0.022	-2e-05	0	-2	0.022	-2e-05	0
553	-2	0.023	-2e-05	0	-2	0.023	-2e-05	0
554	-2	0.024	-4e-05	0	-2	0.024	-4e-05	0
555	-2	0.024	-2e-05	0	-2	0.024	-2e-05	0
556	-2	0.025	-4e-05	0	-2	0.025	-4e-05	0
557	-2	0.025	-2e-05	0	-2	0.025	-2e-05	0
558	-2	0.026	-4e-05	0	-2	0.026	-4e-05	0
559	-2	0.027	-4e-05	0	-2	0.027	-4e-05	0
560	-2	0.028	-4e-05	0	-2	0.028	-4e-05	0
561	-2	0.029	-4e-05	0	-2	0.029	-4e-05	0
562	-2	0.03	-4e-05	0	-2	0.03	-4e-05	0
563	-2	0.031	-4e-05	0	-2	0.031	-4e-05	0
564	-1.5	-0.014	2e-05	0	-1.5	-0.014	2e-05	0
565	-1.5	-0.013	2e-05	0	-1.5	-0.013	2e-05	0
566	-1.5	-0.012	2e-05	0	-1.5	-0.012	2e-05	0
567	-1.5	-0.011	2e-05	0	-1.5	-0.011	2e-05	0
568	-1.5	-0.01	2e-05	0	-1.5	-0.01	2e-05	0
569	-1.5	-0.009	2e-05	0	-1.5	-0.009	2e-05	0
570	-1.5	-0.008	2e-05	0	-1.5	-0.008	2e-05	0
571	-1.5	-0.007	2e-05	0	-1.5	-0.007	2e-05	0
572	-1.5	-0.006	0	0	-1.5	-0.006	0	0
573	-1.5	-0.006	2e-05	0	-1.5	-0.006	2e-05	0
574	-1.5	-0.005	0	0	-1.5	-0.005	0	0
575	-1.5	-0.005	2e-05	0	-1.5	-0.005	2e-05	0
576	-1.5	-0.004	0	0	-1.5	-0.004	0	0
577	-1.5	-0.004	2e-05	0	-1.5	-0.004	2e-05	0
578	-1.5	-0.003	0	0	-1.5	-0.003	0	0
579	-1.5	-0.003	2e-05	0	-1.5	-0.003	2e-05	0
580	-1.5	-0.002	0	0	-1.5	-0.002	0	0
581	-1.5	-0.001	0	0	-1.5	-0.001	0	0
582	-1.5	0	0	0	-1.5	0	0	0
583	-1.5	0.001	0	0	-1.5	0.001	0	0
584	-1.5	0.002	0	0	-1.5	0.002	0	0
585	-1.5	0.003	0	0	-1.5	0.003	0	0
586	-1.5	0.004	0	0	-1.5	0.004	0	0
587	-1.5	0.005	0	0	-1.5	0.005	0	0
588	-1.5	0.006	0	0	-1.5	0.006	0	0
589	-1.5	0.007	-2e-05	0	-1.5	0.007	-2e-05	0
590	-1.5	0.007	0	0	-1.5	0.007	0	0
591	-1.5	0.008	-2e-05	0	-1.5	0.008	-2e-05	0
592	-1.5	0.008	0	0	-1.5	0.008	0	0
593	-1.5	0.009	-2e-05	0	-1.5	0.009	-2e-05	0
594	-1.5	0.009	0	0	-1.5	0.009	0	0
595	-1.5	0.01	-2e-05	0	-1.5	0.01	-2e-05	0
596	-1.5	0.01	0	0	-1.5	0.01	0	0
597	-1.5	0.011	-2e-05	0	-1.5	0.011	-2e-05	0
598	-1.5	0.011	0	0	-1.5	0.011	0	0
599	-1.5	0.012	-2e-05	0	-1.5	0.012	-2e-05	0
600	-1.5	0.013	-2e-05	0	-1.5	0.013	-2e-05	0
601	-1.5	0.014	-2e-05	0	-1.5	0.014	-2e-05	0
602	-1.5	0.015	-2e-05	0	-1.5	0.015	-2e-05	0
603	-1.5	0.016	-2e-05	0	-1.5	0.016	-2e-05	0
604	-1.5	0.017	-2e-05	0	-1.5	0.017	-2e-05	0
605	-1.5	0.018	-2e-05	0	-1.5	0.018	-2e-05	0
606	-1.5	0.019	-2e-05	0	-1.5	0.019	-2e-05	0
607	-1.5	0.02	-2e-05	0	-1.5	0.02	-2e-05	0
608	-1.5	0.021	-2e-05	0	-1.5	0.021	-2e-05	0
609	-1.5	0.022	-2e-05	0	-1.5	0.022	-2e-05	0
610	-1.5	0.023	-2e-05	0	-1.5	0.023	-2e-05	0
611	-1.5	0.024	-4e-05	0	-1.5	0.024	-4e-05	0
612	-1.5	0.025	-4e-05	0	-1.5	0.025	-4e-05	0
613	-1.5	0.026	-4e-05	0	-1.5	0.026	-4e-05	0
614	-1.5	0.027	-4e-05	0	-1.5	0.027	-4e-05	0
615	-1.5	0.028	-4e-05	0	-1.5	0.028	-4e-05	0
616	-1.5	0.029	-4e-05	0	-1.5	0.029	-4e-05	0
617	-1.5	0.03	-4e-05	0	-1.5	0.03	-4e-05	0
618	-1	-0.021	4e-05	0	-1	-0.021	4e-05	0
619	-1	-0.016	2e-05	0	-1	-0.016	2e-05	0
620	-1	-0.015	2e-05	0	-1	-0.015	2e-05	0
621	-1	-0.014	2e-05	0	-1	-0.014	2e-05	0
622	-1	-0.013	2e-05	0	-1	-0.013	2e-05	0
623	-1	-0.012	2e-05	0	-1	-0.012	2e-05	0
624	-1	-0.011	2e-05	0	-1	-0.011	2e-05	0
625	-1	-0.01	2e-05	0	-1	-0.01	2e-05	0
626	-1	-0.009	2e-05	0	-1	-0.009	2e-05	0
627	-1	-0.008	2e-05	0	-1	-0.008	2e-05	0
628	-1	-0.007	0	0	-1	-0.007	0	0
629	-1	-0.007	2e-05	0	-1	-0.007	2e-05	0
630	-1	-0.006	0	0	-1	-0.006	0	0
631	-1	-0.006	2e-05	0	-1	-0.006	2e-05	0
632	-1	-0.005	0	0	-1	-0.005	0	0
633	-1	-0.005	2e-05	0	-1	-0.005	2e-05	0
634	-1	-0.004	0	0	-1	-0.004	0	0
635	-1	-0.004	2e-05	0	-1	-0.004	2e-05	0
636	-1	-0.003	0	0	-1	-0.003	0	0
637	-1	-0.002	0	0	-1	-0.002	0	0
638	-1	-0.001	0	0	-1	-0.001	0	0
639	-1	0	0	0	-1	0	0	0
640	-1	0.001	0	0	-1	0.001	0	0
641	-1	0.002	0	0	-1	0.002	0	0
642	-1	0.003	0	0	-1	0.003	0	0
643	-1	0.004	0	0	-1	0.004	0	0
644	-1	0.005	0	0	-1	0.005	0	0
645	-1	0.006	-2e-05	0	-1	0.006	-2e-05	0
646	-1	0.006	0	0	-1	0.006	0	0
647	-1	0.007	-2e-05	0	-1	0.007	-2e-05	0
648	-1	0.007	0	0	-1	0.007	0	0
649	-1	0.008	-2e-05	0	-1	0.008	-2e-05	0
650	-1	0.008	0	0	-1	0.008	0	0
651	-1	0.009	-2e-05	0	-1	0.009	-2e-05	0
652	-1	0.009	0	0	-1	0.009	0	0
653	-1	0.01	-2e-05	0	-1	0.01	-2e-05	0
654	-1	0.01	0	0	-1	0.01	0	0
655	-1	0.011	-2e-05	0	-1	0.011	-2e-05	0
656	-1	0.012	-2e-05	0	-1	0.012	-2e-05	0
657	-1	0.013	-2e-05	0	-1	0.013	-2e-05	0
658	-1	0.014	-2e-05	0	-1	0.014	-2e-05	0
659	-1	0.015	-2e-05	0	-1	0.015	-2e-05	0
660	-1	0.016	-2e-05	0	-1	0.016	-2e-05	0
661	-1	0.017	-2e-05	0	-1	0.017	-2e-05	0
662	-1	0.018	-2e-05	0	-1	0.018	-2e-05	0
663	-1	0.019	-2e-05	0	-1	0.019	-2e-05	0
664	-1	0.02	-2e-05	0	-1	0.02	-2e-05	0
665	-1	0.021	-2e-05	0	-1	0.021	-2e-05	0
666	-1	0.022	-2e-05	0	-1	0.022	-2e-05	0
667	-1	0.023	-4e-05	0	-1	0.023	-4e-05	0
668	-1	0.024	-4e-05	0	-1	0.024	-4e-05	0
669	-1	0.025	-4e-05	0	-1	0.025	-4e-05	0
670	-1	0.026	-4e-05	0	-1	0.026	-4e-05	0
671	-1	0.027	-4e-05	0	-1	0.027	-4e-05	0
672	-1	0.028	-4e-05	0	-1	0.028	-4e-05	0
673	-0.5	-0.023	4e-05	0	-0.5	-0.023	4e-05	0
674	-0.5	-0.022	4e-05	0	-0.5	-0.022	4e-05	0
675	-0.5	-0.021	4e-05	0	-0.5	-0.021	4e-05	0
676	-0.5	-0.017	2e-05	0	-0.5	-0.017	2e-05	0
677	-0.5	-0.016	2e-05	0	-0.5	-0.016	2e-05	0
678	-0.5	-0.015	2e-05	0	-0.5	-0.015	2e-05	0
679	-0.5	-0.014	2e-05	0	-0.5	-0.014	2e-05	0
680	-0.5	-0.013	2e-05	0	-0.5	-0.013	2e-05	0
681	-0.5	-0.012	2e-05	0	-0.5	-0.012	2e-05	0
682	-0.5	-0.011	2e-05	0	-0.5	-0.011	2e-05	0
683	-0.5	-0.01	2e-05	0	-0.5	-0.01	2e-05	0
684	-0.5	-0.009	2e-05	0	-0.5	-0.009	2e-05	0
685	-0.5	-0.008	0	0	-0.5	-0.008	0	0
686	-0.5	-0.008	2e-05	0	-0.5	-0.008	2e-05	0
687	-0.5	-0.007	0	0	-0.5	-0.007	0	0
688	-0.5	-0.007	2e-05	0	-0.5	-0.007	2e-05	0
689	-0.5	-0.006	0	0	-0.5	-0.006	0	0
690	-0.5	-0.006	2e-05	0	-0.5	-0.006	2e-05	0
691	-0.5	-0.005	0	0	-0.5	-0.005	0	0
692	-0.5	-0.005	2e-05	0	-0.5	-0.005	2e-05	0
693	-0.5	-0.004	0	0	-0.5	-0.004	0	0
694	-0.5	-0.004	2e-05	0	-0.5	-0.004	2e-05	0
695	-0.5	-0.003	0	0	-0.5	-0.003	0	0
696	-0.5	-0.002	0	0	-0.5	-0.002	0	0
697	-0.5	-0.001	0	0	-0.5	-0.001	0	0
698	-0.5	0	0	0	-0.5	0	0	0
699	-0.5	0.001	0	0	-0.5	0.001	0	0
700	-0.5	0.002	0	0	-0.5	0.002	0	0
701	-0.5	0.003	0	0	-0.5	0.003	0	0
702	-0.5	0.004	0	0	-0.5	0.004	0	0
703	-0.5	0.005	0	0	-0.5	0.005	0	0
704	-0.5	0.006	-2e-05	0	-0.5	0.006	-2e-05	0
705	-0.5	0.006	0	0	-0.5	0.006	0	0
706	-0.5	0.007	-2e-05	0	-0.5	0.007	-2e-05	0
707	-0.5	0.007	0	0	-0.5	0.007	0	0
708	-0.5	0.008	-2e-05	0	-0.5	0.008	-2e-05	0
709	-0.5	0.008	0	0	-0.5	0.008	0	0
710	-0.5	0.009	-2e-05	0	-0.5	0.009	-2e-05	0
711	-0.5	0.009	0	0	-0.5	0.009	0	0
712	-0.5	0.01	-2e-05	0	-0.5	0.01	-2e-05	0
713	-0.5	0.01	0	0	-0.5	0.01	0	0
714	-0.5	0.011	-2e-05	0	-0.5	0.011	-2e-05	0
715	-0.5	0.012	-2e-05	0	-0.5	0.012	-2e-05	0
716	-0.5	0.013	-2e-05	0	-0.5	0.013	-2e-05	0
717	-0.5	0.014	-2e-05	0	-0.5	0.014	-2e-05	0
718	-0.5	0.015	-2e-05	0	-0.5	0.015	-2e-05	0
719	-0.5	0.016	-2e-05	0	-0.5	0.016	-2e-05	0
720	-0.5	0.017	-2e-05	0	-0.5	0.017	-2e-05	0
721	-0.5	0.018	-2e-05	0	-0.5	0.018	-2e-05	0
722	-0.5	0.019	-2e-05	0	-0.5	0.019	-2e-05	0
723	-0.5	0.02	-2e-05	0	-0.5	0.02	-2e-05	0
724	-0.5	0.022	-4e-05	0	-0.5	0.022	-4e-05	0
725	-0.5	0.023	-4e-05	0	-0.5	0.023	-4e-05	0
726	-0.5	0.024	-4e-05	0	-0.5	0.024	-4e-05	0
727	-0.5	0.025	-4e-05	0	-0.5	0.025	-4e-05	0
728	-0.5	0.026	-4e-05	0	-0.5	0.026	-4e-05	0
729	-0.5	0.027	-4e-05	0	-0.5	0.027	-4e-05	0
730	0	-0.025	4e-05	0	0	-0.025	4e-05	0
731	0	-0.024	4e-05	0	0	-0.024	4e-05	0
732	0	-0.023	4e-05	0	0	-0.023	4e-05	0
733	0	-0.022	4e-05	0	0	-0.022	4e-05	0
734	0	-0.019	2e-05	0	0	-0.019	2e-05	0
735	0	-0.018	2e-05	0	0	-0.018	2e-05	0
736	0	-0.017	2e-05	0	0	-0.017	2e-05	0
737	0	-0.016	2e-05	0	0	-0.016	2e-05	0
738	0	-0.015	2e-05	0	0	-0.015	2e-05	0
739	0	-0.014	2e-05	0	0	-0.014	2e-05	0
740	0	-0.013	2e-05	0	0	-0.013	2e-05	0
741	0	-0.012	2e-05	0	0	-0.012	2e-05	0
742	0	-0.011	2e-05	0	0	-0.011	2e-05	0
743	0	-0.01	2e-05	0	0	-0.01	2e-05	0
744	0	-0.009	0	0	0	-0.009	0	0
745	0	-0.009	2e-05	0	0	-0.009	2e-05	0
746	0	-0.008	0	0	0	-0.008	0	0
747	0	-0.008	2e-05	0	0	-0.008	2e-05	0
748	0	-0.007	0	0	0	-0.007	0	0
749	0	-0.007	2e-05	0	0	-0.007	2e-05	0
750	0	-0.006	0	0	0	-0.006	0	0
751	0	-0.006	2e-05	0	0	-0.006	2e-05	0
752	0	-0.005	0	0	0	-0.005	0	0
753	0	-0.005	2e-05	0	0	-0.005	2e-05	0
754	0	-0.004	0	0	0	-0.004	0	0
755	0	-0.003	0	0	0	-0.003	0	0
756	0	-0.002	0	0	0	-0.002	0	0
757	0	-0.001	0	0	0	-0.001	0	0
758	0	0	0	0	0	0	0	0
759	0	0.001	0	0	0	0.001	0	0
760	0	0.002	0	0	0	0.002	0	0
761	0	0.003	0	0	0	0.003	0	0
762	0	0.004	0	0	0	0.004	0	0
763	0	0.005	-2e-05	0	0	0.005	-2e-05	0
764	0	0.005	0	0	0	0.005	0	0
765	0	0.006	-2e-05	0	0	0.006	-2e-05	0
766	0	0.006	0	0	0	0.006	0	0
767	0	0.007	-2e-05	0	0	0.007	-2e-05	0
768	0	0.007	0	0	0	0.007	0	0
769	0	0.008	-2e-05	0	0	0.008	-2e-05	0
770	0	0.008	0	0	0	0.008	0	0
771	0	0.009	-2e-05	0	0	0.009	-2e-05	0
772	0	0.009	0	0	0	0.009	0	0
773	0	0.01	-2e-05	0	0	0.01	-2e-05	0
774	0	0.011	-2e-05	0	0	0.011	-2e-05	0
775	0	0.012	-2e-05	0	0	0.012	-2e-05	0
776	0	0.013	-2e-05	0	0	0.013	-2e-05	0
777	0	0.014	-2e-05	0	0	0.014	-2e-05	0
778	0	0.015	-2e-05	0	0	0.015	-2e-05	0
779	0	0.016	-2e-05	0	0	0.016	-2e-05	0
780	0	0.017	-2e-05	0	0	0.017	-2e-05	0
781	0	0.018	-2e-05	0	0	0.018	-2e-05	0
782	0	0.019	-2e-05	0	0	0.019	-2e-05	0
783	0	0.022	-4e-05	0	0	0.022	-4e-05	0
784	0	0.023	-4e-05	0	0	0.023	-4e-05	0
785	0	0.024	-4e-05	0	0	0.024	-4e-05	0
786	0	0.025	-4e-05	0	0	0.025	-4e-05	0
787	0.5	-0.027	4e-05	0	0.5	-0.027	4e-05	0
788	0.5	-0.026	4e-05	0	0.5	-0.026	4e-05	0
789	0.5	-0.025	4e-05	0	0.5	-0.025	4e-05	0
790	0.5	-0.024	4e-05	0	0.5	-0.024	4e-05	0
791	0.5	-0.023	4e-05	0	0.5	-0.023	4e-05	0
792	0.5	-0.022	4e-05	0	0.5	-0.022	4e-05	0
793	0.5	-0.02	2e-05	0	0.5	-0.02	2e-05	0
794	0.5	-0.019	2e-05	0	0.5	-0.019	2e-05	0
795	0.5	-0.018	2e-05	0	0.5	-0.018	2e-05	0
796	0.5	-0.017	2e-05	0	0.5	-0.017	2e-05	0
797	0.5	-0.016	2e-05	0	0.5	-0.016	2e-05	0
798	0.5	-0.015	2e-05	0	0.5	-0.015	2e-05	0
799	0.5	-0.014	2e-05	0	0.5	-0.014	2e-05	0
800	0.5	-0.013	2e-05	0	0.5	-0.013	2e-05	0
801	0.5	-0.012	2e-05	0	0.5	-0.012	2e-05	0
802	0.5	-0.011	2e-05	0	0.5	-0.011	2e-05	0
803	0.5	-0.01	0	0	0.5	-0.01	0	0
804	0.5	-0.01	2e-05	0	0.5	-0.01	2e-05	0
805	0.5	-0.009	0	0	0.5	-0.009	0	0
806	0.5	-0.009	2e-05	0	0.5	-0.009	2e-05	0
807	0.5	-0.008	0	0	0.5	-0.008	0	0
808	0.5	-0.008	2e-05	0	0.5	-0.008	2e-05	0
809	0.5	-0.007	0	0	0.5	-0.007	0	0
810	0.5	-0.007	2e-05	0	0.5	-0.007	2e-05	0
811	0.5	-0.006	0	0	0.5	-0.006	0	0
812	0.5	-0.006	2e-05	0	0.5	-0.006	2e-05	0
813	0.5	-0.005	0	0	0.5	-0.005	0	0
814	0.5	-0.004	0	0	0.5	-0.004	0	0
815	0.5	-0.003	0	0	0.5	-0.003	0	0
816	0.5	-0.002	0	0	0.5	-0.002	0	0
817	0.5	-0.001	0	0	0.5	-0.001	0	0
818	0.5	0	0	0	0.5	0	0	0
819	0.5	0.001	0	0	0.5	0.001	0	0
820	0.5	0.002	0	0	0.5	0.002	0	0
821	0.5	0.003	0	0	0.5	0.003	0	0
822	0.5	0.004	-2e-05	0	0.5	0.004	-2e-05	0
823	0.5	0.004	0	0	0.5	0.004	0	0
824	0.5	0.005	-2e-05	0	0.5	0.005	-2e-05	0
825	0.5	0.005	0	0	0.5	0.005	0	0
826	0.5	0.006	-2e-05	0	0.5	0.006	-2e-05	0
827	0.5	0.006	0	0	0.5	0.006	0	0
828	0.5	0.007	-2e-05	0	0.5	0.007	-2e-05	0
829	0.5	0.007	0	0	0.5	0.007	0	0
830	0.5	0.008	-2e-05	0	0.5	0.008	-2e-05	0
831	0.5	0.008	0	0	0.5	0.008	0	0
832	0.5	0.009	-2e-05	0	0.5	0.009	-2e-05	0
833	0.5	0.01	-2e-05	0	0.5	0.01	-2e-05	0
834	0.5	0.011	-2e-05	0	0.5	0.011	-2e-05	0
835	0.5	0.012	-2e-05	0	0.5	0.012	-2e-05	0
836	0.5	0.013	-2e-05	0	0.5	0.013	-2e-05	0
837	0.5	0.014	-2e-05	0	0.5	0.014	-2e-05	0
838	0.5	0.015	-2e-05	0	0.5	0.015	-2e-05	0
839	0.5	0.016	-2e-05	0	0.5	0.016	-2e-05	0
840	0.5	0.017	-2e-05	0	0.5	0.017	-2e-05	0
841	0.5	0.021	-4e-05	0	0.5	0.021	-4e-05	0
842	0.5	0.022	-4e-05	0	0.5	0.022	-4e-05	0
843	0.5	0.023	-4e-05	0	0.5	0.023	-4e-05	0
844	1	-0.028	4e-05	0	1	-0.028	4e-05	0
845	1	-0.027	4e-05	0	1	-0.027	4e-05	0
846	1	-0.026	4e-05	0	1	-0.026	4e-05	0
847	1	-0.025	4e-05	0	1	-0.025	4e-05	0
848	1	-0.024	4e-05	0	1	-0.024	4e-05	0
849	1	-0.023	4e-05	0	1	-0.023	4e-05	0
850	1	-0.022	2e-05	0	1	-0.022	2e-05	0
851	1	-0.021	2e-05	0	1	-0.021	2e-05	0
852	1	-0.02	2e-05	0	1	-0.02	2e-05	0
853	1	-0.019	2e-05	0	1	-0.019	2e-05	0
854	1	-0.018	2e-05	0	1	-0.018	2e-05	0
855	1	-0.017	2e-05	0	1	-0.017	2e-05	0
856	1	-0.016	2e-05	0	1	-0.016	2e-05	0
857	1	-0.015	2e-05	0	1	-0.015	2e-05	0
858	1	-0.014	2e-05	0	1	-0.014	2e-05	0
859	1	-0.013	2e-05	0	1	-0.013	2e-05	0
860	1	-0.012	2e-05	0	1	-0.012	2e-05	0
861	1	-0.011	2e-05	0	1	-0.011	2e-05	0
862	1	-0.01	0	0	1	-0.01	0	0
863	1	-0.01	2e-05	0	1	-0.01	2e-05	0
864	1	-0.009	0	0	1	-0.009	0	0
865	1	-0.009	2e-05	0	1	-0.009	2e-05	0
866	1	-0.008	0	0	1	-0.008	0	0
867	1	-0.008	2e-05	0	1	-0.008	2e-05	0
868	1	-0.007	0	0	1	-0.007	0	0
869	1	-0.007	2e-05	0	1	-0.007	2e-05	0
870	1	-0.006	0	0	1	-0.006	0	0
871	1	-0.006	2e-05	0	1	-0.006	2e-05	0
872	1	-0.005	0	0	1	-0.005	0	0
873	1	-0.004	0	0	1	-0.004	0	0
874	1	-0.003	0	0	1	-0.003	0	0
875	1	-0.002	0	0	1	-0.002	0	0
876	1	-0.001	0	0	1	-0.001	0	0
877	1	0	0	0	1	0	0	0
878	1	0.001	0	0	1	0.001	0	0
879	1	0.002	0	0	1	0.002	0	0
880	1	0.003	0	0	1	0.003	0	0
881	1	0.004	-2e-05	0	1	0.004	-2e-05	0
882	1	0.004	0	0	1	0.004	0	0
883	1	0.005	-2e-05	0	1	0.005	-2e-05	0
884	1	0.005	0	0	1	0.005	0	0
885	1	0.006	-2e-05	0	1	0.006	-2e-05	0
886	1	0.006	0	0	1	0.006	0	0
887	1	0.007	-2e-05	0	1	0.007	-2e-05	0
888	1	0.007	0	0	1	0.007	0	0
889	1	0.008	-2e-05	0	1	0.008	-2e-05	0
890	1	0.009	-2e-05	0	1	0.009	-2e-05	0
891	1	0.01	-2e-05	0	1	0.01	-2e-05	0
892	1	0.011	-2e-05	0	1	0.011	-2e-05	0
893	1	0.012	-2e-05	0	1	0.012	-2e-05	0
894	1	0.013	-2e-05	0	1	0.013	-2e-05	0
895	1	0.014	-2e-05	0	1	0.014	-2e-05	0
896	1	0.015	-2e-05	0	1	0.015	-2e-05	0
897	1	0.016	-2e-05	0	1	0.016	-2e-05	0
898	1	0.021	-4e-05	0	1	0.021	-4e-05	0
899	1.5	-0.03	4e-05	0	1.5	-0.03	4e-05	0
900	1.5	-0.029	4e-05	0	1.5	-0.029	4e-05	0
901	1.5	-0.028	4e-05	0	1.5	-0.028	4e-05	0
902	1.5	-0.027	4e-05	0	1.5	-0.027	4e-05	0
903	1.5	-0.026	4e-05	0	1.5	-0.026	4e-05	0
904	1.5	-0.025	4e-05	0	1.5	-0.025	4e-05	0
905	1.5	-0.024	4e-05	0	1.5	-0.024	4e-05	0
906	1.5	-0.023	2e-05	0	1.5	-0.023	2e-05	0
907	1.5	-0.022	2e-05	0	1.5	-0.022	2e-05	0
908	1.5	-0.021	2e-05	0	1.5	-0.021	2e-05	0
909	1.5	-0.02	2e-05	0	1.5	-0.02	2e-05	0
910	1.5	-0.019	2e-05	0	1.5	-0.019	2e-05	0
911	1.5	-0.018	2e-05	0	1.5	-0.018	2e-05	0
912	1.5	-0.017	2e-05	0	1.5	-0.017	2e-05	0
913	1.5	-0.016	2e-05	0	1.5	-0.016	2e-05	0
914	1.5	-0.015	2e-05	0	1.5	-0.015	2e-05	0
915	1.5	-0.014	2e-05	0	1.5	-0.014	2e-05	0
916	1.5	-0.013	2e-05	0	1.5	-0.013	2e-05	0
917	1.5	-0.012	2e-05	0	1.5	-0.012	2e-05	0
918	1.5	-0.011	0	0	1.5	-0.011	0	0
919	1.5	-0.011	2e-05	0	1.5	-0.011	2e-05	0
920	1.5	-0.01	0	0	1.5	-0.01	0	0
921	1.5	-0.01	2e-05	0	1.5	-0.01	2e-05	0
922	1.5	-0.009	0	0	1.5	-0.009	0	0
923	1.5	-0.009	2e-05	0	1.5	-0.009	2e-05	0
924	1.5	-0.008	0	0	1.5	-0.008	0	0
925	1.5	-0.008	2e-05	0	1.5	-0.008	2e-05	0
926	1.5	-0.007	0	0	1.5	-0.007	0	0
927	1.5	-0.007	2e-05	0	1.5	-0.007	2e-05	0
928	1.5	-0.006	0	0	1.5	-0.006	0	0
929	1.5	-0.005	0	0	1.5	-0.005	0	0
930	1.5	-0.004	0	0	1.5	-0.004	0	0
931	1.5	-0.003	0	0	1.5	-0.003	0	0
932	1.5	-0.002	0	0	1.5	-0.002	0	0
933	1.5	-0.001	0	0	1.5	-0.001	0	0
934	1.5	0	0	0	1.5	0	0	0
935	1.5	0.001	0	0	1.5	0.001	0	0
936	1.5	0.002	0	0	1.5	0.002	0	0
937	1.5	0.003	-2e-05	0	1.5	0.003	-2e-05	0
938	1.5	0.003	0	0	1.5	0.003	0	0
939	1.5	0.004	-2e-05	0	1.5	0.004	-2e-05	0
940	1.5	0.004	0	0	1.5	0.004	0	0
941	1.5	0.005	-2e-05	0	1.5	0.005	-2e-05	0
942	1.5	0.005	0	0	1.5	0.005	0	0
943	1.5	0.006	-2e-05	0	1.5	0.006	-2e-05	0
944	1.5	0.006	0	0	1.5	0.006	0	0
945	1.5	0.007	-2e-05	0	1.5	0.007	-2e-05	0
946	1.5	0.008	-2e-05	0	1.5	0.008	-2e-05	0
947	1.5	0.009	-2e-05	0	1.5	0.009	-2e-05	0
948	1.5	0.01	-2e-05	0	1.5	0.01	-2e-05	0
949	1.5	0.011	-2e-05	0	1.5	0.011	-2e-05	0
950	1.5	0.012	-2e-05	0	1.5	0.012	-2e-05	0
951	1.5	0.013	-2e-05	0	1.5	0.013	-2e-05	0
952	1.5	0.014	-2e-05	0	1.5	0.014	-2e-05	0
953	2	-0.031	4e-05	0	2	-0.031	4e-05	0
954	2	-0.03	4e-05	0	2	-0.03	4e-05	0
955	2	-0.029	4e-05	0	2	-0.029	4e-05	0
956	2	-0.028	4e-05	0	2	-0.028	4e-05	0
957	2	-0.027	4e-05	0	2	-0.027	4e-05	0
958	2	-0.026	4e-05	0	2	-0.026	4e-05	0
959	2	-0.025	2e-05	0	2	-0.025	2e-05	0
960	2	-0.025	4e-05	0	2	-0.025	4e-05	0
961	2	-0.024	2e-05	0	2	-0.024	2e-05	0
962	2	-0.024	4e-05	0	2	-0.024	4e-05	0
963	2	-0.023	2e-05	0	2	-0.023	2e-05	0
964	2	-0.022	2e-05	0	2	-0.022	2e-05	0
965	2	-0.021	2e-05	0	2	-0.021	2e-05	0
966	2	-0.02	2e-05	0	2	-0.02	2e-05	0
967	2	-0.019	2e-05	0	2	-0.019	2e-05	0
968	2	-0.018	2e-05	0	2	-0.018	2e-05	0
969	2	-0.017	2e-05	0	2	-0.017	2e-05	0
970	2	-0.016	2e-05	0	2	-0.016	2e-05	0
971	2	-0.015	2e-05	0	2	-0.015	2e-05	0
972	2	-0.014	2e-05	0	2	-0.014	2e-05	0
973	2	-0.013	2e-05	0	2	-0.013	2e-05	0
974	2	-0.012	0	0	2	-0.012	0	0
975	2	-0.012	2e-05	0	2	-0.012	2e-05	0
976	2	-0.011	0	0	2	-0.011	0	0
977	2	-0.011	2e-05	0	2	-0.011	2e-05	0
978	2	-0.01	0	0	2	-0.01	0	0
979	2	-0.01	2e-05	0	2	-0.01	2e-05	0
980	2	-0.009	0	0	2	-0.009	0	0
981	2	-0.009	2e-05	0	2	-0.009	2e-05	0
982	2	-0.008	0	0	2	-0.008	0	0
983	2	-0.008	2e-05	0	2	-0.008	2e-05	0
984	2	-0.007	0	0	2	-0.007	0	0
985	2	-0.006	0	0	2	-0.006	0	0
986	2	-0.005	0	0	2	-0.005	0	0
987	2	-0.004	0	0	2	-0.004	0	0
988	2	-0.003	0	0	2	-0.003	0	0
989	2	-0.002	0	0	2	-0.002	0	0
990	2	-0.001	0	0	2	-0.001	0	0
991	2	0	0	0	2	0	0	0
992	2	0.001	0	0	2	0.001	0	0
993	2	0.002	-2e-05	0	2	0.002	-2e-05	0
994	2	0.002	0	0	2	0.002	0	0
995	2	0.003	-2e-05	0	2	0.003	-2e-05	0
996	2	0.003	0	0	2	0.003	0	0
997	2	0.004	-2e-05	0	2	0.004	-2e-05	0
998	2	0.004	0	0	2	0.004	0	0
999	2	0.005	-2e-05	0	2	0.005	-2e-05	0
1000	2	0.005	0	0	2	0.005	0	0
1001	2	0.006	-2e-05	0	2	0.006	-2e-05	0
1002	2	0.006	0	0	2	0.006	0	0
1003	2	0.007	-2e-05	0	2	0.007	-2e-05	0
1004	2	0.008	-2e-05	0	2	0.008	-2e-05	0
1005	2	0.009	-2e-05	0	2	0.009	-2e-05	0
1006	2	0.01	-2e-05	0	2	0.01	-2e-05	0
1007	2	0.011	-2e-05	0	2	0.011	-2e-05	0
1008	2	0.012	-2e-05	0	2	0.012	-2e-05	0
1009	2.5	-0.033	4e-05	0	2.5	-0.033	4e-05	0
1010	2.5	-0.032	4e-05	0	2.5	-0.032	4e-05	0
1011	2.5	-0.031	4e-05	0	2.5	-0.031	4e-05	0
1012	2.5	-0.03	4e-05	0	2.5	-0.03	4e-05	0
1013	2.5	-0.029	4e-05	0	2.5	-0.029	4e-05	0
1014	2.5	-0.028	4e-05	0	2.5	-0.028	4e-05	0
1015	2.5	-0.027	4e-05	0	2.5	-0.027	4e-05	0
1016	2.5	-0.026	4e-05	0	2.5	-0.026	4e-05	0
1017	2.5	-0.025	2e-05	0	2.5	-0.025	2e-05	0
1018	2.5	-0.025	4e-05	0	2.5	-0.025	4e-05	0
1019	2.5	-0.024	2e-05	0	2.5	-0.024	2e-05	0
1020	2.5	-0.023	2e-05	0	2.5	-0.023	2e-05	0
1021	2.5	-0.022	2e-05	0	2.5	-0.022	2e-05	0
1022	2.5	-0.021	2e-05	0	2.5	-0.021	2e-05	0
1023	2.5	-0.02	2e-05	0	2.5	-0.02	2e-05	0
1024	2.5	-0.019	2e-05	0	2.5	-0.019	2e-05	0
1025	2.5	-0.018	2e-05	0	2.5	-0.018	2e-05	0
1026	2.5	-0.017	2e-05	0	2.5	-0.017	2e-05	0
1027	2.5	-0.016	2e-05	0	2.5	-0.016	2e-05	0
1028	2.5	-0.015	2e-05	0	2.5	-0.015	2e-05	0
1029	2.5	-0.014	2e-05	0	2.5	-0.014	2e-05	0
1030	2.5	-0.013	0	0	2.5	-0.013	0	0
1031	2.5	-0.013	2e-05	0	2.5	-0.013	2e-05	0
1032	2.5	-0.012	0	0	2.5	-0.012	0	0
1033	2.5	-0.012	2e-05	0	2.5	-0.012	2e-05	0
1034	2.5	-0.011	0	0	2.5	-0.011	0	0
1035	2.5	-0.011	2e-05	0	2.5	-0.011	2e-05	0
1036	2.5	-0.01	0	0	2.5	-0.01	0	0
1037	2.5	-0.01	2e-05	0	2.5	-0.01	2e-05	0
1038	2.5	-0.009	0	0	2.5	-0.009	0	0
1039	2.5	-0.009	2e-05	0	2.5	-0.009	2e-05	0
1040	2.5	-0.008	0	0	2.5	-0.008	0	0
1041	2.5	-0.008	2e-05	0	2.5	-0.008	2e-05	0
1042	2.5	-0.007	0	0	2.5	-0.007	0	0
1043	2.5	-0.006	0	0	2.5	-0.006	0	0
1044	2.5	-0.005	0	0	2.5	-0.005	0	0
1045	2.5	-0.004	0	0	2.5	-0.004	0	0
1046	2.5	-0.003	0	0	2.5	-0.003	0	0
1047	2.5	-0.002	0	0	2.5	-0.002	0	0
1048	2.5	-0.001	0	0	2.5	-0.001	0	0
1049	2.5	0	0	0	2.5	0	0	0
1050	2.5	0.001	0	0	2.5	0.001	0	0
1051	2.5	0.002	-2e-05	0	2.5	0.002	-2e-05	0
1052	2.5	0.002	0	0	2.5	0.002	0	0
1053	2.5	0.003	-2e-05	0	2.5	0.003	-2e-05	0
1054	2.5	0.003	0	0	2.5	0.003	0	0
1055	2.5	0.004	-2e-05	0	2.5	0.004	-2e-05	0
1056	2.5	0.004	0	0	2.5	0.004	0	0
1057	2.5	0.005	-2e-05	0	2.5	0.005	-2e-05	0
1058	2.5	0.006	-2e-05	0	2.5	0.006	-2e-05	0
1059	2.5	0.007	-2e-05	0	2.5	0.007	-2e-05	0
1060	2.5	0.008	-2e-05	0	2.5	0.008	-2e-05	0
1061	2.5	0.009	-2e-05	0	2.5	0.009	-2e-05	0
1062	2.5	0.01	-2e-05	0	2.5	0.01	-2e-05	0
1063	3	-0.034	4e-05	0	3	-0.034	4e-05	0
1064	3	-0.033	4e-05	0	3	-0.033	4e-05	0
1065	3	-0.032	4e-05	0	3	-0.032	4e-05	0
1066	3	-0.031	4e-05	0	3	-0.031	4e-05	0
1067	3	-0.03	4e-05	0	3	-0.03	4e-05	0
1068	3	-0.029	4e-05	0	3	-0.029	4e-05	0
1069	3	-0.028	4e-05	0	3	-0.028	4e-05	0
1070	3	-0.027	4e-05	0	3	-0.027	4e-05	0
1071	3	-0.026	2e-05	0	3	-0.026	2e-05	0
1072	3	-0.026	4e-05	0	3	-0.026	4e-05	0
1073	3	-0.025	2e-05	0	3	-0.025	2e-05	0
1074	3	-0.025	4e-05	0	3	-0.025	4e-05	0
1075	3	-0.024	2e-05	0	3	-0.024	2e-05	0
1076	3	-0.023	2e-05	0	3	-0.023	2e-05	0
1077	3	-0.022	2e-05	0	3	-0.022	2e-05	0
1078	3	-0.021	2e-05	0	3	-0.021	2e-05	0
1079	3	-0.02	2e-05	0	3	-0.02	2e-05	0
1080	3	-0.019	2e-05	0	3	-0.019	2e-05	0
1081	3	-0.018	2e-05	0	3	-0.018	2e-05	0
1082	3	-0.017	2e-05	0	3	-0.017	2e-05	0
1083	3	-0.016	2e-05	0	3	-0.016	2e-05	0
1084	3	-0.015	2e-05	0	3	-0.015	2e-05	0
1085	3	-0.014	0	0	3	-0.014	0	0
1086	3	-0.014	2e-05	0	3	-0.014	2e-05	0
1087	3	-0.013	0	0	3	-0.013	0	0
1088	3	-0.013	2e-05	0	3	-0.013	2e-05	0
1089	3	-0.012	0	0	3	-0.012	0	0
1090	3	-0.012	2e-05	0	3	-0.012	2e-05	0
1091	3	-0.011	0	0	3	-0.011	0	0
1092	3	-0.011	2e-05	0	3	-0.011	2e-05	0
1093	3	-0.01	0	0	3	-0.01	0	0
1094	3	-0.01	2e-05	0	3	-0.01	2e-05	0
1095	3	-0.009	0	0	3	-0.009	0	0
1096	3	-0.009	2e-05	0	3	-0.009	2e-05	0
1097	3	-0.008	0	0	3	-0.008	0	0
1098	3	-0.007	0	0	3	-0.007	0	0
1099	3	-0.006	0	0	3	-0.006	0	0
1100	3	-0.005	0	0	3	-0.005	0	0
1101	3	-0.004	0	0	3	-0.004	0	0
1102	3	-0.003	0	0	3	-0.003	0	0
1103	3	-0.002	0	0	3	-0.002	0	0
1104	3	-0.001	0	0	3	-0.001	0	0
1105	3	0	0	0	3	0	0	0
1106	3	0.001	-2e-05	0	3	0.001	-2e-05	0
1107	3	0.001	0	0	3	0.001	0	0
1108	3	0.002	-2e-05	0	3	0.002	-2e-05	0
1109	3	0.002	0	0	3	0.002	0	0
1110	3	0.003	-2e-05	0	3	0.003	-2e-05	0
1111	3	0.003	0	0	3	0.003	0	0
1112	3	0.004	-2e-05	0	3	0.004	-2e-05	0
1113	3	0.005	-2e-05	0	3	0.005	-2e-05	0
1114	3	0.006	-2e-05	0	3	0.006	-2e-05	0
1115	3	0.007	-2e-05	0	3	0.007	-2e-05	0
1116	3	0.008	-2e-05	0	3	0.008	-2e-05	0
1117	3.5	-0.036	4e-05	0	3.5	-0.036	4e-05	0
1118	3.5	-0.035	4e-05	0	3.5	-0.035	4e-05	0
1119	3.5	-0.034	4e-05	0	3.5	-0.034	4e-05	0
1120	3.5	-0.033	4e-05	0	3.5	-0.033	4e-05	0
1121	3.5	-0.032	4e-05	0	3.5	-0.032	4e-05	0
1122	3.5	-0.031	4e-05	0	3.5	-0.031	4e-05	0
1123	3.5	-0.03	4e-05	0	3.5	-0.03	4e-05	0
1124	3.5	-0.029	4e-05	0	3.5	-0.029	4e-05	0
1125	3.5	-0.028	4e-05	0	3.5	-0.028	4e-05	0
1126	3.5	-0.027	2e-05	0	3.5	-0.027	2e-05	0
1127	3.5	-0.027	4e-05	0	3.5	-0.027	4e-05	0
1128	3.5	-0.026	2e-05	0	3.5	-0.026	2e-05	0
1129	3.5	-0.026	4e-05	0	3.5	-0.026	4e-05	0
1130	3.5	-0.025	2e-05	0	3.5	-0.025	2e-05	0
1131	3.5	-0.024	2e-05	0	3.5	-0.024	2e-05	0
1132	3.5	-0.023	2e-05	0	3.5	-0.023	2e-05	0
1133	3.5	-0.022	2e-05	0	3.5	-0.022	2e-05	0
1134	3.5	-0.021	2e-05	0	3.5	-0.021	2e-05	0
1135	3.5	-0.02	2e-05	0	3.5	-0.02	2e-05	0
1136	3.5	-0.019	2e-05	0	3.5	-0.019	2e-05	0
1137	3.5	-0.018	2e-05	0	3.5	-0.018	2e-05	0
1138	3.5	-0.017	2e-05	0	3.5	-0.017	2e-05	0
1139	3.5	-0.016	2e-05	0	3.5	-0.016	2e-05	0
1140	3.5	-0.015	2e-05	0	3.5	-0.015	2e-05	0
1141	3.5	-0.014	0	0	3.5	-0.014	0	0
1142	3.5	-0.014	2e-05	0	3.5	-0.014	2e-05	0
1143	3.5	-0.013	0	0	3.5	-0.013	0	0
1144	3.5	-0.013	2e-05	0	3.5	-0.013	2e-05	0
1145	3.5	-0.012	0	0	3.5	-0.012	0	0
1146	3.5	-0.012	2e-05	0	3.5	-0.012	2e-05	0
1147	3.5	-0.011	0	0	3.5	-0.011	0	0
1148	3.5	-0.011	2e-05	0	3.5	-0.011	2e-05	0
1149	3.5	-0.01	0	0	3.5	-0.01	0	0
1150	3.5	-0.01	2e-05	0	3.5	-0.01	2e-05	0
1151	3.5	-0.009	0	0	3.5	-0.009	0	0
1152	3.5	-0.008	0	0	3.5	-0.008	0	0
1153	3.5	-0.007	0	0	3.5	-0.007	0	0
1154	3.5	-0.006	0	0	3.5	-0.006	0	0
1155	3.5	-0.005	0	0	3.5	-0.005	0	0
1156	3.5	-0.004	0	0	3.5	-0.004	0	0
1157	3.5	-0.003	0	0	3.5	-0.003	0	0
1158	3.5	-0.002	0	0	3.5	-0.002	0	0
1159	3.5	-0.001	0	0	3.5	-0.001	0	0
1160	3.5	0	-2e-05	0	3.5	0	-2e-05	0
1161	3.5	0	0	0	3.5	0	0	0
1162	3.5	0.001	-2e-05	0	3.5	0.001	-2e-05	0
1163	3.5	0.001	0	0	3.5	0.001	0	0
1164	3.5	0.002	-2e-05	0	3.5	0.002	-2e-05	0
1165	3.5	0.003	-2e-05	0	3.5	0.003	-2e-05	0
1166	3.5	0.004	-2e-05	0	3.5	0.004	-2e-05	0
1167	3.5	0.005	-2e-05	0	3.5	0.005	-2e-05	0
1168	3.5	0.006	-2e-05	0	3.5	0.006	-2e-05	0
1169	4	-0.037	4e-05	0	4	-0.037	4e-05	0
1170	4	-0.036	4e-05	0	4	-0.036	4e-05	0
1171	4	-0.035	4e-05	0	4	-0.035	4e-05	0
1172	4	-0.034	4e-05	0	4	-0.034	4e-05	0
1173	4	-0.033	4e-05	0	4	-0.033	4e-05	0
1174	4	-0.032	4e-05	0	4	-0.032	4e-05	0
1175	4	-0.031	4e-05	0	4	-0.031	4e-05	0
1176	4	-0.03	4e-05	0	4	-0.03	4e-05	0
1177	4	-0.029	4e-05	0	4	-0.029	4e-05	0
1178	4	-0.028	2e-05	0	4	-0.028	2e-05	0
1179	4	-0.028	4e-05	0	4	-0.028	4e-05	0
1180	4	-0.027	2e-05	0	4	-0.027	2e-05	0
1181	4	-0.027	4e-05	0	4	-0.027	4e-05	0
1182	4	-0.026	2e-05	0	4	-0.026	2e-05	0
1183	4	-0.026	4e-05	0	4	-0.026	4e-05	0
1184	4	-0.025	2e-05	0	4	-0.025	2e-05	0
1185	4	-0.024	2e-05	0	4	-0.024	2e-05	0
1186	4	-0.023	2e-05	0	4	-0.023	2e-05	0
1187	4	-0.022	2e-05	0	4	-0.022	2e-05	0
1188	4	-0.021	2e-05	0	4	-0.021	2e-05	0
1189	4	-0.02	2e-05	0	4	-0.02	2e-05	0
1190	4	-0.019	2e-05	0	4	-0.019	2e-05	0
1191	4	-0.018	2e-05	0	4	-0.018	2e-05	0
1192	4	-0.017	2e-05	0	4	-0.017	2e-05	0
1193	4	-0.016	2e-05	0	4	-0.016	2e-05	0
1194	4	-0.015	0	0	4	-0.015	0	0
1195	4	-0.015	2e-05	0	4	-0.015	2e-05	0
1196	4	-0.014	0	0	4	-0.014	0	0
1197	4	-0.014	2e-05	0	4	-0.014	2e-05	0
1198	4	-0.013	0	0	4	-0.013	0	0
1199	4	-0.013	2e-05	0	4	-0.013	2e-05	0
1200	4	-0.012	0	0	4	-0.012	0	0
1201	4	-0.012	2e-05	0	4	-0.012	2e-05	0
1202	4	-0.011	0	0	4	-0.011	0	0
1203	4	-0.011	2e-05	0	4	-0.011	2e-05	0
1204	4	-0.01	0	0	4	-0.01	0	0
1205	4	-0.01	2e-05	0	4	-0.01	2e-05	0
1206	4	-0.009	0	0	4	-0.009	0	0
1207	4	-0.008	0	0	4	-0.008	0	0
1208	4	-0.007	0	0	4	-0.007	0	0
1209	4	-0.006	0	0	4	-0.006	0	0
1210	4	-0.005	0	0	4	-0.005	0	0
1211	4	-0.004	0	0	4	-0.004	0	0
1212	4	-0.003	0	0	4	-0.003	0	0
1213	4	-0.002	0	0	4	-0.002	0	0
1214	4	-0.001	0	0	4	-0.001	0	0
1215	4	0	-2e-05	0	4	0	-2e-05	0
1216	4	0.001	-2e-05	0	4	0.001	-2e-05	0
1217	4	0.002	-2e-05	0	4	0.002	-2e-05	0
1218	4	0.003	-2e-05	0	4	0.003	-2e-05	0
1219	4	0.004	-2e-05	0	4	0.004	-2e-05	0
1220	4.5	-0.039	4e-05	0	4.5	-0.039	4e-05	0
1221	4.5	-0.038	4e-05	0	4.5	-0.038	4e-05	0
1222	4.5	-0.037	4e-05	0	4.5	-0.037	4e-05	0
1223	4.5	-0.036	4e-05	0	4.5	-0.036	4e-05	0
1224	4.5	-0.035	4e-05	0	4.5	-0.035	4e-05	0
1225	4.5	-0.034	4e-05	0	4.5	-0.034	4e-05	0
1226	4.5	-0.033	4e-05	0	4.5	-0.033	4e-05	0
1227	4.5	-0.032	4e-05	0	4.5	-0.032	4e-05	0
1228	4.5	-0.031	4e-05	0	4.5	-0.031	4e-05	0
1229	4.5	-0.03	4e-05	0	4.5	-0.03	4e-05	0
1230	4.5	-0.029	2e-05	0	4.5	-0.029	2e-05	0
1231	4.5	-0.029	4e-05	0	4.5	-0.029	4e-05	0
1232	4.5	-0.028	2e-05	0	4.5	-0.028	2e-05	0
1233	4.5	-0.028	4e-05	0	4.5	-0.028	4e-05	0
1234	4.5	-0.027	2e-05	0	4.5	-0.027	2e-05	0
1235	4.5	-0.027	4e-05	0	4.5	-0.027	4e-05	0
1236	4.5	-0.026	2e-05	0	4.5	-0.026	2e-05	0
1237	4.5	-0.025	2e-05	0	4.5	-0.025	2e-05	0
1238	4.5	-0.024	2e-05	0	4.5	-0.024	2e-05	0
1239	4.5	-0.023	2e-05	0	4.5	-0.023	2e-05	0
1240	4.5	-0.022	2e-05	0	4.5	-0.022	2e-05	0
1241	4.5	-0.021	2e-05	0	4.5	-0.021	2e-05	0
1242	4.5	-0.02	2e-05	0	4.5	-0.02	2e-05	0
1243	4.5	-0.019	2e-05	0	4.5	-0.019	2e-05	0
1244	4.5	-0.018	2e-05	0	4.5	-0.018	2e-05	0
1245	4.5	-0.017	2e-05	0	4.5	-0.017	2e-05	0
1246	4.5	-0.016	0	0	4.5	-0.016	0	0
1247	4.5	-0.016	2e-05	0	4.5	-0.016	2e-05	0
1248	4.5	-0.015	0	0	4.5	-0.015	0	0
1249	4.5	-0.015	2e-05	0	4.5	-0.015	2e-05	0
1250	4.5	-0.014	0	0	4.5	-0.014	0	0
1251	4.5	-0.014	2e-05	0	4.5	-0.014	2e-05	0
1252	4.5	-0.013	0	0	4.5	-0.013	0	0
1253	4.5	-0.013	2e-05	0	4.5	-0.013	2e-05	0
1254	4.5	-0.012	0	0	4.5	-0.012	0	0
1255	4.5	-0.012	2e-05	0	4.5	-0.012	2e-05	0
1256	4.5	-0.011	0	0	4.5	-0.011	0	0
1257	4.5	-0.011	2e-05	0	4.5	-0.011	2e-05	0
1258	4.5	-0.01	0	0	4.5	-0.01	0	0
1259	4.5	-0.009	0	0	4.5	-0.009	0	0
1260	4.5	-0.008	0	0	4.5	-0.008	0	0
1261	4.5	-0.007	0	0	4.5	-0.007	0	0
1262	4.5	-0.006	0	0	4.5	-0.006	0	0
1263	4.5	-0.005	0	0	4.5	-0.005	0	0
1264	4.5	-0.004	0	0	4.5	-0.004	0	0
1265	4.5	-0.003	0	0	4.5	-0.003	0	0
1266	4.5	-0.001	-2e-05	0	4.5	-0.001	-2e-05	0
1267	4.5	0	-2e-05	0	4.5	0	-2e-05	0
1268	4.5	0.001	-2e-05	0	4.5	0.001	-2e-05	0
1269	5	-0.047	6e-05	0	5	-0.047	6e-05	0
1270	5	-0.04	4e-05	0	5	-0.04	4e-05	0
1271	5	-0.039	4e-05	0	5	-0.039	4e-05	0
1272	5	-0.038	4e-05	0	5	-0.038	4e-05	0
1273	5	-0.037	4e-05	0	5	-0.037	4e-05	0
1274	5	-0.036	4e-05	0	5	-0.036	4e-05	0
1275	5	-0.035	4e-05	0	5	-0.035	4e-05	0
1276	5	-0.034	4e-05	0	5	-0.034	4e-05	0
1277	5	-0.033	4e-05	0	5	-0.033	4e-05	0
1278	5	-0.032	4e-05	0	5	-0.032	4e-05	0
1279	5	-0.031	4e-05	0	5	-0.031	4e-05	0
1280	5	-0.03	4e-05	0	5	-0.03	4e-05	0
1281	5	-0.029	2e-05	0	5	-0.029	2e-05	0
1282	5	-0.029	4e-05	0	5	-0.029	4e-05	0
1283	5	-0.028	2e-05	0	5	-0.028	2e-05	0
1284	5	-0.028	4e-05	0	5	-0.028	4e-05	0
1285	5	-0.027	2e-05	0	5	-0.027	2e-05	0
1286	5	-0.027	4e-05	0	5	-0.027	4e-05	0
1287	5	-0.026	2e-05	0	5	-0.026	2e-05	0
1288	5	-0.025	2e-05	0	5	-0.025	2e-05	0
1289	5	-0.024	2e-05	0	5	-0.024	2e-05	0
1290	5	-0.023	2e-05	0	5	-0.023	2e-05	0
1291	5	-0.022	2e-05	0	5	-0.022	2e-05	0
1292	5	-0.021	2e-05	0	5	-0.021	2e-05	0
1293	5	-0.02	2e-05	0	5	-0.02	2e-05	0
1294	5	-0.019	2e-05	0	5	-0.019	2e-05	0
1295	5	-0.018	2e-05	0	5	-0.018	2e-05	0
1296	5	-0.017	0	0	5	-0.017	0	0
1297	5	-0.017	2e-05	0	5	-0.017	2e-05	0
1298	5	-0.016	0	0	5	-0.016	0	0
1299	5	-0.016	2e-05	0	5	-0.016	2e-05	0
1300	5	-0.015	0	0	5	-0.015	0	0
1301	5	-0.015	2e-05	0	5	-0.015	2e-05	0
1302	5	-0.014	0	0	5	-0.014	0	0
1303	5	-0.014	2e-05	0	5	-0.014	2e-05	0
1304	5	-0.013	0	0	5	-0.013	0	0
1305	5	-0.013	2e-05	0	5	-0.013	2e-05	0
1306	5	-0.012	0	0	5	-0.012	0	0
1307	5	-0.012	2e-05	0	5	-0.012	2e-05	0
1308	5	-0.011	0	0	5	-0.011	0	0
1309	5	-0.01	0	0	5	-0.01	0	0
1310	5	-0.009	0	0	5	-0.009	0	0
1311	5	-0.008	0	0	5	-0.008	0	0
1312	5	-0.007	0	0	5	-0.007	0	0
1313	5	-0.006	0	0	5	-0.006	0	0
1314	5	-0.005	0	0	5	-0.005	0	0
1315	5.5	-0.048	6e-05	0	5.5	-0.048	6e-05	0
1316	5.5	-0.047	6e-05	0	5.5	-0.047	6e-05	0
1317	5.5	-0.042	4e-05	0	5.5	-0.042	4e-05	0
1318	5.5	-0.041	4e-05	0	5.5	-0.041	4e-05	0
1319	5.5	-0.04	4e-05	0	5.5	-0.04	4e-05	0
1320	5.5	-0.039	4e-05	0	5.5	-0.039	4e-05	0
1321	5.5	-0.038	4e-05	0	5.5	-0.038	4e-05	0
1322	5.5	-0.037	4e-05	0	5.5	-0.037	4e-05	0
1323	5.5	-0.036	4e-05	0	5.5	-0.036	4e-05	0
1324	5.5	-0.035	4e-05	0	5.5	-0.035	4e-05	0
1325	5.5	-0.034	4e-05	0	5.5	-0.034	4e-05	0
1326	5.5	-0.033	4e-05	0	5.5	-0.033	4e-05	0
1327	5.5	-0.032	4e-05	0	5.5	-0.032	4e-05	0
1328	5.5	-0.031	4e-05	0	5.5	-0.031	4e-05	0
1329	5.5	-0.03	2e-05	0	5.5	-0.03	2e-05	0
1330	5.5	-0.03	4e-05	0	5.5	-0.03	4e-05	0
1331	5.5	-0.029	2e-05	0	5.5	-0.029	2e-05	0
1332	5.5	-0.029	4e-05	0	5.5	-0.029	4e-05	0
1333	5.5	-0.028	2e-05	0	5.5	-0.028	2e-05	0
1334	5.5	-0.028	4e-05	0	5.5	-0.028	4e-05	0
1335	5.5	-0.027	2e-05	0	5.5	-0.027	2e-05	0
1336	5.5	-0.026	2e-05	0	5.5	-0.026	2e-05	0
1337	5.5	-0.025	2e-05	0	5.5	-0.025	2e-05	0
1338	5.5	-0.024	2e-05	0	5.5	-0.024	2e-05	0
1339	5.5	-0.023	2e-05	0	5.5	-0.023	2e-05	0
1340	5.5	-0.022	2e-05	0	5.5	-0.022	2e-05	0
1341	5.5	-0.021	2e-05	0	5.5	-0.021	2e-05	0
1342	5.5	-0.02	2e-05	0	5.5	-0.02	2e-05	0
1343	5.5	-0.019	2e-05	0	5.5	-0.019	2e-05	0
1344	5.5	-0.018	2e-05	0	5.5	-0.018	2e-05	0
1345	5.5	-0.017	0	0	5.5	-0.017	0	0
1346	5.5	-0.017	2e-05	0	5.5	-0.017	2e-05	0
1347	5.5	-0.016	0	0	5.5	-0.016	0	0
1348	5.5	-0.016	2e-05	0	5.5	-0.016	2e-05	0
1349	5.5	-0.015	0	0	5.5	-0.015	0	0
1350	5.5	-0.015	2e-05	0	5.5	-0.015	2e-05	0
1351	5.5	-0.014	0	0	5.5	-0.014	0	0
1352	5.5	-0.014	2e-05	0	5.5	-0.014	2e-05	0
1353	5.5	-0.013	0	0	5.5	-0.013	0	0
1354	5.5	-0.013	2e-05	0	5.5	-0.013	2e-05	0
1355	5.5	-0.012	0	0	5.5	-0.012	0	0
1356	5.5	-0.011	0	0	5.5	-0.011	0	0
1357	5.5	-0.01	0	0	5.5	-0.01	0	0
1358	5.5	-0.009	0	0	5.5	-0.009	0	0
1359	5.5	-0.008	0	0	5.5	-0.008	0	0
1360	6	-0.05	6e-05	0	6	-0.05	6e-05	0
1361	6	-0.049	6e-05	0	6	-0.049	6e-05	0
1362	6	-0.048	6e-05	0	6	-0.048	6e-05	0
1363	6	-0.043	4e-05	0	6	-0.043	4e-05	0
1364	6	-0.042	4e-05	0	6	-0.042	4e-05	0
1365	6	-0.041	4e-05	0	6	-0.041	4e-05	0
1366	6	-0.04	4e-05	0	6	-0.04	4e-05	0
1367	6	-0.039	4e-05	0	6	-0.039	4e-05	0
1368	6	-0.038	4e-05	0	6	-0.038	4e-05	0
1369	6	-0.037	4e-05	0	6	-0.037	4e-05	0
1370	6	-0.036	4e-05	0	6	-0.036	4e-05	0
1371	6	-0.035	4e-05	0	6	-0.035	4e-05	0
1372	6	-0.034	4e-05	0	6	-0.034	4e-05	0
1373	6	-0.033	4e-05	0	6	-0.033	4e-05	0
1374	6	-0.032	4e-05	0	6	-0.032	4e-05	0
1375	6	-0.031	2e-05	0	6	-0.031	2e-05	0
1376	6	-0.031	4e-05	0	6	-0.031	4e-05	0
1377	6	-0.03	2e-05	0	6	-0.03	2e-05	0
1378	6	-0.03	4e-05	0	6	-0.03	4e-05	0
1379	6	-0.029	2e-05	0	6	-0.029	2e-05	0
1380	6	-0.029	4e-05	0	6	-0.029	4e-05	0
1381	6	-0.028	2e-05	0	6	-0.028	2e-05	0
1382	6	-0.028	4e-05	0	6	-0.028	4e-05	0
1383	6	-0.027	2e-05	0	6	-0.027	2e-05	0
1384	6	-0.026	2e-05	0	6	-0.026	2e-05	0
1385	6	-0.025	2e-05	0	6	-0.025	2e-05	0
1386	6	-0.024	2e-05	0	6	-0.024	2e-05	0
1387	6	-0.023	2e-05	0	6	-0.023	2e-05	0
1388	6	-0.022	2e-05	0	6	-0.022	2e-05	0
1389	6	-0.021	2e-05	0	6	-0.021	2e-05	0
1390	6	-0.02	2e-05	0	6	-0.02	2e-05	0
1391	6	-0.019	2e-05	0	6	-0.019	2e-05	0
1392	6	-0.018	0	0	6	-0.018	0	0
1393	6	-0.018	2e-05	0	6	-0.018	2e-05	0
1394	6	-0.017	0	0	6	-0.017	0	0
1395	6	-0.017	2e-05	0	6	-0.017	2e-05	0
1396	6	-0.016	0	0	6	-0.016	0	0
1397	6	-0.016	2e-05	0	6	-0.016	2e-05	0
1398	6	-0.015	0	0	6	-0.015	0	0
1399	6	-0.015	2e-05	0	6	-0.015	2e-05	0
1400	6	-0.014	0	0	6	-0.014	0	0
1401	6	-0.014	2e-05	0	6	-0.014	2e-05	0
1402	6	-0.013	0	0	6	-0.013	0	0
1403	6	-0.012	0	0	6	-0.012	0	0
1404	6	-0.011	0	0	6	-0.011	0	0
1405	6.5	-0.051	6e-05	0	6.5	-0.051	6e-05	0
1406	6.5	-0.05	6e-05	0	6.5	-0.05	6e-05	0
1407	6.5	-0.049	6e-05	0	6.5	-0.049	6e-05	0
1408	6.5	-0.048	6e-05	0	6.5	-0.048	6e-05	0
1409	6.5	-0.044	4e-05	0	6.5	-0.044	4e-05	0
1410	6.5	-0.043	4e-05	0	6.5	-0.043	4e-05	0
1411	6.5	-0.042	4e-05	0	6.5	-0.042	4e-05	0
1412	6.5	-0.041	4e-05	0	6.5	-0.041	4e-05	0
1413	6.5	-0.04	4e-05	0	6.5	-0.04	4e-05	0
1414	6.5	-0.039	4e-05	0	6.5	-0.039	4e-05	0
1415	6.5	-0.038	4e-05	0	6.5	-0.038	4e-05	0
1416	6.5	-0.037	4e-05	0	6.5	-0.037	4e-05	0
1417	6.5	-0.036	4e-05	0	6.5	-0.036	4e-05	0
1418	6.5	-0.035	4e-05	0	6.5	-0.035	4e-05	0
1419	6.5	-0.034	4e-05	0	6.5	-0.034	4e-05	0
1420	6.5	-0.033	4e-05	0	6.5	-0.033	4e-05	0
1421	6.5	-0.032	2e-05	0	6.5	-0.032	2e-05	0
1422	6.5	-0.032	4e-05	0	6.5	-0.032	4e-05	0
1423	6.5	-0.031	2e-05	0	6.5	-0.031	2e-05	0
1424	6.5	-0.031	4e-05	0	6.5	-0.031	4e-05	0
1425	6.5	-0.03	2e-05	0	6.5	-0.03	2e-05	0
1426	6.5	-0.03	4e-05	0	6.5	-0.03	4e-05	0
1427	6.5	-0.029	2e-05	0	6.5	-0.029	2e-05	0
1428	6.5	-0.029	4e-05	0	6.5	-0.029	4e-05	0
1429	6.5	-0.028	2e-05	0	6.5	-0.028	2e-05	0
1430	6.5	-0.027	2e-05	0	6.5	-0.027	2e-05	0
1431	6.5	-0.026	2e-05	0	6.5	-0.026	2e-05	0
1432	6.5	-0.025	2e-05	0	6.5	-0.025	2e-05	0
1433	6.5	-0.024	2e-05	0	6.5	-0.024	2e-05	0
1434	6.5	-0.023	2e-05	0	6.5	-0.023	2e-05	0
1435	6.5	-0.022	2e-05	0	6.5	-0.022	2e-05	0
1436	6.5	-0.021	2e-05	0	6.5	-0.021	2e-05	0
1437	6.5	-0.02	2e-05	0	6.5	-0.02	2e-05	0
1438	6.5	-0.019	0	0	6.5	-0.019	0	0
1439	6.5	-0.019	2e-05	0	6.5	-0.019	2e-05	0
1440	6.5	-0.018	0	0	6.5	-0.018	0	0
1441	6.5	-0.018	2e-05	0	6.5	-0.018	2e-05	0
1442	6.5	-0.017	0	0	6.5	-0.017	0	0
1443	6.5	-0.017	2e-05	0	6.5	-0.017	2e-05	0
1444	6.5	-0.016	0	0	6.5	-0.016	0	0
1445	6.5	-0.015	0	0	6.5	-0.015	0	0
1446	6.5	-0.014	0	0	6.5	-0.014	0	0
1447	7	-0.053	6e-05	0	7	-0.053	6e-05	0
1448	7	-0.052	6e-05	0	7	-0.052	6e-05	0
1449	7	-0.051	6e-05	0	7	-0.051	6e-05	0
1450	7	-0.05	6e-05	0	7	-0.05	6e-05	0
1451	7	-0.049	6e-05	0	7	-0.049	6e-05	0
1452	7	-0.045	4e-05	0	7	-0.045	4e-05	0
1453	7	-0.044	4e-05	0	7	-0.044	4e-05	0
1454	7	-0.043	4e-05	0	7	-0.043	4e-05	0
1455	7	-0.042	4e-05	0	7	-0.042	4e-05	0
1456	7	-0.041	4e-05	0	7	-0.041	4e-05	0
1457	7	-0.04	4e-05	0	7	-0.04	4e-05	0
1458	7	-0.039	4e-05	0	7	-0.039	4e-05	0
1459	7	-0.038	4e-05	0	7	-0.038	4e-05	0
1460	7	-0.037	4e-05	0	7	-0.037	4e-05	0
1461	7	-0.036	4e-05	0	7	-0.036	4e-05	0
1462	7	-0.035	4e-05	0	7	-0.035	4e-05	0
1463	7	-0.034	4e-05	0	7	-0.034	4e-05	0
1464	7	-0.033	2e-05	0	7	-0.033	2e-05	0
1465	7	-0.033	4e-05	0	7	-0.033	4e-05	0
1466	7	-0.032	2e-05	0	7	-0.032	2e-05	0
1467	7	-0.032	4e-05	0	7	-0.032	4e-05	0
1468	7	-0.031	2e-05	0	7	-0.031	2e-05	0
1469	7	-0.031	4e-05	0	7	-0.031	4e-05	0
1470	7	-0.03	2e-05	0	7	-0.03	2e-05	0
1471	7	-0.03	4e-05	0	7	-0.03	4e-05	0
1472	7	-0.029	2e-05	0	7	-0.029	2e-05	0
1473	7	-0.028	2e-05	0	7	-0.028	2e-05	0
1474	7	-0.027	2e-05	0	7	-0.027	2e-05	0
1475	7	-0.026	2e-05	0	7	-0.026	2e-05	0
1476	7	-0.025	2e-05	0	7	-0.025	2e-05	0
1477	7	-0.024	2e-05	0	7	-0.024	2e-05	0
1478	7	-0.023	2e-05	0	7	-0.023	2e-05	0
1479	7	-0.022	2e-05	0	7	-0.022	2e-05	0
1480	7	-0.021	2e-05	0	7	-0.021	2e-05	0
1481	7	-0.02	2e-05	0	7	-0.02	2e-05	0
1482	7	-0.019	0	0	7	-0.019	0	0
1483	7	-0.018	0	0	7	-0.018	0	0
1484	7.5	-0.054	6e-05	0	7.5	-0.054	6e-05	0
1485	7.5	-0.053	6e-05	0	7.5	-0.053	6e-05	0
1486	7.5	-0.052	6e-05	0	7.5	-0.052	6e-05	0
1487	7.5	-0.051	6e-05	0	7.5	-0.051	6e-05	0
1488	7.5	-0.05	6e-05	0	7.5	-0.05	6e-05	0
1489	7.5	-0.049	6e-05	0	7.5	-0.049	6e-05	0
1490	7.5	-0.046	4e-05	0	7.5	-0.046	4e-05	0
1491	7.5	-0.045	4e-05	0	7.5	-0.045	4e-05	0
1492	7.5	-0.044	4e-05	0	7.5	-0.044	4e-05	0
1493	7.5	-0.043	4e-05	0	7.5	-0.043	4e-05	0
1494	7.5	-0.042	4e-05	0	7.5	-0.042	4e-05	0
1495	7.5	-0.041	4e-05	0	7.5	-0.041	4e-05	0
1496	7.5	-0.04	4e-05	0	7.5	-0.04	4e-05	0
1497	7.5	-0.039	4e-05	0	7.5	-0.039	4e-05	0
1498	7.5	-0.038	4e-05	0	7.5	-0.038	4e-05	0
1499	7.5	-0.037	4e-05	0	7.5	-0.037	4e-05	0
1500	7.5	-0.036	4e-05	0	7.5	-0.036	4e-05	0
1501	7.5	-0.035	4e-05	0	7.5	-0.035	4e-05	0
1502	7.5	-0.034	4e-05	0	7.5	-0.034	4e-05	0
1503	7.5	-0.033	2e-05	0	7.5	-0.033	2e-05	0
1504	7.5	-0.033	4e-05	0	7.5	-0.033	4e-05	0
1505	7.5	-0.032	2e-05	0	7.5	-0.032	2e-05	0
1506	7.5	-0.032	4e-05	0	7.5	-0.032	4e-05	0
1507	7.5	-0.031	2e-05	0	7.5	-0.031	2e-05	0
1508	7.5	-0.031	4e-05	0	7.5	-0.031	4e-05	0
1509	7.5	-0.03	2e-05	0	7.5	-0.03	2e-05	0
1510	7.5	-0.03	4e-05	0	7.5	-0.03	4e-05	0
1511	7.5	-0.029	2e-05	0	7.5	-0.029	2e-05	0
1512	7.5	-0.028	2e-05	0	7.5	-0.028	2e-05	0
1513	7.5	-0.027	2e-05	0	7.5	-0.027	2e-05	0
1514	7.5	-0.026	2e-05	0	7.5	-0.026	2e-05	0
1515	7.5	-0.025	2e-05	0	7.5	-0.025	2e-05	0
1516	7.5	-0.024	2e-05	0	7.5	-0.024	2e-05	0
1517	8	-0.056	6e-05	0	8	-0.056	6e-05	0
1518	8	-0.055	6e-05	0	8	-0.055	6e-05	0
1519	8	-0.054	6e-05	0	8	-0.054	6e-05	0
1520	8	-0.053	6e-05	0	8	-0.053	6e-05	0
1521	8	-0.052	6e-05	0	8	-0.052	6e-05	0
1522	8	-0.051	6e-05	0	8	-0.051	6e-05	0
1523	8	-0.05	6e-05	0	8	-0.05	6e-05	0
1524	8	-0.047	4e-05	0	8	-0.047	4e-05	0
1525	8	-0.046	4e-05	0	8	-0.046	4e-05	0
1526	8	-0.045	4e-05	0	8	-0.045	4e-05	0
1527	8	-0.044	4e-05	0	8	-0.044	4e-05	0
1528	8	-0.043	4e-05	0	8	-0.043	4e-05	0
1529	8	-0.042	4e-05	0	8	-0.042	4e-05	0
1530	8	-0.041	4e-05	0	8	-0.041	4e-05	0
1531	8	-0.04	4e-05	0	8	-0.04	4e-05	0
1532	8	-0.039	4e-05	0	8	-0.039	4e-05	0
1533	8	-0.038	4e-05	0	8	-0.038	4e-05	0
1534	8	-0.037	4e-05	0	8	-0.037	4e-05	0
1535	8	-0.036	4e-05	0	8	-0.036	4e-05	0
1536	8	-0.035	4e-05	0	8	-0.035	4e-05	0
1537	8	-0.034	2e-05	0	8	-0.034	2e-05	0
1538	8	-0.034	4e-05	0	8	-0.034	4e-05	0
1539	8	-0.033	2e-05	0	8	-0.033	2e-05	0
1540	8	-0.033	4e-05	0	8	-0.033	4e-05	0
1541	8	-0.032	2e-05	0	8	-0.032	2e-05	0
1542	8	-0.032	4e-05	0	8	-0.032	4e-05	0
1543	8	-0.031	2e-05	0	8	-0.031	2e-05	0
1544	8	-0.031	4e-05	0	8	-0.031	4e-05	0
1545	8	-0.03	2e-05	0	8	-0.03	2e-05	0
1546	8	-0.029	2e-05	0	8	-0.029	2e-05	0
1547	8	-0.028	2e-05	0	8	-0.028	2e-05	0
1548	-8	0.029	-2e-05	0	-8	0.029	-2e-05	0
1549	-8	0.03	-2e-05	0	-8	0.03	-2e-05	0
1550	-8	0.031	-4e-05	0	-8	0.031	-4e-05	0
1551	-8	0.031	-2e-05	0	-8	0.031	-2e-05	0
1552	-8	0.032	-4e-05	0	-8	0.032	-4e-05	0
1553	-8	0.032	-2e-05	0	-8	0.032	-2e-05	0
1554	-8	0.033	-4e-05	0	-8	0.033	-4e-05	0
1555	-8	0.033	-2e-05	0	-8	0.033	-2e-05	0
1556	-8	0.034	-4e-05	0	-8	0.034	-4e-05	0
1557	-8	0.034	-2e-05	0	-8	0.034	-2e-05	0
1558	-8	0.035	-4e-05	0	-8	0.035	-4e-05	0
1559	-8	0.036	-4e-05	0	-8	0.036	-4e-05	0
1560	-8	0.037	-4e-05	0	-8	0.037	-4e-05	0
1561	-8	0.038	-4e-05	0	-8	0.038	-4e-05	0
1562	-8	0.039	-4e-05	0	-8	0.039	-4e-05	0
1563	-8	0.04	-4e-05	0	-8	0.04	-4e-05	0
1564	-8	0.041	-4e-05	0	-8	0.041	-4e-05	0
1565	-8	0.042	-4e-05	0	-8	0.042	-4e-05	0
1566	-8	0.043	-4e-05	0	-8	0.043	-4e-05	0
1567	-8	0.044	-4e-05	0	-8	0.044	-4e-05	0
1568	-8	0.045	-4e-05	0	-8	0.045	-4e-05	0
1569	-8	0.046	-4e-05	0	-8	0.046	-4e-05	0
1570	-8	0.047	-4e-05	0	-8	0.047	-4e-05	0
1571	-8	0.05	-6e-05	0	-8	0.05	-6e-05	0
1572	-8	0.051	-6e-05	0	-8	0.051	-6e-05	0
1573	-8	0.052	-6e-05	0	-8	0.052	-6e-05	0
1574	-8	0.053	-6e-05	0	-8	0.053	-6e-05	0
1575	-8	0.054	-6e-05	0	-8	0.054	-6e-05	0
1576	-8	0.055	-6e-05	0	-8	0.055	-6e-05	0
1577	-8	0.056	-6e-05	0	-8	0.056	-6e-05	0
1578	-7.5	0.024	-2e-05	0	-7.5	0.024	-2e-05	0
1579	-7.5	0.025	-2e-05	0	-7.5	0.025	-2e-05	0
1580	-7.5	0.026	-2e-05	0	-7.5	0.026	-2e-05	0
1581	-7.5	0.027	-2e-05	0	-7.5	0.027	-2e-05	0
1582	-7.5	0.028	-2e-05	0	-7.5	0.028	-2e-05	0
1583	-7.5	0.029	-2e-05	0	-7.5	0.029	-2e-05	0
1584	-7.5	0.03	-4e-05	0	-7.5	0.03	-4e-05	0
1585	-7.5	0.03	-2e-05	0	-7.5	0.03	-2e-05	0
1586	-7.5	0.031	-4e-05	0	-7.5	0.031	-4e-05	0
1587	-7.5	0.031	-2e-05	0	-7.5	0.031	-2e-05	0
1588	-7.5	0.032	-4e-05	0	-7.5	0.032	-4e-05	0
1589	-7.5	0.032	-2e-05	0	-7.5	0.032	-2e-05	0
1590	-7.5	0.033	-4e-05	0	-7.5	0.033	-4e-05	0
1591	-7.5	0.033	-2e-05	0	-7.5	0.033	-2e-05	0
1592	-7.5	0.034	-4e-05	0	-7.5	0.034	-4e-05	0
1593	-7.5	0.035	-4e-05	0	-7.5	0.035	-4e-05	0
1594	-7.5	0.036	-4e-05	0	-7.5	0.036	-4e-05	0
1595	-7.5	0.037	-4e-05	0	-7.5	0.037	-4e-05	0
1596	-7.5	0.038	-4e-05	0	-7.5	0.038	-4e-05	0
1597	-7.5	0.039	-4e-05	0	-7.5	0.039	-4e-05	0
1598	-7.5	0.04	-4e-05	0	-7.5	0.04	-4e-05	0
1599	-7.5	0.041	-4e-05	0	-7.5	0.041	-4e-05	0
1600	-7.5	0.042	-4e-05	0	-7.5	0.042	-4e-05	0
1601	-7.5	0.043	-4e-05	0	-7.5	0.043	-4e-05	0
1602	-7.5	0.044	-4e-05	0	-7.5	0.044	-4e-05	0
1603	-7.5	0.045	-4e-05	0	-7.5	0.045	-4e-05	0
1604	-7.5	0.046	-4e-05	0	-7.5	0.046	-4e-05	0
1605	-7.5	0.049	-6e-05	0	-7.5	0.049	-6e-05	0
1606	-7.5	0.05	-6e-05	0	-7.5	0.05	-6e-05	0
1607	-7.5	0.051	-6e-05	0	-7.5	0.051	-6e-05	0
1608	-7.5	0.052	-6e-05	0	-7.5	0.052	-6e-05	0
1609	-7.5	0.053	-6e-05	0	-7.5	0.053	-6e-05	0
1610	-7.5	0.054	-6e-05	0	-7.5	0.054	-6e-05	0
1611	-7	0.018	0	0	-7	0.018	0	0
1612	-7	0.019	0	0	-7	0.019	0	0
1613	-7	0.021	-2e-05	0	-7	0.021	-2e-05	0
1614	-7	0.022	-2e-05	0	-7	0.022	-2e-05	0
1615	-7	0.023	-2e-05	0	-7	0.023	-2e-05	0
1616	-7	0.024	-2e-05	0	-7	0.024	-2e-05	0
1617	-7	0.025	-2e-05	0	-7	0.025	-2e-05	0
1618	-7	0.026	-2e-05	0	-7	0.026	-2e-05	0
1619	-7	0.027	-2e-05	0	-7	0.027	-2e-05	0
1620	-7	0.028	-2e-05	0	-7	0.028	-2e-05	0
1621	-7	0.029	-2e-05	0	-7	0.029	-2e-05	0
1622	-7	0.03	-4e-05	0	-7	0.03	-4e-05	0
1623	-7	0.03	-2e-05	0	-7	0.03	-2e-05	0
1624	-7	0.031	-4e-05	0	-7	0.031	-4e-05	0
1625	-7	0.031	-2e-05	0	-7	0.031	-2e-05	0
1626	-7	0.032	-4e-05	0	-7	0.032	-4e-05	0
1627	-7	0.032	-2e-05	0	-7	0.032	-2e-05	0
1628	-7	0.033	-4e-05	0	-7	0.033	-4e-05	0
1629	-7	0.033	-2e-05	0	-7	0.033	-2e-05	0
1630	-7	0.034	-4e-05	0	-7	0.034	-4e-05	0
1631	-7	0.035	-4e-05	0	-7	0.035	-4e-05	0
1632	-7	0.036	-4e-05	0	-7	0.036	-4e-05	0
1633	-7	0.037	-4e-05	0	-7	0.037	-4e-05	0
1634	-7	0.038	-4e-05	0	-7	0.038	-4e-05	0
1635	-7	0.039	-4e-05	0	-7	0.039	-4e-05	0
1636	-7	0.04	-4e-05	0	-7	0.04	-4e-05	0
1637	-7	0.041	-4e-05	0	-7	0.041	-4e-05	0
1638	-7	0.042	-4e-05	0	-7	0.042	-4e-05	0
1639	-7	0.043	-4e-05	0	-7	0.043	-4e-05	0
1640	-7	0.044	-4e-05	0	-7	0.044	-4e-05	0
1641	-7	0.045	-4e-05	0	-7	0.045	-4e-05	0
1642	-7	0.049	-6e-05	0	-7	0.049	-6e-05	0
1643	-7	0.05	-6e-05	0	-7	0.05	-6e-05	0
1644	-7	0.051	-6e-05	0	-7	0.051	-6e-05	0
1645	-7	0.052	-6e-05	0	-7	0.052	-6e-05	0
1646	-7	0.053	-6e-05	0	-7	0.053	-6e-05	0
1647	-6.5	0.014	0	0	-6.5	0.014	0	0
1648	-6.5	0.015	0	0	-6.5	0.015	0	0
1649	-6.5	0.016	0	0	-6.5	0.016	0	0
1650	-6.5	0.017	-2e-05	0	-6.5	0.017	-2e-05	0
1651	-6.5	0.017	0	0	-6.5	0.017	0	0
1652	-6.5	0.018	-2e-05	0	-6.5	0.018	-2e-05	0
1653	-6.5	0.018	0	0	-6.5	0.018	0	0
1654	-6.5	0.019	-2e-05	0	-6.5	0.019	-2e-05	0
1655	-6.5	0.019	0	0	-6.5	0.019	0	0
1656	-6.5	0.02	-2e-05	0	-6.5	0.02	-2e-05	0
1657	-6.5	0.021	-2e-05	0	-6.5	0.021	-2e-05	0
1658	-6.5	0.022	-2e-05	0	-6.5	0.022	-2e-05	0
1659	-6.5	0.023	-2e-05	0	-6.5	0.023	-2e-05	0
1660	-6.5	0.024	-2e-05	0	-6.5	0.024	-2e-05	0
1661	-6.5	0.025	-2e-05	0	-6.5	0.025	-2e-05	0
1662	-6.5	0.026	-2e-05	0	-6.5	0.026	-2e-05	0
1663	-6.5	0.027	-2e-05	0	-6.5	0.027	-2e-05	0
1664	-6.5	0.028	-2e-05	0	-6.5	0.028	-2e-05	0
1665	-6.5	0.029	-4e-05	0	-6.5	0.029	-4e-05	0
1666	-6.5	0.029	-2e-05	0	-6.5	0.029	-2e-05	0
1667	-6.5	0.03	-4e-05	0	-6.5	0.03	-4e-05	0
1668	-6.5	0.03	-2e-05	0	-6.5	0.03	-2e-05	0
1669	-6.5	0.031	-4e-05	0	-6.5	0.031	-4e-05	0
1670	-6.5	0.031	-2e-05	0	-6.5	0.031	-2e-05	0
1671	-6.5	0.032	-4e-05	0	-6.5	0.032	-4e-05	0
1672	-6.5	0.032	-2e-05	0	-6.5	0.032	-2e-05	0
1673	-6.5	0.033	-4e-05	0	-6.5	0.033	-4e-05	0
1674	-6.5	0.034	-4e-05	0	-6.5	0.034	-4e-05	0
1675	-6.5	0.035	-4e-05	0	-6.5	0.035	-4e-05	0
1676	-6.5	0.036	-4e-05	0	-6.5	0.036	-4e-05	0
1677	-6.5	0.037	-4e-05	0	-6.5	0.037	-4e-05	0
1678	-6.5	0.038	-4e-05	0	-6.5	0.038	-4e-05	0
1679	-6.5	0.039	-4e-05	0	-6.5	0.039	-4e-05	0
1680	-6.5	0.04	-4e-05	0	-6.5	0.04	-4e-05	0
1681	-6.5	0.041	-4e-05	0	-6.5	0.041	-4e-05	0
1682	-6.5	0.042	-4e-05	0	-6.5	0.042	-4e-05	0
1683	-6.5	0.043	-4e-05	0	-6.5	0.043	-4e-05	0
1684	-6.5	0.044	-4e-05	0	-6.5	0.044	-4e-05	0
1685	-6.5	0.048	-6e-05	0	-6.5	0.048	-6e-05	0
1686	-6.5	0.049	-6e-05	0	-6.5	0.049	-6e-05	0
1687	-6.5	0.05	-6e-05	0	-6.5	0.05	-6e-05	0
1688	-6.5	0.051	-6e-05	0	-6.5	0.051	-6e-05	0
1689	-6	0.011	0	0	-6	0.011	0	0
1690	-6	0.012	0	0	-6	0.012	0	0
1691	-6	0.013	0	0	-6	0.013	0	0
1692	-6	0.014	-2e-05	0	-6	0.014	-2e-05	0
1693	-6	0.014	0	0	-6	0.014	0	0
1694	-6	0.015	-2e-05	0	-6	0.015	-2e-05	0
1695	-6	0.015	0	0	-6	0.015	0	0
1696	-6	0.016	-2e-05	0	-6	0.016	-2e-05	0
1697	-6	0.016	0	0	-6	0.016	0	0
1698	-6	0.017	-2e-05	0	-6	0.017	-2e-05	0
1699	-6	0.017	0	0	-6	0.017	0	0
1700	-6	0.018	-2e-05	0	-6	0.018	-2e-05	0
1701	-6	0.018	0	0	-6	0.018	0	0
1702	-6	0.019	-2e-05	0	-6	0.019	-2e-05	0
1703	-6	0.02	-2e-05	0	-6	0.02	-2e-05	0
1704	-6	0.021	-2e-05	0	-6	0.021	-2e-05	0
1705	-6	0.022	-2e-05	0	-6	0.022	-2e-05	0
1706	-6	0.023	-2e-05	0	-6	0.023	-2e-05	0
1707	-6	0.024	-2e-05	0	-6	0.024	-2e-05	0
1708	-6	0.025	-2e-05	0	-6	0.025	-2e-05	0
1709	-6	0.026	-2e-05	0	-6	0.026	-2e-05	0
1710	-6	0.027	-2e-05	0	-6	0.027	-2e-05	0
1711	-6	0.028	-4e-05	0	-6	0.028	-4e-05	0
1712	-6	0.028	-2e-05	0	-6	0.028	-2e-05	0
1713	-6	0.029	-4e-05	0	-6	0.029	-4e-05	0
1714	-6	0.029	-2e-05	0	-6	0.029	-2e-05	0
1715	-6	0.03	-4e-05	0	-6	0.03	-4e-05	0
1716	-6	0.03	-2e-05	0	-6	0.03	-2e-05	0
1717	-6	0.031	-4e-05	0	-6	0.031	-4e-05	0
1718	-6	0.031	-2e-05	0	-6	0.031	-2e-05	0
1719	-6	0.032	-4e-05	0	-6	0.032	-4e-05	0
1720	-6	0.033	-4e-05	0	-6	0.033	-4e-05	0
1721	-6	0.034	-4e-05	0	-6	0.034	-4e-05	0
1722	-6	0.035	-4e-05	0	-6	0.035	-4e-05	0
1723	-6	0.036	-4e-05	0	-6	0.036	-4e-05	0
1724	-6	0.037	-4e-05	0	-6	0.037	-4e-05	0
1725	-6	0.038	-4e-05	0	-6	0.038	-4e-05	0
1726	-6	0.039	-4e-05	0	-6	0.039	-4e-05	0
1727	-6	0.04	-4e-05	0	-6	0.04	-4e-05	0
1728	-6	0.041	-4e-05	0	-6	0.041	-4e-05	0
1729	-6	0.042	-4e-05	0	-6	0.042	-4e-05	0
1730	-6	0.043	-4e-05	0	-6	0.043	-4e-05	0
1731	-6	0.048	-6e-05	0	-6	0.048	-6e-05	0
1732	-6	0.049	-6e-05	0	-6	0.049	-6e-05	0
1733	-6	0.05	-6e-05	0	-6	0.05	-6e-05	0
1734	-5.5	0.008	0	0	-5.5	0.008	0	0
1735	-5.5	0.009	0	0	-5.5	0.009	0	0
1736	-5.5	0.01	0	0	-5.5	0.01	0	0
1737	-5.5	0.011	0	0	-5.5	0.011	0	0
1738	-5.5	0.012	0	0	-5.5	0.012	0	0
1739	-5.5	0.013	-2e-05	0	-5.5	0.013	-2e-05	0
1740	-5.5	0.013	0	0	-5.5	0.013	0	0
1741	-5.5	0.014	-2e-05	0	-5.5	0.014	-2e-05	0
1742	-5.5	0.014	0	0	-5.5	0.014	0	0
1743	-5.5	0.015	-2e-05	0	-5.5	0.015	-2e-05	0
1744	-5.5	0.015	0	0	-5.5	0.015	0	0
1745	-5.5	0.016	-2e-05	0	-5.5	0.016	-2e-05	0
1746	-5.5	0.016	0	0	-5.5	0.016	0	0
1747	-5.5	0.017	-2e-05	0	-5.5	0.017	-2e-05	0
1748	-5.5	0.017	0	0	-5.5	0.017	0	0
1749	-5.5	0.018	-2e-05	0	-5.5	0.018	-2e-05	0
1750	-5.5	0.019	-2e-05	0	-5.5	0.019	-2e-05	0
1751	-5.5	0.02	-2e-05	0	-5.5	0.02	-2e-05	0
1752	-5.5	0.021	-2e-05	0	-5.5	0.021	-2e-05	0
1753	-5.5	0.022	-2e-05	0	-5.5	0.022	-2e-05	0
1754	-5.5	0.023	-2e-05	0	-5.5	0.023	-2e-05	0
1755	-5.5	0.024	-2e-05	0	-5.5	0.024	-2e-05	0
1756	-5.5	0.025	-2e-05	0	-5.5	0.025	-2e-05	0
1757	-5.5	0.026	-2e-05	0	-5.5	0.026	-2e-05	0
1758	-5.5	0.027	-2e-05	0	-5.5	0.027	-2e-05	0
1759	-5.5	0.028	-4e-05	0	-5.5	0.028	-4e-05	0
1760	-5.5	0.028	-2e-05	0	-5.5	0.028	-2e-05	0
1761	-5.5	0.029	-4e-05	0	-5.5	0.029	-4e-05	0
1762	-5.5	0.029	-2e-05	0	-5.5	0.029	-2e-05	0
1763	-5.5	0.03	-4e-05	0	-5.5	0.03	-4e-05	0
1764	-5.5	0.03	-2e-05	0	-5.5	0.03	-2e-05	0
1765	-5.5	0.031	-4e-05	0	-5.5	0.031	-4e-05	0
1766	-5.5	0.032	-4e-05	0	-5.5	0.032	-4e-05	0
1767	-5.5	0.033	-4e-05	0	-5.5	0.033	-4e-05	0
1768	-5.5	0.034	-4e-05	0	-5.5	0.034	-4e-05	0
1769	-5.5	0.035	-4e-05	0	-5.5	0.035	-4e-05	0
1770	-5.5	0.036	-4e-05	0	-5.5	0.036	-4e-05	0
1771	-5.5	0.037	-4e-05	0	-5.5	0.037	-4e-05	0
1772	-5.5	0.038	-4e-05	0	-5.5	0.038	-4e-05	0
1773	-5.5	0.039	-4e-05	0	-5.5	0.039	-4e-05	0
1774	-5.5	0.04	-4e-05	0	-5.5	0.04	-4e-05	0
1775	-5.5	0.041	-4e-05	0	-5.5	0.041	-4e-05	0
1776	-5.5	0.042	-4e-05	0	-5.5	0.042	-4e-05	0
1777	-5.5	0.047	-6e-05	0	-5.5	0.047	-6e-05	0
1778	-5.5	0.048	-6e-05	0	-5.5	0.048	-6e-05	0
1779	-5	0.005	0	0	-5	0.005	0	0
1780	-5	0.006	0	0	-5	0.006	0	0
1781	-5	0.007	0	0	-5	0.007	0	0
1782	-5	0.008	0	0	-5	0.008	0	0
1783	-5	0.009	0	0	-5	0.009	0	0
1784	-5	0.01	0	0	-5	0.01	0	0
1785	-5	0.011	0	0	-5	0.011	0	0
1786	-5	0.012	-2e-05	0	-5	0.012	-2e-05	0
1787	-5	0.012	0	0	-5	0.012	0	0
1788	-5	0.013	-2e-05	0	-5	0.013	-2e-05	0
1789	-5	0.013	0	0	-5	0.013	0	0
1790	-5	0.014	-2e-05	0	-5	0.014	-2e-05	0
1791	-5	0.014	0	0	-5	0.014	0	0
1792	-5	0.015	-2e-05	0	-5	0.015	-2e-05	0
1793	-5	0.015	0	0	-5	0.015	0	0
1794	-5	0.016	-2e-05	0	-5	0.016	-2e-05	0
1795	-5	0.016	0	0	-5	0.016	0	0
1796	-5	0.017	-2e-05	0	-5	0.017	-2e-05	0
1797	-5	0.017	0	0	-5	0.017	0	0
1798	-5	0.018	-2e-05	0	-5	0.018	-2e-05	0
1799	-5	0.019	-2e-05	0	-5	0.019	-2e-05	0
1800	-5	0.02	-2e-05	0	-5	0.02	-2e-05	0
1801	-5	0.021	-2e-05	0	-5	0.021	-2e-05	0
1802	-5	0.022	-2e-05	0	-5	0.022	-2e-05	0
1803	-5	0.023	-2e-05	0	-5	0.023	-2e-05	0
1804	-5	0.024	-2e-05	0	-5	0.024	-2e-05	0
1805	-5	0.025	-2e-05	0	-5	0.025	-2e-05	0
1806	-5	0.026	-2e-05	0	-5	0.026	-2e-05	0
1807	-5	0.027	-4e-05	0	-5	0.027	-4e-05	0
1808	-5	0.027	-2e-05	0	-5	0.027	-2e-05	0
1809	-5	0.028	-4e-05	0	-5	0.028	-4e-05	0
1810	-5	0.028	-2e-05	0	-5	0.028	-2e-05	0
1811	-5	0.029	-4e-05	0	-5	0.029	-4e-05	0
1812	-5	0.029	-2e-05	0	-5	0.029	-2e-05	0
1813	-5	0.03	-4e-05	0	-5	0.03	-4e-05	0
1814	-5	0.031	-4e-05	0	-5	0.031	-4e-05	0
1815	-5	0.032	-4e-05	0	-5	0.032	-4e-05	0
1816	-5	0.033	-4e-05	0	-5	0.033	-4e-05	0
1817	-5	0.034	-4e-05	0	-5	0.034	-4e-05	0
1818	-5	0.035	-4e-05	0	-5	0.035	-4e-05	0
1819	-5	0.036	-4e-05	0	-5	0.036	-4e-05	0
1820	-5	0.037	-4e-05	0	-5	0.037	-4e-05	0
1821	-5	0.038	-4e-05	0	-5	0.038	-4e-05	0
1822	-5	0.039	-4e-05	0	-5	0.039	-4e-05	0
1823	-5	0.04	-4e-05	0	-5	0.04	-4e-05	0
1824	-5	0.047	-6e-05	0	-5	0.047	-6e-05	0
1825	-4.5	-0.001	2e-05	0	-4.5	-0.001	2e-05	0
1826	-4.5	0	2e-05	0	-4.5	0	2e-05	0
1827	-4.5	0.001	2e-05	0	-4.5	0.001	2e-05	0
1828	-4.5	0.003	0	0	-4.5	0.003	0	0
1829	-4.5	0.004	0	0	-4.5	0.004	0	0
1830	-4.5	0.005	0	0	-4.5	0.005	0	0
1831	-4.5	0.006	0	0	-4.5	0.006	0	0
1832	-4.5	0.007	0	0	-4.5	0.007	0	0
1833	-4.5	0.008	0	0	-4.5	0.008	0	0
1834	-4.5	0.009	0	0	-4.5	0.009	0	0
1835	-4.5	0.01	0	0	-4.5	0.01	0	0
1836	-4.5	0.011	-2e-05	0	-4.5	0.011	-2e-05	0
1837	-4.5	0.011	0	0	-4.5	0.011	0	0
1838	-4.5	0.012	-2e-05	0	-4.5	0.012	-2e-05	0
1839	-4.5	0.012	0	0	-4.5	0.012	0	0
1840	-4.5	0.013	-2e-05	0	-4.5	0.013	-2e-05	0
1841	-4.5	0.013	0	0	-4.5	0.013	0	0
1842	-4.5	0.014	-2e-05	0	-4.5	0.014	-2e-05	0
1843	-4.5	0.014	0	0	-4.5	0.014	0	0
1844	-4.5	0.015	-2e-05	0	-4.5	0.015	-2e-05	0
1845	-4.5	0.015	0	0	-4.5	0.015	0	0
1846	-4.5	0.016	-2e-05	0	-4.5	0.016	-2e-05	0
1847	-4.5	0.016	0	0	-4.5	0.016	0	0
1848	-4.5	0.017	-2e-05	0	-4.5	0.017	-2e-05	0
1849	-4.5	0.018	-2e-05	0	-4.5	0.018	-2e-05	0
1850	-4.5	0.019	-2e-05	0	-4.5	0.019	-2e-05	0
1851	-4.5	0.02	-2e-05	0	-4.5	0.02	-2e-05	0
1852	-4.5	0.021	-2e-05	0	-4.5	0.021	-2e-05	0
1853	-4.5	0.022	-2e-05	0	-4.5	0.022	-2e-05	0
1854	-4.5	0.023	-2e-05	0	-4.5	0.023	-2e-05	0
1855	-4.5	0.024	-2e-05	0	-4.5	0.024	-2e-05	0
1856	-4.5	0.025	-2e-05	0	-4.5	0.025	-2e-05	0
1857	-4.5	0.026	-2e-05	0	-4.5	0.026	-2e-05	0
1858	-4.5	0.027	-4e-05	0	-4.5	0.027	-4e-05	0
1859	-4.5	0.027	-2e-05	0	-4.5	0.027	-2e-05	0
1860	-4.5	0.028	-4e-05	0	-4.5	0.028	-4e-05	0
1861	-4.5	0.028	-2e-05	0	-4.5	0.028	-2e-05	0
1862	-4.5	0.029	-4e-05	0	-4.5	0.029	-4e-05	0
1863	-4.5	0.029	-2e-05	0	-4.5	0.029	-2e-05	0
1864	-4.5	0.03	-4e-05	0	-4.5	0.03	-4e-05	0
1865	-4.5	0.031	-4e-05	0	-4.5	0.031	-4e-05	0
1866	-4.5	0.032	-4e-05	0	-4.5	0.032	-4e-05	0
1867	-4.5	0.033	-4e-05	0	-4.5	0.033	-4e-05	0
1868	-4.5	0.034	-4e-05	0	-4.5	0.034	-4e-05	0
1869	-4.5	0.035	-4e-05	0	-4.5	0.035	-4e-05	0
1870	-4.5	0.036	-4e-05	0	-4.5	0.036	-4e-05	0
1871	-4.5	0.037	-4e-05	0	-4.5	0.037	-4e-05	0
1872	-4.5	0.038	-4e-05	0	-4.5	0.038	-4e-05	0
1873	-4.5	0.039	-4e-05	0	-4.5	0.039	-4e-05	0
1874	-4	-0.004	2e-05	0	-4	-0.004	2e-05	0
1875	-4	-0.003	2e-05	0	-4	-0.003	2e-05	0
1876	-4	-0.002	2e-05	0	-4	-0.002	2e-05	0
1877	-4	-0.001	2e-05	0	-4	-0.001	2e-05	0
1878	-4	0	2e-05	0	-4	0	2e-05	0
1879	-4	0.001	0	0	-4	0.001	0	0
1880	-4	0.002	0	0	-4	0.002	0	0
1881	-4	0.003	0	0	-4	0.003	0	0
1882	-4	0.004	0	0	-4	0.004	0	0
1883	-4	0.005	0	0	-4	0.005	0	0
1884	-4	0.006	0	0	-4	0.006	0	0
1885	-4	0.007	0	0	-4	0.007	0	0
1886	-4	0.008	0	0	-4	0.008	0	0
1887	-4	0.009	0	0	-4	0.009	0	0
1888	-4	0.01	-2e-05	0	-4	0.01	-2e-05	0
1889	-4	0.01	0	0	-4	0.01	0	0
1890	-4	0.011	-2e-05	0	-4	0.011	-2e-05	0
1891	-4	0.011	0	0	-4	0.011	0	0
1892	-4	0.012	-2e-05	0	-4	0.012	-2e-05	0
1893	-4	0.012	0	0	-4	0.012	0	0
1894	-4	0.013	-2e-05	0	-4	0.013	-2e-05	0
1895	-4	0.013	0	0	-4	0.013	0	0
1896	-4	0.014	-2e-05	0	-4	0.014	-2e-05	0
1897	-4	0.014	0	0	-4	0.014	0	0
1898	-4	0.015	-2e-05	0	-4	0.015	-2e-05	0
1899	-4	0.015	0	0	-4	0.015	0	0
1900	-4	0.016	-2e-05	0	-4	0.016	-2e-05	0
1901	-4	0.017	-2e-05	0	-4	0.017	-2e-05	0
1902	-4	0.018	-2e-05	0	-4	0.018	-2e-05	0
1903	-4	0.019	-2e-05	0	-4	0.019	-2e-05	0
1904	-4	0.02	-2e-05	0	-4	0.02	-2e-05	0
1905	-4	0.021	-2e-05	0	-4	0.021	-2e-05	0
1906	-4	0.022	-2e-05	0	-4	0.022	-2e-05	0
1907	-4	0.023	-2e-05	0	-4	0.023	-2e-05	0
1908	-4	0.024	-2e-05	0	-4	0.024	-2e-05	0
1909	-4	0.025	-2e-05	0	-4	0.025	-2e-05	0
1910	-4	0.026	-4e-05	0	-4	0.026	-4e-05	0
1911	-4	0.026	-2e-05	0	-4	0.026	-2e-05	0
1912	-4	0.027	-4e-05	0	-4	0.027	-4e-05	0
1913	-4	0.027	-2e-05	0	-4	0.027	-2e-05	0
1914	-4	0.028	-4e-05	0	-4	0.028	-4e-05	0
1915	-4	0.028	-2e-05	0	-4	0.028	-2e-05	0
1916	-4	0.029	-4e-05	0	-4	0.029	-4e-05	0
1917	-4	0.03	-4e-05	0	-4	0.03	-4e-05	0
1918	-4	0.031	-4e-05	0	-4	0.031	-4e-05	0
1919	-4	0.032	-4e-05	0	-4	0.032	-4e-05	0
1920	-4	0.033	-4e-05	0	-4	0.033	-4e-05	0
1921	-4	0.034	-4e-05	0	-4	0.034	-4e-05	0
1922	-4	0.035	-4e-05	0	-4	0.035	-4e-05	0
1923	-4	0.036	-4e-05	0	-4	0.036	-4e-05	0
1924	-4	0.037	-4e-05	0	-4	0.037	-4e-05	0
1925	-3.5	-0.006	2e-05	0	-3.5	-0.006	2e-05	0
1926	-3.5	-0.005	2e-05	0	-3.5	-0.005	2e-05	0
1927	-3.5	-0.004	2e-05	0	-3.5	-0.004	2e-05	0
1928	-3.5	-0.003	2e-05	0	-3.5	-0.003	2e-05	0
1929	-3.5	-0.002	2e-05	0	-3.5	-0.002	2e-05	0
1930	-3.5	-0.001	0	0	-3.5	-0.001	0	0
1931	-3.5	-0.001	2e-05	0	-3.5	-0.001	2e-05	0
1932	-3.5	0	0	0	-3.5	0	0	0
1933	-3.5	0	2e-05	0	-3.5	0	2e-05	0
1934	-3.5	0.001	0	0	-3.5	0.001	0	0
1935	-3.5	0.002	0	0	-3.5	0.002	0	0
1936	-3.5	0.003	0	0	-3.5	0.003	0	0
1937	-3.5	0.004	0	0	-3.5	0.004	0	0
1938	-3.5	0.005	0	0	-3.5	0.005	0	0
1939	-3.5	0.006	0	0	-3.5	0.006	0	0
1940	-3.5	0.007	0	0	-3.5	0.007	0	0
1941	-3.5	0.008	0	0	-3.5	0.008	0	0
1942	-3.5	0.009	0	0	-3.5	0.009	0	0
1943	-3.5	0.01	-2e-05	0	-3.5	0.01	-2e-05	0
1944	-3.5	0.01	0	0	-3.5	0.01	0	0
1945	-3.5	0.011	-2e-05	0	-3.5	0.011	-2e-05	0
1946	-3.5	0.011	0	0	-3.5	0.011	0	0
1947	-3.5	0.012	-2e-05	0	-3.5	0.012	-2e-05	0
1948	-3.5	0.012	0	0	-3.5	0.012	0	0
1949	-3.5	0.013	-2e-05	0	-3.5	0.013	-2e-05	0
1950	-3.5	0.013	0	0	-3.5	0.013	0	0
1951	-3.5	0.014	-2e-05	0	-3.5	0.014	-2e-05	0
1952	-3.5	0.014	0	0	-3.5	0.014	0	0
1953	-3.5	0.015	-2e-05	0	-3.5	0.015	-2e-05	0
1954	-3.5	0.016	-2e-05	0	-3.5	0.016	-2e-05	0
1955	-3.5	0.017	-2e-05	0	-3.5	0.017	-2e-05	0
1956	-3.5	0.018	-2e-05	0	-3.5	0.018	-2e-05	0
1957	-3.5	0.019	-2e-05	0	-3.5	0.019	-2e-05	0
1958	-3.5	0.02	-2e-05	0	-3.5	0.02	-2e-05	0
1959	-3.5	0.021	-2e-05	0	-3.5	0.021	-2e-05	0
1960	-3.5	0.022	-2e-05	0	-3.5	0.022	-2e-05	0
1961	-3.5	0.023	-2e-05	0	-3.5	0.023	-2e-05	0
1962	-3.5	0.024	-2e-05	0	-3.5	0.024	-2e-05	0
1963	-3.5	0.025	-2e-05	0	-3.5	0.025	-2e-05	0
1964	-3.5	0.026	-4e-05	0	-3.5	0.026	-4e-05	0
1965	-3.5	0.026	-2e-05	0	-3.5	0.026	-2e-05	0
1966	-3.5	0.027	-4e-05	0	-3.5	0.027	-4e-05	0
1967	-3.5	0.027	-2e-05	0	-3.5	0.027	-2e-05	0
1968	-3.5	0.028	-4e-05	0	-3.5	0.028	-4e-05	0
1969	-3.5	0.029	-4e-05	0	-3.5	0.029	-4e-05	0
1970	-3.5	0.03	-4e-05	0	-3.5	0.03	-4e-05	0
1971	-3.5	0.031	-4e-05	0	-3.5	0.031	-4e-05	0
1972	-3.5	0.032	-4e-05	0	-3.5	0.032	-4e-05	0
1973	-3.5	0.033	-4e-05	0	-3.5	0.033	-4e-05	0
1974	-3.5	0.034	-4e-05	0	-3.5	0.034	-4e-05	0
1975	-3.5	0.035	-4e-05	0	-3.5	0.035	-4e-05	0
1976	-3.5	0.036	-4e-05	0	-3.5	0.036	-4e-05	0
1977	-3	-0.008	2e-05	0	-3	-0.008	2e-05	0
1978	-3	-0.007	2e-05	0	-3	-0.007	2e-05	0
1979	-3	-0.006	2e-05	0	-3	-0.006	2e-05	0
1980	-3	-0.005	2e-05	0	-3	-0.005	2e-05	0
1981	-3	-0.004	2e-05	0	-3	-0.004	2e-05	0
1982	-3	-0.003	0	0	-3	-0.003	0	0
1983	-3	-0.003	2e-05	0	-3	-0.003	2e-05	0
1984	-3	-0.002	0	0	-3	-0.002	0	0
1985	-3	-0.002	2e-05	0	-3	-0.002	2e-05	0
1986	-3	-0.001	0	0	-3	-0.001	0	0
1987	-3	-0.001	2e-05	0	-3	-0.001	2e-05	0
1988	-3	0	0	0	-3	0	0	0
1989	-3	0.001	0	0	-3	0.001	0	0
1990	-3	0.002	0	0	-3	0.002	0	0
1991	-3	0.003	0	0	-3	0.003	0	0
1992	-3	0.004	0	0	-3	0.004	0	0
1993	-3	0.005	0	0	-3	0.005	0	0
1994	-3	0.006	0	0	-3	0.006	0	0
1995	-3	0.007	0	0	-3	0.007	0	0
1996	-3	0.008	0	0	-3	0.008	0	0
1997	-3	0.009	-2e-05	0	-3	0.009	-2e-05	0
1998	-3	0.009	0	0	-3	0.009	0	0
1999	-3	0.01	-2e-05	0	-3	0.01	-2e-05	0
2000	-3	0.01	0	0	-3	0.01	0	0
2001	-3	0.011	-2e-05	0	-3	0.011	-2e-05	0
2002	-3	0.011	0	0	-3	0.011	0	0
2003	-3	0.012	-2e-05	0	-3	0.012	-2e-05	0
2004	-3	0.012	0	0	-3	0.012	0	0
2005	-3	0.013	-2e-05	0	-3	0.013	-2e-05	0
2006	-3	0.013	0	0	-3	0.013	0	0
2007	-3	0.014	-2e-05	0	-3	0.014	-2e-05	0
2008	-3	0.014	0	0	-3	0.014	0	0
2009	-3	0.015	-2e-05	0	-3	0.015	-2e-05	0
2010	-3	0.016	-2e-05	0	-3	0.016	-2e-05	0
2011	-3	0.017	-2e-05	0	-3	0.017	-2e-05	0
2012	-3	0.018	-2e-05	0	-3	0.018	-2e-05	0
2013	-3	0.019	-2e-05	0	-3	0.019	-2e-05	0
2014	-3	0.02	-2e-05	0	-3	0.02	-2e-05	0
2015	-3	0.021	-2e-05	0	-3	0.021	-2e-05	0
2016	-3	0.022	-2e-05	0	-3	0.022	-2e-05	0
2017	-3	0.023	-2e-05	0	-3	0.023	-2e-05	0
2018	-3	0.024	-2e-05	0	-3	0.024	-2e-05	0
2019	-3	0.025	-4e-05	0	-3	0.025	-4e-05	0
2020	-3	0.025	-2e-05	0	-3	0.025	-2e-05	0
2021	-3	0.026	-4e-05	0	-3	0.026	-4e-05	0
2022	-3	0.026	-2e-05	0	-3	0.026	-2e-05	0
2023	-3	0.027	-4e-05	0	-3	0.027	-4e-05	0
2024	-3	0.028	-4e-05	0	-3	0.028	-4e-05	0
2025	-3	0.029	-4e-05	0	-3	0.029	-4e-05	0
2026	-3	0.03	-4e-05	0	-3	0.03	-4e-05	0
2027	-3	0.031	-4e-05	0	-3	0.031	-4e-05	0
2028	-3	0.032	-4e-05	0	-3	0.032	-4e-05	0
2029	-3	0.033	-4e-05	0	-3	0.033	-4e-05	0
2030	-3	0.034	-4e-05	0	-3	0.034	-4e-05	0
2031	-2.5	-0.01	2e-05	0	-2.5	-0.01	2e-05	0
2032	-2.5	-0.009	2e-05	0	-2.5	-0.009	2e-05	0
2033	-2.5	-0.008	2e-05	0	-2.5	-0.008	2e-05	0
2034	-2.5	-0.007	2e-05	0	-2.5	-0.007	2e-05	0
2035	-2.5	-0.006	2e-05	0	-2.5	-0.006	2e-05	0
2036	-2.5	-0.005	2e-05	0	-2.5	-0.005	2e-05	0
2037	-2.5	-0.004	0	0	-2.5	-0.004	0	0
2038	-2.5	-0.004	2e-05	0	-2.5	-0.004	2e-05	0
2039	-2.5	-0.003	0	0	-2.5	-0.003	0	0
2040	-2.5	-0.003	2e-05	0	-2.5	-0.003	2e-05	0
2041	-2.5	-0.002	0	0	-2.5	-0.002	0	0
2042	-2.5	-0.002	2e-05	0	-2.5	-0.002	2e-05	0
2043	-2.5	-0.001	0	0	-2.5	-0.001	0	0
2044	-2.5	0	0	0	-2.5	0	0	0
2045	-2.5	0.001	0	0	-2.5	0.001	0	0
2046	-2.5	0.002	0	0	-2.5	0.002	0	0
2047	-2.5	0.003	0	0	-2.5	0.003	0	0
2048	-2.5	0.004	0	0	-2.5	0.004	0	0
2049	-2.5	0.005	0	0	-2.5	0.005	0	0
2050	-2.5	0.006	0	0	-2.5	0.006	0	0
2051	-2.5	0.007	0	0	-2.5	0.007	0	0
2052	-2.5	0.008	-2e-05	0	-2.5	0.008	-2e-05	0
2053	-2.5	0.008	0	0	-2.5	0.008	0	0
2054	-2.5	0.009	-2e-05	0	-2.5	0.009	-2e-05	0
2055	-2.5	0.009	0	0	-2.5	0.009	0	0
2056	-2.5	0.01	-2e-05	0	-2.5	0.01	-2e-05	0
2057	-2.5	0.01	0	0	-2.5	0.01	0	0
2058	-2.5	0.011	-2e-05	0	-2.5	0.011	-2e-05	0
2059	-2.5	0.011	0	0	-2.5	0.011	0	0
2060	-2.5	0.012	-2e-05	0	-2.5	0.012	-2e-05	0
2061	-2.5	0.012	0	0	-2.5	0.012	0	0
2062	-2.5	0.013	-2e-05	0	-2.5	0.013	-2e-05	0
2063	-2.5	0.013	0	0	-2.5	0.013	0	0
2064	-2.5	0.014	-2e-05	0	-2.5	0.014	-2e-05	0
2065	-2.5	0.015	-2e-05	0	-2.5	0.015	-2e-05	0
2066	-2.5	0.016	-2e-05	0	-2.5	0.016	-2e-05	0
2067	-2.5	0.017	-2e-05	0	-2.5	0.017	-2e-05	0
2068	-2.5	0.018	-2e-05	0	-2.5	0.018	-2e-05	0
2069	-2.5	0.019	-2e-05	0	-2.5	0.019	-2e-05	0
2070	-2.5	0.02	-2e-05	0	-2.5	0.02	-2e-05	0
2071	-2.5	0.021	-2e-05	0	-2.5	0.021	-2e-05	0
2072	-2.5	0.022	-2e-05	0	-2.5	0.022	-2e-05	0
2073	-2.5	0.023	-2e-05	0	-2.5	0.023	-2e-05	0
2074	-2.5	0.024	-2e-05	0	-2.5	0.024	-2e-05	0
2075	-2.5	0.025	-4e-05	0	-2.5	0.025	-4e-05	0
2076	-2.5	0.025	-2e-05	0	-2.5	0.025	-2e-05	0
2077	-2.5	0.026	-4e-05	0	-2.5	0.026	-4e-05	0
2078	-2.5	0.027	-4e-05	0	-2.5	0.027	-4e-05	0
2079	-2.5	0.028	-4e-05	0	-2.5	0.028	-4e-05	0
2080	-2.5	0.029	-4e-05	0	-2.5	0.029	-4e-05	0
2081	-2.5	0.03	-4e-05	0	-2.5	0.03	-4e-05	0
2082	-2.5	0.031	-4e-05	0	-2.5	0.031	-4e-05	0
2083	-2.5	0.032	-4e-05	0	-2.5	0.032	-4e-05	0
2084	-2.5	0.033	-4e-05	0	-2.5	0.033	-4e-05	0
2085	-2	-0.012	2e-05	0	-2	-0.012	2e-05	0
2086	-2	-0.011	2e-05	0	-2	-0.011	2e-05	0
2087	-2	-0.01	2e-05	0	-2	-0.01	2e-05	0
2088	-2	-0.009	2e-05	0	-2	-0.009	2e-05	0
2089	-2	-0.008	2e-05	0	-2	-0.008	2e-05	0
2090	-2	-0.007	2e-05	0	-2	-0.007	2e-05	0
2091	-2	-0.006	0	0	-2	-0.006	0	0
2092	-2	-0.006	2e-05	0	-2	-0.006	2e-05	0
2093	-2	-0.005	0	0	-2	-0.005	0	0
2094	-2	-0.005	2e-05	0	-2	-0.005	2e-05	0
2095	-2	-0.004	0	0	-2	-0.004	0	0
2096	-2	-0.004	2e-05	0	-2	-0.004	2e-05	0
2097	-2	-0.003	0	0	-2	-0.003	0	0
2098	-2	-0.003	2e-05	0	-2	-0.003	2e-05	0
2099	-2	-0.002	0	0	-2	-0.002	0	0
2100	-2	-0.002	2e-05	0	-2	-0.002	2e-05	0
2101	-2	-0.001	0	0	-2	-0.001	0	0
2102	-2	0	0	0	-2	0	0	0
2103	-2	0.001	0	0	-2	0.001	0	0
2104	-2	0.002	0	0	-2	0.002	0	0
2105	-2	0.003	0	0	-2	0.003	0	0
2106	-2	0.004	0	0	-2	0.004	0	0
2107	-2	0.005	0	0	-2	0.005	0	0
2108	-2	0.006	0	0	-2	0.006	0	0
2109	-2	0.007	0	0	-2	0.007	0	0
2110	-2	0.008	-2e-05	0	-2	0.008	-2e-05	0
2111	-2	0.008	0	0	-2	0.008	0	0
2112	-2	0.009	-2e-05	0	-2	0.009	-2e-05	0
2113	-2	0.009	0	0	-2	0.009	0	0
2114	-2	0.01	-2e-05	0	-2	0.01	-2e-05	0
2115	-2	0.01	0	0	-2	0.01	0	0
2116	-2	0.011	-2e-05	0	-2	0.011	-2e-05	0
2117	-2	0.011	0	0	-2	0.011	0	0
2118	-2	0.012	-2e-05	0	-2	0.012	-2e-05	0
2119	-2	0.012	0	0	-2	0.012	0	0
2120	-2	0.013	-2e-05	0	-2	0.013	-2e-05	0
2121	-2	0.014	-2e-05	0	-2	0.014	-2e-05	0
2122	-2	0.015	-2e-05	0	-2	0.015	-2e-05	0
2123	-2	0.016	-2e-05	0	-2	0.016	-2e-05	0
2124	-2	0.017	-2e-05	0	-2	0.017	-2e-05	0
2125	-2	0.018	-2e-05	0	-2	0.018	-2e-05	0
2126	-2	0.019	-2e-05	0	-2	0.019	-2e-05	0
2127	-2	0.02	-2e-05	0	-2	0.02	-2e-05	0
2128	-2	0.021	-2e-05	0	-2	0.021	-2e-05	0
2129	-2	0.022	-2e-05	0	-2	0.022	-2e-05	0
2130	-2	0.023	-2e-05	0	-2	0.023	-2e-05	0
2131	-2	0.024	-4e-05	0	-2	0.024	-4e-05	0
2132	-2	0.024	-2e-05	0	-2	0.024	-2e-05	0
2133	-2	0.025	-4e-05	0	-2	0.025	-4e-05	0
2134	-2	0.025	-2e-05	0	-2	0.025	-2e-05	0
2135	-2	0.026	-4e-05	0	-2	0.026	-4e-05	0
2136	-2	0.027	-4e-05	0	-2	0.027	-4e-05	0
2137	-2	0.028	-4e-05	0	-2	0.028	-4e-05	0
2138	-2	0.029	-4e-05	0	-2	0.029	-4e-05	0
2139	-2	0.03	-4e-05	0	-2	0.03	-4e-05	0
2140	-2	0.031	-4e-05	0	-2	0.031	-4e-05	0
2141	-1.5	-0.014	2e-05	0	-1.5	-0.014	2e-05	0
2142	-1.5	-0.013	2e-05	0	-1.5	-0.013	2e-05	0
2143	-1.5	-0.012	2e-05	0	-1.5	-0.012	2e-05	0
2144	-1.5	-0.011	2e-05	0	-1.5	-0.011	2e-05	0
2145	-1.5	-0.01	2e-05	0	-1.5	-0.01	2e-05	0
2146	-1.5	-0.009	2e-05	0	-1.5	-0.009	2e-05	0
2147	-1.5	-0.008	2e-05	0	-1.5	-0.008	2e-05	0
2148	-1.5	-0.007	2e-05	0	-1.5	-0.007	2e-05	0
2149	-1.5	-0.006	0	0	-1.5	-0.006	0	0
2150	-1.5	-0.006	2e-05	0	-1.5	-0.006	2e-05	0
2151	-1.5	-0.005	0	0	-1.5	-0.005	0	0
2152	-1.5	-0.005	2e-05	0	-1.5	-0.005	2e-05	0
2153	-1.5	-0.004	0	0	-1.5	-0.004	0	0
2154	-1.5	-0.004	2e-05	0	-1.5	-0.004	2e-05	0
2155	-1.5	-0.003	0	0	-1.5	-0.003	0	0
2156	-1.5	-0.003	2e-05	0	-1.5	-0.003	2e-05	0
2157	-1.5	-0.002	0	0	-1.5	-0.002	0	0
2158	-1.5	-0.001	0	0	-1.5	-0.001	0	0
2159	-1.5	0	0	0	-1.5	0	0	0
2160	-1.5	0.001	0	0	-1.5	0.001	0	0
2161	-1.5	0.002	0	0	-1.5	0.002	0	0
2162	-1.5	0.003	0	0	-1.5	0.003	0	0
2163	-1.5	0.004	0	0	-1.5	0.004	0	0
2164	-1.5	0.005	0	0	-1.5	0.005	0	0
2165	-1.5	0.006	0	0	-1.5	0.006	0	0
2166	-1.5	0.007	-2e-05	0	-1.5	0.007	-2e-05	0
2167	-1.5	0.007	0	0	-1.5	0.007	0	0
2168	-1.5	0.008	-2e-05	0	-1.5	0.008	-2e-05	0
2169	-1.5	0.008	0	0	-1.5	0.008	0	0
2170	-1.5	0.009	-2e-05	0	-1.5	0.009	-2e-05	0
2171	-1.5	0.009	0	0	-1.5	0.009	0	0
2172	-1.5	0.01	-2e-05	0	-1.5	0.01	-2e-05	0
2173	-1.5	0.01	0	0	-1.5	0.01	0	0
2174	-1.5	0.011	-2e-05	0	-1.5	0.011	-2e-05	0
2175	-1.5	0.011	0	0	-1.5	0.011	0	0
2176	-1.5	0.012	-2e-05	0	-1.5	0.012	-2e-05	0
2177	-1.5	0.013	-2e-05	0	-1.5	0.013	-2e-05	0
2178	-1.5	0.014	-2e-05	0	-1.5	0.014	-2e-05	0
2179	-1.5	0.015	-2e-05	0	-1.5	0.015	-2e-05	0
2180	-1.5	0.016	-2e-05	0	-1.5	0.016	-2e-05	0
2181	-1.5	0.017	-2e-05	0	-1.5	0.017	-2e-05	0
2182	-1.5	0.018	-2e-05	0	-1.5	0.018	-2e-05	0
2183	-1.5	0.019	-2e-05	0	-1.5	0.019	-2e-05	0
2184	-1.5	0.02	-2e-05	0	-1.5	0.02	-2e-05	0
2185	-1.5	0.021	-2e-05	0	-1.5	0.021	-2e-05	0
2186	-1.5	0.022	-2e-05	0	-1.5	0.022	-2e-05	0
2187	-1.5	0.023	-2e-05	0	-1.5	0.023	-2e-05	0
2188	-1.5	0.024	-4e-05	0	-1.5	0.024	-4e-05	0
2189	-1.5	0.025	-4e-05	0	-1.5	0.025	-4e-05	0
2190	-1.5	0.026	-4e-05	0	-1.5	0.026	-4e-05	0
2191	-1.5	0.027	-4e-05	0	-1.5	0.027	-4e-05	0
2192	-1.5	0.028	-4e-05	0	-1.5	0.028	-4e-05	0
2193	-1.5	0.029	-4e-05	0	-1.5	0.029	-4e-05	0
2194	-1.5	0.03	-4e-05	0	-1.5	0.03	-4e-05	0
2195	-1	-0.021	4e-05	0	-1	-0.021	4e-05	0
2196	-1	-0.016	2e-05	0	-1	-0.016	2e-05	0
2197	-1	-0.015	2e-05	0	-1	-0.015	2e-05	0
2198	-1	-0.014	2e-05	0	-1	-0.014	2e-05	0
2199	-1	-0.013	2e-05	0	-1	-0.013	2e-05	0
2200	-1	-0.012	2e-05	0	-1	-0.012	2e-05	0
2201	-1	-0.011	2e-05	0	-1	-0.011	2e-05	0
2202	-1	-0.01	2e-05	0	-1	-0.01	2e-05	0
2203	-1	-0.009	2e-05	0	-1	-0.009	2e-05	0
2204	-1	-0.008	2e-05	0	-1	-0.008	2e-05	0
2205	-1	-0.007	0	0	-1	-0.007	0	0
2206	-1	-0.007	2e-05	0	-1	-0.007	2e-05	0
2207	-1	-0.006	0	0	-1	-0.006	0	0
2208	-1	-0.006	2e-05	0	-1	-0.006	2e-05	0
2209	-1	-0.005	0	0	-1	-0.005	0	0
2210	-1	-0.005	2e-05	0	-1	-0.005	2e-05	0
2211	-1	-0.004	0	0	-1	-0.004	0	0
2212	-1	-0.004	2e-05	0	-1	-0.004	2e-05	0
2213	-1	-0.003	0	0	-1	-0.003	0	0
2214	-1	-0.002	0	0	-1	-0.002	0	0
2215	-1	-0.001	0	0	-1	-0.001	0	0
2216	-1	0	0	0	-1	0	0	0
2217	-1	0.001	0	0	-1	0.001	0	0
2218	-1	0.002	0	0	-1	0.002	0	0
2219	-1	0.003	0	0	-1	0.003	0	0
2220	-1	0.004	0	0	-1	0.004	0	0
2221	-1	0.005	0	0	-1	0.005	0	0
2222	-1	0.006	-2e-05	0	-1	0.006	-2e-05	0
2223	-1	0.006	0	0	-1	0.006	0	0
2224	-1	0.007	-2e-05	0	-1	0.007	-2e-05	0
2225	-1	0.007	0	0	-1	0.007	0	0
2226	-1	0.008	-2e-05	0	-1	0.008	-2e-05	0
2227	-1	0.008	0	0	-1	0.008	0	0
2228	-1	0.009	-2e-05	0	-1	0.009	-2e-05	0
2229	-1	0.009	0	0	-1	0.009	0	0
2230	-1	0.01	-2e-05	0	-1	0.01	-2e-05	0
2231	-1	0.01	0	0	-1	0.01	0	0
2232	-1	0.011	-2e-05	0	-1	0.011	-2e-05	0
2233	-1	0.012	-2e-05	0	-1	0.012	-2e-05	0
2234	-1	0.013	-2e-05	0	-1	0.013	-2e-05	0
2235	-1	0.014	-2e-05	0	-1	0.014	-2e-05	0
2236	-1	0.015	-2e-05	0	-1	0.015	-2e-05	0
2237	-1	0.016	-2e-05	0	-1	0.016	-2e-05	0
2238	-1	0.017	-2e-05	0	-1	0.017	-2e-05	0
2239	-1	0.018	-2e-05	0	-1	0.018	-2e-05	0
2240	-1	0.019	-2e-05	0	-1	0.019	-2e-05	0
2241	-1	0.02	-2e-05	0	-1	0.02	-2e-05	0
2242	-1	0.021	-2e-05	0	-1	0.021	-2e-05	0
2243	-1	0.022	-2e-05	0	-1	0.022	-2e-05	0
2244	-1	0.023	-4e-05	0	-1	0.023	-4e-05	0
2245	-1	0.024	-4e-05	0	-1	0.024	-4e-05	0
2246	-1	0.025	-4e-05	0	-1	0.025	-4e-05	0
2247	-1	0.026	-4e-05	0	-1	0.026	-4e-05	0
2248	-1	0.027	-4e-05	0	-1	0.027	-4e-05	0
2249	-1	0.028	-4e-05	0	-1	0.028	-4e-05	0
2250	-0.5	-0.023	4e-05	0	-0.5	-0.023	4e-05	0
2251	-0.5	-0.022	4e-05	0	-0.5	-0.022	4e-05	0
2252	-0.5	-0.021	4e-05	0	-0.5	-0.021	4e-05	0
2253	-0.5	-0.017	2e-05	0	-0.5	-0.017	2e-05	0
2254	-0.5	-0.016	2e-05	0	-0.5	-0.016	2e-05	0
2255	-0.5	-0.015	2e-05	0	-0.5	-0.015	2e-05	0
2256	-0.5	-0.014	2e-05	0	-0.5	-0.014	2e-05	0
2257	-0.5	-0.013	2e-05	0	-0.5	-0.013	2e-05	0
2258	-0.5	-0.012	2e-05	0	-0.5	-0.012	2e-05	0
2259	-0.5	-0.011	2e-05	0	-0.5	-0.011	2e-05	0
2260	-0.5	-0.01	2e-05	0	-0.5	-0.01	2e-05	0
2261	-0.5	-0.009	2e-05	0	-0.5	-0.009	2e-05	0
2262	-0.5	-0.008	0	0	-0.5	-0.008	0	0
2263	-0.5	-0.008	2e-05	0	-0.5	-0.008	2e-05	0
2264	-0.5	-0.007	0	0	-0.5	-0.007	0	0
2265	-0.5	-0.007	2e-05	0	-0.5	-0.007	2e-05	0
2266	-0.5	-0.006	0	0	-0.5	-0.006	0	0
2267	-0.5	-0.006	2e-05	0	-0.5	-0.006	2e-05	0
2268	-0.5	-0.005	0	0	-0.5	-0.005	0	0
2269	-0.5	-0.005	2e-05	0	-0.5	-0.005	2e-05	0
2270	-0.5	-0.004	0	0	-0.5	-0.004	0	0
2271	-0.5	-0.004	2e-05	0	-0.5	-0.004	2e-05	0
2272	-0.5	-0.003	0	0	-0.5	-0.003	0	0
2273	-0.5	-0.002	0	0	-0.5	-0.002	0	0
2274	-0.5	-0.001	0	0	-0.5	-0.001	0	0
2275	-0.5	0	0	0	-0.5	0	0	0
2276	-0.5	0.001	0	0	-0.5	0.001	0	0
2277	-0.5	0.002	0	0	-0.5	0.002	0	0
2278	-0.5	0.003	0	0	-0.5	0.003	0	0
2279	-0.5	0.004	0	0	-0.5	0.004	0	0
2280	-0.5	0.005	0	0	-0.5	0.005	0	0
2281	-0.5	0.006	-2e-05	0	-0.5	0.006	-2e-05	0
2282	-0.5	0.006	0	0	-0.5	0.006	0	0
2283	-0.5	0.007	-2e-05	0	-0.5	0.007	-2e-05	0
2284	-0.5	0.007	0	0	-0.5	0.007	0	0
2285	-0.5	0.008	-2e-05	0	-0.5	0.008	-2e-05	0
2286	-0.5	0.008	0	0	-0.5	0.008	0	0
2287	-0.5	0.009	-2e-05	0	-0.5	0.009	-2e-05	0
2288	-0.5	0.009	0	0	-0.5	0.009	0	0
2289	-0.5	0.01	-2e-05	0	-0.5	0.01	-2e-05	0
2290	-0.5	0.01	0	0	-0.5	0.01	0	0
2291	-0.5	0.011	-2e-05	0	-0.5	0.011	-2e-05	0
2292	-0.5	0.012	-2e-05	0	-0.5	0.012	-2e-05	0
2293	-0.5	0.013	-2e-05	0	-0.5	0.013	-2e-05	0
2294	-0.5	0.014	-2e-05	0	-0.5	0.014	-2e-05	0
2295	-0.5	0.015	-2e-05	0	-0.5	0.015	-2e-05	0
2296	-0.5	0.016	-2e-05	0	-0.5	0.016	-2e-05	0
2297	-0.5	0.017	-2e-05	0	-0.5	0.017	-2e-05	0
2298	-0.5	0.018	-2e-05	0	-0.5	0.018	-2e-05	0
2299	-0.5	0.019	-2e-05	0	-0.5	0.019	-2e-05	0
2300	-0.5	0.02	-2e-05	0	-0.5	0.02	-2e-05	0
2301	-0.5	0.022	-4e-05	0	-0.5	0.022	-4e-05	0
2302	-0.5	0.023	-4e-05	0	-0.5	0.023	-4e-05	0
2303	-0.5	0.024	-4e-05	0	-0.5	0.024	-4e-05	0
2304	-0.5	0.025	-4e-05	0	-0.5	0.025	-4e-05	0
2305	-0.5	0.026	-4e-05	0	-0.5	0.026	-4e-05	0
2306	-0.5	0.027	-4e-05	0	-0.5	0.027	-4e-05	0
2307	0	-0.025	4e-05	0	0	-0.025	4e-05	0
2308	0	-0.024	4e-05	0	0	-0.024	4e-05	0
2309	0	-0.023	4e-05	0	0	-0.023	4e-05	0
2310	0	-0.022	4e-05	0	0	-0.022	4e-05	0
2311	0	-0.019	2e-05	0	0	-0.019	2e-05	0
2312	0	-0.018	2e-05	0	0	-0.018	2e-05	0
2313	0	-0.017	2e-05	0	0	-0.017	2e-05	0
2314	0	-0.016	2e-05	0	0	-0.016	2e-05	0
2315	0	-0.015	2e-05	0	0	-0.015	2e-05	0
2316	0	-0.014	2e-05	0	0	-0.014	2e-05	0
2317	0	-0.013	2e-05	0	0	-0.013	2e-05	0
2318	0	-0.012	2e-05	0	0	-0.012	2e-05	0
2319	0	-0.011	2e-05	0	0	-0.011	2e-05	0
2320	0	-0.01	2e-05	0	0	-0.01	2e-05	0
2321	0	-0.009	0	0	0	-0.009	0	0
2322	0	-0.009	2e-05	0	0	-0.009	2e-05	0
2323	0	-0.008	0	0	0	-0.008	0	0
2324	0	-0.008	2e-05	0	0	-0.008	2e-05	0
2325	0	-0.007	0	0	0	-0.007	0	0
2326	0	-0.007	2e-05	0	0	-0.007	2e-05	0
2327	0	-0.006	0	0	0	-0.006	0	0
2328	0	-0.006	2e-05	0	0	-0.006	2e-05	0
2329	0	-0.005	0	0	0	-0.005	0	0
2330	0	-0.005	2e-05	0	0	-0.005	2e-05	0
2331	0	-0.004	0	0	0	-0.004	0	0
2332	0	-0.003	0	0	0	-0.003	0	0
2333	0	-0.002	0	0	0	-0.002	0	0
2334	0	-0.001	0	0	0	-0.001	0	0
2335	0	0	0	0	0	0	0	0
2336	0	0.001	0	0	0	0.001	0	0
2337	0	0.002	0	0	0	0.002	0	0
2338	0	0.003	0	0	0	0.003	0	0
2339	0	0.004	0	0	0	0.004	0	0
2340	0	0.005	-2e-05	0	0	0.005	-2e-05	0
2341	0	0.005	0	0	0	0.005	0	0
2342	0	0.006	-2e-05	0	0	0.006	-2e-05	0
2343	0	0.006	0	0	0	0.006	0	0
2344	0	0.007	-2e-05	0	0	0.007	-2e-05	0
2345	0	0.007	0	0	0	0.007	0	0
2346	0	0.008	-2e-05	0	0	0.008	-2e-05	0
2347	0	0.008	0	0	0	0.008	0	0
2348	0	0.009	-2e-05	0	0	0.009	-2e-05	0
2349	0	0.009	0	0	0	0.009	0	0
2350	0	0.01	-2e-05	0	0	0.01	-2e-05	0
2351	0	0.011	-2e-05	0	0	0.011	-2e-05	0
2352	0	0.012	-2e-05	0	0	0.012	-2e-05	0
2353	0	0.013	-2e-05	0	0	0.013	-2e-05	0
2354	0	0.014	-2e-05	0	0	0.014	-2e-05	0
2355	0	0.015	-2e-05	0	0	0.015	-2e-05	0
2356	0	0.016	-2e-05	0	0	0.016	-2e-05	0
2357	0	0.017	-2e-05	0	0	0.017	-2e-05	0
2358	0	0.018	-2e-05	0	0	0.018	-2e-05	0
2359	0	0.019	-2e-05	0	0	0.019	-2e-05	0
2360	0	0.022	-4e-05	0	0	0.022	-4e-05	0
2361	0	0.023	-4e-05	0	0	0.023	-4e-05	0
2362	0	0.024	-4e-05	0	0	0.024	-4e-05	0
2363	0	0.025	-4e-05	0	0	0.025	-4e-05	0
2364	0.5	-0.027	4e-05	0	0.5	-0.027	4e-05	0
2365	0.5	-0.026	4e-05	0	0.5	-0.026	4e-05	0
2366	0.5	-0.025	4e-05	0	0.5	-0.025	4e-05	0
2367	0.5	-0.024	4e-05	0	0.5	-0.024	4e-05	0
2368	0.5	-0.023	4e-05	0	0.5	-0.023	4e-05	0
2369	0.5	-0.022	4e-05	0	0.5	-0.022	4e-05	0
2370	0.5	-0.02	2e-05	0	0.5	-0.02	2e-05	0
2371	0.5	-0.019	2e-05	0	0.5	-0.019	2e-05	0
2372	0.5	-0.018	2e-05	0	0.5	-0.018	2e-05	0
2373	0.5	-0.017	2e-05	0	0.5	-0.017	2e-05	0
2374	0.5	-0.016	2e-05	0	0.5	-0.016	2e-05	0
2375	0.5	-0.015	2e-05	0	0.5	-0.015	2e-05	0
2376	0.5	-0.014	2e-05	0	0.5	-0.014	2e-05	0
2377	0.5	-0.013	2e-05	0	0.5	-0.013	2e-05	0
2378	0.5	-0.012	2e-05	0	0.5	-0.012	2e-05	0
2379	0.5	-0.011	2e-05	0	0.5	-0.011	2e-05	0
2380	0.5	-0.01	0	0	0.5	-0.01	0	0
2381	0.5	-0.01	2e-05	0	0.5	-0.01	2e-05	0
2382	0.5	-0.009	0	0	0.5	-0.009	0	0
2383	0.5	-0.009	2e-05	0	0.5	-0.009	2e-05	0
2384	0.5	-0.008	0	0	0.5	-0.008	0	0
2385	0.5	-0.008	2e-05	0	0.5	-0.008	2e-05	0
2386	0.5	-0.007	0	0	0.5	-0.007	0	0
2387	0.5	-0.007	2e-05	0	0.5	-0.007	2e-05	0
2388	0.5	-0.006	0	0	0.5	-0.006	0	0
2389	0.5	-0.006	2e-05	0	0.5	-0.006	2e-05	0
2390	0.5	-0.005	0	0	0.5	-0.005	0	0
2391	0.5	-0.004	0	0	0.5	-0.004	0	0
2392	0.5	-0.003	0	0	0.5	-0.003	0	0
2393	0.5	-0.002	0	0	0.5	-0.002	0	0
2394	0.5	-0.001	0	0	0.5	-0.001	0	0
2395	0.5	0	0	0	0.5	0	0	0
2396	0.5	0.001	0	0	0.5	0.001	0	0
2397	0.5	0.002	0	0	0.5	0.002	0	0
2398	0.5	0.003	0	0	0.5	0.003	0	0
2399	0.5	0.004	-2e-05	0	0.5	0.004	-2e-05	0
2400	0.5	0.004	0	0	0.5	0.004	0	0
2401	0.5	0.005	-2e-05	0	0.5	0.005	-2e-05	0
2402	0.5	0.005	0	0	0.5	0.005	0	0
2403	0.5	0.006	-2e-05	0	0.5	0.006	-2e-05	0
2404	0.5	0.006	0	0	0.5	0.006	0	0
2405	0.5	0.007	-2e-05	0	0.5	0.007	-2e-05	0
2406	0.5	0.007	0	0	0.5	0.007	0	0
2407	0.5	0.008	-2e-05	0	0.5	0.008	-2e-05	0
2408	0.5	0.008	0	0	0.5	0.008	0	0
2409	0.5	0.009	-2e-05	0	0.5	0.009	-2e-05	0
2410	0.5	0.01	-2e-05	0	0.5	0.01	-2e-05	0
2411	0.5	0.011	-2e-05	0	0.5	0.011	-2e-05	0
2412	0.5	0.012	-2e-05	0	0.5	0.012	-2e-05	0
2413	0.5	0.013	-2e-05	0	0.5	0.013	-2e-05	0
2414	0.5	0.014	-2e-05	0	0.5	0.014	-2e-05	0
2415	0.5	0.015	-2e-05	0	0.5	0.015	-2e-05	0
2416	0.5	0.016	-2e-05	0	0.5	0.016	-2e-05	0
2417	0.5	0.017	-2e-05	0	0.5	0.017	-2e-05	0
2418	0.5	0.021	-4e-05	0	0.5	0.021	-4e-05	0
2419	0.5	0.022	-4e-05	0	0.5	0.022	-4e-05	0
2420	0.5	0.023	-4e-05	0	0.5	0.023	-4e-05	0
2421	1	-0.028	4e-05	0	1	-0.028	4e-05	0
2422	1	-0.027	4e-05	0	1	-0.027	4e-05	0
2423	1	-0.026	4e-05	0	1	-0.026	4e-05	0
2424	1	-0.025	4e-05	0	1	-0.025	4e-05	0
2425	1	-0.024	4e-05	0	1	-0.024	4e-05	0
2426	1	-0.023	4e-05	0	1	-0.023	4e-05	0
2427	1	-0.022	2e-05	0	1	-0.022	2e-05	0
2428	1	-0.021	2e-05	0	1	-0.021	2e-05	0
2429	1	-0.02	2e-05	0	1	-0.02	2e-05	0
2430	1	-0.019	2e-05	0	1	-0.019	2e-05	0
2431	1	-0.018	2e-05	0	1	-0.018	2e-05	0
2432	1	-0.017	2e-05	0	1	-0.017	2e-05	0
2433	1	-0.016	2e-05	0	1	-0.016	2e-05	0
2434	1	-0.015	2e-05	0	1	-0.015	2e-05	0
2435	1	-0.014	2e-05	0	1	-0.014	2e-05	0
2436	1	-0.013	2e-05	0	1	-0.013	2e-05	0
2437	1	-0.012	2e-05	0	1	-0.012	2e-05	0
2438	1	-0.011	2e-05	0	1	-0.011	2e-05	0
2439	1	-0.01	0	0	1	-0.01	0	0
2440	1	-0.01	2e-05	0	1	-0.01	2e-05	0
2441	1	-0.009	0	0	1	-0.009	0	0
2442	1	-0.009	2e-05	0	1	-0.009	2e-05	0
2443	1	-0.008	0	0	1	-0.008	0	0
2444	1	-0.008	2e-05	0	1	-0.008	2e-05	0
2445	1	-0.007	0	0	1	-0.007	0	0
2446	1	-0.007	2e-05	0	1	-0.007	2e-05	0
2447	1	-0.006	0	0	1	-0.006	0	0
2448	1	-0.006	2e-05	0	1	-0.006	2e-05	0
2449	1	-0.005	0	0	1	-0.005	0	0
2450	1	-0.004	0	0	1	-0.004	0	0
2451	1	-0.003	0	0	1	-0.003	0	0
2452	1	-0.002	0	0	1	-0.002	0	0
2453	1	-0.001	0	0	1	-0.001	0	0
2454	1	0	0	0	1	0	0	0
2455	1	0.001	0	0	1	0.001	0	0
2456	1	0.002	0	0	1	0.002	0	0
2457	1	0.003	0	0	1	0.003	0	0
2458	1	0.004	-2e-05	0	1	0.004	-2e-05	0
2459	1	0.004	0	0	1	0.004	0	0
2460	1	0.005	-2e-05	0	1	0.005	-2e-05	0
2461	1	0.005	0	0	1	0.005	0	0
2462	1	0.006	-2e-05	0	1	0.006	-2e-05	0
2463	1	0.006	0	0	1	0.006	0	0
2464	1	0.007	-2e-05	0	1	0.007	-2e-05	0
2465	1	0.007	0	0	1	0.007	0	0
2466	1	0.008	-2e-05	0	1	0.008	-2e-05	0
2467	1	0.009	-2e-05	0	1	0.009	-2e-05	0
2468	1	0.01	-2e-05	0	1	0.01	-2e-05	0
2469	1	0.011	-2e-05	0	1	0.011	-2e-05	0
2470	1	0.012	-2e-05	0	1	0.012	-2e-05	0
2471	1	0.013	-2e-05	0	1	0.013	-2e-05	0
2472	1	0.014	-2e-05	0	1	0.014	-2e-05	0
2473	1	0.015	-2e-05	0	1	0.015	-2e-05	0
2474	1	0.016	-2e-05	0	1	0.016	-2e-05	0
2475	1	0.021	-4e-05	0	1	0.021	-4e-05	0
2476	1.5	-0.03	4e-05	0	1.5	-0.03	4e-05	0
2477	1.5	-0.029	4e-05	0	1.5	-0.029	4e-05	0
2478	1.5	-0.028	4e-05	0	1.5	-0.028	4e-05	0
2479	1.5	-0.027	4e-05	0	1.5	-0.027	4e-05	0
2480	1.5	-0.026	4e-05	0	1.5	-0.026	4e-05	0
2481	1.5	-0.025	4e-05	0	1.5	-0.025	4e-05	0
2482	1.5	-0.024	4e-05	0	1.5	-0.024	4e-05	0
2483	1.5	-0.023	2e-05	0	1.5	-0.023	2e-05	0
2484	1.5	-0.022	2e-05	0	1.5	-0.022	2e-05	0
2485	1.5	-0.021	2e-05	0	1.5	-0.021	2e-05	0
2486	1.5	-0.02	2e-05	0	1.5	-0.02	2e-05	0
2487	1.5	-0.019	2e-05	0	1.5	-0.019	2e-05	0
2488	1.5	-0.018	2e-05	0	1.5	-0.018	2e-05	0
2489	1.5	-0.017	2e-05	0	1.5	-0.017	2e-05	0
2490	1.5	-0.016	2e-05	0	1.5	-0.016	2e-05	0
2491	1.5	-0.015	2e-05	0	1.5	-0.015	2e-05	0
2492	1.5	-0.014	2e-05	0	1.5	-0.014	2e-05	0
2493	1.5	-0.013	2e-05	0	1.5	-0.013	2e-05	0
2494	1.5	-0.012	2e-05	0	1.5	-0.012	2e-05	0
2495	1.5	-0.011	0	0	1.5	-0.011	0	0
2496	1.5	-0.011	2e-05	0	1.5	-0.011	2e-05	0
2497	1.5	-0.01	0	0	1.5	-0.01	0	0
2498	1.5	-0.01	2e-05	0	1.5	-0.01	2e-05	0
2499	1.5	-0.009	0	0	1.5	-0.009	0	0
2500	1.5	-0.009	2e-05	0	1.5	-0.009	2e-05	0
2501	1.5	-0.008	0	0	1.5	-0.008	0	0
2502	1.5	-0.008	2e-05	0	1.5	-0.008	2e-05	0
2503	1.5	-0.007	0	0	1.5	-0.007	0	0
2504	1.5	-0.007	2e-05	0	1.5	-0.007	2e-05	0
2505	1.5	-0.006	0	0	1.5	-0.006	0	0
2506	1.5	-0.005	0	0	1.5	-0.005	0	0
2507	1.5	-0.004	0	0	1.5	-0.004	0	0
2508	1.5	-0.003	0	0	1.5	-0.003	0	0
2509	1.5	-0.002	0	0	1.5	-0.002	0	0
2510	1.5	-0.001	0	0	1.5	-0.001	0	0
2511	1.5	0	0	0	1.5	0	0	0
2512	1.5	0.001	0	0	1.5	0.001	0	0
2513	1.5	0.002	0	0	1.5	0.002	0	0
2514	1.5	0.003	-2e-05	0	1.5	0.003	-2e-05	0
2515	1.5	0.003	0	0	1.5	0.003	0	0
2516	1.5	0.004	-2e-05	0	1.5	0.004	-2e-05	0
2517	1.5	0.004	0	0	1.5	0.004	0	0
2518	1.5	0.005	-2e-05	0	1.5	0.005	-2e-05	0
2519	1.5	0.005	0	0	1.5	0.005	0	0
2520	1.5	0.006	-2e-05	0	1.5	0.006	-2e-05	0
2521	1.5	0.006	0	0	1.5	0.006	0	0
2522	1.5	0.007	-2e-05	0	1.5	0.007	-2e-05	0
2523	1.5	0.008	-2e-05	0	1.5	0.008	-2e-05	0
2524	1.5	0.009	-2e-05	0	1.5	0.009	-2e-05	0
2525	1.5	0.01	-2e-05	0	1.5	0.01	-2e-05	0
2526	1.5	0.011	-2e-05	0	1.5	0.011	-2e-05	0
2527	1.5	0.012	-2e-05	0	1.5	0.012	-2e-05	0
2528	1.5	0.013	-2e-05	0	1.5	0.013	-2e-05	0
2529	1.5	0.014	-2e-05	0	1.5	0.014	-2e-05	0
2530	2	-0.031	4e-05	0	2	-0.031	4e-05	0
2531	2	-0.03	4e-05	0	2	-0.03	4e-05	0
2532	2	-0.029	4e-05	0	2	-0.029	4e-05	0
2533	2	-0.028	4e-05	0	2	-0.028	4e-05	0
2534	2	-0.027	4e-05	0	2	-0.027	4e-05	0
2535	2	-0.026	4e-05	0	2	-0.026	4e-05	0
2536	2	-0.025	2e-05	0	2	-0.025	2e-05	0
2537	2	-0.025	4e-05	0	2	-0.025	4e-05	0
2538	2	-0.024	2e-05	0	2	-0.024	2e-05	0
2539	2	-0.024	4e-05	0	2	-0.024	4e-05	0
2540	2	-0.023	2e-05	0	2	-0.023	2e-05	0
2541	2	-0.022	2e-05	0	2	-0.022	2e-05	0
2542	2	-0.021	2e-05	0	2	-0.021	2e-05	0
2543	2	-0.02	2e-05	0	2	-0.02	2e-05	0
2544	2	-0.019	2e-05	0	2	-0.019	2e-05	0
2545	2	-0.018	2e-05	0	2	-0.018	2e-05	0
2546	2	-0.017	2e-05	0	2	-0.017	2e-05	0
2547	2	-0.016	2e-05	0	2	-0.016	2e-05	0
2548	2	-0.015	2e-05	0	2	-0.015	2e-05	0
2549	2	-0.014	2e-05	0	2	-0.014	2e-05	0
2550	2	-0.013	2e-05	0	2	-0.013	2e-05	0
2551	2	-0.012	0	0	2	-0.012	0	0
2552	2	-0.012	2e-05	0	2	-0.012	2e-05	0
2553	2	-0.011	0	0	2	-0.011	0	0
2554	2	-0.011	2e-05	0	2	-0.011	2e-05	0
2555	2	-0.01	0	0	2	-0.01	0	0
2556	2	-0.01	2e-05	0	2	-0.01	2e-05	0
2557	2	-0.009	0	0	2	-0.009	0	0
2558	2	-0.009	2e-05	0	2	-0.009	2e-05	0
2559	2	-0.008	0	0	2	-0.008	0	0
2560	2	-0.008	2e-05	0	2	-0.008	2e-05	0
2561	2	-0.007	0	0	2	-0.007	0	0
2562	2	-0.006	0	0	2	-0.006	0	0
2563	2	-0.005	0	0	2	-0.005	0	0
2564	2	-0.004	0	0	2	-0.004	0	0
2565	2	-0.003	0	0	2	-0.003	0	0
