1	-9	0.038	-2e-05	0	-9	0.038	-2e-05	0
2	-9	0.061	-6e-05	0	-9	0.061	-6e-05	0
3	-8	0.019	-2e-05	0	-8	0.019	-2e-05	0
4	-8	0.021	0	0	-8	0.021	0	0
5	-8	0.022	-2e-05	0	-8	0.022	-2e-05	0
6	-8	0.033	-2e-05	0	-8	0.033	-2e-05	0
7	-8	0.056	-6e-05	0	-8	0.056	-6e-05	0
8	-7.5	0.02	0	0	-7.5	0.02	0	0
9	-7.5	0.021	0	0	-7.5	0.021	0	0
10	-7.5	0.022	0	0	-7.5	0.022	0	0
11	-7.5	0.028	-2e-05	0	-7.5	0.028	-2e-05	0
12	-7.5	0.032	-2e-05	0	-7.5	0.032	-2e-05	0
13	-7.5	0.035	-2e-05	0	-7.5	0.035	-2e-05	0
14	-7.5	0.043	-4e-05	0	-7.5	0.043	-4e-05	0
15	-7.5	0.059	-6e-05	0	-7.5	0.059	-6e-05	0
16	-7	-0.001	0	0	-7	-0.001	0	0
17	-7	0.024	-2e-05	0	-7	0.024	-2e-05	0
18	-7	0.033	-4e-05	0	-7	0.033	-4e-05	0
19	-7	0.034	-4e-05	0	-7	0.034	-4e-05	0
20	-7	0.038	-4e-05	0	-7	0.038	-4e-05	0
21	-7	0.039	-4e-05	0	-7	0.039	-4e-05	0
22	-7	0.046	-4e-05	0	-7	0.046	-4e-05	0
23	-6.5	0.012	0	0	-6.5	0.012	0	0
24	-6.5	0.014	0	0	-6.5	0.014	0	0
25	-6.5	0.02	0	0	-6.5	0.02	0	0
26	-6.5	0.021	0	0	-6.5	0.021	0	0
27	-6.5	0.022	-2e-05	0	-6.5	0.022	-2e-05	0
28	-6.5	0.025	-2e-05	0	-6.5	0.025	-2e-05	0
29	-6.5	0.026	-2e-05	0	-6.5	0.026	-2e-05	0
30	-6.5	0.031	-4e-05	0	-6.5	0.031	-4e-05	0
31	-6.5	0.034	-2e-05	0	-6.5	0.034	-2e-05	0
32	-6.5	0.035	-4e-05	0	-6.5	0.035	-4e-05	0
33	-6.5	0.035	-2e-05	0	-6.5	0.035	-2e-05	0
34	-6.5	0.038	-2e-05	0	-6.5	0.038	-2e-05	0
35	-6.5	0.042	-4e-05	0	-6.5	0.042	-4e-05	0
36	-6.5	0.05	-6e-05	0	-6.5	0.05	-6e-05	0
37	-6	0.013	-2e-05	0	-6	0.013	-2e-05	0
38	-6	0.014	0	0	-6	0.014	0	0
39	-6	0.018	0	0	-6	0.018	0	0
40	-6	0.021	-2e-05	0	-6	0.021	-2e-05	0
41	-6	0.027	-2e-05	0	-6	0.027	-2e-05	0
42	-6	0.034	-4e-05	0	-6	0.034	-4e-05	0
43	-6	0.046	-4e-05	0	-6	0.046	-4e-05	0
44	-6	0.056	-6e-05	0	-6	0.056	-6e-05	0
45	-5.5	-0.004	2e-05	0	-5.5	-0.004	2e-05	0
46	-5.5	0	0	0	-5.5	0	0	0
47	-5.5	0.012	0	0	-5.5	0.012	0	0
48	-5.5	0.018	0	0	-5.5	0.018	0	0
49	-5.5	0.021	-2e-05	0	-5.5	0.021	-2e-05	0
50	-5.5	0.029	-2e-05	0	-5.5	0.029	-2e-05	0
51	-5.5	0.039	-4e-05	0	-5.5	0.039	-4e-05	0
52	-5.5	0.043	-4e-05	0	-5.5	0.043	-4e-05	0
53	-5	0	2e-05	0	-5	0	2e-05	0
54	-5	0.008	0	0	-5	0.008	0	0
55	-5	0.011	-2e-05	0	-5	0.011	-2e-05	0
56	-5	0.014	-2e-05	0	-5	0.014	-2e-05	0
57	-5	0.015	0	0	-5	0.015	0	0
58	-5	0.028	-2e-05	0	-5	0.028	-2e-05	0
59	-5	0.031	-2e-05	0	-5	0.031	-2e-05	0
60	-5	0.033	-4e-05	0	-5	0.033	-4e-05	0
61	-5	0.038	-4e-05	0	-5	0.038	-4e-05	0
62	-5	0.047	-4e-05	0	-5	0.047	-4e-05	0
63	-5	0.055	-6e-05	0	-5	0.055	-6e-05	0
64	-4.5	-0.008	2e-05	0	-4.5	-0.008	2e-05	0
65	-4.5	-0.004	0	0	-4.5	-0.004	0	0
66	-4.5	-0.002	2e-05	0	-4.5	-0.002	2e-05	0
67	-4.5	0.001	2e-05	0	-4.5	0.001	2e-05	0
68	-4.5	0.013	-2e-05	0	-4.5	0.013	-2e-05	0
69	-4.5	0.014	0	0	-4.5	0.014	0	0
70	-4.5	0.016	-2e-05	0	-4.5	0.016	-2e-05	0
71	-4.5	0.016	0	0	-4.5	0.016	0	0
72	-4.5	0.02	-2e-05	0	-4.5	0.02	-2e-05	0
73	-4.5	0.02	0	0	-4.5	0.02	0	0
74	-4.5	0.025	-2e-05	0	-4.5	0.025	-2e-05	0
75	-4.5	0.028	-2e-05	0	-4.5	0.028	-2e-05	0
76	-4.5	0.033	-4e-05	0	-4.5	0.033	-4e-05	0
77	-4.5	0.034	-2e-05	0	-4.5	0.034	-2e-05	0
78	-4.5	0.038	-4e-05	0	-4.5	0.038	-4e-05	0
79	-4.5	0.04	-4e-05	0	-4.5	0.04	-4e-05	0
80	-4.5	0.053	-6e-05	0	-4.5	0.053	-6e-05	0
81	-4	0.002	0	0	-4	0.002	0	0
82	-4	0.005	0	0	-4	0.005	0	0
83	-4	0.014	-2e-05	0	-4	0.014	-2e-05	0
84	-4	0.014	0	0	-4	0.014	0	0
85	-4	0.015	-2e-05	0	-4	0.015	-2e-05	0
86	-4	0.015	0	0	-4	0.015	0	0
87	-4	0.016	-2e-05	0	-4	0.016	-2e-05	0
88	-4	0.016	0	0	-4	0.016	0	0
89	-4	0.017	0	0	-4	0.017	0	0
90	-4	0.019	0	0	-4	0.019	0	0
91	-4	0.02	-2e-05	0	-4	0.02	-2e-05	0
92	-4	0.023	-2e-05	0	-4	0.023	-2e-05	0
93	-4	0.025	-2e-05	0	-4	0.025	-2e-05	0
94	-4	0.028	-4e-05	0	-4	0.028	-4e-05	0
95	-4	0.029	-4e-05	0	-4	0.029	-4e-05	0
96	-4	0.035	-4e-05	0	-4	0.035	-4e-05	0
97	-4	0.041	-4e-05	0	-4	0.041	-4e-05	0
98	-4	0.047	-4e-05	0	-4	0.047	-4e-05	0
99	-4	0.049	-6e-05	0	-4	0.049	-6e-05	0
100	-3.5	-0.015	2e-05	0	-3.5	-0.015	2e-05	0
101	-3.5	-0.011	2e-05	0	-3.5	-0.011	2e-05	0
102	-3.5	-0.01	0	0	-3.5	-0.01	0	0
103	-3.5	-0.009	2e-05	0	-3.5	-0.009	2e-05	0
104	-3.5	-0.005	2e-05	0	-3.5	-0.005	2e-05	0
105	-3.5	-0.004	2e-05	0	-3.5	-0.004	2e-05	0
106	-3.5	0	0	0	-3.5	0	0	0
107	-3.5	0	2e-05	0	-3.5	0	2e-05	0
108	-3.5	0.008	0	0	-3.5	0.008	0	0
109	-3.5	0.011	0	0	-3.5	0.011	0	0
110	-3.5	0.015	-2e-05	0	-3.5	0.015	-2e-05	0
111	-3.5	0.015	0	0	-3.5	0.015	0	0
112	-3.5	0.017	-2e-05	0	-3.5	0.017	-2e-05	0
113	-3.5	0.019	0	0	-3.5	0.019	0	0
114	-3.5	0.02	-2e-05	0	-3.5	0.02	-2e-05	0
115	-3.5	0.025	-2e-05	0	-3.5	0.025	-2e-05	0
116	-3.5	0.029	-4e-05	0	-3.5	0.029	-4e-05	0
117	-3.5	0.029	-2e-05	0	-3.5	0.029	-2e-05	0
118	-3.5	0.03	-4e-05	0	-3.5	0.03	-4e-05	0
119	-3.5	0.033	-4e-05	0	-3.5	0.033	-4e-05	0
120	-3.5	0.033	-2e-05	0	-3.5	0.033	-2e-05	0
121	-3.5	0.037	-4e-05	0	-3.5	0.037	-4e-05	0
122	-3	-0.022	4e-05	0	-3	-0.022	4e-05	0
123	-3	-0.011	0	0	-3	-0.011	0	0
124	-3	-0.004	2e-05	0	-3	-0.004	2e-05	0
125	-3	-0.003	2e-05	0	-3	-0.003	2e-05	0
126	-3	-0.001	0	0	-3	-0.001	0	0
127	-3	0.002	0	0	-3	0.002	0	0
128	-3	0.003	0	0	-3	0.003	0	0
129	-3	0.005	0	0	-3	0.005	0	0
130	-3	0.006	0	0	-3	0.006	0	0
131	-3	0.007	0	0	-3	0.007	0	0
132	-3	0.008	-2e-05	0	-3	0.008	-2e-05	0
133	-3	0.009	0	0	-3	0.009	0	0
134	-3	0.012	-2e-05	0	-3	0.012	-2e-05	0
135	-3	0.013	-2e-05	0	-3	0.013	-2e-05	0
136	-3	0.013	0	0	-3	0.013	0	0
137	-3	0.014	-2e-05	0	-3	0.014	-2e-05	0
138	-3	0.014	0	0	-3	0.014	0	0
139	-3	0.015	-2e-05	0	-3	0.015	-2e-05	0
140	-3	0.015	0	0	-3	0.015	0	0
141	-3	0.019	0	0	-3	0.019	0	0
142	-3	0.02	-2e-05	0	-3	0.02	-2e-05	0
143	-3	0.021	-2e-05	0	-3	0.021	-2e-05	0
144	-3	0.024	-2e-05	0	-3	0.024	-2e-05	0
145	-3	0.025	-2e-05	0	-3	0.025	-2e-05	0
146	-3	0.028	-4e-05	0	-3	0.028	-4e-05	0
147	-3	0.028	-2e-05	0	-3	0.028	-2e-05	0
148	-3	0.029	-4e-05	0	-3	0.029	-4e-05	0
149	-3	0.031	-2e-05	0	-3	0.031	-2e-05	0
150	-3	0.032	-4e-05	0	-3	0.032	-4e-05	0
151	-3	0.033	-4e-05	0	-3	0.033	-4e-05	0
152	-3	0.038	-4e-05	0	-3	0.038	-4e-05	0
153	-3	0.052	-6e-05	0	-3	0.052	-6e-05	0
154	-3	0.053	-6e-05	0	-3	0.053	-6e-05	0
155	-2.5	-0.025	4e-05	0	-2.5	-0.025	4e-05	0
156	-2.5	-0.013	2e-05	0	-2.5	-0.013	2e-05	0
157	-2.5	-0.008	2e-05	0	-2.5	-0.008	2e-05	0
158	-2.5	-0.007	2e-05	0	-2.5	-0.007	2e-05	0
159	-2.5	-0.006	2e-05	0	-2.5	-0.006	2e-05	0
160	-2.5	-0.004	0	0	-2.5	-0.004	0	0
161	-2.5	-0.002	2e-05	0	-2.5	-0.002	2e-05	0
162	-2.5	-0.001	2e-05	0	-2.5	-0.001	2e-05	0
163	-2.5	0.002	0	0	-2.5	0.002	0	0
164	-2.5	0.003	0	0	-2.5	0.003	0	0
165	-2.5	0.005	0	0	-2.5	0.005	0	0
166	-2.5	0.006	-2e-05	0	-2.5	0.006	-2e-05	0
167	-2.5	0.006	0	0	-2.5	0.006	0	0
168	-2.5	0.007	0	0	-2.5	0.007	0	0
169	-2.5	0.008	0	0	-2.5	0.008	0	0
170	-2.5	0.01	-2e-05	0	-2.5	0.01	-2e-05	0
171	-2.5	0.01	0	0	-2.5	0.01	0	0
172	-2.5	0.012	-2e-05	0	-2.5	0.012	-2e-05	0
173	-2.5	0.012	0	0	-2.5	0.012	0	0
174	-2.5	0.013	0	0	-2.5	0.013	0	0
175	-2.5	0.014	-2e-05	0	-2.5	0.014	-2e-05	0
176	-2.5	0.014	0	0	-2.5	0.014	0	0
177	-2.5	0.015	-2e-05	0	-2.5	0.015	-2e-05	0
178	-2.5	0.015	0	0	-2.5	0.015	0	0
179	-2.5	0.017	-2e-05	0	-2.5	0.017	-2e-05	0
180	-2.5	0.018	-2e-05	0	-2.5	0.018	-2e-05	0
181	-2.5	0.019	-2e-05	0	-2.5	0.019	-2e-05	0
182	-2.5	0.026	-4e-05	0	-2.5	0.026	-4e-05	0
183	-2.5	0.028	-4e-05	0	-2.5	0.028	-4e-05	0
184	-2.5	0.03	-4e-05	0	-2.5	0.03	-4e-05	0
185	-2.5	0.031	-4e-05	0	-2.5	0.031	-4e-05	0
186	-2.5	0.034	-4e-05	0	-2.5	0.034	-4e-05	0
187	-2.5	0.037	-4e-05	0	-2.5	0.037	-4e-05	0
188	-2.5	0.049	-6e-05	0	-2.5	0.049	-6e-05	0
189	-2	-0.018	2e-05	0	-2	-0.018	2e-05	0
190	-2	-0.016	2e-05	0	-2	-0.016	2e-05	0
191	-2	-0.013	2e-05	0	-2	-0.013	2e-05	0
192	-2	-0.012	2e-05	0	-2	-0.012	2e-05	0
193	-2	-0.01	2e-05	0	-2	-0.01	2e-05	0
194	-2	-0.008	2e-05	0	-2	-0.008	2e-05	0
195	-2	-0.006	0	0	-2	-0.006	0	0
196	-2	-0.006	2e-05	0	-2	-0.006	2e-05	0
197	-2	-0.005	2e-05	0	-2	-0.005	2e-05	0
198	-2	-0.004	2e-05	0	-2	-0.004	2e-05	0
199	-2	-0.002	2e-05	0	-2	-0.002	2e-05	0
200	-2	-0.001	0	0	-2	-0.001	0	0
201	-2	0	0	0	-2	0	0	0
202	-2	0.004	0	0	-2	0.004	0	0
203	-2	0.006	-2e-05	0	-2	0.006	-2e-05	0
204	-2	0.006	0	0	-2	0.006	0	0
205	-2	0.007	-2e-05	0	-2	0.007	-2e-05	0
206	-2	0.008	-2e-05	0	-2	0.008	-2e-05	0
207	-2	0.008	0	0	-2	0.008	0	0
208	-2	0.012	-2e-05	0	-2	0.012	-2e-05	0
209	-2	0.012	0	0	-2	0.012	0	0
210	-2	0.013	-2e-05	0	-2	0.013	-2e-05	0
211	-2	0.014	-2e-05	0	-2	0.014	-2e-05	0
212	-2	0.014	0	0	-2	0.014	0	0
213	-2	0.015	0	0	-2	0.015	0	0
214	-2	0.017	-2e-05	0	-2	0.017	-2e-05	0
215	-2	0.018	-2e-05	0	-2	0.018	-2e-05	0
216	-2	0.021	-2e-05	0	-2	0.021	-2e-05	0
217	-2	0.026	-4e-05	0	-2	0.026	-4e-05	0
218	-2	0.026	-2e-05	0	-2	0.026	-2e-05	0
219	-2	0.027	-4e-05	0	-2	0.027	-4e-05	0
220	-2	0.028	-2e-05	0	-2	0.028	-2e-05	0
221	-2	0.029	-4e-05	0	-2	0.029	-4e-05	0
222	-2	0.03	-2e-05	0	-2	0.03	-2e-05	0
223	-2	0.031	-4e-05	0	-2	0.031	-4e-05	0
224	-2	0.034	-4e-05	0	-2	0.034	-4e-05	0
225	-2	0.044	-4e-05	0	-2	0.044	-4e-05	0
226	-1.5	-0.034	4e-05	0	-1.5	-0.034	4e-05	0
227	-1.5	-0.031	4e-05	0	-1.5	-0.031	4e-05	0
228	-1.5	-0.025	4e-05	0	-1.5	-0.025	4e-05	0
229	-1.5	-0.023	4e-05	0	-1.5	-0.023	4e-05	0
230	-1.5	-0.021	2e-05	0	-1.5	-0.021	2e-05	0
231	-1.5	-0.015	2e-05	0	-1.5	-0.015	2e-05	0
232	-1.5	-0.014	2e-05	0	-1.5	-0.014	2e-05	0
233	-1.5	-0.01	2e-05	0	-1.5	-0.01	2e-05	0
234	-1.5	-0.009	2e-05	0	-1.5	-0.009	2e-05	0
235	-1.5	-0.007	2e-05	0	-1.5	-0.007	2e-05	0
236	-1.5	-0.004	2e-05	0	-1.5	-0.004	2e-05	0
237	-1.5	-0.003	2e-05	0	-1.5	-0.003	2e-05	0
238	-1.5	0.002	0	0	-1.5	0.002	0	0
239	-1.5	0.004	0	0	-1.5	0.004	0	0
240	-1.5	0.005	0	0	-1.5	0.005	0	0
241	-1.5	0.006	-2e-05	0	-1.5	0.006	-2e-05	0
242	-1.5	0.008	-2e-05	0	-1.5	0.008	-2e-05	0
243	-1.5	0.008	0	0	-1.5	0.008	0	0
244	-1.5	0.009	-2e-05	0	-1.5	0.009	-2e-05	0
245	-1.5	0.011	-2e-05	0	-1.5	0.011	-2e-05	0
246	-1.5	0.012	-2e-05	0	-1.5	0.012	-2e-05	0
247	-1.5	0.013	-2e-05	0	-1.5	0.013	-2e-05	0
248	-1.5	0.013	0	0	-1.5	0.013	0	0
249	-1.5	0.017	-2e-05	0	-1.5	0.017	-2e-05	0
250	-1.5	0.018	-2e-05	0	-1.5	0.018	-2e-05	0
251	-1.5	0.019	-2e-05	0	-1.5	0.019	-2e-05	0
252	-1.5	0.02	-2e-05	0	-1.5	0.02	-2e-05	0
253	-1.5	0.022	-2e-05	0	-1.5	0.022	-2e-05	0
254	-1.5	0.027	-2e-05	0	-1.5	0.027	-2e-05	0
255	-1.5	0.031	-4e-05	0	-1.5	0.031	-4e-05	0
256	-1.5	0.033	-4e-05	0	-1.5	0.033	-4e-05	0
257	-1.5	0.034	-4e-05	0	-1.5	0.034	-4e-05	0
258	-1.5	0.039	-4e-05	0	-1.5	0.039	-4e-05	0
259	-1.5	0.04	-4e-05	0	-1.5	0.04	-4e-05	0
260	-1	-0.025	4e-05	0	-1	-0.025	4e-05	0
261	-1	-0.024	4e-05	0	-1	-0.024	4e-05	0
262	-1	-0.023	4e-05	0	-1	-0.023	4e-05	0
263	-1	-0.019	2e-05	0	-1	-0.019	2e-05	0
264	-1	-0.018	2e-05	0	-1	-0.018	2e-05	0
265	-1	-0.017	2e-05	0	-1	-0.017	2e-05	0
266	-1	-0.015	2e-05	0	-1	-0.015	2e-05	0
267	-1	-0.012	2e-05	0	-1	-0.012	2e-05	0
268	-1	-0.011	2e-05	0	-1	-0.011	2e-05	0
269	-1	-0.01	2e-05	0	-1	-0.01	2e-05	0
270	-1	-0.008	2e-05	0	-1	-0.008	2e-05	0
271	-1	-0.007	2e-05	0	-1	-0.007	2e-05	0
272	-1	-0.006	2e-05	0	-1	-0.006	2e-05	0
273	-1	-0.005	0	0	-1	-0.005	0	0
274	-1	-0.004	2e-05	0	-1	-0.004	2e-05	0
275	-1	-0.002	0	0	-1	-0.002	0	0
276	-1	-0.001	0	0	-1	-0.001	0	0
277	-1	0	0	0	-1	0	0	0
278	-1	0.001	0	0	-1	0.001	0	0
279	-1	0.002	0	0	-1	0.002	0	0
280	-1	0.004	0	0	-1	0.004	0	0
281	-1	0.005	0	0	-1	0.005	0	0
282	-1	0.006	-2e-05	0	-1	0.006	-2e-05	0
283	-1	0.007	0	0	-1	0.007	0	0
284	-1	0.008	-2e-05	0	-1	0.008	-2e-05	0
285	-1	0.008	0	0	-1	0.008	0	0
286	-1	0.009	-2e-05	0	-1	0.009	-2e-05	0
287	-1	0.009	0	0	-1	0.009	0	0
288	-1	0.01	0	0	-1	0.01	0	0
289	-1	0.011	-2e-05	0	-1	0.011	-2e-05	0
290	-1	0.011	0	0	-1	0.011	0	0
291	-1	0.012	0	0	-1	0.012	0	0
292	-1	0.013	-2e-05	0	-1	0.013	-2e-05	0
293	-1	0.013	0	0	-1	0.013	0	0
294	-1	0.015	-2e-05	0	-1	0.015	-2e-05	0
295	-1	0.015	0	0	-1	0.015	0	0
296	-1	0.016	-2e-05	0	-1	0.016	-2e-05	0
297	-1	0.017	-2e-05	0	-1	0.017	-2e-05	0
298	-1	0.019	-2e-05	0	-1	0.019	-2e-05	0
299	-1	0.02	-2e-05	0	-1	0.02	-2e-05	0
300	-1	0.025	-4e-05	0	-1	0.025	-4e-05	0
301	-1	0.025	-2e-05	0	-1	0.025	-2e-05	0
302	-1	0.027	-4e-05	0	-1	0.027	-4e-05	0
303	-1	0.028	-4e-05	0	-1	0.028	-4e-05	0
304	-1	0.04	-4e-05	0	-1	0.04	-4e-05	0
305	-0.5	-0.039	4e-05	0	-0.5	-0.039	4e-05	0
306	-0.5	-0.031	4e-05	0	-0.5	-0.031	4e-05	0
307	-0.5	-0.025	2e-05	0	-0.5	-0.025	2e-05	0
308	-0.5	-0.023	4e-05	0	-0.5	-0.023	4e-05	0
309	-0.5	-0.021	2e-05	0	-0.5	-0.021	2e-05	0
310	-0.5	-0.019	2e-05	0	-0.5	-0.019	2e-05	0
311	-0.5	-0.016	2e-05	0	-0.5	-0.016	2e-05	0
312	-0.5	-0.015	2e-05	0	-0.5	-0.015	2e-05	0
313	-0.5	-0.013	0	0	-0.5	-0.013	0	0
314	-0.5	-0.012	2e-05	0	-0.5	-0.012	2e-05	0
315	-0.5	-0.011	0	0	-0.5	-0.011	0	0
316	-0.5	-0.009	2e-05	0	-0.5	-0.009	2e-05	0
317	-0.5	-0.007	0	0	-0.5	-0.007	0	0
318	-0.5	-0.007	2e-05	0	-0.5	-0.007	2e-05	0
319	-0.5	-0.006	2e-05	0	-0.5	-0.006	2e-05	0
320	-0.5	-0.004	2e-05	0	-0.5	-0.004	2e-05	0
321	-0.5	-0.003	0	0	-0.5	-0.003	0	0
322	-0.5	-0.002	0	0	-0.5	-0.002	0	0
323	-0.5	-0.001	0	0	-0.5	-0.001	0	0
324	-0.5	0	0	0	-0.5	0	0	0
325	-0.5	0.001	0	0	-0.5	0.001	0	0
326	-0.5	0.002	0	0	-0.5	0.002	0	0
327	-0.5	0.003	0	0	-0.5	0.003	0	0
328	-0.5	0.005	-2e-05	0	-0.5	0.005	-2e-05	0
329	-0.5	0.005	0	0	-0.5	0.005	0	0
330	-0.5	0.006	-2e-05	0	-0.5	0.006	-2e-05	0
331	-0.5	0.007	-2e-05	0	-0.5	0.007	-2e-05	0
332	-0.5	0.007	0	0	-0.5	0.007	0	0
333	-0.5	0.008	-2e-05	0	-0.5	0.008	-2e-05	0
334	-0.5	0.009	-2e-05	0	-0.5	0.009	-2e-05	0
335	-0.5	0.01	-2e-05	0	-0.5	0.01	-2e-05	0
336	-0.5	0.011	-2e-05	0	-0.5	0.011	-2e-05	0
337	-0.5	0.012	-2e-05	0	-0.5	0.012	-2e-05	0
338	-0.5	0.012	0	0	-0.5	0.012	0	0
339	-0.5	0.013	-2e-05	0	-0.5	0.013	-2e-05	0
340	-0.5	0.015	-2e-05	0	-0.5	0.015	-2e-05	0
341	-0.5	0.016	-2e-05	0	-0.5	0.016	-2e-05	0
342	-0.5	0.017	-2e-05	0	-0.5	0.017	-2e-05	0
343	-0.5	0.018	-2e-05	0	-0.5	0.018	-2e-05	0
344	-0.5	0.019	-2e-05	0	-0.5	0.019	-2e-05	0
345	-0.5	0.02	-2e-05	0	-0.5	0.02	-2e-05	0
346	-0.5	0.022	-2e-05	0	-0.5	0.022	-2e-05	0
347	-0.5	0.023	-2e-05	0	-0.5	0.023	-2e-05	0
348	-0.5	0.024	-4e-05	0	-0.5	0.024	-4e-05	0
349	-0.5	0.025	-4e-05	0	-0.5	0.025	-4e-05	0
350	-0.5	0.029	-4e-05	0	-0.5	0.029	-4e-05	0
351	-0.5	0.038	-4e-05	0	-0.5	0.038	-4e-05	0
352	-0.5	0.045	-6e-05	0	-0.5	0.045	-6e-05	0
353	0	-0.047	6e-05	0	0	-0.047	6e-05	0
354	0	-0.043	4e-05	0	0	-0.043	4e-05	0
355	0	-0.03	4e-05	0	0	-0.03	4e-05	0
356	0	-0.029	4e-05	0	0	-0.029	4e-05	0
357	0	-0.027	2e-05	0	0	-0.027	2e-05	0
358	0	-0.025	2e-05	0	0	-0.025	2e-05	0
359	0	-0.024	2e-05	0	0	-0.024	2e-05	0
360	0	-0.023	2e-05	0	0	-0.023	2e-05	0
361	0	-0.019	2e-05	0	0	-0.019	2e-05	0
362	0	-0.018	2e-05	0	0	-0.018	2e-05	0
363	0	-0.016	2e-05	0	0	-0.016	2e-05	0
364	0	-0.013	0	0	0	-0.013	0	0
365	0	-0.012	0	0	0	-0.012	0	0
366	0	-0.012	2e-05	0	0	-0.012	2e-05	0
367	0	-0.011	0	0	0	-0.011	0	0
368	0	-0.011	2e-05	0	0	-0.011	2e-05	0
369	0	-0.01	2e-05	0	0	-0.01	2e-05	0
370	0	-0.009	0	0	0	-0.009	0	0
371	0	-0.009	2e-05	0	0	-0.009	2e-05	0
372	0	-0.008	0	0	0	-0.008	0	0
373	0	-0.008	2e-05	0	0	-0.008	2e-05	0
374	0	-0.007	2e-05	0	0	-0.007	2e-05	0
375	0	-0.006	2e-05	0	0	-0.006	2e-05	0
376	0	-0.005	0	0	0	-0.005	0	0
377	0	-0.005	2e-05	0	0	-0.005	2e-05	0
378	0	-0.004	0	0	0	-0.004	0	0
379	0	-0.004	2e-05	0	0	-0.004	2e-05	0
380	0	-0.003	0	0	0	-0.003	0	0
381	0	-0.002	0	0	0	-0.002	0	0
382	0	0	0	0	0	0	0	0
383	0	0.001	0	0	0	0.001	0	0
384	0	0.002	0	0	0	0.002	0	0
385	0	0.003	0	0	0	0.003	0	0
386	0	0.004	0	0	0	0.004	0	0
387	0	0.006	-2e-05	0	0	0.006	-2e-05	0
388	0	0.006	0	0	0	0.006	0	0
389	0	0.007	-2e-05	0	0	0.007	-2e-05	0
390	0	0.007	0	0	0	0.007	0	0
391	0	0.008	-2e-05	0	0	0.008	-2e-05	0
392	0	0.008	0	0	0	0.008	0	0
393	0	0.009	-2e-05	0	0	0.009	-2e-05	0
394	0	0.01	-2e-05	0	0	0.01	-2e-05	0
395	0	0.012	-2e-05	0	0	0.012	-2e-05	0
396	0	0.013	-2e-05	0	0	0.013	-2e-05	0
397	0	0.014	-2e-05	0	0	0.014	-2e-05	0
398	0	0.016	-2e-05	0	0	0.016	-2e-05	0
399	0	0.017	-2e-05	0	0	0.017	-2e-05	0
400	0	0.018	-2e-05	0	0	0.018	-2e-05	0
401	0	0.019	-2e-05	0	0	0.019	-2e-05	0
402	0	0.02	-2e-05	0	0	0.02	-2e-05	0
403	0	0.021	-2e-05	0	0	0.021	-2e-05	0
404	0	0.022	-2e-05	0	0	0.022	-2e-05	0
405	0	0.024	-2e-05	0	0	0.024	-2e-05	0
406	0	0.025	-2e-05	0	0	0.025	-2e-05	0
407	0	0.028	-2e-05	0	0	0.028	-2e-05	0
408	0	0.032	-4e-05	0	0	0.032	-4e-05	0
409	0	0.032	-2e-05	0	0	0.032	-2e-05	0
410	0	0.044	-6e-05	0	0	0.044	-6e-05	0
411	0	0.047	-6e-05	0	0	0.047	-6e-05	0
412	0	0.048	-6e-05	0	0	0.048	-6e-05	0
413	0.5	-0.039	4e-05	0	0.5	-0.039	4e-05	0
414	0.5	-0.036	4e-05	0	0.5	-0.036	4e-05	0
415	0.5	-0.033	4e-05	0	0.5	-0.033	4e-05	0
416	0.5	-0.031	4e-05	0	0.5	-0.031	4e-05	0
417	0.5	-0.03	4e-05	0	0.5	-0.03	4e-05	0
418	0.5	-0.028	4e-05	0	0.5	-0.028	4e-05	0
419	0.5	-0.027	2e-05	0	0.5	-0.027	2e-05	0
420	0.5	-0.024	4e-05	0	0.5	-0.024	4e-05	0
421	0.5	-0.023	2e-05	0	0.5	-0.023	2e-05	0
422	0.5	-0.022	2e-05	0	0.5	-0.022	2e-05	0
423	0.5	-0.018	2e-05	0	0.5	-0.018	2e-05	0
424	0.5	-0.017	2e-05	0	0.5	-0.017	2e-05	0
425	0.5	-0.016	0	0	0.5	-0.016	0	0
426	0.5	-0.015	2e-05	0	0.5	-0.015	2e-05	0
427	0.5	-0.013	0	0	0.5	-0.013	0	0
428	0.5	-0.013	2e-05	0	0.5	-0.013	2e-05	0
429	0.5	-0.011	0	0	0.5	-0.011	0	0
430	0.5	-0.011	2e-05	0	0.5	-0.011	2e-05	0
431	0.5	-0.01	0	0	0.5	-0.01	0	0
432	0.5	-0.01	2e-05	0	0.5	-0.01	2e-05	0
433	0.5	-0.009	0	0	0.5	-0.009	0	0
434	0.5	-0.009	2e-05	0	0.5	-0.009	2e-05	0
435	0.5	-0.008	2e-05	0	0.5	-0.008	2e-05	0
436	0.5	-0.007	0	0	0.5	-0.007	0	0
437	0.5	-0.007	2e-05	0	0.5	-0.007	2e-05	0
438	0.5	-0.006	0	0	0.5	-0.006	0	0
439	0.5	-0.006	2e-05	0	0.5	-0.006	2e-05	0
440	0.5	-0.005	0	0	0.5	-0.005	0	0
441	0.5	-0.005	2e-05	0	0.5	-0.005	2e-05	0
442	0.5	-0.004	0	0	0.5	-0.004	0	0
443	0.5	-0.004	2e-05	0	0.5	-0.004	2e-05	0
444	0.5	-0.002	0	0	0.5	-0.002	0	0
445	0.5	-0.001	0	0	0.5	-0.001	0	0
446	0.5	0	0	0	0.5	0	0	0
447	0.5	0.001	0	0	0.5	0.001	0	0
448	0.5	0.002	0	0	0.5	0.002	0	0
449	0.5	0.003	-2e-05	0	0.5	0.003	-2e-05	0
450	0.5	0.003	0	0	0.5	0.003	0	0
451	0.5	0.004	-2e-05	0	0.5	0.004	-2e-05	0
452	0.5	0.006	-2e-05	0	0.5	0.006	-2e-05	0
453	0.5	0.007	-2e-05	0	0.5	0.007	-2e-05	0
454	0.5	0.008	-2e-05	0	0.5	0.008	-2e-05	0
455	0.5	0.009	-2e-05	0	0.5	0.009	-2e-05	0
456	0.5	0.009	0	0	0.5	0.009	0	0
457	0.5	0.01	0	0	0.5	0.01	0	0
458	0.5	0.011	-2e-05	0	0.5	0.011	-2e-05	0
459	0.5	0.011	0	0	0.5	0.011	0	0
460	0.5	0.015	0	0	0.5	0.015	0	0
461	0.5	0.016	-2e-05	0	0.5	0.016	-2e-05	0
462	0.5	0.018	-2e-05	0	0.5	0.018	-2e-05	0
463	0.5	0.019	-2e-05	0	0.5	0.019	-2e-05	0
464	0.5	0.023	-4e-05	0	0.5	0.023	-4e-05	0
465	0.5	0.025	-4e-05	0	0.5	0.025	-4e-05	0
466	0.5	0.025	-2e-05	0	0.5	0.025	-2e-05	0
467	0.5	0.028	-4e-05	0	0.5	0.028	-4e-05	0
468	0.5	0.03	-2e-05	0	0.5	0.03	-2e-05	0
469	0.5	0.047	-6e-05	0	0.5	0.047	-6e-05	0
470	1	-0.053	6e-05	0	1	-0.053	6e-05	0
471	1	-0.047	6e-05	0	1	-0.047	6e-05	0
472	1	-0.04	4e-05	0	1	-0.04	4e-05	0
473	1	-0.038	4e-05	0	1	-0.038	4e-05	0
474	1	-0.034	4e-05	0	1	-0.034	4e-05	0
475	1	-0.032	4e-05	0	1	-0.032	4e-05	0
476	1	-0.031	4e-05	0	1	-0.031	4e-05	0
477	1	-0.026	2e-05	0	1	-0.026	2e-05	0
478	1	-0.026	4e-05	0	1	-0.026	4e-05	0
479	1	-0.023	2e-05	0	1	-0.023	2e-05	0
480	1	-0.022	2e-05	0	1	-0.022	2e-05	0
481	1	-0.021	2e-05	0	1	-0.021	2e-05	0
482	1	-0.018	2e-05	0	1	-0.018	2e-05	0
483	1	-0.017	0	0	1	-0.017	0	0
484	1	-0.017	2e-05	0	1	-0.017	2e-05	0
485	1	-0.015	0	0	1	-0.015	0	0
486	1	-0.014	2e-05	0	1	-0.014	2e-05	0
487	1	-0.013	0	0	1	-0.013	0	0
488	1	-0.013	2e-05	0	1	-0.013	2e-05	0
489	1	-0.012	0	0	1	-0.012	0	0
490	1	-0.012	2e-05	0	1	-0.012	2e-05	0
491	1	-0.011	2e-05	0	1	-0.011	2e-05	0
492	1	-0.01	2e-05	0	1	-0.01	2e-05	0
493	1	-0.009	0	0	1	-0.009	0	0
494	1	-0.009	2e-05	0	1	-0.009	2e-05	0
495	1	-0.008	0	0	1	-0.008	0	0
496	1	-0.008	2e-05	0	1	-0.008	2e-05	0
497	1	-0.007	0	0	1	-0.007	0	0
498	1	-0.007	2e-05	0	1	-0.007	2e-05	0
499	1	-0.005	0	0	1	-0.005	0	0
500	1	-0.005	2e-05	0	1	-0.005	2e-05	0
501	1	-0.003	0	0	1	-0.003	0	0
502	1	-0.002	0	0	1	-0.002	0	0
503	1	-0.001	0	0	1	-0.001	0	0
504	1	0	0	0	1	0	0	0
505	1	0.002	0	0	1	0.002	0	0
506	1	0.003	-2e-05	0	1	0.003	-2e-05	0
507	1	0.005	0	0	1	0.005	0	0
508	1	0.006	0	0	1	0.006	0	0
509	1	0.007	-2e-05	0	1	0.007	-2e-05	0
510	1	0.008	-2e-05	0	1	0.008	-2e-05	0
511	1	0.009	0	0	1	0.009	0	0
512	1	0.013	-2e-05	0	1	0.013	-2e-05	0
513	1	0.013	0	0	1	0.013	0	0
514	1	0.018	-2e-05	0	1	0.018	-2e-05	0
515	1	0.024	-4e-05	0	1	0.024	-4e-05	0
516	1	0.027	-4e-05	0	1	0.027	-4e-05	0
517	1.5	-0.035	4e-05	0	1.5	-0.035	4e-05	0
518	1.5	-0.03	4e-05	0	1.5	-0.03	4e-05	0
519	1.5	-0.026	4e-05	0	1.5	-0.026	4e-05	0
520	1.5	-0.025	2e-05	0	1.5	-0.025	2e-05	0
521	1.5	-0.025	4e-05	0	1.5	-0.025	4e-05	0
522	1.5	-0.023	2e-05	0	1.5	-0.023	2e-05	0
523	1.5	-0.022	2e-05	0	1.5	-0.022	2e-05	0
524	1.5	-0.021	2e-05	0	1.5	-0.021	2e-05	0
525	1.5	-0.02	2e-05	0	1.5	-0.02	2e-05	0
526	1.5	-0.018	2e-05	0	1.5	-0.018	2e-05	0
527	1.5	-0.017	2e-05	0	1.5	-0.017	2e-05	0
528	1.5	-0.016	0	0	1.5	-0.016	0	0
529	1.5	-0.016	2e-05	0	1.5	-0.016	2e-05	0
530	1.5	-0.014	2e-05	0	1.5	-0.014	2e-05	0
531	1.5	-0.013	2e-05	0	1.5	-0.013	2e-05	0
532	1.5	-0.012	0	0	1.5	-0.012	0	0
533	1.5	-0.012	2e-05	0	1.5	-0.012	2e-05	0
534	1.5	-0.011	2e-05	0	1.5	-0.011	2e-05	0
535	1.5	-0.01	2e-05	0	1.5	-0.01	2e-05	0
536	1.5	-0.008	2e-05	0	1.5	-0.008	2e-05	0
537	1.5	-0.007	0	0	1.5	-0.007	0	0
538	1.5	-0.007	2e-05	0	1.5	-0.007	2e-05	0
539	1.5	-0.006	0	0	1.5	-0.006	0	0
540	1.5	-0.005	0	0	1.5	-0.005	0	0
541	1.5	-0.003	0	0	1.5	-0.003	0	0
542	1.5	-0.001	0	0	1.5	-0.001	0	0
543	1.5	0.002	-2e-05	0	1.5	0.002	-2e-05	0
544	1.5	0.003	-2e-05	0	1.5	0.003	-2e-05	0
545	1.5	0.004	-2e-05	0	1.5	0.004	-2e-05	0
546	1.5	0.005	-2e-05	0	1.5	0.005	-2e-05	0
547	1.5	0.007	-2e-05	0	1.5	0.007	-2e-05	0
548	1.5	0.007	0	0	1.5	0.007	0	0
549	1.5	0.008	-2e-05	0	1.5	0.008	-2e-05	0
550	1.5	0.011	-2e-05	0	1.5	0.011	-2e-05	0
551	1.5	0.012	-2e-05	0	1.5	0.012	-2e-05	0
552	1.5	0.013	-2e-05	0	1.5	0.013	-2e-05	0
553	1.5	0.019	-2e-05	0	1.5	0.019	-2e-05	0
554	1.5	0.022	-4e-05	0	1.5	0.022	-4e-05	0
555	2	-0.044	4e-05	0	2	-0.044	4e-05	0
556	2	-0.041	4e-05	0	2	-0.041	4e-05	0
557	2	-0.035	4e-05	0	2	-0.035	4e-05	0
558	2	-0.033	4e-05	0	2	-0.033	4e-05	0
559	2	-0.032	4e-05	0	2	-0.032	4e-05	0
560	2	-0.03	2e-05	0	2	-0.03	2e-05	0
561	2	-0.03	4e-05	0	2	-0.03	4e-05	0
562	2	-0.028	4e-05	0	2	-0.028	4e-05	0
563	2	-0.027	4e-05	0	2	-0.027	4e-05	0
564	2	-0.026	2e-05	0	2	-0.026	2e-05	0
565	2	-0.026	4e-05	0	2	-0.026	4e-05	0
566	2	-0.023	2e-05	0	2	-0.023	2e-05	0
567	2	-0.022	2e-05	0	2	-0.022	2e-05	0
568	2	-0.021	2e-05	0	2	-0.021	2e-05	0
569	2	-0.018	2e-05	0	2	-0.018	2e-05	0
570	2	-0.017	0	0	2	-0.017	0	0
571	2	-0.015	0	0	2	-0.015	0	0
572	2	-0.015	2e-05	0	2	-0.015	2e-05	0
573	2	-0.013	2e-05	0	2	-0.013	2e-05	0
574	2	-0.012	0	0	2	-0.012	0	0
575	2	-0.012	2e-05	0	2	-0.012	2e-05	0
576	2	-0.01	0	0	2	-0.01	0	0
577	2	-0.009	0	0	2	-0.009	0	0
578	2	-0.009	2e-05	0	2	-0.009	2e-05	0
579	2	-0.008	0	0	2	-0.008	0	0
580	2	-0.007	0	0	2	-0.007	0	0
581	2	-0.006	0	0	2	-0.006	0	0
582	2	-0.006	2e-05	0	2	-0.006	2e-05	0
583	2	-0.005	0	0	2	-0.005	0	0
584	2	-0.004	0	0	2	-0.004	0	0
585	2	-0.003	0	0	2	-0.003	0	0
586	2	-0.002	0	0	2	-0.002	0	0
587	2	0	0	0	2	0	0	0
588	2	0.002	-2e-05	0	2	0.002	-2e-05	0
589	2	0.004	-2e-05	0	2	0.004	-2e-05	0
590	2	0.007	0	0	2	0.007	0	0
591	2	0.013	-2e-05	0	2	0.013	-2e-05	0
592	2	0.013	0	0	2	0.013	0	0
593	2	0.025	-4e-05	0	2	0.025	-4e-05	0
594	2	0.028	-2e-05	0	2	0.028	-2e-05	0
595	2	0.029	-2e-05	0	2	0.029	-2e-05	0
596	2.5	-0.042	4e-05	0	2.5	-0.042	4e-05	0
597	2.5	-0.033	4e-05	0	2.5	-0.033	4e-05	0
598	2.5	-0.029	2e-05	0	2.5	-0.029	2e-05	0
599	2.5	-0.027	2e-05	0	2.5	-0.027	2e-05	0
600	2.5	-0.026	4e-05	0	2.5	-0.026	4e-05	0
601	2.5	-0.024	2e-05	0	2.5	-0.024	2e-05	0
602	2.5	-0.022	2e-05	0	2.5	-0.022	2e-05	0
603	2.5	-0.021	2e-05	0	2.5	-0.021	2e-05	0
604	2.5	-0.019	2e-05	0	2.5	-0.019	2e-05	0
605	2.5	-0.017	0	0	2.5	-0.017	0	0
606	2.5	-0.016	0	0	2.5	-0.016	0	0
607	2.5	-0.016	2e-05	0	2.5	-0.016	2e-05	0
608	2.5	-0.014	2e-05	0	2.5	-0.014	2e-05	0
609	2.5	-0.013	2e-05	0	2.5	-0.013	2e-05	0
610	2.5	-0.012	2e-05	0	2.5	-0.012	2e-05	0
611	2.5	-0.01	0	0	2.5	-0.01	0	0
612	2.5	-0.01	2e-05	0	2.5	-0.01	2e-05	0
613	2.5	-0.009	0	0	2.5	-0.009	0	0
614	2.5	-0.009	2e-05	0	2.5	-0.009	2e-05	0
615	2.5	-0.008	2e-05	0	2.5	-0.008	2e-05	0
616	2.5	-0.005	0	0	2.5	-0.005	0	0
617	2.5	-0.003	0	0	2.5	-0.003	0	0
618	2.5	-0.001	0	0	2.5	-0.001	0	0
619	2.5	0.002	-2e-05	0	2.5	0.002	-2e-05	0
620	2.5	0.003	-2e-05	0	2.5	0.003	-2e-05	0
621	2.5	0.004	-2e-05	0	2.5	0.004	-2e-05	0
622	2.5	0.005	-2e-05	0	2.5	0.005	-2e-05	0
623	2.5	0.007	-2e-05	0	2.5	0.007	-2e-05	0
624	2.5	0.008	-2e-05	0	2.5	0.008	-2e-05	0
625	2.5	0.009	-2e-05	0	2.5	0.009	-2e-05	0
626	2.5	0.023	-2e-05	0	2.5	0.023	-2e-05	0
627	3	-0.049	6e-05	0	3	-0.049	6e-05	0
628	3	-0.029	2e-05	0	3	-0.029	2e-05	0
629	3	-0.028	4e-05	0	3	-0.028	4e-05	0
630	3	-0.027	4e-05	0	3	-0.027	4e-05	0
631	3	-0.024	2e-05	0	3	-0.024	2e-05	0
632	3	-0.023	2e-05	0	3	-0.023	2e-05	0
633	3	-0.022	2e-05	0	3	-0.022	2e-05	0
634	3	-0.019	0	0	3	-0.019	0	0
635	3	-0.019	2e-05	0	3	-0.019	2e-05	0
636	3	-0.015	2e-05	0	3	-0.015	2e-05	0
637	3	-0.014	2e-05	0	3	-0.014	2e-05	0
638	3	-0.013	2e-05	0	3	-0.013	2e-05	0
639	3	-0.012	2e-05	0	3	-0.012	2e-05	0
640	3	-0.011	0	0	3	-0.011	0	0
641	3	-0.01	0	0	3	-0.01	0	0
642	3	-0.01	2e-05	0	3	-0.01	2e-05	0
643	3	-0.009	0	0	3	-0.009	0	0
644	3	-0.008	0	0	3	-0.008	0	0
645	3	-0.008	2e-05	0	3	-0.008	2e-05	0
646	3	-0.007	0	0	3	-0.007	0	0
647	3	-0.006	0	0	3	-0.006	0	0
648	3	0	0	0	3	0	0	0
649	3	0.001	-2e-05	0	3	0.001	-2e-05	0
650	3	0.002	-2e-05	0	3	0.002	-2e-05	0
651	3	0.007	-2e-05	0	3	0.007	-2e-05	0
652	3	0.008	0	0	3	0.008	0	0
653	3.5	-0.032	4e-05	0	3.5	-0.032	4e-05	0
654	3.5	-0.029	2e-05	0	3.5	-0.029	2e-05	0
655	3.5	-0.028	4e-05	0	3.5	-0.028	4e-05	0
656	3.5	-0.024	2e-05	0	3.5	-0.024	2e-05	0
657	3.5	-0.023	2e-05	0	3.5	-0.023	2e-05	0
658	3.5	-0.022	2e-05	0	3.5	-0.022	2e-05	0
659	3.5	-0.021	2e-05	0	3.5	-0.021	2e-05	0
660	3.5	-0.017	0	0	3.5	-0.017	0	0
661	3.5	-0.017	2e-05	0	3.5	-0.017	2e-05	0
662	3.5	-0.016	2e-05	0	3.5	-0.016	2e-05	0
663	3.5	-0.014	2e-05	0	3.5	-0.014	2e-05	0
664	3.5	-0.002	0	0	3.5	-0.002	0	0
665	3.5	0	-2e-05	0	3.5	0	-2e-05	0
666	3.5	0.002	-2e-05	0	3.5	0.002	-2e-05	0
667	3.5	0.003	0	0	3.5	0.003	0	0
668	3.5	0.004	0	0	3.5	0.004	0	0
669	3.5	0.011	-2e-05	0	3.5	0.011	-2e-05	0
670	3.5	0.014	-2e-05	0	3.5	0.014	-2e-05	0
671	3.5	0.024	-4e-05	0	3.5	0.024	-4e-05	0
672	4	-0.048	6e-05	0	4	-0.048	6e-05	0
673	4	-0.043	4e-05	0	4	-0.043	4e-05	0
674	4	-0.036	4e-05	0	4	-0.036	4e-05	0
675	4	-0.032	2e-05	0	4	-0.032	2e-05	0
676	4	-0.032	4e-05	0	4	-0.032	4e-05	0
677	4	-0.031	4e-05	0	4	-0.031	4e-05	0
678	4	-0.029	4e-05	0	4	-0.029	4e-05	0
679	4	-0.024	2e-05	0	4	-0.024	2e-05	0
680	4	-0.02	0	0	4	-0.02	0	0
681	4	-0.019	2e-05	0	4	-0.019	2e-05	0
682	4	-0.018	2e-05	0	4	-0.018	2e-05	0
683	4	-0.014	2e-05	0	4	-0.014	2e-05	0
684	4	-0.013	0	0	4	-0.013	0	0
685	4	-0.007	0	0	4	-0.007	0	0
686	4	-0.006	0	0	4	-0.006	0	0
687	4	-0.003	0	0	4	-0.003	0	0
688	4	0	0	0	4	0	0	0
689	4	0.004	-2e-05	0	4	0.004	-2e-05	0
690	4	0.008	-2e-05	0	4	0.008	-2e-05	0
691	4	0.012	-2e-05	0	4	0.012	-2e-05	0
692	4.5	-0.05	6e-05	0	4.5	-0.05	6e-05	0
693	4.5	-0.038	4e-05	0	4.5	-0.038	4e-05	0
694	4.5	-0.033	4e-05	0	4.5	-0.033	4e-05	0
695	4.5	-0.032	4e-05	0	4.5	-0.032	4e-05	0
696	4.5	-0.031	4e-05	0	4.5	-0.031	4e-05	0
697	4.5	-0.028	2e-05	0	4.5	-0.028	2e-05	0
698	4.5	-0.028	4e-05	0	4.5	-0.028	4e-05	0
699	4.5	-0.025	2e-05	0	4.5	-0.025	2e-05	0
700	4.5	-0.021	2e-05	0	4.5	-0.021	2e-05	0
701	4.5	-0.02	0	0	4.5	-0.02	0	0
702	4.5	-0.02	2e-05	0	4.5	-0.02	2e-05	0
703	4.5	-0.018	2e-05	0	4.5	-0.018	2e-05	0
704	4.5	-0.014	2e-05	0	4.5	-0.014	2e-05	0
705	4.5	-0.013	0	0	4.5	-0.013	0	0
706	4.5	-0.011	2e-05	0	4.5	-0.011	2e-05	0
707	4.5	-0.004	0	0	4.5	-0.004	0	0
708	5	-0.036	2e-05	0	5	-0.036	2e-05	0
709	5	-0.033	4e-05	0	5	-0.033	4e-05	0
710	5	-0.03	2e-05	0	5	-0.03	2e-05	0
711	5	-0.029	2e-05	0	5	-0.029	2e-05	0
712	5	-0.029	4e-05	0	5	-0.029	4e-05	0
713	5	-0.024	2e-05	0	5	-0.024	2e-05	0
714	5	-0.021	2e-05	0	5	-0.021	2e-05	0
715	5	-0.018	2e-05	0	5	-0.018	2e-05	0
716	5	-0.017	2e-05	0	5	-0.017	2e-05	0
717	5	-0.01	0	0	5	-0.01	0	0
718	5	-0.001	-2e-05	0	5	-0.001	-2e-05	0
719	5	0.011	-2e-05	0	5	0.011	-2e-05	0
720	5.5	-0.056	6e-05	0	5.5	-0.056	6e-05	0
721	5.5	-0.053	6e-05	0	5.5	-0.053	6e-05	0
722	5.5	-0.051	6e-05	0	5.5	-0.051	6e-05	0
723	5.5	-0.034	2e-05	0	5.5	-0.034	2e-05	0
724	5.5	-0.031	4e-05	0	5.5	-0.031	4e-05	0
725	5.5	-0.029	2e-05	0	5.5	-0.029	2e-05	0
726	5.5	-0.026	2e-05	0	5.5	-0.026	2e-05	0
727	5.5	-0.025	2e-05	0	5.5	-0.025	2e-05	0
728	5.5	-0.017	2e-05	0	5.5	-0.017	2e-05	0
729	5.5	-0.016	2e-05	0	5.5	-0.016	2e-05	0
730	5.5	-0.015	2e-05	0	5.5	-0.015	2e-05	0
731	5.5	-0.014	0	0	5.5	-0.014	0	0
732	5.5	-0.012	0	0	5.5	-0.012	0	0
733	5.5	0.001	-2e-05	0	5.5	0.001	-2e-05	0
734	6	-0.047	4e-05	0	6	-0.047	4e-05	0
735	6	-0.042	4e-05	0	6	-0.042	4e-05	0
736	6	-0.038	2e-05	0	6	-0.038	2e-05	0
737	6	-0.031	4e-05	0	6	-0.031	4e-05	0
738	6	-0.026	2e-05	0	6	-0.026	2e-05	0
739	6	-0.025	2e-05	0	6	-0.025	2e-05	0
740	6	-0.022	2e-05	0	6	-0.022	2e-05	0
741	6	-0.02	2e-05	0	6	-0.02	2e-05	0
742	6	-0.015	0	0	6	-0.015	0	0
743	6	-0.008	0	0	6	-0.008	0	0
744	6	-0.001	-2e-05	0	6	-0.001	-2e-05	0
745	6.5	-0.058	6e-05	0	6.5	-0.058	6e-05	0
746	6.5	-0.047	4e-05	0	6.5	-0.047	4e-05	0
747	6.5	-0.039	2e-05	0	6.5	-0.039	2e-05	0
748	6.5	-0.035	2e-05	0	6.5	-0.035	2e-05	0
749	6.5	-0.032	2e-05	0	6.5	-0.032	2e-05	0
750	6.5	-0.032	4e-05	0	6.5	-0.032	4e-05	0
751	6.5	-0.024	2e-05	0	6.5	-0.024	2e-05	0
752	6.5	-0.023	0	0	6.5	-0.023	0	0
753	6.5	-0.022	0	0	6.5	-0.022	0	0
754	6.5	-0.018	0	0	6.5	-0.018	0	0
755	6.5	-0.01	0	0	6.5	-0.01	0	0
756	7	-0.056	4e-05	0	7	-0.056	4e-05	0
757	7	-0.033	2e-05	0	7	-0.033	2e-05	0
758	7	-0.024	2e-05	0	7	-0.024	2e-05	0
759	7	-0.022	0	0	7	-0.022	0	0
760	7.5	-0.06	6e-05	0	7.5	-0.06	6e-05	0
761	7.5	-0.058	6e-05	0	7.5	-0.058	6e-05	0
762	7.5	-0.039	4e-05	0	7.5	-0.039	4e-05	0
763	7.5	-0.031	2e-05	0	7.5	-0.031	2e-05	0
764	7.5	-0.028	2e-05	0	7.5	-0.028	2e-05	0
765	8	-0.046	4e-05	0	8	-0.046	4e-05	0
766	8	-0.038	4e-05	0	8	-0.038	4e-05	0
767	8	-0.03	2e-05	0	8	-0.03	2e-05	0
768	8	-0.021	2e-05	0	8	-0.021	2e-05	0
769	8.5	-0.035	4e-05	0	8.5	-0.035	4e-05	0
770	8.5	-0.034	4e-05	0	8.5	-0.034	4e-05	0
771	9	-0.033	2e-05	0	9	-0.033	2e-05	0
772	-9	0.02	-2e-05	0	-9	0.02	-2e-05	0
773	-9	0.021	0	0	-9	0.021	0	0
774	-9	0.031	-2e-05	0	-9	0.031	-2e-05	0
775	-8.5	0.053	-6e-05	0	-8.5	0.053	-6e-05	0
776	-8.5	0.054	-6e-05	0	-8.5	0.054	-6e-05	0
777	-8	0.04	-2e-05	0	-8	0.04	-2e-05	0
778	-7.5	0.017	0	0	-7.5	0.017	0	0
779	-7.5	0.019	0	0	-7.5	0.019	0	0
780	-7.5	0.02	0	0	-7.5	0.02	0	0
781	-7.5	0.032	-2e-05	0	-7.5	0.032	-2e-05	0
782	-7.5	0.033	-2e-05	0	-7.5	0.033	-2e-05	0
783	-7.5	0.036	-4e-05	0	-7.5	0.036	-4e-05	0
784	-7.5	0.037	-2e-05	0	-7.5	0.037	-2e-05	0
785	-7.5	0.038	-4e-05	0	-7.5	0.038	-4e-05	0
786	-7.5	0.039	-4e-05	0	-7.5	0.039	-4e-05	0
787	-7.5	0.042	-4e-05	0	-7.5	0.042	-4e-05	0
788	-7.5	0.045	-4e-05	0	-7.5	0.045	-4e-05	0
789	-7.5	0.051	-6e-05	0	-7.5	0.051	-6e-05	0
790	-7.5	0.054	-6e-05	0	-7.5	0.054	-6e-05	0
791	-7	0.003	2e-05	0	-7	0.003	2e-05	0
792	-7	0.018	0	0	-7	0.018	0	0
793	-7	0.026	-2e-05	0	-7	0.026	-2e-05	0
794	-6.5	0.003	0	0	-6.5	0.003	0	0
795	-6.5	0.011	-2e-05	0	-6.5	0.011	-2e-05	0
796	-6.5	0.011	0	0	-6.5	0.011	0	0
797	-6.5	0.018	-2e-05	0	-6.5	0.018	-2e-05	0
798	-6.5	0.032	-2e-05	0	-6.5	0.032	-2e-05	0
799	-6.5	0.044	-4e-05	0	-6.5	0.044	-4e-05	0
800	-6.5	0.048	-4e-05	0	-6.5	0.048	-4e-05	0
801	-6.5	0.051	-6e-05	0	-6.5	0.051	-6e-05	0
802	-6.5	0.052	-6e-05	0	-6.5	0.052	-6e-05	0
803	-6	-0.001	2e-05	0	-6	-0.001	2e-05	0
804	-6	0	2e-05	0	-6	0	2e-05	0
805	-6	0.025	-2e-05	0	-6	0.025	-2e-05	0
806	-6	0.03	-4e-05	0	-6	0.03	-4e-05	0
807	-6	0.031	-2e-05	0	-6	0.031	-2e-05	0
808	-6	0.04	-4e-05	0	-6	0.04	-4e-05	0
809	-6	0.045	-4e-05	0	-6	0.045	-4e-05	0
810	-6	0.047	-4e-05	0	-6	0.047	-4e-05	0
811	-6	0.051	-6e-05	0	-6	0.051	-6e-05	0
812	-5.5	0.01	0	0	-5.5	0.01	0	0
813	-5.5	0.014	-2e-05	0	-5.5	0.014	-2e-05	0
814	-5.5	0.014	0	0	-5.5	0.014	0	0
815	-5.5	0.019	0	0	-5.5	0.019	0	0
816	-5.5	0.023	-2e-05	0	-5.5	0.023	-2e-05	0
817	-5.5	0.025	-2e-05	0	-5.5	0.025	-2e-05	0
818	-5.5	0.034	-4e-05	0	-5.5	0.034	-4e-05	0
819	-5.5	0.045	-4e-05	0	-5.5	0.045	-4e-05	0
820	-5	-0.02	4e-05	0	-5	-0.02	4e-05	0
821	-5	0	0	0	-5	0	0	0
822	-5	0	2e-05	0	-5	0	2e-05	0
823	-5	0.001	2e-05	0	-5	0.001	2e-05	0
824	-5	0.002	0	0	-5	0.002	0	0
825	-5	0.006	0	0	-5	0.006	0	0
826	-5	0.008	0	0	-5	0.008	0	0
827	-5	0.014	-2e-05	0	-5	0.014	-2e-05	0
828	-5	0.016	0	0	-5	0.016	0	0
829	-5	0.017	0	0	-5	0.017	0	0
830	-5	0.018	0	0	-5	0.018	0	0
831	-5	0.03	-4e-05	0	-5	0.03	-4e-05	0
832	-5	0.031	-4e-05	0	-5	0.031	-4e-05	0
833	-5	0.032	-4e-05	0	-5	0.032	-4e-05	0
834	-5	0.033	-4e-05	0	-5	0.033	-4e-05	0
835	-5	0.034	-4e-05	0	-5	0.034	-4e-05	0
836	-5	0.035	-4e-05	0	-5	0.035	-4e-05	0
837	-5	0.041	-4e-05	0	-5	0.041	-4e-05	0
838	-5	0.049	-6e-05	0	-5	0.049	-6e-05	0
839	-5	0.052	-6e-05	0	-5	0.052	-6e-05	0
840	-5	0.053	-6e-05	0	-5	0.053	-6e-05	0
841	-4.5	-0.002	2e-05	0	-4.5	-0.002	2e-05	0
842	-4.5	0	0	0	-4.5	0	0	0
843	-4.5	0.005	0	0	-4.5	0.005	0	0
844	-4.5	0.009	0	0	-4.5	0.009	0	0
845	-4.5	0.02	-2e-05	0	-4.5	0.02	-2e-05	0
846	-4.5	0.03	-2e-05	0	-4.5	0.03	-2e-05	0
847	-4.5	0.035	-4e-05	0	-4.5	0.035	-4e-05	0
848	-4.5	0.035	-2e-05	0	-4.5	0.035	-2e-05	0
849	-4.5	0.036	-2e-05	0	-4.5	0.036	-2e-05	0
850	-4	-0.015	2e-05	0	-4	-0.015	2e-05	0
851	-4	-0.011	2e-05	0	-4	-0.011	2e-05	0
852	-4	-0.01	2e-05	0	-4	-0.01	2e-05	0
853	-4	-0.001	0	0	-4	-0.001	0	0
854	-4	0	0	0	-4	0	0	0
855	-4	0.001	0	0	-4	0.001	0	0
856	-4	0.004	0	0	-4	0.004	0	0
857	-4	0.005	0	0	-4	0.005	0	0
858	-4	0.007	0	0	-4	0.007	0	0
859	-4	0.012	0	0	-4	0.012	0	0
860	-4	0.016	-2e-05	0	-4	0.016	-2e-05	0
861	-4	0.021	-2e-05	0	-4	0.021	-2e-05	0
862	-4	0.028	-4e-05	0	-4	0.028	-4e-05	0
863	-4	0.028	-2e-05	0	-4	0.028	-2e-05	0
864	-4	0.03	-4e-05	0	-4	0.03	-4e-05	0
865	-4	0.033	-2e-05	0	-4	0.033	-2e-05	0
866	-4	0.038	-4e-05	0	-4	0.038	-4e-05	0
867	-4	0.039	-4e-05	0	-4	0.039	-4e-05	0
868	-4	0.042	-4e-05	0	-4	0.042	-4e-05	0
869	-4	0.049	-6e-05	0	-4	0.049	-6e-05	0
870	-3.5	-0.027	4e-05	0	-3.5	-0.027	4e-05	0
871	-3.5	-0.005	2e-05	0	-3.5	-0.005	2e-05	0
872	-3.5	-0.002	0	0	-3.5	-0.002	0	0
873	-3.5	-0.001	2e-05	0	-3.5	-0.001	2e-05	0
874	-3.5	0	0	0	-3.5	0	0	0
875	-3.5	0.005	0	0	-3.5	0.005	0	0
876	-3.5	0.007	-2e-05	0	-3.5	0.007	-2e-05	0
877	-3.5	0.007	0	0	-3.5	0.007	0	0
878	-3.5	0.008	0	0	-3.5	0.008	0	0
879	-3.5	0.009	0	0	-3.5	0.009	0	0
880	-3.5	0.012	0	0	-3.5	0.012	0	0
881	-3.5	0.013	0	0	-3.5	0.013	0	0
882	-3.5	0.014	0	0	-3.5	0.014	0	0
883	-3.5	0.016	-2e-05	0	-3.5	0.016	-2e-05	0
884	-3.5	0.016	0	0	-3.5	0.016	0	0
885	-3.5	0.017	-2e-05	0	-3.5	0.017	-2e-05	0
886	-3.5	0.021	-2e-05	0	-3.5	0.021	-2e-05	0
887	-3.5	0.022	-2e-05	0	-3.5	0.022	-2e-05	0
888	-3.5	0.028	-4e-05	0	-3.5	0.028	-4e-05	0
889	-3.5	0.029	-2e-05	0	-3.5	0.029	-2e-05	0
890	-3.5	0.032	-4e-05	0	-3.5	0.032	-4e-05	0
891	-3.5	0.035	-4e-05	0	-3.5	0.035	-4e-05	0
892	-3.5	0.036	-2e-05	0	-3.5	0.036	-2e-05	0
893	-3.5	0.038	-4e-05	0	-3.5	0.038	-4e-05	0
894	-3.5	0.051	-6e-05	0	-3.5	0.051	-6e-05	0
895	-3.5	0.052	-6e-05	0	-3.5	0.052	-6e-05	0
896	-3	-0.023	4e-05	0	-3	-0.023	4e-05	0
897	-3	-0.022	4e-05	0	-3	-0.022	4e-05	0
898	-3	-0.017	2e-05	0	-3	-0.017	2e-05	0
899	-3	-0.013	2e-05	0	-3	-0.013	2e-05	0
900	-3	-0.006	0	0	-3	-0.006	0	0
901	-3	-0.003	2e-05	0	-3	-0.003	2e-05	0
902	-3	-0.002	2e-05	0	-3	-0.002	2e-05	0
903	-3	0.001	0	0	-3	0.001	0	0
904	-3	0.002	0	0	-3	0.002	0	0
905	-3	0.003	0	0	-3	0.003	0	0
906	-3	0.004	0	0	-3	0.004	0	0
907	-3	0.006	0	0	-3	0.006	0	0
908	-3	0.007	0	0	-3	0.007	0	0
909	-3	0.008	0	0	-3	0.008	0	0
910	-3	0.01	-2e-05	0	-3	0.01	-2e-05	0
911	-3	0.014	-2e-05	0	-3	0.014	-2e-05	0
912	-3	0.014	0	0	-3	0.014	0	0
913	-3	0.015	0	0	-3	0.015	0	0
914	-3	0.017	-2e-05	0	-3	0.017	-2e-05	0
915	-3	0.017	0	0	-3	0.017	0	0
916	-3	0.018	-2e-05	0	-3	0.018	-2e-05	0
917	-3	0.018	0	0	-3	0.018	0	0
918	-3	0.024	-2e-05	0	-3	0.024	-2e-05	0
919	-3	0.025	-2e-05	0	-3	0.025	-2e-05	0
920	-3	0.028	-4e-05	0	-3	0.028	-4e-05	0
921	-3	0.028	-2e-05	0	-3	0.028	-2e-05	0
922	-3	0.03	-4e-05	0	-3	0.03	-4e-05	0
923	-3	0.038	-4e-05	0	-3	0.038	-4e-05	0
924	-3	0.066	-8e-05	0	-3	0.066	-8e-05	0
925	-2.5	-0.03	4e-05	0	-2.5	-0.03	4e-05	0
926	-2.5	-0.025	4e-05	0	-2.5	-0.025	4e-05	0
927	-2.5	-0.024	4e-05	0	-2.5	-0.024	4e-05	0
928	-2.5	-0.007	2e-05	0	-2.5	-0.007	2e-05	0
929	-2.5	-0.006	2e-05	0	-2.5	-0.006	2e-05	0
930	-2.5	-0.002	2e-05	0	-2.5	-0.002	2e-05	0
931	-2.5	-0.001	0	0	-2.5	-0.001	0	0
932	-2.5	0.004	0	0	-2.5	0.004	0	0
933	-2.5	0.005	0	0	-2.5	0.005	0	0
934	-2.5	0.006	0	0	-2.5	0.006	0	0
935	-2.5	0.007	-2e-05	0	-2.5	0.007	-2e-05	0
936	-2.5	0.008	0	0	-2.5	0.008	0	0
937	-2.5	0.009	-2e-05	0	-2.5	0.009	-2e-05	0
938	-2.5	0.01	0	0	-2.5	0.01	0	0
939	-2.5	0.011	0	0	-2.5	0.011	0	0
940	-2.5	0.012	-2e-05	0	-2.5	0.012	-2e-05	0
941	-2.5	0.012	0	0	-2.5	0.012	0	0
942	-2.5	0.013	-2e-05	0	-2.5	0.013	-2e-05	0
943	-2.5	0.016	-2e-05	0	-2.5	0.016	-2e-05	0
944	-2.5	0.016	0	0	-2.5	0.016	0	0
945	-2.5	0.023	-2e-05	0	-2.5	0.023	-2e-05	0
946	-2.5	0.024	-2e-05	0	-2.5	0.024	-2e-05	0
947	-2.5	0.026	-4e-05	0	-2.5	0.026	-4e-05	0
948	-2.5	0.03	-4e-05	0	-2.5	0.03	-4e-05	0
949	-2.5	0.03	-2e-05	0	-2.5	0.03	-2e-05	0
950	-2.5	0.032	-2e-05	0	-2.5	0.032	-2e-05	0
951	-2.5	0.034	-4e-05	0	-2.5	0.034	-4e-05	0
952	-2.5	0.036	-4e-05	0	-2.5	0.036	-4e-05	0
953	-2.5	0.044	-4e-05	0	-2.5	0.044	-4e-05	0
954	-2.5	0.046	-6e-05	0	-2.5	0.046	-6e-05	0
955	-2	-0.023	4e-05	0	-2	-0.023	4e-05	0
956	-2	-0.018	2e-05	0	-2	-0.018	2e-05	0
957	-2	-0.009	2e-05	0	-2	-0.009	2e-05	0
958	-2	-0.006	0	0	-2	-0.006	0	0
959	-2	-0.005	2e-05	0	-2	-0.005	2e-05	0
960	-2	-0.002	2e-05	0	-2	-0.002	2e-05	0
961	-2	-0.001	0	0	-2	-0.001	0	0
962	-2	0	0	0	-2	0	0	0
963	-2	0.002	0	0	-2	0.002	0	0
964	-2	0.006	-2e-05	0	-2	0.006	-2e-05	0
965	-2	0.006	0	0	-2	0.006	0	0
966	-2	0.007	0	0	-2	0.007	0	0
967	-2	0.008	-2e-05	0	-2	0.008	-2e-05	0
968	-2	0.008	0	0	-2	0.008	0	0
969	-2	0.009	0	0	-2	0.009	0	0
970	-2	0.01	-2e-05	0	-2	0.01	-2e-05	0
971	-2	0.01	0	0	-2	0.01	0	0
972	-2	0.014	-2e-05	0	-2	0.014	-2e-05	0
973	-2	0.015	-2e-05	0	-2	0.015	-2e-05	0
974	-2	0.016	0	0	-2	0.016	0	0
975	-2	0.021	-2e-05	0	-2	0.021	-2e-05	0
976	-2	0.023	-2e-05	0	-2	0.023	-2e-05	0
977	-2	0.027	-4e-05	0	-2	0.027	-4e-05	0
978	-2	0.028	-4e-05	0	-2	0.028	-4e-05	0
979	-2	0.032	-4e-05	0	-2	0.032	-4e-05	0
980	-2	0.046	-6e-05	0	-2	0.046	-6e-05	0
981	-1.5	-0.028	4e-05	0	-1.5	-0.028	4e-05	0
982	-1.5	-0.023	4e-05	0	-1.5	-0.023	4e-05	0
983	-1.5	-0.014	2e-05	0	-1.5	-0.014	2e-05	0
984	-1.5	-0.012	2e-05	0	-1.5	-0.012	2e-05	0
985	-1.5	-0.009	0	0	-1.5	-0.009	0	0
986	-1.5	-0.009	2e-05	0	-1.5	-0.009	2e-05	0
987	-1.5	-0.007	2e-05	0	-1.5	-0.007	2e-05	0
988	-1.5	-0.006	2e-05	0	-1.5	-0.006	2e-05	0
989	-1.5	-0.005	0	0	-1.5	-0.005	0	0
990	-1.5	-0.003	2e-05	0	-1.5	-0.003	2e-05	0
991	-1.5	-0.002	0	0	-1.5	-0.002	0	0
992	-1.5	-0.002	2e-05	0	-1.5	-0.002	2e-05	0
993	-1.5	0	0	0	-1.5	0	0	0
994	-1.5	0.001	0	0	-1.5	0.001	0	0
995	-1.5	0.002	0	0	-1.5	0.002	0	0
996	-1.5	0.004	0	0	-1.5	0.004	0	0
997	-1.5	0.005	-2e-05	0	-1.5	0.005	-2e-05	0
998	-1.5	0.005	0	0	-1.5	0.005	0	0
999	-1.5	0.006	-2e-05	0	-1.5	0.006	-2e-05	0
1000	-1.5	0.006	0	0	-1.5	0.006	0	0
1001	-1.5	0.007	-2e-05	0	-1.5	0.007	-2e-05	0
1002	-1.5	0.007	0	0	-1.5	0.007	0	0
1003	-1.5	0.008	-2e-05	0	-1.5	0.008	-2e-05	0
1004	-1.5	0.008	0	0	-1.5	0.008	0	0
1005	-1.5	0.011	-2e-05	0	-1.5	0.011	-2e-05	0
1006	-1.5	0.012	-2e-05	0	-1.5	0.012	-2e-05	0
1007	-1.5	0.013	-2e-05	0	-1.5	0.013	-2e-05	0
1008	-1.5	0.013	0	0	-1.5	0.013	0	0
1009	-1.5	0.014	-2e-05	0	-1.5	0.014	-2e-05	0
1010	-1.5	0.015	-2e-05	0	-1.5	0.015	-2e-05	0
1011	-1.5	0.017	-2e-05	0	-1.5	0.017	-2e-05	0
1012	-1.5	0.018	-2e-05	0	-1.5	0.018	-2e-05	0
1013	-1.5	0.021	-2e-05	0	-1.5	0.021	-2e-05	0
1014	-1.5	0.022	-2e-05	0	-1.5	0.022	-2e-05	0
1015	-1.5	0.025	-4e-05	0	-1.5	0.025	-4e-05	0
1016	-1.5	0.027	-2e-05	0	-1.5	0.027	-2e-05	0
1017	-1.5	0.028	-4e-05	0	-1.5	0.028	-4e-05	0
1018	-1.5	0.029	-4e-05	0	-1.5	0.029	-4e-05	0
1019	-1.5	0.034	-2e-05	0	-1.5	0.034	-2e-05	0
1020	-1.5	0.046	-4e-05	0	-1.5	0.046	-4e-05	0
1021	-1	-0.033	4e-05	0	-1	-0.033	4e-05	0
1022	-1	-0.03	4e-05	0	-1	-0.03	4e-05	0
1023	-1	-0.024	4e-05	0	-1	-0.024	4e-05	0
1024	-1	-0.018	2e-05	0	-1	-0.018	2e-05	0
1025	-1	-0.017	2e-05	0	-1	-0.017	2e-05	0
1026	-1	-0.016	2e-05	0	-1	-0.016	2e-05	0
1027	-1	-0.014	2e-05	0	-1	-0.014	2e-05	0
1028	-1	-0.013	0	0	-1	-0.013	0	0
1029	-1	-0.013	2e-05	0	-1	-0.013	2e-05	0
1030	-1	-0.009	0	0	-1	-0.009	0	0
1031	-1	-0.009	2e-05	0	-1	-0.009	2e-05	0
1032	-1	-0.008	0	0	-1	-0.008	0	0
1033	-1	-0.007	2e-05	0	-1	-0.007	2e-05	0
1034	-1	-0.006	0	0	-1	-0.006	0	0
1035	-1	-0.006	2e-05	0	-1	-0.006	2e-05	0
1036	-1	-0.005	0	0	-1	-0.005	0	0
1037	-1	-0.005	2e-05	0	-1	-0.005	2e-05	0
1038	-1	-0.004	0	0	-1	-0.004	0	0
1039	-1	-0.004	2e-05	0	-1	-0.004	2e-05	0
1040	-1	-0.003	0	0	-1	-0.003	0	0
1041	-1	-0.003	2e-05	0	-1	-0.003	2e-05	0
1042	-1	-0.002	0	0	-1	-0.002	0	0
1043	-1	-0.001	0	0	-1	-0.001	0	0
1044	-1	0	0	0	-1	0	0	0
1045	-1	0.001	0	0	-1	0.001	0	0
1046	-1	0.002	0	0	-1	0.002	0	0
1047	-1	0.003	0	0	-1	0.003	0	0
1048	-1	0.004	0	0	-1	0.004	0	0
1049	-1	0.005	-2e-05	0	-1	0.005	-2e-05	0
1050	-1	0.005	0	0	-1	0.005	0	0
1051	-1	0.006	-2e-05	0	-1	0.006	-2e-05	0
1052	-1	0.006	0	0	-1	0.006	0	0
1053	-1	0.007	-2e-05	0	-1	0.007	-2e-05	0
1054	-1	0.007	0	0	-1	0.007	0	0
1055	-1	0.008	-2e-05	0	-1	0.008	-2e-05	0
1056	-1	0.008	0	0	-1	0.008	0	0
1057	-1	0.009	-2e-05	0	-1	0.009	-2e-05	0
1058	-1	0.01	-2e-05	0	-1	0.01	-2e-05	0
1059	-1	0.011	-2e-05	0	-1	0.011	-2e-05	0
1060	-1	0.012	-2e-05	0	-1	0.012	-2e-05	0
1061	-1	0.012	0	0	-1	0.012	0	0
1062	-1	0.013	-2e-05	0	-1	0.013	-2e-05	0
1063	-1	0.014	-2e-05	0	-1	0.014	-2e-05	0
1064	-1	0.014	0	0	-1	0.014	0	0
1065	-1	0.015	0	0	-1	0.015	0	0
1066	-1	0.016	-2e-05	0	-1	0.016	-2e-05	0
1067	-1	0.016	0	0	-1	0.016	0	0
1068	-1	0.021	-2e-05	0	-1	0.021	-2e-05	0
1069	-1	0.03	-4e-05	0	-1	0.03	-4e-05	0
1070	-1	0.03	-2e-05	0	-1	0.03	-2e-05	0
1071	-1	0.031	-4e-05	0	-1	0.031	-4e-05	0
1072	-1	0.033	-2e-05	0	-1	0.033	-2e-05	0
1073	-0.5	-0.036	4e-05	0	-0.5	-0.036	4e-05	0
1074	-0.5	-0.026	2e-05	0	-0.5	-0.026	2e-05	0
1075	-0.5	-0.025	2e-05	0	-0.5	-0.025	2e-05	0
1076	-0.5	-0.024	4e-05	0	-0.5	-0.024	4e-05	0
1077	-0.5	-0.023	2e-05	0	-0.5	-0.023	2e-05	0
1078	-0.5	-0.023	4e-05	0	-0.5	-0.023	4e-05	0
1079	-0.5	-0.019	2e-05	0	-0.5	-0.019	2e-05	0
1080	-0.5	-0.018	2e-05	0	-0.5	-0.018	2e-05	0
1081	-0.5	-0.012	2e-05	0	-0.5	-0.012	2e-05	0
1082	-0.5	-0.011	2e-05	0	-0.5	-0.011	2e-05	0
1083	-0.5	-0.01	2e-05	0	-0.5	-0.01	2e-05	0
1084	-0.5	-0.009	0	0	-0.5	-0.009	0	0
1085	-0.5	-0.009	2e-05	0	-0.5	-0.009	2e-05	0
1086	-0.5	-0.008	0	0	-0.5	-0.008	0	0
1087	-0.5	-0.008	2e-05	0	-0.5	-0.008	2e-05	0
1088	-0.5	-0.007	0	0	-0.5	-0.007	0	0
1089	-0.5	-0.007	2e-05	0	-0.5	-0.007	2e-05	0
1090	-0.5	-0.006	0	0	-0.5	-0.006	0	0
1091	-0.5	-0.006	2e-05	0	-0.5	-0.006	2e-05	0
1092	-0.5	-0.005	0	0	-0.5	-0.005	0	0
1093	-0.5	-0.003	0	0	-0.5	-0.003	0	0
1094	-0.5	-0.003	2e-05	0	-0.5	-0.003	2e-05	0
1095	-0.5	-0.002	0	0	-0.5	-0.002	0	0
1096	-0.5	-0.001	0	0	-0.5	-0.001	0	0
1097	-0.5	0	0	0	-0.5	0	0	0
1098	-0.5	0.002	0	0	-0.5	0.002	0	0
1099	-0.5	0.003	0	0	-0.5	0.003	0	0
1100	-0.5	0.004	-2e-05	0	-0.5	0.004	-2e-05	0
1101	-0.5	0.004	0	0	-0.5	0.004	0	0
1102	-0.5	0.005	-2e-05	0	-0.5	0.005	-2e-05	0
1103	-0.5	0.005	0	0	-0.5	0.005	0	0
1104	-0.5	0.007	-2e-05	0	-0.5	0.007	-2e-05	0
1105	-0.5	0.008	-2e-05	0	-0.5	0.008	-2e-05	0
1106	-0.5	0.009	-2e-05	0	-0.5	0.009	-2e-05	0
1107	-0.5	0.009	0	0	-0.5	0.009	0	0
1108	-0.5	0.01	-2e-05	0	-0.5	0.01	-2e-05	0
1109	-0.5	0.01	0	0	-0.5	0.01	0	0
1110	-0.5	0.011	-2e-05	0	-0.5	0.011	-2e-05	0
1111	-0.5	0.011	0	0	-0.5	0.011	0	0
1112	-0.5	0.012	-2e-05	0	-0.5	0.012	-2e-05	0
1113	-0.5	0.012	0	0	-0.5	0.012	0	0
1114	-0.5	0.013	-2e-05	0	-0.5	0.013	-2e-05	0
1115	-0.5	0.016	-2e-05	0	-0.5	0.016	-2e-05	0
1116	-0.5	0.016	0	0	-0.5	0.016	0	0
1117	-0.5	0.017	-2e-05	0	-0.5	0.017	-2e-05	0
1118	-0.5	0.018	-2e-05	0	-0.5	0.018	-2e-05	0
1119	-0.5	0.022	-2e-05	0	-0.5	0.022	-2e-05	0
1120	-0.5	0.025	-4e-05	0	-0.5	0.025	-4e-05	0
1121	-0.5	0.029	-4e-05	0	-0.5	0.029	-4e-05	0
1122	-0.5	0.031	-4e-05	0	-0.5	0.031	-4e-05	0
1123	-0.5	0.033	-2e-05	0	-0.5	0.033	-2e-05	0
1124	-0.5	0.038	-4e-05	0	-0.5	0.038	-4e-05	0
1125	0	-0.034	4e-05	0	0	-0.034	4e-05	0
1126	0	-0.03	4e-05	0	0	-0.03	4e-05	0
1127	0	-0.028	4e-05	0	0	-0.028	4e-05	0
1128	0	-0.027	4e-05	0	0	-0.027	4e-05	0
1129	0	-0.026	4e-05	0	0	-0.026	4e-05	0
1130	0	-0.024	2e-05	0	0	-0.024	2e-05	0
1131	0	-0.024	4e-05	0	0	-0.024	4e-05	0
1132	0	-0.022	2e-05	0	0	-0.022	2e-05	0
1133	0	-0.021	2e-05	0	0	-0.021	2e-05	0
1134	0	-0.017	2e-05	0	0	-0.017	2e-05	0
1135	0	-0.016	2e-05	0	0	-0.016	2e-05	0
1136	0	-0.015	0	0	0	-0.015	0	0
1137	0	-0.015	2e-05	0	0	-0.015	2e-05	0
1138	0	-0.013	2e-05	0	0	-0.013	2e-05	0
1139	0	-0.012	2e-05	0	0	-0.012	2e-05	0
1140	0	-0.011	2e-05	0	0	-0.011	2e-05	0
1141	0	-0.01	0	0	0	-0.01	0	0
1142	0	-0.009	0	0	0	-0.009	0	0
1143	0	-0.009	2e-05	0	0	-0.009	2e-05	0
1144	0	-0.008	0	0	0	-0.008	0	0
1145	0	-0.008	2e-05	0	0	-0.008	2e-05	0
1146	0	-0.007	0	0	0	-0.007	0	0
1147	0	-0.007	2e-05	0	0	-0.007	2e-05	0
1148	0	-0.006	2e-05	0	0	-0.006	2e-05	0
1149	0	-0.005	0	0	0	-0.005	0	0
1150	0	-0.005	2e-05	0	0	-0.005	2e-05	0
1151	0	-0.004	0	0	0	-0.004	0	0
1152	0	-0.004	2e-05	0	0	-0.004	2e-05	0
1153	0	-0.003	0	0	0	-0.003	0	0
1154	0	-0.002	0	0	0	-0.002	0	0
1155	0	-0.001	0	0	0	-0.001	0	0
1156	0	0	0	0	0	0	0	0
1157	0	0.001	0	0	0	0.001	0	0
1158	0	0.002	0	0	0	0.002	0	0
1159	0	0.004	0	0	0	0.004	0	0
1160	0	0.005	-2e-05	0	0	0.005	-2e-05	0
1161	0	0.005	0	0	0	0.005	0	0
1162	0	0.006	-2e-05	0	0	0.006	-2e-05	0
1163	0	0.006	0	0	0	0.006	0	0
1164	0	0.007	-2e-05	0	0	0.007	-2e-05	0
1165	0	0.007	0	0	0	0.007	0	0
1166	0	0.008	-2e-05	0	0	0.008	-2e-05	0
1167	0	0.008	0	0	0	0.008	0	0
1168	0	0.009	-2e-05	0	0	0.009	-2e-05	0
1169	0	0.009	0	0	0	0.009	0	0
1170	0	0.01	-2e-05	0	0	0.01	-2e-05	0
1171	0	0.012	-2e-05	0	0	0.012	-2e-05	0
1172	0	0.012	0	0	0	0.012	0	0
1173	0	0.015	-2e-05	0	0	0.015	-2e-05	0
1174	0	0.015	0	0	0	0.015	0	0
1175	0	0.018	-2e-05	0	0	0.018	-2e-05	0
1176	0	0.019	-2e-05	0	0	0.019	-2e-05	0
1177	0	0.021	-2e-05	0	0	0.021	-2e-05	0
1178	0	0.023	-2e-05	0	0	0.023	-2e-05	0
1179	0	0.024	-4e-05	0	0	0.024	-4e-05	0
1180	0	0.025	-4e-05	0	0	0.025	-4e-05	0
1181	0	0.026	-4e-05	0	0	0.026	-4e-05	0
1182	0	0.027	-4e-05	0	0	0.027	-4e-05	0
1183	0	0.028	-4e-05	0	0	0.028	-4e-05	0
1184	0	0.028	-2e-05	0	0	0.028	-2e-05	0
1185	0	0.03	-4e-05	0	0	0.03	-4e-05	0
1186	0.5	-0.046	6e-05	0	0.5	-0.046	6e-05	0
1187	0.5	-0.045	6e-05	0	0.5	-0.045	6e-05	0
1188	0.5	-0.027	2e-05	0	0.5	-0.027	2e-05	0
1189	0.5	-0.025	4e-05	0	0.5	-0.025	4e-05	0
1190	0.5	-0.024	4e-05	0	0.5	-0.024	4e-05	0
1191	0.5	-0.021	2e-05	0	0.5	-0.021	2e-05	0
1192	0.5	-0.018	2e-05	0	0.5	-0.018	2e-05	0
1193	0.5	-0.016	2e-05	0	0.5	-0.016	2e-05	0
1194	0.5	-0.015	2e-05	0	0.5	-0.015	2e-05	0
1195	0.5	-0.014	0	0	0.5	-0.014	0	0
1196	0.5	-0.014	2e-05	0	0.5	-0.014	2e-05	0
1197	0.5	-0.013	2e-05	0	0.5	-0.013	2e-05	0
1198	0.5	-0.012	0	0	0.5	-0.012	0	0
1199	0.5	-0.012	2e-05	0	0.5	-0.012	2e-05	0
1200	0.5	-0.011	2e-05	0	0.5	-0.011	2e-05	0
1201	0.5	-0.01	2e-05	0	0.5	-0.01	2e-05	0
1202	0.5	-0.009	2e-05	0	0.5	-0.009	2e-05	0
1203	0.5	-0.008	0	0	0.5	-0.008	0	0
1204	0.5	-0.008	2e-05	0	0.5	-0.008	2e-05	0
1205	0.5	-0.007	0	0	0.5	-0.007	0	0
1206	0.5	-0.006	0	0	0.5	-0.006	0	0
1207	0.5	-0.006	2e-05	0	0.5	-0.006	2e-05	0
1208	0.5	-0.005	0	0	0.5	-0.005	0	0
1209	0.5	-0.005	2e-05	0	0.5	-0.005	2e-05	0
1210	0.5	-0.003	0	0	0.5	-0.003	0	0
1211	0.5	-0.002	0	0	0.5	-0.002	0	0
1212	0.5	-0.001	0	0	0.5	-0.001	0	0
1213	0.5	0.002	0	0	0.5	0.002	0	0
1214	0.5	0.003	-2e-05	0	0.5	0.003	-2e-05	0
1215	0.5	0.003	0	0	0.5	0.003	0	0
1216	0.5	0.004	-2e-05	0	0.5	0.004	-2e-05	0
1217	0.5	0.004	0	0	0.5	0.004	0	0
1218	0.5	0.005	-2e-05	0	0.5	0.005	-2e-05	0
1219	0.5	0.005	0	0	0.5	0.005	0	0
1220	0.5	0.006	-2e-05	0	0.5	0.006	-2e-05	0
1221	0.5	0.007	-2e-05	0	0.5	0.007	-2e-05	0
1222	0.5	0.008	-2e-05	0	0.5	0.008	-2e-05	0
1223	0.5	0.008	0	0	0.5	0.008	0	0
1224	0.5	0.01	-2e-05	0	0.5	0.01	-2e-05	0
1225	0.5	0.011	0	0	0.5	0.011	0	0
1226	0.5	0.012	-2e-05	0	0.5	0.012	-2e-05	0
1227	0.5	0.012	0	0	0.5	0.012	0	0
1228	0.5	0.014	-2e-05	0	0.5	0.014	-2e-05	0
1229	0.5	0.014	0	0	0.5	0.014	0	0
1230	0.5	0.015	-2e-05	0	0.5	0.015	-2e-05	0
1231	0.5	0.015	0	0	0.5	0.015	0	0
1232	0.5	0.016	-2e-05	0	0.5	0.016	-2e-05	0
1233	0.5	0.018	-2e-05	0	0.5	0.018	-2e-05	0
1234	0.5	0.02	-2e-05	0	0.5	0.02	-2e-05	0
1235	0.5	0.021	-2e-05	0	0.5	0.021	-2e-05	0
1236	0.5	0.023	-4e-05	0	0.5	0.023	-4e-05	0
1237	0.5	0.023	-2e-05	0	0.5	0.023	-2e-05	0
1238	0.5	0.028	-4e-05	0	0.5	0.028	-4e-05	0
1239	0.5	0.029	-4e-05	0	0.5	0.029	-4e-05	0
1240	0.5	0.031	-4e-05	0	0.5	0.031	-4e-05	0
1241	0.5	0.043	-6e-05	0	0.5	0.043	-6e-05	0
1242	1	-0.04	4e-05	0	1	-0.04	4e-05	0
1243	1	-0.039	4e-05	0	1	-0.039	4e-05	0
1244	1	-0.031	4e-05	0	1	-0.031	4e-05	0
1245	1	-0.03	2e-05	0	1	-0.03	2e-05	0
1246	1	-0.03	4e-05	0	1	-0.03	4e-05	0
1247	1	-0.027	2e-05	0	1	-0.027	2e-05	0
1248	1	-0.027	4e-05	0	1	-0.027	4e-05	0
1249	1	-0.025	4e-05	0	1	-0.025	4e-05	0
1250	1	-0.023	2e-05	0	1	-0.023	2e-05	0
1251	1	-0.02	2e-05	0	1	-0.02	2e-05	0
1252	1	-0.019	2e-05	0	1	-0.019	2e-05	0
1253	1	-0.018	2e-05	0	1	-0.018	2e-05	0
1254	1	-0.016	0	0	1	-0.016	0	0
1255	1	-0.014	2e-05	0	1	-0.014	2e-05	0
1256	1	-0.013	2e-05	0	1	-0.013	2e-05	0
1257	1	-0.012	2e-05	0	1	-0.012	2e-05	0
1258	1	-0.011	0	0	1	-0.011	0	0
1259	1	-0.01	2e-05	0	1	-0.01	2e-05	0
1260	1	-0.008	0	0	1	-0.008	0	0
1261	1	-0.008	2e-05	0	1	-0.008	2e-05	0
1262	1	-0.006	2e-05	0	1	-0.006	2e-05	0
1263	1	-0.005	0	0	1	-0.005	0	0
1264	1	-0.005	2e-05	0	1	-0.005	2e-05	0
1265	1	-0.003	0	0	1	-0.003	0	0
1266	1	-0.002	0	0	1	-0.002	0	0
1267	1	-0.001	0	0	1	-0.001	0	0
1268	1	0	0	0	1	0	0	0
1269	1	0.002	0	0	1	0.002	0	0
1270	1	0.003	0	0	1	0.003	0	0
1271	1	0.004	0	0	1	0.004	0	0
1272	1	0.005	-2e-05	0	1	0.005	-2e-05	0
1273	1	0.005	0	0	1	0.005	0	0
1274	1	0.006	-2e-05	0	1	0.006	-2e-05	0
1275	1	0.006	0	0	1	0.006	0	0
1276	1	0.008	-2e-05	0	1	0.008	-2e-05	0
1277	1	0.008	0	0	1	0.008	0	0
1278	1	0.01	-2e-05	0	1	0.01	-2e-05	0
1279	1	0.01	0	0	1	0.01	0	0
1280	1	0.011	0	0	1	0.011	0	0
1281	1	0.012	-2e-05	0	1	0.012	-2e-05	0
1282	1	0.013	-2e-05	0	1	0.013	-2e-05	0
1283	1	0.014	-2e-05	0	1	0.014	-2e-05	0
1284	1	0.015	-2e-05	0	1	0.015	-2e-05	0
1285	1	0.018	-2e-05	0	1	0.018	-2e-05	0
1286	1	0.019	-2e-05	0	1	0.019	-2e-05	0
1287	1	0.024	-4e-05	0	1	0.024	-4e-05	0
1288	1	0.028	-4e-05	0	1	0.028	-4e-05	0
1289	1	0.03	-4e-05	0	1	0.03	-4e-05	0
1290	1.5	-0.048	6e-05	0	1.5	-0.048	6e-05	0
1291	1.5	-0.037	4e-05	0	1.5	-0.037	4e-05	0
1292	1.5	-0.033	4e-05	0	1.5	-0.033	4e-05	0
1293	1.5	-0.031	4e-05	0	1.5	-0.031	4e-05	0
1294	1.5	-0.03	4e-05	0	1.5	-0.03	4e-05	0
1295	1.5	-0.029	4e-05	0	1.5	-0.029	4e-05	0
1296	1.5	-0.026	2e-05	0	1.5	-0.026	2e-05	0
1297	1.5	-0.025	4e-05	0	1.5	-0.025	4e-05	0
1298	1.5	-0.023	2e-05	0	1.5	-0.023	2e-05	0
1299	1.5	-0.021	2e-05	0	1.5	-0.021	2e-05	0
1300	1.5	-0.019	2e-05	0	1.5	-0.019	2e-05	0
1301	1.5	-0.016	2e-05	0	1.5	-0.016	2e-05	0
1302	1.5	-0.015	0	0	1.5	-0.015	0	0
1303	1.5	-0.015	2e-05	0	1.5	-0.015	2e-05	0
1304	1.5	-0.014	0	0	1.5	-0.014	0	0
1305	1.5	-0.013	2e-05	0	1.5	-0.013	2e-05	0
1306	1.5	-0.01	0	0	1.5	-0.01	0	0
1307	1.5	-0.01	2e-05	0	1.5	-0.01	2e-05	0
1308	1.5	-0.009	0	0	1.5	-0.009	0	0
1309	1.5	-0.009	2e-05	0	1.5	-0.009	2e-05	0
1310	1.5	-0.008	0	0	1.5	-0.008	0	0
1311	1.5	-0.007	0	0	1.5	-0.007	0	0
1312	1.5	-0.007	2e-05	0	1.5	-0.007	2e-05	0
1313	1.5	-0.006	2e-05	0	1.5	-0.006	2e-05	0
1314	1.5	-0.005	0	0	1.5	-0.005	0	0
1315	1.5	-0.005	2e-05	0	1.5	-0.005	2e-05	0
1316	1.5	-0.003	0	0	1.5	-0.003	0	0
1317	1.5	-0.002	0	0	1.5	-0.002	0	0
1318	1.5	-0.001	0	0	1.5	-0.001	0	0
1319	1.5	0	0	0	1.5	0	0	0
1320	1.5	0.001	0	0	1.5	0.001	0	0
1321	1.5	0.002	-2e-05	0	1.5	0.002	-2e-05	0
1322	1.5	0.003	-2e-05	0	1.5	0.003	-2e-05	0
1323	1.5	0.003	0	0	1.5	0.003	0	0
1324	1.5	0.004	-2e-05	0	1.5	0.004	-2e-05	0
1325	1.5	0.005	0	0	1.5	0.005	0	0
1326	1.5	0.007	-2e-05	0	1.5	0.007	-2e-05	0
1327	1.5	0.007	0	0	1.5	0.007	0	0
1328	1.5	0.008	-2e-05	0	1.5	0.008	-2e-05	0
1329	1.5	0.009	-2e-05	0	1.5	0.009	-2e-05	0
1330	1.5	0.01	-2e-05	0	1.5	0.01	-2e-05	0
1331	1.5	0.011	0	0	1.5	0.011	0	0
1332	1.5	0.012	-2e-05	0	1.5	0.012	-2e-05	0
1333	1.5	0.014	-2e-05	0	1.5	0.014	-2e-05	0
1334	1.5	0.015	-2e-05	0	1.5	0.015	-2e-05	0
1335	1.5	0.02	-2e-05	0	1.5	0.02	-2e-05	0
1336	1.5	0.023	-2e-05	0	1.5	0.023	-2e-05	0
1337	2	-0.05	6e-05	0	2	-0.05	6e-05	0
1338	2	-0.048	6e-05	0	2	-0.048	6e-05	0
1339	2	-0.047	4e-05	0	2	-0.047	4e-05	0
1340	2	-0.041	4e-05	0	2	-0.041	4e-05	0
1341	2	-0.032	2e-05	0	2	-0.032	2e-05	0
1342	2	-0.03	2e-05	0	2	-0.03	2e-05	0
1343	2	-0.029	4e-05	0	2	-0.029	4e-05	0
1344	2	-0.027	2e-05	0	2	-0.027	2e-05	0
1345	2	-0.027	4e-05	0	2	-0.027	4e-05	0
1346	2	-0.026	2e-05	0	2	-0.026	2e-05	0
1347	2	-0.021	2e-05	0	2	-0.021	2e-05	0
1348	2	-0.02	2e-05	0	2	-0.02	2e-05	0
1349	2	-0.019	2e-05	0	2	-0.019	2e-05	0
1350	2	-0.018	2e-05	0	2	-0.018	2e-05	0
1351	2	-0.017	2e-05	0	2	-0.017	2e-05	0
1352	2	-0.016	2e-05	0	2	-0.016	2e-05	0
1353	2	-0.013	2e-05	0	2	-0.013	2e-05	0
1354	2	-0.012	2e-05	0	2	-0.012	2e-05	0
1355	2	-0.011	2e-05	0	2	-0.011	2e-05	0
1356	2	-0.01	0	0	2	-0.01	0	0
1357	2	-0.008	2e-05	0	2	-0.008	2e-05	0
1358	2	-0.007	0	0	2	-0.007	0	0
1359	2	-0.006	0	0	2	-0.006	0	0
1360	2	-0.006	2e-05	0	2	-0.006	2e-05	0
1361	2	-0.005	0	0	2	-0.005	0	0
1362	2	-0.001	0	0	2	-0.001	0	0
1363	2	0.001	0	0	2	0.001	0	0
1364	2	0.002	-2e-05	0	2	0.002	-2e-05	0
1365	2	0.005	-2e-05	0	2	0.005	-2e-05	0
1366	2	0.009	-2e-05	0	2	0.009	-2e-05	0
1367	2	0.01	-2e-05	0	2	0.01	-2e-05	0
1368	2	0.015	-2e-05	0	2	0.015	-2e-05	0
1369	2	0.016	-2e-05	0	2	0.016	-2e-05	0
1370	2	0.023	-4e-05	0	2	0.023	-4e-05	0
1371	2.5	-0.042	4e-05	0	2.5	-0.042	4e-05	0
1372	2.5	-0.041	4e-05	0	2.5	-0.041	4e-05	0
1373	2.5	-0.027	2e-05	0	2.5	-0.027	2e-05	0
1374	2.5	-0.027	4e-05	0	2.5	-0.027	4e-05	0
1375	2.5	-0.019	2e-05	0	2.5	-0.019	2e-05	0
1376	2.5	-0.017	2e-05	0	2.5	-0.017	2e-05	0
1377	2.5	-0.016	0	0	2.5	-0.016	0	0
1378	2.5	-0.014	0	0	2.5	-0.014	0	0
1379	2.5	-0.013	0	0	2.5	-0.013	0	0
1380	2.5	-0.012	2e-05	0	2.5	-0.012	2e-05	0
1381	2.5	-0.01	2e-05	0	2.5	-0.01	2e-05	0
1382	2.5	-0.008	0	0	2.5	-0.008	0	0
1383	2.5	-0.007	0	0	2.5	-0.007	0	0
1384	2.5	-0.007	2e-05	0	2.5	-0.007	2e-05	0
1385	2.5	-0.006	0	0	2.5	-0.006	0	0
1386	2.5	-0.004	0	0	2.5	-0.004	0	0
1387	2.5	0	0	0	2.5	0	0	0
1388	2.5	0.003	0	0	2.5	0.003	0	0
1389	2.5	0.004	0	0	2.5	0.004	0	0
1390	2.5	0.013	-2e-05	0	2.5	0.013	-2e-05	0
1391	3	-0.052	6e-05	0	3	-0.052	6e-05	0
1392	3	-0.047	6e-05	0	3	-0.047	6e-05	0
1393	3	-0.031	2e-05	0	3	-0.031	2e-05	0
1394	3	-0.03	4e-05	0	3	-0.03	4e-05	0
1395	3	-0.025	2e-05	0	3	-0.025	2e-05	0
1396	3	-0.021	2e-05	0	3	-0.021	2e-05	0
1397	3	-0.019	2e-05	0	3	-0.019	2e-05	0
1398	3	-0.018	2e-05	0	3	-0.018	2e-05	0
1399	3	-0.017	2e-05	0	3	-0.017	2e-05	0
1400	3	-0.015	2e-05	0	3	-0.015	2e-05	0
1401	3	-0.014	2e-05	0	3	-0.014	2e-05	0
1402	3	-0.013	2e-05	0	3	-0.013	2e-05	0
1403	3	-0.011	0	0	3	-0.011	0	0
1404	3	-0.01	2e-05	0	3	-0.01	2e-05	0
1405	3	-0.009	0	0	3	-0.009	0	0
1406	3	-0.009	2e-05	0	3	-0.009	2e-05	0
1407	3	-0.008	0	0	3	-0.008	0	0
1408	3	-0.006	0	0	3	-0.006	0	0
1409	3	-0.003	0	0	3	-0.003	0	0
1410	3	0	0	0	3	0	0	0
1411	3	0.003	-2e-05	0	3	0.003	-2e-05	0
1412	3	0.004	-2e-05	0	3	0.004	-2e-05	0
1413	3	0.006	-2e-05	0	3	0.006	-2e-05	0
1414	3.5	-0.051	6e-05	0	3.5	-0.051	6e-05	0
1415	3.5	-0.044	4e-05	0	3.5	-0.044	4e-05	0
1416	3.5	-0.043	4e-05	0	3.5	-0.043	4e-05	0
1417	3.5	-0.037	2e-05	0	3.5	-0.037	2e-05	0
1418	3.5	-0.031	4e-05	0	3.5	-0.031	4e-05	0
1419	3.5	-0.029	4e-05	0	3.5	-0.029	4e-05	0
1420	3.5	-0.027	4e-05	0	3.5	-0.027	4e-05	0
1421	3.5	-0.023	2e-05	0	3.5	-0.023	2e-05	0
1422	3.5	-0.02	2e-05	0	3.5	-0.02	2e-05	0
1423	3.5	-0.018	0	0	3.5	-0.018	0	0
1424	3.5	-0.014	2e-05	0	3.5	-0.014	2e-05	0
1425	3.5	-0.012	2e-05	0	3.5	-0.012	2e-05	0
1426	3.5	-0.011	0	0	3.5	-0.011	0	0
1427	3.5	-0.006	0	0	3.5	-0.006	0	0
1428	3.5	-0.003	0	0	3.5	-0.003	0	0
1429	3.5	0.003	-2e-05	0	3.5	0.003	-2e-05	0
1430	3.5	0.006	-2e-05	0	3.5	0.006	-2e-05	0
1431	3.5	0.014	-2e-05	0	3.5	0.014	-2e-05	0
1432	3.5	0.018	-2e-05	0	3.5	0.018	-2e-05	0
1433	4	-0.068	8e-05	0	4	-0.068	8e-05	0
1434	4	-0.051	4e-05	0	4	-0.051	4e-05	0
1435	4	-0.051	6e-05	0	4	-0.051	6e-05	0
1436	4	-0.048	6e-05	0	4	-0.048	6e-05	0
1437	4	-0.043	4e-05	0	4	-0.043	4e-05	0
1438	4	-0.04	4e-05	0	4	-0.04	4e-05	0
1439	4	-0.039	4e-05	0	4	-0.039	4e-05	0
1440	4	-0.038	4e-05	0	4	-0.038	4e-05	0
1441	4	-0.033	4e-05	0	4	-0.033	4e-05	0
1442	4	-0.032	2e-05	0	4	-0.032	2e-05	0
1443	4	-0.032	4e-05	0	4	-0.032	4e-05	0
1444	4	-0.031	4e-05	0	4	-0.031	4e-05	0
1445	4	-0.022	2e-05	0	4	-0.022	2e-05	0
1446	4	-0.018	2e-05	0	4	-0.018	2e-05	0
1447	4	-0.017	0	0	4	-0.017	0	0
1448	4	-0.017	2e-05	0	4	-0.017	2e-05	0
1449	4	-0.014	0	0	4	-0.014	0	0
1450	4	-0.014	2e-05	0	4	-0.014	2e-05	0
1451	4	-0.012	0	0	4	-0.012	0	0
1452	4	-0.01	0	0	4	-0.01	0	0
1453	4	-0.009	0	0	4	-0.009	0	0
1454	4	-0.005	0	0	4	-0.005	0	0
1455	4	0.006	-2e-05	0	4	0.006	-2e-05	0
1456	4	0.008	-2e-05	0	4	0.008	-2e-05	0
1457	4.5	-0.041	4e-05	0	4.5	-0.041	4e-05	0
1458	4.5	-0.036	4e-05	0	4.5	-0.036	4e-05	0
1459	4.5	-0.033	2e-05	0	4.5	-0.033	2e-05	0
1460	4.5	-0.033	4e-05	0	4.5	-0.033	4e-05	0
1461	4.5	-0.029	4e-05	0	4.5	-0.029	4e-05	0
1462	4.5	-0.027	2e-05	0	4.5	-0.027	2e-05	0
1463	4.5	-0.024	2e-05	0	4.5	-0.024	2e-05	0
1464	4.5	-0.021	2e-05	0	4.5	-0.021	2e-05	0
1465	4.5	-0.02	0	0	4.5	-0.02	0	0
1466	4.5	-0.018	0	0	4.5	-0.018	0	0
1467	4.5	-0.018	2e-05	0	4.5	-0.018	2e-05	0
1468	4.5	-0.017	2e-05	0	4.5	-0.017	2e-05	0
1469	4.5	-0.016	0	0	4.5	-0.016	0	0
1470	4.5	-0.015	0	0	4.5	-0.015	0	0
1471	4.5	-0.014	0	0	4.5	-0.014	0	0
1472	4.5	-0.014	2e-05	0	4.5	-0.014	2e-05	0
1473	4.5	-0.012	2e-05	0	4.5	-0.012	2e-05	0
1474	4.5	-0.008	0	0	4.5	-0.008	0	0
1475	4.5	-0.005	0	0	4.5	-0.005	0	0
1476	4.5	0.002	-2e-05	0	4.5	0.002	-2e-05	0
1477	5	-0.047	4e-05	0	5	-0.047	4e-05	0
1478	5	-0.025	2e-05	0	5	-0.025	2e-05	0
1479	5	-0.024	2e-05	0	5	-0.024	2e-05	0
1480	5	-0.019	0	0	5	-0.019	0	0
1481	5	-0.019	2e-05	0	5	-0.019	2e-05	0
1482	5	-0.014	0	0	5	-0.014	0	0
1483	5	-0.014	2e-05	0	5	-0.014	2e-05	0
1484	5	-0.012	0	0	5	-0.012	0	0
1485	5	0.005	-2e-05	0	5	0.005	-2e-05	0
1486	5.5	-0.028	2e-05	0	5.5	-0.028	2e-05	0
1487	5.5	-0.027	2e-05	0	5.5	-0.027	2e-05	0
1488	5.5	-0.022	2e-05	0	5.5	-0.022	2e-05	0
1489	5.5	-0.021	2e-05	0	5.5	-0.021	2e-05	0
1490	5.5	-0.018	2e-05	0	5.5	-0.018	2e-05	0
1491	5.5	-0.008	0	0	5.5	-0.008	0	0
1492	5.5	-0.007	0	0	5.5	-0.007	0	0
1493	5.5	-0.002	-2e-05	0	5.5	-0.002	-2e-05	0
1494	5.5	0.003	-2e-05	0	5.5	0.003	-2e-05	0
1495	6	-0.043	4e-05	0	6	-0.043	4e-05	0
1496	6	-0.035	4e-05	0	6	-0.035	4e-05	0
1497	6	-0.032	4e-05	0	6	-0.032	4e-05	0
1498	6	-0.031	4e-05	0	6	-0.031	4e-05	0
1499	6	-0.019	0	0	6	-0.019	0	0
1500	6	-0.017	0	0	6	-0.017	0	0
1501	6	-0.016	0	0	6	-0.016	0	0
1502	6	-0.015	2e-05	0	6	-0.015	2e-05	0
1503	6	0	-2e-05	0	6	0	-2e-05	0
1504	6.5	-0.047	4e-05	0	6.5	-0.047	4e-05	0
1505	6.5	-0.035	4e-05	0	6.5	-0.035	4e-05	0
1506	6.5	-0.032	2e-05	0	6.5	-0.032	2e-05	0
1507	6.5	-0.032	4e-05	0	6.5	-0.032	4e-05	0
1508	6.5	-0.027	2e-05	0	6.5	-0.027	2e-05	0
1509	6.5	-0.018	0	0	6.5	-0.018	0	0
1510	7	-0.044	4e-05	0	7	-0.044	4e-05	0
1511	7	-0.042	4e-05	0	7	-0.042	4e-05	0
1512	7	-0.04	4e-05	0	7	-0.04	4e-05	0
1513	7	-0.035	4e-05	0	7	-0.035	4e-05	0
1514	7	-0.034	4e-05	0	7	-0.034	4e-05	0
1515	7	-0.031	2e-05	0	7	-0.031	2e-05	0
1516	7	-0.013	0	0	7	-0.013	0	0
1517	7	-0.012	2e-05	0	7	-0.012	2e-05	0
1518	7.5	-0.065	6e-05	0	7.5	-0.065	6e-05	0
1519	7.5	-0.043	4e-05	0	7.5	-0.043	4e-05	0
1520	7.5	-0.029	2e-05	0	7.5	-0.029	2e-05	0
1521	7.5	-0.019	2e-05	0	7.5	-0.019	2e-05	0
1522	8	-0.049	4e-05	0	8	-0.049	4e-05	0
1523	8	-0.038	2e-05	0	8	-0.038	2e-05	0
1524	8	-0.031	2e-05	0	8	-0.031	2e-05	0
1525	8	-0.016	0	0	8	-0.016	0	0
1526	8	-0.009	0	0	8	-0.009	0	0
1527	8.5	-0.042	4e-05	0	8.5	-0.042	4e-05	0
1528	8.5	-0.038	2e-05	0	8.5	-0.038	2e-05	0
1529	8.5	-0.032	4e-05	0	8.5	-0.032	4e-05	0
1530	8.5	-0.027	2e-05	0	8.5	-0.027	2e-05	0
1531	8.5	-0.024	0	0	8.5	-0.024	0	0
1532	8.5	-0.019	0	0	8.5	-0.019	0	0
1533	9	-0.053	6e-05	0	9	-0.053	6e-05	0
1534	9	-0.029	2e-05	0	9	-0.029	2e-05	0
1535	9	-0.022	2e-05	0	9	-0.022	2e-05	0
1	-6	0.016	-2e-05	0	-6	0.016	-2e-05	0
2	-6	0.033	-4e-05	0	-6	0.033	-4e-05	0
3	-5.5	0.002	2e-05	0	-5.5	0.002	2e-05	0
4	-5.5	0.056	-6e-05	0	-5.5	0.056	-6e-05	0
5	-5	0.007	0	0	-5	0.007	0	0
6	-5	0.016	-2e-05	0	-5	0.016	-2e-05	0
7	-5	0.017	0	0	-5	0.017	0	0
8	-4.5	-0.003	2e-05	0	-4.5	-0.003	2e-05	0
9	-4.5	0.008	0	0	-4.5	0.008	0	0
10	-4	0.013	0	0	-4	0.013	0	0
11	-4	0.031	-4e-05	0	-4	0.031	-4e-05	0
12	-4	0.036	-4e-05	0	-4	0.036	-4e-05	0
13	-4	0.052	-6e-05	0	-4	0.052	-6e-05	0
14	-3.5	-0.006	2e-05	0	-3.5	-0.006	2e-05	0
15	-3.5	-0.005	2e-05	0	-3.5	-0.005	2e-05	0
16	-3.5	-0.001	2e-05	0	-3.5	-0.001	2e-05	0
17	-3.5	0	0	0	-3.5	0	0	0
18	-3.5	0.003	0	0	-3.5	0.003	0	0
19	-3.5	0.014	-2e-05	0	-3.5	0.014	-2e-05	0
20	-3.5	0.014	0	0	-3.5	0.014	0	0
21	-3.5	0.017	0	0	-3.5	0.017	0	0
22	-3.5	0.019	0	0	-3.5	0.019	0	0
23	-3.5	0.027	-4e-05	0	-3.5	0.027	-4e-05	0
24	-3.5	0.031	-4e-05	0	-3.5	0.031	-4e-05	0
25	-3.5	0.034	-4e-05	0	-3.5	0.034	-4e-05	0
26	-3.5	0.04	-4e-05	0	-3.5	0.04	-4e-05	0
27	-3.5	0.042	-4e-05	0	-3.5	0.042	-4e-05	0
28	-3	-0.021	2e-05	0	-3	-0.021	2e-05	0
29	-3	-0.004	2e-05	0	-3	-0.004	2e-05	0
30	-3	-0.002	2e-05	0	-3	-0.002	2e-05	0
31	-3	0.004	0	0	-3	0.004	0	0
32	-3	0.005	0	0	-3	0.005	0	0
33	-3	0.013	-2e-05	0	-3	0.013	-2e-05	0
34	-3	0.016	-2e-05	0	-3	0.016	-2e-05	0
35	-3	0.029	-4e-05	0	-3	0.029	-4e-05	0
36	-3	0.03	-4e-05	0	-3	0.03	-4e-05	0
37	-3	0.031	-4e-05	0	-3	0.031	-4e-05	0
38	-3	0.035	-4e-05	0	-3	0.035	-4e-05	0
39	-2.5	-0.024	4e-05	0	-2.5	-0.024	4e-05	0
40	-2.5	-0.009	2e-05	0	-2.5	-0.009	2e-05	0
41	-2.5	-0.007	2e-05	0	-2.5	-0.007	2e-05	0
42	-2.5	-0.002	2e-05	0	-2.5	-0.002	2e-05	0
43	-2.5	0.002	0	0	-2.5	0.002	0	0
44	-2.5	0.01	-2e-05	0	-2.5	0.01	-2e-05	0
45	-2.5	0.011	0	0	-2.5	0.011	0	0
46	-2.5	0.014	-2e-05	0	-2.5	0.014	-2e-05	0
47	-2.5	0.014	0	0	-2.5	0.014	0	0
48	-2.5	0.015	-2e-05	0	-2.5	0.015	-2e-05	0
49	-2.5	0.015	0	0	-2.5	0.015	0	0
50	-2.5	0.016	0	0	-2.5	0.016	0	0
51	-2.5	0.017	-2e-05	0	-2.5	0.017	-2e-05	0
52	-2.5	0.019	-2e-05	0	-2.5	0.019	-2e-05	0
53	-2.5	0.02	-2e-05	0	-2.5	0.02	-2e-05	0
54	-2.5	0.026	-4e-05	0	-2.5	0.026	-4e-05	0
55	-2.5	0.027	-4e-05	0	-2.5	0.027	-4e-05	0
56	-2.5	0.034	-4e-05	0	-2.5	0.034	-4e-05	0
57	-2.5	0.046	-6e-05	0	-2.5	0.046	-6e-05	0
58	-2	-0.025	4e-05	0	-2	-0.025	4e-05	0
59	-2	-0.023	4e-05	0	-2	-0.023	4e-05	0
60	-2	-0.015	2e-05	0	-2	-0.015	2e-05	0
61	-2	-0.012	2e-05	0	-2	-0.012	2e-05	0
62	-2	-0.011	2e-05	0	-2	-0.011	2e-05	0
63	-2	-0.006	2e-05	0	-2	-0.006	2e-05	0
64	-2	-0.005	2e-05	0	-2	-0.005	2e-05	0
65	-2	-0.004	0	0	-2	-0.004	0	0
66	-2	0.003	0	0	-2	0.003	0	0
67	-2	0.006	0	0	-2	0.006	0	0
68	-2	0.007	0	0	-2	0.007	0	0
69	-2	0.009	0	0	-2	0.009	0	0
70	-2	0.012	-2e-05	0	-2	0.012	-2e-05	0
71	-2	0.015	-2e-05	0	-2	0.015	-2e-05	0
72	-2	0.015	0	0	-2	0.015	0	0
73	-2	0.018	-2e-05	0	-2	0.018	-2e-05	0
74	-2	0.019	-2e-05	0	-2	0.019	-2e-05	0
75	-2	0.027	-2e-05	0	-2	0.027	-2e-05	0
76	-2	0.031	-4e-05	0	-2	0.031	-4e-05	0
77	-2	0.041	-4e-05	0	-2	0.041	-4e-05	0
78	-2	0.05	-6e-05	0	-2	0.05	-6e-05	0
79	-1.5	-0.013	2e-05	0	-1.5	-0.013	2e-05	0
80	-1.5	-0.01	2e-05	0	-1.5	-0.01	2e-05	0
81	-1.5	-0.006	2e-05	0	-1.5	-0.006	2e-05	0
82	-1.5	-0.005	0	0	-1.5	-0.005	0	0
83	-1.5	-0.004	0	0	-1.5	-0.004	0	0
84	-1.5	-0.004	2e-05	0	-1.5	-0.004	2e-05	0
85	-1.5	-0.003	0	0	-1.5	-0.003	0	0
86	-1.5	-0.003	2e-05	0	-1.5	-0.003	2e-05	0
87	-1.5	-0.002	0	0	-1.5	-0.002	0	0
88	-1.5	-0.002	2e-05	0	-1.5	-0.002	2e-05	0
89	-1.5	0.003	0	0	-1.5	0.003	0	0
90	-1.5	0.004	0	0	-1.5	0.004	0	0
91	-1.5	0.005	0	0	-1.5	0.005	0	0
92	-1.5	0.009	0	0	-1.5	0.009	0	0
93	-1.5	0.01	0	0	-1.5	0.01	0	0
94	-1.5	0.011	-2e-05	0	-1.5	0.011	-2e-05	0
95	-1.5	0.012	-2e-05	0	-1.5	0.012	-2e-05	0
96	-1.5	0.012	0	0	-1.5	0.012	0	0
97	-1.5	0.013	-2e-05	0	-1.5	0.013	-2e-05	0
98	-1.5	0.013	0	0	-1.5	0.013	0	0
99	-1.5	0.015	0	0	-1.5	0.015	0	0
100	-1.5	0.026	-4e-05	0	-1.5	0.026	-4e-05	0
101	-1.5	0.027	-4e-05	0	-1.5	0.027	-4e-05	0
102	-1.5	0.031	-4e-05	0	-1.5	0.031	-4e-05	0
103	-1.5	0.035	-4e-05	0	-1.5	0.035	-4e-05	0
104	-1.5	0.044	-4e-05	0	-1.5	0.044	-4e-05	0
105	-1	-0.023	2e-05	0	-1	-0.023	2e-05	0
106	-1	-0.014	2e-05	0	-1	-0.014	2e-05	0
107	-1	-0.013	2e-05	0	-1	-0.013	2e-05	0
108	-1	-0.012	2e-05	0	-1	-0.012	2e-05	0
109	-1	-0.011	0	0	-1	-0.011	0	0
110	-1	-0.009	2e-05	0	-1	-0.009	2e-05	0
111	-1	-0.008	2e-05	0	-1	-0.008	2e-05	0
112	-1	-0.007	2e-05	0	-1	-0.007	2e-05	0
113	-1	-0.006	2e-05	0	-1	-0.006	2e-05	0
114	-1	-0.004	2e-05	0	-1	-0.004	2e-05	0
115	-1	-0.001	0	0	-1	-0.001	0	0
116	-1	0	0	0	-1	0	0	0
117	-1	0.001	0	0	-1	0.001	0	0
118	-1	0.003	0	0	-1	0.003	0	0
119	-1	0.005	-2e-05	0	-1	0.005	-2e-05	0
120	-1	0.006	-2e-05	0	-1	0.006	-2e-05	0
121	-1	0.006	0	0	-1	0.006	0	0
122	-1	0.007	-2e-05	0	-1	0.007	-2e-05	0
123	-1	0.007	0	0	-1	0.007	0	0
124	-1	0.009	-2e-05	0	-1	0.009	-2e-05	0
125	-1	0.01	-2e-05	0	-1	0.01	-2e-05	0
126	-1	0.011	-2e-05	0	-1	0.011	-2e-05	0
127	-1	0.011	0	0	-1	0.011	0	0
128	-1	0.013	-2e-05	0	-1	0.013	-2e-05	0
129	-1	0.014	-2e-05	0	-1	0.014	-2e-05	0
130	-1	0.017	-2e-05	0	-1	0.017	-2e-05	0
131	-1	0.019	-2e-05	0	-1	0.019	-2e-05	0
132	-1	0.021	-2e-05	0	-1	0.021	-2e-05	0
133	-1	0.022	-2e-05	0	-1	0.022	-2e-05	0
134	-1	0.023	-2e-05	0	-1	0.023	-2e-05	0
135	-1	0.027	-4e-05	0	-1	0.027	-4e-05	0
136	-1	0.028	-4e-05	0	-1	0.028	-4e-05	0
137	-1	0.037	-4e-05	0	-1	0.037	-4e-05	0
138	-0.5	-0.032	4e-05	0	-0.5	-0.032	4e-05	0
139	-0.5	-0.026	4e-05	0	-0.5	-0.026	4e-05	0
140	-0.5	-0.024	2e-05	0	-0.5	-0.024	2e-05	0
141	-0.5	-0.019	2e-05	0	-0.5	-0.019	2e-05	0
142	-0.5	-0.016	2e-05	0	-0.5	-0.016	2e-05	0
143	-0.5	-0.015	2e-05	0	-0.5	-0.015	2e-05	0
144	-0.5	-0.014	0	0	-0.5	-0.014	0	0
145	-0.5	-0.013	2e-05	0	-0.5	-0.013	2e-05	0
146	-0.5	-0.012	2e-05	0	-0.5	-0.012	2e-05	0
147	-0.5	-0.011	2e-05	0	-0.5	-0.011	2e-05	0
148	-0.5	-0.009	2e-05	0	-0.5	-0.009	2e-05	0
149	-0.5	-0.007	0	0	-0.5	-0.007	0	0
150	-0.5	-0.007	2e-05	0	-0.5	-0.007	2e-05	0
151	-0.5	-0.006	0	0	-0.5	-0.006	0	0
152	-0.5	-0.006	2e-05	0	-0.5	-0.006	2e-05	0
153	-0.5	-0.005	0	0	-0.5	-0.005	0	0
154	-0.5	-0.005	2e-05	0	-0.5	-0.005	2e-05	0
155	-0.5	-0.003	0	0	-0.5	-0.003	0	0
156	-0.5	-0.002	0	0	-0.5	-0.002	0	0
157	-0.5	-0.001	0	0	-0.5	-0.001	0	0
158	-0.5	0	0	0	-0.5	0	0	0
159	-0.5	0.001	0	0	-0.5	0.001	0	0
160	-0.5	0.002	0	0	-0.5	0.002	0	0
161	-0.5	0.003	0	0	-0.5	0.003	0	0
162	-0.5	0.004	-2e-05	0	-0.5	0.004	-2e-05	0
163	-0.5	0.004	0	0	-0.5	0.004	0	0
164	-0.5	0.005	-2e-05	0	-0.5	0.005	-2e-05	0
165	-0.5	0.005	0	0	-0.5	0.005	0	0
166	-0.5	0.006	0	0	-0.5	0.006	0	0
167	-0.5	0.007	-2e-05	0	-0.5	0.007	-2e-05	0
168	-0.5	0.007	0	0	-0.5	0.007	0	0
169	-0.5	0.008	-2e-05	0	-0.5	0.008	-2e-05	0
170	-0.5	0.008	0	0	-0.5	0.008	0	0
171	-0.5	0.009	-2e-05	0	-0.5	0.009	-2e-05	0
172	-0.5	0.009	0	0	-0.5	0.009	0	0
173	-0.5	0.01	-2e-05	0	-0.5	0.01	-2e-05	0
174	-0.5	0.01	0	0	-0.5	0.01	0	0
175	-0.5	0.011	-2e-05	0	-0.5	0.011	-2e-05	0
176	-0.5	0.011	0	0	-0.5	0.011	0	0
177	-0.5	0.013	-2e-05	0	-0.5	0.013	-2e-05	0
178	-0.5	0.014	-2e-05	0	-0.5	0.014	-2e-05	0
179	-0.5	0.015	-2e-05	0	-0.5	0.015	-2e-05	0
180	-0.5	0.016	-2e-05	0	-0.5	0.016	-2e-05	0
181	-0.5	0.018	-2e-05	0	-0.5	0.018	-2e-05	0
182	-0.5	0.021	-2e-05	0	-0.5	0.021	-2e-05	0
183	-0.5	0.023	-2e-05	0	-0.5	0.023	-2e-05	0
184	-0.5	0.025	-4e-05	0	-0.5	0.025	-4e-05	0
185	-0.5	0.028	-2e-05	0	-0.5	0.028	-2e-05	0
186	-0.5	0.03	-4e-05	0	-0.5	0.03	-4e-05	0
187	-0.5	0.031	-4e-05	0	-0.5	0.031	-4e-05	0
188	-0.5	0.033	-4e-05	0	-0.5	0.033	-4e-05	0
189	-0.5	0.044	-6e-05	0	-0.5	0.044	-6e-05	0
190	0	-0.045	6e-05	0	0	-0.045	6e-05	0
191	0	-0.03	4e-05	0	0	-0.03	4e-05	0
192	0	-0.028	4e-05	0	0	-0.028	4e-05	0
193	0	-0.027	4e-05	0	0	-0.027	4e-05	0
194	0	-0.025	2e-05	0	0	-0.025	2e-05	0
195	0	-0.023	2e-05	0	0	-0.023	2e-05	0
196	0	-0.022	2e-05	0	0	-0.022	2e-05	0
197	0	-0.021	2e-05	0	0	-0.021	2e-05	0
198	0	-0.019	2e-05	0	0	-0.019	2e-05	0
199	0	-0.018	2e-05	0	0	-0.018	2e-05	0
200	0	-0.016	2e-05	0	0	-0.016	2e-05	0
201	0	-0.015	2e-05	0	0	-0.015	2e-05	0
202	0	-0.014	2e-05	0	0	-0.014	2e-05	0
203	0	-0.012	0	0	0	-0.012	0	0
204	0	-0.011	0	0	0	-0.011	0	0
205	0	-0.01	2e-05	0	0	-0.01	2e-05	0
206	0	-0.009	0	0	0	-0.009	0	0
207	0	-0.009	2e-05	0	0	-0.009	2e-05	0
208	0	-0.008	0	0	0	-0.008	0	0
209	0	-0.008	2e-05	0	0	-0.008	2e-05	0
210	0	-0.007	0	0	0	-0.007	0	0
211	0	-0.007	2e-05	0	0	-0.007	2e-05	0
212	0	-0.006	0	0	0	-0.006	0	0
213	0	-0.006	2e-05	0	0	-0.006	2e-05	0
214	0	-0.005	0	0	0	-0.005	0	0
215	0	-0.004	0	0	0	-0.004	0	0
216	0	-0.004	2e-05	0	0	-0.004	2e-05	0
217	0	-0.001	0	0	0	-0.001	0	0
218	0	0	0	0	0	0	0	0
219	0	0.001	0	0	0	0.001	0	0
220	0	0.002	0	0	0	0.002	0	0
221	0	0.003	0	0	0	0.003	0	0
222	0	0.004	0	0	0	0.004	0	0
223	0	0.005	-2e-05	0	0	0.005	-2e-05	0
224	0	0.005	0	0	0	0.005	0	0
225	0	0.006	-2e-05	0	0	0.006	-2e-05	0
226	0	0.006	0	0	0	0.006	0	0
227	0	0.007	-2e-05	0	0	0.007	-2e-05	0
228	0	0.008	-2e-05	0	0	0.008	-2e-05	0
229	0	0.009	-2e-05	0	0	0.009	-2e-05	0
230	0	0.01	-2e-05	0	0	0.01	-2e-05	0
231	0	0.012	0	0	0	0.012	0	0
232	0	0.014	-2e-05	0	0	0.014	-2e-05	0
233	0	0.015	0	0	0	0.015	0	0
234	0	0.016	-2e-05	0	0	0.016	-2e-05	0
235	0	0.017	-2e-05	0	0	0.017	-2e-05	0
236	0	0.018	-2e-05	0	0	0.018	-2e-05	0
237	0	0.019	-2e-05	0	0	0.019	-2e-05	0
238	0	0.023	-2e-05	0	0	0.023	-2e-05	0
239	0	0.025	-4e-05	0	0	0.025	-4e-05	0
240	0	0.026	-4e-05	0	0	0.026	-4e-05	0
241	0	0.026	-2e-05	0	0	0.026	-2e-05	0
242	0	0.027	-4e-05	0	0	0.027	-4e-05	0
243	0	0.028	-4e-05	0	0	0.028	-4e-05	0
244	0	0.031	-4e-05	0	0	0.031	-4e-05	0
245	0.5	-0.037	4e-05	0	0.5	-0.037	4e-05	0
246	0.5	-0.029	4e-05	0	0.5	-0.029	4e-05	0
247	0.5	-0.026	4e-05	0	0.5	-0.026	4e-05	0
248	0.5	-0.024	4e-05	0	0.5	-0.024	4e-05	0
249	0.5	-0.022	2e-05	0	0.5	-0.022	2e-05	0
250	0.5	-0.021	2e-05	0	0.5	-0.021	2e-05	0
251	0.5	-0.016	2e-05	0	0.5	-0.016	2e-05	0
252	0.5	-0.014	2e-05	0	0.5	-0.014	2e-05	0
253	0.5	-0.013	2e-05	0	0.5	-0.013	2e-05	0
254	0.5	-0.011	2e-05	0	0.5	-0.011	2e-05	0
255	0.5	-0.01	0	0	0.5	-0.01	0	0
256	0.5	-0.01	2e-05	0	0.5	-0.01	2e-05	0
257	0.5	-0.009	2e-05	0	0.5	-0.009	2e-05	0
258	0.5	-0.008	2e-05	0	0.5	-0.008	2e-05	0
259	0.5	-0.007	2e-05	0	0.5	-0.007	2e-05	0
260	0.5	-0.006	0	0	0.5	-0.006	0	0
261	0.5	-0.006	2e-05	0	0.5	-0.006	2e-05	0
262	0.5	-0.005	0	0	0.5	-0.005	0	0
263	0.5	-0.005	2e-05	0	0.5	-0.005	2e-05	0
264	0.5	-0.004	0	0	0.5	-0.004	0	0
265	0.5	-0.003	0	0	0.5	-0.003	0	0
266	0.5	-0.002	0	0	0.5	-0.002	0	0
267	0.5	-0.001	0	0	0.5	-0.001	0	0
268	0.5	0	0	0	0.5	0	0	0
269	0.5	0.001	0	0	0.5	0.001	0	0
270	0.5	0.002	0	0	0.5	0.002	0	0
271	0.5	0.003	-2e-05	0	0.5	0.003	-2e-05	0
272	0.5	0.004	-2e-05	0	0.5	0.004	-2e-05	0
273	0.5	0.004	0	0	0.5	0.004	0	0
274	0.5	0.005	-2e-05	0	0.5	0.005	-2e-05	0
275	0.5	0.005	0	0	0.5	0.005	0	0
276	0.5	0.006	-2e-05	0	0.5	0.006	-2e-05	0
277	0.5	0.006	0	0	0.5	0.006	0	0
278	0.5	0.008	-2e-05	0	0.5	0.008	-2e-05	0
279	0.5	0.009	-2e-05	0	0.5	0.009	-2e-05	0
280	0.5	0.011	-2e-05	0	0.5	0.011	-2e-05	0
281	0.5	0.013	-2e-05	0	0.5	0.013	-2e-05	0
282	0.5	0.015	-2e-05	0	0.5	0.015	-2e-05	0
283	0.5	0.017	-2e-05	0	0.5	0.017	-2e-05	0
284	0.5	0.029	-4e-05	0	0.5	0.029	-4e-05	0
285	0.5	0.031	-4e-05	0	0.5	0.031	-4e-05	0
286	0.5	0.048	-6e-05	0	0.5	0.048	-6e-05	0
287	1	-0.029	4e-05	0	1	-0.029	4e-05	0
288	1	-0.027	2e-05	0	1	-0.027	2e-05	0
289	1	-0.026	4e-05	0	1	-0.026	4e-05	0
290	1	-0.021	2e-05	0	1	-0.021	2e-05	0
291	1	-0.019	2e-05	0	1	-0.019	2e-05	0
292	1	-0.016	2e-05	0	1	-0.016	2e-05	0
293	1	-0.014	2e-05	0	1	-0.014	2e-05	0
294	1	-0.013	2e-05	0	1	-0.013	2e-05	0
295	1	-0.012	0	0	1	-0.012	0	0
296	1	-0.012	2e-05	0	1	-0.012	2e-05	0
297	1	-0.011	0	0	1	-0.011	0	0
298	1	-0.011	2e-05	0	1	-0.011	2e-05	0
299	1	-0.01	0	0	1	-0.01	0	0
300	1	-0.009	0	0	1	-0.009	0	0
301	1	-0.009	2e-05	0	1	-0.009	2e-05	0
302	1	-0.008	2e-05	0	1	-0.008	2e-05	0
303	1	-0.007	0	0	1	-0.007	0	0
304	1	-0.006	0	0	1	-0.006	0	0
305	1	-0.006	2e-05	0	1	-0.006	2e-05	0
306	1	-0.004	0	0	1	-0.004	0	0
307	1	-0.003	0	0	1	-0.003	0	0
308	1	0.003	-2e-05	0	1	0.003	-2e-05	0
309	1	0.003	0	0	1	0.003	0	0
310	1	0.004	0	0	1	0.004	0	0
311	1	0.005	0	0	1	0.005	0	0
312	1	0.006	-2e-05	0	1	0.006	-2e-05	0
313	1	0.007	-2e-05	0	1	0.007	-2e-05	0
314	1	0.007	0	0	1	0.007	0	0
315	1	0.008	0	0	1	0.008	0	0
316	1	0.009	-2e-05	0	1	0.009	-2e-05	0
317	1	0.009	0	0	1	0.009	0	0
318	1	0.011	-2e-05	0	1	0.011	-2e-05	0
319	1	0.012	-2e-05	0	1	0.012	-2e-05	0
320	1	0.012	0	0	1	0.012	0	0
321	1	0.013	-2e-05	0	1	0.013	-2e-05	0
322	1	0.017	-2e-05	0	1	0.017	-2e-05	0
323	1	0.023	-4e-05	0	1	0.023	-4e-05	0
324	1.5	-0.049	6e-05	0	1.5	-0.049	6e-05	0
325	1.5	-0.045	6e-05	0	1.5	-0.045	6e-05	0
326	1.5	-0.035	4e-05	0	1.5	-0.035	4e-05	0
327	1.5	-0.033	4e-05	0	1.5	-0.033	4e-05	0
328	1.5	-0.018	2e-05	0	1.5	-0.018	2e-05	0
329	1.5	-0.016	0	0	1.5	-0.016	0	0
330	1.5	-0.013	2e-05	0	1.5	-0.013	2e-05	0
331	1.5	-0.011	0	0	1.5	-0.011	0	0
332	1.5	-0.011	2e-05	0	1.5	-0.011	2e-05	0
333	1.5	-0.01	2e-05	0	1.5	-0.01	2e-05	0
334	1.5	-0.008	0	0	1.5	-0.008	0	0
335	1.5	-0.008	2e-05	0	1.5	-0.008	2e-05	0
336	1.5	-0.006	0	0	1.5	-0.006	0	0
337	1.5	-0.003	0	0	1.5	-0.003	0	0
338	1.5	-0.001	0	0	1.5	-0.001	0	0
339	1.5	0	0	0	1.5	0	0	0
340	1.5	0.002	0	0	1.5	0.002	0	0
341	1.5	0.003	-2e-05	0	1.5	0.003	-2e-05	0
342	1.5	0.003	0	0	1.5	0.003	0	0
343	1.5	0.005	-2e-05	0	1.5	0.005	-2e-05	0
344	1.5	0.005	0	0	1.5	0.005	0	0
345	1.5	0.006	0	0	1.5	0.006	0	0
346	1.5	0.007	-2e-05	0	1.5	0.007	-2e-05	0
347	1.5	0.008	-2e-05	0	1.5	0.008	-2e-05	0
348	1.5	0.01	-2e-05	0	1.5	0.01	-2e-05	0
349	1.5	0.012	-2e-05	0	1.5	0.012	-2e-05	0
350	1.5	0.013	-2e-05	0	1.5	0.013	-2e-05	0
351	1.5	0.022	-4e-05	0	1.5	0.022	-4e-05	0
352	2	-0.033	4e-05	0	2	-0.033	4e-05	0
353	2	-0.029	4e-05	0	2	-0.029	4e-05	0
354	2	-0.028	4e-05	0	2	-0.028	4e-05	0
355	2	-0.026	4e-05	0	2	-0.026	4e-05	0
356	2	-0.022	2e-05	0	2	-0.022	2e-05	0
357	2	-0.019	2e-05	0	2	-0.019	2e-05	0
358	2	-0.018	2e-05	0	2	-0.018	2e-05	0
359	2	-0.015	0	0	2	-0.015	0	0
360	2	-0.014	2e-05	0	2	-0.014	2e-05	0
361	2	-0.012	2e-05	0	2	-0.012	2e-05	0
362	2	-0.01	2e-05	0	2	-0.01	2e-05	0
363	2	-0.009	0	0	2	-0.009	0	0
364	2	-0.009	2e-05	0	2	-0.009	2e-05	0
365	2	-0.007	2e-05	0	2	-0.007	2e-05	0
366	2	-0.006	0	0	2	-0.006	0	0
367	2	0.002	-2e-05	0	2	0.002	-2e-05	0
368	2	0.004	-2e-05	0	2	0.004	-2e-05	0
369	2	0.005	-2e-05	0	2	0.005	-2e-05	0
370	2	0.006	-2e-05	0	2	0.006	-2e-05	0
371	2	0.012	-2e-05	0	2	0.012	-2e-05	0
372	2	0.015	-2e-05	0	2	0.015	-2e-05	0
373	2	0.021	-2e-05	0	2	0.021	-2e-05	0
374	2	0.022	-4e-05	0	2	0.022	-4e-05	0
375	2.5	-0.049	6e-05	0	2.5	-0.049	6e-05	0
376	2.5	-0.03	4e-05	0	2.5	-0.03	4e-05	0
377	2.5	-0.029	4e-05	0	2.5	-0.029	4e-05	0
378	2.5	-0.023	2e-05	0	2.5	-0.023	2e-05	0
379	2.5	-0.018	2e-05	0	2.5	-0.018	2e-05	0
380	2.5	-0.016	2e-05	0	2.5	-0.016	2e-05	0
381	2.5	-0.015	0	0	2.5	-0.015	0	0
382	2.5	-0.01	0	0	2.5	-0.01	0	0
383	2.5	-0.009	0	0	2.5	-0.009	0	0
384	2.5	-0.008	0	0	2.5	-0.008	0	0
385	2.5	-0.004	0	0	2.5	-0.004	0	0
386	2.5	0.001	-2e-05	0	2.5	0.001	-2e-05	0
387	2.5	0.003	0	0	2.5	0.003	0	0
388	2.5	0.01	-2e-05	0	2.5	0.01	-2e-05	0
389	2.5	0.013	-2e-05	0	2.5	0.013	-2e-05	0
390	3	-0.031	4e-05	0	3	-0.031	4e-05	0
391	3	-0.023	2e-05	0	3	-0.023	2e-05	0
392	3	-0.021	2e-05	0	3	-0.021	2e-05	0
393	3	-0.017	0	0	3	-0.017	0	0
394	3	-0.015	0	0	3	-0.015	0	0
395	3	-0.015	2e-05	0	3	-0.015	2e-05	0
396	3	-0.013	2e-05	0	3	-0.013	2e-05	0
397	3	-0.011	2e-05	0	3	-0.011	2e-05	0
398	3	-0.01	2e-05	0	3	-0.01	2e-05	0
399	3	-0.009	0	0	3	-0.009	0	0
400	3	-0.009	2e-05	0	3	-0.009	2e-05	0
401	3	-0.005	0	0	3	-0.005	0	0
402	3.5	-0.047	6e-05	0	3.5	-0.047	6e-05	0
403	3.5	-0.031	4e-05	0	3.5	-0.031	4e-05	0
404	3.5	-0.028	4e-05	0	3.5	-0.028	4e-05	0
405	3.5	-0.019	2e-05	0	3.5	-0.019	2e-05	0
406	3.5	-0.014	2e-05	0	3.5	-0.014	2e-05	0
407	3.5	-0.009	0	0	3.5	-0.009	0	0
408	4	-0.041	4e-05	0	4	-0.041	4e-05	0
409	4	-0.016	2e-05	0	4	-0.016	2e-05	0
410	4	-0.012	2e-05	0	4	-0.012	2e-05	0
411	4	0.005	-2e-05	0	4	0.005	-2e-05	0
412	4.5	-0.043	4e-05	0	4.5	-0.043	4e-05	0
413	4.5	-0.032	4e-05	0	4.5	-0.032	4e-05	0
414	4.5	-0.031	2e-05	0	4.5	-0.031	2e-05	0
415	4.5	-0.029	4e-05	0	4.5	-0.029	4e-05	0
416	4.5	-0.018	0	0	4.5	-0.018	0	0
417	5	-0.029	4e-05	0	5	-0.029	4e-05	0
418	5	-0.027	2e-05	0	5	-0.027	2e-05	0
419	5.5	-0.044	4e-05	0	5.5	-0.044	4e-05	0
420	5.5	-0.037	2e-05	0	5.5	-0.037	2e-05	0
421	5.5	-0.032	2e-05	0	5.5	-0.032	2e-05	0
422	5.5	-0.03	4e-05	0	5.5	-0.03	4e-05	0
423	5.5	-0.016	0	0	5.5	-0.016	0	0
424	5.5	0.001	-2e-05	0	5.5	0.001	-2e-05	0
425	-6	0	2e-05	0	-6	0	2e-05	0
426	-4.5	-0.019	4e-05	0	-4.5	-0.019	4e-05	0
427	-4.5	0.001	2e-05	0	-4.5	0.001	2e-05	0
428	-4.5	0.009	0	0	-4.5	0.009	0	0
429	-4.5	0.02	0	0	-4.5	0.02	0	0
430	-4.5	0.029	-4e-05	0	-4.5	0.029	-4e-05	0
431	-4.5	0.033	-4e-05	0	-4.5	0.033	-4e-05	0
432	-4	-0.001	2e-05	0	-4	-0.001	2e-05	0
433	-4	0	2e-05	0	-4	0	2e-05	0
434	-4	0.019	-2e-05	0	-4	0.019	-2e-05	0
435	-4	0.021	-2e-05	0	-4	0.021	-2e-05	0
436	-4	0.023	-2e-05	0	-4	0.023	-2e-05	0
437	-4	0.033	-2e-05	0	-4	0.033	-2e-05	0
438	-3.5	-0.003	2e-05	0	-3.5	-0.003	2e-05	0
439	-3.5	0.011	0	0	-3.5	0.011	0	0
440	-3.5	0.013	-2e-05	0	-3.5	0.013	-2e-05	0
441	-3.5	0.022	-2e-05	0	-3.5	0.022	-2e-05	0
442	-3.5	0.03	-4e-05	0	-3.5	0.03	-4e-05	0
443	-3.5	0.031	-4e-05	0	-3.5	0.031	-4e-05	0
444	-3.5	0.032	-4e-05	0	-3.5	0.032	-4e-05	0
445	-3.5	0.035	-2e-05	0	-3.5	0.035	-2e-05	0
446	-3	0	0	0	-3	0	0	0
447	-3	0.003	0	0	-3	0.003	0	0
448	-3	0.006	0	0	-3	0.006	0	0
449	-3	0.014	0	0	-3	0.014	0	0
450	-3	0.018	0	0	-3	0.018	0	0
451	-3	0.033	-4e-05	0	-3	0.033	-4e-05	0
452	-3	0.036	-4e-05	0	-3	0.036	-4e-05	0
453	-2.5	-0.019	2e-05	0	-2.5	-0.019	2e-05	0
454	-2.5	-0.012	2e-05	0	-2.5	-0.012	2e-05	0
455	-2.5	-0.01	0	0	-2.5	-0.01	0	0
456	-2.5	-0.005	2e-05	0	-2.5	-0.005	2e-05	0
457	-2.5	0.004	0	0	-2.5	0.004	0	0
458	-2.5	0.005	0	0	-2.5	0.005	0	0
459	-2.5	0.007	0	0	-2.5	0.007	0	0
460	-2.5	0.012	0	0	-2.5	0.012	0	0
461	-2.5	0.013	0	0	-2.5	0.013	0	0
462	-2.5	0.015	-2e-05	0	-2.5	0.015	-2e-05	0
463	-2.5	0.016	0	0	-2.5	0.016	0	0
464	-2.5	0.017	-2e-05	0	-2.5	0.017	-2e-05	0
465	-2.5	0.019	-2e-05	0	-2.5	0.019	-2e-05	0
466	-2.5	0.023	-2e-05	0	-2.5	0.023	-2e-05	0
467	-2.5	0.029	-4e-05	0	-2.5	0.029	-4e-05	0
468	-2.5	0.029	-2e-05	0	-2.5	0.029	-2e-05	0
469	-2.5	0.042	-4e-05	0	-2.5	0.042	-4e-05	0
470	-2.5	0.047	-6e-05	0	-2.5	0.047	-6e-05	0
471	-2	-0.002	2e-05	0	-2	-0.002	2e-05	0
472	-2	-0.001	0	0	-2	-0.001	0	0
473	-2	0.002	0	0	-2	0.002	0	0
474	-2	0.005	0	0	-2	0.005	0	0
475	-2	0.006	0	0	-2	0.006	0	0
476	-2	0.008	-2e-05	0	-2	0.008	-2e-05	0
477	-2	0.008	0	0	-2	0.008	0	0
478	-2	0.01	-2e-05	0	-2	0.01	-2e-05	0
479	-2	0.01	0	0	-2	0.01	0	0
480	-2	0.011	0	0	-2	0.011	0	0
481	-2	0.012	-2e-05	0	-2	0.012	-2e-05	0
482	-2	0.012	0	0	-2	0.012	0	0
483	-2	0.013	-2e-05	0	-2	0.013	-2e-05	0
484	-2	0.014	0	0	-2	0.014	0	0
485	-2	0.015	-2e-05	0	-2	0.015	-2e-05	0
486	-2	0.017	-2e-05	0	-2	0.017	-2e-05	0
487	-2	0.017	0	0	-2	0.017	0	0
488	-2	0.018	-2e-05	0	-2	0.018	-2e-05	0
489	-2	0.019	-2e-05	0	-2	0.019	-2e-05	0
490	-2	0.02	-2e-05	0	-2	0.02	-2e-05	0
491	-2	0.021	-2e-05	0	-2	0.021	-2e-05	0
492	-2	0.027	-4e-05	0	-2	0.027	-4e-05	0
493	-2	0.031	-4e-05	0	-2	0.031	-4e-05	0
494	-2	0.035	-4e-05	0	-2	0.035	-4e-05	0
495	-2	0.045	-4e-05	0	-2	0.045	-4e-05	0
496	-1.5	-0.025	4e-05	0	-1.5	-0.025	4e-05	0
497	-1.5	-0.018	2e-05	0	-1.5	-0.018	2e-05	0
498	-1.5	-0.011	0	0	-1.5	-0.011	0	0
499	-1.5	-0.011	2e-05	0	-1.5	-0.011	2e-05	0
500	-1.5	-0.01	2e-05	0	-1.5	-0.01	2e-05	0
501	-1.5	-0.003	0	0	-1.5	-0.003	0	0
502	-1.5	-0.001	0	0	-1.5	-0.001	0	0
503	-1.5	0.002	0	0	-1.5	0.002	0	0
504	-1.5	0.003	0	0	-1.5	0.003	0	0
505	-1.5	0.004	0	0	-1.5	0.004	0	0
506	-1.5	0.005	0	0	-1.5	0.005	0	0
507	-1.5	0.006	0	0	-1.5	0.006	0	0
508	-1.5	0.007	0	0	-1.5	0.007	0	0
509	-1.5	0.008	0	0	-1.5	0.008	0	0
510	-1.5	0.01	-2e-05	0	-1.5	0.01	-2e-05	0
511	-1.5	0.01	0	0	-1.5	0.01	0	0
512	-1.5	0.011	-2e-05	0	-1.5	0.011	-2e-05	0
513	-1.5	0.011	0	0	-1.5	0.011	0	0
514	-1.5	0.012	-2e-05	0	-1.5	0.012	-2e-05	0
515	-1.5	0.013	-2e-05	0	-1.5	0.013	-2e-05	0
516	-1.5	0.013	0	0	-1.5	0.013	0	0
517	-1.5	0.014	-2e-05	0	-1.5	0.014	-2e-05	0
518	-1.5	0.015	-2e-05	0	-1.5	0.015	-2e-05	0
519	-1.5	0.016	-2e-05	0	-1.5	0.016	-2e-05	0
520	-1.5	0.019	-2e-05	0	-1.5	0.019	-2e-05	0
521	-1.5	0.021	-2e-05	0	-1.5	0.021	-2e-05	0
522	-1.5	0.023	-2e-05	0	-1.5	0.023	-2e-05	0
523	-1.5	0.026	-2e-05	0	-1.5	0.026	-2e-05	0
524	-1.5	0.029	-2e-05	0	-1.5	0.029	-2e-05	0
525	-1	-0.043	6e-05	0	-1	-0.043	6e-05	0
526	-1	-0.029	2e-05	0	-1	-0.029	2e-05	0
527	-1	-0.027	4e-05	0	-1	-0.027	4e-05	0
528	-1	-0.026	4e-05	0	-1	-0.026	4e-05	0
529	-1	-0.024	2e-05	0	-1	-0.024	2e-05	0
530	-1	-0.012	2e-05	0	-1	-0.012	2e-05	0
531	-1	-0.011	2e-05	0	-1	-0.011	2e-05	0
532	-1	-0.009	2e-05	0	-1	-0.009	2e-05	0
533	-1	-0.008	2e-05	0	-1	-0.008	2e-05	0
534	-1	-0.007	0	0	-1	-0.007	0	0
535	-1	-0.006	2e-05	0	-1	-0.006	2e-05	0
536	-1	-0.005	2e-05	0	-1	-0.005	2e-05	0
537	-1	-0.004	2e-05	0	-1	-0.004	2e-05	0
538	-1	-0.003	0	0	-1	-0.003	0	0
539	-1	-0.003	2e-05	0	-1	-0.003	2e-05	0
540	-1	0.002	0	0	-1	0.002	0	0
541	-1	0.003	0	0	-1	0.003	0	0
542	-1	0.005	-2e-05	0	-1	0.005	-2e-05	0
543	-1	0.005	0	0	-1	0.005	0	0
544	-1	0.006	0	0	-1	0.006	0	0
545	-1	0.007	-2e-05	0	-1	0.007	-2e-05	0
546	-1	0.007	0	0	-1	0.007	0	0
547	-1	0.008	-2e-05	0	-1	0.008	-2e-05	0
548	-1	0.008	0	0	-1	0.008	0	0
549	-1	0.009	-2e-05	0	-1	0.009	-2e-05	0
550	-1	0.009	0	0	-1	0.009	0	0
551	-1	0.01	-2e-05	0	-1	0.01	-2e-05	0
552	-1	0.011	0	0	-1	0.011	0	0
553	-1	0.012	-2e-05	0	-1	0.012	-2e-05	0
554	-1	0.012	0	0	-1	0.012	0	0
555	-1	0.015	0	0	-1	0.015	0	0
556	-1	0.016	-2e-05	0	-1	0.016	-2e-05	0
557	-1	0.018	-2e-05	0	-1	0.018	-2e-05	0
558	-1	0.02	-2e-05	0	-1	0.02	-2e-05	0
559	-1	0.025	-4e-05	0	-1	0.025	-4e-05	0
560	-1	0.026	-4e-05	0	-1	0.026	-4e-05	0
561	-1	0.027	-4e-05	0	-1	0.027	-4e-05	0
562	-1	0.029	-4e-05	0	-1	0.029	-4e-05	0
563	-1	0.03	-4e-05	0	-1	0.03	-4e-05	0
564	-1	0.031	-2e-05	0	-1	0.031	-2e-05	0
565	-0.5	-0.031	4e-05	0	-0.5	-0.031	4e-05	0
566	-0.5	-0.028	4e-05	0	-0.5	-0.028	4e-05	0
567	-0.5	-0.022	2e-05	0	-0.5	-0.022	2e-05	0
568	-0.5	-0.016	2e-05	0	-0.5	-0.016	2e-05	0
569	-0.5	-0.014	2e-05	0	-0.5	-0.014	2e-05	0
570	-0.5	-0.013	0	0	-0.5	-0.013	0	0
571	-0.5	-0.011	2e-05	0	-0.5	-0.011	2e-05	0
572	-0.5	-0.01	2e-05	0	-0.5	-0.01	2e-05	0
573	-0.5	-0.008	0	0	-0.5	-0.008	0	0
574	-0.5	-0.008	2e-05	0	-0.5	-0.008	2e-05	0
575	-0.5	-0.007	2e-05	0	-0.5	-0.007	2e-05	0
576	-0.5	-0.005	2e-05	0	-0.5	-0.005	2e-05	0
577	-0.5	-0.004	0	0	-0.5	-0.004	0	0
578	-0.5	-0.004	2e-05	0	-0.5	-0.004	2e-05	0
579	-0.5	-0.003	0	0	-0.5	-0.003	0	0
580	-0.5	-0.002	0	0	-0.5	-0.002	0	0
581	-0.5	-0.001	0	0	-0.5	-0.001	0	0
582	-0.5	0	0	0	-0.5	0	0	0
583	-0.5	0.001	0	0	-0.5	0.001	0	0
584	-0.5	0.002	0	0	-0.5	0.002	0	0
585	-0.5	0.004	-2e-05	0	-0.5	0.004	-2e-05	0
586	-0.5	0.004	0	0	-0.5	0.004	0	0
587	-0.5	0.005	-2e-05	0	-0.5	0.005	-2e-05	0
588	-0.5	0.006	-2e-05	0	-0.5	0.006	-2e-05	0
589	-0.5	0.008	-2e-05	0	-0.5	0.008	-2e-05	0
590	-0.5	0.008	0	0	-0.5	0.008	0	0
591	-0.5	0.009	-2e-05	0	-0.5	0.009	-2e-05	0
592	-0.5	0.009	0	0	-0.5	0.009	0	0
593	-0.5	0.01	-2e-05	0	-0.5	0.01	-2e-05	0
594	-0.5	0.012	-2e-05	0	-0.5	0.012	-2e-05	0
595	-0.5	0.012	0	0	-0.5	0.012	0	0
596	-0.5	0.013	-2e-05	0	-0.5	0.013	-2e-05	0
597	-0.5	0.014	-2e-05	0	-0.5	0.014	-2e-05	0
598	-0.5	0.015	-2e-05	0	-0.5	0.015	-2e-05	0
599	-0.5	0.015	0	0	-0.5	0.015	0	0
600	-0.5	0.016	-2e-05	0	-0.5	0.016	-2e-05	0
601	-0.5	0.016	0	0	-0.5	0.016	0	0
602	-0.5	0.018	-2e-05	0	-0.5	0.018	-2e-05	0
603	-0.5	0.019	-2e-05	0	-0.5	0.019	-2e-05	0
604	-0.5	0.02	-2e-05	0	-0.5	0.02	-2e-05	0
605	-0.5	0.025	-2e-05	0	-0.5	0.025	-2e-05	0
606	-0.5	0.026	-4e-05	0	-0.5	0.026	-4e-05	0
607	-0.5	0.026	-2e-05	0	-0.5	0.026	-2e-05	0
608	-0.5	0.027	-4e-05	0	-0.5	0.027	-4e-05	0
609	-0.5	0.03	-2e-05	0	-0.5	0.03	-2e-05	0
610	-0.5	0.032	-4e-05	0	-0.5	0.032	-4e-05	0
611	-0.5	0.033	-4e-05	0	-0.5	0.033	-4e-05	0
612	-0.5	0.034	-4e-05	0	-0.5	0.034	-4e-05	0
613	-0.5	0.037	-4e-05	0	-0.5	0.037	-4e-05	0
614	0	-0.045	6e-05	0	0	-0.045	6e-05	0
615	0	-0.04	4e-05	0	0	-0.04	4e-05	0
616	0	-0.033	4e-05	0	0	-0.033	4e-05	0
617	0	-0.032	4e-05	0	0	-0.032	4e-05	0
618	0	-0.029	4e-05	0	0	-0.029	4e-05	0
619	0	-0.028	2e-05	0	0	-0.028	2e-05	0
620	0	-0.026	2e-05	0	0	-0.026	2e-05	0
621	0	-0.026	4e-05	0	0	-0.026	4e-05	0
622	0	-0.025	4e-05	0	0	-0.025	4e-05	0
623	0	-0.024	4e-05	0	0	-0.024	4e-05	0
624	0	-0.021	2e-05	0	0	-0.021	2e-05	0
625	0	-0.018	2e-05	0	0	-0.018	2e-05	0
626	0	-0.017	2e-05	0	0	-0.017	2e-05	0
627	0	-0.015	0	0	0	-0.015	0	0
628	0	-0.014	0	0	0	-0.014	0	0
629	0	-0.014	2e-05	0	0	-0.014	2e-05	0
630	0	-0.012	0	0	0	-0.012	0	0
631	0	-0.012	2e-05	0	0	-0.012	2e-05	0
632	0	-0.011	2e-05	0	0	-0.011	2e-05	0
633	0	-0.01	0	0	0	-0.01	0	0
634	0	-0.01	2e-05	0	0	-0.01	2e-05	0
635	0	-0.009	0	0	0	-0.009	0	0
636	0	-0.009	2e-05	0	0	-0.009	2e-05	0
637	0	-0.008	0	0	0	-0.008	0	0
638	0	-0.008	2e-05	0	0	-0.008	2e-05	0
639	0	-0.007	0	0	0	-0.007	0	0
640	0	-0.007	2e-05	0	0	-0.007	2e-05	0
641	0	-0.006	2e-05	0	0	-0.006	2e-05	0
642	0	-0.005	0	0	0	-0.005	0	0
643	0	-0.005	2e-05	0	0	-0.005	2e-05	0
644	0	-0.004	0	0	0	-0.004	0	0
645	0	-0.004	2e-05	0	0	-0.004	2e-05	0
646	0	-0.003	0	0	0	-0.003	0	0
647	0	-0.002	0	0	0	-0.002	0	0
648	0	-0.001	0	0	0	-0.001	0	0
649	0	0	0	0	0	0	0	0
650	0	0.001	0	0	0	0.001	0	0
651	0	0.002	0	0	0	0.002	0	0
652	0	0.004	0	0	0	0.004	0	0
653	0	0.005	-2e-05	0	0	0.005	-2e-05	0
654	0	0.005	0	0	0	0.005	0	0
655	0	0.006	-2e-05	0	0	0.006	-2e-05	0
656	0	0.006	0	0	0	0.006	0	0
657	0	0.007	-2e-05	0	0	0.007	-2e-05	0
658	0	0.008	-2e-05	0	0	0.008	-2e-05	0
659	0	0.008	0	0	0	0.008	0	0
660	0	0.009	-2e-05	0	0	0.009	-2e-05	0
661	0	0.009	0	0	0	0.009	0	0
662	0	0.01	-2e-05	0	0	0.01	-2e-05	0
663	0	0.011	-2e-05	0	0	0.011	-2e-05	0
664	0	0.012	-2e-05	0	0	0.012	-2e-05	0
665	0	0.013	-2e-05	0	0	0.013	-2e-05	0
666	0	0.014	-2e-05	0	0	0.014	-2e-05	0
667	0	0.015	-2e-05	0	0	0.015	-2e-05	0
668	0	0.016	-2e-05	0	0	0.016	-2e-05	0
669	0	0.017	-2e-05	0	0	0.017	-2e-05	0
670	0	0.02	-2e-05	0	0	0.02	-2e-05	0
671	0	0.021	-2e-05	0	0	0.021	-2e-05	0
672	0	0.026	-4e-05	0	0	0.026	-4e-05	0
673	0	0.03	-4e-05	0	0	0.03	-4e-05	0
674	0	0.032	-4e-05	0	0	0.032	-4e-05	0
675	0	0.036	-4e-05	0	0	0.036	-4e-05	0
676	0	0.038	-4e-05	0	0	0.038	-4e-05	0
677	0	0.04	-4e-05	0	0	0.04	-4e-05	0
678	0.5	-0.03	4e-05	0	0.5	-0.03	4e-05	0
679	0.5	-0.026	2e-05	0	0.5	-0.026	2e-05	0
680	0.5	-0.02	2e-05	0	0.5	-0.02	2e-05	0
681	0.5	-0.019	2e-05	0	0.5	-0.019	2e-05	0
682	0.5	-0.017	2e-05	0	0.5	-0.017	2e-05	0
683	0.5	-0.016	0	0	0.5	-0.016	0	0
684	0.5	-0.016	2e-05	0	0.5	-0.016	2e-05	0
685	0.5	-0.014	0	0	0.5	-0.014	0	0
686	0.5	-0.013	0	0	0.5	-0.013	0	0
687	0.5	-0.012	2e-05	0	0.5	-0.012	2e-05	0
688	0.5	-0.011	0	0	0.5	-0.011	0	0
689	0.5	-0.011	2e-05	0	0.5	-0.011	2e-05	0
690	0.5	-0.01	0	0	0.5	-0.01	0	0
691	0.5	-0.01	2e-05	0	0.5	-0.01	2e-05	0
692	0.5	-0.009	2e-05	0	0.5	-0.009	2e-05	0
693	0.5	-0.007	0	0	0.5	-0.007	0	0
694	0.5	-0.007	2e-05	0	0.5	-0.007	2e-05	0
695	0.5	-0.006	2e-05	0	0.5	-0.006	2e-05	0
696	0.5	-0.005	2e-05	0	0.5	-0.005	2e-05	0
697	0.5	-0.004	0	0	0.5	-0.004	0	0
698	0.5	-0.003	0	0	0.5	-0.003	0	0
699	0.5	-0.002	0	0	0.5	-0.002	0	0
700	0.5	-0.001	0	0	0.5	-0.001	0	0
701	0.5	0.003	-2e-05	0	0.5	0.003	-2e-05	0
702	0.5	0.003	0	0	0.5	0.003	0	0
703	0.5	0.004	-2e-05	0	0.5	0.004	-2e-05	0
704	0.5	0.005	-2e-05	0	0.5	0.005	-2e-05	0
705	0.5	0.007	-2e-05	0	0.5	0.007	-2e-05	0
706	0.5	0.008	-2e-05	0	0.5	0.008	-2e-05	0
707	0.5	0.008	0	0	0.5	0.008	0	0
708	0.5	0.009	-2e-05	0	0.5	0.009	-2e-05	0
709	0.5	0.01	-2e-05	0	0.5	0.01	-2e-05	0
710	0.5	0.011	-2e-05	0	0.5	0.011	-2e-05	0
711	0.5	0.012	-2e-05	0	0.5	0.012	-2e-05	0
712	0.5	0.013	-2e-05	0	0.5	0.013	-2e-05	0
713	0.5	0.013	0	0	0.5	0.013	0	0
714	0.5	0.015	-2e-05	0	0.5	0.015	-2e-05	0
715	0.5	0.015	0	0	0.5	0.015	0	0
716	0.5	0.022	-2e-05	0	0.5	0.022	-2e-05	0
717	0.5	0.027	-2e-05	0	0.5	0.027	-2e-05	0
718	0.5	0.045	-6e-05	0	0.5	0.045	-6e-05	0
719	1	-0.051	6e-05	0	1	-0.051	6e-05	0
720	1	-0.047	6e-05	0	1	-0.047	6e-05	0
721	1	-0.024	2e-05	0	1	-0.024	2e-05	0
722	1	-0.02	2e-05	0	1	-0.02	2e-05	0
723	1	-0.019	2e-05	0	1	-0.019	2e-05	0
724	1	-0.018	2e-05	0	1	-0.018	2e-05	0
725	1	-0.017	2e-05	0	1	-0.017	2e-05	0
726	1	-0.016	2e-05	0	1	-0.016	2e-05	0
727	1	-0.015	2e-05	0	1	-0.015	2e-05	0
728	1	-0.014	2e-05	0	1	-0.014	2e-05	0
729	1	-0.013	0	0	1	-0.013	0	0
730	1	-0.013	2e-05	0	1	-0.013	2e-05	0
731	1	-0.012	2e-05	0	1	-0.012	2e-05	0
732	1	-0.01	0	0	1	-0.01	0	0
733	1	-0.01	2e-05	0	1	-0.01	2e-05	0
734	1	-0.009	0	0	1	-0.009	0	0
735	1	-0.009	2e-05	0	1	-0.009	2e-05	0
736	1	-0.008	0	0	1	-0.008	0	0
737	1	-0.008	2e-05	0	1	-0.008	2e-05	0
738	1	-0.007	0	0	1	-0.007	0	0
739	1	-0.006	2e-05	0	1	-0.006	2e-05	0
740	1	-0.005	0	0	1	-0.005	0	0
741	1	-0.003	0	0	1	-0.003	0	0
742	1	-0.002	0	0	1	-0.002	0	0
743	1	-0.001	0	0	1	-0.001	0	0
744	1	0	0	0	1	0	0	0
745	1	0.001	0	0	1	0.001	0	0
746	1	0.002	0	0	1	0.002	0	0
747	1	0.004	0	0	1	0.004	0	0
748	1	0.007	-2e-05	0	1	0.007	-2e-05	0
749	1	0.008	-2e-05	0	1	0.008	-2e-05	0
750	1	0.009	-2e-05	0	1	0.009	-2e-05	0
751	1	0.011	-2e-05	0	1	0.011	-2e-05	0
752	1	0.012	-2e-05	0	1	0.012	-2e-05	0
753	1	0.015	-2e-05	0	1	0.015	-2e-05	0
754	1	0.02	-2e-05	0	1	0.02	-2e-05	0
755	1	0.023	-2e-05	0	1	0.023	-2e-05	0
756	1	0.025	-4e-05	0	1	0.025	-4e-05	0
757	1	0.025	-2e-05	0	1	0.025	-2e-05	0
758	1	0.031	-4e-05	0	1	0.031	-4e-05	0
759	1	0.032	-4e-05	0	1	0.032	-4e-05	0
760	1.5	-0.033	4e-05	0	1.5	-0.033	4e-05	0
761	1.5	-0.03	4e-05	0	1.5	-0.03	4e-05	0
762	1.5	-0.026	2e-05	0	1.5	-0.026	2e-05	0
763	1.5	-0.025	4e-05	0	1.5	-0.025	4e-05	0
764	1.5	-0.023	2e-05	0	1.5	-0.023	2e-05	0
765	1.5	-0.02	2e-05	0	1.5	-0.02	2e-05	0
766	1.5	-0.019	2e-05	0	1.5	-0.019	2e-05	0
767	1.5	-0.018	2e-05	0	1.5	-0.018	2e-05	0
768	1.5	-0.016	2e-05	0	1.5	-0.016	2e-05	0
769	1.5	-0.014	2e-05	0	1.5	-0.014	2e-05	0
770	1.5	-0.013	0	0	1.5	-0.013	0	0
771	1.5	-0.013	2e-05	0	1.5	-0.013	2e-05	0
772	1.5	-0.012	2e-05	0	1.5	-0.012	2e-05	0
773	1.5	-0.011	0	0	1.5	-0.011	0	0
774	1.5	-0.01	0	0	1.5	-0.01	0	0
775	1.5	-0.01	2e-05	0	1.5	-0.01	2e-05	0
776	1.5	-0.003	0	0	1.5	-0.003	0	0
777	1.5	-0.002	0	0	1.5	-0.002	0	0
778	1.5	0.002	0	0	1.5	0.002	0	0
779	1.5	0.005	0	0	1.5	0.005	0	0
780	1.5	0.006	-2e-05	0	1.5	0.006	-2e-05	0
781	1.5	0.006	0	0	1.5	0.006	0	0
782	1.5	0.007	-2e-05	0	1.5	0.007	-2e-05	0
783	1.5	0.01	-2e-05	0	1.5	0.01	-2e-05	0
784	1.5	0.017	-2e-05	0	1.5	0.017	-2e-05	0
785	2	-0.035	4e-05	0	2	-0.035	4e-05	0
786	2	-0.029	4e-05	0	2	-0.029	4e-05	0
787	2	-0.026	2e-05	0	2	-0.026	2e-05	0
788	2	-0.026	4e-05	0	2	-0.026	4e-05	0
789	2	-0.022	2e-05	0	2	-0.022	2e-05	0
790	2	-0.018	0	0	2	-0.018	0	0
791	2	-0.014	0	0	2	-0.014	0	0
792	2	-0.011	0	0	2	-0.011	0	0
793	2	-0.009	2e-05	0	2	-0.009	2e-05	0
794	2	-0.008	0	0	2	-0.008	0	0
795	2	-0.007	2e-05	0	2	-0.007	2e-05	0
796	2	-0.006	2e-05	0	2	-0.006	2e-05	0
797	2	-0.005	0	0	2	-0.005	0	0
798	2	-0.004	0	0	2	-0.004	0	0
799	2	0.002	-2e-05	0	2	0.002	-2e-05	0
800	2	0.003	-2e-05	0	2	0.003	-2e-05	0
801	2	0.004	-2e-05	0	2	0.004	-2e-05	0
802	2	0.006	-2e-05	0	2	0.006	-2e-05	0
803	2	0.008	-2e-05	0	2	0.008	-2e-05	0
804	2.5	-0.052	6e-05	0	2.5	-0.052	6e-05	0
805	2.5	-0.049	6e-05	0	2.5	-0.049	6e-05	0
806	2.5	-0.047	6e-05	0	2.5	-0.047	6e-05	0
807	2.5	-0.03	4e-05	0	2.5	-0.03	4e-05	0
808	2.5	-0.027	4e-05	0	2.5	-0.027	4e-05	0
809	2.5	-0.024	2e-05	0	2.5	-0.024	2e-05	0
810	2.5	-0.015	2e-05	0	2.5	-0.015	2e-05	0
811	2.5	-0.013	2e-05	0	2.5	-0.013	2e-05	0
812	2.5	-0.011	2e-05	0	2.5	-0.011	2e-05	0
813	2.5	-0.009	2e-05	0	2.5	-0.009	2e-05	0
814	2.5	-0.008	0	0	2.5	-0.008	0	0
815	2.5	-0.007	2e-05	0	2.5	-0.007	2e-05	0
816	2.5	-0.004	0	0	2.5	-0.004	0	0
817	2.5	0.002	0	0	2.5	0.002	0	0
818	2.5	0.006	-2e-05	0	2.5	0.006	-2e-05	0
819	2.5	0.006	0	0	2.5	0.006	0	0
820	2.5	0.008	-2e-05	0	2.5	0.008	-2e-05	0
821	2.5	0.022	-4e-05	0	2.5	0.022	-4e-05	0
822	2.5	0.034	-4e-05	0	2.5	0.034	-4e-05	0
823	3	-0.03	4e-05	0	3	-0.03	4e-05	0
824	3	-0.027	4e-05	0	3	-0.027	4e-05	0
825	3	-0.018	2e-05	0	3	-0.018	2e-05	0
826	3	-0.016	0	0	3	-0.016	0	0
827	3	-0.013	2e-05	0	3	-0.013	2e-05	0
828	3	-0.01	2e-05	0	3	-0.01	2e-05	0
829	3	-0.006	0	0	3	-0.006	0	0
830	3	0	0	0	3	0	0	0
831	3	0.001	-2e-05	0	3	0.001	-2e-05	0
832	3	0.004	-2e-05	0	3	0.004	-2e-05	0
833	3	0.004	0	0	3	0.004	0	0
834	3.5	-0.043	4e-05	0	3.5	-0.043	4e-05	0
835	3.5	-0.027	4e-05	0	3.5	-0.027	4e-05	0
836	3.5	-0.024	2e-05	0	3.5	-0.024	2e-05	0
837	3.5	-0.021	2e-05	0	3.5	-0.021	2e-05	0
838	3.5	-0.019	0	0	3.5	-0.019	0	0
839	3.5	-0.018	0	0	3.5	-0.018	0	0
840	3.5	-0.017	0	0	3.5	-0.017	0	0
841	3.5	-0.015	2e-05	0	3.5	-0.015	2e-05	0
842	3.5	0.012	-2e-05	0	3.5	0.012	-2e-05	0
843	4	-0.036	4e-05	0	4	-0.036	4e-05	0
844	4	-0.032	4e-05	0	4	-0.032	4e-05	0
845	4	-0.025	2e-05	0	4	-0.025	2e-05	0
846	4	0.007	0	0	4	0.007	0	0
847	4.5	-0.032	4e-05	0	4.5	-0.032	4e-05	0
848	4.5	-0.03	4e-05	0	4.5	-0.03	4e-05	0
849	4.5	-0.022	2e-05	0	4.5	-0.022	2e-05	0
850	4.5	0.01	-2e-05	0	4.5	0.01	-2e-05	0
851	5	-0.032	4e-05	0	5	-0.032	4e-05	0
852	5	-0.028	2e-05	0	5	-0.028	2e-05	0
853	5	-0.019	0	0	5	-0.019	0	0
854	5.5	-0.037	4e-05	0	5.5	-0.037	4e-05	0
855	5.5	-0.03	4e-05	0	5.5	-0.03	4e-05	0
856	5.5	-0.012	0	0	5.5	-0.012	0	0
857	6	-0.07	8e-05	0	6	-0.07	8e-05	0
858	6	-0.022	0	0	6	-0.022	0	0
859	6.5	-0.029	2e-05	0	6.5	-0.029	2e-05	0
860	7	-0.033	4e-05	0	7	-0.033	4e-05	0
861	7	-0.032	4e-05	0	7	-0.032	4e-05	0
862	7	-0.019	0	0	7	-0.019	0	0
863	7.5	-0.035	4e-05	0	7.5	-0.035	4e-05	0
1	-9	0.027	-2e-05	0	-9	0.027	-2e-05	0
2	-9	0.028	-2e-05	0	-9	0.028	-2e-05	0
3	-9	0.04	-4e-05	0	-9	0.04	-4e-05	0
4	-9	0.054	-6e-05	0	-9	0.054	-6e-05	0
5	-9	0.063	-6e-05	0	-9	0.063	-6e-05	0
6	-8.5	0.02	-2e-05	0	-8.5	0.02	-2e-05	0
7	-8.5	0.021	-2e-05	0	-8.5	0.021	-2e-05	0
8	-8.5	0.023	0	0	-8.5	0.023	0	0
9	-8.5	0.033	-2e-05	0	-8.5	0.033	-2e-05	0
10	-8.5	0.047	-4e-05	0	-8.5	0.047	-4e-05	0
11	-8	0.012	0	0	-8	0.012	0	0
12	-8	0.017	0	0	-8	0.017	0	0
13	-8	0.024	-2e-05	0	-8	0.024	-2e-05	0
14	-8	0.026	-2e-05	0	-8	0.026	-2e-05	0
15	-8	0.034	-2e-05	0	-8	0.034	-2e-05	0
16	-8	0.038	-4e-05	0	-8	0.038	-4e-05	0
17	-8	0.061	-6e-05	0	-8	0.061	-6e-05	0
18	-7.5	0.014	-2e-05	0	-7.5	0.014	-2e-05	0
19	-7.5	0.015	0	0	-7.5	0.015	0	0
20	-7.5	0.02	0	0	-7.5	0.02	0	0
21	-7.5	0.021	0	0	-7.5	0.021	0	0
22	-7.5	0.025	-2e-05	0	-7.5	0.025	-2e-05	0
23	-7.5	0.026	-2e-05	0	-7.5	0.026	-2e-05	0
24	-7.5	0.035	-4e-05	0	-7.5	0.035	-4e-05	0
25	-7.5	0.037	-4e-05	0	-7.5	0.037	-4e-05	0
26	-7.5	0.038	-4e-05	0	-7.5	0.038	-4e-05	0
27	-7.5	0.039	-2e-05	0	-7.5	0.039	-2e-05	0
28	-7.5	0.042	-4e-05	0	-7.5	0.042	-4e-05	0
29	-7.5	0.045	-4e-05	0	-7.5	0.045	-4e-05	0
30	-7.5	0.057	-6e-05	0	-7.5	0.057	-6e-05	0
31	-7.5	0.058	-6e-05	0	-7.5	0.058	-6e-05	0
32	-7.5	0.059	-6e-05	0	-7.5	0.059	-6e-05	0
33	-7.5	0.065	-6e-05	0	-7.5	0.065	-6e-05	0
34	-7	0.015	-2e-05	0	-7	0.015	-2e-05	0
35	-7	0.015	0	0	-7	0.015	0	0
36	-7	0.017	0	0	-7	0.017	0	0
37	-7	0.019	-2e-05	0	-7	0.019	-2e-05	0
38	-7	0.021	-2e-05	0	-7	0.021	-2e-05	0
39	-7	0.024	-2e-05	0	-7	0.024	-2e-05	0
40	-7	0.033	-4e-05	0	-7	0.033	-4e-05	0
41	-7	0.035	-4e-05	0	-7	0.035	-4e-05	0
42	-7	0.038	-2e-05	0	-7	0.038	-2e-05	0
43	-7	0.039	-4e-05	0	-7	0.039	-4e-05	0
44	-7	0.041	-4e-05	0	-7	0.041	-4e-05	0
45	-7	0.055	-6e-05	0	-7	0.055	-6e-05	0
46	-6.5	-0.006	2e-05	0	-6.5	-0.006	2e-05	0
47	-6.5	0.01	0	0	-6.5	0.01	0	0
48	-6.5	0.017	0	0	-6.5	0.017	0	0
49	-6.5	0.02	-2e-05	0	-6.5	0.02	-2e-05	0
50	-6.5	0.021	-2e-05	0	-6.5	0.021	-2e-05	0
51	-6.5	0.026	-2e-05	0	-6.5	0.026	-2e-05	0
52	-6.5	0.027	-2e-05	0	-6.5	0.027	-2e-05	0
53	-6.5	0.028	-2e-05	0	-6.5	0.028	-2e-05	0
54	-6.5	0.031	-4e-05	0	-6.5	0.031	-4e-05	0
55	-6.5	0.032	-4e-05	0	-6.5	0.032	-4e-05	0
56	-6.5	0.033	-4e-05	0	-6.5	0.033	-4e-05	0
57	-6.5	0.04	-2e-05	0	-6.5	0.04	-2e-05	0
58	-6.5	0.042	-4e-05	0	-6.5	0.042	-4e-05	0
59	-6.5	0.046	-4e-05	0	-6.5	0.046	-4e-05	0
60	-6.5	0.051	-6e-05	0	-6.5	0.051	-6e-05	0
61	-6.5	0.052	-6e-05	0	-6.5	0.052	-6e-05	0
62	-6.5	0.054	-6e-05	0	-6.5	0.054	-6e-05	0
63	-6	0.005	0	0	-6	0.005	0	0
64	-6	0.012	0	0	-6	0.012	0	0
65	-6	0.014	0	0	-6	0.014	0	0
66	-6	0.018	0	0	-6	0.018	0	0
67	-6	0.019	0	0	-6	0.019	0	0
68	-6	0.021	-2e-05	0	-6	0.021	-2e-05	0
69	-6	0.023	-2e-05	0	-6	0.023	-2e-05	0
70	-6	0.025	-2e-05	0	-6	0.025	-2e-05	0
71	-6	0.029	-2e-05	0	-6	0.029	-2e-05	0
72	-6	0.031	-4e-05	0	-6	0.031	-4e-05	0
73	-6	0.031	-2e-05	0	-6	0.031	-2e-05	0
74	-6	0.04	-4e-05	0	-6	0.04	-4e-05	0
75	-6	0.047	-4e-05	0	-6	0.047	-4e-05	0
76	-6	0.048	-4e-05	0	-6	0.048	-4e-05	0
77	-6	0.056	-6e-05	0	-6	0.056	-6e-05	0
78	-5.5	-0.005	2e-05	0	-5.5	-0.005	2e-05	0
79	-5.5	0.001	2e-05	0	-5.5	0.001	2e-05	0
80	-5.5	0.009	0	0	-5.5	0.009	0	0
81	-5.5	0.015	0	0	-5.5	0.015	0	0
82	-5.5	0.018	-2e-05	0	-5.5	0.018	-2e-05	0
83	-5.5	0.018	0	0	-5.5	0.018	0	0
84	-5.5	0.02	-2e-05	0	-5.5	0.02	-2e-05	0
85	-5.5	0.02	0	0	-5.5	0.02	0	0
86	-5.5	0.023	-2e-05	0	-5.5	0.023	-2e-05	0
87	-5.5	0.028	-2e-05	0	-5.5	0.028	-2e-05	0
88	-5.5	0.03	-4e-05	0	-5.5	0.03	-4e-05	0
89	-5.5	0.03	-2e-05	0	-5.5	0.03	-2e-05	0
90	-5.5	0.037	-4e-05	0	-5.5	0.037	-4e-05	0
91	-5.5	0.061	-6e-05	0	-5.5	0.061	-6e-05	0
92	-5	-0.004	2e-05	0	-5	-0.004	2e-05	0
93	-5	0	2e-05	0	-5	0	2e-05	0
94	-5	0.005	0	0	-5	0.005	0	0
95	-5	0.012	-2e-05	0	-5	0.012	-2e-05	0
96	-5	0.013	0	0	-5	0.013	0	0
97	-5	0.014	0	0	-5	0.014	0	0
98	-5	0.015	0	0	-5	0.015	0	0
99	-5	0.016	-2e-05	0	-5	0.016	-2e-05	0
100	-5	0.017	-2e-05	0	-5	0.017	-2e-05	0
101	-5	0.019	-2e-05	0	-5	0.019	-2e-05	0
102	-5	0.02	-2e-05	0	-5	0.02	-2e-05	0
103	-5	0.021	-2e-05	0	-5	0.021	-2e-05	0
104	-5	0.023	-2e-05	0	-5	0.023	-2e-05	0
105	-5	0.024	-2e-05	0	-5	0.024	-2e-05	0
106	-5	0.025	-2e-05	0	-5	0.025	-2e-05	0
107	-5	0.03	-4e-05	0	-5	0.03	-4e-05	0
108	-5	0.031	-4e-05	0	-5	0.031	-4e-05	0
109	-5	0.032	-4e-05	0	-5	0.032	-4e-05	0
110	-5	0.033	-2e-05	0	-5	0.033	-2e-05	0
111	-5	0.034	-4e-05	0	-5	0.034	-4e-05	0
112	-5	0.035	-4e-05	0	-5	0.035	-4e-05	0
113	-5	0.037	-4e-05	0	-5	0.037	-4e-05	0
114	-5	0.038	-4e-05	0	-5	0.038	-4e-05	0
115	-5	0.039	-4e-05	0	-5	0.039	-4e-05	0
116	-5	0.051	-6e-05	0	-5	0.051	-6e-05	0
117	-5	0.057	-6e-05	0	-5	0.057	-6e-05	0
118	-4.5	-0.013	2e-05	0	-4.5	-0.013	2e-05	0
119	-4.5	-0.009	2e-05	0	-4.5	-0.009	2e-05	0
120	-4.5	-0.007	0	0	-4.5	-0.007	0	0
121	-4.5	-0.007	2e-05	0	-4.5	-0.007	2e-05	0
122	-4.5	-0.005	2e-05	0	-4.5	-0.005	2e-05	0
123	-4.5	-0.004	0	0	-4.5	-0.004	0	0
124	-4.5	-0.003	2e-05	0	-4.5	-0.003	2e-05	0
125	-4.5	-0.002	0	0	-4.5	-0.002	0	0
126	-4.5	0.001	0	0	-4.5	0.001	0	0
127	-4.5	0.002	0	0	-4.5	0.002	0	0
128	-4.5	0.005	0	0	-4.5	0.005	0	0
129	-4.5	0.013	-2e-05	0	-4.5	0.013	-2e-05	0
130	-4.5	0.016	-2e-05	0	-4.5	0.016	-2e-05	0
131	-4.5	0.016	0	0	-4.5	0.016	0	0
132	-4.5	0.017	-2e-05	0	-4.5	0.017	-2e-05	0
133	-4.5	0.018	-2e-05	0	-4.5	0.018	-2e-05	0
134	-4.5	0.018	0	0	-4.5	0.018	0	0
135	-4.5	0.019	-2e-05	0	-4.5	0.019	-2e-05	0
136	-4.5	0.019	0	0	-4.5	0.019	0	0
137	-4.5	0.021	-2e-05	0	-4.5	0.021	-2e-05	0
138	-4.5	0.026	-2e-05	0	-4.5	0.026	-2e-05	0
139	-4.5	0.029	-4e-05	0	-4.5	0.029	-4e-05	0
140	-4.5	0.033	-2e-05	0	-4.5	0.033	-2e-05	0
141	-4.5	0.035	-4e-05	0	-4.5	0.035	-4e-05	0
142	-4.5	0.06	-6e-05	0	-4.5	0.06	-6e-05	0
143	-4.5	0.061	-6e-05	0	-4.5	0.061	-6e-05	0
144	-4	-0.007	2e-05	0	-4	-0.007	2e-05	0
145	-4	-0.002	2e-05	0	-4	-0.002	2e-05	0
146	-4	0.004	0	0	-4	0.004	0	0
147	-4	0.005	0	0	-4	0.005	0	0
148	-4	0.006	0	0	-4	0.006	0	0
149	-4	0.01	0	0	-4	0.01	0	0
150	-4	0.011	-2e-05	0	-4	0.011	-2e-05	0
151	-4	0.012	0	0	-4	0.012	0	0
152	-4	0.015	-2e-05	0	-4	0.015	-2e-05	0
153	-4	0.017	0	0	-4	0.017	0	0
154	-4	0.018	-2e-05	0	-4	0.018	-2e-05	0
155	-4	0.019	-2e-05	0	-4	0.019	-2e-05	0
156	-4	0.019	0	0	-4	0.019	0	0
157	-4	0.021	-2e-05	0	-4	0.021	-2e-05	0
158	-4	0.022	-2e-05	0	-4	0.022	-2e-05	0
159	-4	0.025	-2e-05	0	-4	0.025	-2e-05	0
160	-4	0.029	-4e-05	0	-4	0.029	-4e-05	0
161	-4	0.029	-2e-05	0	-4	0.029	-2e-05	0
162	-4	0.03	-4e-05	0	-4	0.03	-4e-05	0
163	-4	0.032	-4e-05	0	-4	0.032	-4e-05	0
164	-4	0.033	-4e-05	0	-4	0.033	-4e-05	0
165	-4	0.034	-4e-05	0	-4	0.034	-4e-05	0
166	-4	0.034	-2e-05	0	-4	0.034	-2e-05	0
167	-4	0.037	-2e-05	0	-4	0.037	-2e-05	0
168	-4	0.042	-4e-05	0	-4	0.042	-4e-05	0
169	-4	0.049	-4e-05	0	-4	0.049	-4e-05	0
170	-4	0.05	-4e-05	0	-4	0.05	-4e-05	0
171	-3.5	-0.023	4e-05	0	-3.5	-0.023	4e-05	0
172	-3.5	-0.009	0	0	-3.5	-0.009	0	0
173	-3.5	-0.007	2e-05	0	-3.5	-0.007	2e-05	0
174	-3.5	-0.005	2e-05	0	-3.5	-0.005	2e-05	0
175	-3.5	-0.004	0	0	-3.5	-0.004	0	0
176	-3.5	-0.004	2e-05	0	-3.5	-0.004	2e-05	0
177	-3.5	-0.002	2e-05	0	-3.5	-0.002	2e-05	0
178	-3.5	0.001	0	0	-3.5	0.001	0	0
179	-3.5	0.004	0	0	-3.5	0.004	0	0
180	-3.5	0.005	0	0	-3.5	0.005	0	0
181	-3.5	0.007	0	0	-3.5	0.007	0	0
182	-3.5	0.009	-2e-05	0	-3.5	0.009	-2e-05	0
183	-3.5	0.009	0	0	-3.5	0.009	0	0
184	-3.5	0.01	0	0	-3.5	0.01	0	0
185	-3.5	0.012	-2e-05	0	-3.5	0.012	-2e-05	0
186	-3.5	0.013	0	0	-3.5	0.013	0	0
187	-3.5	0.014	-2e-05	0	-3.5	0.014	-2e-05	0
188	-3.5	0.016	-2e-05	0	-3.5	0.016	-2e-05	0
189	-3.5	0.018	-2e-05	0	-3.5	0.018	-2e-05	0
190	-3.5	0.02	-2e-05	0	-3.5	0.02	-2e-05	0
191	-3.5	0.021	-2e-05	0	-3.5	0.021	-2e-05	0
192	-3.5	0.022	-2e-05	0	-3.5	0.022	-2e-05	0
193	-3.5	0.026	-2e-05	0	-3.5	0.026	-2e-05	0
194	-3.5	0.029	-4e-05	0	-3.5	0.029	-4e-05	0
195	-3.5	0.029	-2e-05	0	-3.5	0.029	-2e-05	0
196	-3.5	0.03	-4e-05	0	-3.5	0.03	-4e-05	0
197	-3.5	0.031	-4e-05	0	-3.5	0.031	-4e-05	0
198	-3.5	0.031	-2e-05	0	-3.5	0.031	-2e-05	0
199	-3.5	0.032	-4e-05	0	-3.5	0.032	-4e-05	0
200	-3.5	0.033	-4e-05	0	-3.5	0.033	-4e-05	0
201	-3.5	0.034	-4e-05	0	-3.5	0.034	-4e-05	0
202	-3.5	0.041	-4e-05	0	-3.5	0.041	-4e-05	0
203	-3.5	0.044	-4e-05	0	-3.5	0.044	-4e-05	0
204	-3	-0.024	2e-05	0	-3	-0.024	2e-05	0
205	-3	-0.019	2e-05	0	-3	-0.019	2e-05	0
206	-3	-0.017	2e-05	0	-3	-0.017	2e-05	0
207	-3	-0.013	2e-05	0	-3	-0.013	2e-05	0
208	-3	-0.01	2e-05	0	-3	-0.01	2e-05	0
209	-3	-0.008	2e-05	0	-3	-0.008	2e-05	0
210	-3	-0.007	2e-05	0	-3	-0.007	2e-05	0
211	-3	-0.005	0	0	-3	-0.005	0	0
212	-3	-0.004	0	0	-3	-0.004	0	0
213	-3	-0.003	2e-05	0	-3	-0.003	2e-05	0
214	-3	-0.002	0	0	-3	-0.002	0	0
215	-3	0.003	0	0	-3	0.003	0	0
216	-3	0.004	0	0	-3	0.004	0	0
217	-3	0.007	0	0	-3	0.007	0	0
218	-3	0.009	0	0	-3	0.009	0	0
219	-3	0.011	-2e-05	0	-3	0.011	-2e-05	0
220	-3	0.012	-2e-05	0	-3	0.012	-2e-05	0
221	-3	0.012	0	0	-3	0.012	0	0
222	-3	0.013	-2e-05	0	-3	0.013	-2e-05	0
223	-3	0.014	-2e-05	0	-3	0.014	-2e-05	0
224	-3	0.014	0	0	-3	0.014	0	0
225	-3	0.015	-2e-05	0	-3	0.015	-2e-05	0
226	-3	0.016	-2e-05	0	-3	0.016	-2e-05	0
227	-3	0.018	-2e-05	0	-3	0.018	-2e-05	0
228	-3	0.018	0	0	-3	0.018	0	0
229	-3	0.02	-2e-05	0	-3	0.02	-2e-05	0
230	-3	0.022	-2e-05	0	-3	0.022	-2e-05	0
231	-3	0.025	-2e-05	0	-3	0.025	-2e-05	0
232	-3	0.026	-2e-05	0	-3	0.026	-2e-05	0
233	-3	0.028	-2e-05	0	-3	0.028	-2e-05	0
