1	-10	0.026	-2e-05	0	-10	0.026	-2e-05	0
2	-10	0.029	-2e-05	0	-10	0.029	-2e-05	0
3	-10	0.03	-4e-05	0	-10	0.03	-4e-05	0
4	-10	0.031	-2e-05	0	-10	0.031	-2e-05	0
5	-10	0.037	-4e-05	0	-10	0.037	-4e-05	0
6	-10	0.04	-4e-05	0	-10	0.04	-4e-05	0
7	-10	0.05	-6e-05	0	-10	0.05	-6e-05	0
8	-10	0.054	-6e-05	0	-10	0.054	-6e-05	0
9	-10	0.062	-6e-05	0	-10	0.062	-6e-05	0
10	-10	0.066	-8e-05	0	-10	0.066	-8e-05	0
11	-9.5	0.027	-2e-05	0	-9.5	0.027	-2e-05	0
12	-9.5	0.028	-2e-05	0	-9.5	0.028	-2e-05	0
13	-9.5	0.029	-2e-05	0	-9.5	0.029	-2e-05	0
14	-9.5	0.031	-2e-05	0	-9.5	0.031	-2e-05	0
15	-9.5	0.032	-2e-05	0	-9.5	0.032	-2e-05	0
16	-9.5	0.049	-4e-05	0	-9.5	0.049	-4e-05	0
17	-9.5	0.053	-6e-05	0	-9.5	0.053	-6e-05	0
18	-9	0.023	-2e-05	0	-9	0.023	-2e-05	0
19	-9	0.024	0	0	-9	0.024	0	0
20	-9	0.027	-2e-05	0	-9	0.027	-2e-05	0
21	-9	0.03	-2e-05	0	-9	0.03	-2e-05	0
22	-9	0.031	-2e-05	0	-9	0.031	-2e-05	0
23	-9	0.032	-2e-05	0	-9	0.032	-2e-05	0
24	-9	0.033	-2e-05	0	-9	0.033	-2e-05	0
25	-9	0.034	-4e-05	0	-9	0.034	-4e-05	0
26	-9	0.035	-2e-05	0	-9	0.035	-2e-05	0
27	-9	0.037	-4e-05	0	-9	0.037	-4e-05	0
28	-9	0.037	-2e-05	0	-9	0.037	-2e-05	0
29	-9	0.039	-4e-05	0	-9	0.039	-4e-05	0
30	-9	0.04	-4e-05	0	-9	0.04	-4e-05	0
31	-9	0.041	-4e-05	0	-9	0.041	-4e-05	0
32	-9	0.046	-4e-05	0	-9	0.046	-4e-05	0
33	-9	0.049	-4e-05	0	-9	0.049	-4e-05	0
34	-9	0.05	-6e-05	0	-9	0.05	-6e-05	0
35	-8.5	0.013	0	0	-8.5	0.013	0	0
36	-8.5	0.016	0	0	-8.5	0.016	0	0
37	-8.5	0.019	0	0	-8.5	0.019	0	0
38	-8.5	0.021	0	0	-8.5	0.021	0	0
39	-8.5	0.027	-2e-05	0	-8.5	0.027	-2e-05	0
40	-8.5	0.029	-2e-05	0	-8.5	0.029	-2e-05	0
41	-8.5	0.036	-2e-05	0	-8.5	0.036	-2e-05	0
42	-8.5	0.039	-4e-05	0	-8.5	0.039	-4e-05	0
43	-8.5	0.041	-4e-05	0	-8.5	0.041	-4e-05	0
44	-8.5	0.042	-6e-05	0	-8.5	0.042	-6e-05	0
45	-8.5	0.044	-4e-05	0	-8.5	0.044	-4e-05	0
46	-8.5	0.051	-6e-05	0	-8.5	0.051	-6e-05	0
47	-8	0.009	2e-05	0	-8	0.009	2e-05	0
48	-8	0.017	0	0	-8	0.017	0	0
49	-8	0.019	0	0	-8	0.019	0	0
50	-8	0.022	-2e-05	0	-8	0.022	-2e-05	0
51	-8	0.023	-2e-05	0	-8	0.023	-2e-05	0
52	-8	0.025	-2e-05	0	-8	0.025	-2e-05	0
53	-8	0.028	-2e-05	0	-8	0.028	-2e-05	0
54	-8	0.03	-2e-05	0	-8	0.03	-2e-05	0
55	-8	0.031	-2e-05	0	-8	0.031	-2e-05	0
56	-8	0.033	-4e-05	0	-8	0.033	-4e-05	0
57	-8	0.038	-4e-05	0	-8	0.038	-4e-05	0
58	-8	0.038	-2e-05	0	-8	0.038	-2e-05	0
59	-8	0.051	-4e-05	0	-8	0.051	-4e-05	0
60	-7.5	0.012	0	0	-7.5	0.012	0	0
61	-7.5	0.017	0	0	-7.5	0.017	0	0
62	-7.5	0.02	-2e-05	0	-7.5	0.02	-2e-05	0
63	-7.5	0.022	0	0	-7.5	0.022	0	0
64	-7.5	0.024	-2e-05	0	-7.5	0.024	-2e-05	0
65	-7.5	0.027	-2e-05	0	-7.5	0.027	-2e-05	0
66	-7.5	0.029	-2e-05	0	-7.5	0.029	-2e-05	0
67	-7.5	0.031	-4e-05	0	-7.5	0.031	-4e-05	0
68	-7.5	0.037	-4e-05	0	-7.5	0.037	-4e-05	0
69	-7.5	0.039	-4e-05	0	-7.5	0.039	-4e-05	0
70	-7.5	0.041	-6e-05	0	-7.5	0.041	-6e-05	0
71	-7.5	0.047	-4e-05	0	-7.5	0.047	-4e-05	0
72	-7.5	0.048	-6e-05	0	-7.5	0.048	-6e-05	0
73	-7	0.007	2e-05	0	-7	0.007	2e-05	0
74	-7	0.014	0	0	-7	0.014	0	0
75	-7	0.017	-2e-05	0	-7	0.017	-2e-05	0
76	-7	0.018	-2e-05	0	-7	0.018	-2e-05	0
77	-7	0.018	0	0	-7	0.018	0	0
78	-7	0.022	-2e-05	0	-7	0.022	-2e-05	0
79	-7	0.024	-2e-05	0	-7	0.024	-2e-05	0
80	-7	0.026	-2e-05	0	-7	0.026	-2e-05	0
81	-7	0.027	-2e-05	0	-7	0.027	-2e-05	0
82	-7	0.028	-2e-05	0	-7	0.028	-2e-05	0
83	-7	0.029	-4e-05	0	-7	0.029	-4e-05	0
84	-7	0.032	-4e-05	0	-7	0.032	-4e-05	0
85	-7	0.033	-2e-05	0	-7	0.033	-2e-05	0
86	-7	0.034	-4e-05	0	-7	0.034	-4e-05	0
87	-7	0.036	-4e-05	0	-7	0.036	-4e-05	0
88	-7	0.037	-4e-05	0	-7	0.037	-4e-05	0
89	-7	0.041	-4e-05	0	-7	0.041	-4e-05	0
90	-7	0.047	-4e-05	0	-7	0.047	-4e-05	0
91	-7	0.049	-4e-05	0	-7	0.049	-4e-05	0
92	-7	0.05	-4e-05	0	-7	0.05	-4e-05	0
93	-7	0.051	-6e-05	0	-7	0.051	-6e-05	0
94	-6.5	0.006	2e-05	0	-6.5	0.006	2e-05	0
95	-6.5	0.012	0	0	-6.5	0.012	0	0
96	-6.5	0.014	0	0	-6.5	0.014	0	0
97	-6.5	0.024	-2e-05	0	-6.5	0.024	-2e-05	0
98	-6.5	0.025	-4e-05	0	-6.5	0.025	-4e-05	0
99	-6.5	0.025	-2e-05	0	-6.5	0.025	-2e-05	0
100	-6.5	0.03	-2e-05	0	-6.5	0.03	-2e-05	0
101	-6.5	0.031	-2e-05	0	-6.5	0.031	-2e-05	0
102	-6.5	0.033	-4e-05	0	-6.5	0.033	-4e-05	0
103	-6.5	0.035	-4e-05	0	-6.5	0.035	-4e-05	0
104	-6.5	0.036	-4e-05	0	-6.5	0.036	-4e-05	0
105	-6.5	0.039	-4e-05	0	-6.5	0.039	-4e-05	0
106	-6.5	0.046	-4e-05	0	-6.5	0.046	-4e-05	0
107	-6	0.003	2e-05	0	-6	0.003	2e-05	0
108	-6	0.004	0	0	-6	0.004	0	0
109	-6	0.006	2e-05	0	-6	0.006	2e-05	0
110	-6	0.01	0	0	-6	0.01	0	0
111	-6	0.016	0	0	-6	0.016	0	0
112	-6	0.022	-2e-05	0	-6	0.022	-2e-05	0
113	-6	0.023	-2e-05	0	-6	0.023	-2e-05	0
114	-6	0.026	-2e-05	0	-6	0.026	-2e-05	0
115	-6	0.027	-2e-05	0	-6	0.027	-2e-05	0
116	-6	0.028	-4e-05	0	-6	0.028	-4e-05	0
117	-6	0.031	-4e-05	0	-6	0.031	-4e-05	0
118	-6	0.032	-4e-05	0	-6	0.032	-4e-05	0
119	-6	0.033	-2e-05	0	-6	0.033	-2e-05	0
120	-6	0.034	-4e-05	0	-6	0.034	-4e-05	0
121	-6	0.036	-2e-05	0	-6	0.036	-2e-05	0
122	-6	0.044	-4e-05	0	-6	0.044	-4e-05	0
123	-6	0.045	-6e-05	0	-6	0.045	-6e-05	0
124	-6	0.048	-6e-05	0	-6	0.048	-6e-05	0
125	-5.5	0	2e-05	0	-5.5	0	2e-05	0
126	-5.5	0.001	2e-05	0	-5.5	0.001	2e-05	0
127	-5.5	0.004	2e-05	0	-5.5	0.004	2e-05	0
128	-5.5	0.005	2e-05	0	-5.5	0.005	2e-05	0
129	-5.5	0.006	2e-05	0	-5.5	0.006	2e-05	0
130	-5.5	0.007	0	0	-5.5	0.007	0	0
131	-5.5	0.015	0	0	-5.5	0.015	0	0
132	-5.5	0.017	-2e-05	0	-5.5	0.017	-2e-05	0
133	-5.5	0.021	-2e-05	0	-5.5	0.021	-2e-05	0
134	-5.5	0.022	-2e-05	0	-5.5	0.022	-2e-05	0
135	-5.5	0.022	0	0	-5.5	0.022	0	0
136	-5.5	0.024	-2e-05	0	-5.5	0.024	-2e-05	0
137	-5.5	0.028	-4e-05	0	-5.5	0.028	-4e-05	0
138	-5.5	0.029	-4e-05	0	-5.5	0.029	-4e-05	0
139	-5.5	0.03	-4e-05	0	-5.5	0.03	-4e-05	0
140	-5.5	0.03	-2e-05	0	-5.5	0.03	-2e-05	0
141	-5.5	0.031	-4e-05	0	-5.5	0.031	-4e-05	0
142	-5.5	0.033	-4e-05	0	-5.5	0.033	-4e-05	0
143	-5.5	0.039	-4e-05	0	-5.5	0.039	-4e-05	0
144	-5.5	0.044	-6e-05	0	-5.5	0.044	-6e-05	0
145	-5.5	0.045	-4e-05	0	-5.5	0.045	-4e-05	0
146	-5.5	0.055	-6e-05	0	-5.5	0.055	-6e-05	0
147	-5	0.001	2e-05	0	-5	0.001	2e-05	0
148	-5	0.004	0	0	-5	0.004	0	0
149	-5	0.005	0	0	-5	0.005	0	0
150	-5	0.006	2e-05	0	-5	0.006	2e-05	0
151	-5	0.007	0	0	-5	0.007	0	0
152	-5	0.011	0	0	-5	0.011	0	0
153	-5	0.012	-2e-05	0	-5	0.012	-2e-05	0
154	-5	0.013	0	0	-5	0.013	0	0
155	-5	0.017	-2e-05	0	-5	0.017	-2e-05	0
156	-5	0.018	0	0	-5	0.018	0	0
157	-5	0.024	-2e-05	0	-5	0.024	-2e-05	0
158	-5	0.025	-4e-05	0	-5	0.025	-4e-05	0
159	-5	0.026	-4e-05	0	-5	0.026	-4e-05	0
160	-5	0.026	-2e-05	0	-5	0.026	-2e-05	0
161	-5	0.027	-2e-05	0	-5	0.027	-2e-05	0
162	-5	0.028	-2e-05	0	-5	0.028	-2e-05	0
163	-5	0.029	-4e-05	0	-5	0.029	-4e-05	0
164	-5	0.03	-4e-05	0	-5	0.03	-4e-05	0
165	-5	0.031	-4e-05	0	-5	0.031	-4e-05	0
166	-5	0.032	-2e-05	0	-5	0.032	-2e-05	0
167	-5	0.04	-4e-05	0	-5	0.04	-4e-05	0
168	-5	0.046	-6e-05	0	-5	0.046	-6e-05	0
169	-4.5	-0.008	2e-05	0	-4.5	-0.008	2e-05	0
170	-4.5	-0.003	2e-05	0	-4.5	-0.003	2e-05	0
171	-4.5	0.003	0	0	-4.5	0.003	0	0
172	-4.5	0.004	0	0	-4.5	0.004	0	0
173	-4.5	0.006	2e-05	0	-4.5	0.006	2e-05	0
174	-4.5	0.009	0	0	-4.5	0.009	0	0
175	-4.5	0.011	0	0	-4.5	0.011	0	0
176	-4.5	0.017	-2e-05	0	-4.5	0.017	-2e-05	0
177	-4.5	0.018	-2e-05	0	-4.5	0.018	-2e-05	0
178	-4.5	0.02	-2e-05	0	-4.5	0.02	-2e-05	0
179	-4.5	0.023	-2e-05	0	-4.5	0.023	-2e-05	0
180	-4.5	0.024	-2e-05	0	-4.5	0.024	-2e-05	0
181	-4.5	0.026	-2e-05	0	-4.5	0.026	-2e-05	0
182	-4.5	0.027	-4e-05	0	-4.5	0.027	-4e-05	0
183	-4.5	0.029	-4e-05	0	-4.5	0.029	-4e-05	0
184	-4.5	0.03	-4e-05	0	-4.5	0.03	-4e-05	0
185	-4.5	0.033	-4e-05	0	-4.5	0.033	-4e-05	0
186	-4.5	0.034	-4e-05	0	-4.5	0.034	-4e-05	0
187	-4.5	0.036	-4e-05	0	-4.5	0.036	-4e-05	0
188	-4.5	0.038	-6e-05	0	-4.5	0.038	-6e-05	0
189	-4.5	0.04	-4e-05	0	-4.5	0.04	-4e-05	0
190	-4.5	0.041	-6e-05	0	-4.5	0.041	-6e-05	0
191	-4.5	0.043	-4e-05	0	-4.5	0.043	-4e-05	0
192	-4	-0.01	2e-05	0	-4	-0.01	2e-05	0
193	-4	-0.003	2e-05	0	-4	-0.003	2e-05	0
194	-4	0.004	0	0	-4	0.004	0	0
195	-4	0.005	0	0	-4	0.005	0	0
196	-4	0.009	0	0	-4	0.009	0	0
197	-4	0.01	0	0	-4	0.01	0	0
198	-4	0.011	0	0	-4	0.011	0	0
199	-4	0.012	0	0	-4	0.012	0	0
200	-4	0.014	-2e-05	0	-4	0.014	-2e-05	0
201	-4	0.014	0	0	-4	0.014	0	0
202	-4	0.015	-2e-05	0	-4	0.015	-2e-05	0
203	-4	0.017	-2e-05	0	-4	0.017	-2e-05	0
204	-4	0.017	0	0	-4	0.017	0	0
205	-4	0.019	-2e-05	0	-4	0.019	-2e-05	0
206	-4	0.024	-2e-05	0	-4	0.024	-2e-05	0
207	-4	0.025	-4e-05	0	-4	0.025	-4e-05	0
208	-4	0.027	-4e-05	0	-4	0.027	-4e-05	0
209	-4	0.027	-2e-05	0	-4	0.027	-2e-05	0
210	-4	0.028	-4e-05	0	-4	0.028	-4e-05	0
211	-4	0.029	-4e-05	0	-4	0.029	-4e-05	0
212	-4	0.031	-2e-05	0	-4	0.031	-2e-05	0
213	-4	0.033	-4e-05	0	-4	0.033	-4e-05	0
214	-4	0.035	-4e-05	0	-4	0.035	-4e-05	0
215	-4	0.039	-6e-05	0	-4	0.039	-6e-05	0
216	-4	0.043	-6e-05	0	-4	0.043	-6e-05	0
217	-3.5	-0.011	2e-05	0	-3.5	-0.011	2e-05	0
218	-3.5	-0.007	2e-05	0	-3.5	-0.007	2e-05	0
219	-3.5	0	2e-05	0	-3.5	0	2e-05	0
220	-3.5	0.002	0	0	-3.5	0.002	0	0
221	-3.5	0.003	0	0	-3.5	0.003	0	0
222	-3.5	0.006	-2e-05	0	-3.5	0.006	-2e-05	0
223	-3.5	0.006	0	0	-3.5	0.006	0	0
224	-3.5	0.008	0	0	-3.5	0.008	0	0
225	-3.5	0.012	-2e-05	0	-3.5	0.012	-2e-05	0
226	-3.5	0.012	0	0	-3.5	0.012	0	0
227	-3.5	0.013	-2e-05	0	-3.5	0.013	-2e-05	0
228	-3.5	0.015	-2e-05	0	-3.5	0.015	-2e-05	0
229	-3.5	0.016	-2e-05	0	-3.5	0.016	-2e-05	0
230	-3.5	0.017	-2e-05	0	-3.5	0.017	-2e-05	0
231	-3.5	0.019	-2e-05	0	-3.5	0.019	-2e-05	0
232	-3.5	0.02	-2e-05	0	-3.5	0.02	-2e-05	0
233	-3.5	0.021	-4e-05	0	-3.5	0.021	-4e-05	0
234	-3.5	0.025	-4e-05	0	-3.5	0.025	-4e-05	0
235	-3.5	0.025	-2e-05	0	-3.5	0.025	-2e-05	0
236	-3.5	0.028	-4e-05	0	-3.5	0.028	-4e-05	0
237	-3.5	0.03	-4e-05	0	-3.5	0.03	-4e-05	0
238	-3.5	0.034	-4e-05	0	-3.5	0.034	-4e-05	0
239	-3.5	0.036	-4e-05	0	-3.5	0.036	-4e-05	0
240	-3	-0.016	4e-05	0	-3	-0.016	4e-05	0
241	-3	-0.013	2e-05	0	-3	-0.013	2e-05	0
242	-3	-0.011	2e-05	0	-3	-0.011	2e-05	0
243	-3	-0.006	2e-05	0	-3	-0.006	2e-05	0
244	-3	-0.004	2e-05	0	-3	-0.004	2e-05	0
245	-3	-0.002	0	0	-3	-0.002	0	0
246	-3	0	0	0	-3	0	0	0
247	-3	0.003	0	0	-3	0.003	0	0
248	-3	0.004	0	0	-3	0.004	0	0
249	-3	0.006	0	0	-3	0.006	0	0
250	-3	0.009	0	0	-3	0.009	0	0
251	-3	0.01	0	0	-3	0.01	0	0
252	-3	0.014	-2e-05	0	-3	0.014	-2e-05	0
253	-3	0.015	-2e-05	0	-3	0.015	-2e-05	0
254	-3	0.016	-2e-05	0	-3	0.016	-2e-05	0
255	-3	0.018	-2e-05	0	-3	0.018	-2e-05	0
256	-3	0.019	-2e-05	0	-3	0.019	-2e-05	0
257	-3	0.023	-2e-05	0	-3	0.023	-2e-05	0
258	-3	0.024	-4e-05	0	-3	0.024	-4e-05	0
259	-3	0.024	-2e-05	0	-3	0.024	-2e-05	0
260	-3	0.025	-2e-05	0	-3	0.025	-2e-05	0
261	-3	0.026	-4e-05	0	-3	0.026	-4e-05	0
262	-3	0.027	-2e-05	0	-3	0.027	-2e-05	0
263	-3	0.029	-4e-05	0	-3	0.029	-4e-05	0
264	-3	0.032	-4e-05	0	-3	0.032	-4e-05	0
265	-3	0.039	-6e-05	0	-3	0.039	-6e-05	0
266	-3	0.044	-6e-05	0	-3	0.044	-6e-05	0
267	-2.5	-0.004	2e-05	0	-2.5	-0.004	2e-05	0
268	-2.5	-0.002	0	0	-2.5	-0.002	0	0
269	-2.5	-0.002	2e-05	0	-2.5	-0.002	2e-05	0
270	-2.5	0.001	0	0	-2.5	0.001	0	0
271	-2.5	0.003	0	0	-2.5	0.003	0	0
272	-2.5	0.005	0	0	-2.5	0.005	0	0
273	-2.5	0.007	0	0	-2.5	0.007	0	0
274	-2.5	0.008	0	0	-2.5	0.008	0	0
275	-2.5	0.009	-2e-05	0	-2.5	0.009	-2e-05	0
276	-2.5	0.01	-2e-05	0	-2.5	0.01	-2e-05	0
277	-2.5	0.01	0	0	-2.5	0.01	0	0
278	-2.5	0.012	-2e-05	0	-2.5	0.012	-2e-05	0
279	-2.5	0.013	-2e-05	0	-2.5	0.013	-2e-05	0
280	-2.5	0.016	-2e-05	0	-2.5	0.016	-2e-05	0
281	-2.5	0.017	-2e-05	0	-2.5	0.017	-2e-05	0
282	-2.5	0.019	-2e-05	0	-2.5	0.019	-2e-05	0
283	-2.5	0.02	-2e-05	0	-2.5	0.02	-2e-05	0
284	-2.5	0.021	-4e-05	0	-2.5	0.021	-4e-05	0
285	-2.5	0.022	-4e-05	0	-2.5	0.022	-4e-05	0
286	-2.5	0.025	-4e-05	0	-2.5	0.025	-4e-05	0
287	-2.5	0.037	-4e-05	0	-2.5	0.037	-4e-05	0
288	-2	-0.018	2e-05	0	-2	-0.018	2e-05	0
289	-2	-0.014	4e-05	0	-2	-0.014	4e-05	0
290	-2	-0.01	0	0	-2	-0.01	0	0
291	-2	-0.009	2e-05	0	-2	-0.009	2e-05	0
292	-2	-0.008	2e-05	0	-2	-0.008	2e-05	0
293	-2	-0.001	0	0	-2	-0.001	0	0
294	-2	0.001	0	0	-2	0.001	0	0
295	-2	0.003	0	0	-2	0.003	0	0
296	-2	0.004	0	0	-2	0.004	0	0
297	-2	0.005	-2e-05	0	-2	0.005	-2e-05	0
298	-2	0.005	0	0	-2	0.005	0	0
299	-2	0.006	0	0	-2	0.006	0	0
300	-2	0.007	0	0	-2	0.007	0	0
301	-2	0.009	0	0	-2	0.009	0	0
302	-2	0.01	0	0	-2	0.01	0	0
303	-2	0.011	0	0	-2	0.011	0	0
304	-2	0.013	-2e-05	0	-2	0.013	-2e-05	0
305	-2	0.013	0	0	-2	0.013	0	0
306	-2	0.014	-2e-05	0	-2	0.014	-2e-05	0
307	-2	0.015	-2e-05	0	-2	0.015	-2e-05	0
308	-2	0.016	-2e-05	0	-2	0.016	-2e-05	0
309	-2	0.017	-2e-05	0	-2	0.017	-2e-05	0
310	-2	0.018	-4e-05	0	-2	0.018	-4e-05	0
311	-2	0.019	-2e-05	0	-2	0.019	-2e-05	0
312	-2	0.02	-2e-05	0	-2	0.02	-2e-05	0
313	-2	0.022	-4e-05	0	-2	0.022	-4e-05	0
314	-2	0.022	-2e-05	0	-2	0.022	-2e-05	0
315	-2	0.026	-4e-05	0	-2	0.026	-4e-05	0
316	-1.5	-0.015	2e-05	0	-1.5	-0.015	2e-05	0
317	-1.5	-0.015	4e-05	0	-1.5	-0.015	4e-05	0
318	-1.5	-0.013	2e-05	0	-1.5	-0.013	2e-05	0
319	-1.5	-0.013	4e-05	0	-1.5	-0.013	4e-05	0
320	-1.5	-0.011	2e-05	0	-1.5	-0.011	2e-05	0
321	-1.5	-0.01	2e-05	0	-1.5	-0.01	2e-05	0
322	-1.5	-0.004	2e-05	0	-1.5	-0.004	2e-05	0
323	-1.5	-0.003	0	0	-1.5	-0.003	0	0
324	-1.5	0	0	0	-1.5	0	0	0
325	-1.5	0.001	0	0	-1.5	0.001	0	0
326	-1.5	0.002	0	0	-1.5	0.002	0	0
327	-1.5	0.003	0	0	-1.5	0.003	0	0
328	-1.5	0.004	0	0	-1.5	0.004	0	0
329	-1.5	0.005	0	0	-1.5	0.005	0	0
330	-1.5	0.006	-2e-05	0	-1.5	0.006	-2e-05	0
331	-1.5	0.006	0	0	-1.5	0.006	0	0
332	-1.5	0.007	0	0	-1.5	0.007	0	0
333	-1.5	0.009	-2e-05	0	-1.5	0.009	-2e-05	0
334	-1.5	0.009	0	0	-1.5	0.009	0	0
335	-1.5	0.017	-2e-05	0	-1.5	0.017	-2e-05	0
336	-1.5	0.018	-4e-05	0	-1.5	0.018	-4e-05	0
337	-1.5	0.019	-2e-05	0	-1.5	0.019	-2e-05	0
338	-1.5	0.02	-2e-05	0	-1.5	0.02	-2e-05	0
339	-1.5	0.023	-2e-05	0	-1.5	0.023	-2e-05	0
340	-1.5	0.024	-4e-05	0	-1.5	0.024	-4e-05	0
341	-1.5	0.024	-2e-05	0	-1.5	0.024	-2e-05	0
342	-1.5	0.027	-4e-05	0	-1.5	0.027	-4e-05	0
343	-1.5	0.027	-2e-05	0	-1.5	0.027	-2e-05	0
344	-1.5	0.028	-4e-05	0	-1.5	0.028	-4e-05	0
345	-1.5	0.029	-4e-05	0	-1.5	0.029	-4e-05	0
346	-1.5	0.033	-4e-05	0	-1.5	0.033	-4e-05	0
347	-1	-0.021	2e-05	0	-1	-0.021	2e-05	0
348	-1	-0.02	4e-05	0	-1	-0.02	4e-05	0
349	-1	-0.019	4e-05	0	-1	-0.019	4e-05	0
350	-1	-0.014	2e-05	0	-1	-0.014	2e-05	0
351	-1	-0.013	2e-05	0	-1	-0.013	2e-05	0
352	-1	-0.01	2e-05	0	-1	-0.01	2e-05	0
353	-1	-0.004	0	0	-1	-0.004	0	0
354	-1	-0.004	2e-05	0	-1	-0.004	2e-05	0
355	-1	-0.002	0	0	-1	-0.002	0	0
356	-1	0	0	0	-1	0	0	0
357	-1	0.001	0	0	-1	0.001	0	0
358	-1	0.002	0	0	-1	0.002	0	0
359	-1	0.003	0	0	-1	0.003	0	0
360	-1	0.004	0	0	-1	0.004	0	0
361	-1	0.005	0	0	-1	0.005	0	0
362	-1	0.006	0	0	-1	0.006	0	0
363	-1	0.007	0	0	-1	0.007	0	0
364	-1	0.008	0	0	-1	0.008	0	0
365	-1	0.01	-2e-05	0	-1	0.01	-2e-05	0
366	-1	0.01	0	0	-1	0.01	0	0
367	-1	0.012	-2e-05	0	-1	0.012	-2e-05	0
368	-1	0.012	0	0	-1	0.012	0	0
369	-1	0.013	-2e-05	0	-1	0.013	-2e-05	0
370	-1	0.015	-2e-05	0	-1	0.015	-2e-05	0
371	-1	0.016	-4e-05	0	-1	0.016	-4e-05	0
372	-1	0.016	-2e-05	0	-1	0.016	-2e-05	0
373	-1	0.018	-2e-05	0	-1	0.018	-2e-05	0
374	-1	0.02	-2e-05	0	-1	0.02	-2e-05	0
375	-1	0.037	-6e-05	0	-1	0.037	-6e-05	0
376	-0.5	-0.019	4e-05	0	-0.5	-0.019	4e-05	0
377	-0.5	-0.011	2e-05	0	-0.5	-0.011	2e-05	0
378	-0.5	-0.01	2e-05	0	-0.5	-0.01	2e-05	0
379	-0.5	-0.009	2e-05	0	-0.5	-0.009	2e-05	0
380	-0.5	-0.008	2e-05	0	-0.5	-0.008	2e-05	0
381	-0.5	-0.007	0	0	-0.5	-0.007	0	0
382	-0.5	-0.007	2e-05	0	-0.5	-0.007	2e-05	0
383	-0.5	-0.005	0	0	-0.5	-0.005	0	0
384	-0.5	-0.004	0	0	-0.5	-0.004	0	0
385	-0.5	-0.004	2e-05	0	-0.5	-0.004	2e-05	0
386	-0.5	-0.002	0	0	-0.5	-0.002	0	0
387	-0.5	-0.001	2e-05	0	-0.5	-0.001	2e-05	0
388	-0.5	0	0	0	-0.5	0	0	0
389	-0.5	0.001	0	0	-0.5	0.001	0	0
390	-0.5	0.003	0	0	-0.5	0.003	0	0
391	-0.5	0.004	-2e-05	0	-0.5	0.004	-2e-05	0
392	-0.5	0.004	0	0	-0.5	0.004	0	0
393	-0.5	0.005	0	0	-0.5	0.005	0	0
394	-0.5	0.006	-2e-05	0	-0.5	0.006	-2e-05	0
395	-0.5	0.008	-2e-05	0	-0.5	0.008	-2e-05	0
396	-0.5	0.009	-2e-05	0	-0.5	0.009	-2e-05	0
397	-0.5	0.009	0	0	-0.5	0.009	0	0
398	-0.5	0.012	-2e-05	0	-0.5	0.012	-2e-05	0
399	-0.5	0.013	0	0	-0.5	0.013	0	0
400	-0.5	0.014	-2e-05	0	-0.5	0.014	-2e-05	0
401	-0.5	0.015	-2e-05	0	-0.5	0.015	-2e-05	0
402	-0.5	0.017	-2e-05	0	-0.5	0.017	-2e-05	0
403	-0.5	0.018	-4e-05	0	-0.5	0.018	-4e-05	0
404	-0.5	0.021	-4e-05	0	-0.5	0.021	-4e-05	0
405	-0.5	0.025	-4e-05	0	-0.5	0.025	-4e-05	0
406	0	-0.024	4e-05	0	0	-0.024	4e-05	0
407	0	-0.021	4e-05	0	0	-0.021	4e-05	0
408	0	-0.015	4e-05	0	0	-0.015	4e-05	0
409	0	-0.014	2e-05	0	0	-0.014	2e-05	0
410	0	-0.012	2e-05	0	0	-0.012	2e-05	0
411	0	-0.011	2e-05	0	0	-0.011	2e-05	0
412	0	-0.01	2e-05	0	0	-0.01	2e-05	0
413	0	-0.008	2e-05	0	0	-0.008	2e-05	0
414	0	-0.003	0	0	0	-0.003	0	0
415	0	-0.002	0	0	0	-0.002	0	0
416	0	-0.001	0	0	0	-0.001	0	0
417	0	0	0	0	0	0	0	0
418	0	0.001	0	0	0	0.001	0	0
419	0	0.002	0	0	0	0.002	0	0
420	0	0.003	0	0	0	0.003	0	0
421	0	0.004	-2e-05	0	0	0.004	-2e-05	0
422	0	0.005	-2e-05	0	0	0.005	-2e-05	0
423	0	0.005	0	0	0	0.005	0	0
424	0	0.007	0	0	0	0.007	0	0
425	0	0.008	-2e-05	0	0	0.008	-2e-05	0
426	0	0.01	-2e-05	0	0	0.01	-2e-05	0
427	0	0.011	-2e-05	0	0	0.011	-2e-05	0
428	0	0.026	-4e-05	0	0	0.026	-4e-05	0
429	0.5	-0.026	4e-05	0	0.5	-0.026	4e-05	0
430	0.5	-0.024	4e-05	0	0.5	-0.024	4e-05	0
431	0.5	-0.023	4e-05	0	0.5	-0.023	4e-05	0
432	0.5	-0.02	2e-05	0	0.5	-0.02	2e-05	0
433	0.5	-0.015	2e-05	0	0.5	-0.015	2e-05	0
434	0.5	-0.014	2e-05	0	0.5	-0.014	2e-05	0
435	0.5	-0.013	2e-05	0	0.5	-0.013	2e-05	0
436	0.5	-0.009	2e-05	0	0.5	-0.009	2e-05	0
437	0.5	-0.008	2e-05	0	0.5	-0.008	2e-05	0
438	0.5	-0.006	2e-05	0	0.5	-0.006	2e-05	0
439	0.5	-0.005	0	0	0.5	-0.005	0	0
440	0.5	-0.004	0	0	0.5	-0.004	0	0
441	0.5	-0.003	0	0	0.5	-0.003	0	0
442	0.5	-0.002	0	0	0.5	-0.002	0	0
443	0.5	-0.001	0	0	0.5	-0.001	0	0
444	0.5	0.001	0	0	0.5	0.001	0	0
445	0.5	0.002	0	0	0.5	0.002	0	0
446	0.5	0.003	0	0	0.5	0.003	0	0
447	0.5	0.004	-2e-05	0	0.5	0.004	-2e-05	0
448	0.5	0.005	0	0	0.5	0.005	0	0
449	0.5	0.007	-2e-05	0	0.5	0.007	-2e-05	0
450	0.5	0.009	0	0	0.5	0.009	0	0
451	0.5	0.01	-2e-05	0	0.5	0.01	-2e-05	0
452	0.5	0.015	-2e-05	0	0.5	0.015	-2e-05	0
453	0.5	0.018	-4e-05	0	0.5	0.018	-4e-05	0
454	0.5	0.022	-4e-05	0	0.5	0.022	-4e-05	0
455	1	-0.022	4e-05	0	1	-0.022	4e-05	0
456	1	-0.02	4e-05	0	1	-0.02	4e-05	0
457	1	-0.018	4e-05	0	1	-0.018	4e-05	0
458	1	-0.017	2e-05	0	1	-0.017	2e-05	0
459	1	-0.014	2e-05	0	1	-0.014	2e-05	0
460	1	-0.011	2e-05	0	1	-0.011	2e-05	0
461	1	-0.01	2e-05	0	1	-0.01	2e-05	0
462	1	-0.009	2e-05	0	1	-0.009	2e-05	0
463	1	-0.008	0	0	1	-0.008	0	0
464	1	-0.003	0	0	1	-0.003	0	0
465	1	-0.002	0	0	1	-0.002	0	0
466	1	-0.001	0	0	1	-0.001	0	0
467	1	0	0	0	1	0	0	0
468	1	0.001	0	0	1	0.001	0	0
469	1	0.002	0	0	1	0.002	0	0
470	1	0.003	-2e-05	0	1	0.003	-2e-05	0
471	1	0.004	-2e-05	0	1	0.004	-2e-05	0
472	1	0.005	-2e-05	0	1	0.005	-2e-05	0
473	1	0.006	-2e-05	0	1	0.006	-2e-05	0
474	1	0.012	-2e-05	0	1	0.012	-2e-05	0
475	1	0.014	-4e-05	0	1	0.014	-4e-05	0
476	1	0.015	-4e-05	0	1	0.015	-4e-05	0
477	1	0.019	-4e-05	0	1	0.019	-4e-05	0
478	1	0.019	-2e-05	0	1	0.019	-2e-05	0
479	1.5	-0.028	4e-05	0	1.5	-0.028	4e-05	0
480	1.5	-0.02	2e-05	0	1.5	-0.02	2e-05	0
481	1.5	-0.02	4e-05	0	1.5	-0.02	4e-05	0
482	1.5	-0.017	2e-05	0	1.5	-0.017	2e-05	0
483	1.5	-0.016	2e-05	0	1.5	-0.016	2e-05	0
484	1.5	-0.015	2e-05	0	1.5	-0.015	2e-05	0
485	1.5	-0.014	0	0	1.5	-0.014	0	0
486	1.5	-0.014	2e-05	0	1.5	-0.014	2e-05	0
487	1.5	-0.013	2e-05	0	1.5	-0.013	2e-05	0
488	1.5	-0.012	2e-05	0	1.5	-0.012	2e-05	0
489	1.5	-0.008	0	0	1.5	-0.008	0	0
490	1.5	-0.007	0	0	1.5	-0.007	0	0
491	1.5	-0.006	0	0	1.5	-0.006	0	0
492	1.5	-0.006	2e-05	0	1.5	-0.006	2e-05	0
493	1.5	-0.005	0	0	1.5	-0.005	0	0
494	1.5	-0.003	0	0	1.5	-0.003	0	0
495	1.5	-0.002	2e-05	0	1.5	-0.002	2e-05	0
496	1.5	-0.001	-2e-05	0	1.5	-0.001	-2e-05	0
497	1.5	0.002	0	0	1.5	0.002	0	0
498	1.5	0.007	-2e-05	0	1.5	0.007	-2e-05	0
499	1.5	0.01	-2e-05	0	1.5	0.01	-2e-05	0
500	1.5	0.011	-2e-05	0	1.5	0.011	-2e-05	0
501	1.5	0.017	-4e-05	0	1.5	0.017	-4e-05	0
502	2	-0.032	4e-05	0	2	-0.032	4e-05	0
503	2	-0.029	4e-05	0	2	-0.029	4e-05	0
504	2	-0.028	4e-05	0	2	-0.028	4e-05	0
505	2	-0.027	4e-05	0	2	-0.027	4e-05	0
506	2	-0.025	4e-05	0	2	-0.025	4e-05	0
507	2	-0.023	4e-05	0	2	-0.023	4e-05	0
508	2	-0.022	2e-05	0	2	-0.022	2e-05	0
509	2	-0.02	4e-05	0	2	-0.02	4e-05	0
510	2	-0.019	2e-05	0	2	-0.019	2e-05	0
511	2	-0.019	4e-05	0	2	-0.019	4e-05	0
512	2	-0.018	4e-05	0	2	-0.018	4e-05	0
513	2	-0.017	2e-05	0	2	-0.017	2e-05	0
514	2	-0.016	2e-05	0	2	-0.016	2e-05	0
515	2	-0.015	2e-05	0	2	-0.015	2e-05	0
516	2	-0.013	2e-05	0	2	-0.013	2e-05	0
517	2	-0.011	0	0	2	-0.011	0	0
518	2	-0.009	0	0	2	-0.009	0	0
519	2	-0.008	0	0	2	-0.008	0	0
520	2	-0.007	0	0	2	-0.007	0	0
521	2	-0.007	2e-05	0	2	-0.007	2e-05	0
522	2	-0.006	0	0	2	-0.006	0	0
523	2	-0.005	0	0	2	-0.005	0	0
524	2	-0.004	0	0	2	-0.004	0	0
525	2	-0.004	2e-05	0	2	-0.004	2e-05	0
526	2	-0.002	0	0	2	-0.002	0	0
527	2	0	0	0	2	0	0	0
528	2	0.003	0	0	2	0.003	0	0
529	2	0.004	-2e-05	0	2	0.004	-2e-05	0
530	2	0.007	-2e-05	0	2	0.007	-2e-05	0
531	2	0.012	-2e-05	0	2	0.012	-2e-05	0
532	2.5	-0.029	2e-05	0	2.5	-0.029	2e-05	0
533	2.5	-0.029	4e-05	0	2.5	-0.029	4e-05	0
534	2.5	-0.027	4e-05	0	2.5	-0.027	4e-05	0
535	2.5	-0.025	2e-05	0	2.5	-0.025	2e-05	0
536	2.5	-0.024	4e-05	0	2.5	-0.024	4e-05	0
537	2.5	-0.023	2e-05	0	2.5	-0.023	2e-05	0
538	2.5	-0.021	2e-05	0	2.5	-0.021	2e-05	0
539	2.5	-0.02	2e-05	0	2.5	-0.02	2e-05	0
540	2.5	-0.019	2e-05	0	2.5	-0.019	2e-05	0
541	2.5	-0.019	4e-05	0	2.5	-0.019	4e-05	0
542	2.5	-0.017	2e-05	0	2.5	-0.017	2e-05	0
543	2.5	-0.016	2e-05	0	2.5	-0.016	2e-05	0
544	2.5	-0.015	2e-05	0	2.5	-0.015	2e-05	0
545	2.5	-0.013	0	0	2.5	-0.013	0	0
546	2.5	-0.012	0	0	2.5	-0.012	0	0
547	2.5	-0.011	2e-05	0	2.5	-0.011	2e-05	0
548	2.5	-0.01	0	0	2.5	-0.01	0	0
549	2.5	-0.008	0	0	2.5	-0.008	0	0
550	2.5	-0.006	0	0	2.5	-0.006	0	0
551	2.5	-0.004	0	0	2.5	-0.004	0	0
552	2.5	-0.002	0	0	2.5	-0.002	0	0
553	2.5	0.005	-2e-05	0	2.5	0.005	-2e-05	0
554	2.5	0.005	0	0	2.5	0.005	0	0
555	2.5	0.006	-2e-05	0	2.5	0.006	-2e-05	0
556	2.5	0.012	-4e-05	0	2.5	0.012	-4e-05	0
557	2.5	0.015	-2e-05	0	2.5	0.015	-2e-05	0
558	3	-0.045	6e-05	0	3	-0.045	6e-05	0
559	3	-0.038	4e-05	0	3	-0.038	4e-05	0
560	3	-0.037	6e-05	0	3	-0.037	6e-05	0
561	3	-0.034	4e-05	0	3	-0.034	4e-05	0
562	3	-0.029	4e-05	0	3	-0.029	4e-05	0
563	3	-0.026	2e-05	0	3	-0.026	2e-05	0
564	3	-0.026	4e-05	0	3	-0.026	4e-05	0
565	3	-0.024	4e-05	0	3	-0.024	4e-05	0
566	3	-0.021	2e-05	0	3	-0.021	2e-05	0
567	3	-0.02	2e-05	0	3	-0.02	2e-05	0
568	3	-0.018	2e-05	0	3	-0.018	2e-05	0
569	3	-0.016	2e-05	0	3	-0.016	2e-05	0
570	3	-0.015	2e-05	0	3	-0.015	2e-05	0
571	3	-0.014	2e-05	0	3	-0.014	2e-05	0
572	3	-0.012	0	0	3	-0.012	0	0
573	3	-0.012	2e-05	0	3	-0.012	2e-05	0
574	3	-0.01	0	0	3	-0.01	0	0
575	3	-0.009	0	0	3	-0.009	0	0
576	3	-0.008	0	0	3	-0.008	0	0
577	3	-0.002	0	0	3	-0.002	0	0
578	3	0.001	0	0	3	0.001	0	0
579	3	0.005	-2e-05	0	3	0.005	-2e-05	0
580	3	0.005	0	0	3	0.005	0	0
581	3.5	-0.048	6e-05	0	3.5	-0.048	6e-05	0
582	3.5	-0.047	6e-05	0	3.5	-0.047	6e-05	0
583	3.5	-0.039	6e-05	0	3.5	-0.039	6e-05	0
584	3.5	-0.029	2e-05	0	3.5	-0.029	2e-05	0
585	3.5	-0.024	2e-05	0	3.5	-0.024	2e-05	0
586	3.5	-0.023	2e-05	0	3.5	-0.023	2e-05	0
587	3.5	-0.022	2e-05	0	3.5	-0.022	2e-05	0
588	3.5	-0.021	2e-05	0	3.5	-0.021	2e-05	0
589	3.5	-0.019	2e-05	0	3.5	-0.019	2e-05	0
590	3.5	-0.018	2e-05	0	3.5	-0.018	2e-05	0
591	3.5	-0.016	0	0	3.5	-0.016	0	0
592	3.5	-0.016	2e-05	0	3.5	-0.016	2e-05	0
593	3.5	-0.013	2e-05	0	3.5	-0.013	2e-05	0
594	3.5	-0.012	0	0	3.5	-0.012	0	0
595	3.5	-0.009	0	0	3.5	-0.009	0	0
596	3.5	-0.007	0	0	3.5	-0.007	0	0
597	3.5	0	-2e-05	0	3.5	0	-2e-05	0
598	3.5	0	0	0	3.5	0	0	0
599	3.5	0.018	-4e-05	0	3.5	0.018	-4e-05	0
600	4	-0.048	6e-05	0	4	-0.048	6e-05	0
601	4	-0.034	4e-05	0	4	-0.034	4e-05	0
602	4	-0.032	2e-05	0	4	-0.032	2e-05	0
603	4	-0.032	4e-05	0	4	-0.032	4e-05	0
604	4	-0.03	4e-05	0	4	-0.03	4e-05	0
605	4	-0.029	2e-05	0	4	-0.029	2e-05	0
606	4	-0.024	4e-05	0	4	-0.024	4e-05	0
607	4	-0.023	4e-05	0	4	-0.023	4e-05	0
608	4	-0.022	2e-05	0	4	-0.022	2e-05	0
609	4	-0.021	2e-05	0	4	-0.021	2e-05	0
610	4	-0.02	2e-05	0	4	-0.02	2e-05	0
611	4	-0.019	2e-05	0	4	-0.019	2e-05	0
612	4	-0.018	2e-05	0	4	-0.018	2e-05	0
613	4	-0.017	2e-05	0	4	-0.017	2e-05	0
614	4	-0.012	0	0	4	-0.012	0	0
615	4	-0.011	0	0	4	-0.011	0	0
616	4	-0.01	0	0	4	-0.01	0	0
617	4	-0.008	0	0	4	-0.008	0	0
618	4	-0.007	0	0	4	-0.007	0	0
619	4	-0.004	0	0	4	-0.004	0	0
620	4	-0.002	-2e-05	0	4	-0.002	-2e-05	0
621	4	0	-2e-05	0	4	0	-2e-05	0
622	4	0.001	-2e-05	0	4	0.001	-2e-05	0
623	4.5	-0.051	6e-05	0	4.5	-0.051	6e-05	0
624	4.5	-0.043	6e-05	0	4.5	-0.043	6e-05	0
625	4.5	-0.041	6e-05	0	4.5	-0.041	6e-05	0
626	4.5	-0.033	2e-05	0	4.5	-0.033	2e-05	0
627	4.5	-0.032	4e-05	0	4.5	-0.032	4e-05	0
628	4.5	-0.029	4e-05	0	4.5	-0.029	4e-05	0
629	4.5	-0.028	2e-05	0	4.5	-0.028	2e-05	0
630	4.5	-0.028	4e-05	0	4.5	-0.028	4e-05	0
631	4.5	-0.027	2e-05	0	4.5	-0.027	2e-05	0
632	4.5	-0.027	4e-05	0	4.5	-0.027	4e-05	0
633	4.5	-0.026	4e-05	0	4.5	-0.026	4e-05	0
634	4.5	-0.024	2e-05	0	4.5	-0.024	2e-05	0
635	4.5	-0.023	2e-05	0	4.5	-0.023	2e-05	0
636	4.5	-0.02	2e-05	0	4.5	-0.02	2e-05	0
637	4.5	-0.018	2e-05	0	4.5	-0.018	2e-05	0
638	4.5	-0.015	2e-05	0	4.5	-0.015	2e-05	0
639	4.5	-0.014	0	0	4.5	-0.014	0	0
640	4.5	-0.013	2e-05	0	4.5	-0.013	2e-05	0
641	4.5	-0.012	0	0	4.5	-0.012	0	0
642	4.5	-0.01	2e-05	0	4.5	-0.01	2e-05	0
643	4.5	-0.008	0	0	4.5	-0.008	0	0
644	4.5	-0.007	0	0	4.5	-0.007	0	0
645	4.5	-0.004	0	0	4.5	-0.004	0	0
646	4.5	-0.003	-2e-05	0	4.5	-0.003	-2e-05	0
647	5	-0.046	6e-05	0	5	-0.046	6e-05	0
648	5	-0.033	4e-05	0	5	-0.033	4e-05	0
649	5	-0.032	4e-05	0	5	-0.032	4e-05	0
650	5	-0.031	4e-05	0	5	-0.031	4e-05	0
651	5	-0.027	2e-05	0	5	-0.027	2e-05	0
652	5	-0.027	4e-05	0	5	-0.027	4e-05	0
653	5	-0.025	2e-05	0	5	-0.025	2e-05	0
654	5	-0.023	2e-05	0	5	-0.023	2e-05	0
655	5	-0.022	2e-05	0	5	-0.022	2e-05	0
656	5	-0.019	2e-05	0	5	-0.019	2e-05	0
657	5	-0.017	0	0	5	-0.017	0	0
658	5	-0.016	2e-05	0	5	-0.016	2e-05	0
659	5	-0.014	0	0	5	-0.014	0	0
660	5	-0.012	2e-05	0	5	-0.012	2e-05	0
661	5	-0.011	2e-05	0	5	-0.011	2e-05	0
662	5	-0.002	-2e-05	0	5	-0.002	-2e-05	0
663	5.5	-0.044	6e-05	0	5.5	-0.044	6e-05	0
664	5.5	-0.041	6e-05	0	5.5	-0.041	6e-05	0
665	5.5	-0.04	4e-05	0	5.5	-0.04	4e-05	0
666	5.5	-0.035	4e-05	0	5.5	-0.035	4e-05	0
667	5.5	-0.032	2e-05	0	5.5	-0.032	2e-05	0
668	5.5	-0.03	4e-05	0	5.5	-0.03	4e-05	0
669	5.5	-0.029	4e-05	0	5.5	-0.029	4e-05	0
670	5.5	-0.028	2e-05	0	5.5	-0.028	2e-05	0
671	5.5	-0.027	2e-05	0	5.5	-0.027	2e-05	0
672	5.5	-0.025	2e-05	0	5.5	-0.025	2e-05	0
673	5.5	-0.023	2e-05	0	5.5	-0.023	2e-05	0
674	5.5	-0.022	2e-05	0	5.5	-0.022	2e-05	0
675	5.5	-0.021	2e-05	0	5.5	-0.021	2e-05	0
676	5.5	-0.019	0	0	5.5	-0.019	0	0
677	5.5	-0.019	2e-05	0	5.5	-0.019	2e-05	0
678	5.5	-0.018	2e-05	0	5.5	-0.018	2e-05	0
679	5.5	-0.012	0	0	5.5	-0.012	0	0
680	5.5	-0.007	0	0	5.5	-0.007	0	0
681	5.5	-0.006	0	0	5.5	-0.006	0	0
682	5.5	-0.004	-2e-05	0	5.5	-0.004	-2e-05	0
683	5.5	-0.001	-2e-05	0	5.5	-0.001	-2e-05	0
684	6	-0.048	6e-05	0	6	-0.048	6e-05	0
685	6	-0.046	6e-05	0	6	-0.046	6e-05	0
686	6	-0.045	6e-05	0	6	-0.045	6e-05	0
687	6	-0.044	6e-05	0	6	-0.044	6e-05	0
688	6	-0.041	4e-05	0	6	-0.041	4e-05	0
689	6	-0.04	4e-05	0	6	-0.04	4e-05	0
690	6	-0.038	4e-05	0	6	-0.038	4e-05	0
691	6	-0.033	4e-05	0	6	-0.033	4e-05	0
692	6	-0.032	4e-05	0	6	-0.032	4e-05	0
693	6	-0.031	4e-05	0	6	-0.031	4e-05	0
694	6	-0.029	2e-05	0	6	-0.029	2e-05	0
695	6	-0.027	2e-05	0	6	-0.027	2e-05	0
696	6	-0.027	4e-05	0	6	-0.027	4e-05	0
697	6	-0.02	0	0	6	-0.02	0	0
698	6	-0.02	2e-05	0	6	-0.02	2e-05	0
699	6	-0.017	0	0	6	-0.017	0	0
700	6	-0.016	2e-05	0	6	-0.016	2e-05	0
701	6.5	-0.047	6e-05	0	6.5	-0.047	6e-05	0
702	6.5	-0.045	6e-05	0	6.5	-0.045	6e-05	0
703	6.5	-0.042	4e-05	0	6.5	-0.042	4e-05	0
704	6.5	-0.034	4e-05	0	6.5	-0.034	4e-05	0
705	6.5	-0.027	2e-05	0	6.5	-0.027	2e-05	0
706	6.5	-0.027	4e-05	0	6.5	-0.027	4e-05	0
707	6.5	-0.024	2e-05	0	6.5	-0.024	2e-05	0
708	6.5	-0.023	2e-05	0	6.5	-0.023	2e-05	0
709	6.5	-0.021	0	0	6.5	-0.021	0	0
710	6.5	-0.021	2e-05	0	6.5	-0.021	2e-05	0
711	6.5	-0.02	2e-05	0	6.5	-0.02	2e-05	0
712	6.5	-0.019	2e-05	0	6.5	-0.019	2e-05	0
713	6.5	-0.018	0	0	6.5	-0.018	0	0
714	6.5	-0.014	0	0	6.5	-0.014	0	0
715	6.5	-0.012	0	0	6.5	-0.012	0	0
716	6.5	-0.003	-2e-05	0	6.5	-0.003	-2e-05	0
717	6.5	0.001	-2e-05	0	6.5	0.001	-2e-05	0
718	7	-0.047	6e-05	0	7	-0.047	6e-05	0
719	7	-0.046	4e-05	0	7	-0.046	4e-05	0
720	7	-0.04	4e-05	0	7	-0.04	4e-05	0
721	7	-0.038	4e-05	0	7	-0.038	4e-05	0
722	7	-0.032	2e-05	0	7	-0.032	2e-05	0
723	7	-0.03	2e-05	0	7	-0.03	2e-05	0
724	7	-0.029	2e-05	0	7	-0.029	2e-05	0
725	7	-0.028	2e-05	0	7	-0.028	2e-05	0
726	7	-0.026	2e-05	0	7	-0.026	2e-05	0
727	7	-0.025	2e-05	0	7	-0.025	2e-05	0
728	7	-0.024	0	0	7	-0.024	0	0
729	7	-0.024	2e-05	0	7	-0.024	2e-05	0
730	7	-0.022	0	0	7	-0.022	0	0
731	7	-0.022	2e-05	0	7	-0.022	2e-05	0
732	7	-0.018	0	0	7	-0.018	0	0
733	7	-0.017	0	0	7	-0.017	0	0
734	7	-0.012	0	0	7	-0.012	0	0
735	7	-0.01	0	0	7	-0.01	0	0
736	7	-0.007	-2e-05	0	7	-0.007	-2e-05	0
737	7.5	-0.052	6e-05	0	7.5	-0.052	6e-05	0
738	7.5	-0.048	6e-05	0	7.5	-0.048	6e-05	0
739	7.5	-0.047	6e-05	0	7.5	-0.047	6e-05	0
740	7.5	-0.043	4e-05	0	7.5	-0.043	4e-05	0
741	7.5	-0.042	6e-05	0	7.5	-0.042	6e-05	0
742	7.5	-0.038	4e-05	0	7.5	-0.038	4e-05	0
743	7.5	-0.037	4e-05	0	7.5	-0.037	4e-05	0
744	7.5	-0.033	2e-05	0	7.5	-0.033	2e-05	0
745	7.5	-0.033	4e-05	0	7.5	-0.033	4e-05	0
746	7.5	-0.031	4e-05	0	7.5	-0.031	4e-05	0
747	7.5	-0.028	2e-05	0	7.5	-0.028	2e-05	0
748	7.5	-0.025	2e-05	0	7.5	-0.025	2e-05	0
749	7.5	-0.024	0	0	7.5	-0.024	0	0
750	7.5	-0.024	2e-05	0	7.5	-0.024	2e-05	0
751	7.5	-0.023	2e-05	0	7.5	-0.023	2e-05	0
752	7.5	-0.022	0	0	7.5	-0.022	0	0
753	7.5	-0.021	0	0	7.5	-0.021	0	0
754	7.5	-0.015	0	0	7.5	-0.015	0	0
755	8	-0.061	6e-05	0	8	-0.061	6e-05	0
756	8	-0.047	6e-05	0	8	-0.047	6e-05	0
757	8	-0.045	4e-05	0	8	-0.045	4e-05	0
758	8	-0.044	4e-05	0	8	-0.044	4e-05	0
759	8	-0.041	4e-05	0	8	-0.041	4e-05	0
760	8	-0.039	4e-05	0	8	-0.039	4e-05	0
761	8	-0.038	4e-05	0	8	-0.038	4e-05	0
762	8	-0.037	4e-05	0	8	-0.037	4e-05	0
763	8	-0.034	2e-05	0	8	-0.034	2e-05	0
764	8	-0.032	4e-05	0	8	-0.032	4e-05	0
765	8	-0.031	2e-05	0	8	-0.031	2e-05	0
766	8	-0.029	2e-05	0	8	-0.029	2e-05	0
767	8	-0.028	2e-05	0	8	-0.028	2e-05	0
768	8	-0.026	2e-05	0	8	-0.026	2e-05	0
769	8	-0.025	0	0	8	-0.025	0	0
770	8	-0.024	2e-05	0	8	-0.024	2e-05	0
771	8	-0.022	2e-05	0	8	-0.022	2e-05	0
772	8	-0.021	0	0	8	-0.021	0	0
773	8	-0.02	0	0	8	-0.02	0	0
774	8	-0.019	2e-05	0	8	-0.019	2e-05	0
775	8	-0.017	2e-05	0	8	-0.017	2e-05	0
776	8	-0.013	0	0	8	-0.013	0	0
777	8	-0.008	-2e-05	0	8	-0.008	-2e-05	0
778	8.5	-0.048	6e-05	0	8.5	-0.048	6e-05	0
779	8.5	-0.04	4e-05	0	8.5	-0.04	4e-05	0
780	8.5	-0.032	2e-05	0	8.5	-0.032	2e-05	0
781	8.5	-0.031	2e-05	0	8.5	-0.031	2e-05	0
782	8.5	-0.03	4e-05	0	8.5	-0.03	4e-05	0
783	8.5	-0.029	2e-05	0	8.5	-0.029	2e-05	0
784	8.5	-0.028	2e-05	0	8.5	-0.028	2e-05	0
785	8.5	-0.026	2e-05	0	8.5	-0.026	2e-05	0
786	8.5	-0.024	0	0	8.5	-0.024	0	0
787	8.5	-0.023	2e-05	0	8.5	-0.023	2e-05	0
788	9	-0.053	6e-05	0	9	-0.053	6e-05	0
789	9	-0.052	6e-05	0	9	-0.052	6e-05	0
790	9	-0.049	4e-05	0	9	-0.049	4e-05	0
791	9	-0.047	4e-05	0	9	-0.047	4e-05	0
792	9	-0.045	4e-05	0	9	-0.045	4e-05	0
793	9	-0.043	4e-05	0	9	-0.043	4e-05	0
794	9	-0.041	4e-05	0	9	-0.041	4e-05	0
795	9	-0.034	2e-05	0	9	-0.034	2e-05	0
796	9	-0.029	2e-05	0	9	-0.029	2e-05	0
797	9	-0.026	2e-05	0	9	-0.026	2e-05	0
798	9	-0.024	0	0	9	-0.024	0	0
799	9	-0.023	0	0	9	-0.023	0	0
800	9.5	-0.048	6e-05	0	9.5	-0.048	6e-05	0
801	9.5	-0.046	6e-05	0	9.5	-0.046	6e-05	0
802	9.5	-0.039	4e-05	0	9.5	-0.039	4e-05	0
803	9.5	-0.038	4e-05	0	9.5	-0.038	4e-05	0
804	9.5	-0.03	2e-05	0	9.5	-0.03	2e-05	0
805	9.5	-0.028	4e-05	0	9.5	-0.028	4e-05	0
806	9.5	-0.027	2e-05	0	9.5	-0.027	2e-05	0
807	9.5	-0.026	2e-05	0	9.5	-0.026	2e-05	0
808	9.5	-0.021	0	0	9.5	-0.021	0	0
809	10	-0.051	4e-05	0	10	-0.051	4e-05	0
810	10	-0.048	4e-05	0	10	-0.048	4e-05	0
811	10	-0.033	2e-05	0	10	-0.033	2e-05	0
812	10	-0.032	2e-05	0	10	-0.032	2e-05	0
813	10	-0.03	4e-05	0	10	-0.03	4e-05	0
814	-10	0.023	0	0	-10	0.023	0	0
815	-10	0.028	-2e-05	0	-10	0.028	-2e-05	0
816	-10	0.029	-2e-05	0	-10	0.029	-2e-05	0
817	-10	0.034	-2e-05	0	-10	0.034	-2e-05	0
818	-10	0.037	-2e-05	0	-10	0.037	-2e-05	0
819	-10	0.039	-4e-05	0	-10	0.039	-4e-05	0
820	-10	0.045	-4e-05	0	-10	0.045	-4e-05	0
821	-10	0.046	-4e-05	0	-10	0.046	-4e-05	0
822	-10	0.047	-4e-05	0	-10	0.047	-4e-05	0
823	-10	0.048	-6e-05	0	-10	0.048	-6e-05	0
824	-9.5	0.023	-2e-05	0	-9.5	0.023	-2e-05	0
825	-9.5	0.031	-2e-05	0	-9.5	0.031	-2e-05	0
826	-9.5	0.037	-2e-05	0	-9.5	0.037	-2e-05	0
827	-9.5	0.038	-2e-05	0	-9.5	0.038	-2e-05	0
828	-9.5	0.041	-4e-05	0	-9.5	0.041	-4e-05	0
829	-9.5	0.041	-2e-05	0	-9.5	0.041	-2e-05	0
830	-9.5	0.042	-4e-05	0	-9.5	0.042	-4e-05	0
831	-9.5	0.044	-4e-05	0	-9.5	0.044	-4e-05	0
832	-9.5	0.045	-4e-05	0	-9.5	0.045	-4e-05	0
833	-9.5	0.048	-6e-05	0	-9.5	0.048	-6e-05	0
834	-9.5	0.048	-4e-05	0	-9.5	0.048	-4e-05	0
835	-9	0.017	0	0	-9	0.017	0	0
836	-9	0.024	-2e-05	0	-9	0.024	-2e-05	0
837	-9	0.025	-2e-05	0	-9	0.025	-2e-05	0
838	-9	0.028	-2e-05	0	-9	0.028	-2e-05	0
839	-9	0.029	-2e-05	0	-9	0.029	-2e-05	0
840	-9	0.03	-2e-05	0	-9	0.03	-2e-05	0
841	-9	0.031	-2e-05	0	-9	0.031	-2e-05	0
842	-9	0.034	-4e-05	0	-9	0.034	-4e-05	0
843	-9	0.035	-2e-05	0	-9	0.035	-2e-05	0
844	-9	0.039	-4e-05	0	-9	0.039	-4e-05	0
845	-9	0.04	-4e-05	0	-9	0.04	-4e-05	0
846	-9	0.045	-4e-05	0	-9	0.045	-4e-05	0
847	-9	0.046	-4e-05	0	-9	0.046	-4e-05	0
848	-8.5	0.017	0	0	-8.5	0.017	0	0
849	-8.5	0.021	0	0	-8.5	0.021	0	0
850	-8.5	0.023	-2e-05	0	-8.5	0.023	-2e-05	0
851	-8.5	0.026	-2e-05	0	-8.5	0.026	-2e-05	0
852	-8.5	0.029	-2e-05	0	-8.5	0.029	-2e-05	0
853	-8.5	0.031	-4e-05	0	-8.5	0.031	-4e-05	0
854	-8.5	0.032	-2e-05	0	-8.5	0.032	-2e-05	0
855	-8.5	0.034	-4e-05	0	-8.5	0.034	-4e-05	0
856	-8.5	0.037	-4e-05	0	-8.5	0.037	-4e-05	0
857	-8.5	0.038	-4e-05	0	-8.5	0.038	-4e-05	0
858	-8.5	0.041	-4e-05	0	-8.5	0.041	-4e-05	0
859	-8.5	0.048	-4e-05	0	-8.5	0.048	-4e-05	0
860	-8.5	0.054	-6e-05	0	-8.5	0.054	-6e-05	0
861	-8.5	0.056	-6e-05	0	-8.5	0.056	-6e-05	0
862	-8	0.009	2e-05	0	-8	0.009	2e-05	0
863	-8	0.015	0	0	-8	0.015	0	0
864	-8	0.019	0	0	-8	0.019	0	0
865	-8	0.022	0	0	-8	0.022	0	0
866	-8	0.029	-2e-05	0	-8	0.029	-2e-05	0
867	-8	0.033	-4e-05	0	-8	0.033	-4e-05	0
868	-8	0.035	-4e-05	0	-8	0.035	-4e-05	0
869	-8	0.035	-2e-05	0	-8	0.035	-2e-05	0
870	-8	0.037	-4e-05	0	-8	0.037	-4e-05	0
871	-8	0.038	-4e-05	0	-8	0.038	-4e-05	0
872	-8	0.041	-4e-05	0	-8	0.041	-4e-05	0
873	-8	0.045	-4e-05	0	-8	0.045	-4e-05	0
874	-8	0.049	-6e-05	0	-8	0.049	-6e-05	0
875	-8	0.049	-4e-05	0	-8	0.049	-4e-05	0
876	-8	0.052	-6e-05	0	-8	0.052	-6e-05	0
877	-8	0.055	-6e-05	0	-8	0.055	-6e-05	0
878	-7.5	0.011	0	0	-7.5	0.011	0	0
879	-7.5	0.018	0	0	-7.5	0.018	0	0
880	-7.5	0.019	0	0	-7.5	0.019	0	0
881	-7.5	0.02	-2e-05	0	-7.5	0.02	-2e-05	0
882	-7.5	0.021	-2e-05	0	-7.5	0.021	-2e-05	0
883	-7.5	0.021	0	0	-7.5	0.021	0	0
884	-7.5	0.022	0	0	-7.5	0.022	0	0
885	-7.5	0.023	-2e-05	0	-7.5	0.023	-2e-05	0
886	-7.5	0.028	-2e-05	0	-7.5	0.028	-2e-05	0
887	-7.5	0.03	-2e-05	0	-7.5	0.03	-2e-05	0
888	-7.5	0.031	-2e-05	0	-7.5	0.031	-2e-05	0
889	-7.5	0.035	-4e-05	0	-7.5	0.035	-4e-05	0
890	-7.5	0.036	-4e-05	0	-7.5	0.036	-4e-05	0
891	-7.5	0.037	-4e-05	0	-7.5	0.037	-4e-05	0
892	-7.5	0.044	-6e-05	0	-7.5	0.044	-6e-05	0
893	-7.5	0.044	-4e-05	0	-7.5	0.044	-4e-05	0
894	-7.5	0.045	-6e-05	0	-7.5	0.045	-6e-05	0
895	-7.5	0.061	-8e-05	0	-7.5	0.061	-8e-05	0
896	-7	0.011	0	0	-7	0.011	0	0
897	-7	0.024	-2e-05	0	-7	0.024	-2e-05	0
898	-7	0.025	-2e-05	0	-7	0.025	-2e-05	0
899	-7	0.026	-2e-05	0	-7	0.026	-2e-05	0
900	-7	0.027	-2e-05	0	-7	0.027	-2e-05	0
901	-7	0.031	-2e-05	0	-7	0.031	-2e-05	0
902	-7	0.032	-4e-05	0	-7	0.032	-4e-05	0
903	-7	0.035	-2e-05	0	-7	0.035	-2e-05	0
904	-7	0.037	-4e-05	0	-7	0.037	-4e-05	0
905	-7	0.041	-4e-05	0	-7	0.041	-4e-05	0
906	-7	0.042	-4e-05	0	-7	0.042	-4e-05	0
907	-7	0.045	-6e-05	0	-7	0.045	-6e-05	0
908	-7	0.046	-6e-05	0	-7	0.046	-6e-05	0
909	-7	0.05	-6e-05	0	-7	0.05	-6e-05	0
910	-6.5	0.011	-2e-05	0	-6.5	0.011	-2e-05	0
911	-6.5	0.011	0	0	-6.5	0.011	0	0
912	-6.5	0.012	0	0	-6.5	0.012	0	0
913	-6.5	0.014	0	0	-6.5	0.014	0	0
914	-6.5	0.015	0	0	-6.5	0.015	0	0
915	-6.5	0.016	0	0	-6.5	0.016	0	0
916	-6.5	0.017	0	0	-6.5	0.017	0	0
917	-6.5	0.019	0	0	-6.5	0.019	0	0
918	-6.5	0.02	-2e-05	0	-6.5	0.02	-2e-05	0
919	-6.5	0.021	-2e-05	0	-6.5	0.021	-2e-05	0
920	-6.5	0.022	0	0	-6.5	0.022	0	0
921	-6.5	0.026	-2e-05	0	-6.5	0.026	-2e-05	0
922	-6.5	0.028	-2e-05	0	-6.5	0.028	-2e-05	0
923	-6.5	0.029	-2e-05	0	-6.5	0.029	-2e-05	0
924	-6.5	0.031	-4e-05	0	-6.5	0.031	-4e-05	0
925	-6.5	0.031	-2e-05	0	-6.5	0.031	-2e-05	0
926	-6.5	0.032	-2e-05	0	-6.5	0.032	-2e-05	0
927	-6.5	0.042	-6e-05	0	-6.5	0.042	-6e-05	0
928	-6.5	0.048	-4e-05	0	-6.5	0.048	-4e-05	0
929	-6.5	0.049	-6e-05	0	-6.5	0.049	-6e-05	0
930	-6.5	0.055	-6e-05	0	-6.5	0.055	-6e-05	0
931	-6	0.008	0	0	-6	0.008	0	0
932	-6	0.02	-2e-05	0	-6	0.02	-2e-05	0
933	-6	0.021	-2e-05	0	-6	0.021	-2e-05	0
934	-6	0.022	-2e-05	0	-6	0.022	-2e-05	0
935	-6	0.022	0	0	-6	0.022	0	0
936	-6	0.023	-2e-05	0	-6	0.023	-2e-05	0
937	-6	0.025	-2e-05	0	-6	0.025	-2e-05	0
938	-6	0.027	-2e-05	0	-6	0.027	-2e-05	0
939	-6	0.028	-2e-05	0	-6	0.028	-2e-05	0
940	-6	0.029	-2e-05	0	-6	0.029	-2e-05	0
941	-6	0.032	-4e-05	0	-6	0.032	-4e-05	0
942	-6	0.033	-4e-05	0	-6	0.033	-4e-05	0
943	-6	0.035	-4e-05	0	-6	0.035	-4e-05	0
944	-6	0.036	-4e-05	0	-6	0.036	-4e-05	0
945	-6	0.038	-4e-05	0	-6	0.038	-4e-05	0
946	-6	0.039	-4e-05	0	-6	0.039	-4e-05	0
947	-6	0.042	-4e-05	0	-6	0.042	-4e-05	0
948	-6	0.047	-6e-05	0	-6	0.047	-6e-05	0
949	-6	0.055	-6e-05	0	-6	0.055	-6e-05	0
950	-5.5	0.004	0	0	-5.5	0.004	0	0
951	-5.5	0.012	0	0	-5.5	0.012	0	0
952	-5.5	0.017	-2e-05	0	-5.5	0.017	-2e-05	0
953	-5.5	0.018	0	0	-5.5	0.018	0	0
954	-5.5	0.024	-2e-05	0	-5.5	0.024	-2e-05	0
955	-5.5	0.025	-4e-05	0	-5.5	0.025	-4e-05	0
956	-5.5	0.026	-2e-05	0	-5.5	0.026	-2e-05	0
957	-5.5	0.029	-4e-05	0	-5.5	0.029	-4e-05	0
958	-5.5	0.03	-4e-05	0	-5.5	0.03	-4e-05	0
959	-5.5	0.035	-2e-05	0	-5.5	0.035	-2e-05	0
960	-5.5	0.038	-4e-05	0	-5.5	0.038	-4e-05	0
961	-5.5	0.045	-4e-05	0	-5.5	0.045	-4e-05	0
962	-5.5	0.049	-6e-05	0	-5.5	0.049	-6e-05	0
963	-5	-0.009	4e-05	0	-5	-0.009	4e-05	0
964	-5	-0.005	2e-05	0	-5	-0.005	2e-05	0
965	-5	-0.002	2e-05	0	-5	-0.002	2e-05	0
966	-5	0.004	0	0	-5	0.004	0	0
967	-5	0.005	0	0	-5	0.005	0	0
968	-5	0.008	0	0	-5	0.008	0	0
969	-5	0.01	0	0	-5	0.01	0	0
970	-5	0.011	0	0	-5	0.011	0	0
971	-5	0.012	0	0	-5	0.012	0	0
972	-5	0.013	-2e-05	0	-5	0.013	-2e-05	0
973	-5	0.017	0	0	-5	0.017	0	0
974	-5	0.022	-2e-05	0	-5	0.022	-2e-05	0
975	-5	0.023	-2e-05	0	-5	0.023	-2e-05	0
976	-5	0.024	-2e-05	0	-5	0.024	-2e-05	0
977	-5	0.027	-4e-05	0	-5	0.027	-4e-05	0
978	-5	0.027	-2e-05	0	-5	0.027	-2e-05	0
979	-5	0.029	-2e-05	0	-5	0.029	-2e-05	0
980	-5	0.031	-4e-05	0	-5	0.031	-4e-05	0
981	-5	0.035	-4e-05	0	-5	0.035	-4e-05	0
982	-5	0.038	-4e-05	0	-5	0.038	-4e-05	0
983	-5	0.039	-4e-05	0	-5	0.039	-4e-05	0
984	-5	0.043	-6e-05	0	-5	0.043	-6e-05	0
985	-5	0.044	-6e-05	0	-5	0.044	-6e-05	0
986	-4.5	-0.005	2e-05	0	-4.5	-0.005	2e-05	0
987	-4.5	-0.003	2e-05	0	-4.5	-0.003	2e-05	0
988	-4.5	0.006	0	0	-4.5	0.006	0	0
989	-4.5	0.009	0	0	-4.5	0.009	0	0
990	-4.5	0.011	0	0	-4.5	0.011	0	0
991	-4.5	0.016	0	0	-4.5	0.016	0	0
992	-4.5	0.017	-2e-05	0	-4.5	0.017	-2e-05	0
993	-4.5	0.018	-2e-05	0	-4.5	0.018	-2e-05	0
994	-4.5	0.02	-2e-05	0	-4.5	0.02	-2e-05	0
995	-4.5	0.021	-2e-05	0	-4.5	0.021	-2e-05	0
996	-4.5	0.021	0	0	-4.5	0.021	0	0
997	-4.5	0.022	-2e-05	0	-4.5	0.022	-2e-05	0
998	-4.5	0.024	-4e-05	0	-4.5	0.024	-4e-05	0
999	-4.5	0.028	-4e-05	0	-4.5	0.028	-4e-05	0
1000	-4.5	0.031	-4e-05	0	-4.5	0.031	-4e-05	0
1001	-4.5	0.036	-4e-05	0	-4.5	0.036	-4e-05	0
1002	-4	-0.011	4e-05	0	-4	-0.011	4e-05	0
1003	-4	-0.004	2e-05	0	-4	-0.004	2e-05	0
1004	-4	-0.003	0	0	-4	-0.003	0	0
1005	-4	0.002	0	0	-4	0.002	0	0
1006	-4	0.006	0	0	-4	0.006	0	0
1007	-4	0.007	0	0	-4	0.007	0	0
1008	-4	0.011	0	0	-4	0.011	0	0
1009	-4	0.016	-2e-05	0	-4	0.016	-2e-05	0
1010	-4	0.017	-2e-05	0	-4	0.017	-2e-05	0
1011	-4	0.017	0	0	-4	0.017	0	0
1012	-4	0.018	-2e-05	0	-4	0.018	-2e-05	0
1013	-4	0.018	0	0	-4	0.018	0	0
1014	-4	0.019	-2e-05	0	-4	0.019	-2e-05	0
1015	-4	0.02	-2e-05	0	-4	0.02	-2e-05	0
1016	-4	0.021	-2e-05	0	-4	0.021	-2e-05	0
1017	-4	0.023	-2e-05	0	-4	0.023	-2e-05	0
1018	-4	0.024	-2e-05	0	-4	0.024	-2e-05	0
1019	-4	0.025	-2e-05	0	-4	0.025	-2e-05	0
1020	-4	0.026	-2e-05	0	-4	0.026	-2e-05	0
1021	-4	0.027	-4e-05	0	-4	0.027	-4e-05	0
1022	-4	0.028	-2e-05	0	-4	0.028	-2e-05	0
1023	-4	0.029	-4e-05	0	-4	0.029	-4e-05	0
1024	-4	0.03	-2e-05	0	-4	0.03	-2e-05	0
1025	-4	0.031	-4e-05	0	-4	0.031	-4e-05	0
1026	-4	0.043	-4e-05	0	-4	0.043	-4e-05	0
1027	-3.5	-0.001	0	0	-3.5	-0.001	0	0
1028	-3.5	0.004	0	0	-3.5	0.004	0	0
1029	-3.5	0.005	0	0	-3.5	0.005	0	0
1030	-3.5	0.005	2e-05	0	-3.5	0.005	2e-05	0
1031	-3.5	0.01	0	0	-3.5	0.01	0	0
1032	-3.5	0.011	-2e-05	0	-3.5	0.011	-2e-05	0
1033	-3.5	0.011	0	0	-3.5	0.011	0	0
1034	-3.5	0.012	0	0	-3.5	0.012	0	0
1035	-3.5	0.014	-2e-05	0	-3.5	0.014	-2e-05	0
1036	-3.5	0.017	-2e-05	0	-3.5	0.017	-2e-05	0
1037	-3.5	0.018	-2e-05	0	-3.5	0.018	-2e-05	0
1038	-3.5	0.02	-2e-05	0	-3.5	0.02	-2e-05	0
1039	-3.5	0.022	-2e-05	0	-3.5	0.022	-2e-05	0
1040	-3.5	0.023	-2e-05	0	-3.5	0.023	-2e-05	0
1041	-3.5	0.024	-4e-05	0	-3.5	0.024	-4e-05	0
1042	-3.5	0.024	-2e-05	0	-3.5	0.024	-2e-05	0
1043	-3.5	0.027	-4e-05	0	-3.5	0.027	-4e-05	0
1044	-3.5	0.03	-4e-05	0	-3.5	0.03	-4e-05	0
1045	-3.5	0.032	-4e-05	0	-3.5	0.032	-4e-05	0
1046	-3.5	0.038	-4e-05	0	-3.5	0.038	-4e-05	0
1047	-3.5	0.039	-6e-05	0	-3.5	0.039	-6e-05	0
1048	-3	-0.006	2e-05	0	-3	-0.006	2e-05	0
1049	-3	-0.005	2e-05	0	-3	-0.005	2e-05	0
1050	-3	0.001	0	0	-3	0.001	0	0
1051	-3	0.001	2e-05	0	-3	0.001	2e-05	0
1052	-3	0.004	0	0	-3	0.004	0	0
1053	-3	0.005	0	0	-3	0.005	0	0
1054	-3	0.008	0	0	-3	0.008	0	0
1055	-3	0.011	-2e-05	0	-3	0.011	-2e-05	0
1056	-3	0.011	0	0	-3	0.011	0	0
1057	-3	0.014	-2e-05	0	-3	0.014	-2e-05	0
1058	-3	0.017	-2e-05	0	-3	0.017	-2e-05	0
1059	-3	0.018	-2e-05	0	-3	0.018	-2e-05	0
1060	-3	0.019	-2e-05	0	-3	0.019	-2e-05	0
1061	-3	0.02	-2e-05	0	-3	0.02	-2e-05	0
1062	-3	0.022	-4e-05	0	-3	0.022	-4e-05	0
1063	-3	0.026	-4e-05	0	-3	0.026	-4e-05	0
1064	-3	0.027	-4e-05	0	-3	0.027	-4e-05	0
1065	-3	0.044	-6e-05	0	-3	0.044	-6e-05	0
1066	-2.5	-0.016	4e-05	0	-2.5	-0.016	4e-05	0
1067	-2.5	-0.007	2e-05	0	-2.5	-0.007	2e-05	0
1068	-2.5	-0.005	2e-05	0	-2.5	-0.005	2e-05	0
1069	-2.5	-0.002	2e-05	0	-2.5	-0.002	2e-05	0
1070	-2.5	0	2e-05	0	-2.5	0	2e-05	0
1071	-2.5	0.002	0	0	-2.5	0.002	0	0
1072	-2.5	0.004	0	0	-2.5	0.004	0	0
1073	-2.5	0.005	0	0	-2.5	0.005	0	0
1074	-2.5	0.007	0	0	-2.5	0.007	0	0
1075	-2.5	0.008	0	0	-2.5	0.008	0	0
1076	-2.5	0.01	-2e-05	0	-2.5	0.01	-2e-05	0
1077	-2.5	0.011	-2e-05	0	-2.5	0.011	-2e-05	0
1078	-2.5	0.012	0	0	-2.5	0.012	0	0
1079	-2.5	0.013	-2e-05	0	-2.5	0.013	-2e-05	0
1080	-2.5	0.014	-2e-05	0	-2.5	0.014	-2e-05	0
1081	-2.5	0.015	-2e-05	0	-2.5	0.015	-2e-05	0
1082	-2.5	0.015	0	0	-2.5	0.015	0	0
1083	-2.5	0.017	-2e-05	0	-2.5	0.017	-2e-05	0
1084	-2.5	0.018	-2e-05	0	-2.5	0.018	-2e-05	0
1085	-2.5	0.019	-4e-05	0	-2.5	0.019	-4e-05	0
1086	-2.5	0.021	-4e-05	0	-2.5	0.021	-4e-05	0
1087	-2.5	0.022	-2e-05	0	-2.5	0.022	-2e-05	0
1088	-2.5	0.023	-4e-05	0	-2.5	0.023	-4e-05	0
1089	-2.5	0.023	-2e-05	0	-2.5	0.023	-2e-05	0
1090	-2.5	0.024	-4e-05	0	-2.5	0.024	-4e-05	0
1091	-2.5	0.027	-4e-05	0	-2.5	0.027	-4e-05	0
1092	-2.5	0.028	-4e-05	0	-2.5	0.028	-4e-05	0
1093	-2.5	0.032	-4e-05	0	-2.5	0.032	-4e-05	0
1094	-2	-0.019	4e-05	0	-2	-0.019	4e-05	0
1095	-2	-0.015	4e-05	0	-2	-0.015	4e-05	0
1096	-2	-0.012	2e-05	0	-2	-0.012	2e-05	0
1097	-2	-0.007	2e-05	0	-2	-0.007	2e-05	0
1098	-2	-0.005	0	0	-2	-0.005	0	0
1099	-2	-0.004	2e-05	0	-2	-0.004	2e-05	0
1100	-2	-0.003	2e-05	0	-2	-0.003	2e-05	0
1101	-2	-0.001	2e-05	0	-2	-0.001	2e-05	0
1102	-2	0	0	0	-2	0	0	0
1103	-2	0.002	0	0	-2	0.002	0	0
1104	-2	0.005	0	0	-2	0.005	0	0
1105	-2	0.006	0	0	-2	0.006	0	0
1106	-2	0.008	0	0	-2	0.008	0	0
1107	-2	0.009	-2e-05	0	-2	0.009	-2e-05	0
1108	-2	0.009	0	0	-2	0.009	0	0
1109	-2	0.01	0	0	-2	0.01	0	0
1110	-2	0.012	0	0	-2	0.012	0	0
1111	-2	0.013	-2e-05	0	-2	0.013	-2e-05	0
1112	-2	0.015	-2e-05	0	-2	0.015	-2e-05	0
1113	-2	0.016	-2e-05	0	-2	0.016	-2e-05	0
1114	-2	0.017	-4e-05	0	-2	0.017	-4e-05	0
1115	-2	0.022	-2e-05	0	-2	0.022	-2e-05	0
1116	-2	0.025	-4e-05	0	-2	0.025	-4e-05	0
1117	-2	0.026	-4e-05	0	-2	0.026	-4e-05	0
1118	-2	0.027	-4e-05	0	-2	0.027	-4e-05	0
1119	-2	0.035	-4e-05	0	-2	0.035	-4e-05	0
1120	-1.5	-0.019	4e-05	0	-1.5	-0.019	4e-05	0
1121	-1.5	-0.016	4e-05	0	-1.5	-0.016	4e-05	0
1122	-1.5	-0.008	0	0	-1.5	-0.008	0	0
1123	-1.5	-0.006	2e-05	0	-1.5	-0.006	2e-05	0
1124	-1.5	-0.001	0	0	-1.5	-0.001	0	0
1125	-1.5	0	0	0	-1.5	0	0	0
1126	-1.5	0.001	0	0	-1.5	0.001	0	0
1127	-1.5	0.002	0	0	-1.5	0.002	0	0
1128	-1.5	0.003	-2e-05	0	-1.5	0.003	-2e-05	0
1129	-1.5	0.003	0	0	-1.5	0.003	0	0
1130	-1.5	0.004	0	0	-1.5	0.004	0	0
1131	-1.5	0.006	-2e-05	0	-1.5	0.006	-2e-05	0
1132	-1.5	0.006	0	0	-1.5	0.006	0	0
1133	-1.5	0.007	0	0	-1.5	0.007	0	0
1134	-1.5	0.008	-2e-05	0	-1.5	0.008	-2e-05	0
1135	-1.5	0.01	0	0	-1.5	0.01	0	0
1136	-1.5	0.012	-2e-05	0	-1.5	0.012	-2e-05	0
1137	-1.5	0.013	-2e-05	0	-1.5	0.013	-2e-05	0
1138	-1.5	0.014	-2e-05	0	-1.5	0.014	-2e-05	0
1139	-1.5	0.014	0	0	-1.5	0.014	0	0
1140	-1.5	0.019	-4e-05	0	-1.5	0.019	-4e-05	0
1141	-1.5	0.021	-4e-05	0	-1.5	0.021	-4e-05	0
1142	-1.5	0.028	-2e-05	0	-1.5	0.028	-2e-05	0
1143	-1	-0.02	4e-05	0	-1	-0.02	4e-05	0
1144	-1	-0.015	4e-05	0	-1	-0.015	4e-05	0
1145	-1	-0.011	2e-05	0	-1	-0.011	2e-05	0
1146	-1	-0.007	2e-05	0	-1	-0.007	2e-05	0
1147	-1	-0.005	0	0	-1	-0.005	0	0
1148	-1	-0.003	2e-05	0	-1	-0.003	2e-05	0
1149	-1	-0.001	0	0	-1	-0.001	0	0
1150	-1	0	0	0	-1	0	0	0
1151	-1	0.001	0	0	-1	0.001	0	0
1152	-1	0.002	0	0	-1	0.002	0	0
1153	-1	0.003	0	0	-1	0.003	0	0
1154	-1	0.004	0	0	-1	0.004	0	0
1155	-1	0.005	0	0	-1	0.005	0	0
1156	-1	0.007	-2e-05	0	-1	0.007	-2e-05	0
1157	-1	0.007	0	0	-1	0.007	0	0
1158	-1	0.008	0	0	-1	0.008	0	0
1159	-1	0.009	-2e-05	0	-1	0.009	-2e-05	0
1160	-1	0.014	-2e-05	0	-1	0.014	-2e-05	0
1161	-1	0.016	-2e-05	0	-1	0.016	-2e-05	0
1162	-1	0.017	-2e-05	0	-1	0.017	-2e-05	0
1163	-1	0.018	-4e-05	0	-1	0.018	-4e-05	0
1164	-1	0.018	-2e-05	0	-1	0.018	-2e-05	0
1165	-1	0.02	-4e-05	0	-1	0.02	-4e-05	0
1166	-1	0.021	-4e-05	0	-1	0.021	-4e-05	0
1167	-1	0.022	-4e-05	0	-1	0.022	-4e-05	0
1168	-0.5	-0.02	4e-05	0	-0.5	-0.02	4e-05	0
1169	-0.5	-0.015	2e-05	0	-0.5	-0.015	2e-05	0
1170	-0.5	-0.012	2e-05	0	-0.5	-0.012	2e-05	0
1171	-0.5	-0.01	2e-05	0	-0.5	-0.01	2e-05	0
1172	-0.5	-0.008	2e-05	0	-0.5	-0.008	2e-05	0
1173	-0.5	-0.007	2e-05	0	-0.5	-0.007	2e-05	0
1174	-0.5	-0.003	0	0	-0.5	-0.003	0	0
1175	-0.5	-0.001	0	0	-0.5	-0.001	0	0
1176	-0.5	0	0	0	-0.5	0	0	0
1177	-0.5	0.001	0	0	-0.5	0.001	0	0
1178	-0.5	0.002	-2e-05	0	-0.5	0.002	-2e-05	0
1179	-0.5	0.002	0	0	-0.5	0.002	0	0
1180	-0.5	0.003	0	0	-0.5	0.003	0	0
1181	-0.5	0.004	-2e-05	0	-0.5	0.004	-2e-05	0
1182	-0.5	0.004	0	0	-0.5	0.004	0	0
1183	-0.5	0.006	0	0	-0.5	0.006	0	0
1184	-0.5	0.007	-2e-05	0	-0.5	0.007	-2e-05	0
1185	-0.5	0.007	0	0	-0.5	0.007	0	0
1186	-0.5	0.008	-2e-05	0	-0.5	0.008	-2e-05	0
1187	-0.5	0.008	0	0	-0.5	0.008	0	0
1188	-0.5	0.012	0	0	-0.5	0.012	0	0
1189	-0.5	0.014	-2e-05	0	-0.5	0.014	-2e-05	0
1190	-0.5	0.017	-4e-05	0	-0.5	0.017	-4e-05	0
1191	-0.5	0.018	-4e-05	0	-0.5	0.018	-4e-05	0
1192	-0.5	0.021	-4e-05	0	-0.5	0.021	-4e-05	0
1193	-0.5	0.023	-2e-05	0	-0.5	0.023	-2e-05	0
1194	-0.5	0.025	-2e-05	0	-0.5	0.025	-2e-05	0
1195	-0.5	0.028	-4e-05	0	-0.5	0.028	-4e-05	0
1196	0	-0.024	4e-05	0	0	-0.024	4e-05	0
1197	0	-0.018	2e-05	0	0	-0.018	2e-05	0
1198	0	-0.017	4e-05	0	0	-0.017	4e-05	0
1199	0	-0.014	2e-05	0	0	-0.014	2e-05	0
1200	0	-0.012	2e-05	0	0	-0.012	2e-05	0
1201	0	-0.008	0	0	0	-0.008	0	0
1202	0	-0.007	2e-05	0	0	-0.007	2e-05	0
1203	0	-0.003	0	0	0	-0.003	0	0
1204	0	-0.002	2e-05	0	0	-0.002	2e-05	0
1205	0	-0.001	0	0	0	-0.001	0	0
1206	0	0	0	0	0	0	0	0
1207	0	0.001	0	0	0	0.001	0	0
1208	0	0.004	0	0	0	0.004	0	0
1209	0	0.006	-2e-05	0	0	0.006	-2e-05	0
1210	0	0.006	0	0	0	0.006	0	0
1211	0	0.007	-2e-05	0	0	0.007	-2e-05	0
1212	0	0.007	0	0	0	0.007	0	0
1213	0	0.008	-2e-05	0	0	0.008	-2e-05	0
1214	0	0.008	0	0	0	0.008	0	0
1215	0	0.009	-2e-05	0	0	0.009	-2e-05	0
1216	0	0.009	0	0	0	0.009	0	0
1217	0	0.01	-2e-05	0	0	0.01	-2e-05	0
1218	0	0.011	-2e-05	0	0	0.011	-2e-05	0
1219	0	0.012	-2e-05	0	0	0.012	-2e-05	0
1220	0	0.013	-2e-05	0	0	0.013	-2e-05	0
1221	0	0.014	-2e-05	0	0	0.014	-2e-05	0
1222	0	0.015	-2e-05	0	0	0.015	-2e-05	0
1223	0	0.018	-4e-05	0	0	0.018	-4e-05	0
1224	0	0.019	-4e-05	0	0	0.019	-4e-05	0
1225	0	0.02	-4e-05	0	0	0.02	-4e-05	0
1226	0	0.022	-4e-05	0	0	0.022	-4e-05	0
1227	0	0.023	-4e-05	0	0	0.023	-4e-05	0
1228	0.5	-0.023	2e-05	0	0.5	-0.023	2e-05	0
1229	0.5	-0.019	2e-05	0	0.5	-0.019	2e-05	0
1230	0.5	-0.016	2e-05	0	0.5	-0.016	2e-05	0
1231	0.5	-0.014	0	0	0.5	-0.014	0	0
1232	0.5	-0.013	2e-05	0	0.5	-0.013	2e-05	0
1233	0.5	-0.012	2e-05	0	0.5	-0.012	2e-05	0
1234	0.5	-0.011	2e-05	0	0.5	-0.011	2e-05	0
1235	0.5	-0.009	2e-05	0	0.5	-0.009	2e-05	0
1236	0.5	-0.008	2e-05	0	0.5	-0.008	2e-05	0
1237	0.5	-0.007	0	0	0.5	-0.007	0	0
1238	0.5	-0.006	2e-05	0	0.5	-0.006	2e-05	0
1239	0.5	-0.004	0	0	0.5	-0.004	0	0
1240	0.5	-0.002	0	0	0.5	-0.002	0	0
1241	0.5	-0.001	0	0	0.5	-0.001	0	0
1242	0.5	0	0	0	0.5	0	0	0
1243	0.5	0.001	0	0	0.5	0.001	0	0
1244	0.5	0.002	0	0	0.5	0.002	0	0
1245	0.5	0.003	0	0	0.5	0.003	0	0
1246	0.5	0.004	-2e-05	0	0.5	0.004	-2e-05	0
1247	0.5	0.004	0	0	0.5	0.004	0	0
1248	0.5	0.006	-2e-05	0	0.5	0.006	-2e-05	0
1249	0.5	0.006	0	0	0.5	0.006	0	0
1250	0.5	0.007	-2e-05	0	0.5	0.007	-2e-05	0
1251	0.5	0.007	0	0	0.5	0.007	0	0
1252	0.5	0.008	-2e-05	0	0.5	0.008	-2e-05	0
1253	0.5	0.008	0	0	0.5	0.008	0	0
1254	0.5	0.009	-2e-05	0	0.5	0.009	-2e-05	0
1255	0.5	0.01	-2e-05	0	0.5	0.01	-2e-05	0
1256	0.5	0.013	-2e-05	0	0.5	0.013	-2e-05	0
1257	0.5	0.014	-4e-05	0	0.5	0.014	-4e-05	0
1258	0.5	0.014	-2e-05	0	0.5	0.014	-2e-05	0
1259	0.5	0.017	-2e-05	0	0.5	0.017	-2e-05	0
1260	0.5	0.019	-4e-05	0	0.5	0.019	-4e-05	0
1261	1	-0.025	4e-05	0	1	-0.025	4e-05	0
1262	1	-0.022	4e-05	0	1	-0.022	4e-05	0
1263	1	-0.021	4e-05	0	1	-0.021	4e-05	0
1264	1	-0.02	2e-05	0	1	-0.02	2e-05	0
1265	1	-0.019	2e-05	0	1	-0.019	2e-05	0
1266	1	-0.013	2e-05	0	1	-0.013	2e-05	0
1267	1	-0.012	2e-05	0	1	-0.012	2e-05	0
1268	1	-0.005	2e-05	0	1	-0.005	2e-05	0
1269	1	-0.003	0	0	1	-0.003	0	0
1270	1	-0.002	0	0	1	-0.002	0	0
1271	1	-0.001	0	0	1	-0.001	0	0
1272	1	0	0	0	1	0	0	0
1273	1	0.002	0	0	1	0.002	0	0
1274	1	0.004	0	0	1	0.004	0	0
1275	1	0.007	-2e-05	0	1	0.007	-2e-05	0
1276	1	0.012	-2e-05	0	1	0.012	-2e-05	0
1277	1	0.014	-4e-05	0	1	0.014	-4e-05	0
1278	1	0.014	-2e-05	0	1	0.014	-2e-05	0
1279	1	0.015	-2e-05	0	1	0.015	-2e-05	0
1280	1	0.02	-4e-05	0	1	0.02	-4e-05	0
1281	1	0.026	-4e-05	0	1	0.026	-4e-05	0
1282	1.5	-0.026	4e-05	0	1.5	-0.026	4e-05	0
1283	1.5	-0.024	4e-05	0	1.5	-0.024	4e-05	0
1284	1.5	-0.023	2e-05	0	1.5	-0.023	2e-05	0
1285	1.5	-0.021	4e-05	0	1.5	-0.021	4e-05	0
1286	1.5	-0.016	2e-05	0	1.5	-0.016	2e-05	0
1287	1.5	-0.015	2e-05	0	1.5	-0.015	2e-05	0
1288	1.5	-0.013	2e-05	0	1.5	-0.013	2e-05	0
1289	1.5	-0.011	2e-05	0	1.5	-0.011	2e-05	0
1290	1.5	-0.006	2e-05	0	1.5	-0.006	2e-05	0
1291	1.5	-0.005	0	0	1.5	-0.005	0	0
1292	1.5	-0.004	0	0	1.5	-0.004	0	0
1293	1.5	-0.003	0	0	1.5	-0.003	0	0
1294	1.5	-0.003	2e-05	0	1.5	-0.003	2e-05	0
1295	1.5	-0.001	0	0	1.5	-0.001	0	0
1296	1.5	0	0	0	1.5	0	0	0
1297	1.5	0.001	0	0	1.5	0.001	0	0
1298	1.5	0.002	-2e-05	0	1.5	0.002	-2e-05	0
1299	1.5	0.003	-2e-05	0	1.5	0.003	-2e-05	0
1300	1.5	0.003	0	0	1.5	0.003	0	0
1301	1.5	0.004	-2e-05	0	1.5	0.004	-2e-05	0
1302	1.5	0.005	-2e-05	0	1.5	0.005	-2e-05	0
1303	1.5	0.006	-2e-05	0	1.5	0.006	-2e-05	0
1304	1.5	0.009	-2e-05	0	1.5	0.009	-2e-05	0
1305	1.5	0.011	-2e-05	0	1.5	0.011	-2e-05	0
1306	1.5	0.014	-2e-05	0	1.5	0.014	-2e-05	0
1307	1.5	0.017	-4e-05	0	1.5	0.017	-4e-05	0
1308	2	-0.037	6e-05	0	2	-0.037	6e-05	0
1309	2	-0.031	4e-05	0	2	-0.031	4e-05	0
1310	2	-0.03	4e-05	0	2	-0.03	4e-05	0
1311	2	-0.028	4e-05	0	2	-0.028	4e-05	0
1312	2	-0.027	2e-05	0	2	-0.027	2e-05	0
1313	2	-0.026	4e-05	0	2	-0.026	4e-05	0
1314	2	-0.025	4e-05	0	2	-0.025	4e-05	0
1315	2	-0.022	2e-05	0	2	-0.022	2e-05	0
1316	2	-0.021	2e-05	0	2	-0.021	2e-05	0
1317	2	-0.02	2e-05	0	2	-0.02	2e-05	0
1318	2	-0.019	2e-05	0	2	-0.019	2e-05	0
1319	2	-0.018	2e-05	0	2	-0.018	2e-05	0
1320	2	-0.017	2e-05	0	2	-0.017	2e-05	0
1321	2	-0.014	2e-05	0	2	-0.014	2e-05	0
1322	2	-0.012	0	0	2	-0.012	0	0
1323	2	-0.01	0	0	2	-0.01	0	0
1324	2	-0.01	2e-05	0	2	-0.01	2e-05	0
1325	2	-0.009	0	0	2	-0.009	0	0
1326	2	-0.007	0	0	2	-0.007	0	0
1327	2	-0.006	0	0	2	-0.006	0	0
1328	2	-0.006	2e-05	0	2	-0.006	2e-05	0
1329	2	-0.005	0	0	2	-0.005	0	0
1330	2	0	0	0	2	0	0	0
1331	2	0.002	0	0	2	0.002	0	0
1332	2	0.003	-2e-05	0	2	0.003	-2e-05	0
1333	2	0.008	-2e-05	0	2	0.008	-2e-05	0
1334	2	0.01	-2e-05	0	2	0.01	-2e-05	0
1335	2	0.014	-2e-05	0	2	0.014	-2e-05	0
1336	2	0.015	-4e-05	0	2	0.015	-4e-05	0
1337	2.5	-0.036	6e-05	0	2.5	-0.036	6e-05	0
1338	2.5	-0.03	4e-05	0	2.5	-0.03	4e-05	0
1339	2.5	-0.027	2e-05	0	2.5	-0.027	2e-05	0
1340	2.5	-0.024	2e-05	0	2.5	-0.024	2e-05	0
1341	2.5	-0.023	4e-05	0	2.5	-0.023	4e-05	0
1342	2.5	-0.022	2e-05	0	2.5	-0.022	2e-05	0
1343	2.5	-0.022	4e-05	0	2.5	-0.022	4e-05	0
1344	2.5	-0.021	2e-05	0	2.5	-0.021	2e-05	0
1345	2.5	-0.019	2e-05	0	2.5	-0.019	2e-05	0
1346	2.5	-0.019	4e-05	0	2.5	-0.019	4e-05	0
1347	2.5	-0.018	2e-05	0	2.5	-0.018	2e-05	0
1348	2.5	-0.017	2e-05	0	2.5	-0.017	2e-05	0
1349	2.5	-0.014	2e-05	0	2.5	-0.014	2e-05	0
1350	2.5	-0.012	2e-05	0	2.5	-0.012	2e-05	0
1351	2.5	-0.009	0	0	2.5	-0.009	0	0
1352	2.5	-0.009	2e-05	0	2.5	-0.009	2e-05	0
1353	2.5	-0.006	0	0	2.5	-0.006	0	0
1354	2.5	-0.003	0	0	2.5	-0.003	0	0
1355	2.5	-0.002	0	0	2.5	-0.002	0	0
1356	2.5	-0.001	0	0	2.5	-0.001	0	0
1357	2.5	0.001	0	0	2.5	0.001	0	0
1358	2.5	0.003	-2e-05	0	2.5	0.003	-2e-05	0
1359	2.5	0.004	0	0	2.5	0.004	0	0
1360	2.5	0.005	0	0	2.5	0.005	0	0
1361	2.5	0.007	-2e-05	0	2.5	0.007	-2e-05	0
1362	2.5	0.009	-2e-05	0	2.5	0.009	-2e-05	0
1363	2.5	0.018	-4e-05	0	2.5	0.018	-4e-05	0
1364	3	-0.029	4e-05	0	3	-0.029	4e-05	0
1365	3	-0.027	4e-05	0	3	-0.027	4e-05	0
1366	3	-0.026	2e-05	0	3	-0.026	2e-05	0
1367	3	-0.026	4e-05	0	3	-0.026	4e-05	0
1368	3	-0.025	2e-05	0	3	-0.025	2e-05	0
1369	3	-0.02	2e-05	0	3	-0.02	2e-05	0
1370	3	-0.02	4e-05	0	3	-0.02	4e-05	0
1371	3	-0.019	2e-05	0	3	-0.019	2e-05	0
1372	3	-0.018	2e-05	0	3	-0.018	2e-05	0
1373	3	-0.016	2e-05	0	3	-0.016	2e-05	0
1374	3	-0.015	2e-05	0	3	-0.015	2e-05	0
1375	3	-0.014	2e-05	0	3	-0.014	2e-05	0
1376	3	-0.012	2e-05	0	3	-0.012	2e-05	0
1377	3	-0.01	0	0	3	-0.01	0	0
1378	3	-0.009	0	0	3	-0.009	0	0
1379	3	-0.007	0	0	3	-0.007	0	0
1380	3	-0.006	0	0	3	-0.006	0	0
1381	3	-0.005	0	0	3	-0.005	0	0
1382	3	-0.004	0	0	3	-0.004	0	0
1383	3	-0.001	-2e-05	0	3	-0.001	-2e-05	0
1384	3	0	0	0	3	0	0	0
1385	3	0.003	-2e-05	0	3	0.003	-2e-05	0
1386	3	0.008	-2e-05	0	3	0.008	-2e-05	0
1387	3	0.009	-2e-05	0	3	0.009	-2e-05	0
1388	3	0.01	-2e-05	0	3	0.01	-2e-05	0
1389	3.5	-0.046	6e-05	0	3.5	-0.046	6e-05	0
1390	3.5	-0.042	4e-05	0	3.5	-0.042	4e-05	0
1391	3.5	-0.04	6e-05	0	3.5	-0.04	6e-05	0
1392	3.5	-0.027	4e-05	0	3.5	-0.027	4e-05	0
1393	3.5	-0.025	4e-05	0	3.5	-0.025	4e-05	0
1394	3.5	-0.024	2e-05	0	3.5	-0.024	2e-05	0
1395	3.5	-0.024	4e-05	0	3.5	-0.024	4e-05	0
1396	3.5	-0.023	2e-05	0	3.5	-0.023	2e-05	0
1397	3.5	-0.023	4e-05	0	3.5	-0.023	4e-05	0
1398	3.5	-0.022	2e-05	0	3.5	-0.022	2e-05	0
1399	3.5	-0.022	4e-05	0	3.5	-0.022	4e-05	0
1400	3.5	-0.021	2e-05	0	3.5	-0.021	2e-05	0
1401	3.5	-0.021	4e-05	0	3.5	-0.021	4e-05	0
1402	3.5	-0.02	2e-05	0	3.5	-0.02	2e-05	0
1403	3.5	-0.019	2e-05	0	3.5	-0.019	2e-05	0
1404	3.5	-0.015	2e-05	0	3.5	-0.015	2e-05	0
1405	3.5	-0.014	2e-05	0	3.5	-0.014	2e-05	0
1406	3.5	-0.01	0	0	3.5	-0.01	0	0
1407	3.5	-0.009	0	0	3.5	-0.009	0	0
1408	3.5	-0.007	0	0	3.5	-0.007	0	0
1409	3.5	-0.006	0	0	3.5	-0.006	0	0
1410	3.5	-0.004	-2e-05	0	3.5	-0.004	-2e-05	0
1411	3.5	-0.004	0	0	3.5	-0.004	0	0
1412	3.5	-0.003	0	0	3.5	-0.003	0	0
1413	3.5	0.001	0	0	3.5	0.001	0	0
1414	3.5	0.005	-2e-05	0	3.5	0.005	-2e-05	0
1415	4	-0.042	6e-05	0	4	-0.042	6e-05	0
1416	4	-0.031	4e-05	0	4	-0.031	4e-05	0
1417	4	-0.03	2e-05	0	4	-0.03	2e-05	0
1418	4	-0.029	2e-05	0	4	-0.029	2e-05	0
1419	4	-0.028	2e-05	0	4	-0.028	2e-05	0
1420	4	-0.026	4e-05	0	4	-0.026	4e-05	0
1421	4	-0.025	2e-05	0	4	-0.025	2e-05	0
1422	4	-0.024	4e-05	0	4	-0.024	4e-05	0
1423	4	-0.021	2e-05	0	4	-0.021	2e-05	0
1424	4	-0.02	2e-05	0	4	-0.02	2e-05	0
1425	4	-0.019	2e-05	0	4	-0.019	2e-05	0
1426	4	-0.015	0	0	4	-0.015	0	0
1427	4	-0.013	2e-05	0	4	-0.013	2e-05	0
1428	4	-0.011	0	0	4	-0.011	0	0
1429	4	-0.009	0	0	4	-0.009	0	0
1430	4	-0.006	0	0	4	-0.006	0	0
1431	4	-0.005	0	0	4	-0.005	0	0
1432	4	-0.002	-2e-05	0	4	-0.002	-2e-05	0
1433	4	0.011	-4e-05	0	4	0.011	-4e-05	0
1434	4.5	-0.035	4e-05	0	4.5	-0.035	4e-05	0
1435	4.5	-0.033	4e-05	0	4.5	-0.033	4e-05	0
1436	4.5	-0.03	4e-05	0	4.5	-0.03	4e-05	0
1437	4.5	-0.028	4e-05	0	4.5	-0.028	4e-05	0
1438	4.5	-0.027	2e-05	0	4.5	-0.027	2e-05	0
1439	4.5	-0.027	4e-05	0	4.5	-0.027	4e-05	0
1440	4.5	-0.024	2e-05	0	4.5	-0.024	2e-05	0
1441	4.5	-0.023	2e-05	0	4.5	-0.023	2e-05	0
1442	4.5	-0.022	2e-05	0	4.5	-0.022	2e-05	0
1443	4.5	-0.021	2e-05	0	4.5	-0.021	2e-05	0
1444	4.5	-0.02	2e-05	0	4.5	-0.02	2e-05	0
1445	4.5	-0.018	2e-05	0	4.5	-0.018	2e-05	0
1446	4.5	-0.014	0	0	4.5	-0.014	0	0
1447	4.5	-0.014	2e-05	0	4.5	-0.014	2e-05	0
1448	4.5	-0.012	0	0	4.5	-0.012	0	0
1449	4.5	-0.01	0	0	4.5	-0.01	0	0
1450	4.5	-0.009	0	0	4.5	-0.009	0	0
1451	4.5	-0.007	0	0	4.5	-0.007	0	0
1452	4.5	-0.002	-2e-05	0	4.5	-0.002	-2e-05	0
1453	4.5	-0.002	0	0	4.5	-0.002	0	0
1454	4.5	0.01	-2e-05	0	4.5	0.01	-2e-05	0
1455	5	-0.059	8e-05	0	5	-0.059	8e-05	0
1456	5	-0.04	6e-05	0	5	-0.04	6e-05	0
1457	5	-0.038	4e-05	0	5	-0.038	4e-05	0
1458	5	-0.034	4e-05	0	5	-0.034	4e-05	0
1459	5	-0.03	4e-05	0	5	-0.03	4e-05	0
1460	5	-0.028	4e-05	0	5	-0.028	4e-05	0
1461	5	-0.026	2e-05	0	5	-0.026	2e-05	0
1462	5	-0.025	2e-05	0	5	-0.025	2e-05	0
1463	5	-0.024	2e-05	0	5	-0.024	2e-05	0
1464	5	-0.021	2e-05	0	5	-0.021	2e-05	0
1465	5	-0.02	2e-05	0	5	-0.02	2e-05	0
1466	5	-0.019	2e-05	0	5	-0.019	2e-05	0
1467	5	-0.017	0	0	5	-0.017	0	0
1468	5	-0.016	2e-05	0	5	-0.016	2e-05	0
1469	5	-0.014	2e-05	0	5	-0.014	2e-05	0
1470	5	-0.013	2e-05	0	5	-0.013	2e-05	0
1471	5	-0.011	0	0	5	-0.011	0	0
1472	5	-0.009	0	0	5	-0.009	0	0
1473	5	-0.008	0	0	5	-0.008	0	0
1474	5	0.001	-2e-05	0	5	0.001	-2e-05	0
1475	5	0.006	-2e-05	0	5	0.006	-2e-05	0
1476	5	0.013	-4e-05	0	5	0.013	-4e-05	0
1477	5.5	-0.045	6e-05	0	5.5	-0.045	6e-05	0
1478	5.5	-0.042	6e-05	0	5.5	-0.042	6e-05	0
1479	5.5	-0.037	4e-05	0	5.5	-0.037	4e-05	0
1480	5.5	-0.031	2e-05	0	5.5	-0.031	2e-05	0
1481	5.5	-0.026	4e-05	0	5.5	-0.026	4e-05	0
1482	5.5	-0.024	2e-05	0	5.5	-0.024	2e-05	0
1483	5.5	-0.023	2e-05	0	5.5	-0.023	2e-05	0
1484	5.5	-0.021	2e-05	0	5.5	-0.021	2e-05	0
1485	5.5	-0.02	2e-05	0	5.5	-0.02	2e-05	0
1486	5.5	-0.019	2e-05	0	5.5	-0.019	2e-05	0
1487	5.5	-0.017	2e-05	0	5.5	-0.017	2e-05	0
1488	5.5	-0.015	0	0	5.5	-0.015	0	0
1489	5.5	-0.014	0	0	5.5	-0.014	0	0
1490	5.5	-0.01	0	0	5.5	-0.01	0	0
1491	5.5	0.001	-2e-05	0	5.5	0.001	-2e-05	0
1492	6	-0.05	6e-05	0	6	-0.05	6e-05	0
1493	6	-0.048	4e-05	0	6	-0.048	4e-05	0
1494	6	-0.045	4e-05	0	6	-0.045	4e-05	0
1495	6	-0.042	6e-05	0	6	-0.042	6e-05	0
1496	6	-0.041	6e-05	0	6	-0.041	6e-05	0
1497	6	-0.039	6e-05	0	6	-0.039	6e-05	0
1498	6	-0.033	4e-05	0	6	-0.033	4e-05	0
1499	6	-0.032	2e-05	0	6	-0.032	2e-05	0
1500	6	-0.028	2e-05	0	6	-0.028	2e-05	0
1501	6	-0.027	2e-05	0	6	-0.027	2e-05	0
1502	6	-0.026	2e-05	0	6	-0.026	2e-05	0
1503	6	-0.026	4e-05	0	6	-0.026	4e-05	0
1504	6	-0.025	2e-05	0	6	-0.025	2e-05	0
1505	6	-0.024	2e-05	0	6	-0.024	2e-05	0
1506	6	-0.02	0	0	6	-0.02	0	0
1507	6	-0.016	0	0	6	-0.016	0	0
1508	6	-0.015	0	0	6	-0.015	0	0
1509	6	-0.012	0	0	6	-0.012	0	0
1510	6	-0.011	0	0	6	-0.011	0	0
1511	6	-0.01	0	0	6	-0.01	0	0
1512	6	-0.009	0	0	6	-0.009	0	0
1513	6	-0.007	-2e-05	0	6	-0.007	-2e-05	0
1514	6	-0.007	0	0	6	-0.007	0	0
1515	6.5	-0.037	4e-05	0	6.5	-0.037	4e-05	0
1516	6.5	-0.035	4e-05	0	6.5	-0.035	4e-05	0
1517	6.5	-0.034	4e-05	0	6.5	-0.034	4e-05	0
1518	6.5	-0.031	2e-05	0	6.5	-0.031	2e-05	0
1519	6.5	-0.03	2e-05	0	6.5	-0.03	2e-05	0
1520	6.5	-0.03	4e-05	0	6.5	-0.03	4e-05	0
1521	6.5	-0.028	2e-05	0	6.5	-0.028	2e-05	0
1522	6.5	-0.025	2e-05	0	6.5	-0.025	2e-05	0
1523	6.5	-0.019	2e-05	0	6.5	-0.019	2e-05	0
1524	6.5	-0.017	0	0	6.5	-0.017	0	0
1525	6.5	-0.017	2e-05	0	6.5	-0.017	2e-05	0
1526	6.5	-0.016	0	0	6.5	-0.016	0	0
1527	6.5	-0.004	0	0	6.5	-0.004	0	0
1528	7	-0.046	6e-05	0	7	-0.046	6e-05	0
1529	7	-0.044	4e-05	0	7	-0.044	4e-05	0
1530	7	-0.039	4e-05	0	7	-0.039	4e-05	0
1531	7	-0.038	4e-05	0	7	-0.038	4e-05	0
1532	7	-0.034	4e-05	0	7	-0.034	4e-05	0
1533	7	-0.028	2e-05	0	7	-0.028	2e-05	0
1534	7	-0.027	2e-05	0	7	-0.027	2e-05	0
1535	7	-0.025	2e-05	0	7	-0.025	2e-05	0
1536	7	-0.023	2e-05	0	7	-0.023	2e-05	0
1537	7	-0.022	2e-05	0	7	-0.022	2e-05	0
1538	7	-0.018	0	0	7	-0.018	0	0
1539	7	-0.016	0	0	7	-0.016	0	0
1540	7	-0.015	0	0	7	-0.015	0	0
1541	7	-0.015	2e-05	0	7	-0.015	2e-05	0
1542	7	-0.014	0	0	7	-0.014	0	0
1543	7.5	-0.056	6e-05	0	7.5	-0.056	6e-05	0
1544	7.5	-0.046	6e-05	0	7.5	-0.046	6e-05	0
1545	7.5	-0.045	4e-05	0	7.5	-0.045	4e-05	0
1546	7.5	-0.045	6e-05	0	7.5	-0.045	6e-05	0
1547	7.5	-0.044	6e-05	0	7.5	-0.044	6e-05	0
1548	7.5	-0.04	4e-05	0	7.5	-0.04	4e-05	0
1549	7.5	-0.039	4e-05	0	7.5	-0.039	4e-05	0
1550	7.5	-0.038	4e-05	0	7.5	-0.038	4e-05	0
1551	7.5	-0.033	2e-05	0	7.5	-0.033	2e-05	0
1552	7.5	-0.031	2e-05	0	7.5	-0.031	2e-05	0
1553	7.5	-0.03	2e-05	0	7.5	-0.03	2e-05	0
1554	7.5	-0.028	2e-05	0	7.5	-0.028	2e-05	0
1555	7.5	-0.026	2e-05	0	7.5	-0.026	2e-05	0
1556	7.5	-0.025	2e-05	0	7.5	-0.025	2e-05	0
1557	7.5	-0.024	2e-05	0	7.5	-0.024	2e-05	0
1558	7.5	-0.017	0	0	7.5	-0.017	0	0
1559	7.5	-0.013	0	0	7.5	-0.013	0	0
1560	8	-0.048	4e-05	0	8	-0.048	4e-05	0
1561	8	-0.047	4e-05	0	8	-0.047	4e-05	0
1562	8	-0.045	6e-05	0	8	-0.045	6e-05	0
1563	8	-0.042	4e-05	0	8	-0.042	4e-05	0
1564	8	-0.038	4e-05	0	8	-0.038	4e-05	0
1565	8	-0.033	2e-05	0	8	-0.033	2e-05	0
1566	8	-0.029	2e-05	0	8	-0.029	2e-05	0
1567	8	-0.024	2e-05	0	8	-0.024	2e-05	0
1568	8	-0.023	0	0	8	-0.023	0	0
1569	8	-0.019	0	0	8	-0.019	0	0
1570	8	-0.016	0	0	8	-0.016	0	0
1571	8	-0.013	0	0	8	-0.013	0	0
1572	8	-0.011	0	0	8	-0.011	0	0
1573	8.5	-0.061	8e-05	0	8.5	-0.061	8e-05	0
1574	8.5	-0.056	6e-05	0	8.5	-0.056	6e-05	0
1575	8.5	-0.049	6e-05	0	8.5	-0.049	6e-05	0
1576	8.5	-0.046	4e-05	0	8.5	-0.046	4e-05	0
1577	8.5	-0.045	4e-05	0	8.5	-0.045	4e-05	0
1578	8.5	-0.043	4e-05	0	8.5	-0.043	4e-05	0
1579	8.5	-0.039	4e-05	0	8.5	-0.039	4e-05	0
1580	8.5	-0.037	4e-05	0	8.5	-0.037	4e-05	0
1581	8.5	-0.036	2e-05	0	8.5	-0.036	2e-05	0
1582	8.5	-0.029	2e-05	0	8.5	-0.029	2e-05	0
1583	8.5	-0.027	2e-05	0	8.5	-0.027	2e-05	0
1584	8.5	-0.026	2e-05	0	8.5	-0.026	2e-05	0
1585	8.5	-0.024	2e-05	0	8.5	-0.024	2e-05	0
1586	8.5	-0.023	0	0	8.5	-0.023	0	0
1587	8.5	-0.02	2e-05	0	8.5	-0.02	2e-05	0
1588	8.5	-0.017	0	0	8.5	-0.017	0	0
1589	9	-0.058	6e-05	0	9	-0.058	6e-05	0
1590	9	-0.052	6e-05	0	9	-0.052	6e-05	0
1591	9	-0.05	6e-05	0	9	-0.05	6e-05	0
1592	9	-0.047	4e-05	0	9	-0.047	4e-05	0
1593	9	-0.046	4e-05	0	9	-0.046	4e-05	0
1594	9	-0.043	4e-05	0	9	-0.043	4e-05	0
1595	9	-0.041	4e-05	0	9	-0.041	4e-05	0
1596	9	-0.039	4e-05	0	9	-0.039	4e-05	0
1597	9	-0.038	4e-05	0	9	-0.038	4e-05	0
1598	9	-0.037	2e-05	0	9	-0.037	2e-05	0
1599	9	-0.033	2e-05	0	9	-0.033	2e-05	0
1600	9	-0.032	2e-05	0	9	-0.032	2e-05	0
1601	9	-0.031	2e-05	0	9	-0.031	2e-05	0
1602	9	-0.03	2e-05	0	9	-0.03	2e-05	0
1603	9	-0.024	2e-05	0	9	-0.024	2e-05	0
1604	9	-0.02	0	0	9	-0.02	0	0
1605	9.5	-0.054	6e-05	0	9.5	-0.054	6e-05	0
1606	9.5	-0.053	6e-05	0	9.5	-0.053	6e-05	0
1607	9.5	-0.052	6e-05	0	9.5	-0.052	6e-05	0
1608	9.5	-0.051	4e-05	0	9.5	-0.051	4e-05	0
1609	9.5	-0.05	6e-05	0	9.5	-0.05	6e-05	0
1610	9.5	-0.045	4e-05	0	9.5	-0.045	4e-05	0
1611	9.5	-0.039	4e-05	0	9.5	-0.039	4e-05	0
1612	9.5	-0.036	4e-05	0	9.5	-0.036	4e-05	0
1613	9.5	-0.034	2e-05	0	9.5	-0.034	2e-05	0
1614	9.5	-0.032	2e-05	0	9.5	-0.032	2e-05	0
1615	9.5	-0.031	2e-05	0	9.5	-0.031	2e-05	0
1616	9.5	-0.03	2e-05	0	9.5	-0.03	2e-05	0
1617	9.5	-0.029	2e-05	0	9.5	-0.029	2e-05	0
1618	9.5	-0.026	0	0	9.5	-0.026	0	0
1619	9.5	-0.023	0	0	9.5	-0.023	0	0
1620	9.5	-0.023	2e-05	0	9.5	-0.023	2e-05	0
1621	9.5	-0.022	0	0	9.5	-0.022	0	0
1622	9.5	-0.021	0	0	9.5	-0.021	0	0
1623	10	-0.065	8e-05	0	10	-0.065	8e-05	0
1624	10	-0.048	4e-05	0	10	-0.048	4e-05	0
1625	10	-0.047	4e-05	0	10	-0.047	4e-05	0
1626	10	-0.042	4e-05	0	10	-0.042	4e-05	0
1627	10	-0.041	4e-05	0	10	-0.041	4e-05	0
1628	10	-0.039	2e-05	0	10	-0.039	2e-05	0
1629	10	-0.035	2e-05	0	10	-0.035	2e-05	0
1630	10	-0.034	2e-05	0	10	-0.034	2e-05	0
1631	10	-0.032	2e-05	0	10	-0.032	2e-05	0
1632	10	-0.027	2e-05	0	10	-0.027	2e-05	0
1633	10	-0.025	0	0	10	-0.025	0	0
